svm_type c_svc
kernel_type linear
nr_class 10
total_sv 313
rho -2.27448 -2.42255 -3.07155 -2.58458 -1.79887 -2.39459 -3.51453 -2.41618 -2.16797 -0.322754 0.478766 -0.231104 -0.553552 -0.437995 -0.811453 -0.932902 0.388617 0.782851 0.140484 0.0248116 0.0420433 0.252636 -0.566792 0.563862 -0.966374 -0.913034 -0.780161 -1.62455 -1.1545 -0.505246 -0.272675 -0.365262 -0.138329 -0.565886 0.428282 0.0213639 -0.00499633 -0.364481 0.498081 0.354272 -0.310573 0.75918 -0.696174 0.648443 0.855965
label 0 20600 22220 22400 23900 24000 27453 28300 28600 30600
probA -3.82264 -4.19745 -3.71331 -4.32391 -4.24727 -4.66599 -3.97618 -3.74961 -5.13467 -4.99652 -4.56024 -4.64609 -4.30985 -4.74436 -4.38475 -4.22841 -5.17108 -4.78027 -4.4127 -3.68286 -4.91142 -4.22683 -4.07518 -3.81918 -4.45458 -4.68543 -4.76943 -3.95117 -3.7383 -5.69574 -3.43854 -4.61175 -3.92239 -3.54513 -4.79972 -14.2054 -3.1792 -2.48996 -2.00001 -4.15956 -4.11417 -4.3367 -3.21689 -3.44539 -2.73942
probB -0.653454 -0.0421926 0.352019 -0.328538 -0.394831 -0.0345705 -0.27297 -0.915462 0.587647 -0.249511 -0.391055 -0.409266 -1.06127 -0.204114 -0.659524 -1.08712 -0.232204 0.246042 -0.296956 -1.38676 0.0399156 -0.644383 -1.03061 -0.968126 -0.406789 -0.342542 0.265348 -0.491447 -0.959598 1.46238 -0.864797 0.543182 -0.282854 -0.695907 0.759381 -10.2332 0.440018 0.509048 0.10213 -0.610933 -1.07419 -0.894138 -0.140014 0.340831 -0.265408
nr_sv 124 37 22 40 19 2 32 22 11 4
SV
0 0 0 0 0 0 0 0 0.03742895908685568 0:0.0769641 1:0.203043 2:0.180361 3:0.0966407 4:0.0827222 5:0.106706 6:0.0673617 7:0.103072 8:0.331423 9:0.192463 10:0.254056 11:0.0657051 12:0.400019 13:0.257228 14:0.18676 15:0.0175961 16:0.113016 17:0.0655731 18:0.0518633 19:0.0751638 20:0.198779 21:0.0594334 22:0.133441 23:0.0628413 24:0.370167 25:0.237456 26:0.363535 27:0.0291063 28:0.0572331 29:0.0246084 30:0.165946 31:0.106998 32:0.169617 33:0.0011692 34:0.108457 35:0.3267 36:0.414718 37:0.0417871 38:0.228688 39:0.0911636 40:5.63699e-006 41:0.00189416 42:0.00508397 43:0.0752487 44:0.00718142 45:0.00894461 46:0.00383026 47:0.0858628 48:0.238068 50:0.00174965 51:0.0101777 52:0.0293972 53:0.0158966 54:0.0579872 55:0.286285 56:0.104909 57:0.0408199 58:0.192786 59:0.131192 60:0.287388 61:0.0211843 62:0.0535308 63:0.0238598 64:0.189302 65:0.216435 66:0.136887 67:0.00786499 68:0.228897 69:0.111688 70:0.0686281 71:0.0813471 72:0.0828005 73:0.110992 74:0.0105852 75:0.149907 76:0.190054 77:0.206455 78:0.0560988 79:0.0871539 80:0.0353056 81:0.0530343 82:0.360561 83:0.314372 84:0.388565 85:0.397847 86:0.0363784 87:0.0775194 88:0.130287 89:0.438858 90:0.0121096 91:0.243252 92:0.33949 93:0.458759 94:0.389118 95:0.140556 96:0.260443 97:0.330912 98:0.39594 99:0.0254793 100:0.304459 101:0.0200829 102:0.0883676 103:0.0735396 104:0.0275675 105:0.109749 106:0.0606352 107:0.0515639 108:0.199863 109:0.0428045 110:0.0353924 111:0.363535 112:0.00217522 113:0.177501 114:0.158374 115:0.0980652 116:0.514838 117:0.0663669 118:0.109224 119:0.0477414 120:0.058056 121:0.159296 122:0.247994 123:0.119785 124:0.0727826 125:0.147308 126:0.0751319 127:0.120207 128:0.0163112 130:0.100942 131:0.0214853 132:0.0852675 133:0.0924906 134:0.0693207 135:0.138762 136:0.0443874 137:0.0602388 138:0.136555 139:0.144661 140:0.373037 141:0.316816 142:0.145018 143:0.0709772 144:0.415608 145:0.0996068 146:0.014325 147:0.279944 148:0.184244 149:0.151414 150:0.0927264 151:0.11237 152:0.147187 153:0.113462 154:0.0177026 155:0.0370657 156:0.00605799 157:0.284037 158:0.288647 159:0.027277 160:0.03016 161:0.363535 162:0.244682 163:0.112105 164:0.17538 165:0.0247939 166:0.0794568 167:0.517285 168:0.202493 169:0.0813471 170:0.377789 171:0.180133 172:0.0933433 173:0.0443357 174:0.0723828 175:0.100759 176:0.105937 177:0.0684308 178:0.08878 179:0.427791 180:0.0307449 181:0.00652009 182:0.0234475 183:0.0492334 184:0.147399 185:0.156372 186:0.0989966 187:0.0219137 188:0.0328246 189:0.0727396 190:0.0158328 191:0.143378 192:0.0572331 193:0.00906045 194:0.0381645 195:0.0717319 196:0.376488 197:0.256452 198:0.013398 199:0.00704501 
0 0 0 0.04258440828562828 0 0 0 0 0 0:0.000383182 1:0.290627 3:0.132548 4:0.121568 5:0.00268227 6:0.535071 7:0.42092 8:0.378754 9:0.0698586 10:0.00156619 11:0.182775 12:0.378754 13:0.0152424 15:0.0411495 16:0.131987 17:0.190919 18:0.0419622 19:0.0499049 20:0.250841 21:0.0258571 22:0.0489878 23:0.00728992 24:0.342637 26:0.419276 27:0.0410762 28:0.376216 29:0.000473621 30:0.234621 31:0.20333 32:0.161194 33:0.0352758 34:0.0301303 35:0.0240266 36:0.00730243 38:0.105097 39:0.0614292 40:0.119473 41:0.0126153 42:0.000448303 43:0.0114307 44:0.060323 45:0.00403663 46:0.00356605 47:0.112644 49:0.411626 50:0.25427 51:0.0322924 53:0.167094 54:0.211514 56:0.390549 57:0.00709041 58:0.0951518 61:0.0167173 63:0.02725 64:0.355429 65:0.00594337 66:0.0432451 67:0.150441 68:0.281933 69:0.0528162 70:0.204511 71:0.0663719 72:0.221767 73:0.0700458 74:0.372025 75:0.390549 76:0.287206 77:0.0745507 78:0.0137496 79:0.0294215 80:0.321889 82:0.393391 83:0.370448 84:0.378754 85:0.373495 86:0.410771 87:0.259984 88:0.0194964 89:0.000269873 90:0.0130001 91:0.50393 93:0.309019 94:0.182502 95:0.0198045 96:0.0252134 97:0.0921342 98:0.162397 99:0.0294155 100:0.436727 101:0.100835 102:0.0613603 103:0.0286306 104:0.0561973 105:0.00973359 106:0.436112 107:0.389901 108:0.00147704 109:0.255518 111:0.419276 112:0.0471536 113:0.0545008 114:0.00128148 115:0.00880053 116:0.0479229 117:0.212296 118:0.174825 119:0.0780025 120:0.264015 121:0.0352434 122:0.0138285 123:0.0416321 124:6.76602e-005 126:0.101997 127:0.0564774 128:0.0196005 129:0.37097 130:0.388211 131:0.000221738 132:0.00629624 133:0.214852 134:0.0103449 135:0.212645 136:0.10287 137:0.0208776 138:0.130967 139:0.0855573 140:0.243839 141:0.252452 142:0.102709 143:0.588323 144:0.0436491 146:0.211792 147:0.00807269 148:0.50393 149:0.0824249 151:0.0654814 152:0.393391 153:0.436112 154:0.333838 155:0.417272 156:0.21524 157:0.00223341 159:0.410771 160:0.073001 161:0.419276 162:0.0383615 163:0.0344907 164:0.0666783 165:0.0211828 166:0.0035665 167:0.0655304 168:0.0869758 169:0.300307 170:6.59332e-005 171:0.000713824 172:0.2197 173:0.389699 174:0.372025 175:0.365811 177:0.106112 178:0.413767 179:0.234506 180:0.21395 181:0.347998 182:0.382065 183:0.168697 184:0.412511 185:0.111248 186:0.108558 187:0.0862539 188:0.000144588 189:0.0211691 190:0.106522 191:0.0707292 192:0.0406423 193:0.0954125 194:0.515259 195:0.385007 196:0.00738372 197:0.0300913 198:0.000238335 199:0.00635635 
0.04676398330714433 0 0 0 0 0 0 0 0 0:0.00635903 1:0.159544 2:0.00393152 3:0.0115031 4:0.0975547 5:0.00725106 6:0.344424 7:0.176135 8:0.389479 9:0.248307 10:0.00835551 11:0.104337 12:0.389479 13:0.00599928 14:0.000134689 15:0.00584253 16:0.0632265 17:0.224953 18:0.00359888 19:0.198397 20:0.240766 21:0.014098 22:0.080368 23:0.00439266 24:0.389733 25:0.00134243 26:0.452005 27:0.0432421 28:0.0665107 29:0.00428704 30:0.37937 31:0.127009 32:0.058209 33:0.00413329 34:0.00137228 35:0.0525314 36:0.00541801 37:8.70643e-005 38:0.303174 39:0.000879355 40:0.0137718 41:0.012444 42:0.00229175 43:0.000464869 44:0.022116 45:0.00426218 47:0.170587 48:5.55901e-005 49:0.43342 50:0.419778 51:0.0422739 52:0.00705143 53:0.112239 54:0.176886 55:0.000304852 56:0.366834 57:0.000416878 58:0.0973367 59:0.0487426 60:0.00223557 61:0.0233441 62:0.00822424 63:0.00599982 64:0.399227 66:0.00434292 67:0.044679 68:0.0747546 69:0.128191 70:0.0526297 71:0.134647 72:0.0592395 73:0.130559 74:0.283525 75:0.366834 76:0.35048 77:0.106465 78:0.00190627 79:0.0279755 80:0.242652 81:0.00145098 82:0.366921 83:0.389479 84:0.389479 85:0.42251 86:0.403037 87:0.456918 88:0.113847 89:0.00220174 90:0.00560761 91:0.474785 92:0.00060945 93:0.298852 94:0.084292 95:0.0209304 96:0.0617426 97:0.0550775 98:0.0944166 99:0.0408867 100:0.247829 101:0.168744 102:0.0909435 103:0.0143067 104:0.0705396 105:0.00724566 106:0.426999 107:0.404538 109:0.239085 111:0.452005 112:0.0678295 113:0.096256 114:4.79258e-005 115:0.0317482 116:0.211723 117:0.0713692 118:0.0470031 119:0.110067 120:0.0970399 121:0.0419825 122:0.0127337 123:0.0435228 124:0.000189357 125:0.00200289 126:0.119944 127:0.00816078 128:0.390541 129:0.111628 130:0.399227 131:0.000152583 133:0.264562 134:0.0572387 135:0.331805 136:0.0722455 137:0.0454688 138:0.00103457 139:0.0775543 140:0.296849 141:0.0180905 142:0.0146687 143:0.315417 144:0.0494637 145:0.000780526 146:0.337169 147:0.000475481 148:0.474785 149:0.329067 150:0.000770062 151:0.332132 152:0.355762 153:0.426999 154:0.239783 155:0.405205 156:0.181982 157:0.00158698 159:0.403037 160:0.03208 161:0.452005 162:0.0150699 163:0.00548022 164:0.052675 165:0.0340783 166:0.000178727 167:0.0567105 168:0.143876 169:0.200992 170:8.5051e-005 172:0.212854 173:0.38224 174:0.376327 175:0.374692 177:0.220224 178:0.390541 179:0.0400743 180:0.318834 181:0.184611 182:0.34915 183:0.0694377 184:0.415898 185:0.112955 186:0.19742 187:0.091119 188:0.0182973 189:0.0120686 190:0.384518 191:0.240092 192:0.0990689 193:0.082308 194:0.485928 195:0.355885 196:0.0130348 197:0.0178634 198:0.0239947 199:0.00794988 
0 0 0 0.05512417720922352 0 0 0 0 0 1:0.0911348 2:0.0315989 3:0.00595633 4:0.102858 6:0.148878 7:0.122623 8:0.355895 9:0.234098 10:0.0438434 11:0.180246 12:0.123585 13:0.000862807 14:0.00301544 16:0.066611 17:0.495357 18:1.16868e-005 19:0.121218 20:0.150036 21:0.000214879 22:0.00240582 23:0.00610922 24:0.391714 25:0.00425711 26:0.398237 27:0.0788092 28:0.289156 29:0.0202967 30:0.179326 31:0.420506 32:0.0461348 33:0.0391388 34:0.0032543 35:0.140559 36:0.0348427 37:0.00244708 38:0.172344 39:0.01758 40:0.0963976 41:0.0176748 42:0.0248706 44:0.071973 45:0.000746991 46:0.00264627 47:0.336718 48:4.81788e-005 49:0.424004 50:0.428099 51:0.0750447 53:0.0363745 54:0.0743222 55:0.00546223 56:0.382891 57:0.0944278 58:0.227915 59:0.191533 60:0.00722754 61:0.0114414 62:0.0204835 63:0.391714 64:0.388372 65:0.00120745 66:0.00341291 67:0.0120328 68:0.383435 69:0.0397081 70:0.152395 71:0.0767844 72:0.138094 73:0.13179 74:0.172254 75:0.382891 76:0.402586 77:0.0842427 78:0.00080398 79:0.0210637 80:0.180932 81:0.000820571 82:0.360802 83:0.355895 84:0.355895 85:0.311783 86:0.365212 87:0.30121 88:0.134305 89:0.00633005 90:0.0407785 91:0.54532 92:0.00483329 93:0.39444 94:0.000570508 95:9.54029e-005 96:0.00206097 97:0.00022048 98:0.00262552 99:0.00410738 100:0.271181 101:0.0686569 102:0.0865989 103:0.00310449 104:0.0806257 105:0.0192458 106:0.497123 107:0.319358 108:0.000870286 109:0.365212 110:0.0035502 111:0.398237 112:0.0124678 113:0.00423261 114:0.00022696 115:0.00810641 116:0.11227 117:0.192461 118:0.0682868 119:0.133044 120:0.320098 121:0.0710812 122:0.00372541 123:0.0230754 124:0.0101008 125:0.0234434 126:0.0618659 127:0.0183672 128:0.0920208 129:0.0104172 130:0.388372 131:0.00149622 132:0.000262594 133:0.383834 134:0.000371718 135:0.178883 136:0.0496124 137:0.0152666 138:0.0466721 139:0.122793 140:0.205142 141:0.176016 142:0.0422313 143:0.499576 144:0.105107 145:0.00525174 146:0.318872 147:0.00381728 148:0.353464 149:0.0343307 150:0.000400777 151:0.0220814 152:0.301066 153:0.497123 154:0.264786 155:0.373718 156:0.354292 158:0.00156 159:0.308301 160:0.010642 161:0.398237 162:0.0596081 163:0.00460827 164:0.0104068 165:0.0422253 166:0.000751565 167:0.173281 168:0.188177 169:0.148528 170:0.00749236 171:0.000626374 172:0.419874 173:0.378154 174:0.429259 175:0.353485 176:0.000328971 177:0.151279 178:0.38202 179:0.260938 180:0.27216 181:0.109837 182:0.42457 183:0.204585 184:0.383834 185:0.0177457 186:0.17755 187:0.0668506 189:0.030293 190:0.0476271 191:0.300489 192:0.0954269 193:0.15262 194:0.269251 195:0.390862 196:0.0311866 197:0.027206 198:0.0456078 199:0.0295281 
0 0 0 0 0 0 0 0 0.4815329275440018 0:0.045667 1:0.232386 2:0.0236294 3:0.0881405 4:0.102052 5:0.00181649 6:0.109556 7:0.0847279 8:0.0552834 9:0.288694 10:0.00792795 11:0.0555139 12:0.0499474 13:0.041086 14:0.0189648 15:0.216891 16:0.0767893 17:0.330086 18:0.267403 19:0.1145 20:0.315723 21:0.0971456 22:0.00864687 23:0.052059 24:0.235124 25:0.0153104 26:0.0397488 27:0.187472 28:0.163905 29:0.0222107 30:0.166679 31:0.154663 32:0.00436814 33:0.1699 34:0.221496 35:0.0582351 36:0.0347361 37:0.00299949 38:0.456821 39:0.109622 40:0.325513 41:0.0270253 42:0.0966706 43:0.220956 44:0.169767 45:0.00184261 46:0.00597587 47:0.130855 48:0.0528415 49:0.40844 50:0.441188 51:0.0518616 52:0.0101539 53:0.0477998 54:0.0782312 55:0.0524331 56:0.255194 57:0.145173 58:0.0261183 59:0.191964 60:0.0542326 61:0.19382 62:0.0621536 63:0.148732 64:0.0339604 65:0.16645 66:0.102318 67:0.0988224 68:0.000383242 69:0.211853 70:0.0182942 71:0.196192 72:0.00819452 73:0.0263368 75:0.0437798 76:0.192513 77:0.331147 78:0.0995127 79:0.0317675 80:0.0150996 81:0.183943 82:0.173101 83:0.110052 84:0.230211 85:0.158284 86:0.184584 87:0.0804181 88:0.175178 89:0.0518372 90:0.0841005 91:0.780546 92:0.0269433 93:0.388526 94:0.292216 95:0.0681669 96:0.0656306 97:0.609772 98:0.609772 99:0.00291453 100:0.0649659 101:0.0282233 102:0.10575 103:0.0497953 104:0.0714101 105:0.0456217 106:0.334966 107:0.131424 108:0.0566139 109:0.141169 110:0.00222244 111:0.13408 112:0.0307539 113:0.0440932 114:0.0533896 115:0.178247 116:0.355775 117:0.059563 118:0.0253012 119:0.295639 121:0.115004 122:0.242018 123:0.159862 124:0.0880083 125:0.0233296 126:0.177834 127:0.125712 128:0.327976 129:0.0738829 130:0.0488917 131:0.0025593 132:0.234012 133:0.0180837 134:0.0543453 135:0.124411 136:0.153733 137:0.0499185 138:0.0398784 139:0.138476 140:0.37962 141:0.066238 142:0.107553 143:0.234616 144:0.0509638 145:0.0813363 146:0.0770386 147:0.00681339 148:0.0967175 149:0.12004 150:0.0790943 151:0.0643501 152:0.242412 153:0.236114 154:0.218703 155:0.359752 156:0.102773 157:0.00682218 158:0.0470068 159:0.300594 160:0.020325 161:0.287167 162:0.0222697 163:0.146337 164:0.0562674 165:0.0189872 166:0.0843838 167:0.247088 168:0.297957 169:0.150089 170:0.187829 171:0.137545 172:0.148645 173:0.0034367 174:0.372342 175:0.0416745 176:0.0559579 177:0.0273624 178:0.0843547 179:0.300977 180:0.313815 181:0.237177 182:0.388823 183:0.143506 184:0.00714394 185:0.226413 186:0.0965196 187:0.125307 188:0.00159301 189:0.0230952 190:0.102195 191:0.00268269 192:0.163905 193:0.127591 194:0.158906 195:0.165891 196:0.0941876 197:0.112362 198:0.288956 199:0.00415016 
0 0 0.2297116951743349 0 0 0 0 0 0 0:0.00452995 1:0.126515 2:0.0180652 3:0.0793796 4:0.0749611 5:0.000647136 6:0.187193 7:0.192878 8:0.348045 9:0.143137 10:0.013373 11:0.0851628 12:0.168449 14:0.00218097 15:0.00313673 16:0.0892992 17:0.103366 18:0.0407768 19:0.113907 20:0.240435 21:0.009819 22:0.0167144 23:0.00103217 24:0.298568 25:0.0019127 26:0.367213 27:0.292787 28:0.107257 29:0.0102314 30:0.168377 31:0.435634 32:0.0175263 33:0.0567313 34:0.0518726 35:0.0926239 36:0.0153582 37:0.00108719 38:0.113235 39:0.00989631 40:0.0985462 41:0.0579144 42:0.0349151 43:0.00179147 44:0.0158885 45:0.000282909 46:0.0127682 47:0.199184 49:0.413499 50:0.427307 51:0.052756 53:0.114901 54:0.0560935 55:0.00320107 56:0.3952 57:0.0932162 58:0.0609279 59:0.171958 60:0.00262783 61:0.0207187 62:0.00223979 63:0.37601 64:0.387645 65:0.00069004 66:0.00273666 67:0.0344919 68:0.264775 69:0.112611 70:0.0473876 71:0.0919562 72:0.152168 73:0.0492517 74:0.359699 75:0.3952 76:0.368411 77:0.0526964 78:0.00447337 79:0.0105063 80:0.201275 81:0.000308524 82:0.356306 83:0.348045 84:0.348045 85:0.357381 86:0.380142 87:0.265265 88:0.128343 89:0.00161757 90:0.00633118 91:0.528405 92:0.00181198 93:0.399886 95:0.000448888 96:0.000138296 97:0.000100022 98:0.00276196 99:0.0076737 100:0.178852 101:0.0838673 102:0.0313615 103:0.0167407 104:0.016564 105:0.0027371 106:0.415625 107:0.37601 108:0.000784446 109:0.380142 110:0.00578737 111:0.367213 112:0.00615031 113:0.0320721 114:0.00711068 115:0.0209023 116:0.132813 117:0.221107 118:0.112791 119:0.0605532 120:0.0867387 121:0.103552 122:0.0191806 123:0.0296967 124:0.00259848 125:0.00262851 126:0.131003 127:0.0140291 128:0.371021 129:0.00731803 130:0.387645 132:7.23885e-005 133:0.243196 134:0.082276 135:0.0843708 136:0.057287 137:0.0131428 138:0.120166 139:0.0714455 140:0.195125 141:0.0906819 142:0.0270666 143:0.522431 144:0.0458823 145:0.00448508 146:0.252548 147:0.0147489 148:0.528405 149:0.0294452 151:0.0188 152:0.31428 153:0.415625 154:0.314741 155:0.366616 156:0.297479 157:0.000137177 158:0.000484984 159:0.294503 160:0.00841518 161:0.30861 162:0.0754501 163:0.00656623 164:0.028386 165:0.0131344 166:0.000261945 167:0.137683 168:0.100799 169:0.0980363 170:0.00165265 172:0.253619 173:0.373193 174:0.400558 175:0.408587 177:0.0808735 178:0.396249 179:0.172687 180:0.187857 181:0.0896687 182:0.37309 183:0.257029 184:0.388482 185:0.00212057 186:0.0983159 187:0.11757 189:0.051042 190:0.323188 191:0.200742 192:0.0835635 193:0.0290778 194:0.183133 195:0.384023 196:0.0105342 197:0.0211053 198:0.00185681 199:0.00730092 
0 0.2018539287175012 0.1638726047450799 0.2938197302046797 0 0 0.02150464822416577 0.3001221622355499 0 0:0.12165 1:0.20493 2:0.0883521 3:0.391289 4:0.208063 5:0.221532 6:0.174293 7:0.048871 8:0.171656 9:0.161296 10:0.421762 11:0.163941 12:0.160797 13:0.387922 14:0.0147548 15:0.0234476 16:0.11619 17:0.00492998 18:0.128678 19:0.00153385 20:0.00349955 21:0.0281084 22:0.318216 23:0.253001 24:0.101686 25:0.140519 26:0.112159 27:0.0175859 28:0.00855016 29:0.16133 30:0.160324 31:0.121608 32:0.0463772 33:0.0669216 34:0.186173 35:0.471545 36:0.307492 37:0.458338 38:0.0847933 39:0.249663 40:0.105456 41:0.14559 42:0.182515 43:0.113403 44:0.0557656 45:0.0532508 46:0.0708067 47:0.0031865 48:0.42992 49:0.27396 50:0.481259 51:0.0514441 52:0.169031 53:0.0894579 54:0.00272125 55:0.0362038 56:0.0401418 57:0.039285 58:0.450979 59:0.176958 60:0.198888 61:0.0869909 62:0.239613 63:0.190617 64:0.0474828 65:0.0261194 66:0.0164635 67:0.022167 68:0.3144 69:0.0094609 70:0.450979 71:0.00106699 72:0.0615436 73:0.301627 74:0.440164 75:0.0706925 76:0.134588 77:0.0305161 78:0.028501 79:0.161418 80:0.00828196 81:0.227769 82:0.0192915 83:0.0496955 84:0.125003 85:0.0707931 86:0.0428996 87:0.0113842 88:0.163003 89:0.248859 90:0.383317 91:0.0151417 92:0.247505 93:0.0214394 94:0.0790556 95:0.106261 96:0.0226196 97:0.0125004 98:0.269198 99:0.0627112 100:0.147626 101:0.00168545 102:0.00759466 103:0.0223168 104:0.0520223 106:0.0729602 107:0.388234 108:0.212063 109:0.0129209 110:0.228626 111:0.0240835 112:0.0525687 113:0.269682 114:0.185771 115:0.0495214 116:0.126272 117:0.0320992 118:0.3243 119:0.0029706 120:0.325418 121:0.0417437 122:0.0228969 123:0.000456858 124:0.0919945 125:0.444515 126:0.0150402 127:0.0567 129:0.0854734 130:0.0186135 131:0.113681 132:0.0433607 133:0.17176 134:0.126159 135:0.0268378 136:0.0219576 137:0.100992 138:0.501387 139:0.0378834 140:0.0386969 141:0.501387 142:0.14366 143:0.0767498 144:0.231409 145:0.147482 146:0.0267719 147:0.0667929 148:0.0284734 149:0.149865 150:0.164091 151:0.139702 152:0.157155 153:0.0460363 154:0.103714 155:0.0125083 156:0.122069 157:0.178836 158:0.134284 159:0.0647961 160:0.055346 161:0.0317882 162:0.107415 163:0.387922 164:0.490507 165:0.0132314 166:0.184462 167:0.135629 168:0.110783 169:0.0718451 170:0.401185 171:0.199141 172:0.0100359 173:0.0166273 174:0.440164 175:0.09945 176:0.0543705 177:0.0534438 178:0.0227048 179:0.0918642 180:0.0669739 181:0.0412191 182:0.260814 183:0.0382772 184:0.0387026 185:0.00188651 186:0.0227151 187:0.154357 188:0.146189 189:0.121747 190:0.0528867 191:0.13845 192:0.00641601 193:0.025348 194:0.0274844 195:0.0999535 196:0.0982993 197:0.0133901 198:0.20041 199:0.401854 
0 0 0.238778679366088 0 0 0 0 0 0 0:0.013249 1:0.334828 3:0.0779505 4:0.0851675 5:0.00934371 6:0.404871 7:0.109245 8:0.145187 9:0.148776 11:0.108999 12:0.103807 13:0.0170706 14:0.0298419 15:0.0927338 16:0.231528 17:0.191062 18:0.0157568 19:0.0462279 20:0.312099 21:0.283648 22:0.0259556 24:0.327802 25:0.0138154 26:0.0260759 27:0.184567 28:0.0611305 29:0.0395279 30:0.0571487 31:0.260564 32:0.0346139 33:0.108324 34:0.00200859 35:0.0216717 36:0.0807419 37:0.0276608 38:0.171138 39:0.131644 40:0.343383 41:0.128261 42:0.278835 43:0.0132201 44:0.0897111 46:0.0269999 47:0.05294 49:0.462934 50:0.4412 51:0.0184464 52:0.0193356 53:0.237369 54:0.311569 56:0.0989643 57:0.245352 58:0.159247 59:0.0439362 60:0.0388434 61:0.00982921 62:0.0204836 63:0.336725 64:0.0648438 65:0.0308895 66:0.0251281 67:0.0188773 68:0.0757907 69:0.346949 70:0.103624 71:0.0377888 72:0.0914851 73:0.0511257 74:0.0502603 75:0.0665939 76:0.0180275 77:0.279525 78:0.0334162 79:0.0663338 80:0.214695 81:0.0438759 82:0.365423 83:0.0686843 84:0.141268 85:0.024519 86:0.215815 87:0.23588 88:0.0849674 89:0.00303191 90:0.175711 91:0.277744 92:0.0190017 93:0.0559661 94:0.059461 95:0.145581 96:0.0815752 97:0.292183 98:0.293444 100:0.0708094 101:0.0601293 102:0.0959063 103:0.0133569 104:0.0797174 105:0.225435 106:0.517706 107:0.200006 108:0.072134 109:0.477699 110:0.0292987 111:0.119581 112:0.00263072 113:0.0166026 114:0.00179915 115:0.000553518 116:0.494245 117:0.121354 118:0.105651 119:0.0872489 120:0.1038 121:0.0972611 122:0.117823 123:0.225965 124:0.0204489 126:0.212059 127:0.00898565 128:0.0258729 129:0.0437546 130:0.153849 131:0.0216652 132:0.0347531 133:0.344166 134:0.0380881 135:0.310473 136:0.0671019 138:0.0854174 139:0.115044 140:0.433069 141:0.0756621 142:0.207316 143:0.426946 144:0.0228936 145:0.184076 146:0.127416 147:0.321828 148:0.123396 149:0.123396 150:0.00810188 151:0.0680745 152:0.560044 153:0.28865 154:0.285353 155:0.100306 156:0.122864 157:0.0399935 158:0.0564837 159:0.211957 160:0.00460481 161:0.0270019 162:0.0961484 163:0.0606661 164:0.0690948 165:0.0340499 166:0.0157054 167:0.184567 168:0.318795 169:0.0459072 170:0.131563 171:0.00373585 172:0.34559 173:0.0465423 174:0.0588947 175:0.36576 176:0.00459466 177:0.143296 178:0.0555842 179:0.0165558 180:0.0108732 181:0.0221478 182:0.190718 183:0.114641 184:0.290684 185:0.0697014 186:0.333928 187:0.424373 188:0.0582108 189:0.0818699 190:0.0534928 191:0.0104355 192:0.0611305 193:0.192294 194:0.147753 195:0.333147 196:0.252411 197:0.116533 198:0.0813944 199:0.0395951 
0 0 0 0 0 0 0.02493720446096358 0 0 0:0.135949 1:0.0356688 2:0.0219822 3:0.306787 4:0.122056 5:0.0453795 6:0.0627897 7:0.0409428 8:0.222601 9:0.112543 10:0.0220195 11:0.148142 12:0.451243 13:0.116519 14:0.0428941 15:0.108973 17:0.312268 18:0.0477544 19:0.0802223 20:0.341791 21:0.13618 22:0.0516283 23:0.144009 24:0.0991843 25:0.042967 26:0.109626 27:0.113401 28:0.0286021 29:0.0092128 30:0.0444068 31:0.118764 32:0.199369 33:0.09469 34:0.107248 35:0.00872343 36:0.103452 37:0.044479 38:0.0797982 39:0.167169 40:0.0617235 41:0.212819 42:0.0118493 43:0.108788 44:0.380273 45:0.131306 46:0.0398074 47:0.0802223 48:0.275939 49:0.127244 50:0.0293088 51:0.155866 52:0.143244 54:0.341211 55:0.212357 56:0.133273 57:0.0563811 58:0.0386225 59:0.00870864 60:0.0286784 61:0.180711 62:0.188844 63:0.0181206 64:0.236438 65:0.0776961 66:0.217395 67:0.123 68:0.0563889 69:0.22523 70:0.158524 71:0.109538 72:0.0305478 74:0.0546336 75:0.0216052 76:0.296522 77:0.0200129 78:0.37928 79:0.0329315 80:0.185576 81:0.278315 82:0.283874 83:0.134742 84:0.154152 85:0.364136 86:0.383154 87:0.0473408 89:0.145788 90:0.00587341 91:0.312016 92:0.0752766 93:0.16009 94:0.214438 95:0.380903 96:0.0453537 97:0.00384245 98:0.0180097 99:0.0453142 100:0.0220301 101:0.4596 102:0.163899 103:0.219299 104:0.0456852 105:0.141752 106:0.197014 107:0.0638567 108:0.32666 109:0.0797588 110:0.278762 111:0.0155924 112:0.120115 113:0.136143 114:0.218829 115:0.228646 116:0.0991843 117:0.0331874 118:0.451318 119:0.360812 120:0.0579498 121:0.0770655 122:0.093173 123:0.141993 124:0.246743 125:0.154859 126:0.185892 127:0.186449 128:0.293184 129:0.00879577 130:0.277014 131:0.339753 132:0.0599408 133:0.1399 134:0.166416 135:0.0684689 136:0.0478355 137:0.0410123 138:0.467784 139:0.15807 140:0.00717849 141:0.143727 142:0.298279 143:0.0047433 144:0.199733 145:0.0286298 146:0.391835 147:0.125432 148:0.0508704 149:0.0540968 150:0.258306 151:0.030178 152:0.190788 153:0.146922 154:0.068332 155:0.0639175 156:0.0944598 157:0.0632311 158:0.300515 159:0.0495083 160:0.236438 161:0.0985441 162:0.00628005 163:0.223453 164:0.121783 165:0.23502 166:0.0779095 167:0.119021 168:0.0957725 169:0.102603 170:0.149847 171:0.157791 172:0.071117 173:0.155538 174:0.0545409 175:0.0571242 176:0.302408 177:0.234723 178:0.17077 179:0.0306411 180:0.114668 181:0.0458571 182:0.0616186 184:0.079188 185:0.0503834 186:0.252561 187:0.0874836 188:0.0154304 189:0.114673 190:0.0917413 191:0.0193355 192:0.0286021 193:0.163717 194:0.520202 195:0.0726301 196:0.0237454 197:0.0930149 198:0.175079 199:0.00922845 
0 0 0.03758898933057412 0 0 0 0 0 0 0:0.0485119 1:0.140164 2:0.143458 3:0.0337475 4:0.0870275 5:0.119654 6:0.162652 7:0.302508 8:0.137241 9:0.0595049 10:0.00248185 11:0.0440263 12:0.311289 13:0.174277 14:0.179858 15:0.0263378 16:0.105186 17:0.217994 18:0.0309644 19:0.147784 20:0.00547312 21:0.0543047 22:0.0838195 23:0.278444 24:0.0952815 25:0.0420897 26:0.155497 27:0.21493 28:0.0392103 29:0.0252789 30:0.155868 31:0.340591 32:0.25398 33:0.00538049 34:0.133753 35:0.00201487 36:0.00117437 37:0.0387834 38:0.0877375 39:0.147572 40:0.019969 42:0.252954 43:0.0803088 44:0.0498172 45:0.00273972 46:0.00284007 47:0.152044 48:0.137745 49:0.0961195 50:0.0279919 52:0.020091 53:0.035658 54:0.00822253 55:0.413554 57:0.140214 58:0.177838 59:0.076989 60:0.0182207 61:0.0972545 62:0.0974237 63:0.182866 64:0.0349997 65:0.107934 66:0.192758 67:0.00397235 68:0.171082 69:0.384691 70:0.128388 71:0.0913462 72:0.0407434 73:0.0544856 74:0.065051 75:0.0821685 76:0.139389 77:0.0255172 78:0.0133064 79:0.00822057 80:0.0107177 81:0.246388 82:0.299371 83:0.0797731 84:0.010987 85:0.217469 86:0.0711339 87:0.217307 88:0.0315916 90:0.106769 92:0.0123064 93:0.0157758 94:0.0785344 95:0.00843983 96:0.0674743 97:0.2963 98:0.485587 99:0.0493895 100:0.119556 101:0.0514974 102:0.0497223 103:0.00503983 104:0.0160472 105:0.0137042 106:0.0549942 107:0.255645 108:0.0917157 109:0.167103 110:0.00412888 111:0.241283 112:0.00152156 113:0.0886737 114:0.0874657 115:0.108609 116:0.0906423 117:0.244734 118:0.0373129 119:0.215299 120:0.128007 121:0.181487 122:0.00734217 123:0.00912187 124:0.168924 125:0.0816249 126:0.0060394 127:0.177743 128:0.321029 129:0.0646171 130:0.00898839 131:0.0537011 132:0.0156156 133:0.165543 134:0.00705281 135:0.444106 136:0.0660395 137:0.400567 138:0.0595817 139:0.162078 140:0.0808078 141:0.124644 142:0.181932 143:0.430678 144:0.0025316 145:0.091945 146:0.406158 147:0.114832 148:0.0639858 149:0.0889661 150:0.114084 151:0.123142 152:0.0703696 153:0.163271 154:0.0146583 155:0.138502 156:0.0558064 157:0.127004 158:0.0929411 159:0.0474829 160:0.0144469 161:0.0188108 162:0.184943 163:0.111315 164:0.0687175 165:0.00888009 166:0.0313977 167:0.203803 168:0.315243 169:0.0913462 170:0.0947133 171:0.0221146 173:0.276239 174:0.320958 175:0.14003 176:0.153461 177:0.00125718 178:0.0856893 179:0.040019 180:0.180565 181:0.0296075 182:0.0881637 183:0.38312 184:0.105213 185:0.101744 186:0.0437414 187:0.014328 188:0.0553319 189:0.210534 190:0.174085 191:0.298343 192:0.0392103 193:0.0299455 194:0.0388838 195:0.179829 196:0.0924371 197:0.010667 198:0.316799 199:0.0108788 
0 0 0 0.1146404195534805 0 0 0 0 0 0:0.078881 1:0.377712 2:0.0217648 3:0.0928788 4:0.414229 5:0.0636984 6:0.111915 7:0.063901 8:0.390032 9:0.0968505 10:0.0851605 11:0.10926 12:0.390032 13:0.0331583 14:0.0223356 15:0.277102 16:0.320472 17:0.333848 18:0.0570864 19:0.0683765 20:0.00513273 21:0.123279 22:0.0271087 23:0.334758 24:0.167222 25:0.0960174 26:0.409796 27:0.00115614 28:0.382466 29:0.00736525 30:0.149552 31:0.121484 32:0.374445 33:0.133199 34:0.0931971 35:0.104643 36:0.39259 37:0.153949 38:0.000517455 39:0.109407 40:0.336215 41:0.259083 42:0.0194512 43:0.13472 44:0.167952 45:0.0356346 46:0.172748 47:0.121843 48:0.0670069 49:0.373948 50:0.486902 51:0.0795897 52:0.098643 53:0.100285 54:0.00239722 55:0.236329 56:0.0168246 57:0.183379 58:0.0258865 59:0.0253782 60:0.193077 61:0.0786823 62:0.199018 63:0.0616555 64:0.469749 65:0.236022 66:0.43743 67:0.0824891 68:0.0194071 69:0.00485577 70:0.0193085 71:0.494759 73:0.000817413 74:0.204486 75:0.045759 76:0.312733 77:0.0967682 78:0.138952 79:0.39259 80:0.00248234 81:0.0385615 82:0.363984 83:0.237798 84:0.390032 85:0.387544 86:0.163321 87:0.119404 88:0.00913717 89:0.511096 90:0.00212479 92:0.327422 93:0.0425562 94:0.119834 95:0.0979607 96:0.0236707 97:0.138198 98:0.0823804 99:0.134479 100:0.0647539 101:0.316263 102:0.0048541 103:0.0174002 104:0.13516 105:0.0030169 106:0.265063 107:0.43429 108:0.0688631 109:0.16431 110:0.0828911 111:0.409796 112:0.117712 114:0.0267777 115:0.0275653 116:0.37159 117:0.0635419 118:0.0439247 119:0.122766 120:0.0501546 121:0.00349073 122:0.122477 123:0.0356143 124:0.131379 125:0.221968 126:0.00159067 127:0.0117629 128:0.0869419 129:0.102517 130:0.169355 131:0.010697 132:0.257361 133:0.0267269 134:0.0456453 135:0.266633 136:0.267838 137:0.127703 138:0.0628324 139:0.453265 140:0.0870948 141:0.0214701 142:0.00438698 143:0.0446631 144:0.457243 145:0.0249638 146:0.143055 147:0.00435472 148:0.180872 149:0.39259 150:0.0776331 151:0.169244 152:0.443351 153:0.321624 154:0.293833 155:0.133778 156:0.158707 157:0.0317453 158:0.0576327 159:0.100445 160:0.209887 161:0.409796 162:0.198084 163:0.0750189 164:0.127832 165:0.0114029 166:0.192304 169:0.494759 170:0.37826 171:0.422269 172:0.132877 173:0.178634 174:0.344709 175:0.0160321 176:0.123292 177:0.0440384 178:0.375657 179:0.0442379 180:0.153643 181:0.0805472 182:0.349484 183:0.0524841 184:0.0252831 186:0.000846882 187:0.528108 188:0.120608 189:0.0386638 190:0.0838562 191:0.0758394 192:0.409973 193:0.250769 194:0.025263 195:0.349569 196:0.303346 197:0.0212929 198:0.059828 199:0.0430304 
0.2756179809820578 0 0 0 0 0 0 0 0 0:0.0621722 1:0.225471 2:0.0143849 3:0.268123 4:0.190794 5:0.0357979 6:0.0927985 7:0.248485 8:0.218583 9:0.180943 10:0.020029 11:0.122509 12:0.159901 13:0.125271 14:0.00762257 15:0.0479709 16:0.0255373 17:0.102284 18:0.139441 19:0.0431231 20:0.138012 21:0.00845756 22:0.0707537 23:0.0514867 24:0.372215 25:0.0313519 26:0.237568 27:0.150931 28:0.136624 29:0.0123545 30:0.0530793 31:0.0313 32:0.00219987 33:0.0979072 34:0.0192709 35:0.0188033 36:0.000711181 37:0.0145616 38:0.243684 39:0.119826 40:0.359046 41:0.146193 42:0.000249015 43:0.0917977 44:0.0262634 45:0.0435514 46:0.054265 47:0.130999 48:0.0227166 49:0.290013 50:0.413218 51:0.377767 52:0.0199311 53:0.0129292 54:0.41839 55:0.0617183 56:0.281697 58:0.220656 59:0.00349545 60:0.0649432 61:0.0091413 62:0.0649807 63:0.00955247 64:0.163727 67:0.0615046 68:0.263351 69:0.00299526 70:0.509816 71:0.179836 72:0.296511 73:0.177073 74:0.052626 75:0.0594995 76:0.0881772 77:0.429792 78:0.0421256 79:0.00790273 80:0.191279 81:0.0876644 82:0.371979 83:0.413457 84:0.413457 85:0.160651 86:0.213101 87:0.0495405 88:0.00464544 89:0.0832473 90:0.146392 91:0.250677 92:0.019324 93:0.446908 94:0.0879662 95:0.278722 96:0.0718105 97:0.247687 98:0.391725 99:0.139731 100:0.315534 102:0.403663 103:0.00549539 104:0.116099 105:0.359775 106:0.395744 107:0.256987 108:0.0428247 109:0.0835454 111:0.395503 112:0.176395 113:0.0504806 114:0.0229337 115:0.0147735 116:0.125454 117:0.0699627 118:0.268399 119:0.0740648 120:0.326016 121:0.149273 122:0.0319503 123:0.0181105 124:0.10524 125:0.0634153 126:0.0965866 127:0.00266184 128:0.0374637 129:0.0541551 130:0.155824 131:0.00304722 132:0.00155934 133:0.0796876 134:0.0331901 135:0.00187345 136:0.132693 137:0.0548544 138:0.335419 139:0.0247715 140:0.320236 141:0.464654 142:0.0891853 143:0.403663 144:0.0200853 145:0.00151057 146:0.352667 147:0.28107 148:0.0747188 149:0.0546576 150:0.0346128 151:0.0597044 152:0.371979 153:0.395744 154:0.25041 155:0.408106 156:0.0818855 157:0.0352955 158:0.0275236 159:0.344813 160:0.0229883 161:0.395503 162:0.0368122 163:0.129835 164:0.0993354 165:0.123718 166:0.0364896 167:0.0761443 168:0.0693272 169:0.0997856 170:0.0450474 171:0.295368 172:0.0323488 173:0.159687 174:0.39267 175:0.13971 176:0.080584 177:0.254418 178:0.399737 179:0.0755861 180:0.167032 181:0.0577622 182:0.359046 183:0.0475201 184:0.0776724 185:0.081182 186:0.0491625 187:0.0198835 188:0.0402095 189:0.0303598 191:0.0859547 192:0.0705175 193:0.00568789 194:0.403663 195:0.252541 196:0.0555486 197:0.373388 198:0.233754 199:0.0209893 
0 0 0 0 0 0 0 0 0.09727938390578189 0:0.182691 1:0.0524553 2:0.00972271 3:0.0608747 4:0.0111388 5:0.0123436 6:0.364898 7:0.0167556 8:0.128044 9:0.186765 10:0.284015 11:0.117792 12:0.310531 13:0.0127062 15:0.159531 16:0.0689808 17:0.0411091 18:0.1357 19:0.00467463 20:0.0609193 21:0.200729 22:0.0440481 23:0.0607939 24:0.0527426 25:0.0184093 26:0.0496452 27:0.0709557 28:0.400884 29:0.0457995 30:0.173224 31:0.359929 32:0.039481 33:0.000710056 34:0.483884 35:0.410442 36:0.36609 37:0.0982801 38:0.350991 39:0.0994687 40:0.322263 41:0.381155 42:0.00270541 43:0.353805 45:0.106309 46:0.00188375 47:0.0500513 48:0.168703 49:0.00448413 50:0.432046 51:0.0139919 52:0.0166666 53:0.264576 55:0.0306707 56:0.159834 57:0.0483718 58:0.214904 59:0.063093 60:0.0825471 61:0.318902 62:0.374222 63:0.162354 65:0.0267222 66:0.0171321 67:0.00011328 68:0.283545 69:0.00473401 70:0.0698059 71:0.062013 72:0.00019589 73:0.0391124 74:0.246211 75:0.0750272 76:0.0439126 77:0.0987024 78:0.00489453 79:0.170266 81:0.15417 82:0.0908477 83:0.0476179 84:0.0380908 85:0.354832 86:0.0119373 87:0.00982572 88:0.246977 89:0.403217 90:0.0543321 91:0.185893 92:0.259624 93:0.0401266 94:0.0414797 95:0.029084 97:0.0116963 98:0.010193 99:0.0298431 100:0.0171857 101:0.024305 103:0.000104707 104:0.377315 106:0.0314012 107:0.360865 108:0.140057 109:0.0408916 110:0.276707 111:0.048048 112:0.162477 113:0.43003 114:0.414199 115:0.323232 116:0.0723254 117:0.0739175 118:0.115473 119:0.00202129 120:0.231527 121:0.0131415 123:0.00174065 124:0.108602 125:0.251969 126:0.0556663 127:0.0120052 128:0.0558319 129:0.051157 130:0.00212146 131:0.040529 133:0.082567 134:0.242281 135:0.164821 136:0.0271128 137:0.0113647 138:0.100909 139:0.0502663 140:0.0292348 141:0.075101 142:0.152737 144:0.410442 145:0.00330292 147:0.0534863 148:0.0431753 149:0.152711 150:0.214423 151:0.0788689 152:0.0915082 153:0.0431115 154:0.014697 155:0.173705 156:0.271602 157:0.000598905 158:0.0323998 159:0.300779 160:0.00171549 161:0.0328914 162:0.109382 163:0.0787817 164:0.0774147 165:0.00199885 166:0.0617533 167:0.240817 168:0.0193893 169:0.345733 170:0.286023 171:0.0924947 172:0.00577747 173:0.00012668 174:0.370647 175:0.125692 176:0.121638 177:0.0890033 178:0.215758 179:0.0570562 180:0.310241 181:0.139834 182:0.113539 183:0.171854 184:0.351766 185:0.0545779 186:0.0826069 187:0.108612 188:0.152222 189:0.118512 190:0.331195 191:0.0843356 192:0.165015 193:0.0336294 195:0.397681 196:0.0163086 198:0.418009 199:0.374222 
0 0 0.326782149253699 0 0.04060531019210288 0 0 0 0.1188078382678146 0:0.17584 1:0.0390463 2:0.119257 3:0.0441646 5:0.0154467 6:0.0201601 7:0.200775 8:0.313365 9:0.0821822 10:0.537538 11:0.000692962 12:0.132532 13:0.0848237 14:0.0881518 16:0.10556 17:0.0347412 18:0.0476852 20:0.0160923 22:0.0313546 23:0.0610946 24:0.0185672 25:0.215218 26:0.0813768 27:0.248346 28:0.0116831 29:0.0618551 30:0.0380206 31:0.0670942 32:0.0118783 33:0.230279 34:0.179677 35:0.511178 36:0.32047 37:0.0856386 38:0.207571 39:0.0649505 40:0.24272 41:0.172592 42:0.273111 43:0.141735 44:0.243412 45:0.0773767 46:0.106256 48:0.219454 49:0.00694408 50:0.148378 51:0.100456 52:0.0556006 53:0.0478727 54:0.00445597 55:0.262053 56:0.0989439 57:0.0487365 58:0.307147 59:0.163298 60:0.234655 61:0.041758 62:0.157629 63:0.0637486 64:0.368467 65:0.0196197 66:0.0400042 67:0.23323 68:0.060453 69:0.164351 70:0.403895 71:0.121481 72:0.254625 73:0.0701775 74:0.376574 75:0.15665 76:0.275212 77:0.180528 78:0.0144989 79:0.299291 80:0.01134 81:0.0691165 82:0.125816 83:0.0256553 84:0.155675 85:0.191728 86:0.00719285 87:0.00436294 88:0.0397204 89:0.227545 90:0.263009 91:0.0125897 92:0.171692 93:0.039005 94:0.00331738 95:0.0952813 96:0.0766413 97:0.250343 98:0.248158 99:0.142063 100:0.182863 101:0.0023921 102:0.0198384 103:0.00268719 104:0.0174862 106:0.0597451 107:0.225064 108:0.135509 109:0.00293542 110:0.085639 111:0.0756312 112:0.0212945 113:0.109418 114:0.157029 115:0.278221 116:0.0438442 117:0.00152836 118:0.0579493 119:0.0426144 120:0.049524 121:0.076778 124:0.0936408 125:0.449797 126:0.0839366 127:0.0132608 128:0.0274545 129:0.000136063 130:0.120191 131:0.0502659 132:0.0812385 133:0.362789 134:0.0333317 135:0.0468483 137:0.353823 138:0.0616901 139:0.06609 140:0.127104 141:0.407918 142:0.258512 143:0.0780175 144:0.366028 145:0.109779 146:0.231884 147:0.490698 148:0.137451 149:0.175781 150:0.10996 151:0.167781 152:0.0820289 153:0.0569141 154:0.0196904 155:0.0288237 156:0.216971 157:0.0134411 158:0.166646 159:0.00112848 160:0.209696 161:0.113038 162:0.114601 163:0.227808 164:0.0757985 165:0.0694443 166:0.113701 167:0.205995 168:0.282076 169:0.191139 170:0.110517 171:0.0608588 172:0.00156121 173:0.0016533 174:0.376574 175:0.0656214 176:0.0818759 177:0.0744481 178:0.0230818 179:0.146 180:0.0142308 181:0.00366675 182:0.117522 183:0.362289 184:0.306586 185:0.269788 186:0.182934 187:0.366496 188:0.0222511 189:0.312388 190:0.0852721 191:0.0871154 192:0.00174646 193:0.158374 194:0.0462328 195:0.0743694 196:0.00712782 198:0.0630412 199:0.209589 
0 0 0.3927493187281368 0 0 0 0 0.03726107155243576 0 0:0.144538 1:0.00738883 2:0.0625396 3:0.191311 4:0.00512446 5:0.245007 6:0.00129013 7:0.236842 8:0.46558 9:0.260272 10:0.10576 11:0.00903089 12:0.0881504 13:0.259237 14:0.0136745 15:0.0464859 16:0.00204967 17:0.00124647 18:0.0751203 19:0.00898687 20:0.219402 21:0.0281809 22:0.211751 23:0.040689 24:0.215747 25:0.0232955 26:0.413886 27:0.431152 28:0.0389357 29:0.0860249 30:0.20663 31:0.0121723 32:0.00898192 33:0.221124 34:0.0381549 35:0.045857 36:0.146517 37:0.0260851 38:0.243516 39:0.122981 40:0.154063 41:0.086411 42:0.00816675 43:0.0708334 44:0.213212 45:0.0579764 46:0.132248 47:0.000896714 48:0.0654752 49:0.290882 50:0.370597 51:0.428213 54:0.0937422 55:0.0291723 56:0.432904 57:0.0240436 58:0.0323512 59:0.0505661 60:0.052836 61:0.11993 62:0.442516 63:0.0224018 64:0.0278354 65:0.112913 66:0.0445854 67:0.0988733 68:0.1167 69:0.123923 70:0.0633735 71:0.0302642 72:0.0774804 73:0.182863 74:0.0891005 75:0.0723072 76:0.305162 77:0.389012 78:0.12572 79:0.044402 80:0.14349 81:0.366099 82:0.401126 83:0.46558 84:0.46558 85:0.0736256 86:0.135846 87:0.0319467 89:0.077647 90:0.172434 91:0.442516 92:0.0341827 93:0.428775 94:0.0468951 95:0.0927073 96:0.123075 97:0.458371 98:0.385495 99:0.112587 100:0.0708942 101:0.0665078 102:0.403143 103:0.145813 104:0.0914326 105:0.248215 106:0.393897 107:0.219735 108:0.0839506 109:0.0570533 110:0.00278742 111:0.413886 112:0.241026 113:0.00587014 114:0.00339785 115:0.0687078 116:0.196829 117:0.00100987 118:0.0636601 119:0.0322269 120:0.0802922 121:0.13649 122:0.118151 123:0.0206909 124:0.172485 125:0.17562 126:0.318525 127:0.0563669 128:0.23062 129:0.00323734 130:0.0379837 131:0.0151773 132:0.0127318 133:0.103039 134:0.180381 135:0.00772402 136:0.0157068 137:0.186401 138:0.230473 139:0.0655873 140:0.325259 141:0.132574 142:0.238062 143:0.307561 144:0.0757747 145:0.0702787 146:0.343298 147:0.0559375 148:0.121083 149:0.0889035 150:0.162599 151:0.0843195 152:0.401126 153:0.393897 154:0.16283 155:0.393659 156:0.0629505 157:0.194876 158:0.13208 159:0.401895 160:0.0348304 161:0.413886 162:0.0379109 163:0.306688 164:0.391538 165:0.428213 166:0.000444263 167:0.030959 168:0.0719348 169:0.00603916 170:0.0494567 171:0.0694174 172:0.108695 173:0.375585 174:0.418109 175:0.233432 176:0.0611794 177:0.139232 178:0.382804 179:0.182322 180:0.166958 181:0.0196714 182:0.394845 183:0.0741333 184:0.0776737 185:0.0241597 186:0.0125667 187:0.117671 188:0.00762462 189:0.020779 190:0.0467535 191:0.0584777 192:0.0710651 193:0.000934751 194:0.403143 195:0.280106 196:0.206226 197:0.499248 198:0.499248 199:0.155926 
0 0 0.02229193728883904 0 0 0 0 0 0 0:0.055346 1:0.0383319 2:0.0787889 3:0.117443 4:0.0345525 5:0.0540267 6:0.00521737 7:0.284792 8:0.331573 9:0.073251 10:0.0717904 11:0.0365216 12:0.0968015 13:0.0830645 14:0.00697147 15:0.120557 16:0.00971799 17:0.00172068 18:0.0734696 19:0.0393121 20:0.393931 21:0.0112028 22:0.0938699 23:0.0650499 24:0.491235 25:0.00934127 26:0.376627 27:0.23426 28:0.0525269 29:0.0625451 30:0.377942 31:0.0295529 33:0.302882 34:0.0338182 35:0.044303 36:0.064147 37:0.0136354 38:0.134254 39:0.38716 40:0.132939 41:0.0321958 42:0.0787159 43:0.046429 44:0.2719 45:0.0213278 46:0.159834 47:0.0120448 48:0.00629046 49:0.372681 50:0.372466 51:0.36845 52:0.0292993 54:0.165152 55:0.0445969 56:0.37626 57:0.0465967 58:0.0114272 59:0.0443688 60:0.0235111 61:0.142232 62:0.148136 63:0.108923 64:0.0423063 65:0.0238637 66:0.00950105 67:0.105375 68:0.0401036 69:0.0123298 70:0.0828863 71:0.0180912 72:0.0902186 73:0.0505307 74:0.140604 75:0.182647 76:0.228877 77:0.364304 78:0.118071 79:0.0837975 80:0.213908 81:0.0625798 82:0.413848 83:0.419799 84:0.419799 85:0.0869318 86:0.443425 87:0.0690891 88:0.0150383 89:0.00402356 90:0.0410479 91:0.393931 92:0.00478902 93:0.378124 94:0.209716 95:0.462744 96:0.0821798 97:0.416049 98:0.416049 99:0.0670238 100:0.14736 101:0.0465928 102:0.363803 103:0.251462 104:0.0516921 105:0.181376 106:0.391864 107:0.235799 108:0.0213447 109:0.107989 110:0.00627477 111:0.427497 112:0.119548 113:0.0481241 114:0.00808029 115:0.106131 116:0.127747 117:0.0102988 118:0.0905933 119:0.0527694 120:0.0409857 121:0.219953 122:0.302409 123:0.0583937 124:0.0445816 125:0.0582139 126:0.363803 127:0.10605 128:0.10834 129:0.0563944 130:0.130889 131:0.00244561 132:0.0201156 133:0.0160937 134:0.142944 135:0.00503968 136:0.0644778 137:0.0487023 138:0.39408 139:0.0554324 140:0.407173 141:0.270276 142:0.0921293 143:0.363803 144:0.00327248 145:0.0416964 146:0.343924 147:0.0908049 148:0.233733 149:0.393931 150:0.0234699 151:0.156657 152:0.413848 153:0.391864 154:0.274339 155:0.402397 156:0.0605887 157:0.0887338 158:0.0226035 159:0.235502 160:0.0139641 161:0.427497 162:0.021199 163:0.444725 164:0.400145 165:0.29412 166:0.0296186 167:0.0853467 168:0.023728 169:0.00750384 170:0.0444288 171:0.0977597 172:0.0777661 173:0.361581 174:0.438253 175:0.268718 176:0.00152092 177:0.170676 178:0.386453 179:0.0926271 180:0.0579177 181:0.0109999 182:0.366968 183:0.130808 184:0.0187987 185:0.0185958 186:0.00110814 187:0.229885 188:0.0128049 189:0.0123847 190:0.0280073 191:0.00599193 192:0.0583131 194:0.363803 195:0.248196 196:0.091274 197:0.478812 198:0.262884 199:0.0745966 
0.02120642133487011 0 0 0 0 0 0.03181802745207543 0 0 0:0.41668 1:0.0252121 2:0.0560906 3:0.120958 4:0.121356 5:0.41668 6:0.00628116 7:0.200814 8:0.439959 9:0.249802 10:0.0828513 11:0.0439681 12:0.0714981 13:0.492692 14:0.00391667 15:0.108932 17:0.0102499 18:0.18557 19:0.0395668 20:0.250939 21:0.0510573 22:0.392424 23:0.0331424 24:0.200832 25:0.00748655 26:0.421109 27:0.436485 28:0.0437599 29:0.0761822 30:0.251646 31:0.00888718 32:0.00233431 33:0.219284 34:0.118777 35:0.0396217 36:0.212781 37:0.0404345 38:0.103996 39:0.130613 40:0.17435 41:0.0237108 42:0.0362429 43:0.245821 44:0.0547025 45:0.0463268 46:0.195588 47:0.0207386 48:0.0282854 49:0.332205 50:0.36921 51:0.376695 54:0.116914 55:0.0158635 56:0.263896 57:0.00360499 58:0.02168 59:0.0456551 60:0.00917683 61:0.138167 62:0.104704 63:0.0612506 64:0.0589105 65:0.0711 66:0.0180039 67:0.119806 68:0.02889 69:0.116877 70:0.0272603 71:0.0491576 72:0.0264933 73:0.0962038 74:0.138717 75:0.198773 76:0.371444 77:0.422667 78:0.153764 79:0.159498 80:0.339492 81:0.046413 82:0.421333 83:0.439959 84:0.439959 85:0.0828031 86:0.133428 87:0.0284946 89:0.0331903 90:0.101202 91:0.308475 92:0.0275366 93:0.447524 94:0.0785191 95:0.136019 96:0.0449258 97:0.432885 98:0.319771 99:0.108073 100:0.027372 101:0.0375471 102:0.330881 103:0.117169 104:0.0441426 105:0.104866 106:0.408774 107:0.161587 108:0.0474526 109:0.120655 110:0.0110452 111:0.421109 112:0.242012 114:0.0448493 115:0.178672 116:0.331357 117:0.0100387 118:0.0361848 119:0.0246662 120:0.0221471 121:0.317411 122:0.214071 123:0.0128606 124:0.0356431 125:0.0549778 126:0.297889 127:0.0807794 128:0.369732 129:0.107336 130:0.0247868 131:0.025424 132:0.0103057 133:0.0167273 134:0.323487 135:0.00033108 136:0.0831569 137:0.219054 138:0.10846 139:0.200394 140:0.285688 141:0.0611314 142:0.17698 143:0.371051 144:0.0737254 145:0.011237 146:0.294295 147:0.0933602 148:0.353712 149:0.3601 150:0.01464 151:0.0789461 152:0.421333 153:0.408774 154:0.182141 155:0.390122 156:0.0249946 157:0.413768 158:0.024846 159:0.236269 160:0.0319859 161:0.421109 162:0.0613425 163:0.41163 164:0.272635 165:0.360804 166:0.00235316 167:0.067983 168:0.153522 169:0.0117675 170:0.0631745 171:0.122444 172:0.0701266 173:0.375037 174:0.432575 175:0.209211 176:0.000300392 177:0.0677517 178:0.369732 179:0.0936377 180:0.127378 181:0.0531998 182:0.381524 183:0.0805705 184:0.00758657 185:0.00293966 186:0.00121141 187:0.0987395 188:0.0113092 189:0.00804133 190:0.0388746 191:0.0121503 192:0.113899 194:0.331263 195:0.227487 196:0.327634 197:0.432445 198:0.237445 199:0.106087 
0 0.2562846912572514 0 0 0.01937005652855111 0 0.1832844895385177 0 0 0:0.194794 1:0.00276945 2:0.135528 3:0.0317784 4:0.0659737 5:0.227772 6:0.0115071 7:0.152399 8:0.387882 9:0.0549098 10:0.17757 11:0.115988 12:0.252094 13:0.275225 14:0.00973579 15:0.0597401 16:0.00270881 17:0.00109609 18:0.033603 19:0.12045 20:0.298101 21:0.0826753 22:0.167272 23:0.123896 24:0.113436 25:0.0170611 26:0.40569 27:0.415532 28:0.0217926 29:0.224057 30:0.110138 31:0.00105755 32:0.0216409 33:0.118955 34:0.122017 35:0.158736 36:0.25697 37:0.107284 38:0.0398877 39:0.32562 40:0.0692431 41:0.0665817 42:0.00825374 43:0.0737705 44:0.00822061 45:0.0438237 46:0.100754 47:0.0543835 48:0.0634525 49:0.274862 50:0.420918 51:0.205901 53:0.0120335 54:0.23734 55:0.0608122 56:0.155093 58:0.264943 59:0.209399 60:0.0110787 61:0.233584 62:0.11475 63:0.00784204 64:0.204643 65:0.0205631 66:0.0155696 67:0.238372 68:0.344902 69:0.212127 70:0.117766 71:0.018501 72:0.0532324 73:0.142693 74:0.120787 75:0.0829865 76:0.294959 77:0.399545 78:0.260367 79:0.18442 80:0.25183 81:0.0696758 82:0.446028 83:0.387882 84:0.387882 85:0.210244 86:0.00636671 87:0.0342235 88:0.025087 89:0.00357634 90:0.438616 91:0.123542 92:0.0532681 93:0.446858 94:0.235693 95:0.0845075 96:0.0718559 97:0.352846 98:0.109244 99:0.0517798 100:0.158862 101:0.0702512 102:0.12589 103:0.152003 104:0.0477606 105:0.0157819 106:0.39156 107:0.0673449 108:0.0545029 109:0.0345384 110:0.0517182 111:0.40569 112:0.371361 113:0.0111729 114:0.0261855 115:0.374701 116:0.0552794 117:0.153659 118:0.0440584 119:0.0412913 120:0.124014 121:0.246762 122:0.0874497 123:0.0461619 124:0.085034 125:0.152537 126:0.371746 127:0.0441275 128:0.240528 129:0.0379563 130:0.0210207 131:0.0485239 132:0.0152319 133:0.00934574 134:0.132228 135:0.0387706 136:0.0344744 137:0.149226 138:0.307185 139:0.112182 140:0.142457 141:0.271114 142:0.0153614 143:0.096595 144:0.0432709 145:0.0169867 146:0.322902 147:0.21435 148:0.289982 149:0.20858 150:0.0234468 151:0.0571931 152:0.446028 153:0.39156 154:0.217895 155:0.402121 156:0.00547788 157:0.397996 158:0.0286788 159:0.0432962 160:0.428111 161:0.40569 162:0.0120291 163:0.388678 164:0.40793 165:0.261333 166:0.00676001 167:0.150525 168:0.412597 169:0.0300781 170:0.100402 171:0.0654292 172:0.100533 173:0.384221 174:0.416291 175:0.137721 176:0.0542083 177:0.140406 178:0.374254 179:0.0794531 180:0.272372 181:0.096466 182:0.392929 183:0.170508 184:2.70309e-005 185:0.0163365 186:0.00258392 187:0.164406 188:0.00128187 189:0.0543 190:0.202806 191:0.107487 192:0.0347192 193:0.000287188 194:0.338872 195:0.213843 196:0.0484397 197:0.0379836 198:0.245528 199:0.182917 
0 0 0 0 0 0.02366808103849191 0 0 0 0:0.0126153 1:0.097661 2:0.0463509 3:0.0825891 4:0.0312713 5:0.000448579 6:0.0231981 7:0.105943 8:0.423631 9:0.0764495 10:0.0901467 11:0.0154476 12:0.109178 14:0.0207567 15:0.0601104 16:0.025329 17:0.162021 18:0.0686498 19:0.158953 20:0.0278916 21:0.0466723 22:0.00633226 23:0.0172948 24:0.0276434 25:0.0329163 26:0.365226 27:0.0647561 28:0.14432 29:0.0392607 30:0.051632 31:0.173681 32:0.118944 33:0.209218 34:0.158822 35:0.0963634 36:0.150988 37:0.0263275 38:0.0399492 39:0.0390188 40:0.227977 41:0.198219 42:0.00376502 43:0.0122804 44:0.0986915 45:0.0179724 46:0.0441189 47:0.130138 48:0.00525043 49:0.318246 50:0.397174 51:0.198342 52:0.00155139 53:0.0218248 54:0.0337915 55:0.0205387 56:0.307253 57:0.0685732 58:0.0121066 59:0.123411 60:0.0638033 61:0.155107 62:0.0503599 63:0.0681065 64:0.141462 65:0.0385845 66:0.0327302 67:0.10027 68:0.00546837 69:0.0204289 70:0.000741036 71:0.62474 72:0.0238773 73:0.00616681 74:0.425809 75:0.204053 76:0.458012 77:0.045064 78:0.0807344 79:0.17833 80:0.0202209 81:0.00280222 82:0.388646 83:0.423631 84:0.423631 85:0.102045 86:0.171245 87:0.116838 88:0.0104657 89:0.0404088 90:0.0290451 91:0.235243 92:0.0106828 93:0.340437 94:0.0243034 95:0.000121023 96:0.0087532 97:0.0512711 98:0.118276 99:0.0269992 100:0.00153038 101:0.492409 102:0.0408421 103:0.168102 104:0.0793431 105:0.0626476 106:0.393802 107:0.386943 108:0.00151531 109:0.147908 111:0.365226 112:0.266604 113:0.116104 114:0.0179686 115:0.158262 116:0.0474102 117:0.1099 118:0.0152593 119:0.292282 120:0.00800326 121:0.216188 122:0.194515 123:0.0615667 124:0.0235564 125:0.114006 126:0.0136004 127:0.00706223 128:0.228862 129:0.000350824 130:0.128005 131:0.000871833 132:0.00886592 133:0.102664 134:0.110522 135:0.145415 136:0.104082 137:0.0568906 138:0.0499143 139:0.0528732 140:0.0234094 141:0.00297401 142:0.0163741 143:0.198134 144:0.413524 145:0.0897345 146:0.342213 147:0.0478535 148:0.233054 149:0.267907 150:0.00593256 151:0.0685719 152:0.388646 153:0.393802 154:0.319242 155:0.386724 156:0.34547 158:0.0013536 159:0.421378 160:0.0115523 161:0.365226 162:0.150681 163:0.0069645 164:0.0299349 165:0.10777 166:0.022148 167:0.0736901 168:0.0196357 169:0.412892 170:0.0122173 171:0.011465 172:0.303515 173:0.389023 174:0.0819057 175:0.308362 177:0.17376 178:0.399456 179:0.0566826 180:0.0138557 181:0.00209971 182:0.344017 183:0.165223 184:0.262647 185:0.112231 186:0.0658792 187:0.0212362 188:0.00189207 189:0.091161 190:0.375078 191:0.00882427 192:0.320632 193:0.0761466 194:0.0340366 195:0.27314 196:0.0284811 197:0.19782 198:0.0192847 199:0.0157649 
0 0 0.4367738258770766 0 0 0 0.3796675251404454 0 0 0:0.211654 2:0.182777 3:0.0632597 4:0.0816231 5:0.31247 6:0.0218025 7:0.144762 8:0.30799 9:0.234204 10:0.0356585 11:0.0236987 12:0.177728 13:0.340758 14:0.175963 15:0.023544 16:0.00404364 17:0.00921502 18:0.0278321 19:0.0340672 20:0.362459 21:0.00783573 22:0.358967 23:0.243396 24:0.105952 25:0.0144595 26:0.382978 27:0.381433 28:0.0744883 29:0.137438 30:0.0621333 32:0.00272703 33:0.178781 34:0.151201 35:0.152025 36:0.302846 37:0.0587542 38:0.111281 39:0.279725 40:0.302931 41:0.0931394 42:0.04225 43:0.0503786 44:0.0512634 45:0.15263 46:0.134403 47:0.00963992 48:0.0814273 49:0.355926 50:0.421348 51:0.334116 52:0.00313286 53:0.0617896 54:0.132375 55:0.0963461 56:0.0422011 58:0.381433 59:0.262125 60:0.042864 61:0.234609 62:0.0488921 64:0.0979465 65:0.0260133 66:0.0311744 67:0.191812 68:0.089946 69:0.214577 70:0.269448 71:0.214399 72:0.157054 73:0.0569479 74:0.141194 75:0.0786967 76:0.240042 77:0.312196 78:0.239489 79:0.228962 80:0.244053 81:0.20676 82:0.44044 83:0.39426 84:0.39426 85:0.069446 86:0.241209 87:0.0145972 88:0.0242089 89:0.048418 90:0.356033 91:0.148399 92:0.100891 93:0.375699 94:0.291517 95:0.139519 96:0.105277 97:0.278885 98:0.103005 99:0.224799 100:0.153506 101:0.107614 102:0.0376382 103:0.187686 104:0.0773655 105:0.00627983 106:0.382063 107:0.0168082 108:0.0804658 109:0.222863 110:0.0661845 111:0.421157 112:0.312493 113:0.0332995 114:0.0713684 115:0.157474 116:0.162215 117:0.0177061 118:0.0771422 119:0.00486674 120:0.0245941 121:0.291255 122:0.199533 123:0.194229 124:0.059525 125:0.0292455 126:0.37691 127:0.00264639 128:0.187708 129:0.0652246 130:0.0585383 131:0.0749817 132:0.0520921 133:0.00384069 134:0.253813 135:0.00269358 136:0.0260504 137:0.256396 138:0.359042 139:0.0649955 140:0.0970393 141:0.359042 142:0.096191 143:0.0637951 144:0.253937 145:0.123099 146:0.222766 147:0.25905 148:0.352555 149:0.0918397 150:0.0562229 151:0.0468839 152:0.44044 153:0.382063 154:0.205262 155:0.358815 156:0.0201427 157:0.409792 158:0.0170282 159:0.0926256 160:0.29745 161:0.421157 163:0.340758 164:0.358967 165:0.334116 166:0.00502241 167:0.155161 168:0.279559 169:0.117521 170:0.0250255 171:0.0371342 172:0.163874 173:0.356194 174:0.349816 175:0.153605 176:0.0606793 177:0.129879 178:0.358397 179:0.0792333 180:0.276674 181:0.16701 182:0.37515 183:0.0367348 184:0.000930789 185:0.0450531 186:0.00258531 187:0.0918135 188:0.00562503 189:0.083916 190:0.204606 191:0.15902 192:0.0727605 193:0.0202051 194:0.313119 195:0.0829523 196:0.0884396 197:0.0656146 198:0.204097 199:0.0472839 
0 0 0 0 0 0 0 0 0.05638506523905253 0:0.219322 1:0.0294337 2:0.087794 3:0.0585087 4:0.0462944 5:0.378956 6:0.0842063 7:0.341043 8:0.335016 9:0.199351 10:0.0408175 11:0.0501305 12:0.119205 13:0.320026 14:0.0646549 15:0.0359529 16:0.0320873 17:0.0238394 18:0.0228002 19:0.0222481 20:0.364647 21:0.0666515 22:0.338671 23:0.293004 24:0.0288726 25:0.0189731 26:0.331879 27:0.319015 28:0.139826 29:0.0671813 30:0.0332496 31:0.0111898 32:0.0355924 33:0.238325 34:0.0543715 35:0.105298 36:0.363946 37:0.0495731 38:0.224635 39:0.252918 40:0.312857 41:0.0798679 42:0.0350389 43:0.0278313 44:0.0758348 45:0.149707 46:0.104731 47:0.0477379 48:0.069393 49:0.351325 50:0.370278 51:0.264323 52:0.0219174 53:0.0794553 54:0.137852 55:0.119883 56:0.0925551 57:0.0141715 58:0.319015 59:0.0678741 60:0.0381704 61:0.137874 62:0.0710549 63:0.00528778 64:0.230013 65:0.0574307 66:0.127156 67:0.220723 68:0.190783 69:0.184156 70:0.234489 71:0.199128 72:0.29275 73:0.114538 74:0.141658 75:0.0227837 76:0.230689 77:0.162578 78:0.0540153 79:0.317126 80:0.178401 81:0.221674 82:0.449253 83:0.400767 84:0.400767 85:0.086013 86:0.0372213 87:0.0105089 88:0.0983066 89:0.11595 90:0.322926 91:0.0342894 92:0.148359 93:0.375424 94:0.254709 95:0.215376 96:0.0555493 97:0.290011 98:0.0524395 99:0.309199 100:0.250843 101:0.141403 102:0.0212294 103:0.0186124 104:0.162329 105:0.014288 106:0.382366 107:0.000549241 108:0.139337 109:0.188341 110:0.103229 111:0.419044 112:0.265331 113:0.0385036 114:0.0193497 115:0.091301 116:0.0579521 117:0.153287 118:0.0922377 119:0.0184839 120:0.09273 121:0.135624 122:0.31214 123:0.302245 124:0.0571526 125:0.0428732 126:0.236021 127:0.00547165 128:0.144624 129:0.118627 130:0.0298031 131:0.125251 132:0.0868045 133:0.117645 134:0.297241 135:0.0284666 136:0.0287901 137:0.222905 138:0.317593 139:0.0722603 140:0.0629923 141:0.275105 142:0.165398 143:0.0940512 144:0.314146 145:0.0296238 146:0.306779 147:0.297193 148:0.20681 149:0.0848886 150:0.151153 151:0.057161 152:0.449253 153:0.382366 154:0.220967 155:0.353459 156:0.00696613 157:0.388331 158:0.0696975 159:0.0556067 160:0.208255 161:0.419044 162:0.032277 163:0.247314 164:0.338671 165:0.306985 166:0.0372684 167:0.261411 168:0.319015 169:0.319015 170:0.0500122 171:0.0322063 172:0.0627785 173:0.34226 174:0.401442 175:0.100638 176:0.0835505 177:0.106373 178:0.37263 179:0.0826776 180:0.35632 181:0.370278 182:0.376868 183:0.0255403 185:0.0384457 186:0.0485863 187:0.105294 188:0.0142311 189:0.066873 190:0.18292 191:0.145694 192:0.0926159 193:0.0824154 194:0.314146 195:0.105146 196:0.0499178 197:0.0177228 198:0.125638 199:0.0693301 
0.1980734551051932 0 0 0 0 0 0 0 0.1368692596880751 0:0.243334 1:0.0126622 2:0.00448016 3:0.0242509 4:0.0285479 5:0.374029 6:0.117528 7:0.303264 8:0.281972 9:0.22025 10:0.0267172 11:0.083147 12:0.0876115 13:0.318819 14:0.00145587 15:0.0104261 16:0.00385881 17:0.129315 18:0.0114927 19:0.101438 20:0.30307 21:0.0442293 22:0.299707 23:0.197457 24:0.173547 25:0.0223029 26:0.305604 27:0.189399 28:0.176931 29:0.0117785 30:0.00782195 31:0.00327952 32:0.112872 33:0.138393 34:0.0575767 35:0.0242393 36:0.277841 37:0.00279816 38:0.318819 39:0.239368 40:0.220984 41:0.043986 42:0.0687214 43:0.0284848 44:0.0301928 45:0.188822 46:0.103473 47:0.142049 48:0.0118467 49:0.337889 50:0.362269 51:0.200464 52:0.00852656 53:0.0206109 54:0.117159 55:0.0183037 56:0.048161 57:0.00617681 58:0.199648 59:0.02702 60:0.0312516 61:0.0701969 62:0.0238642 63:0.00938646 64:0.0802552 65:0.0578078 66:0.236111 67:0.231616 68:0.0383296 69:0.206066 70:0.0975273 71:0.305715 72:0.349049 73:0.038753 74:0.103134 75:0.0461784 76:0.185588 77:0.241953 78:0.11964 79:0.339661 80:0.0996968 81:0.123901 82:0.457999 83:0.417289 84:0.417289 85:0.077033 86:0.0375077 87:0.0181718 88:0.104921 89:0.12585 90:0.090232 91:0.0796879 92:0.0756586 93:0.388973 94:0.184285 95:0.280288 96:0.0734492 97:0.358603 98:0.101412 99:0.281629 100:0.140542 101:0.106393 102:0.0567736 103:0.0979737 104:0.0913353 105:0.116399 106:0.382936 107:0.00342739 108:0.0417092 109:0.180256 110:0.26849 111:0.399354 112:0.349878 113:0.155462 114:0.00132707 115:0.113864 116:0.058841 117:0.228342 118:0.0632697 119:0.0883124 120:0.165472 121:0.0823443 122:0.141455 123:0.235316 124:0.0473285 125:0.012612 126:0.118059 127:0.0297905 128:0.163019 129:0.14172 130:0.0102116 131:0.0626642 132:0.178021 133:0.153696 134:0.156419 135:0.0475735 136:0.00334122 137:0.310634 138:0.135357 139:0.0353211 140:0.138308 141:0.0887576 142:0.114751 143:0.0572895 144:0.307792 146:0.292353 147:0.393167 148:0.0814292 149:0.0510322 150:0.0824281 151:0.0481059 152:0.457999 153:0.382936 154:0.155424 155:0.350081 156:0.00812984 157:0.379281 158:0.23691 159:0.0317406 160:0.170704 161:0.399354 162:0.125778 163:0.318819 164:0.299707 165:0.269429 166:0.00372248 167:0.207397 168:0.179059 169:0.305715 170:0.0328159 171:0.0097402 172:0.0532294 173:0.364199 174:0.318728 175:0.118898 176:0.0710704 177:0.0569117 178:0.366401 179:0.083954 180:0.350928 181:0.348571 182:0.412504 183:0.0487395 184:0.0223413 185:0.0623946 186:0.0609878 187:0.1999 188:0.0161871 189:0.0826217 190:0.250149 191:0.112946 192:0.16604 193:0.177674 194:0.225987 195:0.0866964 196:0.0404473 197:0.13746 198:0.0323074 199:0.0352723 
0 0 0 0 0 0.1903350338575869 0 0 0.1278546251964871 0:0.0686647 1:0.450752 2:0.467549 3:0.0083149 4:0.109826 5:0.0477156 6:0.431079 7:0.279869 8:0.0961267 9:0.0412871 10:0.243344 11:0.0417278 12:0.146893 13:0.101481 14:0.473877 15:0.0282102 16:0.411369 17:0.431079 18:0.0321995 19:0.233682 20:0.000871279 21:0.0467867 22:0.0833431 23:0.416956 24:0.16021 25:0.215068 26:0.0666741 27:0.0301757 28:0.0567508 29:0.203137 30:0.00483796 31:0.0679826 32:0.37773 33:0.155449 34:0.0656115 35:0.356818 36:0.0267979 37:0.00649415 38:0.201362 39:0.523084 40:0.10628 41:0.180858 42:0.0932882 43:0.10886 44:0.0581192 45:0.00817294 46:0.0773598 47:0.363946 48:0.0696703 49:0.170752 50:0.322495 51:0.0635302 52:0.0146226 53:0.356818 54:0.00120449 55:0.467549 56:0.0202055 57:0.0105178 58:0.125369 59:0.341433 60:0.481109 61:0.102207 62:0.0821517 63:0.015766 64:0.0162222 65:0.0344127 66:0.133679 67:0.0112975 68:0.0916535 69:0.141458 70:0.0620074 71:0.094919 72:0.15855 73:0.090849 74:0.328587 75:0.0143631 76:0.118002 77:0.0783934 78:0.125719 79:0.0313129 80:0.00103526 81:0.0340431 82:0.000982406 83:0.0519408 84:0.356027 85:0.220619 86:0.211233 87:0.220311 88:0.0171635 89:0.274734 90:0.202979 91:0.00145213 92:0.0365605 93:0.0643337 94:0.134733 95:0.375047 96:0.13511 97:0.400007 98:0.400007 99:0.0637136 100:0.292139 101:0.068846 102:0.0057219 103:0.0429615 104:0.0124149 105:0.0117857 107:0.179762 108:0.0415904 109:0.231907 110:0.00732328 111:0.231671 112:0.0251928 113:0.0327386 114:0.0200155 115:0.0445899 116:0.0315657 117:0.463334 118:0.00337329 119:0.14151 120:0.0113928 121:0.00415878 122:0.0205876 123:0.00735944 124:0.171741 125:0.0956724 126:0.00350273 127:0.0910538 128:0.107311 129:0.244373 130:0.0892786 131:0.00652419 132:0.0538721 133:0.0129136 134:0.0471823 135:0.326992 136:0.066557 137:0.200515 138:0.0798347 139:0.0301799 140:0.157588 141:0.196062 142:0.0223137 143:0.00200691 144:0.215349 145:0.46871 146:0.160921 147:0.268745 148:0.00660226 149:0.0180938 150:0.0890324 151:0.0164404 152:0.00904129 154:0.0424076 155:0.0110812 156:0.103749 157:0.0370269 158:0.0167732 159:0.145122 160:0.000637284 161:0.130824 162:0.0295586 163:0.38597 164:0.151347 165:0.00508466 166:0.0294481 167:0.0129345 168:0.216656 169:0.296966 170:0.0277104 171:0.104229 172:0.0101649 173:0.422344 174:0.30225 175:0.0513604 176:0.290757 177:0.00244774 178:0.0475607 179:0.0277986 180:0.0701495 181:0.118492 182:0.0544793 183:0.0162255 184:0.0362706 185:0.0525785 186:0.00232006 187:0.355448 188:0.00986926 189:0.0200155 190:0.0135007 191:0.119198 192:0.0497137 193:0.356818 194:0.000580293 195:0.0987699 196:0.106238 197:0.0325643 198:0.0251876 199:0.155428 
0 0 0 0 0 0.07891621898437452 0.1546997056625822 0 0.1060552124391892 0:0.00211538 1:0.0196246 2:0.0940433 3:0.000586969 4:0.195234 5:0.0388817 6:0.0576723 7:0.0332277 8:0.328453 9:0.0956963 10:0.151368 11:0.0669111 12:0.309654 13:0.0863611 14:0.0239518 15:0.356046 16:0.0167316 17:0.323247 18:0.00174855 19:0.249139 20:0.269849 21:0.35237 22:0.0336657 23:0.302462 24:0.0799308 25:0.0285684 26:0.339298 27:0.00748898 28:0.176898 29:0.068422 30:0.00248415 31:0.140976 32:0.338146 33:0.280604 34:0.3946 35:0.331978 36:0.0666334 37:0.0235013 38:0.0315065 39:0.133163 40:0.179607 41:0.308174 42:0.140596 43:0.002018 44:0.309381 45:0.032263 46:0.331827 47:0.286321 48:0.00140108 49:0.38438 50:0.358064 51:0.309381 52:0.142903 53:0.0487679 54:0.120357 55:0.0146329 56:0.329597 57:0.0643985 58:0.0160812 59:0.219609 60:0.0945067 61:0.11217 62:0.022498 63:0.185337 64:0.348954 65:0.346773 66:0.346773 67:0.193225 68:0.00861886 69:0.00554816 70:0.00266989 71:0.360912 72:0.002465 73:0.0055008 74:0.343664 75:0.232261 76:0.390718 77:0.210386 78:0.0482327 79:0.24356 80:0.136322 81:0.00096154 82:0.362351 83:0.237497 84:0.328453 85:0.329309 86:0.356046 87:0.282818 88:0.0512611 89:0.369382 90:0.0103051 91:0.378067 92:0.0661695 93:0.370575 94:0.0390346 95:0.0824018 96:0.0127097 97:0.10378 98:0.0739265 99:0.148288 100:0.0435999 101:0.410421 102:0.0410416 103:0.0462046 104:0.0534223 105:0.0693371 106:0.401018 107:0.314254 108:0.0176945 109:0.0902727 110:0.00832572 111:0.339298 112:0.0481569 113:0.0911318 114:0.3946 115:0.0564216 116:0.0764131 117:0.333711 118:0.00172738 119:0.360912 120:0.0120507 121:0.0738785 122:0.252003 123:0.240526 124:0.00968281 125:0.0173908 126:0.248493 127:0.345192 128:0.188669 129:0.358064 130:0.348954 131:0.0546004 132:0.346773 133:0.00447394 134:0.00374807 135:0.338146 136:0.225454 137:0.0517662 138:0.0553762 139:0.273352 140:0.114552 141:0.0326695 142:0.00366945 143:0.18081 144:0.326713 145:0.0547346 146:0.0485421 147:0.00799262 148:0.378067 149:0.03174 150:0.00185574 151:0.00599609 152:0.342645 153:0.401018 154:0.225712 155:0.419842 156:0.328453 157:0.119541 158:0.00697325 159:0.356046 160:0.0547738 161:0.0974363 162:0.0500853 163:0.174789 164:0.141073 165:0.206538 166:0.0472024 167:0.00198465 168:0.00119079 169:0.360912 170:0.0021785 171:0.0357203 172:0.378067 173:0.361456 174:0.343664 175:0.0102174 176:0.00516578 177:0.193091 178:0.345279 179:0.0455686 180:0.121353 181:0.138469 182:0.229539 183:0.0474292 184:0.00641835 185:0.00393597 186:0.0101238 187:0.0785762 188:0.230405 189:0.254943 190:0.0829733 191:0.0145613 192:0.360912 193:0.214422 194:0.0622709 195:0.105368 196:0.00272427 197:0.0667444 198:0.00998985 199:0.188398 
0 0 1 0.1253310983542117 0 0.03464751806055901 0 0 0 0:0.0232251 1:0.0976304 2:0.0846757 3:0.0094294 4:0.33076 5:0.0941336 6:0.189725 7:0.00252665 8:0.348782 9:0.0640043 10:0.219482 11:0.232961 12:0.170368 13:0.21265 14:0.0610598 15:0.254747 16:0.00550869 17:0.199385 18:0.00206237 19:0.103168 20:0.206358 21:0.371544 22:0.0595824 23:0.328351 24:0.00967642 25:0.0788438 26:0.357898 27:0.0423544 28:0.185406 29:0.0317536 31:0.118312 32:0.378511 33:0.308081 34:0.328351 35:0.331253 36:0.230355 37:0.0327725 39:0.00245669 40:0.13786 41:0.346875 42:0.0900643 43:0.00562206 44:0.308081 45:0.143004 46:0.308955 47:0.323578 48:0.00273617 49:0.385114 50:0.373139 51:0.308081 52:0.130518 53:0.113567 54:0.0648314 55:0.0309032 56:0.37902 57:0.0898872 58:0.0120214 59:0.245847 60:0.155761 61:0.16637 62:0.046373 63:0.0901739 64:0.330659 65:0.369363 66:0.369363 67:0.177126 68:0.0554349 69:0.0550855 70:0.0320034 71:0.148962 72:0.00190327 73:8.74054e-006 74:0.0666176 75:0.126818 76:0.253432 77:0.0189828 78:0.34894 79:0.289924 80:0.0760458 81:0.000301927 82:0.345662 83:0.348782 84:0.348782 85:0.220556 86:0.367435 87:0.321558 88:0.0650256 89:0.378112 90:0.00144096 91:0.363629 92:0.182384 93:0.329514 94:0.128017 95:0.0116241 96:0.00323835 97:0.139438 98:0.178999 99:0.274839 100:0.023523 101:0.326391 102:0.0112616 103:0.254561 104:0.0667197 105:0.00796774 106:0.327901 107:0.299004 108:0.0322552 109:0.197927 110:0.00541111 111:0.357898 112:0.132619 113:0.0654556 114:0.328351 115:0.0708876 116:0.110136 117:0.326391 118:0.0372109 119:0.181597 120:0.0651821 121:0.150215 122:0.252178 123:0.188533 124:0.0180021 125:0.0359353 126:0.176453 127:0.236614 128:0.156533 129:0.18627 130:0.330659 131:0.122134 132:0.369363 133:0.0227964 134:0.00946461 135:0.378511 136:0.170579 137:0.2072 138:0.0838371 139:0.324868 140:0.0113897 141:0.0736602 142:0.0306638 143:0.0835495 144:0.331253 145:0.097496 146:0.0634474 148:0.319579 149:0.0387348 150:0.000432683 151:0.00452058 152:0.345662 153:0.427067 154:0.30487 155:0.488911 156:0.348782 157:0.27609 158:0.0180492 159:0.367435 160:0.0640573 161:0.175122 162:0.0971351 163:0.0481309 164:0.0208954 165:0.308081 166:0.102988 167:0.0461412 168:0.0276847 169:0.324551 170:0.0523814 171:0.150107 172:0.363629 173:0.347436 174:0.400642 175:0.0261635 176:0.00440949 177:0.217471 178:0.377353 179:0.0376577 180:0.1384 181:0.111463 182:0.205111 183:0.0541615 184:0.0283352 185:0.00212063 186:0.00231532 187:0.0267434 188:0.141998 189:0.101205 190:0.0750327 191:0.147965 192:0.135116 193:0.0646869 194:0.0304897 195:0.289744 196:0.0140888 197:0.0457647 198:0.0282496 199:0.283754 
0 0 0.06177474891829188 0 0 0 0 0 0 0:0.0722104 1:0.0618886 2:0.0104297 3:0.0105422 4:0.0105601 5:0.0978776 7:0.371822 8:0.0128924 9:0.334145 10:0.0104474 12:0.0391738 13:0.232383 14:0.0151956 15:0.204667 16:0.110601 17:0.028343 18:0.0837911 20:0.0419887 21:0.101672 22:0.141026 23:0.0540375 24:0.29043 25:0.0152214 26:0.0573967 27:0.314457 28:0.0184584 30:0.0276496 31:0.104188 32:0.0113558 33:0.160452 34:0.207812 35:0.0353675 36:0.287994 37:0.27932 38:0.543251 39:0.143383 40:0.148795 41:0.252439 42:0.187432 43:0.1066 44:0.159244 45:0.0569757 46:0.177531 48:0.0661486 50:0.109639 51:0.0072707 52:0.0871122 53:0.0244181 54:0.0499986 55:0.0730077 56:0.0685829 57:0.0886501 59:0.0353075 60:0.00946654 61:0.136608 63:0.0531797 64:0.436921 65:0.0886501 66:0.0626829 67:0.186808 69:0.0899522 71:0.0283136 72:0.042001 73:0.00720588 74:0.0241421 75:0.0132126 76:0.00756149 77:0.328669 78:0.0940671 79:0.0982533 80:0.0108945 81:0.0448951 83:0.0214874 84:0.0377614 85:0.0168915 86:0.226108 87:0.0604531 88:0.0243767 89:0.346622 90:0.0049353 91:0.164061 92:0.248208 93:0.0099504 94:0.0909915 95:0.187516 96:0.36998 97:0.000877855 98:0.116212 99:0.0990858 100:0.0763328 101:0.214236 102:0.305152 103:0.0500025 104:0.0479169 105:0.225221 106:0.219326 107:0.0985589 108:0.0528088 109:0.0887128 110:0.105203 111:0.00885138 112:0.00103691 113:0.108443 114:0.0759914 115:0.124383 116:0.226476 119:0.028343 121:0.180381 122:0.127029 123:0.1152 125:0.0731318 126:0.010913 127:0.0656365 128:0.0121297 129:0.0130642 130:0.251737 131:0.0698264 132:0.101774 133:0.0289148 134:0.0664128 135:0.0818672 136:0.0841413 137:0.212151 138:0.00115519 139:0.36299 140:0.185159 142:0.0965588 143:0.0741004 144:0.478287 145:0.00945048 146:0.131054 147:0.31362 148:0.0872765 149:0.0872765 150:0.0670497 151:0.0220093 153:0.07525 154:0.0751224 155:0.0772619 156:0.0707939 157:0.159436 158:0.139487 159:0.202926 160:0.321398 161:0.0456697 162:0.0178536 163:0.144081 164:0.107035 165:0.0508949 166:0.0940138 167:0.302882 168:0.307152 169:0.0283136 170:0.329968 171:0.0732159 172:0.191544 173:0.56094 174:0.0350887 175:0.152924 176:0.0466702 177:0.0553468 178:0.00172987 181:0.00186632 182:0.148542 183:0.157996 184:0.0793778 185:0.0667275 186:0.0300771 187:0.231185 188:0.0613727 189:0.0908387 190:0.0555683 191:0.0493958 192:0.0184584 193:0.0790588 194:0.0603395 195:0.11687 196:0.171498 197:0.290661 198:0.0346058 
0 0 0.2037509506081927 0 0 0 0 0 0 0:0.119639 1:0.000853036 2:0.215621 3:0.0187883 4:0.00260751 5:0.107962 6:0.00134247 7:0.207915 8:0.404774 9:0.00990529 10:0.0998773 11:0.00724844 12:0.108409 13:0.0773806 14:0.164173 15:0.0947221 16:0.0090129 17:0.00329961 18:0.0280152 19:0.0468816 20:0.200151 21:0.316869 22:0.0365694 23:0.452404 24:0.0211925 25:0.0458322 26:0.408919 27:0.278743 28:0.0917202 29:0.0258456 30:0.0924547 31:0.0787226 32:0.10295 33:0.0216299 34:0.00258045 35:0.343974 36:0.0280047 37:0.154907 38:0.139349 39:0.195038 40:0.124361 41:0.0950191 42:0.0562546 43:0.0781416 44:0.0442231 45:0.0865131 46:0.0652446 47:0.0287888 48:0.202234 49:0.43775 50:0.244791 51:0.0209194 52:0.00649444 53:0.0767769 54:0.235448 55:0.11651 56:0.104646 57:0.0260109 58:0.00408634 59:0.430851 60:0.2072 61:0.0621592 62:0.109092 63:0.00460112 64:0.00994798 65:0.04174 66:0.278579 67:0.0151548 68:0.213027 69:0.142891 70:0.00196934 71:0.0176701 72:0.121139 73:0.193429 74:0.153126 75:0.211422 76:0.341131 77:0.050024 78:0.130114 79:0.034208 80:0.0253441 81:0.0334483 82:0.48146 83:0.404774 84:0.404774 85:0.137795 86:0.0606196 87:0.0401743 88:0.102441 89:0.00028654 90:0.0623327 91:0.110722 92:0.0125405 93:0.393991 94:0.0645276 95:0.0435467 96:0.107961 97:0.08942 98:0.095998 99:0.0673897 100:0.181369 101:0.19365 102:0.17849 103:0.337424 104:0.23623 105:0.20428 106:0.382327 107:0.0206878 108:0.096968 109:0.102426 110:0.00883167 111:0.408919 112:0.112387 113:0.0676797 114:0.0061747 115:0.00611075 117:0.135661 118:0.00433023 119:0.0135873 120:0.0101509 121:0.294579 122:0.239352 123:0.185159 124:0.0528381 125:0.335358 126:0.0234943 127:0.0207421 128:0.178617 129:0.175498 130:0.0128837 131:0.00594637 132:0.269325 133:0.0190185 134:0.061056 135:0.233156 136:0.00813288 137:0.452404 138:0.0833383 139:0.0105107 140:0.00770491 141:0.0610547 142:0.0134657 143:0.0781586 144:0.00396985 145:0.519926 146:0.0699276 147:0.0293845 148:0.262572 149:0.258435 150:0.0398125 151:0.179011 152:0.48146 153:0.382327 154:0.382327 155:0.377482 156:0.197424 157:0.150355 158:0.200519 159:0.256559 160:0.0118378 161:0.408919 162:0.0260024 163:0.248099 164:0.197449 165:0.207018 166:0.00447218 167:0.036155 168:0.0468619 169:0.00322319 170:0.0266323 171:0.0375312 172:0.148042 173:0.461949 174:0.163428 175:0.17041 176:0.0193105 177:0.0135848 178:0.367274 179:0.118012 180:0.374239 181:0.244845 182:0.399501 183:0.110276 184:0.0152896 185:0.190792 186:0.0306777 187:0.00645334 188:0.0293317 189:0.00617983 190:0.0408987 191:0.35399 192:0.235044 193:0.0250772 194:0.168993 195:0.0281407 196:0.00225093 197:0.200051 198:0.111856 199:0.0298264 
0.1046809372234207 0 0 0 0 0 0 0 0 0:0.147368 1:0.293973 2:0.0334944 3:0.250882 4:0.0921204 5:0.169415 6:0.157724 7:0.00467554 8:0.0839969 9:0.383702 10:0.0636045 11:0.0552331 12:0.297682 13:0.0627828 14:0.00399033 15:0.0215624 16:0.14738 17:0.0262418 18:0.154971 19:0.029492 20:0.229114 21:0.0368977 22:0.0285034 24:0.0615745 25:0.00322789 26:0.372129 27:0.0730071 28:0.0241047 29:0.0389803 30:0.0293506 33:0.0440137 34:0.105842 35:0.0898861 36:0.040344 37:0.00864295 38:0.53759 39:0.00491116 40:0.154131 41:0.0957618 42:0.0361767 43:0.111245 44:0.0306507 45:0.0285734 46:0.0425088 47:0.00201757 48:0.0132203 49:0.367879 50:0.00989129 51:0.0845677 52:0.174472 53:0.0837118 54:0.149992 55:0.0290358 56:0.367839 57:0.0139027 58:0.455512 59:0.307149 60:0.00898608 61:0.0376922 62:0.129115 63:0.0115636 64:0.0675197 65:0.0139027 66:0.00985457 67:0.0190091 68:0.423765 69:0.155227 70:0.244283 71:0.0384171 72:0.0730553 73:0.341917 74:0.190675 75:0.0462095 76:0.0450086 77:0.0307361 78:0.0745382 79:0.00472672 80:0.276194 81:0.0445799 82:0.334624 83:0.0443985 84:0.0655824 85:0.373372 86:0.059746 87:0.00917596 88:0.14189 89:0.0190265 90:0.134622 91:0.531134 92:0.0172292 93:0.107042 94:0.0992805 95:0.239154 96:0.0517346 97:0.415603 98:0.379362 99:0.103365 100:0.0628303 101:0.159453 102:0.0299958 103:0.0729038 104:0.0485846 105:0.052841 106:0.361626 107:0.00229191 108:0.0372122 110:0.0689341 111:0.372129 112:0.068275 113:0.0372253 114:0.10002 115:0.0353702 116:0.63862 118:0.278618 119:0.054848 120:0.116209 121:0.0426913 122:0.0791379 123:0.0130331 124:0.0368842 125:0.092067 126:0.242516 127:0.0447068 128:0.107785 129:0.0350327 130:0.0459445 131:0.028498 132:0.0425698 133:0.514454 134:0.0397336 136:0.0445504 137:0.00489372 138:0.173304 139:0.303336 140:0.0890138 141:0.189341 142:0.243191 143:0.502104 144:0.0411875 145:0.0512836 146:0.0421137 147:0.0799381 148:0.0682 149:0.0163244 150:0.0233058 151:0.00615672 152:0.396724 153:0.361626 154:0.361626 155:0.478647 156:0.196042 157:0.297975 158:0.142537 160:0.0232045 161:0.19647 162:0.0592541 163:0.0563119 164:0.0160164 165:0.0191334 166:0.0540002 167:0.215969 168:0.447017 169:0.0237722 170:0.190149 171:0.437842 172:0.376459 173:0.396605 174:0.0152392 175:0.112776 176:0.00420376 177:0.293077 178:0.408264 179:0.0134428 180:0.0118505 181:0.0125377 182:0.142132 183:0.372129 184:0.217807 185:0.197739 186:0.483102 187:0.00267129 188:0.0886262 189:0.0884635 190:0.0212313 191:0.145312 192:0.107991 193:0.0133477 194:0.144989 195:0.0904404 196:0.27181 197:0.190463 198:0.178321 199:0.0546859 
0 0 0 0 0 0 0 0 0.07958261517714615 0:0.183187 1:0.427261 2:0.172529 3:0.355366 4:0.192706 5:0.171609 6:0.249217 7:0.243174 8:0.0330645 9:0.186443 10:0.398996 11:0.218596 12:0.0321575 13:0.0522151 14:0.116292 15:0.0120082 16:0.373652 17:0.110111 18:0.105836 19:0.123488 20:0.0550527 21:0.142892 22:0.0973817 23:0.0208352 24:0.519838 25:0.165495 26:0.0786571 27:0.119612 28:0.196684 29:0.0437078 30:0.12112 31:0.0836221 32:0.103224 33:0.236421 34:0.113288 35:0.324656 36:0.248303 37:0.228224 38:0.226457 39:0.144727 40:0.104683 41:0.031985 42:0.0465394 43:0.191283 44:0.122182 45:0.0545638 46:0.143564 47:0.123488 48:0.116901 49:0.0872398 50:0.0559717 51:0.0913296 52:0.00798565 53:0.153781 54:0.107305 55:0.223419 56:0.192397 57:0.0178244 58:0.193567 59:0.184798 60:0.230736 61:0.0959546 62:0.0672899 63:0.0295761 64:0.350803 65:0.0197179 66:0.0362484 67:0.302834 68:0.412965 69:0.279233 70:0.116727 71:0.200927 72:0.18119 73:0.265593 74:0.0177457 75:0.0764795 76:0.0173109 77:0.179596 78:0.00857475 79:0.150349 80:0.0972364 81:0.0625608 82:0.320431 83:0.0977135 84:0.110712 85:0.0480606 86:0.190926 87:0.0685112 88:0.332413 89:0.249283 90:0.0775544 91:0.279288 92:0.0762458 93:0.0560556 94:0.108996 95:0.199989 96:0.178353 97:0.187585 98:0.124873 99:0.0696765 100:0.232218 101:0.00773261 102:0.0349069 103:0.0222119 104:0.0428687 105:0.0705244 106:0.0409823 107:0.0723665 108:0.0600412 109:0.089292 110:0.0575258 111:0.0669402 112:0.060417 113:0.157098 114:0.016633 115:0.0238853 116:0.168811 117:0.126741 118:0.292018 119:0.0939671 120:0.265873 121:0.082169 122:0.0504165 123:0.0788241 124:0.0336028 125:0.302101 126:0.0106761 127:0.0212055 128:0.297021 129:0.086293 130:0.361524 131:0.151543 132:0.00839296 133:0.00913604 134:0.132248 135:0.0831606 136:0.0169492 137:0.0709315 138:0.340606 139:0.00427255 140:0.33124 141:0.222485 142:0.186398 143:0.0918324 144:0.493609 145:0.160976 146:0.16723 147:0.122172 148:0.119111 149:0.0938843 150:0.0830569 151:0.0835924 152:0.128206 153:0.140661 154:0.0343976 155:0.164966 156:0.2444 157:0.175686 158:0.090816 159:0.0181989 160:0.337562 161:0.0959024 162:0.00711857 163:0.0890335 164:0.340605 165:0.0771007 166:0.00460719 167:0.191513 168:0.22355 169:0.200927 170:0.114428 171:0.113056 172:0.2863 173:0.169703 174:0.00464347 175:0.0581413 176:0.0406903 177:0.0521409 178:0.238575 179:0.024826 180:0.0595558 181:0.142019 182:0.0343008 183:0.190619 184:0.0574466 185:0.122893 186:0.0366451 187:0.157205 188:0.000532543 189:0.0135397 190:0.064737 191:0.193454 192:0.181218 193:0.0819435 194:0.0550102 195:0.0125994 196:0.0822474 197:0.0509312 198:0.0695203 199:0.104528 
0 0 0.2513266587388636 0 0 0 0.005697058347482375 0.06675915380488819 0 0:0.0164658 1:0.107331 2:0.205227 3:0.0644718 4:0.0735797 5:0.13084 6:0.158875 7:0.239945 8:0.360892 9:0.0354924 10:0.0757649 11:0.105189 12:0.156128 13:0.185728 14:0.0896148 15:0.020339 16:0.27941 17:0.112208 18:0.00947475 19:0.268393 20:0.379381 21:0.245528 22:0.113467 23:0.424184 24:0.0382857 25:0.0579071 26:0.409513 27:0.100471 28:0.0931665 29:0.151752 30:0.0295022 31:0.17431 32:0.189442 33:0.308507 34:0.37613 35:0.0614503 36:0.0297026 37:0.038836 38:0.0145934 39:0.266801 40:0.185063 41:0.178457 42:0.0717579 43:0.00535118 44:0.059299 45:0.00903565 46:0.341523 47:0.111654 48:0.0256758 49:0.364055 50:0.383525 51:0.0281738 52:0.0297758 53:0.198702 54:0.0295996 55:0.385427 57:0.0153673 58:0.075343 59:0.108461 60:0.0373623 61:0.119587 62:0.175807 63:0.199986 64:0.329029 65:0.192971 66:0.215072 67:0.125216 68:0.318362 69:0.246207 70:0.263023 71:0.150548 72:0.143939 73:0.234659 74:0.113047 75:0.00319627 76:0.413238 77:0.148321 78:0.0509635 79:0.075956 80:0.00561688 81:0.102489 82:0.269907 83:0.358752 84:0.360892 85:0.187095 86:0.0349371 87:0.119099 88:0.166282 89:0.141244 90:0.0942183 91:0.0293982 92:0.0683078 93:0.37421 94:0.144782 95:0.117441 96:0.281824 97:0.261988 98:0.302539 99:0.00226469 100:0.315312 101:0.118875 102:0.122535 103:0.0696945 104:0.0877999 105:0.0687143 106:0.399216 107:0.249607 108:0.0375718 109:0.014127 110:0.0503697 111:0.409513 112:0.0463384 113:0.251228 114:0.0850717 115:0.0512935 116:0.148012 117:0.0794122 118:0.10293 119:0.150318 120:0.324191 121:0.0405342 122:0.0666877 123:0.171404 124:0.385427 125:0.100411 126:0.212793 127:0.0477999 128:0.26797 129:0.155127 130:0.10321 131:0.0037486 132:0.324951 133:0.00013905 134:0.0548841 135:0.265183 136:0.0523226 137:0.424184 138:0.222412 139:0.0413238 140:0.119947 141:0.318362 142:0.100837 143:0.0708703 144:0.089439 145:0.0677515 146:0.0281898 147:0.143095 148:0.015302 149:0.0718031 150:0.0662758 151:0.00747828 152:0.333811 153:0.399216 154:0.399216 155:0.434605 156:0.117088 157:0.354468 158:0.0270906 159:0.134305 160:0.103426 161:0.409513 162:0.0165059 163:0.167245 164:0.193787 165:0.0179913 166:0.00759968 167:0.163841 168:0.219109 169:0.112456 170:0.0726608 171:0.336249 172:0.045138 173:0.388084 174:0.318097 175:0.00148757 176:0.396227 177:0.045268 178:0.415504 179:0.104042 180:0.311693 181:0.147447 182:0.281989 183:0.104789 185:0.230026 186:0.000495385 187:0.308507 188:0.0727916 189:0.0103446 190:0.0730255 191:0.252064 192:0.236967 193:0.127556 194:0.0540371 195:0.225511 196:0.0631419 197:0.13176 198:0.261756 199:0.0987356 
0 0 0 0.1380258279837362 0 0 0 0 0 0:0.0131943 1:0.173531 2:0.0438875 3:0.123864 4:0.0234897 5:0.0628434 6:0.120014 7:0.268197 8:0.365144 9:0.0278467 10:0.0101624 11:0.0753339 12:0.365144 13:0.169661 14:0.0339152 15:0.0241855 16:0.346405 17:0.132477 18:0.0616752 19:0.221229 20:0.344983 21:0.204116 22:0.119884 23:0.39264 24:0.083837 25:0.0331955 26:0.365427 27:0.187577 28:0.154704 29:0.0746509 30:0.050051 31:0.0883459 32:0.0837079 33:0.168978 34:0.368231 35:0.0572889 36:0.0399067 37:0.0192504 38:0.0202939 39:0.355064 40:0.189891 41:0.0854004 42:0.0174961 43:0.0266647 44:0.059079 45:0.00343456 46:0.194026 47:0.143292 48:0.00129543 49:0.316233 50:0.389815 51:0.0395739 52:0.104631 53:0.220471 54:0.107707 55:0.344983 56:0.0445499 57:0.00319524 58:0.0963245 59:0.0376296 60:0.094888 61:0.158804 62:0.0690095 63:0.0472721 64:0.124404 65:0.0978869 66:0.0597141 67:0.0548842 68:0.314178 69:0.276574 70:0.238693 71:0.146219 72:0.12985 73:0.314199 74:0.161193 75:0.000274532 76:0.316534 77:0.186973 78:0.0578769 79:0.0585594 80:0.101748 81:0.15103 82:0.299494 83:0.365144 84:0.365144 85:0.411993 86:0.0835163 87:0.0723609 88:0.0716722 89:0.212623 90:0.0919077 91:0.147547 92:0.0872853 93:0.39115 94:0.181953 95:0.0483406 96:0.406087 97:0.344975 98:0.344975 99:0.0109041 100:0.314178 101:0.0833759 102:0.217786 103:0.137757 104:0.0847873 105:0.166613 106:0.349681 107:0.289866 108:0.0116827 109:0.0423889 110:0.0543011 111:0.365427 112:0.0249339 113:0.252977 114:0.0871592 115:0.076271 116:0.0851574 117:0.111472 118:0.0872836 119:0.101513 120:0.315188 121:0.0696644 122:0.101647 123:0.330196 124:0.344983 125:0.00285716 126:0.207037 127:0.0502347 128:0.301735 129:0.154991 130:0.0962276 131:0.00970271 132:0.221277 133:0.0177685 134:0.059479 135:0.141981 136:0.0329047 137:0.39264 138:0.173715 139:0.0392268 140:0.162086 141:0.314178 142:0.136127 143:0.0731187 144:0.0843711 145:0.0384646 146:0.109314 147:0.165862 148:0.0210988 149:0.0783421 150:0.0459004 151:0.014104 152:0.299494 153:0.349681 154:0.349681 155:0.460922 156:0.0492446 157:0.348362 158:0.0097154 159:0.0425233 160:0.0680218 161:0.365427 162:0.0161913 163:0.334112 164:0.232735 165:0.037479 166:0.0182701 167:0.19526 168:0.207349 169:0.149648 170:0.0684568 171:0.314199 172:0.0730812 173:0.391933 174:0.350315 175:0.012114 176:0.371721 177:0.176548 178:0.374703 179:0.170854 180:0.279115 181:0.136452 182:0.257979 183:0.296741 184:0.00122642 185:0.345349 186:0.0467438 187:0.346405 188:0.0578891 189:0.0514561 190:0.0899982 191:0.270229 192:0.124322 193:0.132454 194:0.203428 195:0.272212 196:0.0443973 197:0.215725 198:0.289848 199:0.0317852 
0 0 0.08314957464639798 0 0 0 0 0 0 0:0.123873 1:0.338562 2:0.0169287 3:0.0991369 4:0.0930824 5:0.160095 6:0.261414 7:0.0621634 8:0.142818 9:0.0891775 10:0.0608275 11:0.0506341 12:0.089727 13:0.161038 14:0.0220191 15:0.0448342 16:0.269027 17:0.100867 18:0.0773373 19:0.102837 20:0.0681364 21:0.1945 22:0.195824 23:0.108812 24:0.0137859 25:0.0754312 26:0.297795 27:0.107374 28:0.361002 29:0.0140676 30:0.403798 31:0.195946 32:0.230071 33:0.367092 34:0.0814649 35:0.287482 36:0.121983 37:0.275748 38:0.222704 39:0.0588229 40:0.00303765 41:0.0960827 42:0.0658562 43:0.0618346 44:0.156337 45:0.0480301 46:0.235222 47:0.123538 48:0.144274 49:0.302939 50:0.267943 51:0.058396 52:0.127654 53:0.310564 54:0.00407925 55:0.00145749 56:0.152006 57:0.233154 58:0.173968 59:0.317703 60:0.0726119 61:0.139698 62:0.0594347 63:0.208352 64:0.326721 65:0.315403 66:0.364316 67:0.296963 68:0.253223 69:0.0938502 70:0.05773 71:0.333336 72:0.00451725 73:0.0233187 74:0.0448858 75:0.36567 76:0.102342 77:0.0876205 78:0.01392 79:0.12359 80:0.0092539 81:0.225225 82:0.358417 83:0.0505019 84:0.204024 85:0.0530546 86:0.162376 87:0.169097 88:0.183749 89:0.164069 90:0.00979797 91:0.214107 92:0.159141 93:0.0413022 94:0.0916022 95:0.0604134 96:0.055689 97:0.0664913 98:0.208761 99:0.107705 100:0.119637 101:0.0138747 102:0.0378492 103:0.013157 104:0.208252 105:0.00351864 106:0.11003 107:0.0949035 108:0.108149 109:0.330964 110:0.0747797 111:0.160387 112:0.0104992 113:0.0840169 114:0.196587 115:0.327019 116:0.0109531 117:0.162085 118:0.100558 119:0.0472244 120:0.0898121 121:0.0527448 122:0.0713088 123:0.0424765 125:0.0638975 126:0.0437128 127:0.213728 128:0.00969273 129:0.136956 130:0.169122 131:0.0156853 132:0.0958937 133:0.118153 134:0.148505 135:0.262611 136:0.090023 137:0.266362 138:0.117119 139:0.030663 140:0.0239375 141:0.0764523 142:0.157981 143:0.220313 144:0.125379 145:0.146139 146:0.189028 147:0.000961328 148:0.471003 149:0.418637 150:0.126362 151:0.449161 152:0.215824 153:0.174655 154:0.185008 155:0.0570269 156:0.0974103 157:0.150287 158:0.120391 159:0.175875 160:0.292769 161:0.140591 162:0.11569 163:0.129342 164:0.20392 165:0.040042 166:0.125442 167:0.160661 168:0.120344 169:0.233959 170:0.00245338 171:0.00116515 172:0.0280349 173:0.50158 174:0.105065 175:0.145567 176:0.00681313 177:0.0605137 178:0.113941 179:0.384997 180:0.0299854 181:0.0485334 182:0.0458169 183:0.0472747 184:0.0392197 185:0.0691845 186:0.0483401 187:0.340453 188:0.117047 189:0.0639376 190:0.133963 191:0.324241 192:0.421622 193:0.0761646 194:0.0653819 195:0.000813184 196:0.00409017 197:0.0177153 198:0.169354 199:0.0435239 
0.03853830292439884 0 0 0 0 0 0 0 0 0:0.0673332 1:0.0601721 2:0.0641753 3:0.324133 4:0.0860847 5:0.11406 6:0.00349316 7:0.121347 8:0.231506 9:0.249928 10:0.0233088 11:0.0277332 12:0.0913888 13:0.0672115 14:0.026755 15:0.0586847 16:0.0133048 17:0.000185704 18:0.26422 19:0.0183751 21:0.0554305 22:0.0602474 23:0.00198909 24:0.452674 25:0.0014414 26:0.0757841 27:0.369963 28:0.0114906 29:0.0695844 30:0.0188502 31:0.0174755 32:0.00217561 34:0.0125721 35:0.00201195 36:0.00307303 37:0.000268618 38:0.426369 39:0.0482792 40:0.000629964 41:0.000694806 42:0.0309168 43:0.114696 45:0.0359424 46:0.00254502 47:0.00305621 48:0.105671 49:0.0143836 50:0.2543 51:0.00173639 52:0.000228157 53:0.000803 54:0.0863215 55:0.150171 56:0.150283 57:0.019322 58:0.0717368 59:0.0315562 62:0.0400288 63:0.051528 64:0.00713535 65:0.00477701 66:0.00615412 67:0.000116626 68:0.0457852 69:0.340758 70:0.0586097 71:0.00390302 72:0.0104577 73:0.0113081 74:0.0432024 75:0.0055551 76:0.234554 77:0.53171 78:0.0298675 79:0.00512172 80:0.0652486 81:0.0262869 82:0.0713305 83:0.00198139 84:0.171385 85:0.261527 86:0.0141224 87:0.00772074 88:0.0567779 90:0.187416 91:0.0618359 93:0.0252721 94:0.000185479 95:0.581561 96:0.156681 97:0.109603 98:0.135719 99:0.0384432 100:0.0491381 101:0.022416 102:0.0457184 103:0.035173 104:0.0170296 105:0.0191359 106:0.147244 107:0.0215322 108:0.0291477 109:0.0242589 110:0.151253 111:0.00133073 112:0.0345706 113:0.262594 114:0.0215309 115:0.00470197 116:0.252276 117:0.00383075 118:0.0743529 119:0.00237412 120:0.032988 121:0.156885 122:0.000519777 124:0.0972828 125:0.0710034 126:0.00317658 127:0.0018566 129:0.0895605 130:0.00985505 131:0.0324366 132:0.00369247 133:0.169499 134:0.134248 135:0.00657227 136:0.0865778 137:0.000165732 138:0.156742 139:0.00105743 140:0.53171 141:0.0713732 142:0.0857915 143:0.623776 145:0.0305633 146:0.349323 147:0.324294 148:0.00887394 149:0.0085362 150:0.0302761 151:0.00941709 152:0.17586 153:0.0670829 154:0.121862 155:0.0553794 156:0.180547 157:0.193915 158:0.0454032 159:0.0362717 160:0.0126217 161:0.0636657 162:0.00277288 163:0.0142846 164:0.121901 165:0.00367026 166:0.00111952 167:0.219737 168:0.301133 169:0.00164151 170:0.435772 171:0.00673179 172:0.0479254 173:0.000487697 174:0.070074 175:0.0224499 176:0.121077 177:0.0853205 178:0.0404281 179:0.151644 180:0.0277478 181:0.0259469 182:0.00587323 183:0.288543 184:0.0759128 185:0.0581636 186:0.0685746 188:0.00531842 189:0.00134596 191:0.00578479 192:0.0273211 194:0.0452434 195:0.34002 196:0.360867 197:0.0265086 198:0.0571651 199:0.0343231 
0 0 0.1064175626396681 0 0.03865167994101491 0 0 0 0 0:0.115782 1:0.035175 2:0.0708579 3:0.0649606 4:0.0620244 5:0.167076 6:0.0303034 7:0.0703677 8:0.0602596 9:0.00340314 10:0.059828 11:0.143445 12:0.0367888 13:0.236621 14:0.111494 15:0.0315539 16:0.064559 17:0.0806378 18:0.0677736 19:0.107285 21:0.263266 22:0.201667 23:0.0484633 24:0.036674 25:0.148698 26:0.0706047 27:0.206074 28:0.115303 29:0.185496 30:0.008769 31:0.0951927 32:0.108933 33:0.286304 34:0.00401745 35:0.190991 36:0.0650784 37:0.256135 38:0.064937 39:0.018773 40:0.514449 41:0.247272 42:0.117891 43:0.0315004 44:0.16056 45:0.0894839 46:0.188358 47:0.113118 48:0.0224229 49:0.027607 50:0.153594 51:0.424287 52:0.0660792 53:0.0381898 55:0.151634 56:0.105628 57:0.143129 58:0.116408 59:0.198243 60:0.188498 61:0.0339288 62:0.345135 63:0.0948391 64:0.172886 65:0.23163 66:0.331265 67:0.181805 68:0.56735 69:0.154722 70:0.304163 71:0.108506 72:0.120279 73:0.29555 74:0.0348206 75:0.00757361 76:0.189953 77:0.0584956 78:0.0291493 79:0.0328467 81:0.0606587 82:0.00938809 83:0.0282135 84:0.335008 85:0.160107 86:0.0622431 87:0.0665891 88:0.0339414 89:0.0460194 90:0.17426 91:0.0668841 92:0.0802677 93:0.0412094 94:0.0132707 95:0.0828641 96:0.117961 97:0.081693 98:0.132827 99:0.0850737 100:0.165874 101:0.0178609 102:0.0978189 103:0.0335932 104:0.0875383 105:0.0245765 106:0.0755765 107:0.198077 108:0.0131127 109:0.0726622 110:0.127267 111:0.301691 112:0.178718 113:0.246569 114:0.0308028 115:0.224666 116:0.036674 117:0.113699 118:0.122757 119:0.15048 120:0.406077 121:0.250883 122:0.179803 123:0.0510117 124:0.471879 125:0.133671 127:0.0267208 129:0.0487708 130:0.0626732 131:0.0979165 132:0.225943 133:0.0480728 134:0.280746 135:0.1279 136:0.0678887 137:0.473323 138:0.297948 139:0.0106983 140:0.0896382 141:0.43956 142:0.0725241 143:0.160478 144:0.134078 145:0.169464 146:0.175296 147:0.214756 148:0.0823438 149:0.0436328 150:0.0449996 151:0.00476427 152:0.0464103 153:0.0232704 154:0.217721 155:0.0201196 156:0.289351 157:0.26512 158:0.00168457 159:0.0736501 160:0.156687 161:0.0640698 162:0.13581 163:0.0483952 164:0.159317 165:0.136831 166:0.139537 167:0.157302 168:0.255819 169:0.0523192 170:0.222956 171:0.0544229 172:0.13619 173:0.254824 174:0.062796 175:0.0942491 176:0.0685662 177:0.0506283 178:0.0777211 179:0.372454 180:0.0516282 181:0.0741415 182:0.514449 183:0.110727 184:0.0688042 185:0.0221933 186:0.00406635 187:0.0776479 188:0.13117 189:0.0109016 190:0.119346 191:0.225213 192:0.0884377 193:0.112636 194:0.0131075 195:0.203166 196:0.0918711 197:0.0788735 198:0.231754 199:0.107759 
0.6475319797597168 0 0 0 0 0 0 0 0 0:0.0611731 1:0.154184 2:0.0542017 3:0.0858866 4:0.125793 5:0.0218467 6:0.135265 7:0.253992 8:0.400907 9:0.354505 10:0.113509 11:0.0760337 12:0.289243 13:0.000198191 14:0.0385314 15:0.0492095 16:0.189482 17:0.331661 18:0.033079 19:0.113983 20:0.207807 21:0.273962 22:0.0871501 23:0.000271215 24:0.354505 25:0.0535822 26:0.403144 27:0.0351103 28:0.258581 29:0.0324711 30:0.346245 31:0.154957 32:0.0700416 33:0.218683 34:0.014728 35:0.285066 36:0.102202 37:0.0323498 38:0.365337 39:0.0023703 40:0.137132 41:0.0413719 42:0.116205 43:0.0149121 44:0.267905 45:0.00842584 46:0.103929 47:0.131675 48:0.0128095 49:0.44563 50:0.372907 51:0.0850011 53:0.14859 54:0.314194 56:0.337518 57:0.0638363 58:0.089529 59:0.187511 60:0.140961 61:0.13914 62:2.26909e-005 63:0.139671 64:0.225832 65:0.0393469 66:0.0289274 67:0.116348 68:0.0220766 69:0.237282 70:0.123856 71:0.331661 72:0.208687 73:0.0586962 74:0.167842 75:0.337518 76:0.380969 77:0.326189 78:0.129305 79:0.234415 80:0.322222 81:0.0324812 82:0.368952 83:0.400907 84:0.400907 85:0.327402 86:0.359556 87:0.221075 88:0.0545185 89:0.0792521 90:0.0676977 91:0.32728 92:0.0499623 93:0.331166 94:0.100982 95:0.177615 96:0.13029 97:0.168557 98:0.335864 99:0.00402898 100:0.116389 101:0.254668 102:0.118766 103:0.0860977 104:0.292913 105:0.102128 106:0.407372 107:0.263324 108:0.00302223 109:0.359556 110:0.0565609 111:0.403144 113:0.141807 114:0.0257399 115:0.0307652 116:0.347836 117:0.0235594 118:0.0804716 119:0.331661 120:0.0466765 121:0.148266 122:0.104833 123:0.178261 125:0.0136356 126:0.12323 127:0.0413982 128:0.368351 129:0.185371 130:0.335864 131:0.087588 132:0.0217684 133:0.365337 134:0.19279 135:0.102498 136:0.0856379 137:0.00189851 138:0.0710511 139:0.0424412 140:0.326189 141:0.126837 142:0.249194 143:0.212593 144:0.18764 145:0.10837 146:0.246122 147:0.0821489 148:0.32728 149:0.190201 150:0.0076857 151:0.0782531 152:0.368952 153:0.407372 154:0.407372 155:0.436435 156:0.110559 157:0.00247092 158:0.0276489 159:0.328997 160:0.089049 161:0.403144 162:0.0194065 163:0.00215205 164:0.0886425 165:0.0636188 166:0.00029889 167:0.0594969 168:0.0418523 169:0.331661 170:0.0602671 171:0.110642 172:0.31621 173:0.435586 174:0.412026 175:0.33467 176:0.00576989 177:0.255444 178:0.368351 179:0.0531104 180:0.323593 181:0.242332 182:0.367346 183:0.15726 184:0.365337 185:0.140975 186:0.17177 187:0.225531 188:0.00161093 189:0.00201636 190:0.0883631 191:0.00505588 192:0.137504 193:0.258016 194:0.245917 195:0.321457 196:0.0908463 197:0.0615039 198:0.04386 199:0.0855277 
0 0 0.6868541071024326 0 0 0 0 0 0 0:0.04919 1:0.118625 2:0.0425641 3:0.0812642 4:0.0458237 5:0.0626018 6:0.107489 7:0.236856 8:0.26867 9:0.321379 10:0.0490121 11:0.0474509 12:0.208971 13:0.0237305 14:0.0775714 15:0.0843593 16:0.151756 17:0.20695 18:0.0188877 19:0.286859 20:0.182157 21:0.0587301 22:0.0548085 23:0.0033582 24:0.321379 25:0.064552 26:0.220886 27:0.225324 28:0.286859 29:0.0768631 30:0.147912 31:0.142545 32:0.119171 33:0.107862 34:0.18466 35:0.110632 36:0.0835401 37:0.0957627 38:0.314824 39:0.0317579 40:0.261107 41:0.265686 42:0.0367701 43:0.017872 44:0.124894 45:0.0482615 46:0.0646684 47:0.199612 48:0.0363982 49:0.401048 50:0.371179 51:0.0641857 52:0.00496897 53:0.0774284 54:0.360414 55:0.0183298 56:0.315822 57:0.0948136 58:0.286859 59:0.121317 60:0.0693376 61:0.157046 62:0.0230097 63:0.0609301 64:0.113092 65:0.272012 66:0.129299 67:0.0218698 68:0.0335278 69:0.180335 70:0.121342 71:0.286859 72:0.139273 73:0.118024 74:0.385812 75:0.170834 76:0.105925 77:0.288474 78:0.106069 79:0.111292 80:0.321668 81:0.017718 82:0.40208 83:0.387812 84:0.387812 85:0.144089 86:0.310577 87:0.302207 88:0.113768 89:0.0343558 90:0.101785 91:0.360414 92:0.021399 93:0.364403 94:0.29447 95:0.049214 96:0.0061806 97:0.145789 98:0.356117 99:0.0339487 100:0.0874781 101:0.115526 102:0.189322 103:0.0521856 104:0.336538 105:0.256213 106:0.195601 107:0.372852 108:0.0120192 109:0.310577 110:0.104546 111:0.431396 112:0.0274524 113:0.0833402 114:0.00963217 115:0.0798441 116:0.321379 117:0.0684149 118:0.0879406 119:0.199792 120:0.118018 121:0.228795 122:0.144656 123:0.141605 124:0.0221472 125:0.0595167 126:0.141069 127:0.0529623 128:0.046212 129:0.121587 130:0.115966 131:0.143056 132:0.0291074 133:0.26366 134:0.0443702 135:0.291505 136:0.0327975 137:0.0352804 138:0.13371 139:0.154998 140:0.288474 141:0.198513 142:0.135993 143:0.325241 144:0.176633 145:0.062534 146:0.223072 147:0.0335215 148:0.218397 149:0.0553315 150:0.0167718 151:0.0527332 152:0.40208 153:0.398987 154:0.398987 155:0.409457 156:0.0645132 157:0.0307936 158:0.0234903 159:0.310577 160:0.0857584 161:0.431396 162:0.0698918 163:0.0311393 164:0.0855011 165:0.0984375 166:0.0011158 167:0.072685 168:0.161561 169:0.286859 170:0.0109856 171:0.0412542 172:0.360414 173:0.351577 174:0.385812 175:0.343792 176:0.0151414 177:0.165923 178:0.430638 179:0.0791362 180:0.375161 181:0.227026 182:0.358018 183:0.431396 184:0.314824 185:0.157451 186:0.101836 187:0.0681098 188:0.0610701 189:0.0399794 190:0.0575904 191:0.0128631 192:0.286859 193:0.120114 194:0.325241 195:0.220186 196:0.105453 197:0.204109 198:0.0313684 199:0.0352829 
0.07342556841235148 0 0 0 0 0.1793610805617563 0.1657403659777173 0 0 0:0.0406821 1:0.082282 2:0.0991995 3:0.0571308 4:0.0401125 5:0.0655164 6:0.0896613 7:0.297616 8:0.371453 9:0.297616 10:0.0906161 11:0.0201296 12:0.371453 13:0.0455969 14:0.074341 15:0.102362 16:0.149125 17:0.310282 18:0.00477444 19:0.146002 20:0.275512 21:0.125804 22:0.112188 23:0.00373892 24:0.297616 25:0.0743553 26:0.374765 27:0.101103 28:0.208519 29:0.0335468 30:0.336335 31:0.186021 32:0.0918871 33:0.24229 34:0.109503 35:0.214827 36:0.122466 37:0.0295008 38:0.289977 39:0.178327 40:0.334985 41:0.208296 42:0.108726 43:0.0115548 44:0.291992 45:0.034461 46:0.0673256 47:0.144373 48:0.0466046 49:0.393536 50:0.353369 51:0.281205 52:0.0810477 53:0.108557 54:0.231975 55:0.0195948 56:0.316137 57:0.0700686 58:0.0290429 59:0.202523 60:0.128407 61:0.203492 62:0.03358 63:0.11306 64:0.0836975 65:0.0987773 66:0.100107 67:0.18982 68:0.0989876 69:0.251109 70:0.0634829 71:0.310282 72:0.0693167 73:0.162694 74:0.378584 75:0.315698 76:0.393734 77:0.226928 78:0.223781 79:0.241116 80:0.323949 81:0.045567 82:0.339743 83:0.371453 84:0.371453 85:0.359623 86:0.311455 87:0.317328 88:0.027878 89:0.092093 90:0.0117622 91:0.330752 92:0.0554688 93:0.316742 94:0.152185 95:0.0914775 96:0.114929 97:0.18626 98:0.360399 99:0.0462846 100:0.112442 101:0.125645 102:0.0742247 103:0.103106 104:0.258463 105:0.0706406 106:0.390664 107:0.366046 108:0.0178597 109:0.311455 110:0.138018 111:0.374765 112:0.0928805 113:0.117352 114:0.0452173 115:0.0376188 116:0.261877 117:0.0352272 118:0.1011 119:0.310282 120:0.109538 121:0.172597 122:0.162063 123:0.260197 124:0.00243096 125:0.0527772 126:0.192756 127:0.0465003 128:0.231133 129:0.143177 130:0.235442 131:0.09685 132:0.0773486 133:0.272712 134:0.0796339 135:0.193847 136:0.0471296 137:0.0521822 138:0.123221 139:0.147486 140:0.317914 141:0.0903288 142:0.181774 143:0.15999 144:0.231898 145:0.135453 146:0.180052 147:0.0915374 148:0.295095 149:0.197804 150:0.0574184 151:0.0825388 152:0.339743 153:0.390664 154:0.390664 155:0.479251 156:0.07985 157:0.0526268 158:0.0309835 159:0.311455 160:0.0886967 161:0.374765 162:0.289977 163:0.0753159 164:0.0611952 165:0.0934726 166:0.0142292 167:0.140054 168:0.123073 169:0.310282 170:0.133643 171:0.0590995 172:0.302644 173:0.380611 174:0.378584 175:0.355379 176:0.0315796 177:0.309111 178:0.392727 179:0.0430795 180:0.395168 181:0.313442 182:0.369542 183:0.110531 184:0.289977 185:0.18659 186:0.14528 187:0.112751 188:0.175799 189:0.0456397 190:0.11032 191:0.0167408 192:0.194208 193:0.204682 194:0.101764 195:0.196832 196:0.114097 197:0.0484007 198:0.0479509 199:0.0718231 
0 0.04357207894113017 0 0 0 0 0 0 0 0:0.403419 1:0.0906434 2:0.00420931 3:0.0634451 4:0.019922 5:0.164884 6:0.0455155 7:0.104269 8:0.380044 9:0.116868 10:0.0131195 11:0.0111581 12:0.158438 13:0.0529033 14:0.00951153 15:0.363597 16:0.104112 17:0.0285994 18:0.308345 19:0.00879155 20:0.069524 21:0.403419 22:0.160269 23:0.102165 24:0.0422202 25:0.0267109 26:0.3309 27:0.1365 28:0.0083075 29:0.000343096 30:0.369578 31:0.0972368 33:0.000711935 34:0.1718 35:0.0229051 36:0.0130681 37:0.0138739 38:0.129096 39:0.211679 40:0.0465457 41:0.00460034 42:0.145302 43:0.301375 44:0.0208056 45:0.00252591 47:0.0087383 48:0.0282861 49:0.0136429 51:0.0261874 52:6.66826e-005 53:0.019426 54:0.33629 55:0.0307764 56:0.237111 57:0.21075 58:0.0233593 59:0.00695375 60:0.0358556 61:0.0277338 62:0.00116808 63:0.278499 64:0.426465 65:0.0277521 67:0.0246718 69:0.54214 70:0.00161318 71:0.0575062 72:0.000212935 74:0.0407075 75:0.107717 76:0.388674 77:0.0251781 78:0.406575 79:0.00928218 80:0.0915125 81:0.0430033 82:0.041906 83:0.14551 84:0.380044 85:0.272279 86:0.363597 87:0.0573389 88:0.0506095 89:0.0266862 90:0.00122216 91:0.155917 92:0.0212657 93:0.193035 94:0.0120305 97:0.000358374 98:0.0432741 99:0.0417225 100:0.00829834 101:0.0498352 102:0.215685 103:0.274828 104:0.0313755 105:0.220449 106:0.376743 107:0.00802325 108:0.126183 109:0.0113842 111:0.307553 112:0.00800174 113:0.157087 114:0.00302548 115:0.125589 116:0.0836582 118:0.00515313 119:0.0431569 120:0.00303958 121:0.208542 122:0.0970925 123:0.0453893 125:0.0348608 126:0.0761486 127:0.145797 130:0.426465 133:0.149679 134:0.400802 135:0.000705665 136:0.156281 137:0.254311 138:0.00368247 139:0.296314 140:0.000733558 142:0.261042 143:0.511899 144:0.0168988 145:0.0068511 146:0.349692 148:0.139545 149:0.038887 150:0.00572355 151:0.0720237 152:0.142216 153:0.19712 154:0.20333 155:0.126271 156:0.380044 157:0.0219653 158:0.24097 159:0.165572 160:0.0718855 161:0.377481 162:0.038481 163:0.145689 164:0.0701029 165:0.0156918 166:0.00195159 167:0.159586 168:0.0704109 169:0.0433987 171:0.365036 172:0.192081 174:0.362353 177:0.0447244 178:0.107756 179:0.313446 180:0.224706 181:0.0144412 182:0.247853 183:0.377481 184:0.103862 185:0.00170551 186:0.0965811 187:0.011068 189:0.06613 190:0.0432152 191:0.0326624 192:0.0148522 193:0.0111105 194:0.36464 195:0.368092 196:0.037925 197:0.151173 198:0.0149332 199:0.000343679 
