svm_type c_svc
kernel_type linear
nr_class 5
total_sv 95
rho -0.247863 -0.430655 -0.279043 -0.285009 -0.399108 -0.158561 -0.252771 0.720521 0.129114 -0.0145824
label 0 10100 12300 13810 35010
probA -3.38179 -3.26219 -2.89201 -3.07266 -4.58694 -4.21279 -4.30917 -4.20493 -4.3375 -3.89974
probB 1.45165 1.32905 1.02272 1.18218 -0.0700397 -0.32863 -0.176886 -0.19242 -0.155062 0.105659
nr_sv 3 26 25 27 14
SV
0.1850194874955996 0.1935879020288966 0.2072015696639707 0.207802413770128 0:0.0860547 1:0.12619 2:0.047535 3:0.00693399 4:0.0122878 5:0.0277938 6:0.16683 7:0.0997485 8:0.00578407 9:0.00120381 10:0.374121 11:0.00995577 12:0.000295685 13:0.100516 14:0.0119904 15:0.0518412 17:0.00559144 18:0.336441 19:0.140039 20:0.00276963 21:0.377784 22:0.0151121 23:0.0168438 24:0.0882126 25:0.0463275 26:0.00102811 27:0.0101809 28:0.250431 29:0.314647 30:0.0443284 31:0.0389454 32:0.00174323 33:0.00246798 34:0.255442 35:0.373989 36:0.0742534 37:0.0668055 38:0.0370376 40:0.320195 41:0.00535616 42:0.00299619 43:0.363379 44:0.00215793 45:0.0122045 46:0.0239539 47:0.0213151 48:0.276629 49:0.0966284 50:0.0236707 51:0.00193654 52:0.0236358 53:0.05617 54:0.031239 55:0.0274676 56:0.0286643 57:0.00930605 58:0.0206418 59:0.0917253 60:0.0347921 61:0.157464 62:0.0111645 63:0.00239411 64:0.015959 67:0.284239 68:0.0116392 69:0.0621201 70:0.0199469 71:0.00459773 72:0.0430989 73:0.44213 74:0.106265 75:0.0938517 76:0.0468181 77:0.175883 78:0.00110748 79:0.245618 80:0.00511636 81:0.0129855 82:0.0680185 83:0.0117967 84:0.314685 85:0.0500285 86:0.364327 87:0.0521364 88:0.000221106 89:0.0365659 90:0.320937 91:0.0701053 92:0.305271 93:0.0346788 94:0.383796 95:0.0110422 96:0.164963 97:0.099851 98:0.218783 99:0.0465565 100:0.261714 101:0.182133 102:0.0606965 103:0.0112344 104:0.043193 105:0.251886 106:0.111717 107:0.0829508 108:0.240257 109:0.00556703 110:0.0465737 111:0.0160359 112:0.00206764 113:0.281623 114:0.313099 115:0.336441 116:0.108516 117:0.0397237 118:0.287822 119:0.359409 120:0.225435 121:0.097703 122:0.110668 123:0.0450611 124:0.122663 125:0.0163074 126:0.0244674 127:0.210983 128:0.0668568 129:0.0238296 130:0.020341 131:0.182731 132:0.141753 133:0.00282214 134:0.000269251 135:0.00461321 136:0.306385 137:0.0386188 138:0.208472 139:0.0608169 140:0.0422685 141:0.0588788 142:0.0495025 143:0.0107971 144:0.011262 145:0.013626 146:0.0839673 147:0.318465 148:0.0321024 149:0.00639073 150:0.0196478 151:0.320195 152:0.0681654 153:0.0160349 155:0.310267 156:0.248001 157:0.00154283 158:0.0167604 159:0.00904598 160:0.0464128 161:0.346256 162:0.00832738 163:0.0509172 164:0.0596716 165:0.00420325 166:0.00846883 167:0.00745498 168:0.314667 169:0.00358156 170:0.0295674 171:0.327299 172:0.0131739 173:0.0072425 174:0.0462577 175:0.232297 176:0.197243 177:0.0106359 178:0.0160603 179:0.348452 180:0.266479 181:0.0937857 182:0.0336908 183:0.0255286 184:0.0243228 185:0.0286957 186:0.100536 187:0.0324057 188:0.36226 189:0.259119 190:0.324066 191:0.00750847 192:0.270831 193:0.191561 194:0.0598491 195:0.108894 196:0.0959243 197:0.0114198 198:0.00323687 199:0.291994 
0.1490429791426514 0.1188653104083053 0.1512957466261612 0.08655183341161882 0:0.161735 1:0.126899 2:0.0112224 3:0.0064993 4:0.0137061 5:0.0286264 6:0.0255285 7:0.15748 8:0.00893665 9:0.00463794 10:0.0931044 11:0.013608 13:0.0452589 14:0.0132105 15:0.0144134 17:0.0013918 18:0.252411 19:0.180413 20:0.012193 21:0.407577 22:0.0514873 23:0.0588946 24:0.0564938 25:0.0410417 26:0.000178751 27:0.0024274 28:0.362576 29:0.343232 30:0.0376465 31:0.132012 32:0.000617152 33:0.00550647 34:0.255064 35:0.344074 36:0.0248801 37:0.116462 38:0.043348 40:0.331478 41:0.000445314 43:0.139182 45:0.0324995 46:0.115475 47:0.0580649 48:0.249381 49:0.163709 50:0.00125126 51:0.00187211 52:0.042506 53:0.0615434 54:0.00406082 55:0.0288782 56:0.0173143 57:0.0326622 58:0.155965 59:0.088336 60:0.0331731 61:0.129086 62:0.0481234 63:0.0203122 64:0.0416634 65:0.00151114 67:0.0519465 69:0.0754328 70:0.0173589 71:0.00312963 72:0.10978 73:0.417905 74:0.157173 75:0.153869 76:0.00187251 77:0.104009 79:0.292442 80:0.00204123 81:0.0387403 82:0.0300154 83:0.0153291 84:0.344189 85:0.0129533 86:0.229372 87:0.0102598 88:0.00416062 90:0.307467 91:0.0527503 92:0.280642 93:0.0396266 94:0.392174 95:0.000104408 96:0.360494 97:0.0281757 98:0.360494 99:0.00555357 100:0.143091 101:0.286065 102:0.0212194 103:0.00361103 104:0.0413161 105:0.285987 106:0.166476 107:0.0910686 108:0.310638 109:0.00982493 110:0.0181174 111:0.0203169 112:0.0090326 113:0.328028 114:0.3591 115:0.373488 116:0.292442 117:0.0891725 118:0.0494058 119:0.227375 120:0.17287 121:0.178699 122:0.0576423 123:0.0819056 124:0.0696968 125:0.132987 126:0.0105686 127:0.122391 128:0.118896 129:0.12427 130:0.00431179 131:0.340455 132:0.0241734 133:0.00359785 134:0.00139778 135:0.000508589 136:0.366881 137:0.103652 138:0.248041 139:0.0969146 140:0.0176847 141:0.000702508 142:0.00771758 143:0.035583 144:0.000687856 145:0.0151305 146:0.0813936 147:0.290557 148:0.0164201 149:0.00490712 151:0.331478 152:0.0792471 153:0.00314203 155:0.275811 156:0.191104 157:0.00103743 158:0.0114012 159:0.00595628 160:0.0471224 161:0.340048 162:0.00741325 163:0.0368118 164:0.0569006 165:0.00319296 166:0.0149999 167:0.0417071 168:0.352709 169:0.00442944 170:0.0534784 171:0.256425 172:0.00819591 173:0.00555679 174:0.0251957 175:0.28128 176:0.200017 177:0.0133788 178:0.077018 179:0.307736 180:0.196854 181:0.115039 182:0.0471813 183:0.0524275 184:0.0154916 185:0.0461445 186:0.0788179 187:0.0595301 188:0.362576 189:0.153579 190:0.177257 191:0.0359875 192:0.10141 193:0.364132 194:0.0732435 195:0.121982 196:0.0601875 197:0.00571948 198:0.00631659 199:0.344074 
0.2012021825825376 0.230301870457929 0.2390714668614279 0.2344477937214129 0:0.205863 1:0.000463167 2:0.0232925 3:0.0499003 4:0.0236207 5:0.166574 6:0.0471171 7:0.0893827 8:0.0665571 9:0.00947006 10:0.103058 11:0.0447624 12:0.00212778 13:0.00494185 14:0.010279 15:0.00913344 17:0.000570091 18:0.396984 19:0.014251 20:0.0101392 21:0.359644 22:0.0305038 23:0.0991201 24:0.0586143 25:0.0190476 26:0.00266554 27:0.00674489 28:0.403177 29:0.0416629 30:0.0195313 31:0.0189801 32:0.0109565 33:0.00634894 34:0.0647878 35:0.355427 36:0.0122782 37:0.0664864 38:0.0532438 39:0.000629189 40:0.360329 41:0.016772 43:0.103496 44:0.0383222 45:0.0442324 46:0.295139 47:0.00568865 48:0.265998 49:0.0536751 50:0.00444257 51:0.00282302 52:0.0649832 53:0.0208035 54:0.121905 55:0.00308371 56:0.0427091 57:0.000421479 58:0.0642923 59:0.10676 60:0.101211 61:0.151969 62:0.00248334 63:0.000203553 67:0.151233 68:0.00067953 69:0.0487159 70:0.00403774 71:0.00148044 72:0.0171529 73:0.48435 74:0.116785 75:0.252248 76:0.174557 77:0.0034936 79:0.232595 80:0.00238846 81:0.0532251 82:0.0370345 83:0.062489 84:0.122737 85:0.0395383 86:0.0985524 87:0.0613081 88:0.00856572 89:0.0001542 90:0.35763 91:0.0146184 92:0.223604 93:0.00406359 94:0.364598 95:0.0129276 96:0.247561 97:0.0724528 98:0.337737 99:0.06272 100:0.239274 101:0.277205 102:0.0605627 103:0.0114505 104:0.0156555 105:0.348418 106:0.198658 107:0.0567168 108:0.28871 109:0.00802353 110:0.0796216 111:0.0146553 112:0.00671027 113:0.309403 114:0.145312 115:0.408668 116:0.0918848 117:0.308966 118:0.126279 119:0.0747224 120:0.0844687 121:0.129342 122:0.048659 123:0.0288309 124:0.14485 125:0.0544296 126:0.0078834 127:0.186015 128:0.0963567 129:0.13951 130:4.94946e-005 131:0.357056 132:0.143876 133:0.0225195 134:0.0239623 135:0.0660112 136:0.187687 137:0.00112267 138:0.000281353 139:0.000542637 140:0.00949806 141:0.00332751 142:0.00017601 143:0.0181345 144:0.0881343 145:0.0114275 146:0.0619708 147:0.344903 150:0.00113255 151:0.360329 152:0.184169 153:0.0470934 155:0.339043 156:0.0421252 157:0.00106974 158:0.000749846 159:0.000249326 160:0.00795457 161:0.044346 162:0.00622078 163:0.0549736 164:0.156356 165:0.0789383 166:0.0597916 167:0.0949881 168:0.32492 169:0.0639904 170:0.0208703 171:0.134356 172:0.0483145 173:0.000457699 174:0.00190289 175:0.00809977 176:0.266122 177:0.372305 178:0.049101 179:0.203434 180:0.0788041 181:0.108911 182:0.00689289 183:0.0225111 184:0.00772102 185:0.00414672 186:0.0472783 187:0.153434 188:0.403177 189:0.0263347 190:0.394662 191:0.0649647 192:0.110917 193:0.16982 194:0.40423 195:0.19162 196:0.014831 197:0.064799 198:0.001293 199:0.355427 
-0 0 0.03366432672452482 0 0:0.279178 1:0.000166739 2:0.171089 3:0.00821721 4:0.0130658 5:0.00877521 6:0.00487459 7:0.00200526 8:0.0107818 9:0.00590494 10:0.321081 11:0.00144498 12:0.00367465 13:0.285383 14:0.0381309 16:0.00485963 17:0.064861 18:0.126931 19:0.0186003 20:0.0774109 21:0.363068 22:0.0154125 23:0.022941 24:0.279178 25:0.279178 26:0.126605 27:0.00454445 28:0.00391461 29:0.347743 30:0.224325 31:0.0898601 32:0.277334 33:0.233109 35:0.327091 36:0.102888 37:0.0993536 38:0.436884 39:0.371239 40:0.136955 41:0.41689 42:0.0466005 44:0.351329 46:0.0446963 48:0.137255 49:0.0906207 50:0.252767 51:0.00234668 52:0.00329663 53:0.0231318 54:0.00142248 55:0.0388301 56:0.000958779 57:0.0431583 58:0.309863 59:0.017503 60:0.174268 62:3.56106e-005 63:3.56106e-005 64:0.00247031 65:0.0147422 66:0.0289624 67:0.0130268 68:0.0127533 70:0.0245498 71:0.464715 72:5.99534e-005 73:0.0739262 74:0.0302504 75:0.365244 76:0.321081 77:0.344379 78:0.00311112 79:0.0424828 80:0.00157889 81:0.0303288 82:0.00993767 83:0.0932095 84:0.0237083 85:0.00742318 86:0.0158347 87:0.358627 88:0.147416 89:0.0203736 90:0.0288267 91:0.0127093 92:0.00783887 93:0.158646 94:0.337537 95:0.0174782 96:0.0727135 97:0.0315383 98:0.177502 99:0.00833916 100:0.000370102 101:0.0741091 102:0.17507 103:0.0611693 104:0.428934 106:0.0818546 107:0.252993 108:0.373671 109:0.329897 110:0.0189939 111:0.0799374 112:0.00906926 113:0.363068 114:0.323918 115:0.013532 116:0.277807 117:0.0106062 118:0.0109235 119:0.045922 120:0.424265 121:0.0657491 122:0.0628859 123:0.321239 124:0.0378041 125:0.0843731 126:0.00646679 127:0.271766 128:1.13365e-005 129:0.201709 130:0.00778754 131:0.155659 132:0.358627 133:0.348823 134:0.348823 135:0.179755 136:0.0191639 137:0.00226739 138:0.000905338 139:0.129475 140:0.019433 141:0.0373696 143:0.0472117 144:0.0330463 145:0.00805132 146:0.375072 147:0.145525 148:0.172062 149:0.0275316 150:0.0230179 151:0.000191053 152:0.130407 153:0.488109 154:0.00189217 155:0.00162573 156:0.0311058 157:0.0833635 158:0.0717359 159:0.00388982 160:0.0454666 161:0.264534 162:0.116378 163:0.0292249 164:0.0158713 165:0.365244 166:0.240477 167:0.0287593 168:0.0436345 169:0.140386 171:0.344379 172:0.00514833 173:0.00162379 174:0.098965 175:0.409713 176:0.000190358 177:0.00246709 178:0.107732 179:0.0127514 180:0.0102414 181:0.321239 182:0.0661855 183:0.321239 184:0.013925 185:0.00235137 187:0.322227 189:0.264579 190:0.38141 191:0.0688562 192:0.116485 193:0.309863 194:0.358627 195:0.0726141 196:0.0085365 197:0.0401491 198:0.155741 199:0.327091 
-0.02201230208497852 0 0 0 0:0.0705623 1:0.00149999 2:0.15611 3:0.0156926 4:0.0739148 5:0.0465677 6:0.111111 7:0.00824985 9:0.000715276 10:0.0810101 11:0.00311066 12:0.00405932 13:0.346094 14:0.114721 15:0.0668567 16:0.135028 17:0.03357 18:0.00211591 19:0.185024 20:0.000872187 21:0.36242 22:0.000247163 23:0.102751 24:0.276162 25:0.133975 26:0.0530576 27:0.00218445 28:0.0010092 29:0.382196 30:0.24622 31:0.10693 32:0.00891741 33:0.0211938 34:0.00363583 35:0.321988 36:0.140592 37:0.189614 38:0.657662 39:0.0240163 40:0.257859 41:0.26114 42:0.0309123 43:0.0111671 44:0.089014 45:0.00853928 46:0.259883 47:0.00268877 48:0.193773 49:0.105303 50:0.205446 51:0.00441527 52:0.00515566 53:0.023692 54:0.00764518 55:0.0480938 56:0.00580481 57:0.0500266 58:0.346094 59:0.0225406 60:0.352221 61:8.46863e-005 62:0.00875347 63:0.00470566 64:0.0310856 65:0.0124543 66:0.130612 67:0.118939 68:0.0197972 69:0.000428834 70:0.0295326 71:0.396495 73:0.354629 74:0.0017489 75:0.351581 76:0.0416995 77:0.456595 78:0.0192449 79:0.052823 80:0.0454311 81:0.000188018 83:0.00552742 84:0.00728944 85:0.00303128 86:0.00225106 87:0.375719 88:0.000493026 89:0.0120368 90:0.0463373 91:0.0186643 92:0.040677 93:0.215762 94:0.141739 95:0.0174027 96:0.423243 97:0.146606 98:0.48073 99:0.00719914 100:0.0248358 101:0.0138806 102:0.0192208 103:0.000561683 104:0.460839 106:0.173038 107:0.0148366 108:0.37934 109:0.372253 110:0.00229119 111:0.0331847 113:0.36242 114:0.298535 115:0.00486219 116:0.0950471 117:0.0372037 118:0.0522599 119:0.129365 120:0.204647 121:0.0448225 122:0.020179 123:0.292121 125:0.0358893 126:0.000394515 127:0.166903 129:0.234016 130:0.0359029 131:0.133319 132:0.31749 133:0.233615 134:0.0099287 135:0.352221 136:0.00042941 137:0.00144259 138:0.00134402 139:0.27433 140:0.0299706 141:0.023193 142:0.02852 143:0.243794 144:0.0067398 145:0.0284776 146:0.436572 147:0.0531537 148:0.0650899 149:0.0817273 150:0.130107 151:0.00961297 152:0.0205929 153:0.0261887 154:0.00210841 155:0.00130757 156:0.00249266 157:0.0390837 158:0.20764 159:4.67219e-007 160:0.00532709 161:0.238519 162:0.0741527 163:0.000600509 164:0.00126853 165:0.351581 166:0.351581 167:0.00208974 168:0.00678406 169:0.374528 171:0.456595 172:0.00252848 173:0.00670777 174:0.119759 175:0.58657 176:0.0229508 177:0.0464256 178:0.208378 179:0.0181653 180:0.0277822 181:0.278081 182:0.152735 183:0.10391 184:0.262131 185:0.0535793 186:0.000310211 187:0.445243 189:0.35419 190:0.409919 191:0.138863 192:0.173553 193:0.197254 194:0.375719 195:0.168575 196:0.000759714 197:0.0023933 198:0.00408344 199:0.321988 
-0 0.08528857014212031 0.3349267294585323 0 0:0.328975 1:0.0786884 2:0.0928125 3:0.00479124 4:0.0116678 5:0.0652591 6:0.00375075 7:0.00621307 8:0.0279476 9:0.00248328 10:0.319337 11:0.00151246 12:0.0488172 13:0.215279 14:0.00673377 16:0.0347022 17:0.352907 18:0.0320616 19:0.0671165 20:0.0113102 21:0.308123 22:0.0535032 23:0.0197671 24:0.328975 25:0.131117 26:0.126669 27:0.00237585 28:0.0123959 29:0.115816 30:0.140018 31:0.154051 32:0.213896 33:0.24662 34:0.00596354 35:0.213542 36:0.190842 37:0.224661 38:0.451543 39:0.214856 40:0.226502 41:0.455294 42:0.00353334 43:0.0270214 44:0.365907 45:0.0085381 46:0.0708888 47:0.00669079 48:0.110882 49:0.0924263 50:0.244111 51:0.0304571 52:0.0235975 53:0.0216022 54:0.0133605 55:0.0494145 56:0.0228075 57:0.07483 58:0.134568 59:0.00238432 60:0.143629 61:0.00699003 62:0.0123944 63:0.028024 64:6.80292e-005 65:0.0117182 66:0.0479709 67:0.0182757 68:0.00246042 69:0.00247775 70:0.0184095 71:0.422352 72:0.269473 73:0.0880971 74:0.234618 75:0.403672 76:0.331124 77:0.374079 78:0.0196208 79:0.0631757 80:0.0680815 81:0.0236962 82:0.00437458 83:0.0576115 84:0.11435 85:0.00406009 86:0.00457361 87:0.357925 88:0.0748969 89:0.176569 90:0.0103233 91:0.0198009 92:0.00994112 93:0.255219 94:0.179732 95:0.0101088 96:0.0634393 97:0.0364261 98:0.0434542 99:0.0108849 100:0.0025062 101:0.360108 102:0.313481 103:0.00502135 104:0.297402 105:0.00820555 106:0.279764 107:0.288638 108:0.298828 109:0.361849 110:0.0203614 111:0.0866817 112:0.0172351 113:0.39188 114:0.290879 115:0.0297539 116:0.391765 117:0.0415256 118:0.00522564 119:0.0131531 120:0.373784 121:0.036191 122:0.0134232 123:0.26349 124:0.0155731 125:0.172486 126:0.00468714 127:0.205802 128:0.0226538 129:0.190443 130:0.00836226 131:0.195134 132:0.357925 133:0.362308 134:0.194017 135:0.207577 136:0.0657324 137:0.0280562 138:0.0183461 139:0.163534 140:0.148043 141:0.0199297 143:0.0296157 144:0.0110723 145:0.0272234 146:0.363652 147:0.0755628 148:0.131217 149:0.0510172 150:0.0224216 151:0.0310232 152:0.252932 153:0.124496 155:0.0133048 156:0.0671765 157:0.0591427 158:0.12611 160:0.0809222 161:0.0470473 162:0.29689 163:0.102418 164:0.113187 165:0.351398 166:0.222228 167:0.011711 168:0.0712409 169:0.261484 171:0.374079 172:0.00273776 173:0.0134013 174:0.0535113 175:0.39185 176:0.000249919 177:0.00174943 178:0.0323983 179:0.010188 180:0.00570084 181:0.21107 182:0.0647122 183:0.239439 185:0.00371146 187:0.317106 188:0.0207613 189:0.214504 190:0.385616 191:0.0806583 192:0.0962187 193:0.15179 194:0.357925 195:0.0898967 196:0.00293842 197:0.0607511 198:0.124256 199:0.239319 
-0 0.1050056016380124 0 0.06553428181140723 0:0.273778 2:0.170415 3:0.00064356 4:0.0267166 5:0.287809 6:0.00237513 7:0.0290599 8:0.0333714 9:0.00389225 10:0.309318 11:0.00598805 12:0.000244459 13:0.276152 14:0.0540949 15:0.0136317 16:0.0400172 17:0.181596 18:0.133839 19:0.027603 20:0.0168624 21:0.193066 22:0.0171132 23:0.0369583 24:0.26782 25:0.273778 26:0.207745 28:0.000194144 29:0.119127 30:0.252298 31:0.173194 32:0.282979 33:0.270743 34:0.00114114 35:0.322 36:0.195278 37:0.229747 38:0.41492 39:0.507569 40:0.243669 41:0.387893 42:0.0383317 43:0.023052 44:0.337798 45:0.0105602 46:0.0478819 47:0.00549464 48:0.281784 49:0.048858 50:0.313369 51:0.002502 52:0.0010907 53:0.0222441 54:0.0107114 55:0.02484 56:0.00939423 57:0.0362118 58:0.291385 59:0.0455005 60:0.158979 61:0.00253068 63:0.00324746 64:0.00485228 65:0.0120538 66:0.0249771 67:0.0315268 68:0.00554319 70:0.0183643 71:0.442129 72:0.267513 73:0.0155467 74:0.0310252 75:0.321184 76:0.309318 77:0.336489 78:0.00133457 79:0.0750671 80:0.0384225 81:0.0530135 82:0.0109594 83:0.0536985 84:0.0408175 85:0.00374157 86:0.00801779 87:0.315615 88:0.1544 89:0.022589 90:0.0561466 91:0.0123948 92:0.0320437 93:0.110691 94:0.247199 95:0.0117462 96:0.101599 97:0.0501711 98:0.0685003 99:0.0044883 100:0.00558254 101:0.0578155 102:0.341623 103:0.0496987 104:0.359711 105:0.0667367 106:0.0546143 107:0.377625 108:0.377625 109:0.173315 110:0.0532701 111:0.154592 112:0.0079516 113:0.33717 114:0.152385 115:0.00691842 116:0.364475 117:0.0130607 118:0.00672586 119:0.0134649 120:0.414458 121:0.0464858 122:0.064746 123:0.262247 124:0.0325655 125:0.0632296 126:0.000394352 127:0.342933 129:0.220921 130:0.00508445 131:0.334655 132:0.345951 133:0.341601 134:0.341601 135:0.151697 136:0.0282283 137:0.000369472 138:0.00154134 139:0.233668 140:0.0894252 141:0.0417303 142:0.000186188 143:0.0830817 144:0.0536459 145:0.00989955 146:0.370709 147:0.124887 148:0.168499 149:0.03927 150:0.0141066 151:0.0368892 152:0.12161 153:0.398553 154:0.00620481 155:0.00446208 156:0.0295302 157:0.0287326 158:0.0393248 159:0.00102849 160:0.0188825 161:0.275049 162:0.0999648 163:0.0194007 164:0.0417069 165:0.18627 166:0.217965 167:0.0542283 168:0.0531992 169:0.170227 171:0.336489 172:0.0134346 173:2.72361e-005 174:0.152265 175:0.390488 176:0.00409753 177:0.00649583 178:0.189815 179:0.0325769 180:0.0197546 181:0.264448 182:0.117463 183:0.294441 184:0.108331 185:0.00592353 186:0.000802228 187:0.313369 189:0.217111 190:0.383289 191:0.0736241 192:0.152402 193:0.291385 194:0.345951 195:0.12823 196:0.0049615 197:0.0267708 198:0.163331 199:0.322 
-0 0 0 0.130385111250686 0:0.209905 1:0.00916988 2:0.161121 3:0.00454981 4:0.0100058 5:0.263846 6:0.00404877 7:0.0908393 8:0.0042071 9:0.0185426 10:0.272551 11:0.00507553 12:0.0189448 13:0.317148 14:0.0415711 15:0.035406 16:0.00991805 17:0.353297 18:0.0625084 19:0.11069 20:0.09003 21:0.253935 22:0.0858336 23:0.00708986 24:0.295184 25:0.146552 26:0.327561 27:0.000678874 28:0.0330768 29:0.140481 30:0.20788 31:0.054888 32:0.205203 33:0.183486 34:0.0908589 35:0.208875 36:0.257165 37:0.169886 38:0.496314 39:0.0486572 40:0.19835 41:0.460764 42:0.00621243 43:0.0873508 44:0.36424 45:0.0315555 46:0.0569889 47:0.0139775 48:0.188403 49:0.118653 50:0.327561 51:0.0803488 52:0.00931549 53:0.0832739 54:0.0455744 55:0.140344 56:0.0849253 57:0.194292 58:0.190806 59:0.0677559 60:0.224133 61:0.00879072 62:0.00931922 63:0.0769377 64:0.00346832 65:0.005373 66:0.00817661 67:0.00674795 68:0.00819788 69:0.00641079 70:0.0307831 71:0.42694 72:0.045282 73:0.150431 74:0.146506 75:0.399635 76:0.400456 77:0.366949 78:0.0522927 79:0.147294 80:0.184313 81:0.0147958 82:0.0207621 83:0.011418 84:0.0598209 85:0.00280428 86:0.00951639 87:0.351162 88:0.04914 89:0.128031 90:0.00920879 91:0.00029529 92:0.00694652 93:0.466565 94:0.234969 95:0.0411653 96:0.0340633 97:0.0277497 98:0.0171867 99:0.00757359 100:0.0364001 101:0.181774 102:0.05695 103:0.0213814 104:0.302246 105:0.134945 106:0.17048 107:0.259741 108:0.351774 109:0.232991 110:0.0682987 111:0.0531202 112:0.0371754 113:0.372082 114:0.155578 115:0.0328992 116:0.297176 117:0.00572493 118:0.00964596 119:0.00969268 120:0.397018 121:0.113584 122:0.00402564 123:0.167067 124:0.0610792 125:0.168185 126:0.000978969 127:0.266001 128:0.00630904 129:0.305272 130:0.0177597 131:0.14506 132:0.351162 133:0.348919 134:0.172197 135:0.34573 136:0.122465 137:0.0134179 138:0.0039435 139:0.0538127 140:0.141134 141:0.0984789 142:0.00916404 143:0.0481978 144:0.0265015 145:0.012204 146:0.383847 147:0.0632639 148:0.132941 149:0.0722901 150:0.012221 151:0.054828 152:0.281771 153:0.0509771 155:0.0248521 156:0.0318293 157:0.0341161 158:0.0492394 159:0.00268677 160:0.0097665 161:0.0440567 162:0.171343 163:0.0858367 164:0.0297426 165:0.191924 166:0.328877 167:0.0164599 168:0.0729359 169:0.400456 170:0.00988757 171:0.366949 172:0.0076035 173:0.00556241 174:0.0038162 175:0.416683 176:0.000256225 177:0.00193398 178:0.0162076 179:0.00534845 180:0.00977915 181:0.307814 182:0.212307 183:0.073259 184:0.0265804 185:0.0158803 186:0.00554358 187:0.327561 188:0.0150829 189:0.230779 190:0.330816 191:0.0927775 192:0.100503 193:0.22716 194:0.351162 195:0.0942704 196:0.0106546 197:0.0145748 198:0.0908351 199:0.242625 
-0 0.06126374381405809 0 0.05454537494428235 0:0.0561816 1:0.0877277 2:0.12641 4:0.16017 5:0.173669 6:0.0205784 7:0.00921085 8:0.0209656 9:0.000678391 10:0.119086 11:0.000156756 12:0.00360005 13:0.332263 14:0.264764 15:0.00838231 16:0.0630281 17:0.0225291 18:0.0198418 19:0.211558 20:0.00823146 21:0.337754 22:0.0187224 23:0.0392459 24:0.271062 25:0.287677 26:0.37603 27:0.00436609 28:0.00251391 29:0.225667 30:0.258605 31:0.0275291 32:0.0946511 33:0.0294914 34:0.153946 35:0.101891 36:0.195 37:0.261477 38:0.423177 39:0.180229 40:0.117587 41:0.416927 42:0.0307114 43:0.000577307 44:0.175809 45:0.0901585 46:0.435382 47:0.170202 48:0.254947 49:0.12024 50:0.380812 51:0.00090395 53:0.0314456 54:0.0358148 55:0.093052 56:0.0544732 57:0.255169 58:0.332263 59:0.0826214 60:0.300716 61:0.0407874 62:1.29136e-005 63:0.000786072 64:0.00270722 65:0.0165383 66:0.00909392 67:0.0473418 68:0.0271879 69:0.00189186 70:0.0605879 71:0.39081 72:0.00170167 73:0.25725 74:0.0182296 75:0.359788 76:0.102138 77:0.400384 78:0.0335777 79:0.400624 80:0.520333 81:0.0285862 82:0.0181958 83:0.000759771 84:0.0329838 85:0.0483249 86:0.0161299 87:0.406919 88:0.000735003 89:0.0853377 90:0.0190285 91:0.000133896 92:0.0773964 93:0.263634 94:0.21581 95:0.00803566 96:0.359362 97:0.329713 98:0.30185 99:0.0118196 100:0.00227025 101:0.0206629 102:0.00538087 104:0.413664 105:0.00408514 106:0.110669 107:0.110575 108:0.415056 109:0.383682 110:0.0109205 111:0.00284579 112:0.00778282 113:0.337754 114:0.240547 115:0.00936034 116:0.0652099 117:0.00952704 118:0.00574871 119:0.0269967 120:0.15291 121:0.0336868 122:0.0046361 123:0.134253 124:0.0150234 125:0.0851522 126:0.00373179 127:0.136956 128:0.0151428 129:0.234348 130:0.0846153 131:0.131811 132:0.203894 133:0.272085 134:0.00256056 135:0.325057 136:0.117641 137:0.0300106 138:0.00319907 139:0.114283 140:0.0717942 141:0.0318058 142:0.00136294 143:0.161627 144:0.00902446 145:0.0150462 146:0.440379 147:0.0615908 148:0.21916 149:0.131317 150:0.137738 151:0.00386275 152:0.00149983 153:0.011421 155:0.00364189 156:0.0103006 157:0.257338 158:0.258494 159:0.000485249 160:0.00466812 161:0.148906 162:0.0386553 163:0.0227093 164:0.00408434 165:0.359788 166:0.359788 167:0.0111886 168:0.00909047 169:0.444383 170:0.00746049 171:0.400384 172:0.0194005 173:0.0300814 174:0.054886 175:0.400624 176:0.00174202 177:0.013563 178:0.100172 179:0.0286152 180:0.0868006 181:0.295261 182:0.10055 183:0.0519146 184:0.163744 185:0.0968485 186:0.0172664 187:0.380812 188:0.00623916 189:0.301016 190:0.350659 191:0.140484 192:0.0909891 193:0.138728 194:0.406919 195:0.247841 196:0.00998426 197:0.00202094 198:0.102722 199:0.129797 
-0 0 0 0.1527489077826259 0:0.0978877 1:0.0600798 2:0.169596 3:0.0396615 4:0.146836 5:0.0579692 6:0.0523028 7:0.0113177 8:0.0028678 10:0.271931 11:0.0100702 12:0.0166199 13:0.388824 14:0.256351 15:0.0336788 16:0.0773904 17:0.00555415 18:0.0276507 19:0.166931 20:0.00518739 21:0.366152 23:0.120657 24:0.309496 25:0.10221 26:0.224273 27:0.000818798 28:0.00201734 29:0.35557 30:0.238056 31:0.0670561 32:0.0519866 33:0.0163048 34:0.0403122 35:0.192848 36:0.17723 37:0.185034 38:0.477209 39:0.0454966 40:0.172763 41:0.320721 42:0.0840562 43:0.00205799 44:0.177015 45:0.00981168 46:0.335205 47:0.17389 48:0.0816109 49:0.154159 50:0.157926 51:0.00607497 52:0.000120716 53:0.00593636 54:0.00282352 55:0.0308433 56:0.00592536 57:0.114294 58:0.388824 59:0.0950332 60:0.338039 61:0.00997988 62:0.00144912 63:0.00427697 64:0.00133836 65:0.00406669 66:0.0287473 67:0.120376 68:0.0813719 69:0.00232038 70:0.0242049 71:0.430932 73:0.183926 74:0.00411621 75:0.357373 76:0.00131294 77:0.452404 78:0.0413253 79:0.244478 80:0.445269 81:0.032591 82:0.000727937 83:8.06199e-005 84:0.000390195 85:0.0102339 86:0.0106756 87:0.417478 89:0.125837 90:0.0306524 91:0.000529166 92:0.0837964 93:0.137129 94:0.227206 95:0.00258365 96:0.45471 97:0.112156 98:0.45471 99:0.00933748 100:0.00396618 101:0.0467401 102:0.0036169 104:0.455647 106:0.14636 107:0.00594013 108:0.385005 109:0.298877 110:0.000265851 111:0.0520901 112:0.0046833 113:0.366152 114:0.300999 115:0.034476 116:0.0620348 117:0.0267763 118:0.0109468 119:0.0185849 120:0.0748527 121:0.0198214 122:9.20195e-006 123:0.120093 124:0.000170293 125:0.0848092 126:0.00551518 127:0.157311 128:0.0140554 129:0.199421 130:0.0736556 131:0.0187018 132:0.164519 133:0.203426 134:0.00517476 135:0.338039 136:0.00559406 137:0.0096014 138:0.00248484 139:0.219876 140:0.0359663 141:0.0607176 142:0.0129855 143:0.168249 145:0.0144678 146:0.461058 147:0.0731383 148:0.0902253 149:0.0145146 150:0.153424 151:0.00230824 152:0.0110421 153:0.00217014 154:0.000208756 155:0.0586755 156:0.000859005 157:0.150519 158:0.235534 160:0.00161239 161:0.252769 162:0.0618382 163:0.0766468 164:0.101108 165:0.357373 166:0.357373 167:0.00128564 168:0.000747614 169:0.0750815 170:0.000650656 171:0.452404 172:0.011041 173:6.374e-005 174:0.0120011 175:0.45642 176:0.00882186 177:0.0104134 178:0.105509 179:0.104964 180:0.111192 181:0.327882 182:0.109424 183:0.119948 184:0.142189 185:0.0807436 186:0.00166564 187:0.447349 188:0.0147339 189:0.301181 190:0.437003 191:0.219468 192:0.11188 193:0.0832739 194:0.417478 195:0.183754 196:0.00645945 198:0.0266236 199:0.224942 
-0.03183476859554982 0.2053016294117934 0.1944404401294877 0 0:0.187368 1:0.0639659 2:0.111881 3:0.00978326 4:0.00815196 5:0.270935 6:0.00664085 7:0.064858 8:0.0548668 9:0.000839703 10:0.317598 11:8.8821e-006 12:0.0142411 13:0.335372 14:0.0314113 15:0.0402463 16:0.00986512 17:0.33613 18:0.0911758 19:0.0613786 20:0.0624662 21:0.331843 22:0.0847889 23:0.00111587 24:0.301615 25:0.117115 26:0.271011 27:0.0367448 28:0.0202301 29:0.178568 30:0.177323 31:0.0791212 32:0.151648 33:0.14576 34:0.176376 35:0.193266 36:0.259743 37:0.187927 38:0.487348 39:0.0554048 40:0.186835 41:0.452524 42:0.00915401 43:0.101248 44:0.378443 45:0.0210021 46:0.0381455 47:0.0139601 48:0.221027 49:0.184105 50:0.337582 51:0.0110218 52:0.0159921 53:0.0438977 54:0.0705827 55:0.125027 56:0.0853426 57:0.192748 58:0.103922 59:0.0521785 60:0.263687 61:0.0452556 62:0.00782821 63:0.00260786 64:0.00270011 65:0.00737814 66:0.00331269 67:0.0107006 68:0.0114075 69:0.00662347 70:0.0484635 71:0.41175 72:0.0655862 73:0.364816 74:0.152156 75:0.393992 76:0.360677 77:0.370036 78:0.0124071 79:0.105631 80:0.149689 81:0.0295707 82:0.00740211 83:0.0296739 84:0.148412 85:0.00581765 86:0.000666249 87:0.280998 88:0.0344417 89:0.165782 90:0.0126502 91:0.0137408 92:0.0134111 93:0.453735 94:0.262127 95:0.0428978 96:0.0456834 97:0.0290815 98:0.0308897 99:0.0243515 100:0.041706 101:0.219475 102:0.0278588 103:0.0290282 104:0.3106 105:0.13573 106:0.104193 107:0.155064 108:0.34557 109:0.313432 110:0.0900782 111:0.204665 112:0.0164947 113:0.378104 114:0.169929 115:0.0226642 116:0.37064 117:0.0138256 118:0.00229869 120:0.395025 121:0.0938927 122:0.0503596 123:0.116397 124:0.000402972 125:0.0575281 126:0.044886 127:0.151358 128:0.0371689 129:0.293597 130:0.024239 131:0.127108 132:0.339613 133:0.359733 134:0.0915495 135:0.359733 136:0.0864061 137:0.00761031 138:0.00919664 139:0.0755258 140:0.165307 141:0.0925894 142:0.00505752 143:0.0435362 144:0.0291988 145:0.00842563 146:0.384349 147:0.0884069 148:0.150446 149:0.0756509 150:0.0142658 151:0.0501328 152:0.250373 153:0.0682533 155:0.0333127 156:0.0247892 157:0.0233578 158:0.0520523 159:0.00430004 160:0.0144504 161:0.0394998 162:0.147917 163:0.0660868 164:0.0967321 165:0.208468 166:0.238499 167:0.0412951 168:0.0770841 169:0.360677 170:0.017667 171:0.370036 172:0.0189493 174:0.0438376 175:0.387868 176:0.00792694 177:0.00930092 178:0.0135144 179:0.0148269 180:0.0220706 181:0.291101 182:0.0994653 183:0.115213 184:0.0303115 185:0.0181104 186:0.021054 187:0.337582 188:0.0284196 189:0.245656 190:0.33801 191:0.126564 192:0.0757574 193:0.158287 194:0.339613 195:0.187129 196:0.0238972 197:0.0284387 198:0.0926441 199:0.197281 
-0 0 0.03397598585749883 0 0:0.277924 2:0.228903 3:0.00202991 4:0.0391357 5:0.112098 6:0.012101 7:0.0338798 8:0.0336716 9:0.00975281 10:0.303198 11:0.000322899 12:0.000441108 13:0.257072 14:0.0372122 15:0.112847 16:0.0824698 17:0.278614 18:0.156244 19:0.0380143 20:0.0786462 21:0.216689 22:0.00556688 23:0.00387562 24:0.277924 25:0.277924 26:0.162357 28:0.00218891 29:0.102345 30:0.269041 31:0.144689 32:0.229825 33:0.278774 34:0.00908496 35:0.295315 36:0.214347 37:0.273897 38:0.429468 39:0.554411 40:0.281857 41:0.394251 42:0.0190926 43:0.0262825 44:0.344347 45:0.0282964 46:0.066945 47:0.00330725 48:0.298615 49:0.0160516 50:0.235495 51:0.00778222 52:2.85872e-006 53:0.0287145 54:0.00432786 55:0.0269312 56:0.00894611 57:0.0239693 58:0.310176 59:0.0345151 60:0.180833 61:0.000333447 62:5.59943e-005 63:0.00920493 64:0.0129596 65:0.00847316 66:0.0155705 67:0.0234228 68:0.00769794 69:0.00789322 70:0.0108976 71:0.419025 72:0.0437998 73:4.48978e-005 74:0.0288011 75:0.329233 76:0.303198 77:0.338901 78:0.000743445 79:0.0514357 80:0.0235266 81:0.0525093 82:0.0101629 83:0.0326158 84:0.0332552 85:0.00442634 86:0.00188659 87:0.289704 88:0.115986 89:0.0360592 90:0.015788 91:0.0272247 92:0.0355078 93:0.107858 94:0.250588 95:0.000873377 96:0.0779425 97:0.0736862 98:0.0986634 99:0.0080041 100:0.0169457 101:0.171999 102:0.0843088 103:0.0564825 104:0.340214 105:0.202678 106:0.0296861 107:0.383486 108:0.383486 109:0.181438 111:0.15714 112:0.0180733 113:0.339792 114:0.185342 115:0.0191399 116:0.336595 117:1.12552e-006 118:0.0013148 119:0.00235241 120:0.377755 121:0.0256948 122:0.0633379 123:0.242148 124:0.0478926 125:0.0992947 127:0.313473 128:0.00167488 129:0.201297 130:0.00301777 131:0.343711 132:0.350905 133:0.33166 134:0.33166 135:0.21022 136:0.02726 137:0.00208014 138:0.00109043 139:0.174977 140:0.151425 141:0.0698933 142:0.00740489 143:0.0871886 144:0.0221178 145:0.0159994 146:0.362964 147:0.108153 148:0.161158 149:0.0257085 150:0.0383947 151:0.0466251 152:0.174347 153:0.0784444 154:0.00268617 155:0.0256417 156:0.0190757 157:0.026845 158:0.131197 159:0.000765309 160:0.00471517 161:0.288044 162:0.187256 163:0.0171842 164:0.0314754 165:0.231589 166:0.258859 167:0.0435595 168:0.0526886 169:0.0894349 171:0.338901 173:0.00968919 174:0.166097 175:0.394372 176:0.00164125 177:0.0013148 178:0.219612 179:0.0189393 180:0.00796618 181:0.298615 182:0.142945 183:0.276277 184:0.104223 185:0.0125124 186:9.84499e-005 187:0.323953 188:4.46754e-006 189:0.189384 190:0.37326 191:0.0583089 192:0.104904 193:0.292954 194:0.350905 195:0.123916 196:0.00231265 197:0.0156389 198:0.178607 199:0.292923 
-0 0.01422447934555456 0 0 0:0.266563 1:0.0126444 2:0.198133 3:0.00180595 4:0.00467339 5:0.302304 6:7.75615e-005 7:0.232522 8:0.0142846 9:0.00249634 10:0.240751 11:0.000526774 12:0.00464154 13:0.153485 14:0.0159877 15:0.0296657 16:0.0656871 17:0.323223 18:0.0684067 19:0.0515323 20:0.0919952 21:0.202482 22:0.124341 23:0.00296018 24:0.266563 25:0.266563 26:0.162916 27:0.000330302 28:0.00224171 29:0.0402836 30:0.186344 31:0.122712 32:0.264003 33:0.252319 34:0.00301185 35:0.280887 36:0.158706 37:0.183912 38:0.421385 39:0.510486 40:0.235473 41:0.376672 42:0.0199716 43:0.0836931 44:0.319692 45:0.00558595 46:0.0389499 47:0.000597268 48:0.217923 49:0.0950392 50:0.279683 51:0.0105064 52:0.00211798 53:0.0127928 54:0.00548897 55:0.0132634 56:0.00424849 57:0.00614207 58:0.345435 59:0.0154954 60:0.169546 61:0.00115131 62:0.00515601 63:0.013254 64:0.00426693 65:0.020223 66:0.0527777 67:0.00141979 68:0.00164904 69:0.0398126 70:0.024323 71:0.409964 72:0.22307 73:0.0551193 74:0.25868 75:0.309533 76:0.319002 77:0.336207 78:0.000597612 79:0.0615056 80:0.0085414 81:0.0470662 82:0.0113875 83:0.0799436 84:0.0281216 85:0.00711789 86:0.0149666 87:0.350975 88:0.0793173 89:0.0997374 90:0.0109802 91:0.0350878 92:0.00350021 93:0.0755755 94:0.289512 95:0.0492791 96:0.0386135 97:0.0380505 98:0.0539339 99:0.0110138 100:0.0231827 101:0.157693 102:0.103309 103:0.227908 104:0.294386 105:0.246089 106:0.0780543 107:0.318221 108:0.285502 109:0.131619 110:0.300894 111:0.204598 112:0.0354134 113:0.293253 114:0.143451 115:0.0143788 116:0.319622 117:0.00736736 118:0.0109166 119:0.0134659 120:0.342273 121:0.0800868 122:0.0597564 123:0.30968 124:0.0642249 125:0.162296 126:0.0013533 127:0.368401 128:0.000122686 129:0.284445 130:0.000622552 131:0.274009 132:0.350975 133:0.350467 134:0.235603 135:0.244252 136:0.00864529 138:0.00108013 139:0.148818 140:0.124037 141:0.108288 142:0.0277376 143:0.0425508 144:0.215478 145:0.0187346 146:0.357658 147:0.0879297 148:0.154059 149:0.0320628 150:0.012322 151:0.180596 152:0.142449 153:0.16498 154:0.00202106 155:0.00615474 156:0.0904077 157:0.165818 158:0.24689 159:0.00308283 160:0.0504983 161:0.279764 162:0.142633 163:0.0116894 164:0.0536885 165:0.133701 166:0.215604 167:0.0983295 168:0.0646134 169:0.244005 170:0.0107543 171:0.336207 172:0.0840081 174:0.182197 175:0.385701 176:0.0013417 177:0.00288196 178:0.16032 179:0.0207204 180:0.0245561 181:0.30968 182:0.126916 183:0.233746 184:0.101132 185:0.00994933 186:0.000462003 187:0.31194 188:0.000164993 189:0.15208 190:0.366736 191:0.0333459 192:0.0819223 193:0.345435 194:0.350975 195:0.0571705 196:0.0174044 197:0.0356427 198:0.154835 199:0.290043 
-0 0.008714394351302312 0 0 0:0.128889 1:0.0840078 2:0.0753865 3:0.00203687 4:0.269826 5:0.125687 6:0.0118798 7:0.00800254 8:0.0225353 9:0.00779905 10:0.122206 11:0.00845997 12:0.00166444 13:0.292236 14:0.334354 15:0.0257109 16:0.0793424 17:0.00474241 18:0.0110738 19:0.276116 20:0.00391117 21:0.382032 22:0.00384328 23:0.0879304 24:0.336657 25:0.0202121 26:0.125967 27:0.0020888 28:0.00149666 29:0.305583 30:0.0992881 31:0.0605658 32:0.0416697 33:0.025965 34:0.0134356 35:0.108661 36:0.151801 37:0.261517 38:0.412964 39:0.0978496 40:0.203875 41:0.350049 42:0.025897 43:0.00121479 44:0.191426 45:0.0188872 46:0.136632 47:0.0251091 48:0.0979864 49:0.11583 50:0.315957 51:0.00663733 52:0.00356354 53:0.0123094 54:0.00359065 55:0.0294788 56:0.00509848 57:0.107423 58:0.409494 59:0.118219 60:0.334354 63:0.00576597 64:0.00244188 65:0.0180226 66:0.0188081 67:0.11898 68:0.0327661 69:0.00484796 70:0.0483981 71:0.431157 72:0.0128401 73:0.339802 74:0.00686914 75:0.352791 76:0.0427065 77:0.436008 78:0.00942501 79:0.124547 80:0.247568 81:0.0136686 82:0.00323949 84:0.000891408 85:0.00453862 86:0.00287813 87:0.335958 89:0.105451 90:0.0646206 91:0.000460029 92:0.0801046 93:0.0395519 94:0.287293 95:0.00437961 96:0.367431 97:0.244166 98:0.367431 99:0.0102223 100:0.00102689 102:0.00937194 103:0.000178133 104:0.452173 106:0.0279265 107:0.0564565 108:0.375483 109:0.309691 110:0.0142888 111:0.00487661 112:0.00159753 113:0.382032 114:0.358425 115:0.0101217 116:0.0553444 117:0.0257678 118:0.0164815 119:0.0523183 120:0.241798 121:0.0262057 122:0.0105259 123:0.163837 124:0.00201894 125:0.0762859 127:0.106289 129:0.0667741 130:0.067199 131:0.224443 132:0.335958 133:0.0794706 134:0.0133609 135:0.334354 136:0.0157856 137:0.00137285 138:0.0116621 139:0.203878 140:0.0646973 141:0.0319937 142:0.00906064 143:0.181663 144:0.00812109 145:0.0235023 146:0.40514 147:0.0330854 148:0.0727065 149:0.0225107 150:0.230701 151:0.010697 152:0.00321929 153:0.00529819 154:0.000314604 155:0.0165427 156:0.00425232 157:0.289215 158:0.223662 160:0.00569876 161:0.173499 162:0.0223104 163:0.00363842 164:0.00398613 165:0.352791 166:0.352791 167:0.0011402 168:0.00527787 169:0.420265 170:0.00385208 171:0.436008 172:0.00320946 173:0.00176435 174:0.0828629 175:0.490506 176:0.0118149 177:0.0383498 178:0.070377 179:0.00585537 180:0.00949944 181:0.32305 182:0.119866 183:0.160464 184:0.119955 185:0.00842128 186:0.00539915 187:0.400612 189:0.345583 190:0.40787 191:0.255909 192:0.0632808 193:0.25348 194:0.335958 195:0.139261 196:0.0513148 198:0.0160767 199:0.14038 
-0 0 0.01147431106887977 0 0:0.174249 1:0.0821693 2:0.184079 3:0.00956254 4:0.256134 5:0.0436688 6:0.0109159 7:0.00672636 8:0.00716687 10:0.23944 11:0.00172928 12:0.0120115 13:0.365672 14:0.298297 15:0.0138506 16:0.358952 17:0.130735 18:0.0196819 19:0.20096 20:0.00118235 21:0.374957 23:0.0178163 24:0.195949 25:0.202905 26:0.244722 27:0.000666207 28:0.0112359 29:0.339858 30:0.221273 31:0.0636334 32:0.0459352 33:0.0245542 34:0.061813 35:0.140222 36:0.222697 37:0.276798 38:0.445228 39:0.219183 40:0.215221 41:0.255481 42:0.0117541 43:0.00245803 44:0.152986 45:0.0160222 46:0.0523712 47:0.00325132 48:0.08433 49:0.145705 50:0.18604 51:0.00339695 52:0.0160952 53:0.0370545 54:0.00945 55:0.0687301 56:0.0057654 57:0.0880929 58:0.365672 59:0.0982985 60:0.226403 63:0.000910839 64:0.00373526 65:0.0125962 66:0.162727 67:0.0615529 68:0.0319365 69:0.00662583 70:0.040469 71:0.426949 72:0.00255262 73:0.24405 74:0.00417708 75:0.358591 76:0.0923646 77:0.39252 78:0.00284191 79:0.046988 80:0.0705064 81:0.0030403 82:0.0141056 83:0.000999513 84:0.0398798 85:0.00995349 86:0.000928201 87:0.303406 88:0.000934745 89:0.193019 90:0.0164776 91:0.00714008 92:0.153481 93:0.0415407 94:0.0553964 95:0.00177021 96:0.414961 97:0.215715 98:0.253911 99:0.0845602 100:0.00964367 101:0.00401046 102:0.0249854 104:0.434448 106:0.175699 107:0.0104016 108:0.380907 109:0.359469 111:0.00302385 112:0.0028624 113:0.374957 114:0.34811 115:0.0289458 116:0.269028 117:0.0624756 118:0.00998444 119:0.0119232 120:0.425281 121:0.016209 122:0.0316982 123:0.0930834 124:0.0211951 125:0.0944146 126:0.00177599 127:0.127526 128:0.000212313 129:0.121119 130:0.0445865 131:0.040953 132:0.314256 133:0.2122 134:0.00167362 135:0.320297 136:0.0330902 137:0.000910839 138:0.00296286 139:0.250333 140:0.0778646 141:0.0682788 142:0.00438557 143:0.108915 144:0.0347325 145:0.035538 146:0.324355 147:0.0248856 148:0.00470867 149:0.134942 150:0.0903154 151:0.0160854 152:0.0157037 153:0.00149595 154:0.00444565 155:0.0507513 156:0.000564447 157:0.196179 158:0.221152 160:0.00153157 161:0.188588 162:0.0909513 163:0.0473079 164:0.0233263 165:0.358591 166:0.358591 168:0.0085955 169:0.408066 170:0.00546458 171:0.39252 173:0.00212458 174:0.000100357 175:0.452691 176:0.00173682 177:0.0123518 178:0.0549445 179:0.00461526 180:0.00739236 181:0.30313 182:0.140123 183:0.139795 184:0.190077 185:0.233995 186:0.00103665 187:0.443831 188:0.00106058 189:0.272687 190:0.422219 191:0.256017 192:0.0374072 193:0.143774 194:0.314256 195:0.284284 196:0.0426813 198:0.0045105 199:0.168267 
-0 0 0.2308979341737942 0 0:0.300033 1:0.0731647 2:0.139918 3:0.00112131 4:0.000616509 5:0.100891 6:0.0219125 7:0.00422031 8:0.0152096 9:0.000704131 10:0.328028 11:0.00579267 12:0.0099906 13:0.220701 14:0.00961591 16:0.0528103 17:0.177205 18:0.024088 19:0.100055 20:0.0070621 21:0.403949 22:0.00299182 23:0.0450866 24:0.294029 25:0.148324 26:0.0435714 27:0.00387241 28:0.0131721 29:0.297126 30:0.238383 31:0.0677949 32:0.121069 33:0.227381 34:0.00269521 35:0.213933 36:0.105695 37:0.0474647 38:0.477624 39:0.20386 40:0.137213 41:0.468759 42:0.00376489 43:0.0116836 44:0.371958 45:0.0177469 46:0.0206896 47:0.00733656 48:0.148888 49:0.121506 50:0.0544526 51:0.00668655 52:0.0105506 53:0.027543 54:0.0170257 55:0.0221636 56:0.0212023 57:0.00864401 58:0.336374 59:0.00742312 60:0.105718 61:0.00637213 63:0.00547603 64:0.000340727 65:0.0471992 66:0.021736 67:0.0987882 68:0.0204145 69:0.00133506 70:0.00487314 71:0.366533 72:0.023822 73:0.0501646 74:0.0110785 75:0.394213 76:0.261578 77:0.364496 78:0.00137883 79:0.0260029 80:0.0482323 81:0.0610974 82:0.0216795 83:0.104359 84:0.12501 85:0.0114416 86:0.00364288 87:0.370734 88:0.142886 89:0.122554 90:0.0475228 91:0.000459981 92:0.0113308 93:0.143264 94:0.180578 95:0.0175132 96:0.0685298 97:0.00857734 98:0.164182 99:0.0228207 100:0.00815346 101:0.0440869 103:0.0169921 104:0.471415 105:0.000821048 106:0.0742787 107:0.0129278 108:0.439772 109:0.285233 110:0.0102975 111:0.0508563 112:0.00994543 113:0.403949 114:0.369529 115:0.0135263 116:0.293159 117:0.00525512 118:0.00252119 119:0.00309493 120:0.460357 121:0.0177977 122:0.00800298 123:0.16838 124:0.0424837 125:0.19989 126:0.0045256 127:0.193137 128:0.00346818 129:0.21007 130:0.00540164 131:0.12993 132:0.370734 133:0.345977 134:0.265609 135:0.197223 136:0.0434397 137:0.00246387 138:0.00119107 139:0.141497 140:0.0216965 141:0.0505352 142:0.0012056 143:0.013846 144:0.0229078 145:0.000711336 146:0.388091 147:0.0554795 148:0.0933506 149:0.0368956 150:0.106797 151:0.0278742 152:0.177115 153:0.00325788 155:0.0222127 156:0.00805414 157:0.0200571 158:0.134709 160:0.00684959 161:0.152821 162:0.0947475 163:0.0353553 164:0.0368003 165:0.394213 166:0.226022 167:0.00692666 168:0.0148336 169:0.12768 170:0.00944145 171:0.364496 172:0.0105488 174:0.0302117 175:0.378348 176:0.00425986 177:0.00172128 178:0.0137691 179:0.0249268 180:0.00874032 181:0.245668 182:0.128843 183:0.238918 184:0.0179127 186:0.00604141 187:0.365846 188:0.00245949 189:0.303262 190:0.430085 191:0.0814212 192:0.0773459 193:0.299248 194:0.370734 195:0.0226884 196:0.0282066 197:0.0894304 198:0.0896283 199:0.226244 
-0 0.04680601377944675 0.1458397273536988 0.2852839621941719 0:0.306914 1:0.0840065 2:0.116483 3:0.000565285 4:0.010875 5:0.185464 6:0.00404652 7:0.0444485 8:0.0374072 9:0.0157766 10:0.329808 11:0.0010996 12:0.0178892 13:0.373945 14:0.0245658 15:0.0012924 16:0.0413204 17:0.336936 18:0.104517 19:0.0245587 20:0.00333862 21:0.190784 22:0.0433019 23:0.00755165 24:0.296776 25:0.164311 26:0.110241 27:0.000177914 28:0.0218629 29:0.149809 30:0.146603 31:0.167318 32:0.160112 33:0.256006 34:0.0210702 35:0.244244 36:0.220942 37:0.221642 38:0.486966 39:0.42365 40:0.190935 41:0.42453 42:0.00884122 43:0.0223104 44:0.375125 45:0.0392104 46:0.0510131 47:0.00229674 48:0.102702 49:0.107711 50:0.247489 51:0.00134613 52:0.0069598 53:0.08124 54:0.0135278 55:0.0775889 56:0.0351286 57:0.0587311 58:0.14285 59:0.0270535 60:0.1591 61:0.0351707 62:0.000851796 63:0.0058464 64:0.00532825 65:0.00181449 66:0.0240626 67:0.0114067 68:0.0113619 69:0.00697751 70:0.0578751 71:0.362884 72:0.297193 73:0.332484 74:0.158051 75:0.404367 76:0.329808 77:0.368029 78:0.014506 79:0.0479845 80:0.0423176 81:0.0419367 82:0.00207477 83:0.0899451 84:0.191004 85:0.000631476 87:0.324315 88:0.144696 89:0.206981 90:0.0180114 91:0.00174571 92:0.0135553 93:0.292117 94:0.114654 95:0.0289624 96:0.0671185 97:0.0490916 98:0.064928 99:1.4484e-005 100:0.0311782 101:0.132275 102:0.0143916 103:0.0693917 104:0.297585 105:0.136877 106:0.0167943 107:0.291001 108:0.358237 109:0.113689 110:0.0713848 111:0.0348204 112:0.0500429 113:0.327272 114:0.257896 115:0.0340014 116:0.370607 117:0.0112044 118:4.67493e-005 120:0.397761 121:0.0262869 122:0.001779 123:0.24784 124:0.00563647 125:0.103504 126:0.00266936 127:0.150236 128:0.0117835 129:0.218332 130:0.00438373 131:0.323737 132:0.324315 133:0.345448 134:0.259557 135:0.210571 136:0.0842315 137:0.0326077 138:0.0118653 139:0.172045 140:0.147562 141:0.0669257 143:0.0287 144:0.0278453 145:0.00255301 146:0.362574 147:0.0352418 148:0.123238 149:0.15795 150:0.0250402 151:0.191821 152:0.157889 153:0.0792806 154:0.000877748 155:0.00877876 156:0.0425852 157:0.195474 158:0.0819648 160:0.0627462 161:0.0487682 162:0.120669 163:0.0657406 164:0.0943328 165:0.197084 166:0.205181 167:0.0310571 168:0.045302 169:0.252785 170:0.000982106 171:0.368029 172:0.01009 173:0.00449524 174:0.0526842 175:0.370607 176:7.63221e-005 177:0.000534255 178:0.0365715 179:0.0126427 180:0.00546634 181:0.257131 182:0.0525102 183:0.128844 184:0.076987 185:0.00473933 186:0.0045588 187:0.321504 188:0.0150915 189:0.173167 190:0.400131 191:0.0592274 192:0.0452395 193:0.0826607 194:0.324315 195:0.214966 196:0.00467637 197:0.0912318 198:0.0819716 199:0.237811 
-0 0.08013623877781287 0 0 0:0.108722 1:0.0412936 2:0.167805 3:0.00644923 4:0.0991364 5:0.0661952 6:0.0134256 7:0.0195848 8:0.0384416 9:0.0074865 10:0.0926309 11:0.00691773 12:0.00249769 13:0.355291 14:0.170712 15:0.0308091 16:0.25508 17:0.0218167 18:0.122565 19:0.229892 20:0.00536898 21:0.327529 22:0.000272266 23:0.0978943 24:0.298391 25:0.225794 26:0.144223 27:9.96295e-005 28:0.00204428 29:0.376167 30:0.249509 31:0.0864931 32:0.00569299 33:0.0463033 34:0.00102227 35:0.287765 36:0.233305 37:0.23054 38:0.593509 39:0.0435536 40:0.2039 41:0.230916 42:0.0167499 43:0.00025902 44:0.185139 45:0.0366121 46:0.120364 47:0.0136952 48:0.175376 49:0.0720331 50:0.294037 51:5.05453e-007 52:0.001964 53:0.0163901 54:0.00706289 55:0.0588985 56:0.00462086 57:0.0627619 58:0.355291 59:0.0979966 60:0.331683 62:0.00788082 63:0.000361498 64:0.0253349 65:0.248938 66:0.0352176 67:0.0200426 68:0.0206798 69:0.0064353 70:0.0285405 71:0.368243 72:0.00602986 73:0.237131 74:0.00176258 75:0.346348 76:0.0224044 77:0.428222 78:0.0140423 79:0.0672019 80:0.198409 81:0.00234483 82:0.000394591 83:0.00141569 84:0.00395518 85:0.00252226 86:0.00196865 87:0.366257 88:0.000141379 89:0.0736918 90:0.0170648 91:0.0135329 92:0.0100198 93:0.0266231 94:0.0794693 95:0.0371453 96:0.412348 97:0.211295 98:0.412348 99:0.0157944 100:0.000267288 101:0.0192657 102:0.0583307 103:0.001721 104:0.387983 106:0.19336 107:0.121626 108:0.30963 109:0.355842 110:4.52412e-005 111:0.167453 112:0.0048961 113:0.34976 114:0.288064 115:0.0333317 116:0.0207698 117:0.0332968 118:0.00586324 119:0.0224556 120:0.190722 121:0.0366562 122:0.0224102 123:0.287119 124:0.00704213 125:0.163822 126:0.000502425 127:0.35494 129:0.103005 130:0.0340101 131:0.17984 132:0.313959 133:0.331683 134:0.023568 135:0.331683 136:0.00363022 137:0.00112068 138:0.0049222 139:0.21248 140:0.0430701 141:0.0496986 142:0.0127377 143:0.218406 144:0.00764901 145:0.0238415 146:0.375131 147:0.103105 148:0.0429367 149:0.0243333 150:0.0347777 151:0.00325373 152:0.054183 153:0.0499559 154:0.0128492 155:0.00588219 156:0.00103635 157:0.0681766 158:0.373895 159:0.000225795 160:0.00408133 161:0.335673 162:0.301397 163:0.0663138 164:0.0711755 165:0.346348 166:0.346348 167:0.00958061 168:0.000141187 169:0.364808 170:0.000147454 171:0.428222 172:0.000133759 173:0.00584318 174:0.225369 175:0.527307 176:0.00147616 177:0.0200817 178:0.437014 179:0.00624411 180:0.00333603 181:0.287119 182:0.0920401 183:0.262717 184:0.226358 185:0.283262 186:0.000253163 187:0.349435 188:6.58149e-005 189:0.250591 190:0.376167 191:0.144513 192:0.177076 193:0.217823 194:0.366257 195:0.144928 196:0.00644008 197:0.000258973 198:0.00442551 199:0.175794 
-0.1823240681572579 0.1484066477543184 0.02111609050348296 0.007340168726022085 0:0.263169 1:0.00850385 2:0.199711 3:0.000373854 4:0.126999 5:0.378965 6:0.00274294 7:0.263188 8:0.0173849 9:0.0837489 10:0.237237 11:0.00125245 12:0.000753613 13:0.207823 14:0.0168748 15:0.00661465 16:0.0298848 17:0.279393 18:0.124431 19:0.0892553 20:0.051204 21:0.0652256 22:0.212987 23:0.0122934 24:0.263169 25:0.263169 26:0.196286 28:0.00744643 29:0.135568 30:0.222296 31:0.158794 32:0.274984 33:0.291831 34:0.00145552 35:0.285176 36:0.204805 37:0.216484 38:0.401956 39:0.554186 40:0.183308 41:0.373087 42:0.0220974 43:0.205751 44:0.308995 45:0.0191952 46:0.0297626 47:0.000490955 48:0.114878 49:0.0682357 50:0.309933 51:0.00569234 52:0.00433966 53:0.0178007 54:0.00192003 55:0.0162046 56:0.00292453 57:0.00936373 58:0.321882 59:0.0158732 60:0.172297 61:0.00095293 62:0.000139317 63:0.00729633 64:0.00630664 65:0.0353514 66:0.0102703 67:0.00222093 68:0.00734246 69:0.0355218 70:0.0888452 71:0.220996 72:0.279778 73:0.0952122 74:0.244011 75:0.259529 76:0.315699 77:0.31393 78:0.00246385 79:0.0554954 80:0.00455488 81:0.0362843 82:0.00862861 83:0.0744644 84:0.0354839 85:0.00432364 86:0.00638237 87:0.30186 88:0.0933735 89:0.101938 90:0.0347884 91:0.140171 92:0.0202229 93:0.0413491 94:0.384591 95:0.067657 96:0.037906 97:0.0356228 98:0.0253146 99:0.0069904 100:0.122384 101:0.121994 102:0.0662445 103:0.0430825 104:0.315342 105:0.157067 106:0.0961965 107:0.150306 108:0.16521 109:0.206231 110:0.268542 111:0.289424 112:0.0338125 113:0.104737 114:0.085848 115:0.0939094 116:0.273748 117:0.0864767 118:0.00690763 119:0.00687145 120:0.323885 121:0.123138 122:0.104257 123:0.309004 124:0.0419279 125:0.120653 126:0.000230969 127:0.371825 129:0.321882 130:0.000362919 131:0.306745 132:0.290183 133:0.327054 134:0.31592 135:0.213792 136:0.0153735 137:0.00838212 138:0.0100403 139:0.133941 140:0.160641 141:0.0896395 142:0.0686054 143:0.0402945 144:0.272146 145:0.131201 146:0.305552 147:0.205209 148:0.238142 149:0.0246265 150:0.00626932 151:0.322742 152:0.236423 153:0.0810473 154:0.00246431 155:0.00553049 156:0.134339 157:0.0279639 158:0.110832 159:0.00457627 160:0.0875777 161:0.100545 162:0.202842 163:0.221645 164:0.213861 165:0.0921451 166:0.307371 167:0.119874 168:0.0485605 169:0.214606 170:0.0238162 171:0.284002 172:0.0843956 173:0.0249984 174:0.226541 175:0.38074 176:0.00548851 177:0.00922491 178:0.181856 179:0.0774757 180:0.183147 181:0.309004 182:0.100124 183:0.309004 184:0.065143 185:0.0031467 187:0.309933 188:0.000624531 189:0.161251 190:0.366203 191:0.0302978 192:0.057898 193:0.321882 194:0.317827 195:0.171474 196:0.0431624 197:0.0410964 198:0.206441 199:0.285176 
-0.004746432341807627 0 0.2299300950977449 0 0:0.286264 1:0.00166185 2:0.130756 3:0.00743584 4:0.045445 5:0.373513 6:0.00290633 7:0.265751 8:0.0130389 9:0.00805791 10:0.229162 11:0.00309478 12:0.0151623 13:0.305528 14:0.00721452 15:0.0103473 16:0.0221558 17:0.202272 18:0.0955428 19:0.0266862 20:0.0154823 21:0.177595 22:0.155687 23:0.0291323 24:0.286264 25:0.286264 26:0.259473 27:0.00154899 28:0.00598746 29:0.349125 30:0.172975 31:0.305528 32:0.320249 33:0.302308 34:0.00148987 35:0.313174 36:0.238138 37:0.100318 38:0.400849 39:0.562723 40:0.201415 41:0.367788 42:0.0418958 43:0.18606 44:0.310803 45:0.011325 46:0.0396303 47:0.000585729 48:0.203844 49:0.107318 50:0.20669 51:0.00109518 52:0.00371533 53:0.0463836 54:0.00641669 55:0.0421209 56:0.00503177 57:0.00637173 58:0.160331 59:0.0258113 60:0.113817 62:0.000754095 63:7.43467e-005 64:0.00338201 65:0.012448 66:0.0226664 67:6.97822e-005 68:0.00293288 69:0.0532828 70:0.0574734 71:0.395061 72:0.137044 73:0.249094 74:0.295399 75:0.291571 76:0.323907 77:0.32601 78:0.00185002 79:0.0767468 80:0.0048066 81:0.0352434 82:0.00651553 83:0.018935 84:0.0160868 85:0.00558747 86:0.00571463 87:0.330357 88:0.147669 89:0.102363 90:0.03136 91:0.128875 92:0.0645968 93:0.124907 94:0.292063 95:0.070533 96:0.0489169 97:0.00734102 98:0.0202076 99:0.00839277 100:0.0812988 101:0.0550919 102:0.0168205 103:0.0119947 104:0.311848 105:0.227156 106:0.0750111 107:0.209754 108:0.179329 109:0.280344 110:0.318883 111:0.128892 112:0.0614384 113:0.29606 114:0.131056 115:0.0892529 116:0.243912 117:0.0584439 118:0.00164884 119:0.00627661 120:0.317993 121:0.108715 122:0.0224943 123:0.314194 124:0.0540887 125:0.139375 126:0.00931276 127:0.359361 128:0.000536904 129:0.305528 130:0.00267948 131:0.310145 132:0.330357 133:0.366466 134:0.345212 135:0.121229 136:0.0177637 137:0.00426926 138:0.00438251 139:0.201064 140:0.0690393 141:0.052514 142:0.00583289 143:0.0272834 144:0.0875759 145:0.0709338 146:0.268701 147:0.108091 148:0.261053 149:0.0413233 150:0.00130594 151:0.314628 152:0.358262 153:0.0437996 154:0.000967932 155:0.00199653 156:0.0586395 157:0.145662 158:0.0641593 159:0.0123543 160:0.0153891 161:0.282839 162:0.307745 163:0.0346612 164:0.113512 165:0.0859257 166:0.331384 167:0.102749 168:0.037299 169:0.222672 170:0.00703178 171:0.289912 172:0.102949 173:0.002398 174:0.176398 175:0.382803 176:0.00095322 177:0.00224184 178:0.216465 179:0.0823032 180:0.206115 181:0.314194 182:0.113471 183:0.314194 184:0.087927 185:0.0395477 186:0.00109496 187:0.320543 188:0.00016311 189:0.193861 190:0.349125 191:0.0589519 192:0.0530599 193:0.305528 194:0.330357 195:0.238347 196:0.0318434 197:0.00645739 198:0.29441 199:0.283045 
-0 0 0.01154570223432957 0 0:0.26187 1:0.0151029 2:0.180944 3:0.00403109 4:0.0178439 5:0.332585 6:0.00791359 7:0.292221 8:0.018303 9:0.00309679 10:0.174806 11:0.00229707 12:0.0124016 13:0.233175 14:0.0191279 15:0.0739823 16:0.0125406 17:0.309401 18:0.114191 19:0.0673999 20:0.0275481 21:0.196265 22:0.105948 23:0.00984669 24:0.26187 25:0.26187 26:0.123759 27:0.000524003 28:0.00720611 29:0.283324 30:0.161709 31:0.251021 32:0.241958 33:0.314467 34:0.00293336 35:0.290635 36:0.218174 37:0.157229 38:0.412935 39:0.594835 40:0.228618 41:0.37494 42:0.0170464 43:0.207967 44:0.299777 45:0.000661442 46:0.0334153 47:0.0044959 48:0.185049 49:0.0923734 50:0.308624 51:0.0176612 52:0.00892967 53:0.0435918 54:0.00861829 55:0.016818 56:0.00319052 57:0.00171719 58:0.273079 59:0.0262328 60:0.15813 61:0.000111093 62:0.00122878 63:0.0240828 64:0.00437288 65:0.0274624 66:0.0121427 67:0.00360213 68:0.00324591 69:0.0591285 70:0.0401839 71:0.337548 72:0.172423 73:0.0569444 74:0.170927 75:0.332903 76:0.299415 77:0.316733 78:0.00247326 79:0.0636245 80:0.0038235 81:0.0353368 82:0.00605532 83:0.063149 84:0.0251876 85:0.0148405 86:0.0129903 87:0.341032 88:0.139506 89:0.108782 90:0.0387897 91:0.274781 92:0.00525991 93:0.0551711 94:0.245221 95:0.0553861 96:0.0377426 97:0.0248969 98:0.018917 99:0.00305259 100:0.233138 101:0.204585 102:0.149189 103:0.196034 104:0.25815 105:0.177358 106:0.300126 107:0.135299 108:0.258933 109:0.148692 110:0.265968 111:0.0809967 112:0.0299683 113:0.284289 114:0.119075 115:0.0959243 116:0.261756 117:0.0763276 118:0.00526256 119:0.0115052 120:0.312082 121:0.086009 122:0.0475441 123:0.304178 124:0.0514219 125:0.137014 126:0.00592456 127:0.367419 128:0.000448035 129:0.302831 130:0.00473939 131:0.243166 132:0.341032 133:0.332883 134:0.332883 135:0.211953 136:0.0245089 137:0.00039371 138:0.00502878 139:0.168889 140:0.160607 141:0.122693 142:0.0431779 143:0.0520267 144:0.179085 145:0.0166061 146:0.314719 147:0.116788 148:0.258463 149:0.0340521 150:0.00935289 151:0.33431 152:0.116519 153:0.229212 154:0.00126945 155:0.00233005 156:0.0592175 157:0.203068 158:0.0851938 159:0.00353442 160:0.0494317 161:0.217945 162:0.16032 163:0.144347 164:0.218339 165:0.0957633 166:0.332903 167:0.0985307 168:0.0301628 169:0.299415 170:0.00167793 171:0.315093 172:0.0802041 173:0.0203008 174:0.212829 175:0.389908 176:0.00128655 177:0.00339303 178:0.175731 179:0.0696962 180:0.0734074 181:0.308094 182:0.0966949 183:0.308094 184:0.0772792 185:0.00327739 187:0.308624 188:1.95324e-006 189:0.143628 190:0.343306 191:0.0218529 192:0.0660026 193:0.302831 194:0.341032 195:0.0471368 196:0.0365818 197:0.0467449 198:0.216259 199:0.255948 
-0 0.03466708067241003 0 0 0:0.0786175 1:0.0231248 2:0.161919 3:0.00255966 4:0.0879421 5:0.0619048 6:0.0241716 7:0.0128168 8:0.0504918 9:0.000681703 10:0.0943188 11:0.00494698 12:0.0143554 13:0.366664 14:0.18883 15:0.0208766 16:0.301367 17:0.0379085 18:0.116204 19:0.202831 20:0.00393278 21:0.258004 23:0.126392 24:0.305275 25:0.162763 26:0.175887 27:8.76953e-005 28:0.00131396 29:0.359969 30:0.227239 31:0.129767 32:0.000747311 33:0.039428 34:0.00810045 35:0.246253 36:0.241732 37:0.259013 38:0.636792 39:0.0221942 40:0.238754 41:0.129984 42:0.00847924 43:0.00230356 44:0.131688 45:0.0844871 46:0.192294 47:0.00811954 48:0.182202 49:0.0544145 50:0.301554 52:0.00131757 53:0.0202408 54:0.000550498 55:0.0886315 56:0.000834543 57:0.0929597 58:0.366664 59:0.0636353 60:0.309249 61:0.000748743 64:0.0198201 65:0.0401132 66:0.0213622 67:0.0282354 68:0.00836566 69:0.000447599 70:0.093108 71:0.365399 72:0.00221901 73:0.19351 74:0.0695081 75:0.32317 76:0.0184265 77:0.416338 78:0.000642838 79:0.0768206 80:0.184802 81:0.00924465 82:0.000117926 83:0.000825484 84:0.00709356 85:0.00254814 86:0.0037792 87:0.353981 88:0.000438356 89:0.0671362 90:0.0138671 91:0.0142725 92:0.0184661 93:0.0172678 94:0.0649728 95:0.00618256 96:0.374056 97:0.28862 98:0.374056 99:0.0140821 100:0.00340602 101:0.0997674 102:0.261021 103:0.00468651 104:0.378428 105:0.00157422 106:0.192669 107:0.148009 108:0.307011 109:0.322776 110:0.00522401 111:0.186429 112:8.33599e-006 113:0.347544 114:0.19888 115:0.0044977 116:0.0670565 117:0.0087892 118:0.0623087 119:0.127687 120:0.138122 121:0.0333497 122:0.0238215 123:0.288163 124:0.00915791 125:0.203214 126:0.00156909 127:0.345109 128:0.00020352 129:0.117939 130:0.0345492 131:0.219786 132:0.353981 133:0.309249 134:0.031603 135:0.309249 136:0.00453965 137:0.000778236 138:0.000224303 139:0.259013 140:0.0541751 141:0.0430276 142:0.00947407 143:0.199686 144:0.128426 145:0.0153779 146:0.362736 147:0.124494 148:0.0453263 149:0.0372314 150:0.03533 151:0.00228434 152:0.064433 153:0.121032 154:0.00838252 155:0.00690976 156:0.000804588 157:0.218721 158:0.356926 159:0.0021306 160:0.00117495 161:0.308731 162:0.197089 163:0.164642 164:0.0362011 165:0.299625 166:0.32317 167:0.050442 168:0.00288545 169:0.355517 171:0.416338 172:0.00079728 174:0.231393 175:0.548346 176:0.0242765 177:0.0312625 178:0.296651 179:0.00764218 180:0.00627236 181:0.288163 182:0.0769083 183:0.27372 184:0.233414 185:0.244218 186:0.000216273 187:0.32549 188:4.97881e-005 189:0.230109 190:0.359969 191:0.148298 192:0.182026 193:0.222042 194:0.353981 195:0.133276 196:0.00545568 197:0.000610239 198:0.00113418 199:0.150349 
-0.188037082596046 0.1574145935196461 0.3255364578102667 0.3531789477066348 0:0.307016 1:0.138748 2:0.176615 3:0.00794516 4:0.0664081 5:0.000309545 6:0.415488 7:0.009655 9:0.00348985 10:0.357841 11:0.0706959 12:0.0165255 13:0.270399 14:0.0621586 15:0.356676 16:0.020396 17:0.0146699 18:7.89017e-005 19:0.229739 20:0.000706936 21:0.266678 22:0.00149275 23:0.0207229 24:0.171526 25:0.226235 26:0.354604 27:0.0651193 28:0.0829334 29:0.415959 30:0.233297 31:0.0661707 32:0.0971648 33:0.0299625 34:0.354225 35:0.124827 36:0.109396 37:0.0194066 38:0.387222 39:0.0205246 40:0.256153 41:0.256998 42:0.015567 43:0.116174 44:0.234126 45:0.0283771 46:0.0491504 47:0.184723 48:0.0617201 49:0.0144536 50:0.340595 51:0.0151443 52:0.0916742 53:0.366753 54:0.0704916 55:0.176094 56:0.0212086 57:0.127717 58:0.393396 59:0.048008 60:0.302165 61:0.132359 62:0.0394048 63:0.00140577 64:0.0106362 65:0.013015 66:0.0455629 67:0.419152 68:0.00630702 69:0.100834 70:0.0583682 71:0.480198 73:0.401779 74:0.0151423 75:0.361111 77:0.370883 78:0.000673849 79:0.0100794 80:0.237716 81:0.175006 82:0.0169698 83:0.20886 84:0.302233 87:0.1126 88:0.0943426 89:0.195738 90:0.337056 91:0.0254894 92:0.129058 93:0.0054442 94:0.274422 95:0.00217212 96:0.102813 97:0.00566599 98:0.179523 99:0.0291758 100:0.384254 101:0.000562185 102:0.0120832 103:0.00112051 104:0.15531 105:0.0011406 106:0.0669984 107:0.0160135 108:0.433916 109:0.330385 110:0.0143092 111:0.0519611 112:0.00109712 113:0.438383 114:0.280825 115:0.0175094 116:0.37824 117:0.0202393 120:0.034951 121:0.0069583 122:0.0035678 123:0.0717636 124:0.0264281 125:0.122351 126:0.155988 127:0.00536136 128:0.0512364 129:0.23558 130:0.0734756 131:0.225559 132:0.389881 133:0.335746 134:0.0319545 135:0.335746 136:0.221685 137:0.00555237 138:0.182882 139:0.215568 140:0.0422395 141:0.0325996 142:0.127616 143:0.0865342 144:0.0129652 145:0.0271696 146:0.422655 147:0.0568542 148:0.00869705 149:0.00447278 150:0.0657339 151:0.244515 152:0.00116575 154:0.00751206 155:0.194741 156:0.000330783 157:0.432569 158:0.026146 159:0.00117432 160:0.0111009 161:0.135019 162:0.11211 163:0.00885511 164:0.0222253 165:0.343139 166:0.361111 169:0.0233031 170:0.0111803 171:0.370883 172:0.000201123 174:0.00385398 175:0.37824 177:0.000205566 178:0.0170297 179:0.158003 180:0.055258 181:0.34006 182:0.195016 183:0.294892 184:0.134342 185:0.164227 186:0.0150506 187:0.00704139 188:0.0523809 189:0.0559336 190:0.366496 191:0.286485 192:0.0189723 193:0.091949 194:0.389881 195:0.0745273 196:0.0547344 197:0.099176 198:0.00774822 199:0.0325897 
-0.07328412991929931 0.07575663557427724 0 0 0:0.253031 1:0.0674852 2:0.100446 4:0.201531 5:0.0364059 6:0.0874859 7:0.0141868 8:0.000954089 9:0.000183008 10:0.373483 11:0.0146701 12:0.00287379 13:0.361562 14:0.228573 15:0.0810546 16:0.0664951 17:0.00289312 18:0.0016741 19:0.365321 20:0.00177725 21:0.364645 22:0.00720654 23:0.0420353 24:0.224838 25:0.0873585 26:0.113028 27:0.000547789 28:0.00109776 29:0.43993 30:0.235204 31:0.169732 32:0.0555464 33:0.0284545 34:0.00256345 35:0.218435 36:0.145095 37:0.274762 38:0.437165 39:0.0304278 40:0.251907 41:0.299212 42:0.0510236 43:0.00161093 44:0.292787 45:0.0124562 46:0.123935 47:0.0126109 48:0.0278264 49:0.0962425 50:0.23162 51:0.00230071 53:0.00872914 54:0.00444933 55:0.0378085 56:0.0189051 57:0.0436537 58:0.415042 59:0.0710743 60:0.335115 64:0.0119297 65:0.00557315 66:0.019447 67:0.204228 68:0.113511 69:0.0132974 70:0.0234305 71:0.390295 72:8.72803e-005 73:0.361023 74:0.0110582 75:0.375252 76:0.0106287 77:0.371048 78:0.000653942 79:0.0842167 80:0.0610054 81:0.0802792 83:0.000540856 84:0.0443454 85:0.0008976 86:0.0161102 87:0.365321 88:0.0224167 89:0.118517 90:0.0891156 91:0.0240623 92:0.125033 93:0.00783796 94:0.100109 95:0.000841753 96:0.407005 97:0.26082 98:0.407005 99:0.00855808 100:0.00967334 102:0.00190152 103:0.00226308 104:0.47552 105:0.00118647 106:0.0515865 107:0.00730554 108:0.367004 109:0.223896 110:0.000419202 111:0.016455 112:0.0120723 113:0.376291 114:0.294159 115:0.00274405 116:0.121102 118:0.00650999 119:0.0226705 120:0.0938352 121:0.0133347 122:0.0106312 123:0.186024 124:0.000247416 125:0.0612744 127:0.182021 129:0.136283 130:0.0586684 131:0.137028 132:0.178142 133:0.171353 134:0.0169442 135:0.335115 136:0.000535397 139:0.148508 140:0.0632483 141:0.0194932 142:0.0233545 143:0.284856 144:0.0159339 145:0.0237714 146:0.437766 147:0.223113 148:0.00189822 149:0.00350787 150:0.296945 151:0.00940856 153:0.00523665 154:0.00216642 155:0.0465251 156:0.00347612 157:0.298108 158:0.20751 160:0.0126118 161:0.20756 162:0.0406986 163:0.0147425 164:0.00414269 165:0.320184 166:0.375252 167:0.000207673 168:0.000399873 169:0.0488229 170:0.0044939 171:0.371048 174:0.00411954 175:0.424954 177:0.00190983 178:0.0867713 179:0.08987 180:0.0885514 181:0.315312 182:0.125246 183:0.172109 184:0.13551 185:0.120731 187:0.435042 189:0.272822 190:0.43993 191:0.173706 192:0.0292795 193:0.1474 194:0.365321 195:0.239961 196:0.0562551 197:0.000492991 198:0.0136568 199:0.171213 
-0 0 0.07905282682746813 0 0:0.294342 1:0.0820392 2:0.056597 3:0.00262876 4:0.0175011 5:0.0801494 6:0.00590811 7:0.0184941 8:0.0421032 9:0.00102858 10:0.224742 11:0.00138129 13:0.281958 14:0.0139101 15:0.00900257 16:0.102231 17:0.392886 18:0.0205668 19:0.112333 20:0.00612066 21:0.39339 22:0.00498534 23:0.0158645 24:0.294342 25:0.192498 26:0.0626061 27:0.00374921 28:0.0121374 29:0.18245 30:0.0511392 31:0.140498 32:0.105009 33:0.323384 34:0.0245413 35:0.178213 36:0.206162 37:0.134627 38:0.513576 39:0.238633 40:0.144222 41:0.472277 42:0.00322097 43:0.0021319 44:0.360342 45:0.0188134 46:0.0140097 47:0.000552875 48:0.161195 49:0.128219 50:0.126508 51:0.0351418 52:0.0131418 53:0.0659023 54:0.0124232 55:0.0341475 56:0.0143134 57:0.0164825 58:0.258928 59:0.0119391 60:0.116003 61:0.0281366 62:0.00507458 63:0.0283054 64:0.00166133 65:0.0220501 66:0.0383971 67:0.0204533 68:0.00606575 69:0.000443824 70:0.0365708 71:0.391853 72:0.0608469 73:0.0462667 74:0.0047838 75:0.392875 76:0.326012 77:0.364374 78:0.000454466 79:0.0117734 80:0.0242621 81:0.0143318 82:0.0211617 83:0.0862565 84:0.160806 85:0.0139006 86:0.00457182 87:0.361656 88:0.126349 89:0.113044 90:0.027714 91:0.0122319 92:0.00940675 93:0.0929816 94:0.248405 95:0.00903817 96:0.0530379 97:0.0217235 98:0.0655057 99:0.0189463 100:0.00504127 101:0.0549519 102:0.0286243 103:0.00686511 104:0.383333 106:0.22313 107:0.117295 108:0.451481 109:0.333528 110:0.0167564 111:0.047528 112:0.0172587 113:0.39339 114:0.369502 115:0.00964384 116:0.35155 117:0.00938115 118:0.00029565 119:0.00158505 120:0.424001 121:0.0121372 122:0.0354787 123:0.188231 124:0.0430277 125:0.233059 126:0.0055686 127:0.135842 128:0.0441013 129:0.246424 130:0.000826512 131:0.227736 132:0.361656 133:0.360276 134:0.184667 135:0.202466 136:0.0334325 137:0.00803681 138:0.016466 139:0.161533 140:0.107818 141:0.046376 142:0.00398629 143:0.0145577 144:0.0127133 145:0.0106044 146:0.383007 147:0.0235149 148:0.0963128 149:0.0499092 150:0.0436765 151:0.0212602 152:0.0467612 153:0.102612 155:0.0159157 156:0.00138829 157:0.0473674 158:0.100362 159:0.000226648 160:0.00706636 161:0.130817 162:0.0766964 163:0.0404121 164:0.0180521 165:0.392875 166:0.22641 167:0.0135472 168:0.100037 169:0.248223 170:0.0129908 171:0.364374 172:0.0115937 173:0.00413109 174:0.0761888 175:0.386165 177:0.000656844 178:0.0261899 179:0.0044571 180:0.0056177 181:0.240442 182:0.116045 183:0.300247 184:0.0376988 185:0.0171447 186:0.00462605 187:0.371439 188:0.0151693 189:0.192142 190:0.405556 191:0.0436084 192:0.0791205 193:0.198222 194:0.361656 195:0.0509392 196:0.0133718 197:0.0611244 198:0.161462 199:0.187894 
-0 0.1152157259980544 0.2821884976173077 0.131735728842484 0:0.190492 1:0.0828168 2:0.0873073 3:0.00275346 4:0.115348 5:0.0148029 6:0.308901 7:0.00411822 9:0.00122275 10:0.235647 11:0.014802 12:0.0218676 13:0.302354 14:0.192126 15:0.0345726 16:0.159878 17:0.00988495 18:0.00936933 19:0.197836 20:0.0170231 21:0.278462 22:0.00069123 23:0.0291263 24:0.317935 25:0.17292 26:0.256984 27:0.011561 28:0.0384455 29:0.248971 30:0.203519 31:0.0457648 32:0.0794321 33:0.343994 34:0.0567736 35:0.117117 36:0.114809 37:0.118219 38:0.52113 39:0.0356004 40:0.118853 41:0.476782 42:0.0239964 43:0.0160554 44:0.264804 45:0.0772201 46:0.0694895 47:0.0260896 48:0.137321 49:0.125768 50:0.322681 51:0.000217837 52:0.0035499 53:0.14547 54:0.0118654 55:0.122589 56:0.032199 57:0.0950538 58:0.330407 59:0.0187716 60:0.243317 61:0.0635198 64:0.00957074 65:0.089894 66:0.0480307 67:0.310354 68:0.140576 69:0.0990806 70:0.0250303 71:0.415527 73:0.202569 74:0.00881221 75:0.364029 76:0.0185967 77:0.390748 78:0.0213106 79:0.0345449 80:0.12888 81:0.0571628 82:0.00135567 84:0.154623 85:0.00293244 86:0.0126456 87:0.295395 88:0.0263675 89:0.0976895 90:0.026495 91:0.208902 93:0.150751 94:0.233812 95:0.0182136 96:0.0130479 97:0.036696 98:0.162782 99:0.0326373 100:0.0664266 101:0.0190087 102:0.0214825 103:0.00203715 104:0.444873 105:0.00251145 107:0.0317915 108:0.40485 109:0.363269 110:0.00109136 111:0.0877675 113:0.426488 114:0.272418 115:0.0464875 116:0.363883 117:0.00448462 118:0.00456265 119:0.0094269 120:0.136516 121:0.0679214 122:0.0190643 123:0.290764 124:0.00208502 125:0.0600843 126:0.0251233 127:0.309404 128:0.022662 129:0.151314 130:0.0483255 131:0.41771 132:0.224619 133:0.241053 134:0.0405465 135:0.332314 136:0.103194 137:0.0174676 138:0.0396451 139:0.231269 140:0.0256396 141:0.0108711 142:0.0202766 143:0.112596 144:0.0356039 145:0.0763503 146:0.360292 147:0.0498221 148:0.110585 149:0.10328 150:0.157572 151:0.012367 152:0.00906335 153:0.0920257 155:0.0116452 156:0.0043143 157:0.184051 158:0.127042 160:0.0171608 161:0.104806 162:0.315978 163:0.074735 164:0.0307852 165:0.364029 166:0.364029 167:0.00313812 169:0.276073 170:0.00811423 171:0.390748 173:0.00128908 174:0.0244617 175:0.363883 178:0.0284311 179:0.0706056 180:0.0468215 181:0.324533 182:0.0808418 183:0.255301 184:0.118601 185:0.0925139 186:0.0177451 187:0.293345 188:0.0241096 189:0.328888 190:0.363963 191:0.262011 192:0.178757 193:0.0885769 194:0.318883 195:0.318883 196:0.00781453 197:0.0160315 198:0.143112 199:0.250313 
-0.03302586552584938 0 0 0 0:0.261803 1:0.0327958 2:0.0399204 3:0.00271698 4:0.074976 5:0.0120548 6:0.0129243 7:0.00772891 8:0.0168413 9:0.00653683 10:0.226804 11:0.0090106 12:0.00122553 13:0.212511 14:0.155668 15:0.0473816 16:0.0131305 17:0.000646304 18:0.00503394 19:0.0960886 20:0.012149 21:0.371392 22:0.000170287 23:0.106695 24:0.323954 25:0.0812596 26:0.170385 28:0.00119687 29:0.230057 30:0.0485492 31:0.121277 32:0.0799226 33:0.0462748 34:0.011155 35:0.232219 36:0.159821 37:0.212951 38:0.534017 39:0.0657121 40:0.380368 41:0.499854 42:0.0289711 43:5.98911e-005 44:0.191555 45:0.00708765 46:0.246709 47:0.0234883 48:0.0992253 49:0.103645 50:0.249818 51:0.0139161 52:0.00141588 53:0.00171113 54:0.00424688 55:0.00244527 56:0.00483309 57:0.0541211 58:0.404532 59:0.138962 60:0.309222 61:0.000960756 63:0.0131813 64:0.00371833 65:0.0450002 66:0.000271211 67:0.0428214 68:0.0239722 69:0.0152161 70:0.0493463 71:0.399623 72:0.00309644 73:0.277968 74:0.00054583 75:0.359955 76:0.0356114 77:0.42219 79:0.141582 80:0.0752758 81:0.010644 82:0.00410794 83:0.0166535 84:0.000703333 85:0.00241179 86:0.000243323 87:0.370269 88:0.00340808 89:0.0106527 90:0.0764351 92:0.0319451 93:0.0924843 94:0.185789 95:0.0123196 96:0.418885 97:0.115747 98:0.418885 99:0.0528129 100:0.00109183 101:0.00032534 102:0.171752 103:6.46054e-005 104:0.410736 106:0.0872375 107:0.0249313 108:0.364712 109:0.351334 110:0.00113578 111:0.0259754 112:0.0019831 113:0.371392 114:0.341821 115:0.0135823 116:0.0550485 117:0.0229679 118:0.00487871 119:0.00743338 120:0.221172 121:0.0306477 122:0.00193968 123:0.189724 124:0.0209546 125:0.0935036 126:0.000283866 127:0.205868 129:0.0182631 130:0.0812793 131:0.0519505 132:0.370269 133:0.156592 134:0.017538 135:0.32734 136:0.0140053 137:0.00231298 138:0.00339184 139:0.252547 140:0.0389442 141:0.0120622 142:0.214057 143:0.208344 144:0.0604358 145:0.0209194 146:0.430679 147:0.130981 148:0.0639125 149:0.0377798 150:0.0983942 151:0.073312 152:0.00473225 153:0.0309102 154:0.000528181 155:0.0325896 156:0.0070222 157:0.178914 158:0.323252 160:0.0150901 161:0.0593836 162:0.0429847 163:0.000894863 164:0.00405967 165:0.359955 166:0.359955 167:0.00187271 168:1.44737e-006 169:0.250133 170:0.000793831 171:0.42219 172:0.000805599 173:0.00535981 174:0.0275822 175:0.502908 176:0.000573696 177:0.00373014 178:0.302721 179:0.0109061 180:0.0250677 181:0.341376 182:0.0173124 183:0.105378 184:0.0508238 185:0.00943316 187:0.407193 189:0.421724 190:0.421724 191:0.177078 192:0.098406 193:0.404532 194:0.370269 195:0.0752336 196:0.0198754 197:0.00962503 198:0.0368197 199:0.292755 
-0 0 0.1415247543306663 0 0:0.31334 1:0.092923 2:0.160152 3:0.00467541 5:0.212333 6:0.00608267 7:0.00841924 8:0.0144594 9:0.000465943 10:0.325474 11:0.000531669 12:0.00271168 13:0.258488 14:0.00275436 15:0.0284678 16:0.0394277 17:0.299097 18:0.0321839 19:0.0863883 20:0.00839656 21:0.206248 22:0.000562982 23:0.00362907 24:0.31334 25:0.213704 26:0.0954354 27:0.00242027 28:0.00992438 29:0.19351 30:0.216978 31:0.183348 32:0.165612 33:0.212703 34:0.0351993 35:0.212734 36:0.184357 37:0.216881 38:0.499627 39:0.29327 40:0.135854 41:0.427578 42:0.00895005 43:0.015581 44:0.371287 45:0.00730366 46:0.0450991 47:0.00682184 48:0.132287 49:0.177583 50:0.21587 51:0.000576255 52:0.00445257 53:0.0355174 54:0.00791616 55:0.0577497 56:0.00840423 57:0.0559052 58:0.153467 59:0.00275622 60:0.165794 61:0.00302481 62:0.00166668 63:8.80098e-005 65:0.0411129 66:0.0459842 67:0.0164078 68:0.00293663 69:0.00447722 70:0.0256346 71:0.427131 72:0.0630315 73:0.0475351 74:0.0405045 75:0.371391 76:0.325474 77:0.359376 79:0.0384379 80:0.0571281 81:0.0617643 82:0.0100697 83:0.0520051 84:0.0834922 85:0.00258669 86:0.00595539 87:0.362883 88:0.0512645 89:0.118643 90:0.00718212 91:0.00463173 92:0.00821962 93:0.215329 94:0.200524 95:0.0178574 96:0.0745304 97:0.051544 98:0.0632831 99:0.0164713 100:0.0378057 101:0.0288973 102:0.291441 103:0.00220738 104:0.342981 105:0.0382859 106:0.00307058 107:0.0495 108:0.430581 109:0.303017 110:0.00408227 111:0.0890592 112:0.146058 113:0.40541 114:0.253908 115:0.0225374 116:0.376748 117:0.00716453 118:0.00318267 119:0.0101949 120:0.448206 121:0.0530319 122:8.86527e-005 123:0.271733 124:0.02402 125:0.226299 127:0.161614 128:0.00371362 129:0.183286 130:0.00566093 131:0.242579 132:0.362883 133:0.360252 134:0.174588 135:0.251319 136:0.0804746 137:0.00431248 138:0.00177592 139:0.188966 140:0.126709 141:0.0420646 142:0.0084362 143:0.0391662 144:0.0355664 145:0.000179743 146:0.373534 147:0.0683297 148:0.0810131 149:0.021784 150:0.0225012 151:0.0689426 152:0.086483 153:0.172551 155:0.00758077 156:0.00239522 157:0.201857 158:0.0858722 160:9.14509e-005 161:0.0745602 162:0.361126 163:0.00355792 164:0.0337857 165:0.371391 166:0.328349 167:0.0599125 168:0.0314198 169:0.164928 171:0.359376 174:0.00475973 175:0.376748 176:0.000342764 177:0.00273964 178:0.0806746 179:0.0313445 180:0.01621 181:0.312083 182:0.0720028 183:0.11917 184:0.0146465 185:0.00256797 186:0.00382151 187:0.340118 188:0.0100306 189:0.2687 190:0.379006 191:0.0829366 192:0.120344 193:0.111747 194:0.362883 195:0.0957907 196:0.0309911 197:0.058383 198:0.107255 199:0.198954 
-0 0.09090096107648731 0 0 0:0.202445 1:0.0650714 2:0.26036 3:0.0154738 4:0.193636 5:0.0935757 6:0.00325516 7:0.0154346 8:0.0573787 9:0.00873794 10:0.186463 11:0.0133201 12:0.00749384 13:0.342037 14:0.154815 15:0.0578798 16:0.10495 17:0.000888406 18:0.0353917 19:0.276052 20:0.00154288 21:0.364615 22:0.000288892 23:0.0294301 24:0.292706 25:0.152859 26:0.222245 27:0.00509827 28:0.00149488 29:0.322081 30:0.347556 31:0.0514655 32:0.0331709 33:0.0121331 34:0.0037082 35:0.316939 36:0.148514 37:0.26036 38:0.437317 39:0.146432 40:0.179385 41:0.219016 42:0.0130823 43:0.0149886 44:0.252557 45:0.0038911 46:0.0767003 47:0.0785915 48:0.171931 49:0.0895795 50:0.165323 51:0.00147188 52:0.00136869 53:0.00628259 54:0.0083299 55:0.0280818 56:0.0122797 57:0.0784434 58:0.347556 59:0.0367093 60:0.32534 64:0.0597425 65:0.0613181 66:0.129823 67:0.0819926 68:0.000592733 69:0.00221755 70:0.0314355 71:0.387656 72:0.00148282 73:0.207195 74:0.00804691 75:0.356964 76:0.00230364 77:0.432369 78:0.0269376 79:0.0634175 80:0.348748 81:0.0267477 82:0.000225798 83:0.00660128 84:0.00785629 85:0.0012618 86:0.00155022 87:0.372965 88:0.00437848 89:0.138603 90:0.0424876 91:0.0180438 92:0.143926 93:0.0851296 94:0.0736725 95:0.0221362 96:0.387211 97:0.283967 98:0.387211 99:0.00988264 100:0.0103419 101:0.14792 102:0.264742 103:0.00797691 104:0.461975 105:0.0043545 106:0.244357 107:0.0542878 108:0.358544 109:0.21493 110:0.003784 111:0.211088 112:0.0719649 113:0.364615 114:0.363944 115:0.0178711 116:0.0559908 117:0.0256599 118:0.0059644 119:0.0372342 120:0.0690321 121:0.00826253 122:0.00687361 123:0.143622 125:0.0445386 127:0.237132 128:0.000630605 129:0.347556 130:0.076939 131:0.141836 132:0.359575 133:0.283861 134:0.0132029 135:0.32534 136:0.009842 137:0.00244969 139:0.20949 140:0.0434825 141:0.119111 142:0.0141527 143:0.255492 144:0.0537823 145:0.0399559 146:0.412224 147:0.0772117 148:0.0631425 149:0.045955 150:0.123288 151:0.016292 152:0.0336437 153:0.0762079 154:0.00133604 155:0.0283435 156:0.00696142 157:0.169786 158:0.31114 160:0.00517381 161:0.20269 162:0.0820941 163:0.106297 164:0.0153767 165:0.356964 166:0.356964 167:0.0215699 168:0.000345365 169:0.131647 170:0.00198715 171:0.432369 172:0.00536383 173:0.00421967 174:0.129182 175:0.48006 178:0.171394 179:0.0747648 180:0.0639074 181:0.311637 182:0.101479 183:0.0533135 184:0.170953 185:0.159759 186:0.00243895 187:0.436247 188:9.5241e-005 189:0.196505 190:0.483925 191:0.209777 192:0.0641674 193:0.107796 194:0.372965 195:0.182067 196:0.012079 197:0.00594166 198:0.0154421 199:0.233391 
-0.005100849804267447 -0.02088429480078378 0 0.0905114859805832 0:0.382025 1:0.170339 2:0.0717787 3:0.0492004 4:0.00642639 5:0.233591 6:0.0849044 7:0.0110283 8:0.00103466 9:0.00333277 10:0.250482 11:0.0032485 12:0.0372153 13:0.122532 14:0.119595 15:0.0464477 16:0.0267898 17:0.0400913 18:0.0146732 19:6.47324e-006 20:0.101516 21:0.291475 22:0.0124827 23:0.00295121 24:0.382025 25:0.000415892 26:0.0359726 27:0.0221465 28:0.0297824 29:0.0605521 30:0.139364 31:0.272916 32:0.0194869 33:0.024681 34:0.273351 35:0.105022 36:0.147066 37:0.415199 38:0.487857 39:0.0171115 40:0.373111 41:0.0205962 42:0.236253 43:0.0168145 44:0.362731 45:0.0165705 46:0.0150407 47:0.17996 48:0.035634 49:0.0229695 50:0.0686248 51:0.0053042 52:0.0245404 53:0.199791 54:0.0908947 55:0.318868 56:0.120074 57:0.344586 58:0.344586 59:0.208142 60:0.0307031 61:0.293649 62:0.0109964 63:0.00403591 64:0.0112239 65:0.483605 66:0.0855314 67:0.0438113 68:0.0292935 69:0.0366316 70:0.111022 71:0.37631 72:0.018415 73:0.0157509 74:0.0661587 75:0.426927 76:0.141648 77:0.324661 78:0.035361 79:0.0534757 80:0.347027 81:0.113818 82:0.0691671 83:0.173095 84:0.193764 85:0.125233 86:0.149565 87:0.133579 88:0.0197151 89:0.0308314 90:0.0339302 91:0.00137789 92:0.164347 93:0.0620236 94:0.0146665 95:0.308852 96:0.295063 97:0.308852 98:0.0797665 99:0.290552 100:0.0662052 101:0.0924239 102:0.0468501 103:0.0027409 104:0.396885 106:0.0115726 107:0.156293 108:0.41698 109:0.150113 110:0.00202643 111:0.0386014 112:0.127149 113:0.453987 114:0.282744 115:0.0441835 116:0.372787 117:0.0382076 118:0.022074 119:0.021431 120:0.103969 121:0.000442564 124:0.008834 125:0.00363256 126:0.046317 127:0.340946 128:0.102858 129:0.0343985 130:0.0655448 131:0.446883 132:0.0683553 133:0.0349983 134:0.00967954 135:0.0127661 136:0.142137 137:0.0197795 138:0.0145663 139:0.216449 140:0.415199 141:0.233215 142:0.0252245 143:0.247237 144:0.0151842 145:0.00048649 146:0.426356 147:0.193616 148:0.06302 149:0.0590228 150:0.0072447 151:0.0251035 152:0.0172585 153:0.0811259 154:0.0785725 155:0.00147706 156:0.0607359 157:0.130304 158:0.0345164 159:3.91e-005 160:0.120767 161:0.388673 162:0.122398 163:0.0581947 164:0.136819 165:0.264579 166:0.338143 167:0.00391321 169:0.145174 170:0.00653266 171:0.385155 172:0.00625385 173:0.00132975 174:0.00618341 175:0.192781 176:0.000141947 177:0.0143529 178:0.0102167 179:0.030847 180:0.0363797 181:0.219903 182:0.00579704 183:0.000842857 184:0.00992985 185:0.0174721 186:0.116903 187:0.137376 188:0.152163 189:0.252399 190:0.173304 191:0.299489 192:0.243991 193:0.0995294 194:0.431703 195:0.144875 196:0.0474815 197:0.13642 198:0.0195032 199:0.275164 
-0 -0.1238321700803258 0 0 0:0.35107 1:0.00745321 2:0.00836983 3:0.026974 4:0.0434243 5:0.264726 6:0.0491966 7:0.0204444 8:0.00787304 10:0.336298 11:0.0692526 12:0.0778065 13:0.0755735 14:0.0555221 15:0.0270592 16:0.0326573 17:0.0219567 18:0.0896587 19:0.0103879 20:0.045174 21:0.379877 22:0.00447715 23:0.0294624 24:0.325752 25:0.0183245 26:0.0207708 27:0.0292623 28:0.00869074 29:0.144971 30:0.0160205 31:0.164674 32:0.049796 33:0.0615393 34:0.338325 35:0.207006 36:0.0707586 37:0.372266 38:0.478971 39:0.0639003 40:0.299879 41:0.0713975 42:0.330309 43:0.00829762 44:0.286199 45:0.0305558 46:0.0190337 47:0.286997 48:0.0681335 49:0.00900463 50:0.134699 51:0.102938 52:0.00347678 53:0.0442165 54:0.0310762 55:0.102831 56:0.0907241 57:0.314133 58:0.380317 59:0.138251 60:0.170183 61:0.214001 62:0.00631029 63:0.0148996 64:0.307641 65:0.392783 66:0.105363 67:0.0722903 68:0.076298 69:0.00759978 70:0.00346697 71:0.443688 72:0.0515803 73:0.0365812 74:0.0104735 75:0.376807 76:0.0452223 77:0.353735 78:0.0286279 79:0.162606 80:0.348937 81:0.0832179 82:0.298406 83:0.133674 84:0.0416823 85:0.0288804 86:0.21962 87:0.381533 88:0.0261411 89:0.0287653 90:0.182248 91:0.0142762 92:0.0702967 93:0.0226867 94:0.0026682 95:0.327231 96:0.261254 97:0.327231 98:0.0719989 99:0.327231 100:0.0609229 101:0.0259054 102:0.0182719 103:0.0127339 104:0.392964 105:0.00909839 106:0.0635001 107:0.0204028 108:0.38946 109:0.207112 110:0.00449972 111:0.000592416 112:0.0253049 113:0.350588 114:0.369539 115:0.0415787 116:0.0322444 117:0.00621913 118:0.0524294 119:0.0863878 120:0.0859799 122:0.000407335 123:0.0417304 124:0.131496 125:0.0376004 126:0.00970041 127:0.325137 128:0.0961384 129:0.025787 130:0.140097 131:0.442284 132:0.0727832 133:0.0480748 134:0.0269646 135:0.00439546 136:0.0962453 137:0.00155778 138:0.0225004 139:0.0732379 140:0.372266 141:0.243836 142:0.0317729 143:0.300832 144:0.106884 145:0.0266659 146:0.378824 147:0.174768 148:0.00893774 149:0.0059783 150:0.00496805 151:0.10392 152:0.0813231 153:0.01426 154:0.22018 155:0.0157257 156:0.0865272 157:0.149361 158:0.169734 159:0.00341769 160:0.163582 161:0.354425 162:0.323593 163:0.00327596 164:0.0211559 165:0.376807 166:0.291782 167:0.0573334 168:0.0161912 169:0.295774 170:0.0567659 171:0.359007 172:0.026974 173:0.0142658 174:0.114567 175:0.365673 177:0.00784728 178:0.0262001 179:0.0627288 180:0.0936084 181:0.345269 182:0.000576254 183:0.024594 184:0.0052487 185:0.0415875 186:0.313747 187:0.153518 188:0.1334 189:0.348653 190:0.273072 191:0.212662 192:0.148324 193:0.223029 194:0.492077 195:0.394321 196:0.0406668 197:0.0984368 198:0.0244672 199:0.358879 
-0.1099577018374814 -0 0.05478242283460999 0.0111236005888315 0:0.368598 1:0.0381338 2:0.047477 3:0.043212 4:0.104862 5:0.135876 6:0.0476216 7:0.0203107 8:0.00382863 10:0.299208 11:0.0781571 12:0.109815 13:0.0983701 14:0.0602596 15:0.0650103 16:0.00829703 17:0.0199779 18:0.052209 19:0.0194029 20:0.0931411 21:0.383777 22:0.0116089 23:0.0412839 24:0.243125 25:0.00478121 26:0.00743088 27:0.0152393 28:0.0134005 29:0.0495559 30:0.0752966 31:0.0799055 32:0.0316128 33:0.0241517 34:0.34194 35:0.106706 36:0.142543 37:0.390912 38:0.441976 39:0.021397 40:0.364627 41:0.0554504 42:0.229792 43:0.0222016 44:0.314108 45:0.0285029 46:0.0238848 47:0.28485 48:0.0512332 50:0.0382212 51:0.00654239 52:0.0162698 53:0.147794 54:0.037545 55:0.163362 56:0.102894 57:0.328137 58:0.339466 59:0.132737 60:0.150055 61:0.29951 63:0.0025784 64:0.307163 65:0.379988 66:0.116926 67:0.0253776 68:0.0476831 69:0.0426278 70:0.0207496 71:0.453665 72:0.0417008 73:0.0897224 74:0.0288981 75:0.380235 76:0.0279479 77:0.348559 78:0.0164068 79:0.121631 80:0.352272 81:0.0796753 82:0.272105 83:0.0837073 84:0.0460564 85:0.176942 86:0.302793 87:0.247351 88:0.0385695 89:0.0257437 90:0.0768662 91:0.0106572 92:0.205244 93:0.01897 94:0.00326318 95:0.200508 96:0.191856 97:0.348797 98:0.0660981 99:0.348797 100:0.0428161 101:0.0109473 102:0.00372367 103:0.00607341 104:0.396389 106:0.00244462 107:0.145085 108:0.382257 109:0.171758 110:0.0134277 111:0.0215662 112:0.0488213 113:0.383777 114:0.382607 115:0.0393396 116:0.177098 117:0.0141887 118:0.0495775 119:0.0699703 120:0.13396 122:0.00286356 123:0.0233852 124:0.15528 125:0.0392977 126:0.00512337 127:0.319497 128:0.0920774 129:0.0416636 130:0.219145 131:0.410158 132:0.0151788 133:0.0243639 134:0.00378225 135:0.029922 136:0.104821 137:0.0038971 138:0.00820563 139:0.103412 140:0.390912 141:0.0884872 142:0.0684112 143:0.369423 144:0.0186194 145:0.0378639 146:0.38342 147:0.195809 148:0.0148685 149:0.0230679 150:0.00416901 151:0.0402535 152:0.0167203 153:0.000516558 154:0.242337 155:0.00330459 156:0.114539 157:0.139597 158:0.134151 159:0.000285915 160:0.178025 161:0.378809 162:0.134562 163:0.0277237 164:0.0202706 165:0.380235 166:0.295806 167:0.034848 169:0.167169 170:0.0499467 171:0.348559 172:0.0318472 173:0.00173794 174:0.0387585 175:0.349832 176:0.017375 177:0.0169962 178:0.0321137 179:0.0298845 180:0.0757435 181:0.3509 182:0.00339745 183:0.0145075 184:0.00495786 186:0.241253 187:0.1395 188:0.102254 189:0.331211 190:0.296395 191:0.33233 192:0.339466 193:0.114191 194:0.438806 195:0.438806 196:0.100116 197:0.0696227 198:0.0379349 199:0.369866 
-0 -0 0.1234112714997081 0 0:0.370229 1:0.183473 2:0.0297257 3:0.0194353 4:0.04242 5:0.191912 6:0.0514925 7:0.0663543 8:0.000742928 9:0.000477721 10:0.308269 11:0.00274828 12:0.0305549 13:0.197913 14:0.265547 16:0.0556222 17:0.00995009 18:0.122832 19:0.0573139 20:0.0266321 21:0.352573 22:0.0906595 23:0.00971959 24:0.234759 25:0.00641371 26:0.028508 27:0.044941 28:0.271032 29:0.183077 30:0.113501 31:0.165141 32:0.0601952 33:0.130201 34:0.281682 35:0.255008 36:0.203611 37:0.324197 38:0.505403 39:0.0543754 40:0.313552 41:0.418402 42:0.191047 43:0.000723866 44:0.350769 45:0.0396626 46:0.0842319 47:0.066416 48:0.111898 49:0.0142933 50:0.0872307 51:0.196041 52:0.161811 53:0.268084 54:0.268084 55:0.267518 56:0.262674 57:0.256951 58:0.267518 59:0.183868 60:0.194395 61:0.281682 62:0.0575657 63:0.0937471 64:0.0228489 65:0.330935 66:0.243652 67:0.0792896 68:0.210898 69:0.011088 70:0.00843103 71:0.42808 72:0.00951282 73:0.331698 74:0.241748 75:0.370208 76:0.193947 77:0.336201 78:0.0122814 79:0.0557875 80:0.301908 81:0.110839 82:0.0136077 83:0.0117021 84:0.276934 85:0.198639 86:0.0061687 87:0.143981 88:0.0227399 89:0.0486274 90:0.100075 92:0.019537 93:0.0339612 94:0.0786977 95:0.332381 96:0.0257909 97:0.2117 98:0.00687723 99:0.109726 101:0.0400517 102:0.286799 103:0.00309591 104:0.375578 105:0.00489113 106:0.0268704 107:0.0816292 108:0.276876 109:0.156847 110:0.286355 111:0.179553 112:0.0141123 113:0.352573 114:0.315888 115:0.245299 116:0.338124 117:0.138668 120:0.357668 121:0.00333317 122:0.00942207 123:0.0113187 124:0.0268865 125:0.0112898 126:0.00445405 127:0.209593 128:0.237792 129:0.0497403 130:0.0414324 131:0.360893 132:0.179152 133:0.219421 134:0.0135206 135:0.0667994 136:0.16898 137:0.112581 138:0.0742032 139:0.0342124 140:0.324197 141:0.324197 142:0.000925741 143:0.0541387 144:0.000897519 145:0.00296667 146:0.410204 147:0.254222 148:0.0343856 149:0.0141073 150:0.0330457 151:0.0109891 152:0.0401656 153:0.243206 154:0.0336533 155:0.0184502 156:0.0578904 157:0.0216518 158:0.0127099 159:2.71961e-005 160:0.0888555 161:0.416411 162:0.00760964 163:0.0607715 164:0.10896 165:0.177368 166:0.362409 167:0.0945575 168:0.0275607 169:0.164228 170:0.0556872 171:0.336201 172:0.0446161 173:0.00248486 174:0.0955812 175:0.338124 177:0.0271072 178:0.0624651 179:0.0152557 180:0.0212344 181:0.327934 182:0.0164228 183:0.00687458 184:0.0429615 185:0.0003457 186:0.0545721 187:0.0358592 188:0.269639 189:0.0309047 190:0.0809855 191:0.251283 192:0.0517747 193:0.267518 194:0.421543 195:0.213906 196:0.00693511 197:0.0608485 198:0.153941 199:0.178648 
-0 -0 0.1873403579984723 0 0:0.342339 1:0.101354 2:0.105246 3:0.0387693 4:0.0192764 5:0.227455 6:0.0677146 7:0.0163401 8:0.0102181 9:0.00143458 10:0.318207 11:0.00113235 12:0.0276565 13:0.0691895 14:0.199907 16:0.138666 17:0.00143676 18:0.108312 19:0.172199 20:0.0306384 21:0.332122 22:0.0440984 23:0.000303182 24:0.342339 25:0.0224268 26:0.00550339 27:0.050597 28:0.273497 29:0.149394 30:0.129471 31:0.224936 32:0.0358911 33:0.158894 34:0.223695 35:0.264779 36:0.126113 37:0.311366 38:0.414729 39:0.103472 40:0.363677 41:0.378441 42:0.198673 43:0.0131058 44:0.359803 45:0.0504835 46:0.0987117 47:0.070798 48:0.312425 49:0.0235258 50:0.0590564 51:0.184537 52:0.202343 53:0.26974 54:0.26974 55:0.195193 56:0.269855 57:0.269855 58:0.269855 59:0.201607 60:0.273432 61:0.303512 62:0.109191 63:0.073564 64:0.00542417 65:0.320366 66:0.245112 67:0.00464747 68:0.231759 69:0.00745327 70:0.0344812 71:0.35454 72:0.00141603 73:0.335289 74:0.130632 75:0.398095 76:0.265619 77:0.349084 78:0.00621816 79:0.072463 80:0.274485 81:0.0887609 82:0.000411526 83:0.00400677 84:0.239523 85:0.16519 86:0.0111449 87:0.163297 88:0.0673634 89:0.0434227 90:0.0224237 91:0.0128969 92:0.0176324 93:0.0697864 94:0.159442 95:0.309824 96:0.026049 97:0.184561 98:0.00871024 99:0.135048 100:0.00497018 101:0.0347932 102:0.0991167 103:0.0127891 104:0.355095 106:0.113809 107:0.0919995 108:0.320483 109:0.069431 110:0.0291634 111:0.0725986 113:0.332122 114:0.203964 115:0.283638 116:0.329797 117:0.181495 118:0.00433555 119:0.00122559 120:0.353539 121:0.12905 122:0.0440564 123:0.00377199 124:0.00194791 125:0.0119041 127:0.143591 128:0.273497 129:0.059671 130:0.0657354 131:0.355749 132:0.141573 133:0.249592 134:0.0567109 135:0.166513 136:0.136267 137:0.0604533 138:0.135898 139:0.0424669 140:0.311366 141:0.311366 143:0.0430256 144:0.00274105 145:0.00382659 146:0.41218 147:0.358521 148:0.0374823 149:0.0332544 150:0.025928 151:0.016943 152:0.0709684 153:0.137424 154:0.0367316 155:0.0073687 156:0.0699519 157:0.026138 158:0.119291 159:0.00249613 160:0.100087 161:0.412799 162:0.0242412 163:0.276335 164:0.0838384 165:0.288263 166:0.24546 167:0.113928 168:0.0373318 169:0.194533 170:0.00102977 171:0.349084 172:0.0145137 173:0.000881377 174:0.075857 175:0.329797 176:0.00193455 177:0.04976 178:0.0995246 179:0.0663274 180:0.0475547 181:0.181437 182:0.0578969 183:0.0120973 184:0.064607 185:0.00498906 186:0.101401 187:0.0823785 188:0.120242 189:0.0395893 190:0.0980622 191:0.269855 192:0.0307196 193:0.232546 194:0.423046 195:0.337787 196:0.0315701 197:0.0553256 198:0.12464 199:0.279021 
-0 -0.09832219494164748 0.08599782306812721 0 0:0.384276 1:0.0294413 2:0.0502512 3:0.0922284 4:0.00387609 5:0.340716 6:0.028874 7:0.00696943 8:0.0263887 9:0.00547119 10:0.325429 11:0.0439141 12:0.0882205 13:0.127554 14:0.0111444 15:0.0771715 16:0.117829 17:0.0131671 18:0.179768 19:0.00641486 20:0.0208273 21:0.360239 22:0.0189503 23:0.0919706 24:0.384276 25:0.0146581 26:0.0364034 27:0.0489259 28:0.161842 29:0.310465 30:0.0355199 31:0.246584 32:0.125882 33:0.0949589 34:0.267242 35:0.396746 36:0.113224 37:0.363607 38:0.667296 39:0.0266799 40:0.275395 41:0.13599 42:0.16642 43:0.0140185 44:0.366428 45:0.0544395 46:0.0959419 47:0.315664 48:0.0187078 49:0.0215564 50:0.199362 51:0.0806885 52:0.139383 53:0.147491 54:0.120318 55:0.100461 56:0.0567663 57:0.0978373 58:0.354121 59:0.0274917 60:0.199343 61:0.289131 62:0.0209597 63:0.0172867 64:0.00558642 65:0.405681 66:0.0962159 67:0.0192684 68:0.0554862 69:0.0157519 70:0.114554 71:0.420117 72:0.0380094 73:0.246639 74:0.00625758 75:0.368467 76:0.0167012 77:0.320664 78:0.12401 79:0.0752425 80:0.345189 81:0.315664 82:0.29175 83:0.193652 84:0.249011 85:0.0351424 86:0.0707513 87:0.448887 88:0.0642095 89:0.0703668 90:0.0301637 91:0.0105397 92:0.100551 93:0.0221774 94:0.0303464 95:0.340716 96:0.0505936 97:0.340716 98:0.0106538 99:0.340716 100:0.0118032 101:0.00358527 102:0.0368621 103:0.0020099 104:0.35934 105:0.000396816 106:0.0238491 107:0.156495 108:0.36232 109:0.34793 110:0.00140201 111:0.0649337 112:0.0650707 113:0.360239 114:0.363702 115:0.164608 116:0.362042 117:0.0720966 118:0.128898 119:0.0553079 120:0.0241837 121:0.00927457 122:0.00624127 123:0.1688 124:0.0685365 125:0.0769431 126:0.0235998 127:0.359862 128:0.0709508 129:0.00377827 130:0.228487 131:0.120156 132:0.164375 133:0.0719599 134:0.153105 135:0.0440182 136:0.0866424 137:0.00902398 138:0.0212775 139:0.0394042 140:0.255146 141:0.268286 142:0.118112 143:0.313826 144:0.0032328 145:0.00222492 146:0.4662 147:0.193081 148:0.0961854 149:0.0135767 150:0.00994489 151:0.0110547 153:0.0207062 154:0.0774585 155:0.0287374 156:0.206009 157:0.14021 158:0.132423 159:0.000368074 160:0.307862 161:0.348102 162:0.0772297 163:0.191378 164:0.0952628 165:0.368467 166:0.289404 167:0.0298155 168:0.00142743 169:0.264208 170:0.139481 171:0.320664 172:0.0549924 173:0.0418291 174:0.189396 175:0.228081 176:0.0220792 177:0.194991 178:0.00822808 179:0.166274 180:0.143925 181:0.369841 182:0.00298492 183:0.0680757 184:0.0283643 185:0.0154097 186:0.29175 187:0.29175 188:0.0420693 189:0.0795088 190:0.310465 191:0.278342 192:0.091089 193:0.354121 194:0.448887 195:0.37405 196:0.0639733 197:0.0801162 198:0.0440584 199:0.139813 
-0 -0.05129254311665897 0 0.1173957511298178 0:0.404496 1:0.119677 2:0.0283016 3:0.122227 4:0.0169605 5:0.343722 6:0.0659392 7:0.0220399 8:0.0199965 9:0.0237292 10:0.347621 11:0.0246723 12:0.0362137 13:0.0636695 14:0.0331792 15:0.217457 16:0.0363417 17:0.0310901 18:0.0235534 19:0.0198736 20:0.000461435 21:0.332152 22:0.00169741 23:0.0190208 24:0.404496 25:0.0530507 26:0.041595 27:0.0437014 28:0.173281 29:0.314606 30:0.0233534 31:0.303721 32:0.0807448 33:0.0922138 34:0.0871531 35:0.273903 36:0.0451498 37:0.326881 38:0.622383 39:0.024393 40:0.383015 41:0.0729126 42:0.272699 43:0.0189087 44:0.349692 45:0.027371 46:0.0201942 47:0.321833 48:0.00379315 49:0.00205594 50:0.244765 51:0.0180924 52:0.133617 53:0.314606 54:0.135917 55:0.303721 56:0.0898154 57:0.303721 58:0.303721 59:0.103669 60:0.230489 61:0.250343 62:0.0217174 63:0.00822286 64:0.0861967 65:0.223714 66:0.0719045 67:0.0545371 68:0.0955289 69:0.0104421 70:0.129545 71:0.338346 72:0.164732 73:0.197753 74:0.0209702 75:0.37332 76:0.0282252 77:0.235923 78:0.106161 79:0.0536961 80:0.372662 81:0.321833 82:0.16202 83:0.268403 84:0.273973 85:0.0198358 86:0.0789952 87:0.336897 88:0.0382059 89:0.0422217 90:0.0629788 91:0.0152371 92:0.31336 93:0.0362122 94:0.024932 95:0.24696 96:0.071551 97:0.343722 98:0.00442897 99:0.343722 100:0.0239072 101:0.0196087 102:0.321161 103:0.0030445 104:0.376372 105:0.00329579 106:0.0780464 107:0.193281 108:0.367128 109:0.149414 110:0.010191 111:0.0618333 112:0.00242395 113:0.332152 114:0.38735 115:0.0873238 116:0.351499 117:0.0698713 118:0.15213 119:0.0486157 120:0.0649923 122:0.024669 123:0.0152044 124:0.0332967 125:0.0156955 126:0.0445587 127:0.273973 128:0.0891772 129:0.0099814 130:0.232072 131:0.152036 132:0.063545 133:0.021002 134:0.0564084 135:0.0907116 136:0.184722 137:0.0219342 138:0.027732 139:0.178572 140:0.0905248 141:0.100838 142:0.106853 143:0.314104 144:0.00316375 145:0.00796171 146:0.44099 147:0.286924 148:0.107539 149:0.0272122 150:0.0566376 151:0.0390422 152:0.0501683 153:0.321161 154:0.0518702 155:0.0306821 156:0.393318 157:0.146279 158:0.238558 159:0.0038695 160:0.335924 161:0.328512 162:0.165642 163:0.0133037 164:0.0201475 165:0.339985 166:0.37332 167:0.000144605 168:0.0130197 169:0.161136 170:0.0172002 171:0.333918 172:0.0168012 173:0.0180681 174:0.074365 175:0.247605 176:0.000913283 177:0.0202642 178:0.0315885 179:0.321833 180:0.320804 181:0.356745 182:0.00282469 183:0.0119992 184:0.038887 185:0.0337874 186:0.247311 187:0.283556 188:0.091952 189:0.130987 190:0.150366 191:0.242292 192:0.0902597 193:0.303721 194:0.473818 195:0.384387 196:0.103178 197:0.14186 198:0.0370565 199:0.198951 
-0 -0.2597293985956993 0.4193292223836271 0 0:0.351604 1:0.0486641 2:0.0740956 3:0.0851742 4:0.097049 5:0.126727 6:0.058982 7:0.0922674 8:0.0307337 9:0.00290368 10:0.275686 11:0.0368035 12:0.0840622 13:0.137991 14:0.149987 16:0.201756 17:0.00364384 18:0.194813 19:0.115347 20:0.000435679 21:0.259929 22:0.121384 23:0.0355668 24:0.351604 25:0.0852197 26:0.0149596 27:0.0597436 28:0.234253 29:0.0913574 30:0.0530723 31:0.244661 32:0.0511862 33:0.142788 34:0.0245814 35:0.309089 36:0.174343 37:0.304035 38:0.370841 39:0.124422 40:0.336635 41:0.372519 42:0.183891 43:0.00208556 44:0.339959 45:0.0502562 46:0.0881317 47:0.0245289 48:0.294986 49:0.193288 50:0.110381 51:0.0566306 52:0.163308 53:0.265499 54:0.265499 55:0.227194 56:0.245363 57:0.162417 58:0.271801 59:0.214766 60:0.297938 61:0.302443 62:0.0632244 63:0.034633 64:0.00993433 65:0.333208 66:0.231879 67:0.00810562 68:0.260902 69:0.00879146 70:0.0652551 71:0.224304 72:0.00746881 73:0.17726 74:0.0525156 75:0.310402 76:0.321077 77:0.32228 78:0.109908 79:0.0878387 80:0.17533 81:0.071206 82:0.0147464 83:0.0281042 84:0.231293 85:0.164234 86:0.0190158 87:0.216835 88:0.0328753 89:0.106535 90:0.0181754 91:0.0919121 92:0.0692432 93:0.0189045 94:0.140692 95:0.339393 96:0.0354032 97:0.129313 98:0.064576 99:0.0894417 100:0.00492337 101:0.0561766 102:0.0915222 103:0.113262 104:0.357012 106:0.165224 107:0.265647 108:0.182259 109:0.20844 110:0.211625 111:0.11098 112:0.0152766 113:0.171935 114:0.191115 115:0.264866 116:0.335734 117:0.0746216 118:0.00733043 119:0.00426176 120:0.340949 121:0.133176 122:0.00918465 123:0.0293494 124:0.0301532 125:0.0700889 126:0.00192906 127:0.20698 128:0.219755 129:0.033787 130:0.0830091 131:0.352706 132:0.359469 133:0.389648 134:0.0644957 135:0.114083 136:0.0513266 137:0.0604568 138:0.0234365 139:0.143977 140:0.304035 141:0.304035 142:0.00199276 143:0.0538558 144:0.311143 145:0.0575927 146:0.369001 147:0.325943 148:0.104945 149:0.0274591 150:0.0544333 151:0.0264424 152:0.0581627 153:0.183414 154:0.0314547 155:0.0157667 156:0.12713 157:0.169807 158:0.252313 159:0.0307081 160:0.171524 161:0.32433 162:0.110411 163:0.0575382 164:0.0448964 165:0.0699149 166:0.310402 167:0.111287 168:0.078731 169:0.321077 170:0.00605036 171:0.260044 172:0.11876 173:0.000246061 174:0.0783199 175:0.335734 176:0.00419902 177:0.127612 178:0.0810057 179:0.0183209 180:0.0219754 181:0.284444 182:0.0695589 183:0.026218 184:0.0595899 185:0.0140296 186:0.113374 187:0.0723401 188:0.135128 189:0.0708137 190:0.13777 191:0.271801 192:0.0641604 193:0.271801 194:0.359469 195:0.225903 196:0.00515954 197:0.109874 198:0.101442 199:0.137303 
-0 -0.03426115850554107 0 0.008507196630999837 0:0.387634 1:0.0176506 2:0.00481034 3:0.0270203 4:0.0414753 5:0.338454 6:0.0519036 7:0.0257689 8:0.0384034 9:0.0208455 10:0.344435 11:0.00574374 12:0.0459606 13:0.0660276 14:0.0392838 15:0.140366 16:0.02027 17:0.00143857 18:0.107254 19:0.00730329 20:4.75964e-005 21:0.304359 22:0.000706197 23:0.0152071 24:0.387634 25:0.0119766 26:0.055351 27:0.0904417 28:0.148731 29:0.279106 30:0.0193585 31:0.306802 32:0.107176 33:0.153139 34:0.207938 35:0.319034 36:0.0667033 37:0.317851 38:0.539253 39:0.0236058 40:0.40844 41:0.146727 42:0.314676 43:0.0374743 44:0.34893 45:0.0280218 46:0.0770009 47:0.280589 48:0.0171889 49:0.00124766 50:0.26005 51:0.168609 52:0.138723 53:0.279106 54:0.266695 55:0.160179 56:0.188104 57:0.119046 58:0.306802 59:0.0691638 60:0.308608 61:0.124522 62:0.0775102 63:0.0948882 64:0.0572734 65:0.218216 66:0.0990969 67:0.0941137 68:0.168183 69:0.00651305 70:0.00206968 71:0.434115 72:0.183764 73:0.244138 74:0.038717 75:0.363548 76:0.053819 77:0.320584 78:0.134327 79:0.125133 80:0.309742 81:0.278773 82:0.18779 83:0.185666 84:0.301431 85:0.0447729 86:0.0441102 87:0.363678 88:0.119938 89:0.0242071 90:0.0142523 91:0.00275167 92:0.17881 93:0.010823 94:0.0146717 95:0.338454 96:0.0624569 97:0.338454 98:0.0317499 99:0.338454 100:0.0351739 101:0.0278402 102:0.217952 103:0.0110565 104:0.290105 105:0.00439397 106:0.203974 107:0.303172 108:0.303172 109:0.328627 110:0.0155044 111:0.107727 112:0.0499141 113:0.304359 114:0.29248 115:0.213307 116:0.32153 117:0.160961 118:0.14778 119:0.0437782 120:0.0656038 121:0.00474652 122:0.0058223 123:0.0551578 124:0.00739922 125:0.0533251 126:0.0255002 127:0.301431 128:0.100133 129:0.0294236 130:0.299961 131:0.226754 132:0.363678 133:0.0189869 134:0.132904 135:0.162452 136:0.158343 137:0.0773503 138:0.00294357 139:0.104662 140:0.144084 141:0.154646 142:0.0668413 143:0.31887 144:0.00224252 145:0.0377682 146:0.358686 147:0.364236 148:0.0309143 149:0.00702772 150:0.133408 151:0.00526902 152:0.0682143 153:0.158848 154:0.0630868 155:0.00163371 156:0.389648 157:0.16082 158:0.089345 159:0.000315238 160:0.3574 161:0.191558 162:0.177013 163:0.0783699 164:0.0339406 165:0.319102 166:0.363548 167:0.0172769 168:0.000698336 169:0.0503194 170:0.0601827 171:0.329156 172:0.00584177 173:0.014741 174:0.0827783 175:0.292205 176:0.00870962 177:0.0973235 178:0.0325345 179:0.280589 180:0.280589 181:0.342428 182:0.00148058 183:0.00969401 184:0.121795 185:0.00461426 186:0.278104 187:0.244831 188:0.0532874 189:0.164925 190:0.279106 191:0.280908 192:0.0854624 193:0.301859 194:0.363678 195:0.363678 196:0.0421554 197:0.0808695 198:0.0684048 199:0.145991 
