svm_type c_svc
kernel_type linear
nr_class 4
total_sv 57
rho -1.63688 -1.78609 -2.22403 0.470659 0.158477 -0.297287
label 0 30600 31400 35010
probA -3.70447 -5.18872 -4.19768 -2.33364 -3.86543 -3.42218
probB -0.910843 1.17707 -0.248607 -0.508302 1.09281 1.44801
nr_sv 38 5 3 11
SV
0 0 0.2114110067086219 0:0.330053 1:0.0505665 2:0.061786 3:0.0621172 4:0.122526 5:0.0482322 6:0.37774 7:0.0916158 8:0.060974 9:0.303224 10:0.0771781 11:0.202089 12:0.37774 13:0.121219 14:0.0886267 15:0.0807768 16:0.266504 17:0.302198 18:0.305083 19:0.0122361 20:0.28991 21:0.0744284 22:0.0781692 23:0.302642 24:0.122613 25:0.00337508 26:0.062181 27:0.16167 28:0.359684 29:0.291088 30:0.0159521 31:0.183228 32:0.138168 33:0.0441107 34:0.130552 35:0.053372 36:0.145076 37:0.183337 38:0.0227274 39:0.0800108 40:0.312977 41:0.0991222 42:0.385116 43:0.106566 44:0.074326 45:0.418667 46:0.0689857 47:0.207888 48:0.27806 49:0.27144 50:0.353354 51:0.262401 52:0.105889 53:0.11645 54:0.0126816 55:0.151912 56:0.0846764 57:0.194215 58:0.01913 59:0.129144 60:0.230263 61:0.101215 62:0.167028 63:0.0220868 64:0.139726 65:0.122134 66:0.0302535 67:0.0706137 68:0.320697 69:0.0798272 70:0.350786 71:0.323043 72:0.0867961 73:0.336495 74:0.290448 75:0.0879901 76:0.275839 77:0.135323 78:0.241795 79:0.313986 80:0.0469152 81:0.138699 82:0.0397774 83:0.0189757 84:0.114996 85:0.102189 86:0.0635041 87:0.0200088 88:0.0069505 89:0.296491 90:0.0318694 91:0.0537534 92:0.303224 93:0.00798579 94:0.346658 95:0.175157 96:0.230601 97:0.0973753 98:0.0433194 99:0.229479 100:0.219558 101:0.046715 102:0.0807503 103:0.359684 104:0.0789302 105:0.109801 106:0.098527 107:0.0817011 108:0.0189644 109:0.303224 110:0.325418 111:0.346658 112:0.0969619 113:0.270656 114:0.070256 115:0.429704 116:0.350786 117:0.0723912 118:0.107264 119:0.0910185 120:0.0400384 121:0.0666389 122:0.302642 123:0.122556 124:0.123315 125:0.289906 126:0.251617 127:0.353354 128:0.0456901 129:0.0117834 130:0.241359 131:0.13806 132:0.221714 133:0.182822 134:0.0790921 135:0.117449 136:0.132612 137:0.165141 138:0.101036 139:0.336495 140:0.0384205 141:0.203871 142:0.163047 143:0.0502805 144:0.255947 145:0.297172 146:0.0788044 147:0.00170718 148:0.0112088 149:0.0494779 150:0.270656 151:0.100041 152:0.0244732 153:0.278947 154:0.0189479 155:0.0265333 156:0.0339972 157:0.141151 158:0.0373801 159:0.37774 160:0.102602 161:0.110472 162:0.0762663 163:0.0972782 164:0.185911 165:0.203617 166:0.0206371 167:0.27144 168:0.0778299 169:0.305083 170:0.0944287 171:0.0145633 172:0.24467 173:0.0970652 174:0.025077 175:0.396491 176:0.0845037 177:0.136401 178:0.156599 179:0.0682027 180:0.317143 181:0.343498 182:0.0176301 183:0.104414 184:0.0586778 185:0.157624 186:0.0228414 187:0.125086 188:0.000620003 189:0.0145915 190:0.032778 191:0.318202 192:0.182447 193:0.0516611 194:0.303224 195:0.00258437 196:0.074097 197:0.353354 198:0.0151935 199:0.12288 
0.02584809060093879 0 0 0:0.1525 1:0.00305322 2:0.115959 3:0.187172 4:0.016573 5:0.0256138 6:0.0312903 7:0.290551 8:0.0868184 9:0.125943 10:0.112805 11:0.200711 12:0.0774811 13:0.0318783 14:0.0622713 15:0.0199591 16:0.0934278 17:0.0202048 18:0.293964 19:0.0538964 20:0.0733569 21:0.0138734 22:0.191988 23:0.177919 24:0.0553788 25:0.0677743 26:0.062978 27:0.113912 28:0.0382956 29:0.178347 30:0.229712 31:0.111916 32:0.232776 33:0.00324235 34:0.0452635 35:0.0602958 36:0.0449642 37:0.0346739 38:0.225871 39:0.0245057 40:0.0517957 41:0.0329959 42:0.126569 43:0.04547 44:0.00220772 45:0.0418906 46:0.172192 47:0.0150568 48:0.172325 49:0.296319 50:0.199904 51:0.140193 52:0.30296 53:0.183798 54:0.0807716 55:0.0917784 56:0.302498 57:0.309873 58:0.249171 59:0.127247 60:0.00424116 61:0.141107 62:0.10092 63:0.030327 64:0.0322092 65:0.00428949 66:0.10243 67:0.0786757 68:0.010777 69:0.190158 70:0.00230546 71:0.053179 72:0.0278538 73:0.172369 74:0.387647 75:0.0520387 76:0.0924091 77:0.331719 78:0.0495141 79:0.0736943 80:0.241477 81:0.053126 82:0.0831164 83:0.165076 84:0.0665239 85:0.312898 86:0.0526745 87:0.035169 88:0.12901 89:0.324786 90:0.160061 91:0.0203837 92:0.372822 93:0.024955 94:0.0838881 95:0.283912 96:0.0848309 97:0.0327782 98:0.140094 99:0.00862721 100:0.140889 101:0.167 102:0.290136 103:0.0357462 104:0.0873836 105:0.182072 106:0.207318 107:0.00248135 108:0.00965416 109:0.372822 110:0.133263 111:0.31106 112:0.0506199 113:0.0362646 114:0.0225709 115:0.010111 116:0.0467181 117:0.0081238 118:0.0879567 119:0.0296481 120:0.06276 121:0.155573 122:0.0422411 124:0.135582 125:0.368857 126:0.217076 127:0.308978 128:0.0783932 129:0.0392315 130:0.220699 131:0.0452282 132:0.0266828 133:0.133549 134:0.299757 135:0.000429579 136:0.14028 137:0.146114 138:0.189593 139:0.051766 140:0.0713146 141:0.167719 142:0.253926 143:0.0735348 144:0.271277 145:0.188855 146:0.17671 147:0.154709 148:0.0847587 149:0.06036 150:0.300055 151:0.250738 152:0.0703064 153:0.321628 154:0.0564635 155:0.0321951 156:0.164881 157:0.111164 158:0.151035 159:0.097146 160:0.062929 161:0.332278 162:0.106533 163:0.104743 164:0.278036 165:0.191568 166:0.017349 167:0.252912 168:0.00904544 169:0.23052 170:0.108926 171:0.00602831 172:0.0410388 173:0.0561852 174:0.0362719 175:0.0235386 176:0.0100504 177:0.0723438 178:0.214132 179:0.0362161 180:0.14475 181:0.0796474 182:0.0757563 183:0.0577538 184:0.00853274 185:0.0159247 186:0.301804 187:0.0354236 188:0.156606 189:0.0332854 190:0.201317 191:0.0706144 192:0.324786 193:0.268075 194:0.0387136 195:0.0616328 196:0.331378 197:0.239714 198:0.0520935 199:0.0111521 
0 0.04545119633062779 0 0:0.0708305 1:0.0230024 2:0.0869519 3:0.0315552 4:0.0802851 5:0.041712 6:0.00707043 7:0.0768631 8:0.0373365 9:0.0128459 10:0.0368305 11:0.0293032 12:0.0245135 13:0.00210287 14:0.0145177 15:0.0983743 16:0.0172901 18:0.0117456 19:0.00592451 20:0.0184044 21:0.0012745 22:0.0602733 23:0.0484253 24:0.0041526 25:0.00297212 26:0.0686827 27:0.00142938 28:0.0349425 29:0.0694908 30:0.00212825 31:0.00161484 32:0.056975 33:0.0697392 34:0.0554393 35:0.244237 36:0.10137 37:0.0179082 38:0.121344 39:0.0110269 40:0.20226 41:0.115216 42:0.0319563 43:0.358036 44:0.0520676 45:0.0770802 46:0.00499055 47:0.355599 48:0.209535 49:0.00163137 50:0.0515068 51:0.0302911 52:0.0497202 53:0.05877 54:0.0800252 55:0.347099 56:0.109547 57:0.167825 58:0.0162379 59:0.0925245 60:0.00683497 61:0.0173486 62:0.000833844 63:8.63841e-005 64:0.100091 65:0.0720016 66:0.103936 67:0.0207978 68:0.00312074 69:0.372979 70:0.0437497 71:0.103964 72:0.0614373 73:0.0361401 74:0.00631253 75:0.0526835 76:0.00923086 77:0.0290918 78:0.0108557 79:0.0311659 80:0.10386 81:0.2803 82:0.0524948 83:0.00712465 84:0.0410099 85:0.0306399 86:0.043314 87:0.0183227 88:0.243243 89:0.00551235 90:0.0197722 91:0.0200514 92:0.3295 93:0.0101616 94:0.0363876 95:0.0454341 96:0.00867361 97:0.0389097 98:0.0246557 99:0.188989 100:0.327765 101:0.0484254 102:0.373694 103:0.0886564 104:0.193804 105:0.269227 106:0.272069 107:0.02613 108:0.00296987 109:0.013007 110:0.0123792 111:0.0332466 112:0.0107545 113:0.0139309 114:0.0880495 115:0.139664 116:0.0700797 117:0.0300192 118:0.0896725 120:0.289563 121:0.0758505 122:0.104463 123:0.0304511 124:0.0401192 125:0.283497 126:0.0353375 127:0.385814 128:0.30163 129:0.0045612 130:0.0548473 131:0.390579 132:0.0120576 133:0.336939 134:0.128084 135:0.00720173 136:0.358068 137:0.0859022 138:0.179314 139:0.039035 140:0.358068 141:0.147338 142:0.000877984 143:0.00603416 144:0.0942994 145:0.00289399 146:0.000601009 147:0.00614901 148:0.0123429 149:0.0753741 150:0.347018 151:0.246198 152:0.41354 153:0.41354 154:0.269528 155:0.159556 156:0.0290892 157:0.105483 158:0.0120008 159:0.124349 160:0.307987 161:0.355599 162:0.191711 163:0.186268 164:0.237339 165:0.0641197 166:0.0285915 168:0.0437511 169:0.0176031 170:0.0048159 171:0.00627907 172:0.00417645 173:0.0139159 174:0.0134464 175:0.00570065 176:0.0574279 178:0.0385825 179:0.291146 180:0.0128573 181:0.0992894 182:0.0187561 183:0.0346232 184:0.00216723 185:0.0326166 186:0.012153 187:0.172089 188:0.116119 189:0.0647503 190:0.0806797 191:0.37277 192:0.0937969 193:0.00614589 194:0.015262 195:0.00325002 196:0.00981279 197:0.317728 198:0.0190093 199:0.00211123 
0.06871298540132498 0 0 0:0.084061 1:0.111559 2:0.0222826 3:0.0417132 4:0.213059 5:0.0123861 6:0.00769475 8:0.0939684 9:0.000780482 10:0.0956735 11:0.00989191 12:0.0301351 13:0.14804 14:0.000376683 15:0.166677 16:0.0393881 17:0.0121014 18:0.00294359 19:0.0243625 20:0.19924 21:0.0124071 22:0.138551 23:0.138746 24:0.0316638 25:0.0244039 26:0.240263 27:0.0188512 28:0.0102157 29:0.147297 30:0.0283969 31:0.103889 32:0.279225 33:0.00179114 34:0.0493878 35:0.0441251 36:0.123225 37:0.138551 38:0.0740718 39:0.143646 40:0.0954164 41:0.0588317 42:0.381191 43:0.233819 44:0.0327332 45:0.0654918 46:0.142832 47:0.123087 48:0.0663371 49:0.00130257 50:0.209333 51:0.338839 52:0.0892357 53:0.0784137 54:0.017209 55:0.113022 56:0.221589 58:0.291033 59:0.0759065 60:0.0214803 61:0.0477605 62:0.08046 63:0.189261 64:0.11137 65:0.0714427 66:0.0258566 67:0.158883 69:0.119404 70:0.0665182 71:0.0509907 72:0.0381119 73:0.194509 74:0.406931 75:0.147285 76:0.0984785 77:0.344969 79:0.031342 80:0.0699346 81:0.252945 82:0.0387971 83:0.0309024 84:0.311815 85:0.240645 86:0.00442131 87:0.0552209 88:0.0455965 89:0.109655 90:0.0242091 91:0.195944 92:0.17667 93:0.0798018 94:0.177277 95:0.424575 96:0.0545526 97:0.126604 98:0.0324627 99:0.380763 100:0.0423999 101:0.157025 102:0.0898641 104:0.360876 105:0.185527 106:0.531372 107:0.387557 108:0.0611023 110:0.307208 111:0.381345 112:0.0521361 113:0.522728 114:0.144413 115:0.00815317 116:0.164084 117:0.152186 118:0.160959 119:0.0409862 120:0.383525 121:0.0777758 122:0.0662246 123:0.0061294 124:0.057761 125:0.277512 126:0.460501 127:0.170821 128:0.0185612 129:0.00388988 130:0.304587 131:0.419525 132:0.0353504 133:0.0754768 134:0.124275 135:0.00298523 136:0.003414 137:0.353896 138:0.0393693 139:0.230466 140:0.0920743 142:0.0266009 143:0.0278645 144:0.135587 145:0.364993 146:0.000908329 147:0.114588 148:0.130974 149:0.0231633 150:0.109861 151:0.0117182 152:0.13768 153:0.127578 154:0.0929757 155:0.00436083 156:0.115216 157:0.167559 158:0.0611291 159:0.279822 160:0.0862407 161:0.106964 162:0.307029 163:0.185411 164:0.07373 165:0.330927 166:0.006119 167:0.00130037 168:0.0884453 169:0.00376282 170:0.000779158 171:0.0064834 172:0.482208 173:0.369278 174:0.107814 176:0.0155473 177:0.0189983 178:0.500044 179:0.0216577 180:0.531105 181:0.140433 182:0.00929785 183:0.378598 184:0.0205287 185:0.0166881 186:0.0774244 187:0.0449669 188:0.0419041 189:0.0765376 190:0.138797 191:0.0280171 192:0.0565743 193:0.0195317 194:0.00468713 195:0.0786217 196:0.105172 197:0.0776875 198:0.00920789 199:0.0429978 
0 0 0.1150863769472951 0:0.0441549 1:0.042301 2:0.160234 3:0.00358471 4:0.0316866 5:0.0705688 6:0.0214665 7:0.00242485 8:0.0380741 9:0.0661991 10:0.0704142 11:0.0184407 12:0.0594185 13:0.0448768 14:0.0230182 15:0.019012 16:0.099689 17:0.0371104 18:0.0912882 19:0.0286481 20:0.118991 21:0.109983 22:0.167941 23:0.385369 24:0.0838451 25:0.0530473 26:0.217073 27:0.0465661 28:0.0389691 29:0.321848 30:0.0495572 31:0.148198 32:0.0823946 33:0.171493 34:0.357854 35:0.0594825 36:0.324252 37:0.212771 38:0.0198732 39:0.00673078 40:0.0414002 41:0.0440929 42:0.285451 43:0.281172 44:0.0658919 45:0.0898471 46:0.102849 47:0.0344293 48:0.0468568 49:0.0138704 50:0.0480002 51:0.0398916 52:0.000921294 53:0.0306171 54:0.0613195 55:0.230146 56:0.107061 57:0.0528741 58:0.0335311 59:0.00998203 60:0.00607799 61:0.222725 62:0.131644 63:0.0890458 64:0.0488548 65:0.299183 67:0.00099337 68:0.0556821 69:0.233171 70:0.0663163 71:0.159644 72:0.218972 73:0.232726 74:0.45026 75:0.0745882 76:0.288298 77:0.104165 78:0.0518022 79:0.0761111 80:0.0429241 81:0.115854 82:0.238827 83:0.0222204 84:0.0657619 85:0.126795 86:0.0336145 87:0.153606 88:0.00117964 89:0.177841 90:0.029998 91:0.0253353 92:0.355533 93:0.0181411 94:0.0615282 95:0.0961095 96:0.0479795 97:0.207915 98:0.0139962 99:0.241863 100:0.194345 101:0.176228 102:0.0928636 103:0.00616542 104:0.0108529 105:0.176833 106:0.488046 107:0.114862 108:0.105852 109:0.211263 110:0.274238 111:0.455647 112:0.0176197 113:0.153069 114:0.132579 115:0.0482099 116:0.0858184 117:0.173262 118:0.122156 119:0.0214043 120:0.0625808 121:0.0998923 122:0.0484365 123:0.00989949 124:0.215633 125:0.0720988 126:0.295716 127:0.379365 128:0.00696332 129:0.000384214 130:0.214967 131:0.247663 132:0.0112257 133:0.307999 134:0.0899356 135:0.0815341 136:0.00364685 137:0.495077 138:0.048306 139:0.214204 140:0.105263 141:0.019798 142:0.0107821 143:0.0178281 144:0.123477 145:0.596816 146:0.139155 147:0.125879 148:0.0960745 149:0.0431338 150:0.595582 151:0.15022 153:0.014534 154:0.00380022 155:0.017782 156:0.176098 157:0.0360362 158:0.171113 159:0.352805 160:0.0517629 161:0.142303 162:0.0835799 163:0.0925134 164:0.0740755 165:0.362792 166:0.0243333 167:0.00479839 168:0.0303898 169:0.0347789 170:0.0455865 171:0.0209901 172:0.111284 173:0.0613325 174:0.0174921 175:0.0371562 176:0.0120501 177:0.0148154 178:0.421881 179:0.0775876 180:0.242156 181:0.112654 182:0.102554 183:0.175034 184:0.130029 185:0.0605734 186:0.0097058 187:0.00117764 188:0.00359082 189:0.0536429 190:0.0332473 191:0.325507 192:0.339614 193:0.0108847 194:0.0253356 195:0.00779225 196:0.0620644 197:0.161164 198:0.0658541 199:0.484489 
0.004967222299988241 0 0 0:0.0448529 1:0.11744 2:0.239614 3:0.0430785 4:0.0480091 5:0.0704611 6:0.103179 7:0.00896445 8:0.00965433 9:0.0208681 10:0.167949 11:0.0881477 12:0.0946513 13:0.0729695 14:0.0152385 15:0.00685844 16:0.0644512 17:0.0489794 18:0.0481718 19:0.0121346 20:0.0181515 21:0.208832 22:0.337026 23:0.0713981 24:0.0140687 25:0.195493 26:0.102849 27:0.00591387 28:0.0238467 29:0.120975 30:0.169363 31:0.0117624 32:0.183024 33:0.170247 34:0.282027 35:0.0957631 36:0.340379 37:0.193055 38:0.244351 39:0.00389506 40:0.112452 41:0.0350205 42:0.28052 43:0.0698056 44:0.0325822 45:0.216641 46:0.14166 47:0.0183535 48:0.000913414 50:0.0528194 51:0.374579 52:0.0360845 53:0.159923 54:0.0274815 55:0.127127 56:0.285487 58:0.124345 59:0.0678599 60:0.0553085 61:0.302077 62:0.0445633 63:0.14379 64:0.0193348 65:0.202257 67:0.0306871 68:0.0472014 69:0.063726 70:0.0543781 71:0.185683 72:0.142269 73:0.200496 74:0.401055 75:0.0407726 76:0.11687 77:0.203878 78:0.0201738 79:0.0149073 80:0.0742774 81:0.176578 82:0.120273 83:0.0632723 84:0.107046 85:0.193469 86:0.0231237 87:0.0480867 88:0.0063939 89:0.0186539 90:0.193004 91:0.066846 92:0.478809 93:0.00749907 94:0.18643 95:0.284626 96:0.0137199 97:0.182897 98:0.169867 99:0.394492 100:0.195662 101:0.218513 102:0.358806 103:0.00241925 104:0.109738 105:0.264694 106:0.519122 107:0.0324988 108:0.00521569 109:0.0210519 110:0.116988 111:0.209575 112:1.24635e-005 113:0.0730977 114:0.0617951 115:0.131143 116:0.0342038 117:0.0591356 118:0.0559087 119:0.00578448 120:0.104649 121:0.4116 122:0.000911861 123:0.00350093 124:0.186512 125:0.0863046 126:0.328203 127:0.176879 128:0.0286334 129:0.0231395 130:0.261964 131:0.244526 132:0.00489545 133:0.0885225 134:0.0278047 135:0.0273465 136:0.0425288 137:0.231856 138:0.540637 139:0.0444535 140:0.112475 142:0.0133072 143:0.021084 144:0.0359238 145:0.318709 146:0.0377623 147:0.0231993 148:0.0236433 149:0.0123692 150:0.057614 151:0.0761882 152:0.0375356 153:0.146034 154:0.157537 155:0.167572 156:0.199123 157:0.0492868 158:0.276724 159:0.288943 160:0.0627853 161:0.244734 162:0.0269366 163:0.276035 164:0.116862 165:0.115373 166:0.00230648 168:0.0531564 169:0.00821465 170:0.00327096 171:0.0567963 172:0.0532331 173:0.0646274 174:0.0718538 175:0.12499 176:0.00802799 177:0.00102343 178:0.185163 179:0.0748979 180:0.285472 181:0.0992858 182:0.0686991 183:0.0703858 184:0.037925 185:0.169349 186:0.117756 187:0.00638303 188:0.0749404 189:0.161088 190:0.136761 191:0.353763 192:0.0295454 193:0.0210793 194:0.0122893 195:0.0356063 196:0.0489313 197:0.262866 198:0.0788667 199:0.0240077 
0 0 0.1736815457730465 0:0.14321 1:0.110381 2:0.117434 3:0.0490993 4:0.0679298 5:0.0389041 6:0.0632864 7:0.00552558 8:0.00567437 9:0.185595 10:0.226293 11:0.24755 12:0.277816 13:0.0881313 14:0.018361 15:0.0941667 16:0.336188 17:0.00403423 18:0.316318 19:0.0666109 20:0.0544893 21:0.0801368 22:0.171823 23:0.164649 24:0.0315376 25:0.119061 26:0.244439 27:0.031448 28:0.207936 29:0.118142 30:0.120311 31:0.0209275 32:0.15257 33:0.0262561 34:0.201847 35:0.0182344 36:0.23936 37:0.0816311 38:0.00631608 39:0.034907 40:0.197823 41:0.152367 42:0.301297 43:0.0739594 44:0.106134 45:0.00839302 46:0.0664935 47:0.0377538 49:0.00170043 50:0.20435 51:0.358885 52:0.0561809 53:0.151625 54:0.0513561 55:0.0957469 56:0.195936 58:0.100145 59:0.250713 60:0.113206 61:0.165513 62:0.00253903 63:0.181701 64:0.084821 65:0.149685 66:0.0149264 67:0.0513025 68:0.0134818 69:0.132615 70:0.105379 71:0.0497746 72:0.0835989 73:0.598089 74:0.065224 75:0.057543 76:0.0464314 77:0.175018 78:0.0619187 79:0.117091 80:0.300978 81:0.0465698 82:0.0530465 83:0.0802009 84:0.0578672 85:0.0962402 86:0.0798779 87:0.0800481 88:0.0294596 89:0.403856 90:0.119122 91:0.0145881 92:0.485851 93:0.0157165 94:0.205254 95:0.251428 96:0.0104458 97:0.126457 98:0.304059 99:0.082761 100:0.072428 101:0.263805 102:0.523298 103:0.0937732 104:0.0337798 105:0.173243 106:0.46683 107:0.0111755 108:0.0110777 109:0.213232 110:0.505153 111:0.488688 112:0.00741823 113:0.0778652 114:0.225439 115:0.240596 116:0.200652 117:0.0871549 118:0.11699 120:0.0211923 121:0.219899 123:0.132615 124:0.106057 125:0.103055 126:0.201104 127:0.148036 128:0.0549167 129:0.0205115 130:0.0830877 131:0.2596 132:0.0142346 133:0.113301 134:0.0678233 136:0.0172393 137:0.295718 138:0.433117 139:0.162037 140:0.0941128 141:0.00602798 142:0.0171705 143:0.00414914 144:0.168568 145:0.266418 146:0.0894993 147:0.128963 148:0.129726 150:0.466029 151:0.0360938 152:0.0105872 153:0.0154197 154:0.0040037 155:0.0102808 156:0.267361 157:0.135254 158:0.143361 159:0.553757 160:0.0769154 161:0.284169 162:0.0498921 163:0.0975903 164:0.0784753 165:0.156737 166:0.114795 168:0.0041562 170:0.0598908 171:0.241419 172:0.0275309 173:0.0199979 174:0.0498214 175:0.144595 176:0.00183526 177:0.00726847 178:0.47651 179:0.184643 180:0.183424 181:0.13736 182:0.177735 183:0.114418 185:0.122308 186:0.0181499 187:0.0533902 188:0.0141485 189:0.0353687 190:0.0633245 191:0.50693 192:0.138363 193:0.033753 194:0.0508545 195:0.016391 196:0.0535822 197:0.0869876 198:0.199539 199:0.0804904 
0.06396280039900328 0 0 0:0.321671 1:0.0496007 2:0.249421 3:0.183618 4:0.0462824 5:0.0264375 6:0.100362 7:0.205878 8:0.105234 9:0.0228403 10:0.0535125 11:0.0550664 12:0.0233994 13:0.0381249 14:0.00842217 15:0.117599 16:0.0479268 17:0.133247 18:0.0620372 19:0.143095 20:0.0425954 21:0.0197302 22:0.0923768 23:0.00417169 24:0.11325 25:0.0723028 26:0.0965884 27:0.213528 28:0.0054667 29:0.00553892 30:0.171909 31:0.0974012 32:0.0164861 33:0.268633 34:0.330733 35:0.0261559 36:0.645066 37:0.31154 39:0.0271339 40:0.210812 41:0.0257349 42:0.0996034 43:0.108678 44:0.289389 45:0.298811 46:0.347019 47:0.192316 48:0.211229 49:0.0165262 50:0.0796058 51:0.0536676 52:0.0699567 53:0.0181524 54:0.0862665 55:0.11125 56:0.023229 57:0.401633 58:0.237201 59:0.0165264 60:0.0403328 61:0.108941 62:0.0276531 63:0.0996846 64:0.0837863 65:0.169998 66:0.135322 67:0.0296297 68:0.0782582 69:0.0565554 70:0.055894 71:0.213679 72:0.160274 73:0.0610765 74:0.061035 75:0.0440399 76:0.0717073 77:0.0800993 78:0.00827707 79:0.159143 80:0.164989 81:0.282251 82:0.0636311 83:0.134555 84:0.00762774 85:0.0131203 86:0.279269 87:0.00571448 88:0.157139 89:0.0617057 90:0.369021 91:0.00146048 92:0.0223666 93:0.00126945 94:0.349264 95:0.262142 96:0.13169 97:0.403002 98:0.0363204 99:0.461253 100:0.0728094 101:0.101776 102:0.0283667 104:0.119352 105:0.0427398 106:0.0624611 107:0.00707569 108:0.0278055 109:0.133768 110:0.151156 111:0.147174 112:0.0726229 113:0.144297 114:0.200606 115:0.134484 116:0.376235 117:0.225813 118:0.299368 119:0.19452 120:0.175519 121:0.126125 122:0.498053 124:0.301173 125:0.0506808 126:0.0484858 127:0.175362 128:0.0181558 129:0.00333094 130:0.395245 131:0.0491277 132:0.0894423 133:0.220793 134:0.0434136 135:0.289819 136:0.167073 137:0.0351709 138:0.0094303 139:0.0168746 140:0.0990434 141:0.101767 142:0.382903 143:0.094063 144:0.0270736 145:0.224523 146:0.0778585 147:0.0245741 148:0.014046 149:0.12758 150:0.412183 151:0.0357562 152:0.136534 153:0.0824557 154:0.0955874 155:0.0401297 156:0.0679768 157:0.0891701 158:0.21933 159:0.116943 160:0.315384 161:0.186216 162:0.231189 163:0.257041 164:0.116995 165:0.0580924 166:0.00248015 167:0.0632107 168:0.0100636 169:0.037423 170:0.121313 171:0.000148371 172:0.203129 173:0.232735 174:0.0313845 175:0.246518 176:0.0653896 177:0.0526462 178:0.202389 179:0.000253033 180:0.0532384 181:0.437764 182:0.0227799 183:0.410621 184:0.416012 185:0.0335155 186:0.0755893 187:0.267986 188:0.143254 189:0.0858324 190:0.223154 191:0.0812455 192:0.0248753 193:0.147228 194:0.0609354 195:0.00331151 196:0.0220143 197:0.260467 198:0.0297393 199:0.0567504 
0 0.06676981211025426 0 0:0.22264 1:0.00727758 2:0.0539334 3:0.0474795 4:0.0478099 5:0.156585 6:0.00986612 7:0.0234338 8:0.0151537 9:0.0340413 10:0.0772149 11:0.0246817 12:0.0690629 13:0.0132686 14:0.0818885 15:0.0104184 16:0.0595059 18:0.0184935 19:0.0755318 20:0.00228599 21:0.0322887 22:0.0408327 23:0.00309801 24:0.0183555 25:0.0143586 26:0.0895511 27:0.0012104 28:0.0903839 29:0.0127819 30:0.0895162 31:0.0255007 32:0.0637337 33:0.000378464 34:0.037978 35:0.00942098 36:0.0816899 37:0.304696 38:0.000216832 39:0.0480545 40:0.41304 41:0.000850815 42:0.0164662 43:0.0597873 44:0.0149221 46:0.0316919 47:0.15613 48:0.215146 49:0.225836 51:0.0769532 52:0.238865 53:0.00652836 54:0.00758011 55:0.414342 56:0.072693 57:0.00343874 58:0.285759 59:0.0320134 60:0.083464 61:0.103816 64:0.0159076 65:0.00737347 66:0.0126027 67:0.245115 68:0.0495524 69:0.175162 70:0.103743 72:0.123842 73:0.0149904 74:0.257455 75:0.0062259 76:0.0186517 77:0.0421259 78:0.0665233 79:0.0141196 80:0.177584 81:0.411459 82:0.304357 83:0.0150804 84:0.180458 85:0.00438662 86:0.00531328 87:0.0276256 88:0.0227339 89:0.310744 90:0.0881088 91:0.29454 92:0.196911 94:0.0047301 95:0.157839 97:0.0543182 98:0.0102138 99:0.411459 100:0.00284758 101:0.0725798 102:0.0423439 103:0.197738 104:0.0451806 105:0.27743 106:0.362289 107:0.267453 108:0.0137834 109:0.0093199 110:0.0319705 111:0.0176139 112:0.0370382 113:0.131306 114:0.0201707 115:0.188593 116:0.342222 117:0.213017 118:0.165263 120:0.357952 121:0.031575 122:0.389945 123:0.0252222 124:0.387241 125:0.382274 126:0.203791 127:0.393734 128:0.333607 129:0.0689275 130:0.297943 131:0.317037 132:0.00879324 133:0.374351 134:0.000856448 136:0.0149502 137:0.0454913 138:0.0841491 139:0.00324387 140:0.120714 141:0.0167734 142:0.00294045 143:0.088521 144:0.113766 145:0.208141 146:0.140895 147:0.0693193 148:0.0763519 149:0.270427 150:0.377755 151:0.00911111 152:0.0190212 153:0.0455431 154:0.0727181 155:0.000755219 156:0.00966288 157:0.0741752 158:0.0322355 159:0.0540821 160:0.370586 161:0.0230688 162:0.0896119 163:0.0558764 164:0.00324016 165:0.202179 166:0.0315167 167:0.0544572 168:0.371008 169:0.100525 170:0.00816502 174:0.125486 175:0.187586 176:0.0155585 177:0.00248724 178:0.0643007 179:0.0653826 180:0.255073 181:0.439587 182:0.0445685 183:0.197867 185:0.0248601 186:0.0125742 187:0.0851287 188:0.0058597 189:0.311597 190:0.0732301 191:0.387241 192:0.299499 193:0.00513605 194:0.0581273 196:0.0814753 197:0.147824 198:0.0274214 199:0.00203424 
0 0.1445973543256781 0 0:0.136002 1:0.122207 2:0.214283 3:0.00220833 4:0.0573681 5:0.0192252 6:0.0191617 8:0.0496824 10:0.104097 11:0.00118219 12:0.0750055 13:0.0388055 14:0.0133691 15:0.00819545 16:0.0885052 17:0.00173763 19:0.0193449 20:0.00617673 21:0.0712186 22:0.134649 23:0.044713 24:0.0204959 25:0.159842 26:0.0447787 27:0.00750939 29:0.0612162 30:0.0108807 31:0.0173277 32:0.0394328 33:0.0405167 34:0.320159 35:0.0342374 36:0.454874 37:0.0253769 38:0.0975275 39:0.0889585 40:0.0575033 41:0.0073539 42:0.0272534 43:0.0378822 44:0.0436551 45:0.000831061 46:0.0420993 47:0.040415 48:0.0181685 49:0.00965959 50:0.0328561 51:0.321328 52:0.0595302 53:0.0865087 54:0.14171 55:0.0641191 56:0.101929 57:0.034132 58:0.000475027 59:0.0072038 60:0.17626 61:0.194529 63:0.076157 64:0.000630956 65:0.212403 67:0.0280231 68:0.0344151 69:0.0635426 70:0.00211452 71:0.28798 72:0.00734023 73:0.00412517 74:0.351405 75:0.000553183 76:0.00915878 77:0.396603 78:0.0776782 79:0.00225967 80:0.0957521 81:0.038576 82:0.00855509 84:0.0454797 85:0.0156763 86:0.0394704 87:0.0882787 88:0.0105743 89:0.304877 90:0.0289328 91:0.0270944 92:0.433385 93:0.0589741 94:0.270053 95:0.181314 96:0.00176836 97:0.270836 98:0.0728487 99:0.0585582 100:0.42234 102:0.42321 103:0.00400285 104:0.194701 105:0.325252 106:0.412705 107:0.000791673 108:0.000541143 110:0.022676 111:0.047441 112:0.0570139 113:0.0515717 114:0.0300438 115:0.00754105 116:0.0327529 117:0.00704566 118:0.0188701 120:0.104964 121:0.0440106 124:0.00946718 125:0.496933 126:0.301178 127:0.396264 128:0.0217319 129:0.0932929 131:0.278735 132:0.00443307 134:0.387783 135:0.00412493 136:0.134888 137:0.0761123 138:0.42321 139:0.00448052 140:0.114213 141:0.0486427 142:0.000236212 144:0.247375 145:0.293154 146:0.016074 147:6.16872e-006 148:0.0126556 149:0.165385 150:0.257715 151:0.0184514 152:0.364062 153:0.0976138 154:0.339647 155:0.072119 156:0.0632526 157:0.0405602 158:0.368239 159:0.454874 160:0.0145079 161:0.497867 162:0.0210885 163:0.184904 164:0.451971 165:0.000506405 168:0.0130796 169:0.00568966 172:0.0288795 173:0.0828039 174:0.0265431 175:0.0220226 176:0.0192985 177:0.00485679 178:0.0125649 179:0.408678 180:0.017717 181:0.0249077 182:0.454915 184:0.00188574 185:0.0557855 186:0.110506 187:0.000229623 188:0.0307959 190:0.0826253 191:0.0227461 192:0.360323 194:0.00759998 195:0.109494 196:0.200764 197:0.396264 198:0.00463095 199:0.00142958 
0 0.005032258500345461 0 0:0.178272 1:0.244144 2:0.0442587 3:0.333901 4:0.167503 5:0.0833393 6:0.0275772 7:0.126837 8:0.0878107 9:0.0108312 10:0.0249508 11:0.00782194 12:0.013368 13:0.0378716 14:0.0404743 15:0.214086 16:0.0170901 17:0.0528547 18:0.0119077 19:0.0733769 20:0.133155 21:0.0431483 22:0.00667428 23:0.11185 24:0.09603 25:0.277004 26:0.0408243 27:0.0401083 28:0.138807 29:0.0234142 30:0.00251301 31:0.128601 32:0.0106219 33:0.117962 34:0.00347524 35:0.00882666 36:0.0202133 37:0.060748 38:0.0299157 39:0.232539 40:0.110898 41:0.0790724 42:0.033936 43:0.33989 44:0.0469984 45:0.109843 46:0.18257 47:0.424744 48:0.135052 49:3.16032e-005 50:0.136406 51:0.177967 52:0.0118764 53:0.211092 54:0.0064749 55:0.0361402 56:0.0521959 57:0.239958 58:0.15805 59:0.00472831 60:0.208229 61:0.000428237 62:0.15608 63:0.0933437 64:0.125897 65:0.0601219 66:0.104336 67:0.14567 68:0.12789 69:0.11016 70:0.0461268 71:0.166673 72:0.0582971 73:0.134775 74:0.000266336 75:0.0137993 76:0.0335753 77:0.113083 78:0.0300504 79:0.0405761 80:0.3926 81:0.126968 82:0.0413746 83:0.00830443 84:0.0138544 85:0.0624051 86:0.0245492 87:0.0186656 88:0.0914016 89:0.0120154 90:0.00779119 91:0.0169735 92:0.434394 93:0.0168363 94:0.0680056 95:0.0428287 96:0.412049 97:0.101057 98:0.269062 99:0.220772 100:0.14247 101:0.0230174 102:0.0760523 103:0.288034 104:0.0538738 105:0.288901 106:0.433006 107:0.00641319 108:0.000825693 109:0.00110547 110:0.188058 111:0.102943 112:0.0875279 113:0.00974907 114:0.0410985 115:0.0333988 116:0.130625 117:0.0466909 118:0.0290439 119:0.0082402 120:0.237314 121:0.0543164 122:0.106459 123:0.0467399 124:0.0745946 125:0.400207 126:0.067803 127:0.00566552 128:0.0559407 129:0.0182733 130:0.0310738 131:0.0158022 132:0.0722536 133:0.0665843 134:0.0929193 135:0.0733103 136:0.3041 137:0.0058853 138:0.0956209 139:0.105774 140:0.259692 141:0.0390494 142:0.00205541 143:0.00807131 144:0.323854 145:0.147464 146:0.0334529 147:0.152108 148:0.0877099 149:0.0567889 150:0.142449 151:0.0474928 152:0.361655 153:0.00598274 154:0.259635 155:0.0463245 156:0.249549 157:0.154848 158:0.239513 159:0.0373318 160:0.218794 161:0.156296 162:0.055342 163:0.142027 164:0.12505 165:0.0267373 166:0.0453729 167:0.00404214 168:0.0130443 169:0.000318032 170:0.0067439 171:0.132375 172:0.26004 173:0.0748704 174:0.0320224 175:0.0927799 176:0.0817242 177:0.0296757 178:0.0606307 179:0.33791 180:0.0372031 181:0.130355 182:0.227409 183:0.0312977 184:0.0462543 185:0.130591 186:0.211664 187:0.259887 188:0.188231 189:0.24612 190:0.0467818 191:0.246662 192:0.0540038 193:0.00185815 194:0.0253798 195:0.0270814 196:0.0392306 197:0.0159378 198:0.0607076 199:0.0684036 
0 0.05788030779389169 0 0:0.034202 1:0.00244457 2:0.160928 3:0.0823521 4:0.0781951 5:0.106755 6:0.0924071 7:0.000645245 8:0.142366 9:0.105654 10:0.144902 11:0.118131 12:0.0584748 13:0.200452 14:0.114031 15:0.00547511 16:0.0148909 17:0.0776294 18:0.101386 19:0.274784 20:0.222943 21:0.0348133 22:0.187053 23:0.0664289 24:0.328649 25:0.140284 26:0.185885 27:0.0706778 28:0.0403566 29:0.109027 30:0.0533413 31:0.207998 32:0.00337171 33:0.0601167 34:0.210878 35:0.0873346 36:0.293438 37:0.242387 38:0.208299 39:0.0581346 40:0.0696365 41:0.0111094 42:0.359738 43:0.0359255 44:0.244667 45:0.0337219 46:0.228788 47:0.157362 48:0.394968 49:0.0969085 50:0.389307 51:0.114858 52:0.00605607 53:0.0141405 54:0.0717519 55:0.0236805 56:0.39976 57:0.0270042 58:0.0339931 59:0.154269 60:0.0299619 61:0.321815 62:0.221663 63:0.0703626 64:0.000836024 65:0.0541708 66:0.0174105 67:0.405324 68:0.255119 69:0.346386 70:0.125949 71:0.372213 72:0.0465947 73:0.0275548 74:0.157237 75:0.352288 76:0.2858 77:0.0707379 78:0.173961 79:0.0136805 80:0.0610811 81:0.000307946 82:0.0793062 83:0.0402058 84:0.0182479 85:0.0212669 86:0.0681409 87:0.10332 88:0.261686 89:0.410982 90:0.109691 91:0.00229414 92:0.458729 93:0.183782 94:0.201939 95:0.0211315 96:0.122894 97:0.265196 98:0.0316175 99:0.015645 100:0.0676897 101:0.100429 102:0.0914899 103:0.0935862 104:0.056091 105:0.0245011 106:0.525097 107:0.016059 108:0.000325089 109:0.183396 110:0.145309 111:0.260984 112:0.222515 113:0.030455 114:0.177298 115:0.146514 116:0.154482 117:0.049851 118:0.0293291 119:0.113369 120:0.212916 121:0.114831 122:0.176467 123:0.00386976 124:0.0844301 125:0.240337 126:0.207271 127:0.162003 128:0.12571 129:0.0996785 130:0.341663 131:0.254052 132:0.0231631 133:0.0940815 134:0.32923 135:0.0486144 136:0.0857212 137:0.248058 138:0.0389882 139:0.005586 140:0.108058 141:0.161938 142:0.0709003 143:0.0316412 144:0.00817867 145:0.134497 146:0.257923 147:0.210147 148:0.0955255 149:0.332611 150:0.402227 151:0.000301 152:0.0647592 153:0.0321226 154:0.0894283 155:0.0835105 156:0.0127457 157:0.352624 158:0.0906581 159:0.133295 160:0.251347 161:0.0555632 162:0.026758 163:0.0500302 164:0.0966097 165:0.238596 166:0.102273 167:0.0132289 168:0.022408 169:0.0181718 170:0.201899 171:0.00511807 172:0.240341 173:0.148309 174:0.0273685 175:0.276209 176:0.0540653 177:0.224807 178:0.0715642 179:0.214178 180:0.0616579 181:0.245781 182:0.0222121 183:0.073828 184:0.113703 185:0.0105008 186:0.0419767 187:0.0396884 188:0.159491 189:0.0467474 190:0.0363452 191:0.481894 192:0.108044 193:0.0554086 194:0.188084 195:0.0547022 196:0.104306 197:0.120893 198:0.00512676 199:0.0348432 
0.01628177732801473 0 0 0:0.00292649 2:0.344487 6:0.0316114 7:0.0100455 8:0.00630514 9:0.00134966 10:0.130735 11:0.000828045 12:0.183206 13:0.0707355 14:0.0245593 16:0.246035 17:0.00275556 18:0.00310689 19:0.016867 20:0.00549117 21:0.0106585 22:0.377068 23:0.0425132 25:0.0524418 26:0.0357509 28:0.0220819 29:0.102023 30:0.0289555 31:0.00716763 32:0.119881 33:0.0378585 34:0.294933 35:0.026007 36:0.156142 37:0.305486 38:0.0133801 42:0.0127256 43:0.00931984 45:0.00619609 46:0.176289 47:1.92505e-005 48:0.129048 49:0.147513 50:0.0159022 51:0.0418248 52:0.342681 53:0.0541005 55:0.387029 56:0.447797 57:0.131019 58:0.00515005 59:0.13292 61:0.429153 62:0.00582692 63:0.00356158 65:0.193358 66:0.00627118 67:0.173908 68:0.0132619 69:0.244191 70:0.0189997 71:0.00708675 73:0.0185433 74:0.352363 76:0.00594469 77:0.0922315 78:0.0144683 79:0.105091 81:0.221343 82:0.0305796 83:0.00170512 84:0.256048 85:0.18194 87:0.00122954 88:0.0134119 89:0.409921 90:0.358059 91:0.0731314 92:0.0534353 94:0.164528 95:0.0600241 97:0.12593 98:0.0792556 99:0.304536 100:0.104172 101:0.0384465 102:0.259015 103:0.00280081 104:0.298266 105:0.118106 106:0.15941 107:0.206383 110:0.480201 111:0.400808 112:0.00203288 113:0.292479 114:0.0021463 115:0.00650901 116:0.0247009 117:0.266553 118:0.194574 120:0.0067386 121:0.17382 123:0.0183986 124:0.274865 125:0.0102324 126:0.352363 127:0.188782 128:0.0619493 130:0.322698 131:0.418775 132:0.000964247 133:0.360107 134:0.320779 136:0.0190095 137:0.406446 138:0.165434 139:0.0219592 140:0.298151 141:0.14986 144:0.0540405 145:0.231667 146:0.011434 148:0.00716774 149:0.0539659 150:0.389665 151:0.00740402 152:0.00137712 153:0.0142068 154:0.000589931 155:0.0402678 156:0.121354 157:0.00879294 158:0.0237636 159:0.447797 161:0.368144 162:0.117513 163:0.172634 164:0.421957 165:0.0139002 166:0.0133494 168:0.0800992 169:0.0348852 170:0.00174036 174:0.0585946 175:0.00262719 176:0.0261691 178:0.169621 179:0.0144652 180:0.322698 181:0.00501536 182:0.00766171 183:0.360107 185:0.0290124 186:0.0129222 188:0.00711614 189:0.0115977 190:0.118131 191:0.422353 192:0.13396 193:0.000418541 194:0.000115492 195:0.000176531 196:0.192468 197:0.149116 198:0.100784 199:0.00509842 
0.07589449240090436 0 0.01261394341973962 0:0.0667661 1:0.251735 2:0.261441 3:0.0201322 4:0.00226222 5:0.126847 6:0.401 7:0.00229889 9:0.272096 10:0.25205 11:0.358927 12:0.460783 13:0.140982 15:0.0190689 16:0.367782 17:0.277765 18:0.358927 19:0.0853467 21:0.177914 22:0.531747 23:0.355723 24:0.0010128 25:0.0737972 26:0.116975 27:0.00380237 28:0.537871 29:0.355723 30:0.0817822 32:0.35315 33:0.0101348 34:0.126307 35:0.000167289 36:0.0396498 37:0.0217978 39:0.00311786 40:0.00825107 41:0.00520477 42:0.000393851 43:0.354736 44:0.0207084 45:0.351991 46:0.56714 47:0.0685562 48:0.00221856 49:0.000272847 51:0.360933 52:0.106605 53:0.00682638 54:0.0149778 56:0.460783 57:0.00488422 58:0.00711581 59:0.373942 61:0.768113 62:0.00966557 63:0.360933 64:0.0959128 65:0.0544321 66:0.00188345 67:0.0743469 69:0.113787 71:0.351991 72:0.119965 73:0.459475 74:0.0458106 75:0.00102293 77:0.363845 78:0.0170288 79:0.481144 80:0.200662 81:0.0142517 82:0.0445857 83:0.0908128 84:0.0202429 85:0.35291 86:0.00250918 87:0.0213693 88:0.0136794 89:0.484759 90:0.00962484 91:0.00182172 92:0.0357833 93:0.000216563 94:0.0133588 95:0.369955 96:0.000569922 97:0.211304 98:0.153588 99:0.0311599 100:0.0143857 101:0.0335735 102:0.0146488 103:0.246214 104:0.0640573 105:0.24302 106:0.00776751 107:0.00141967 108:0.000227532 109:0.426505 110:0.401792 111:0.167493 112:0.000124736 113:0.35315 114:0.084701 116:0.0242494 117:0.014824 118:0.00619957 119:0.010486 120:0.159839 121:0.0346802 122:0.00177512 123:0.165704 124:0.0258739 125:0.00139335 126:0.0282741 127:0.00622881 128:0.00462023 129:0.0174785 130:0.052399 131:0.000428753 132:0.0103265 133:0.0120841 134:0.0364539 135:0.00303089 136:0.00915265 137:0.494 138:0.00613205 139:0.25688 140:0.143685 141:0.0468832 142:0.18549 144:0.0154372 145:0.117049 147:0.284907 148:0.369955 150:0.0134802 151:0.248124 152:0.0431548 153:0.567602 154:0.0772909 155:0.00101644 156:0.0311374 157:0.00191394 158:0.229475 159:0.460783 160:0.343608 161:0.195004 162:0.0204861 163:0.00698271 164:0.00924525 165:0.330075 166:0.119122 167:0.0170519 169:2.10074e-006 170:0.351093 171:0.352019 174:0.161961 176:0.000137595 177:0.00227458 178:0.193828 179:0.0134655 180:0.354753 181:0.01183 182:0.0597747 183:0.0771323 184:0.00281361 185:0.00375057 186:0.0951739 187:0.0168265 188:0.0145829 189:0.0466811 190:0.018616 191:0.0180914 192:0.0865945 193:0.352328 194:0.0743611 195:0.0180481 196:0.0841294 198:0.352019 199:0.00452138 
0.0125198379176857 0 0 2:0.0656246 3:0.0099361 4:0.00278123 6:0.00213785 7:0.282155 9:0.126515 10:0.00213422 11:0.0809068 13:0.0349012 14:0.0168839 15:0.0328492 17:0.0349605 18:0.0666442 22:0.0920379 23:0.0743249 26:0.0155136 28:0.0175399 29:0.227019 30:0.170459 32:0.197154 33:0.0657361 34:0.0321735 35:0.069196 36:0.0385982 37:0.0907499 38:0.149477 39:0.0244257 41:0.0329051 43:0.188335 45:0.10537 46:0.321747 47:0.106382 49:0.389738 53:0.160683 55:0.175354 57:0.0298586 58:0.258655 60:0.0244673 61:0.118633 65:0.0322282 66:0.0215763 68:0.308041 69:0.0723699 71:0.0122441 74:0.21909 78:0.308566 81:0.202653 82:0.0805419 83:0.166668 84:0.103151 85:0.0545332 89:0.0640546 90:0.170748 91:0.0801623 92:0.145524 93:0.293509 94:0.0158802 96:0.221039 97:0.35409 98:0.00743719 99:0.280398 100:0.322742 101:0.314519 102:0.276532 103:0.06173 104:0.0912772 105:0.0684624 106:0.172954 107:0.128684 108:0.132643 109:0.145425 111:0.372751 113:0.196819 115:0.0429118 117:0.0379642 118:0.175354 119:0.0421422 120:0.325561 121:0.315053 124:0.125904 125:0.0648137 126:0.218718 128:0.0092172 129:0.162766 130:0.301348 131:0.144946 132:0.0393333 133:0.184451 134:0.212973 135:0.0674425 136:0.322742 137:0.222513 138:0.089167 140:0.0556399 141:0.00883679 142:0.00178357 143:0.0674029 144:0.0977543 145:0.140472 151:0.00568153 152:0.0421359 154:0.0587513 155:0.0645551 156:0.0274414 159:0.0938953 160:0.0151975 161:0.343836 162:0.202653 163:0.0978788 164:0.192446 165:0.0256451 167:0.538651 168:0.0742562 169:0.0889768 170:0.126301 175:0.548506 176:0.0486078 177:0.0292956 178:0.0875304 179:0.00169354 180:0.0416462 183:0.184451 184:0.322294 185:0.0134228 186:0.0321772 188:0.00995302 189:0.00543351 190:0.16278 191:0.238032 192:0.0103608 193:0.0191677 194:0.259383 195:0.220654 
0.09800975814231128 0 0 0:0.0271112 1:0.00109896 2:0.0907621 3:0.0851551 4:0.111157 5:0.0152504 6:0.00270191 7:0.139328 8:0.0193501 9:0.0344381 10:0.0240542 11:0.0614438 12:0.00828403 13:0.0317807 14:0.0176455 15:0.0453263 16:0.0156039 17:0.0159616 18:0.0303741 19:0.0290355 20:0.0188546 21:0.00339923 22:0.195569 23:0.0130964 24:0.104598 25:0.0225179 26:0.149669 27:0.152202 28:0.0315733 29:0.0181956 30:0.183021 31:0.00069451 32:0.105837 33:0.0470604 34:0.0510031 35:0.0699373 36:0.0744925 37:0.159713 38:0.0668367 39:0.133534 40:0.0908154 41:0.371505 42:0.0738093 43:0.310022 44:0.123972 45:0.0584578 46:0.556079 47:0.0429587 48:0.375686 49:0.291757 50:0.103381 51:0.175155 52:0.0644187 53:0.017308 54:0.270798 55:0.138463 56:0.0444746 57:0.402906 58:0.155412 59:0.0170869 60:0.219471 61:0.100714 63:0.0191326 64:0.00216593 65:0.0301824 66:0.0715909 67:0.0581201 68:0.040253 69:0.262655 70:0.0996851 71:0.151026 72:0.00501137 74:0.0200434 75:0.0578906 76:0.0636036 77:0.14226 78:0.0789904 79:0.0999306 80:0.0190431 81:0.028297 82:0.109244 83:0.0661388 84:0.145084 85:0.0486943 86:0.243601 87:0.178152 88:0.244812 89:0.362876 90:0.142366 91:0.10091 92:0.197669 93:0.160287 94:0.0597061 95:0.434012 96:0.141812 97:0.129032 98:0.00830943 99:0.0422799 100:0.000770575 101:0.149894 102:0.330731 103:0.0943711 104:0.0532722 105:0.119509 106:0.244027 107:0.118169 108:0.199078 109:0.032939 110:0.125578 111:0.222736 112:0.289097 113:0.130263 114:0.13812 115:0.0275413 116:0.162605 117:0.0371697 118:0.0850556 119:0.030389 120:0.0473834 121:0.0802968 122:0.375686 123:0.0167832 124:0.100876 125:0.136628 126:0.0220491 127:0.123768 128:0.0230054 129:0.00116587 130:0.386137 131:0.0508893 132:0.0759717 133:0.139506 134:0.434626 135:0.0196279 136:0.0256287 137:0.0129084 138:0.375686 139:0.00035188 140:0.00369011 141:0.254294 142:0.136829 143:0.170049 144:0.0223412 145:0.00674274 146:0.0535945 147:0.0144083 148:0.190596 149:0.151998 150:0.00840952 151:0.197203 152:0.172244 153:0.147655 154:0.0376136 155:0.141422 156:0.0200564 157:0.338396 158:0.120312 160:0.0163872 161:0.537994 162:0.0113648 163:0.225075 164:0.0689891 165:0.0131072 166:0.0105069 167:0.0307959 168:0.189206 169:0.262922 170:0.00908948 171:0.146603 172:0.00471554 173:0.0268942 174:0.0308883 175:0.0515247 176:0.00550809 178:0.190193 179:0.0700656 180:0.220217 181:0.221954 182:0.00535649 183:0.264875 184:0.0956077 185:0.0347695 186:0.235976 187:0.118468 188:0.34887 189:0.00713791 190:0.165986 191:0.0913468 192:0.362876 193:0.0623532 194:0.0260372 195:0.190618 196:0.0688362 197:0.0538507 198:0.279697 199:0.0788751 
0.05777849223204333 0 0 0:0.0033249 1:0.218076 2:0.307934 3:0.0105267 4:0.132669 5:0.142235 6:0.0800947 7:0.20289 8:0.12345 9:0.0380914 10:0.310725 11:0.0129157 12:0.136122 13:0.252879 14:0.0955653 15:0.136387 16:0.0773846 17:0.0846921 18:0.0806237 19:0.134249 20:0.123856 21:0.113473 22:0.126795 23:0.222161 24:0.225221 25:0.0763634 26:0.0629989 27:0.0511986 28:0.097682 29:0.0681057 30:0.18526 31:0.127344 32:0.299155 33:0.0764562 34:0.337558 35:0.0753333 36:0.537055 37:0.176255 38:0.0358973 39:0.175155 40:0.0219978 41:0.266438 42:0.115352 43:0.281337 44:0.130099 45:0.158438 46:0.268182 47:0.0801938 48:0.230486 49:0.176301 50:0.224398 51:0.170462 52:0.045916 53:0.140004 54:0.0495364 55:0.169975 56:0.172101 57:0.118994 58:0.117614 59:0.112573 60:0.0624628 61:0.173726 62:0.0253625 63:0.079965 64:0.16969 65:0.0344456 66:0.192103 67:0.01304 68:0.376818 69:0.30271 70:0.098933 71:0.226012 72:0.196124 73:0.0349129 74:0.321114 75:0.294251 76:0.0305503 77:0.111981 78:0.150711 79:0.21354 81:0.204653 82:0.0221697 83:0.189482 84:0.0874542 85:0.0757829 86:0.0633796 87:0.0223839 88:0.0708558 89:0.0459412 90:0.119032 91:0.0584759 92:0.238755 93:0.0617968 94:0.04633 95:0.256715 96:0.0805525 97:0.600198 98:0.142126 99:0.17562 100:0.413209 101:0.137372 102:0.299951 103:0.130373 104:0.323403 105:0.11048 106:0.169289 107:0.15081 108:0.00992808 109:0.0402353 110:0.176844 111:0.226307 112:0.0317943 113:0.0729043 114:0.048779 115:0.172575 116:0.066444 117:0.317673 118:0.402676 119:0.0414019 120:0.0924619 121:0.071642 122:0.13269 123:0.183679 124:0.0376494 125:0.168047 126:0.114686 127:0.127039 128:0.109502 129:0.0156397 130:0.162212 131:0.170168 132:0.0522686 133:0.184212 134:0.378367 135:0.0944342 136:0.292169 137:0.038175 138:0.256754 139:0.167291 140:0.0352617 141:0.070538 142:0.0405432 143:0.0589453 144:0.215936 145:0.0403571 146:0.0586002 147:0.246318 148:0.114968 149:0.0243299 150:0.0467731 151:0.245151 152:0.220947 153:0.01569 154:0.193091 155:0.2858 156:0.219392 157:0.100663 158:0.231003 159:0.204928 160:0.0351367 161:0.376617 162:0.158824 163:0.381522 164:0.411972 165:0.0320322 166:0.114773 167:0.0762334 168:0.192053 169:0.151087 170:0.0298326 171:0.0498428 172:0.140512 173:0.0370287 175:0.360125 176:0.103246 177:0.128804 178:0.155493 179:0.0107052 180:0.158922 181:0.0976235 182:0.0153362 183:0.181268 184:0.199972 185:0.189744 186:0.0498217 187:0.0356437 188:0.0751209 189:0.00839197 190:0.206068 191:0.0532226 192:0.19763 193:0.122295 194:0.0430054 195:0.0792915 196:0.0111864 197:0.130181 198:0.176222 199:0.0449968 
0 0.03622983478832866 0 0:0.145715 1:0.129759 2:0.0191449 3:0.075879 4:0.0432475 5:0.0399331 6:0.0434674 7:0.196443 8:0.1236 9:0.0172977 10:0.0326114 11:0.0643627 12:0.0452744 13:0.00913061 14:0.148526 15:0.034948 16:0.0355393 17:0.0495159 18:0.0439412 19:0.0411681 20:0.162385 21:0.0330255 22:0.0208873 23:0.192032 24:0.0239645 25:0.0464893 26:0.138544 27:0.0238165 28:0.0418659 29:0.123273 30:0.0975707 31:0.219688 32:0.0247623 33:0.0813276 34:0.0237408 35:0.148762 36:0.0449222 37:0.157655 38:0.0458704 39:0.0870074 40:0.0970875 41:0.290496 42:0.167154 43:0.157787 44:0.0183873 45:0.120308 46:0.158718 47:0.0933178 48:0.410945 49:0.0759165 50:0.171814 51:0.0510791 52:0.178266 53:0.0152203 54:0.0234768 55:0.0510759 56:0.0474265 57:0.141944 58:0.0699713 59:0.244196 60:0.233806 61:0.0671918 62:0.0462214 63:0.0552479 64:0.114296 65:0.0966484 66:0.189476 67:0.0512825 68:0.0265484 69:0.145822 70:0.278671 71:0.193814 72:0.150197 73:0.0902469 74:0.0307189 75:0.0272848 76:0.116377 77:0.0551261 78:0.130565 79:0.154231 80:0.230393 81:0.056061 82:0.207184 83:0.0753614 84:0.142602 85:0.0431495 86:0.00304009 87:0.17367 88:0.130436 89:0.231635 90:0.116449 91:0.12115 92:0.127687 93:0.0762266 94:0.105106 95:0.2977 96:0.105879 97:0.0156282 98:0.0661089 99:0.204359 100:0.234831 101:0.148682 102:0.194306 103:0.227309 104:0.0220929 105:0.127486 106:0.472741 107:0.139173 108:0.0787586 109:0.0383961 110:0.28142 111:0.333485 112:0.166024 113:0.232822 114:0.0616027 115:0.123029 116:0.095171 117:0.0919177 118:0.130971 119:0.0548452 120:0.135158 121:0.379665 122:0.13444 123:0.0459577 124:0.148091 125:0.509508 126:0.122516 127:0.162912 128:0.0979053 129:0.0820821 130:0.161036 131:0.188617 132:0.0828687 133:0.106816 134:0.00466443 135:0.0360063 136:0.15991 137:0.161586 138:0.172582 139:0.0906991 140:0.141512 141:0.109355 142:0.0960248 143:0.0868116 144:0.25202 145:0.206341 146:0.279556 147:0.0497331 148:0.0849174 149:0.217649 150:0.18484 151:0.0425141 152:0.256744 153:0.197933 154:0.187751 155:0.309577 156:0.36943 157:0.115024 158:0.0688542 159:0.110441 160:0.107616 161:0.301664 162:0.118704 163:0.0127548 164:0.222788 165:0.116823 166:0.0319267 167:0.0523152 168:0.103842 169:0.053705 170:0.00997412 171:0.00803155 172:0.0650541 173:0.0483746 174:0.0576762 175:0.00918403 176:0.049037 177:0.0119556 178:0.120057 179:0.112221 180:0.111266 181:0.124046 182:0.107244 183:0.115665 184:0.11322 185:0.0591033 186:0.0738387 187:0.0756816 188:0.0438169 189:0.0287038 190:0.00849505 191:0.125015 192:0.460482 193:0.0419861 194:0.116765 195:0.102244 196:0.0253038 197:0.103428 198:0.0121689 199:0.0674805 
0 0 0.162444835452822 1:0.00336535 2:0.0308295 3:0.00125999 4:0.00103139 5:0.0318127 6:0.080707 7:0.0143802 8:0.00343496 9:0.00288105 10:0.0584501 11:0.00540114 12:0.289802 13:0.0279002 14:0.0132783 16:0.117106 17:0.0291432 18:0.00333843 19:0.130087 20:0.000732684 21:0.17782 22:0.202351 23:0.310605 24:0.0503502 25:0.320757 26:0.167103 27:0.0797471 28:0.0127413 29:0.44637 30:0.00244912 31:0.00122114 32:0.076948 33:0.0283048 34:0.0210205 35:0.0263294 36:0.00759936 37:0.375795 38:0.00229545 39:0.00797857 40:3.23398e-005 42:0.0701699 43:0.183743 44:0.262821 45:0.00972745 48:0.0714441 49:0.00587988 52:0.347222 53:0.0283706 54:0.307568 55:0.359652 56:0.126993 57:0.122676 58:0.000974009 59:0.0953486 61:0.0756467 65:0.0362105 66:0.00632603 67:0.0215663 68:0.00160027 69:0.143393 70:0.0834726 71:0.0282598 73:0.0490644 74:0.359457 75:0.0392016 76:0.0197882 77:0.0216887 78:0.00755539 79:0.0438883 81:0.432282 82:0.0311982 83:0.000598048 84:0.193173 85:0.0485446 86:0.227659 87:0.035476 88:0.0337455 89:0.317825 90:0.0166901 91:0.0036371 92:0.373035 94:7.35737e-006 95:0.004135 96:0.00594411 97:0.00264705 98:0.0830982 99:0.340905 100:0.0551974 101:0.0613512 102:0.273089 103:0.014632 104:0.289359 105:0.196578 106:0.13264 107:0.00325384 110:0.0957169 111:0.347764 112:0.0163933 113:0.159181 114:0.596105 115:0.00804829 116:0.00566511 117:0.359652 118:0.359652 119:0.00226733 121:0.0607185 122:0.0145466 123:0.00182018 124:0.13578 125:0.416778 126:0.359457 127:0.290972 128:0.205323 129:0.00202389 130:0.331471 131:0.187752 132:0.0159123 133:0.42368 134:0.339136 135:0.00557692 136:0.0457708 137:0.541656 138:0.141713 139:0.0699623 140:0.137142 141:0.0243855 143:0.00102242 145:0.00464441 146:0.0047979 147:0.0131188 148:0.00332516 149:0.104763 150:0.388825 151:0.0227005 152:0.0403816 153:0.0316353 154:0.0091162 155:0.0263152 157:0.0348322 158:0.0564018 159:0.346859 161:0.391756 162:0.305185 163:0.212001 164:0.0549333 165:0.0525458 166:0.000770861 168:0.002466 169:0.00543102 170:0.00122015 174:0.000616349 176:0.107716 177:0.000129835 178:0.172813 179:0.077259 180:0.331471 181:0.010613 182:0.0791537 183:0.42368 185:0.0543694 186:0.0266818 187:0.00207808 188:0.0144487 189:0.000642231 190:0.171564 191:0.456054 192:0.086866 194:0.00330859 196:0.00197079 197:0.319861 198:0.000820536 199:0.00213391 
0 0 0.09622331215958124 1:0.213046 2:0.144598 5:0.307008 6:0.000333701 7:0.0120621 8:0.129244 9:0.0213187 10:0.0819361 11:0.0360858 12:0.0519475 13:0.0412407 14:0.316652 16:0.17595 17:0.000722913 18:0.0387134 19:0.180746 20:0.218867 21:0.0322473 22:0.169739 23:0.277869 25:0.0241374 26:0.0283393 28:0.122337 29:0.214712 30:0.000214407 31:0.294823 32:0.00505261 33:0.0656711 34:0.116463 35:0.00346452 36:0.126264 37:0.2805 38:7.62953e-005 42:0.204386 45:0.00161253 46:0.0389351 47:0.0336455 48:0.0120416 49:0.00863334 50:0.167241 51:0.0629978 52:0.160485 53:0.000677921 54:0.00177984 55:0.417869 56:0.198931 57:0.0246583 59:0.0787468 61:0.101661 62:0.0283268 63:0.0323165 64:0.101962 65:0.12125 66:0.000251644 67:0.0674131 68:0.30072 69:0.0279551 70:0.00259004 71:0.00147663 72:0.203275 73:0.280488 74:0.322452 75:0.00399707 76:0.299675 77:0.0279886 78:0.124955 79:0.021672 81:0.364368 82:0.0550514 84:0.0140555 85:0.000960134 87:0.00959967 89:0.0968306 90:0.00506767 91:0.0105911 92:0.385611 93:0.0288547 94:0.363712 95:0.0201987 97:0.0886247 98:0.0759371 99:0.405086 100:0.135714 101:0.00126512 102:0.449919 103:0.0560354 104:0.156267 105:0.363799 106:0.384954 107:0.00635467 109:0.0192456 110:0.0156592 111:0.0207718 112:0.168756 113:0.00764621 114:0.00504243 115:0.00742397 116:0.00155403 117:0.160309 118:0.132903 119:0.000433748 120:0.0125608 121:0.0219631 122:0.0189028 123:0.221413 124:0.259441 125:0.372784 126:0.263967 127:0.100116 128:0.423037 129:0.210133 130:0.25633 131:0.28303 132:0.00342787 133:0.314651 134:0.0403876 135:0.0201644 136:0.0860625 137:0.302515 138:0.449919 139:0.226138 140:0.285983 141:0.00691849 144:0.359781 145:0.415749 146:0.406831 149:0.2718 150:0.408764 151:0.0121593 153:0.019334 155:0.0223603 158:0.120711 159:0.115924 160:0.00173511 161:0.00241803 162:0.111461 163:0.0658775 164:0.182835 165:0.0892163 166:0.00967127 167:0.0135526 168:0.00918382 169:0.00162924 170:0.00374291 171:0.0129213 172:0.026334 173:0.0128163 174:0.0125656 175:0.275732 176:0.330203 178:0.00404846 179:0.0236994 180:0.0233537 182:0.027504 183:0.212539 184:0.00303623 185:0.0582069 186:0.00857879 189:0.0513554 190:0.103994 191:0.373784 192:0.209043 194:0.0147813 195:0.0208083 196:0.102944 197:0.0250324 198:0.0355833 199:0.00228344 
0.06678650567569294 0 0 0:0.363256 2:0.0224479 3:0.256354 4:0.0221757 5:0.000152871 6:0.381279 7:0.115394 8:0.108943 9:0.00141295 10:0.257084 11:0.00599257 12:0.381279 13:0.319502 14:0.107331 15:0.0294499 16:0.249668 17:0.240163 18:0.00701632 19:0.00882359 20:0.000784049 21:0.000119459 22:0.00125744 23:0.00379516 24:0.0416859 25:0.00852389 26:0.357537 27:0.0196249 28:0.0276072 29:0.00835036 30:0.21154 31:0.0570458 32:0.0160416 33:0.147298 34:0.00180658 35:0.030673 36:0.0572254 37:0.155419 38:0.00676971 39:0.0206738 40:0.265994 41:0.301958 42:0.00295221 43:0.209323 44:0.0501401 45:0.0107179 46:0.0933725 47:0.0317859 48:0.240305 49:0.251466 50:0.00227567 51:0.078876 52:0.191414 53:0.0112584 54:0.164852 55:0.166765 56:0.150391 57:0.138108 58:0.0435686 59:0.39681 60:0.0633804 62:0.00465088 63:0.125686 65:0.142727 66:0.333689 67:0.0171674 68:0.0706532 69:0.217725 70:0.170781 71:0.0270373 73:0.0760573 74:0.337538 75:0.0392295 76:0.00245454 77:0.150672 78:0.0456121 79:0.376369 80:0.363256 81:0.152538 82:0.111075 83:0.348005 84:0.159502 85:0.00205755 86:0.0386036 87:0.294951 88:0.350147 89:0.00190597 90:0.154407 91:0.248901 92:0.106431 93:0.0124538 94:0.344324 95:0.365428 96:0.0100035 97:0.123903 98:0.00050069 99:0.304047 100:0.33513 101:0.301674 102:0.350147 103:0.00579022 104:0.249657 105:0.23343 106:0.148869 107:0.199827 108:0.00219147 110:0.155643 111:0.0182665 112:0.117547 113:0.085159 114:0.194524 115:0.218694 116:0.400926 117:0.160806 118:0.160692 119:0.00439972 120:0.224088 121:0.163639 122:0.14837 123:0.0387663 124:0.146942 125:0.244536 126:0.0326668 127:0.0703805 128:0.0649683 129:0.0666013 130:0.32814 131:0.329932 132:0.0094585 133:0.386052 134:0.04819 135:0.228158 136:0.134517 137:0.108162 138:0.225092 139:0.0601681 140:0.109296 141:0.020563 142:0.197578 143:0.00850659 144:0.182617 145:0.164681 146:0.034117 147:0.15757 148:0.22542 149:0.177885 150:0.483176 151:0.00845822 152:0.235612 153:0.102835 154:0.298246 155:0.0996658 156:0.0232122 157:0.0433524 159:0.381279 160:0.0642453 161:0.00228516 162:0.0541484 163:0.079884 164:0.33513 165:0.0177627 166:0.00464097 168:0.169738 169:0.219519 171:0.0455867 172:0.0127041 173:0.0239423 174:0.0125347 175:0.0352808 176:0.0973113 177:0.0189077 178:0.0323198 179:0.00434072 180:0.0204383 181:0.391111 182:0.00146412 183:0.201372 184:0.0981586 185:0.271223 186:0.0131917 187:0.285011 188:0.346803 189:0.0755506 190:0.061932 191:0.348954 192:0.00269849 193:0.348005 194:0.000275575 195:0.0504967 196:0.305593 197:0.16992 198:0.118879 199:0.00611541 
0.01804082024472303 0 0 0:0.0704164 1:0.0238261 2:0.0174627 3:0.00381853 4:0.0216155 5:0.0237351 6:0.0981486 7:0.0100973 8:0.00648125 9:0.0196784 10:0.230544 11:0.0563771 12:0.168334 13:0.0495495 15:0.0144923 16:0.11403 17:0.0106332 18:0.0333072 19:0.119634 20:0.0217546 21:0.0182077 22:0.000882593 23:0.0282931 25:0.0659105 26:0.0640196 27:3.98299e-005 28:0.0316282 29:0.0464939 30:0.0264854 31:0.00310824 32:0.043083 33:0.0223436 34:0.147255 35:0.0451709 36:0.359257 37:0.11904 38:0.0337224 39:0.0751351 40:0.0624777 41:0.0043609 42:0.195625 43:0.000954272 44:0.000227544 45:0.000222262 46:0.00243477 47:0.0229484 48:0.0143263 49:0.121461 50:0.0631825 51:0.16315 52:0.0396719 53:0.0712345 54:0.0247017 55:0.256312 56:0.266986 57:0.0242091 58:0.168575 59:0.0793413 60:0.0347121 61:0.015037 62:0.00200839 63:0.382332 64:0.172856 65:0.102266 66:0.00206462 67:0.0180737 69:0.132456 70:0.0271365 71:0.00155583 72:0.0698942 73:0.0663076 74:0.174446 75:0.00847052 76:0.0186525 77:0.160479 79:0.0927211 80:0.0298064 81:0.137156 82:0.119708 83:0.00856915 84:0.243347 85:0.0242964 86:0.00826238 87:0.0594865 88:0.0113209 89:0.124097 90:0.230784 91:0.372116 92:0.0378447 93:0.0822125 94:0.0198528 95:0.148943 97:0.0744559 98:0.0124763 99:0.0533793 100:0.218854 101:0.0822442 102:0.376615 103:0.0738596 104:0.240702 105:0.474876 106:0.0438271 107:0.211142 108:0.137053 109:0.0329957 110:0.00281453 111:0.186388 112:0.00522403 113:0.00813544 114:0.00423819 115:0.00159865 116:0.0644147 117:0.0960933 118:0.047567 119:0.0021295 120:0.146868 121:0.131623 122:0.00755577 123:0.0702019 124:0.0623862 125:0.0708338 126:0.332767 127:0.104755 128:0.00458596 129:0.145269 130:0.218264 131:0.423862 132:0.0023946 133:0.0270868 134:0.107693 135:0.000363307 136:0.0784353 137:0.112039 138:0.384707 139:0.00751912 140:0.41117 141:0.0180283 142:0.113222 143:0.208044 144:0.102077 145:0.460402 146:0.00174271 147:0.112132 148:0.0618935 149:0.0789851 150:0.358294 152:0.00219616 153:0.00606931 154:0.0328182 155:0.0843351 156:0.0426797 157:0.131028 158:0.0818 159:0.335542 160:0.00884182 161:0.49981 162:0.0392498 163:0.0787202 164:0.437663 165:0.00922075 166:0.0348146 167:0.358944 168:0.231844 169:0.017881 170:0.0155904 171:0.0458104 172:0.00186495 173:0.0137515 174:0.00714985 175:0.00356827 176:0.0395861 177:0.000514767 178:0.060456 179:0.00432924 180:0.237798 181:0.189579 182:0.00614439 183:0.108063 184:0.00229775 185:0.0434935 186:0.0664136 188:0.0176531 189:0.00250103 190:0.101153 191:0.370075 192:0.0410176 193:0.0322294 194:0.0667074 195:0.252431 196:0.201566 197:0.190437 198:0.0974447 199:0.0365935 
0.03293246093990793 0.03216366895044093 0 0:0.0659341 1:0.13374 2:0.159964 3:0.0636705 4:0.181497 5:0.0232764 6:0.362866 7:0.0261861 8:0.0264452 9:0.0975663 10:0.0733116 11:0.00177926 12:0.20582 13:0.136847 14:0.000796368 15:0.3807 16:0.165905 17:0.386465 18:0.0497783 19:0.0266648 20:0.338368 21:0.0715057 22:0.104077 23:0.0193527 24:0.109303 25:0.037634 26:0.00620611 27:0.0513437 28:0.0344975 29:0.0322544 31:0.0460028 32:0.358017 33:0.134686 34:0.120894 35:0.337193 36:0.129315 37:0.0459738 38:0.0756403 39:0.126455 40:0.174459 41:0.22525 42:0.364717 43:0.314515 44:0.0405352 45:0.107929 46:0.010862 47:0.0118766 48:0.208321 49:0.159597 50:0.348873 51:0.404316 52:0.275867 53:0.0541823 54:0.0210051 55:0.197079 56:0.0378533 57:0.104411 58:0.0498142 59:0.393347 60:0.125078 61:0.0352851 62:0.00805557 63:0.404316 64:0.171801 65:0.0958107 66:0.104604 67:0.456797 68:0.0314 69:0.0388034 70:0.0383726 71:0.255387 72:0.222939 74:0.0911832 75:0.00257653 76:0.26667 77:0.362401 78:0.0303916 79:0.110707 80:0.049284 81:0.171395 82:0.0690363 84:0.0179058 85:0.100906 86:0.0221625 87:0.0560336 88:0.160754 89:0.306915 91:0.00151603 92:0.239872 93:0.0179052 94:0.245955 95:0.375212 96:0.395367 97:0.151593 98:0.0457442 99:0.138764 100:0.00878317 102:0.130457 103:0.217743 104:0.127271 105:0.0112207 106:0.00415654 107:0.0106122 108:0.0184999 109:0.250781 110:0.12184 111:0.16508 112:0.0185174 113:0.39119 114:0.00637067 115:0.01241 116:0.097455 117:0.0253665 118:0.0879191 119:0.187105 120:0.0810352 122:0.20917 123:0.00417382 124:0.13636 125:0.0874785 126:0.0084352 127:0.348873 128:0.0102432 129:0.00704858 130:0.0347667 131:0.0355944 132:0.313595 133:0.0130533 134:0.32228 135:0.0219152 136:0.00827233 137:0.00439678 138:0.0516938 139:0.0118676 141:0.200115 143:0.262835 144:0.302517 145:0.045285 146:0.0286894 147:0.090801 148:0.116645 149:0.0447811 150:0.043136 151:0.0160231 152:0.354733 153:0.0668759 154:0.3644 155:0.486737 156:0.405234 157:0.101211 158:0.142671 159:0.264385 160:0.0644221 161:0.0864872 162:0.041546 163:0.45828 164:0.00267571 165:0.0193198 166:0.0571128 167:0.159325 168:0.00724194 169:0.00817961 170:0.249933 171:0.0113438 172:0.031172 173:0.0692077 174:0.255344 175:0.04238 176:0.0010774 177:0.0625255 178:0.0106366 179:0.203141 180:0.0178895 181:0.208848 182:0.389326 183:0.0221652 184:0.114931 185:0.302971 186:0.0350847 187:0.141948 188:0.0785776 189:0.108978 190:0.337241 191:0.175789 192:0.306915 194:0.324468 195:0.0180488 196:0.004265 197:0.142825 198:0.0925222 199:0.0170051 
0.01756415002220496 0 0 2:0.401963 4:0.187845 5:0.152905 6:0.076831 7:0.00999799 10:0.0767007 12:0.111904 13:0.258621 15:0.112707 16:0.219059 17:0.259061 19:0.0460957 21:0.153165 22:0.111506 25:0.046174 30:0.0801573 32:0.147946 33:0.202329 34:0.30933 35:0.246753 36:0.260166 37:0.174802 38:0.116634 39:0.115754 40:0.0705982 41:0.112899 43:0.126952 45:0.0183709 46:0.0793696 51:0.0378787 52:0.334029 53:0.175058 55:0.00205684 56:0.111715 59:0.162957 60:0.115951 61:0.155785 63:0.0378144 65:0.0580703 67:0.333462 72:0.0574667 77:0.116029 79:0.241291 81:0.00204931 82:0.158918 83:0.237848 84:0.0956 85:0.0989195 89:0.133158 90:0.06249 91:0.0136571 93:0.0168938 94:0.514793 95:0.0461869 96:0.112708 97:0.412899 98:0.293005 99:0.0537278 100:0.203331 101:0.392354 104:0.0729773 105:0.00354602 107:0.0393181 108:0.0392513 110:0.0731405 111:0.0204129 112:0.00505958 113:0.147696 117:0.0505974 118:0.00205684 119:0.123007 121:0.313962 124:0.158918 125:0.107443 128:0.0500865 129:0.212564 130:0.122878 131:0.25306 132:0.194233 135:0.143892 136:0.203331 137:0.00375508 140:0.0441876 141:0.0124001 142:0.107274 144:0.0960221 145:0.383943 149:0.111866 150:0.201503 151:0.00507237 152:0.130165 153:0.0597107 154:0.0794142 155:0.102717 156:0.200748 157:0.0412262 158:0.0173536 159:0.0161827 161:0.407786 162:0.00204931 164:0.0439771 174:0.0222807 176:0.0549483 179:0.149398 181:0.0154941 182:0.269395 184:0.0975109 185:0.298382 186:0.238336 190:0.0104076 191:0.207063 192:0.0927381 193:0.17879 195:0.030348 196:0.0563765 199:0.372089 
0 0.09798983691423875 0 0:0.103656 1:0.0948326 2:0.178629 3:0.065979 4:0.00203596 5:0.0462947 6:0.000524866 7:0.0875446 8:0.0365056 9:0.00768213 11:0.0622121 12:0.00367406 13:0.00428333 14:0.0339526 15:0.00939133 16:0.00289701 17:0.000307405 18:0.0433798 19:0.0419727 20:0.10119 22:0.223291 23:0.0106489 24:0.00644117 25:0.0116703 26:0.0186511 27:0.0580641 28:0.0277159 29:0.00686043 30:0.136925 31:0.138179 32:0.137346 34:0.256183 35:0.0302675 36:0.0546166 37:0.016437 38:0.00948539 39:0.0139408 40:0.025544 41:0.0121419 42:0.0648364 43:0.0839838 44:0.0181715 45:0.0631484 46:0.0466692 47:0.298591 48:0.0754211 49:0.059554 50:0.0960858 51:0.273091 52:0.181323 53:0.0595325 54:0.0986203 55:0.0580716 57:0.201284 58:0.00938894 59:0.006952 60:0.136892 61:0.407392 62:0.345738 63:0.0440185 64:0.102386 65:0.0277161 66:0.0374208 67:0.256232 68:0.0523765 69:0.0964696 70:0.11707 71:0.171507 72:0.0671525 73:0.208827 74:0.124801 76:0.129749 77:0.331929 78:0.0395519 79:0.014181 80:0.133925 81:0.0505811 82:0.14805 83:0.0159855 84:0.0882467 85:0.086538 86:0.127907 87:0.0694009 88:0.00801697 89:0.0516937 90:0.173396 91:0.0220036 92:0.327819 93:0.0145427 94:0.0858443 95:0.186109 97:0.0541365 98:0.341649 99:0.101027 100:0.0763312 101:0.0873881 102:0.03845 104:0.337586 105:0.218012 106:0.429787 107:0.0321878 109:0.0103178 110:0.0755623 111:0.427666 112:0.0282615 113:0.0973907 114:0.0517932 115:0.0170362 116:0.209032 117:0.0561979 118:0.272963 119:0.00215184 120:0.188575 121:0.437232 122:0.0847424 123:0.0195181 124:0.090841 125:0.478869 126:0.0864623 127:0.0363454 128:0.0920751 129:0.0365879 130:0.00179667 131:0.14283 132:0.00613934 134:0.00701 136:0.0241222 137:0.11985 138:0.0342632 139:0.120558 140:0.220189 141:0.100158 142:0.020869 144:0.22923 145:0.460778 146:0.106422 147:0.0181611 148:0.00324145 149:0.0684982 150:0.500283 151:0.120634 152:0.203149 153:0.143891 154:0.307129 155:0.0858206 156:0.0438327 157:0.0323158 158:0.0904875 159:0.0226981 160:0.444686 161:0.0201741 162:0.300524 163:0.00547793 164:0.0948239 165:0.0213122 166:0.00311325 167:0.0382093 168:0.0289266 169:0.0787871 170:0.0063594 171:0.00630139 172:0.257124 173:0.0541219 174:0.0622241 175:0.170083 176:0.0115404 177:0.0201388 178:0.0343306 179:0.153394 180:0.0643739 181:0.260486 182:0.291842 185:0.210566 186:0.00967998 187:0.0299184 188:0.0258224 189:0.23361 190:0.0522057 191:0.381882 192:0.359018 193:0.0132967 195:0.0209126 196:0.190054 197:0.0227738 198:0.0317757 199:0.0100189 
0 0.031662587336088 0 0:0.0328118 1:0.0380328 2:0.0444565 3:0.0325796 4:0.0758695 5:0.121726 6:0.00204275 7:0.0584829 8:0.00722728 9:0.00440438 10:0.0171779 11:0.00511429 12:0.0398931 13:0.00111309 14:0.0779163 15:0.017197 16:0.232764 18:0.00570786 19:0.0274564 20:0.000628904 21:0.123984 22:0.310973 23:0.0666622 25:0.0186691 26:0.161653 28:0.195756 29:0.0335963 30:0.0097021 31:0.00180793 32:0.0344602 33:0.00499196 34:0.145043 35:0.0440832 36:0.0360384 37:0.0519925 38:0.00159696 39:0.0750777 40:0.0918198 41:0.0172263 42:0.0702536 43:0.184096 44:0.0061705 45:0.0219719 47:0.0669576 48:0.340007 49:0.0060618 50:0.00423556 51:0.0108608 52:0.370265 53:0.00705278 54:0.00976702 55:0.122634 56:0.0392104 57:0.0473645 58:0.0572187 59:0.107282 60:0.0600119 61:0.445398 62:0.000699193 63:0.00313921 64:0.0444057 65:0.0369875 66:0.0400364 67:0.108943 68:0.129867 69:0.144973 70:0.122819 71:0.0794289 72:0.126858 73:0.0662403 74:0.41139 76:0.0467654 77:0.0510481 78:0.234265 79:0.153359 80:0.00257273 81:0.149046 82:0.204114 83:0.00183317 84:0.0277335 85:0.00459075 86:0.000680243 87:0.0994863 88:0.03936 89:0.119278 90:0.0380742 91:0.0263623 92:0.477832 94:0.113009 95:0.188073 97:0.00269908 99:0.222226 100:0.143262 101:0.0536018 102:0.17503 103:0.256251 104:0.0144377 105:0.344491 106:0.482348 107:0.0170532 108:0.00124732 109:0.000283355 110:0.0806273 111:0.109658 112:0.0514714 113:0.0491015 114:0.0684464 115:0.275384 116:0.108175 117:0.130678 118:0.248057 120:0.238594 121:0.117601 122:0.224553 123:0.134537 124:0.0834576 125:0.289094 126:0.273691 127:0.22473 128:0.336982 129:0.0274552 130:0.109395 131:0.277259 132:0.00234673 133:0.378981 135:0.000273499 136:0.177694 137:0.0535741 138:0.45151 139:0.0678008 140:0.345914 141:0.00161299 143:0.0179378 144:0.336022 145:0.411448 146:0.0646712 147:0.0647722 148:0.0249515 149:0.270516 150:0.464039 151:0.0819448 152:0.109905 153:0.344414 154:0.173604 155:0.100925 156:0.05201 157:0.196021 158:0.0073651 159:0.0582546 160:0.0444089 161:0.0197377 162:0.123397 163:0.0142714 164:0.115547 165:0.0638151 166:0.163283 167:0.00359017 168:0.0220146 169:0.0134728 170:0.00553345 171:0.00100518 172:0.000857438 173:0.0027916 174:0.0480162 175:0.11537 176:0.129447 178:0.115627 179:0.114997 180:0.0675062 181:0.237531 182:0.0515497 183:0.162902 185:0.106796 186:0.00690459 187:0.0445111 188:0.0141859 189:0.0963374 190:0.00351318 191:0.352874 192:0.176255 193:0.000172205 194:0.0100898 195:0.000482527 196:0.0469185 197:0.318887 198:0.0132311 199:0.00414247 
0 0.01609432459729392 0 0:0.121442 1:0.0851062 2:0.00592412 3:0.090559 4:0.118705 5:0.0600221 6:0.0559397 7:0.015519 8:0.000575342 9:0.0116983 10:0.180793 11:0.0398362 12:0.0710264 13:0.0747675 14:0.00917852 15:0.0821044 16:0.155501 17:0.00547623 18:0.0332459 19:0.175249 20:0.00245428 21:0.0132053 22:0.00378434 23:0.132599 24:0.00492229 25:0.0400008 26:0.424521 27:0.00980946 28:0.15038 29:0.075358 30:0.00154664 31:8.18579e-005 32:0.00558055 33:0.00797151 34:0.111121 35:0.0158708 36:0.234348 37:0.166888 38:0.00140044 39:0.0871736 40:0.256466 41:0.082244 42:0.261623 43:0.0581976 44:0.106986 45:0.00133992 46:0.0228156 47:0.196669 48:0.211996 49:0.0430419 50:0.0113716 51:0.052068 52:0.357717 53:0.00074715 54:0.159827 55:0.162081 56:0.0775482 57:0.0398777 58:0.100283 59:0.145738 60:0.0840538 61:0.0824744 62:0.00209245 63:0.0879905 64:0.0774049 65:0.139146 66:0.00307655 67:0.357717 68:0.131541 69:0.39327 70:0.10771 71:0.00622168 72:0.0705316 73:0.130086 74:0.390132 75:0.00354468 76:0.103314 77:0.0809336 78:0.023343 79:0.147966 80:0.254915 81:0.0875284 82:0.109686 83:0.000433906 84:0.0772063 85:0.00560633 86:0.192415 87:0.22191 88:0.0246987 89:0.241447 90:0.00557289 91:0.0584059 92:0.382152 94:0.10033 95:0.194223 96:0.00719157 97:0.052456 98:0.0146694 99:0.11849 100:0.130181 101:0.0850234 102:0.230404 103:0.0469133 104:0.011173 105:0.118658 106:0.548562 107:0.120285 108:0.0839921 109:0.000162489 110:0.0233145 111:0.0898195 112:0.0841906 113:0.0467075 114:0.220739 115:0.222538 116:0.0566098 117:0.109845 118:0.150421 119:0.000539839 120:0.544338 121:0.123284 122:0.0543018 123:0.061704 124:0.0880854 125:0.48196 126:0.390132 127:0.408508 128:0.0031064 129:0.00690809 130:0.280541 131:0.137148 132:0.00394773 133:0.284975 134:0.120948 136:0.1266 137:0.0565987 138:0.135966 139:0.083999 140:0.100244 141:0.00566988 142:0.00156208 143:0.053882 144:0.236426 145:0.271952 146:0.0776686 147:0.0350849 148:0.0471674 149:0.121184 150:0.47274 152:0.0843905 153:0.0212831 154:0.103396 155:0.0391351 156:0.140588 157:0.0773689 158:0.0255085 159:0.139482 160:0.211119 161:0.00204257 162:0.144682 163:0.0224975 164:0.148085 165:0.453516 166:0.215353 167:0.00164654 168:0.0415921 169:0.0287412 170:0.0239958 171:0.0018377 173:8.21917e-005 174:0.0636416 175:0.222682 176:0.0337726 178:0.110923 179:0.0116276 180:0.265244 181:0.132233 182:0.000705107 183:0.178449 184:7.71198e-005 185:0.123665 186:0.00636225 187:0.115733 188:0.00827497 189:0.20513 190:0.0175077 191:0.482269 192:0.317784 194:0.00327043 196:0.00984412 197:0.394139 198:0.0107813 199:0.00313759 
0 0.1341738769909513 0 0:0.290225 1:0.00358315 2:0.167711 3:0.33837 4:0.0848903 5:0.0705251 6:0.0172565 7:0.274251 8:0.0326089 9:0.0133834 10:0.0953126 11:0.0161527 12:0.0429974 13:0.163838 14:0.0799235 15:0.0878726 16:0.0641055 17:0.0194921 18:0.0167346 19:0.343177 20:0.168846 21:0.0205676 22:0.189382 23:0.311806 24:0.0195004 25:0.0853628 26:0.157998 27:0.0439532 28:0.095758 29:0.122321 30:0.0305303 31:0.0274665 32:0.0140855 33:0.00606422 34:0.0795239 35:0.0104827 36:0.164378 37:0.374311 39:0.198643 40:0.256738 41:0.271089 42:0.0641972 43:0.260838 44:0.0724075 45:0.00152562 46:0.0837015 47:0.330609 48:0.311806 49:0.163423 50:0.24077 51:0.0284436 52:0.104686 53:0.000895684 54:0.269891 55:0.36063 56:0.0344651 57:0.161738 58:0.0351119 59:0.118794 60:0.0530647 61:0.101975 62:0.0348155 63:0.0248264 64:0.0962718 65:0.0317142 66:0.288176 67:0.118896 68:0.0346134 69:0.179859 70:0.0232507 71:0.000900148 72:0.0592549 73:0.0678808 74:0.184806 75:0.0228913 76:0.0319627 77:0.0815034 78:0.126491 79:0.155253 80:0.330609 81:0.358656 82:0.365513 83:0.138785 84:0.0935893 85:0.00206209 86:0.0574892 87:0.233585 88:0.263129 89:0.0711751 90:0.0382733 91:0.044304 92:0.296914 93:0.0122251 94:0.0123232 95:0.0240845 96:0.000755809 97:0.327638 98:0.00189322 99:0.358656 100:0.10156 101:0.125719 102:0.0574925 103:0.0924539 104:0.061599 105:0.268607 106:0.41004 107:0.0325557 108:0.0089253 109:0.00856664 110:0.0935876 111:0.0450725 112:0.10897 113:0.134927 114:0.242484 115:0.00579996 116:0.0304991 117:0.36063 118:0.36063 119:0.0216234 120:0.308084 121:0.179511 122:0.311806 123:0.115653 124:0.311644 125:0.242743 126:0.171848 127:0.292893 128:0.0416004 129:0.284473 130:0.369642 131:0.378747 132:0.00716239 133:0.380088 134:0.086549 135:0.00878633 136:0.0161093 137:0.146605 138:0.0975541 139:0.287629 140:0.119211 141:0.134432 142:0.102344 143:0.0448315 144:0.101503 145:0.245983 146:0.0284998 147:0.344984 148:0.00295708 149:0.284881 150:0.387294 151:0.0612363 152:0.180982 153:0.183654 154:0.0652133 155:0.0214977 156:0.192003 157:0.28405 158:0.00191848 159:0.18696 160:0.330609 161:0.00629851 162:0.308418 163:0.0236917 164:0.0616492 165:0.115109 166:0.0858683 167:0.0654332 168:0.0652959 169:0.0236994 170:0.0231957 171:0.0904493 172:0.063822 173:0.0899232 174:0.0115185 175:0.0736328 176:0.0825421 177:0.00455567 178:0.0341567 179:0.0142769 180:0.00838161 181:0.0388129 182:0.00657219 183:0.380088 184:0.0341983 185:0.0760333 186:0.00194233 187:0.275601 188:0.155954 189:0.33837 190:0.0386872 191:0.365513 192:0.225753 193:0.0438083 194:0.0307603 195:0.00189872 196:0.299694 197:0.242664 198:0.123252 199:0.0689038 
0 0 0.2682846398405224 0:0.0971904 1:0.00422219 2:0.0926207 3:0.205999 4:0.0225438 5:0.0560692 6:0.13146 7:0.184377 8:0.0198786 9:0.0181252 10:0.165552 11:0.190104 12:0.1238 13:0.0320625 14:0.00586497 15:0.219379 16:0.0817236 17:0.0570809 18:0.06477 19:0.0773017 20:0.136901 21:0.063331 22:0.209036 23:0.0154252 24:0.288282 25:0.0311466 26:0.397286 27:0.325128 28:0.00068622 29:0.025132 30:0.00169923 31:0.0509272 32:0.000863662 33:0.127313 34:0.0730592 35:0.0642829 36:0.204289 37:0.249184 38:0.0239058 39:0.0331518 40:0.154883 41:0.129773 42:0.322145 43:0.232414 44:0.396114 45:0.00509188 46:0.0232609 47:0.245541 48:0.214575 49:0.00369474 50:0.354783 51:0.109616 52:0.237448 54:0.264886 55:0.377253 56:0.412461 57:0.217461 58:0.161356 59:0.0390571 60:0.126997 61:0.147051 62:0.0263124 63:0.185004 64:0.00842994 65:0.0654747 66:0.121552 67:0.195218 68:0.0571494 69:0.174398 70:0.0727634 71:0.0301898 72:0.023741 73:0.0571699 74:0.223985 75:0.000213576 76:0.125151 77:0.0148194 78:0.00559027 79:0.120435 80:0.170719 81:0.352642 82:0.290583 83:0.00133615 84:0.0580685 86:0.356254 87:0.213681 88:0.153044 89:0.107139 90:0.0182418 91:0.0136488 92:0.126824 94:0.109001 95:0.0827587 96:0.0743553 97:0.0643307 98:0.00222027 99:0.352642 100:0.0619077 101:0.0209984 102:0.105778 105:0.352935 106:0.342509 107:0.105596 108:0.122899 109:0.0489546 110:0.508573 111:0.332598 112:0.372771 113:0.0326127 114:0.396114 115:0.12323 116:0.236773 117:0.204571 118:0.377253 119:0.0359282 120:0.413599 121:0.0890248 122:0.196834 124:0.368441 125:0.333579 126:0.369876 127:0.354783 128:0.00522837 129:0.041798 130:0.362231 131:0.076608 132:0.0426119 133:0.368475 135:0.0757872 136:0.102734 137:0.0420929 138:0.246975 139:0.00500349 140:0.309027 141:0.032578 143:0.342509 144:0.356747 145:0.121163 146:0.12643 147:0.0156926 148:0.0987493 149:0.372771 150:0.372771 151:0.0116279 152:0.0281535 154:0.0503267 155:0.127935 156:0.0224426 157:0.0682103 158:0.0405084 159:0.0508963 160:0.281528 161:0.0997586 162:0.344579 163:0.0124687 164:0.0470795 165:0.0118504 166:0.00777858 167:0.00115286 168:0.0476529 169:0.0295527 170:0.122497 172:0.176294 173:0.0382984 174:0.0363359 175:0.408727 176:0.00766097 177:0.0392432 178:0.271905 179:0.000709837 180:0.0052703 181:0.35901 182:0.0067479 183:0.368475 184:0.0226704 185:0.0496026 186:0.0109986 187:0.321615 188:0.0842584 189:0.0931947 190:0.01343 191:0.368441 192:0.106541 194:0.0382671 195:0.00374159 196:0.0692 197:0.340165 198:0.0179769 199:0.116831 
0 0 0.1262492514102721 0:0.0934554 1:0.0467857 2:0.125556 3:0.0265704 4:0.219539 5:0.090198 6:0.180796 7:0.00828541 8:0.000605719 9:0.0866347 10:0.226361 11:0.0440306 12:0.321785 13:0.187547 14:0.000469946 15:0.190028 16:0.400557 17:0.172927 18:0.133842 19:0.19022 20:0.055643 21:0.0512342 22:0.206258 23:0.251461 24:0.0542648 25:0.0479798 26:0.240142 27:0.030646 28:0.0283358 29:0.18041 30:0.0094825 31:0.0134869 32:0.0369919 33:0.0649351 34:0.124468 35:0.102742 36:0.144166 37:0.233343 38:0.196985 39:0.0833676 40:0.191171 41:0.00996427 42:0.0607806 43:0.193138 44:0.114752 45:0.0758845 46:0.0530626 47:0.155421 48:0.376838 49:0.256849 50:0.0860133 51:0.0998995 52:0.21351 53:0.0105327 54:0.246239 55:0.364279 56:0.321785 57:0.0130938 58:0.311104 59:0.336777 60:0.0213576 61:0.198683 62:0.00342837 63:0.00492154 64:0.118702 65:0.0728249 66:0.00714677 67:0.152869 69:0.182695 71:0.0830884 72:0.353061 73:0.14842 74:0.0694749 75:0.00461476 76:0.0655062 77:0.220558 79:0.400197 80:0.0762705 81:0.359033 82:0.160265 84:0.152088 85:0.0264932 86:0.0433293 87:0.2768 88:0.0125065 89:0.144569 90:0.259082 91:0.161929 92:0.321008 94:0.116342 95:0.401984 96:0.020459 97:0.17196 98:0.0227219 99:0.359033 100:0.128021 101:0.0254379 102:0.376838 103:0.0710221 104:0.112783 105:0.39449 106:0.0888721 107:0.0203677 108:0.0682881 109:0.237438 110:0.423985 111:0.271436 112:0.120046 113:0.154695 114:0.288878 115:0.0256549 116:0.0199235 117:0.0843341 118:0.105492 119:0.0249396 120:0.0930706 121:0.275917 122:0.113455 123:0.0025736 124:0.0689293 125:0.144893 126:0.324533 127:0.346207 128:0.0392977 129:0.0970081 130:0.215466 131:0.194799 132:0.00655126 133:0.146633 134:0.0449198 135:0.0506473 136:0.0167921 137:0.354848 138:0.376838 139:0.121014 140:0.39449 141:0.00442827 143:0.294876 144:0.354211 145:0.185183 146:0.0170848 147:0.180864 148:0.102678 149:0.338801 150:0.377039 151:0.0194045 152:0.215968 153:0.109669 154:0.0447622 155:0.0626881 157:0.0849172 158:0.367801 159:0.321785 160:0.0699462 161:0.112608 162:0.159128 163:0.110087 164:0.139714 165:0.0399577 166:0.0106385 167:0.0270939 168:0.294876 169:0.276498 170:0.0786826 171:0.000397324 172:0.00282488 173:0.00347178 174:0.0145445 175:0.00453407 176:0.00382186 177:0.00439834 178:0.262584 179:0.0171973 180:0.311805 181:0.0696892 182:0.0154333 183:0.0742444 184:0.00596244 185:0.171096 186:0.0439449 187:0.0463883 188:0.0503901 189:0.0185845 190:0.0860084 191:0.193545 192:0.0292189 194:0.0803156 196:0.0422351 197:0.324579 198:0.0191733 199:0.00350649 
0 0.02511890378340727 0 0:0.0210169 1:0.0247241 2:0.0438762 3:0.0602527 4:0.123689 5:0.106988 6:0.0221234 7:0.0228789 8:0.0193845 9:0.0004906 10:0.101801 11:0.0183566 12:0.0601691 13:0.0354104 14:0.0305011 15:0.0610688 16:0.00639805 17:0.0256373 18:0.0045389 19:0.0564546 20:0.0530438 21:0.0528867 22:0.0857005 23:0.0960089 24:0.136158 25:0.0892828 26:0.143164 27:0.112374 28:0.0054053 29:0.0897334 30:0.111506 31:0.0830975 32:0.0289797 33:0.054906 34:0.103929 35:0.290182 36:0.204818 37:0.0230645 38:0.214845 39:0.285289 40:0.00455404 41:0.0409329 42:0.0856877 43:0.459723 44:0.0609376 45:0.0603998 46:0.0102814 47:0.190229 48:0.307223 49:0.314623 50:0.0888394 51:0.309413 52:0.0617239 53:0.0573645 54:0.231552 55:0.0393312 56:0.260113 57:0.339315 58:0.155913 59:0.0212571 60:0.149379 61:0.0425028 62:0.0741095 63:0.132073 64:0.0144325 65:0.0418768 66:0.039929 67:0.217712 68:0.0886074 69:0.198918 70:0.0308581 71:0.196486 72:0.0265907 73:0.0766318 74:0.221262 75:0.0509422 76:0.08314 77:0.0813563 78:0.263901 79:0.0024592 80:0.00976035 81:0.172483 82:0.0401592 83:0.113047 84:0.0941194 85:0.00642586 86:0.0464182 87:0.236796 88:0.0527661 89:0.162493 90:0.29136 91:0.221921 92:0.243596 93:0.00628077 94:0.078271 95:0.0725843 96:0.244985 97:0.0609658 98:0.268633 99:0.307767 100:0.122941 101:0.146437 102:0.149243 103:0.00512939 104:0.208971 105:0.141327 106:0.141942 107:0.181127 108:0.085827 109:0.00171022 110:0.130147 111:0.342789 112:0.279036 113:0.0601486 114:0.144663 115:0.3237 116:0.0459031 117:0.0159039 118:0.171281 119:0.0247819 120:0.331423 121:0.0969907 122:0.307223 123:0.036149 124:0.326719 125:0.29136 126:0.0761941 127:0.387847 128:0.0385056 129:0.220659 130:0.0138847 131:0.191197 132:0.0259768 133:0.0141364 134:0.098499 135:0.0460292 136:0.00635978 137:0.208936 138:0.224412 139:0.146162 140:0.165504 141:0.34414 142:0.0348398 143:0.307517 144:0.413532 145:0.0265817 146:0.0941016 147:0.140661 148:0.390404 149:0.333042 150:0.351171 151:0.0033507 152:0.348194 153:0.0284561 154:0.147412 155:0.371348 156:0.328075 157:0.102086 158:0.0703992 159:0.0669002 160:0.216685 161:0.0802358 162:0.307767 163:0.307767 164:0.339315 165:0.0410066 166:0.0161682 167:0.314623 168:0.307517 169:0.266826 170:0.00235878 171:0.0118821 172:0.243871 173:0.0610886 174:0.128495 175:0.22198 176:0.00822447 177:0.0391809 178:0.026811 179:0.343845 180:0.0214651 181:0.00223827 182:0.344786 183:0.00360052 184:0.0420812 185:0.00126542 186:0.0907118 187:0.112947 188:0.0526794 189:0.181322 190:0.326719 191:0.286984 192:0.0560882 193:0.0389539 194:0.000805858 195:0.0109852 196:0.0300788 197:0.387847 198:0.0170334 199:0.0376187 
0 0 0.01063811647402702 0:0.00702272 1:0.0289979 2:0.21163 3:0.0399265 4:0.0564763 5:0.124327 6:0.0610581 7:0.047497 8:0.0948019 9:0.0301089 10:0.141739 11:0.0591961 12:0.136335 13:0.233688 14:0.111696 15:0.109679 16:0.12872 17:0.207023 18:0.0235615 19:0.060744 20:0.130872 21:0.0614166 22:0.350451 23:0.219586 24:0.182442 25:0.0363837 26:0.071744 27:0.0654963 28:0.129756 29:0.0985833 30:0.0343882 31:0.312826 32:0.0162456 33:0.12387 34:0.0910641 35:0.00315355 36:0.0406341 37:0.352921 38:0.00062358 39:0.0984263 40:0.0652083 41:0.12565 42:0.0998629 43:0.0533463 44:0.231417 46:0.42482 47:0.272228 48:0.159891 49:0.0744381 50:0.0497274 51:0.00606021 52:0.0535405 53:0.000571231 54:0.0493655 55:0.362572 56:0.183325 57:0.148785 58:0.0110311 59:0.367448 60:0.0887164 61:0.166894 62:0.0503642 63:0.0021301 64:0.0651424 65:0.139911 66:0.0190547 67:0.113128 68:0.064448 69:0.058861 70:0.00601934 71:0.00713483 72:0.191146 73:0.0746052 74:0.0302481 76:0.119434 77:0.0240727 78:0.0564616 79:0.258544 80:0.0387071 81:0.353461 82:0.0695301 83:0.00957778 84:0.16547 85:0.000181145 86:0.0660071 87:0.0502732 88:0.0591517 89:0.191669 90:0.182526 91:0.185769 92:0.190354 94:0.102653 95:0.01199 96:0.0815522 97:0.220563 98:0.146307 99:0.321539 100:0.291935 101:0.0109836 102:0.378625 103:0.177295 104:0.0765486 105:0.259343 106:0.189117 107:0.0936967 108:0.0238209 109:0.0352307 110:0.0995436 111:0.0576952 112:0.222855 113:0.0245165 114:0.172726 115:0.0120445 116:0.00258332 117:0.275687 118:0.362572 119:0.111156 120:0.300605 121:0.0602087 122:0.0354896 123:0.115011 124:0.0661243 125:0.382116 126:0.0658957 127:0.3757 128:0.334456 129:0.0915695 130:0.425262 131:0.148196 132:0.0511264 133:0.453396 134:0.178204 135:0.0937657 136:0.347592 137:0.0620694 138:0.345603 139:0.137366 140:0.24733 141:0.320445 142:0.0121008 143:0.0425097 144:0.337113 145:0.272362 146:0.292672 147:0.0962944 148:0.00693596 149:0.358768 150:0.358768 151:0.474014 152:0.00165465 153:0.0863275 154:0.00673475 155:0.00326832 156:0.0265846 157:0.0594572 158:0.00846917 159:0.270159 160:0.0453531 161:0.300605 162:0.353461 163:0.117545 164:0.347592 165:0.0518066 166:0.0226991 167:0.0156911 168:0.199279 169:0.126211 170:0.00985132 171:0.00136396 172:0.0279207 173:0.0208911 174:0.018571 175:0.0809711 176:0.0468523 177:0.0213369 178:0.0348075 179:0.00582309 180:0.000904703 181:0.0381558 182:0.00244679 183:0.369074 184:0.0955611 185:0.0517996 186:0.00520364 187:0.0320371 188:0.106809 189:0.0385051 190:0.0674106 191:0.315258 192:0.179408 193:0.00391046 194:0.0927017 195:0.0827627 196:0.361468 197:0.374812 198:0.0076857 199:0.00116403 
0 0.104177349028351 0 0:0.226778 1:0.0460399 2:0.0450633 3:0.292456 4:0.0160489 6:0.242595 7:0.00554288 8:0.0678089 9:0.07241 10:0.0350632 11:0.0584866 12:0.294101 13:0.124315 14:0.0340299 15:0.0316374 16:0.144364 17:0.612772 18:0.130844 19:0.000303249 20:0.170341 21:1.84372e-006 22:0.0349225 23:0.0151054 24:0.0595896 25:0.00177554 26:0.0407752 27:0.00850321 28:0.177959 29:0.194823 30:0.000376536 31:0.137439 32:0.00523294 33:0.0979488 34:0.0170889 35:0.213605 36:0.0278874 37:0.00460228 38:0.0573285 40:0.248297 41:0.0342665 42:0.0806575 43:0.0357225 44:0.0118838 45:0.00953826 46:0.0533772 47:0.424827 48:0.110138 49:0.0522344 50:0.313248 51:0.109082 52:0.252162 53:0.00487041 54:0.000347418 55:0.0146189 56:0.316202 57:0.0343982 58:0.000261136 59:0.141302 60:0.0123083 61:0.000550217 62:0.0556544 63:0.042075 64:0.0264885 65:0.0477963 66:0.0272097 67:0.230233 68:0.0704738 69:0.325355 70:0.05573 71:0.0753556 72:0.00407578 73:0.0192282 74:0.234152 75:0.122874 76:0.109259 77:0.105479 78:0.0534187 79:0.44562 80:0.279078 81:0.00653533 82:0.125002 83:0.00494157 84:0.0607654 86:0.00301463 87:0.0216695 88:0.148268 89:0.0711042 90:0.022094 91:0.0081736 92:0.28547 94:0.0205872 95:0.0167438 96:0.0343418 97:0.0761616 98:0.252113 99:0.0844516 100:0.00619538 101:0.061169 102:0.0781933 103:0.232472 104:0.0250034 105:0.0864454 106:0.159483 107:0.0334142 108:0.0131768 109:0.103712 110:0.0330202 111:0.424798 112:0.107657 113:0.0339674 114:0.00188624 115:0.163868 116:0.318407 117:0.0111611 118:0.0107393 119:0.320438 120:0.424827 121:0.083786 122:0.307983 123:0.13548 124:0.158065 125:0.246047 126:0.435315 127:0.241802 128:0.091734 129:0.253937 130:0.0162827 131:0.0911593 132:0.0839775 133:0.012791 134:0.087584 135:0.060617 136:0.00408303 137:0.726495 138:0.0791751 139:0.00446125 140:0.0641812 141:0.0132966 142:0.0292058 143:0.00570483 144:0.398358 145:0.413022 146:0.120945 147:0.0005721 148:0.0246301 149:0.372871 150:0.426012 151:0.0393716 152:0.0103508 153:0.0521186 154:0.0368041 155:0.37743 156:0.0757611 157:0.0146806 158:0.00027282 159:0.124735 160:0.424827 161:0.00861224 162:0.0727114 163:0.053552 164:0.136949 165:0.0378964 166:0.121377 167:0.0531592 168:0.00214399 169:0.0501393 170:0.112732 172:0.312878 173:0.211958 174:0.0842378 175:0.116601 176:0.00523214 177:0.0330014 178:0.032728 179:0.0346413 181:0.448958 182:0.0206526 183:0.000979083 184:0.187284 185:0.0416734 186:0.0318621 187:0.468812 188:0.0375954 189:0.100868 190:0.112983 191:0.462406 192:0.0168798 193:0.00410049 194:0.0402585 195:0.0405857 196:0.367547 197:0.198726 199:0.0165744 
0 0 0.002796659075055322 0:0.0999891 1:0.0615093 2:0.215328 3:0.0109821 4:0.0384491 5:0.0191615 6:0.0745687 7:0.185835 8:0.0924835 9:0.330757 10:0.113985 11:0.0184321 12:0.0439215 13:0.353526 14:0.0483698 15:0.0710583 16:0.0600607 17:0.16612 18:0.202844 19:0.0272309 20:0.0655306 21:0.01797 22:0.113072 23:0.307681 24:0.116723 25:0.0461286 26:0.0489179 27:0.0320693 28:0.276553 29:0.259218 30:0.0513741 31:0.214205 32:0.0244015 33:0.312141 34:0.173286 35:0.00180543 36:0.290886 37:0.35932 38:0.00188278 39:0.0340077 40:0.126567 41:0.158247 42:0.0347399 43:0.000335355 44:0.0996342 45:0.0405023 46:0.247962 47:0.315113 48:0.307681 49:0.116876 50:0.0493006 51:0.0526733 52:0.0888188 54:0.0325529 55:0.352229 56:0.0589156 57:0.0802012 58:0.0376055 59:0.21158 60:0.0607479 61:0.0491166 62:0.139842 63:0.0506505 64:0.0530626 65:0.238814 66:0.117338 67:0.106791 68:0.0401628 69:0.0272402 70:0.0213456 71:0.0286443 72:0.0292546 73:0.0695561 74:0.0835194 75:0.062786 76:0.0523811 77:0.0245794 78:0.0176657 79:0.0305805 80:0.0815968 81:0.342528 82:0.157648 83:0.0882919 84:0.0635602 85:0.0127735 86:0.0382494 87:0.0320955 88:0.206545 89:0.240997 90:0.350236 91:0.082938 92:0.301447 93:0.108259 94:0.0388491 95:0.00942102 96:0.320242 97:0.325643 98:0.0985279 99:0.342528 100:0.116934 101:0.0920916 102:0.307681 103:0.2066 104:0.150514 105:0.323324 106:0.237401 107:0.216826 108:0.281941 109:0.142829 110:0.00675852 111:0.0345403 112:0.220006 113:0.0176589 114:0.0993223 115:0.0173148 116:0.0692515 117:0.352229 118:0.352229 119:0.121842 120:0.338084 121:0.32766 122:0.00793729 123:0.104501 124:0.187156 125:0.244287 126:0.0394465 127:0.212927 128:0.339775 129:0.210591 130:0.441861 131:0.389123 132:0.0263399 133:0.423064 134:0.17108 135:0.0951225 136:0.122559 137:0.285687 138:0.307681 139:0.216503 140:0.323324 141:0.0985654 142:0.189925 143:0.138169 144:0.342017 145:0.225533 146:0.152599 147:0.0115911 148:0.00103069 149:0.363234 150:0.363234 151:0.0935962 152:0.00829256 153:0.171548 154:0.0128961 155:0.010858 156:0.0689253 157:0.168472 158:0.0222982 159:0.318301 160:0.146524 161:0.338084 162:0.342528 163:0.104752 164:0.29094 165:0.0282167 166:0.00767212 167:0.0261283 168:0.0930528 169:0.211443 170:0.165678 171:0.00986582 172:0.113138 173:0.156435 174:0.060295 175:0.0385251 176:0.00793007 177:0.0682212 178:0.0210097 180:0.0214548 181:0.186587 183:0.423064 184:0.0858085 185:0.0546098 186:0.00305781 187:0.0114879 188:0.120925 189:0.125 190:0.100977 191:0.321364 192:0.214706 193:0.126344 194:0.168316 195:0.314919 196:0.335819 197:0.131657 198:0.116508 199:0.00289978 
0 0 0.0206827036995476 0:0.113874 1:0.0200866 2:0.140389 3:0.0346272 4:0.0417313 5:0.0584991 6:0.169002 7:0.132045 8:0.0787982 9:0.12789 10:0.324507 11:0.042703 12:0.0698411 13:0.357228 14:0.0895813 15:0.0975225 16:0.0856852 17:0.320482 18:0.104226 19:0.0109062 20:0.147252 21:0.0320325 22:0.0315952 23:0.118452 24:0.0343219 25:0.0199608 26:0.04795 27:0.0709695 28:0.228335 29:0.0683263 30:0.08159 31:0.322849 32:0.0281541 33:0.352526 34:0.0577319 35:0.00178582 36:0.324507 37:0.351574 38:3.72045e-005 39:0.158316 40:0.0631535 41:0.135941 42:0.104582 43:0.0302395 44:0.0121909 45:0.000175524 46:0.254844 47:0.194937 48:0.138691 49:0.302882 50:0.0637622 51:0.135878 52:0.0593391 53:0.00444508 54:0.0124008 55:0.352831 56:0.249551 57:0.0900574 58:0.0700635 59:0.131042 60:0.0774156 61:0.00603808 62:0.168371 63:0.0139249 64:0.00925763 65:0.240173 66:0.161847 67:0.0350956 68:0.0219875 69:0.159203 70:0.0899617 71:0.00666604 72:0.0189617 73:0.146238 74:0.0111774 75:0.104819 76:0.0686438 77:0.0359845 78:0.0280142 79:0.223332 80:0.0344582 81:0.355539 82:0.06786 83:0.0585256 84:0.203056 85:0.0031623 86:0.0591578 87:0.0297976 88:0.154214 89:0.380181 90:0.211051 91:0.32679 92:0.141661 93:0.0464828 94:0.0578727 95:0.0199314 96:0.0230449 97:0.357228 98:0.0564708 99:0.355539 100:0.104845 101:0.0907422 102:0.166517 103:0.180791 104:0.0544601 105:0.291844 106:0.340869 107:0.346457 108:0.16748 109:0.105337 110:0.0934349 111:0.0420346 112:0.280223 113:0.0357372 114:0.0421261 115:0.00898769 116:0.247697 117:0.352831 118:0.352831 119:0.114742 120:0.321855 121:0.223298 122:0.144349 123:0.351816 124:0.190851 125:0.195262 126:0.087826 127:0.27604 128:0.342699 129:0.300738 130:0.435055 131:0.345931 132:0.106523 133:0.448187 134:0.347725 135:0.286527 136:0.175764 137:0.241785 138:0.335146 139:0.221057 140:0.289679 141:0.137779 142:0.00741176 143:0.0622234 144:0.217763 145:0.373794 146:0.202336 147:0.0123237 148:0.0114055 149:0.343256 150:0.343256 151:0.0802115 152:0.0181514 153:0.0867775 154:0.0268821 155:0.00243798 156:0.0326083 157:0.020372 158:0.00044707 159:0.290245 160:0.0932829 161:0.13584 162:0.355539 163:0.159412 164:0.331821 165:0.114638 166:0.218692 167:0.0307114 168:0.303783 169:0.302859 170:0.0633147 171:0.00495462 172:0.0608174 173:0.0531442 174:0.00465096 175:0.0450559 176:0.0190049 177:0.0455797 178:0.0492253 179:0.0101777 180:0.0183432 181:0.199498 182:0.00337625 183:0.448187 184:0.154318 185:0.0491152 186:0.016494 187:0.0901947 188:0.073106 189:0.132793 190:0.139236 191:0.315727 192:0.171298 193:0.0320399 194:0.07317 195:0.135317 196:0.177754 197:0.363291 198:0.1086 199:0.0228155 
0 0.4786910157402149 0 0:0.307641 1:0.000509679 2:0.374724 3:0.373974 4:0.0718113 5:0.0321416 6:0.156107 7:0.0820728 8:0.0294518 9:0.0534377 10:0.152215 11:0.221683 12:0.088822 13:0.31947 14:0.0606678 15:0.112178 16:0.0324073 17:0.0953223 18:0.298269 19:0.0230214 20:0.000840048 21:0.0151669 22:0.166045 23:0.00646741 24:0.0973523 25:0.00851734 26:0.0299256 27:0.0142914 28:0.00880813 29:0.0140158 30:0.0570263 31:0.0119631 32:0.0402383 33:0.374724 34:0.225626 35:0.0171329 36:0.31498 37:0.235296 38:0.000391039 39:0.0898307 40:0.173758 41:0.183061 43:0.343597 44:0.135263 45:0.0115899 46:0.31947 47:0.20172 48:0.402925 49:0.0877652 51:0.0422939 52:0.0608756 53:0.0363314 54:0.027976 55:0.404451 56:0.0460305 57:0.346753 58:0.217137 59:0.0775348 60:0.0957393 61:0.128615 62:0.00422917 63:0.00241465 64:0.00307686 65:0.367157 66:0.250816 67:0.0588004 68:0.0359803 69:0.155455 70:0.0126777 71:0.0162723 72:0.0108831 73:0.0215942 74:0.174928 75:0.144739 76:0.0029648 77:0.0572207 78:0.0552214 79:0.0581872 80:0.391184 81:0.272318 82:0.0973657 83:0.0671706 84:0.0636231 85:0.0052587 86:0.0261221 87:0.0634133 88:0.402925 89:0.0208994 90:0.347792 91:0.0423737 92:0.381239 94:0.0908796 95:0.0641794 96:0.00311056 97:0.31947 98:0.00315255 99:0.340312 100:0.346753 101:0.00438192 102:0.03329 103:0.0438432 104:0.00680755 105:0.326151 106:0.207547 107:0.238294 108:0.14477 109:0.223494 110:0.343597 111:0.00945338 112:0.0386776 113:0.076881 114:0.039996 116:0.134891 117:0.191578 118:0.226437 119:0.0167951 120:0.391184 121:0.346753 122:0.169308 123:0.00181013 124:0.265089 125:0.21368 126:0.113039 127:0.204177 128:0.197642 129:0.00239485 130:0.364696 131:0.334761 132:0.000888195 133:0.3255 134:0.0792059 135:0.116833 136:0.171501 137:0.0352754 138:0.0349428 139:0.0003171 140:0.327599 141:0.264913 142:0.131797 143:0.0821743 144:0.261718 145:0.0558591 146:0.0215544 147:0.372244 148:0.372244 149:0.14759 150:0.362564 151:0.00498952 152:0.266605 153:0.099776 154:0.358695 155:0.0068255 156:0.115356 157:0.0505854 159:0.31498 160:0.123234 161:0.00842601 162:0.167063 163:0.0607417 164:0.184886 165:0.014242 166:0.011831 167:0.0760316 168:0.0789553 169:0.0876856 170:0.0684988 171:0.000905451 172:0.0138179 173:0.0368583 174:0.0279375 175:0.00852071 176:0.0441461 177:0.0337987 178:0.0607512 179:0.00549478 180:0.0341454 181:0.0864147 183:0.305259 184:0.0499265 185:0.339865 186:0.00464341 187:0.333387 188:0.373974 189:0.00434885 190:0.0993792 191:0.435697 192:0.0346197 193:0.327599 194:0.093226 196:0.00657128 197:0.209453 198:0.008764 199:0.0109213 
0 0.009404467558704359 0 0:0.202097 1:0.0060224 2:0.125923 3:0.0698721 4:0.0475472 6:0.0144457 7:0.017566 8:0.0488122 9:0.0538592 10:0.00460943 11:0.00669228 12:0.0455003 13:0.00883676 14:0.17399 15:0.0885418 16:0.0834503 18:0.0603247 19:0.00646838 20:0.00622852 22:0.171108 23:0.0687666 25:0.00647937 26:0.0556549 28:0.174506 29:0.0363964 30:0.0298541 31:0.0515763 32:0.0691844 33:0.132245 34:0.27317 35:0.0470857 36:0.202823 37:0.107205 38:0.190218 39:0.0773355 40:0.30355 41:0.0440261 42:0.116911 43:0.00478303 44:0.000381099 45:0.107046 46:0.0132493 47:0.00599058 48:0.0766826 49:0.00805181 50:0.0104605 51:0.0268852 52:0.0537635 53:0.0159751 54:0.00778893 55:0.0310402 56:0.00834176 57:0.13241 58:0.011355 59:0.00223453 60:0.036412 61:0.159639 62:0.0164062 64:0.00056192 65:0.0754538 66:0.02366 67:0.0011355 68:0.134493 69:0.206274 70:0.0198878 71:0.20879 73:0.121149 74:0.215472 75:0.00255665 76:0.0697779 77:0.0555408 78:0.169619 79:0.117395 80:0.389351 81:0.0559564 82:0.0271372 83:0.0190906 84:0.0054928 85:0.0365032 86:0.0011127 87:0.0212973 88:0.0419047 89:0.00468479 90:0.0352536 91:0.00541158 92:0.383025 93:0.0236546 94:0.0585067 95:0.00805012 96:0.000616699 97:0.0579665 98:0.227033 99:0.170881 100:0.0644146 101:0.142134 102:0.467655 103:0.0952599 104:0.0885009 105:0.361616 106:0.352532 107:0.0236214 108:0.00276203 109:0.00963119 110:0.00147277 111:0.148982 112:0.171975 113:0.09109 114:0.00378986 115:0.187538 116:0.0467634 117:0.0396082 118:0.0345132 120:0.00331507 121:0.197819 122:0.0281242 123:0.0297449 124:0.0593093 125:0.346046 126:0.0384124 127:0.321136 128:0.373973 129:0.00425836 130:0.182607 131:0.300196 132:0.00460752 133:0.0314245 134:0.0683792 135:0.087617 136:0.0444634 137:0.104172 138:0.467655 139:0.101278 140:0.361616 141:0.0317168 142:0.00258114 143:0.00456128 144:0.374287 145:0.378913 146:0.26389 147:0.0356514 148:0.0156158 149:0.130873 150:0.190472 151:0.00688269 152:0.0069165 153:0.00521048 154:0.0734517 155:0.0766512 156:0.159382 157:0.0274081 158:0.00388762 159:0.152205 160:0.110429 161:0.364496 162:0.0750149 163:0.104679 164:0.0971617 165:0.0502647 166:0.0016999 167:0.00363981 168:0.00626123 169:0.00129551 172:0.00530576 173:0.00544322 174:0.0018925 175:0.107951 176:0.0722452 178:0.0779038 179:0.210741 180:0.159183 181:0.129128 182:0.0389081 183:0.0627519 184:0.0262931 185:0.121523 186:0.0292923 187:0.0490409 188:0.043016 189:0.0268396 190:0.0659248 191:0.409431 192:0.252252 193:0.0220045 194:0.019852 195:0.156221 196:0.267193 197:0.151142 199:0.000869294 
0 0.1662106235327872 0 0:0.173538 1:0.136958 2:0.110945 3:0.132966 4:0.0528185 5:2.22209e-005 6:0.0117923 7:0.175339 8:0.00039594 9:0.0311878 10:0.247856 11:0.0984591 12:0.0268387 13:0.0649507 14:0.0113359 15:0.324853 16:0.0555953 17:0.00178059 18:0.0713542 20:0.00146999 21:0.0103892 22:0.0794285 23:0.0261061 24:0.0294197 25:0.00152886 26:0.0823943 27:0.0104048 28:0.218939 29:0.00727645 30:0.000975171 31:0.00100725 32:0.0841722 33:0.00538931 34:0.160494 35:0.049543 36:0.331847 37:0.0874919 38:0.0122977 39:0.132535 40:0.196031 41:0.187658 42:0.176175 43:0.207096 44:0.0477385 45:0.0307858 46:0.0309767 47:0.0191036 48:0.0687508 49:0.0139588 50:0.00325628 51:0.0036919 52:0.0188327 53:0.0325847 54:0.00561465 55:0.0981992 56:0.203046 57:0.166991 58:0.0669995 59:0.424537 60:0.156434 61:0.0200551 62:0.00181417 63:0.00105204 64:0.0548609 65:0.0476697 66:0.0446249 67:0.000201341 68:0.0776263 69:0.0580576 70:0.107103 71:0.0955387 72:0.0104796 73:0.335686 74:0.275682 75:0.0217717 76:0.0916084 77:0.0243881 78:0.050673 79:0.134031 80:0.177232 81:0.0619647 82:0.0904941 83:0.00141028 84:0.155343 85:0.0507767 86:0.000802092 87:0.00829138 88:0.179038 89:0.0377851 90:0.0208954 91:0.0155975 92:0.522539 94:0.0721981 95:0.0593532 96:0.00134895 97:0.180113 98:0.162617 99:0.230249 100:0.11 101:0.0460322 102:0.118339 103:0.19751 104:0.108705 105:0.231675 106:0.471026 107:0.00368978 109:0.0294758 110:0.188197 111:0.0955716 112:0.0672469 113:0.167254 114:0.0970827 115:0.00109332 116:0.35876 117:0.0492571 118:0.122933 120:0.00156213 121:0.108084 122:0.173935 123:0.258294 124:0.15508 125:0.451638 126:0.263343 127:0.372498 128:0.402285 129:0.0601091 130:0.00594355 131:0.30929 132:0.00144 133:0.0237425 134:0.117771 135:0.00898218 136:0.137966 137:0.0214349 138:0.105371 139:0.0320982 140:0.203413 141:0.0094663 143:0.00416162 144:0.449071 145:0.148557 146:0.0586726 147:0.124682 148:0.139395 149:0.135794 150:0.25138 151:0.0816097 152:0.129481 153:0.441284 154:0.271118 155:0.0665417 156:0.0616403 157:0.0433133 158:0.0320891 159:0.12134 160:0.00627418 161:0.23046 162:0.071593 163:0.0199717 164:0.0797824 165:0.161318 166:0.0479562 167:0.0114669 168:0.00323346 169:0.00155957 170:0.00888114 174:0.000335569 175:0.054088 176:0.13617 177:0.0130308 178:0.114162 179:0.159844 180:0.0112015 181:0.557463 182:0.292207 183:0.0216407 185:0.043702 186:0.0202216 187:0.482507 188:0.155469 189:0.0373445 190:0.0255223 191:0.483973 192:0.170419 194:0.0274658 195:0.00159428 196:0.0382361 197:0.263803 199:0.000808646 
-0.1530942784611438 0.08303532063838154 0.1063434259551774 0:0.0502218 1:0.105303 2:0.363726 3:0.0147545 4:0.0165198 5:0.0340427 6:0.0828976 7:0.0320507 8:0.00260002 9:0.0017558 10:0.0681593 11:0.00145294 12:0.0301459 13:0.108979 14:0.0017808 15:0.0862095 16:0.00907673 17:0.160381 18:0.00447795 19:0.0181307 20:0.0741052 21:0.0341005 22:0.327449 23:0.0866003 24:0.174325 25:0.0258206 26:0.411102 27:0.102538 28:0.00496967 29:0.0618711 30:0.465247 31:0.0436015 32:0.536396 33:0.479576 34:0.239501 35:0.0174139 36:0.392102 37:0.0201906 38:0.123408 39:0.0217167 40:0.0350015 41:0.0863562 42:0.401234 43:0.131374 44:0.0630875 45:0.0574187 46:0.359952 47:0.136342 48:0.226764 49:0.303054 50:0.178717 51:0.268575 52:0.478402 53:0.0372363 54:0.149977 55:0.0454374 56:0.196705 57:0.0132263 58:0.370148 59:0.163738 60:0.00284776 61:0.404091 62:0.0281111 63:0.494024 64:0.0921611 65:0.288819 66:0.0471707 67:0.478402 68:0.0107993 69:0.133321 70:0.0611932 71:0.0513199 72:0.0650764 73:0.0332087 74:0.533676 75:0.201645 76:0.157747 77:0.103381 78:0.00764609 79:0.0202934 80:0.016087 81:0.0206825 82:0.00876693 83:0.28297 84:0.357054 85:0.41362 86:0.0804207 87:0.195459 88:0.0318882 89:0.410535 90:0.397093 91:0.361976 92:0.00668796 93:0.179033 94:0.31009 95:0.358258 96:0.0647117 97:0.262178 98:0.0181261 99:0.0725494 100:0.0440944 101:0.531844 102:0.398583 103:0.00489727 104:0.420078 105:0.178065 106:0.00715689 107:0.42905 108:0.281223 109:0.00354521 110:0.227464 111:0.0188727 112:0.0274499 113:0.415406 114:0.27827 115:0.479835 116:0.0517259 117:0.0375628 118:0.0238696 119:0.30206 120:0.288916 121:0.54253 122:0.255458 123:0.0142273 124:0.018334 125:0.0211844 126:0.533676 127:0.207581 128:0.00433252 129:0.0764114 130:0.101807 131:0.295259 132:0.155807 133:0.10692 134:0.336326 135:0.425939 136:0.0106333 137:0.0627771 138:0.164385 139:0.0726659 140:0.0909281 142:0.183934 143:0.147477 144:0.0349419 145:0.0500767 146:0.089881 147:0.0468853 148:0.0752163 149:0.00499547 150:0.00778773 151:0.0289507 152:0.101718 153:0.154179 154:0.174287 156:0.211449 157:0.0975061 158:0.136728 159:0.274437 160:0.264872 161:0.156371 162:0.01141 163:0.222188 164:0.0313934 165:0.221599 166:0.0237553 167:0.341077 168:0.491792 169:0.428673 170:0.00178175 171:0.20444 172:0.000974057 173:0.000495127 174:0.292241 175:0.0662135 176:1.00268e-005 177:0.457164 178:0.163116 179:0.0432812 180:0.271547 181:0.130762 182:0.0768356 183:0.159242 184:0.516099 185:0.05257 186:0.208687 187:0.0318341 188:0.0148107 189:0.0848164 190:0.143996 191:0.00539477 192:0.0210564 193:0.371447 194:0.00432955 195:0.202859 196:0.123492 197:0.085921 198:0.236737 199:0.0709391 
-0.1534667830223314 0.07758546032075016 0.02718724211417801 0:0.0123641 1:0.0118241 2:0.458934 3:0.0859297 4:0.0293599 5:0.0214073 6:0.099853 7:0.0335841 8:0.00337729 9:0.00403481 10:0.165698 11:0.00355319 12:0.142264 13:0.143253 14:0.0132366 15:0.196265 16:0.151069 17:0.201752 18:0.000841199 19:0.047476 20:0.0112967 21:0.0229396 22:0.370697 23:0.0213386 24:0.0630726 25:0.0326702 26:0.307749 27:0.0122499 28:0.0158608 29:0.0916732 30:0.344949 31:0.00970237 32:0.402825 33:0.309683 34:0.29351 35:0.046436 36:0.611993 37:0.06496 38:0.271719 39:0.00587271 40:0.0747356 41:0.0770938 42:0.227206 43:0.0924017 44:0.204312 45:0.0785455 46:0.253241 47:0.106148 48:0.731572 49:0.424945 50:0.0581641 51:0.426196 52:0.456175 53:0.256537 54:0.161518 55:0.071931 56:0.273938 57:0.0501963 58:0.340986 59:0.420927 60:0.120057 61:0.359832 62:0.00697703 63:0.426196 64:0.030562 65:0.320818 66:0.0466715 67:0.456175 68:0.0375962 69:0.0798442 70:0.0632536 71:0.0559371 72:0.0854092 73:0.00479577 74:0.359161 75:0.263506 76:0.0181454 77:0.30088 78:0.0350261 79:0.16784 80:0.0455849 81:0.0127845 82:0.0152175 83:0.254676 84:0.287536 85:0.32434 86:0.0623732 87:0.198964 88:0.20084 89:0.280497 90:0.488572 91:0.127806 92:0.014267 93:0.384185 94:0.174184 95:0.486595 96:0.0764956 97:0.446668 98:0.043773 99:0.00675993 100:0.074624 101:0.39156 102:0.0880232 103:0.106198 104:0.219275 105:0.0131531 106:0.0863585 107:0.196475 108:0.282172 110:0.135718 111:0.199716 112:0.0210282 113:0.277245 114:0.424722 115:0.175352 116:0.0266039 117:0.0326487 118:0.0444308 119:0.446668 120:0.118169 121:0.677264 122:0.168704 123:0.0100604 124:0.00981726 125:0.0489979 126:0.377878 127:0.0182439 128:0.00730577 129:0.232743 130:0.189804 131:0.183525 132:0.22531 133:0.190201 134:0.443974 135:0.134922 136:0.100097 137:0.124162 138:0.0291373 139:0.00383478 140:0.0533965 141:0.00462718 142:0.438568 143:0.406133 144:0.0208552 145:0.103383 146:0.0383639 147:0.0929292 148:0.0862794 149:0.0060444 150:0.0429013 151:0.0666199 152:0.0349679 153:0.17176 154:0.0567906 155:0.0223543 156:0.256984 157:0.012033 158:0.198034 159:0.308459 160:0.0479264 161:0.465375 162:0.0133687 163:0.359401 164:0.125721 165:0.134244 166:0.0107016 167:0.473074 168:0.362226 169:0.277638 170:0.0269525 171:0.233957 172:0.00424649 173:0.00688672 174:0.179622 175:0.016732 176:0.00996683 177:0.0881585 178:0.25209 179:0.0521016 180:0.341489 181:0.0592862 182:0.126791 183:0.11597 184:0.442419 185:0.0804321 186:0.317491 187:0.0516612 188:0.0737933 189:0.00809815 190:0.14858 191:0.0111391 192:0.050188 193:0.286919 194:0.039005 195:0.317254 196:0.419823 197:0.0905014 198:0.298542 199:0.00717203 
