svm_type c_svc
kernel_type linear
nr_class 3
total_sv 72
rho -0.489233 0.00575623 -0.522115
label 0 12300 20500
probA -6.5689 -7.62333 -3.77667
probB -2.32016 -3.35498 0.321434
nr_sv 3 38 31
SV
0.05677245758003053 0.05976989419686343 0:0.0115405 1:0.0416755 2:0.0594813 3:0.128851 4:0.000362211 5:0.354139 6:0.0195398 7:0.0054597 8:0.00136774 9:0.00635306 10:0.369057 11:0.350014 12:0.00172811 13:0.22467 14:0.00240779 15:0.344501 16:0.533103 17:0.0223678 18:0.385438 19:0.361902 20:0.35382 21:0.469991 22:0.180744 23:0.0824175 24:0.0665341 25:0.342164 26:0.0140941 28:0.367737 29:0.0120447 30:0.000159695 31:0.0120581 32:0.35382 33:0.00228249 34:0.0160723 35:0.000472416 36:0.0132529 37:0.0144265 38:0.0754822 39:0.354442 40:0.000990336 41:0.00155626 42:0.0249276 43:0.0191971 45:0.295227 46:0.00593979 47:0.01317 48:0.0023002 49:0.00412841 50:0.0197353 51:0.0255024 52:0.273779 53:0.369057 54:0.00064159 55:0.00596258 56:0.00706942 57:0.154568 58:0.00400149 60:0.0398627 61:0.436497 62:0.157243 63:0.00161964 64:0.350945 65:0.385953 66:0.0837219 67:0.0409676 68:0.00211504 69:0.0116753 70:0.378255 71:0.0016538 72:0.360305 73:0.00611685 74:0.0580516 75:0.0432004 77:0.0265105 78:0.00359225 79:0.0198194 80:0.0275296 82:0.301785 83:0.0072369 84:0.0252418 85:0.0224116 87:0.0358045 88:0.274158 89:0.325107 90:0.000328983 91:0.00138353 93:0.027244 94:0.392488 95:0.019527 96:0.332943 97:0.443804 98:0.0252429 99:0.350945 100:0.000671264 101:0.157001 102:0.0100086 103:0.0108401 104:0.0140223 105:0.0335911 107:0.350205 108:0.257421 109:0.0333501 110:7.30648e-006 112:0.00836515 113:1.25617e-005 114:0.31639 115:0.00898119 116:0.201211 117:0.354215 118:0.0111593 119:0.00574698 120:0.0260577 121:0.00124866 122:0.00229203 123:0.303772 124:0.338081 125:0.0320492 126:0.00263922 127:0.355958 128:0.0538737 129:0.286862 130:0.0697829 131:0.0948301 132:0.511502 133:0.365221 134:0.365221 135:0.00182748 136:0.00182748 138:0.0054124 139:0.152944 140:0.0332247 141:0.0140557 142:0.451502 143:0.00182766 144:0.34194 145:0.00918551 146:0.0145576 147:0.361902 148:0.000163564 149:0.35382 150:0.0260049 151:0.00164429 152:0.030049 153:0.340313 154:0.0115152 155:0.337324 156:0.0403428 157:0.00254509 158:0.00196795 159:0.392488 160:0.392488 161:0.0388195 162:0.181246 163:0.336786 164:0.0253816 165:0.349362 166:0.144588 167:0.0196397 168:0.0398149 169:0.00037039 170:0.150226 171:0.00609316 172:0.0170549 173:0.105495 174:0.351653 175:4.69189e-005 176:0.0984485 178:7.73203e-006 179:0.0385221 180:0.000897641 181:0.00463574 182:0.350205 183:0.00270168 184:0.00365354 185:1.21775e-005 186:0.0103522 188:0.332352 189:0.0204848 190:0.023609 191:0.00158355 192:0.360305 193:0.360305 194:0.0547947 195:0.0382188 196:0.484283 197:0.0354925 198:0.0123473 200:0.00505346 201:0.00516386 203:0.0743076 204:0.205024 206:0.00326206 207:0.0137232 208:0.121617 209:0.0506142 210:0.127057 211:0.076373 212:0.251715 213:0.0118183 214:0.0313445 215:0.00267052 218:0.365221 219:0.182141 220:0.337381 221:0.0304169 222:0.163507 223:0.0127908 224:0.0213006 225:0.0081493 226:0.00283572 227:0.00269326 228:0.00772477 229:0.00181279 230:0.284991 231:0.0106019 232:0.161799 233:0.0582668 234:0.168483 235:0.369057 236:0.000816914 237:0.00104272 238:0.0587399 239:3.41124e-005 242:0.354335 243:0.000343325 244:0.00935554 245:0.0564599 246:0.337324 247:0.0902522 248:0.075982 249:0.310474 250:0.0388195 251:0.0733749 252:0.080081 253:0.090049 254:0.0569656 255:0.0407618 256:0.0191197 257:0.0114528 258:0.0067976 259:0.0566183 260:0.0628058 261:0.352034 262:0.013811 263:0.00538379 264:0.026189 265:0.0274078 266:0.00219852 267:0.0068881 268:0.0837443 269:0.351653 270:0.0052588 271:0.0235262 272:0.0281423 274:0.350205 275:0.000544783 276:0.0291814 277:0.00126902 278:0.00465462 279:0.373488 280:0.0010338 281:0.342164 282:0.00636724 283:0.00380019 284:0.0165564 285:0.048129 286:0.0823619 287:0.0426182 288:0.484283 289:0.366798 290:0.00119343 291:0.367737 292:0.074032 293:0.355958 294:0.0136258 295:0.00102966 296:0.00476429 297:0.014846 298:0.0415326 299:0.00544103 301:0.0278297 302:0.0270366 303:0.00383367 304:0.149865 305:0.330225 306:0.0118944 307:0.0303076 308:0.032495 309:0.0121747 310:0.021495 311:0.495619 312:0.0066359 313:0.0253705 314:0.0311019 315:0.263609 316:0.140115 317:0.165527 318:0.000562399 319:0.0123318 320:0.000363865 321:0.361902 322:0.00368731 323:0.336974 324:0.00280976 325:4.86273e-005 326:0.00192277 328:0.354335 329:0.354335 330:0.354335 331:0.00014255 332:0.0127853 334:0.0350192 335:0.265955 336:0.0671034 337:0.0260706 338:0.189481 339:0.159606 340:0.0271267 343:0.00146434 344:0.013835 345:0.349362 346:0.0390895 347:0.126262 348:0.00463759 349:0.352034 350:0.00600817 351:0.0854832 352:0.00860589 353:0.0279518 354:0.302867 355:0.00545827 356:0.252723 357:0.000534769 359:0.000355475 360:0.0176794 361:0.350945 362:0.3462 363:0.354442 364:0.385953 365:0.000875879 366:0.348266 367:0.0412271 368:0.0300804 369:0.00951642 370:0.398518 371:0.236599 372:0.355223 373:0.0725147 374:0.0283616 375:0.0747289 376:0.05584 377:0.0895385 378:0.0673553 379:0.03905 380:0.0823049 381:0.000521935 382:0.00241599 383:0.00565483 384:0.330422 385:0.373488 386:0.00535591 387:0.00265534 388:0.0109 389:0.00149139 390:0.0717878 391:0.0281475 392:0.0157547 393:0.00179815 394:0.366499 395:0.0130532 396:0.0387448 397:0.0589273 398:0.0699341 403:0.0146509 404:0.0242554 405:0.00879056 406:0.0442796 408:0.0324875 409:0.359045 411:0.0175569 412:0.375626 413:0.0157604 414:0.0427726 415:0.218314 416:0.0703204 417:0.0238132 418:0.18041 419:0.0281766 420:0.0251989 421:0.0148068 422:0.0250766 423:0.0255496 425:0.000703564 426:0.00528564 428:0.378168 429:0.0153246 430:0.0394945 431:0.0379131 432:0.00917263 433:0.0563028 434:0.0138779 435:0.0201394 436:0.00768931 437:0.0287757 438:0.0014944 440:0.105208 441:0.00596258 442:0.0127183 443:0.000572886 444:0.0202121 445:0.34194 446:0.34194 447:0.34194 448:0.00672006 449:0.00205589 450:0.00514857 451:0.00038344 452:0.00205114 453:0.354335 454:0.000451953 456:0.214818 457:0.000142404 458:0.118077 459:0.321453 460:0.309961 461:0.0790179 462:0.337324 463:0.164621 464:0.0941242 465:0.00759459 466:0.0679889 467:0.00842824 468:0.00688571 469:0.000363585 470:0.00749804 471:0.392488 472:0.0794428 473:0.0840831 474:0.141887 475:0.185756 476:0.342871 477:0.342871 478:0.00310919 479:0.0108837 480:0.320071 481:0.218363 482:0.178437 483:0.352034 484:0.00469729 485:0.352034 486:0.443804 487:0.0554489 488:0.0756317 489:0.00747383 490:0.0047118 491:0.302337 492:0.001211 493:0.173021 494:0.351653 495:0.00222269 498:0.0933423 500:0.165108 501:0.354442 502:0.00140963 503:0.00402314 504:0.0726238 505:0.000303474 506:0.0197816 507:0.00123632 508:0.144987 509:0.406243 510:0.00833987 511:0.0156828 512:0.0168491 513:0.0662431 514:0.355223 515:0.0506802 516:0.0575824 517:0.0272387 518:0.394953 519:0.394953 520:0.378255 522:0.00012863 523:0.00414455 524:3.48937e-005 525:0.0240306 526:0.0302843 527:0.319789 528:0.0357517 529:0.00396505 530:0.360305 531:0.360305 532:0.00799605 533:0.00245027 534:0.0352361 535:0.00147119 536:0.00306733 537:0.0261813 538:0.017606 539:0.0132936 540:0.0228025 541:0.0616533 542:0.0416309 543:0.0257901 544:0.0308302 545:0.366798 546:0.00170577 547:0.366798 549:0.367737 550:0.0987085 551:0.01099 552:0.0252478 553:0.355958 554:0.0170632 555:0.533103 556:0.0611879 557:0.164609 558:0.044795 559:0.146223 560:0.119266 561:0.216504 562:0.0116874 563:0.365221 564:0.00088046 565:0.378168 566:0.00498372 567:0.0232336 568:0.00654777 569:0.0150379 570:0.385438 571:0.0326452 572:0.00877166 573:0.163272 574:0.385438 575:2.74316e-006 576:0.0135145 577:0.385438 578:0.0471797 579:0.011888 580:0.00614926 581:0.0024113 582:0.0024901 583:0.00068496 584:0.495619 586:0.00867753 587:0.000757349 588:0.0169319 590:0.350014 591:0.350014 592:0.0948349 593:0.00167651 594:0.000238406 596:0.35382 597:4.37787e-005 598:0.354139 599:0.354139 600:0.00616367 602:0.0572242 603:0.337324 604:0.0383752 605:0.0959011 606:0.337324 607:0.0227539 608:0.0184788 609:0.0279162 610:0.092601 611:0.0269428 613:0.126417 614:0.00668392 615:0.18511 617:0.264406 618:0.342871 620:0.349362 621:0.332943 622:0.025111 623:0.0606625 624:0.232073 625:0.0894635 626:0.190214 627:0.169727 629:0.00782882 631:0.0298513 632:0.443804 633:0.0366981 634:0.00881285 635:0.00655756 636:0.00241812 637:0.0132826 638:0.351653 640:0.0287563 641:0.000236112 642:0.0559306 643:0.0234245 644:0.0144524 645:0.00262129 646:0.000525528 647:0.010117 648:0.296156 649:0.00326722 650:0.00180049 651:0.381278 652:0.0689635 653:0.00397491 654:0.0331168 655:6.62095e-005 656:0.0319952 657:9.4585e-006 658:0.355223 659:0.0106228 660:0.0137956 661:0.00687241 662:0.350205 663:0.350205 664:0.00666697 665:0.394953 666:0.0189118 667:0.0230492 668:0.329017 669:0.378255 672:0.000257023 679:0.000676804 680:0.000275985 681:0.240603 682:0.0114227 683:0.291892 684:0.354215 685:0.00249684 686:0.00271834 687:0.360305 688:0.0164812 689:0.00966182 690:0.210378 691:0.0134434 692:0.0266082 693:0.0316958 694:0.366798 698:0.359045 699:0.00211428 700:0.359045 701:0.034835 702:0.000107885 703:0.326662 704:0.0376502 705:0.0791569 706:0.0115312 707:0.0122606 708:0.101266 709:0.347973 710:0.0469627 711:0.116571 712:0.0456496 713:0.040885 714:0.00193779 715:0.00143018 716:0.000251913 717:0.00340125 718:0.00973166 720:0.049482 721:0.00821823 722:0.00688549 723:0.0096353 724:0.495791 725:0.495791 726:0.0103584 727:0.0379495 728:0.0443155 729:0.0273472 730:0.144619 731:0.00934405 732:0.000237483 734:0.116554 735:0.0282898 737:0.0231672 738:0.00677911 739:0.0626578 741:0.0524971 742:0.0531299 743:0.34194 744:0.00463422 745:0.00101537 746:0.357194 747:0.0158054 748:0.0111156 749:0.0564559 751:0.0024331 755:0.321453 756:0.125966 757:0.337324 758:0.00633608 759:0.023222 760:0.166978 761:0.0593656 762:0.307553 763:0.301525 764:0.0162762 765:0.00748691 766:0.342871 767:0.00362595 768:0.0570345 769:0.342871 770:0.349362 771:0.0217644 773:0.00215357 774:0.00683171 775:0.021487 776:0.0445613 777:0.0986598 778:0.085122 779:0.358389 780:0.213046 781:0.0116058 782:0.101083 783:0.00305085 784:0.0216693 785:0.0537054 786:0.0500977 787:0.436497 788:0.436497 789:0.436497 790:0.0685097 791:0.351653 793:0.00422319 794:0.00876887 795:0.000934288 796:0.00693235 797:0.067757 798:0.00327719 799:0.354442 800:0.00132899 801:0.385953 802:1.28867e-005 803:0.0036453 804:0.385953 805:2.88806e-006 806:0.0446172 807:0.069892 808:0.0261906 809:0.0595911 810:0.0129321 811:0.355223 812:0.0601213 813:0.355223 814:0.355223 815:0.11226 816:0.00563717 817:0.0522614 820:0.124996 821:0.000312908 822:0.000466742 823:0.378255 824:0.378255 826:2.09362e-005 828:0.00408508 829:0.00824509 830:0.0932764 831:0.354215 832:0.00700729 833:0.000506476 834:0.354215 835:0.0135624 836:0.0574736 837:0.0110957 838:0.0315684 839:0.191815 840:0.0507438 841:0.484283 842:0.0544291 843:0.0546706 844:0.0305541 845:0.366798 846:0.366798 847:0.00252682 848:0.00322444 850:0.367737 851:0.367737 852:0.00989965 853:0.359045 854:1.71155e-005 855:0.355958 856:0.355958 857:0.355958 858:0.256595 859:0.0132972 860:0.110345 861:0.112204 862:0.0505837 863:0.0157893 864:0.0479598 865:0.0542224 866:0.363713 867:0.013469 868:0.0162194 871:0.0173692 872:0.337381 873:0.337381 874:0.337381 875:0.229055 876:0.0256313 877:0.000750785 878:0.0286301 879:0.039305 880:0.0116847 881:0.00651104 882:0.495791 883:0.00414395 884:0.0341646 885:0.00405501 886:0.451502 887:0.000102536 888:0.350014 889:0.0255678 890:0.0543376 891:0.0381851 892:0.0158242 893:0.000429207 895:0.000714534 896:0.00274048 897:0.35382 898:0.000103576 904:0.150991 905:0.263975 906:0.185871 907:0.00928315 908:0.00101053 909:0.151376 910:0.222149 911:0.0950373 912:0.148411 913:0.0785335 914:0.200632 915:0.000213074 916:0.00775829 917:3.04391e-005 918:0.238236 919:0.00273479 920:0.0158401 921:0.0607656 922:0.193086 923:0.336786 924:0.0403082 925:0.0104518 926:0.0578703 927:0.0205402 928:0.349362 929:0.349362 930:0.00559019 931:0.0666497 932:0.171224 933:0.304138 934:0.116067 935:0.201314 936:0.179545 937:0.00078736 938:0.352034 939:0.00124604 940:0.206011 941:0.128961 942:0.0158414 943:0.0217492 944:0.0120516 945:0.00948886 946:0.000205819 947:0.000225289 948:0.350945 949:0.350945 950:0.0223023 951:0.24712 952:0.0312034 953:0.00180759 956:0.199398 957:0.32881 958:0.00146688 959:0.385953 960:0.00570985 961:0.0107319 962:0.00212432 963:0.348266 964:0.00448317 965:0.0154067 966:0.000347659 967:8.98583e-006 968:0.00866431 969:0.016089 970:0.068537 971:0.0164763 972:0.00210787 973:0.180252 974:0.174731 975:0.129941 976:0.000997786 977:0.00818964 980:0.255979 982:0.00408506 983:0.373488 984:0.0356775 985:0.00205156 986:0.0296837 987:0.104095 988:0.00109453 989:0.000190628 990:0.0666631 991:0.354215 992:0.0163995 993:0.520042 994:0.133512 995:0.0257208 996:0.0502569 997:0.10014 998:0.0260659 999:0.0399831 1000:0.0226375 1001:0.0698686 1002:9.55912e-005 1003:0.00201953 1004:0.00251717 1005:0.00344064 1006:0.000664565 1007:0.000198658 1009:0.00309832 1010:0.00346505 1011:0.359045 1012:0.359045 1013:0.00467641 1015:0.00251712 1016:0.002046 1017:0.000234801 1018:0.0260552 1019:0.00878434 1020:0.0255436 1021:0.0186433 1022:0.0533497 1023:0.347184 1024:0.0731443 1025:0.22973 1026:0.0320164 1027:0.00256202 1028:0.0185073 1029:0.0015562 1030:0.365221 1033:0.378168 1034:0.317218 1035:0.378168 1037:0.00498372 1038:0.337381 1039:0.00147465 1041:0.248496 1042:0.0379532 1043:0.00296432 1044:0.385438 1045:0.0275988 1046:0.0047383 1047:0.495791 1048:0.00903483 1049:0.0206407 1050:0.00555097 1051:0.015475 1052:0.495619 1053:0.0118057 1054:0.0260639 1055:0.033671 1056:0.356052 1057:0.0738693 1058:0.141215 1059:0.0113463 1061:0.320808 1062:0.350014 1063:0.067387 1064:0.0582101 1065:0.0258988 1066:0.34194 1068:0.0117356 1069:0.0124839 1070:0.00361486 1071:0.35382 1072:0.0297066 1073:5.17445e-005 1075:0.00495178 1076:0.0338532 1077:0.000218589 1078:0.354139 1079:0.321453 1080:0.0173055 1081:0.00553046 1082:0.0900651 1083:0.0830364 1084:0.135597 1085:0.218876 1086:0.239581 1087:0.121684 1088:0.0218881 1089:0.194936 1090:0.0671193 1091:0.072992 1092:0.052974 1093:0.342871 1094:0.0325469 1095:0.175293 1096:0.0461073 1097:0.0458277 1098:0.00830097 1099:0.000444171 1100:0.269919 1101:0.00669324 1102:0.25209 1103:0.000228735 1104:0.0878789 1105:0.195035 1106:0.124429 1107:0.0621176 1108:0.352034 1109:0.00874785 1110:0.352034 1111:0.00713995 1112:0.00169284 1113:0.00499137 1114:0.0074888 1115:0.0560321 1116:0.073058 1117:0.0234885 1118:0.0407068 1120:0.0686603 1121:0.350945 1122:0.0729008 1123:0.0751411 1124:0.00380506 1125:0.0145413 1126:0.0151726 1127:0.24179 1128:0.350945 1129:0.00469885 1130:0.0495104 1131:0.00157277 1132:0.0070337 1133:0.321312 1134:0.00155626 1135:0.0239594 1136:0.348266 1137:0.348266 1138:0.348266 1139:0.0134866 1140:0.348266 1141:0.0117575 1142:0.123219 1143:0.0286948 1144:0.00981447 1145:0.0161297 1146:0.427039 1147:0.00118103 1148:0.00304001 1149:0.00274245 1150:0.00238 1151:0.355223 1152:0.0106057 1153:0.00308875 1154:0.0218822 1155:0.394953 1157:0.000772754 1160:0.342164 1161:0.0044597 1162:0.00897645 1163:0.0178102 1164:0.00262023 1165:0.00843092 1166:0.0115766 1167:0.0234355 1168:0.273261 1169:0.00877873 1170:0.520042 1171:0.0240389 1172:0.0357023 1173:0.412632 1174:0.0265663 1175:0.0253401 1176:0.000464254 1177:0.0280014 1178:0.484283 1179:0.00110886 1180:0.264312 1182:0.00168457 1185:0.359045 1186:0.142971 1187:0.00659398 1188:0.000292286 1189:0.00103243 1190:0.0107125 1191:0.00555533 1192:0.0194001 1193:0.396729 1194:0.0825029 1195:0.231243 1196:0.407971 1197:0.511502 1198:0.0548227 1199:0.022626 1200:0.0417831 1201:0.0477754 1202:0.0422963 1203:0.511502 1204:0.251306 1207:0.00317138 1208:0.000755091 1209:0.0132619 1210:0.00619099 1211:0.0320804 1212:0.0321598 1213:0.0308648 1214:0.495619 1215:0.0415535 1216:0.451502 1217:0.369057 1218:0.00104767 1220:0.0315369 1221:0.00646684 1223:0.000384954 1225:0.00472194 1226:0.350014 1227:0.0682685 1228:0.0255678 1229:0.34194 1230:0.34194 1231:0.361902 1232:0.012519 1233:0.361902 1234:0.0123588 1235:7.78328e-005 1236:0.00314826 1237:0.35382 1238:0.0011794 1239:0.019323 1240:0.00182595 1241:0.354139 1243:0.321453 1244:0.0338009 1245:0.000487033 1246:0.00170765 1247:0.255605 1248:0.133762 1249:0.117784 1250:0.0256027 1251:0.0421149 1252:0.00451581 1253:0.0754591 1254:0.348103 1255:0.00387492 1256:0.0271281 1257:0.0414349 1258:0.141454 1259:0.0242281 1260:0.201935 1261:0.0527782 1262:0.392488 1263:0.176605 1264:0.0335782 1265:0.00310919 1266:0.00669324 1267:0.0716146 1268:0.332943 1269:0.305003 1270:0.0527572 1271:0.358389 1272:0.0423307 1273:0.00463759 1274:0.00613744 1275:0.351653 1276:0.0368116 1277:0.00705622 1278:0.184184 1279:0.00779329 1280:0.354442 1281:0.0411452 1282:0.0140423 1283:0.00195441 1284:0.348266 1285:0.00215815 1286:0.0019011 1287:0.00565233 1288:0.0262492 1289:0.427039 1290:0.00151958 1291:0.0219226 1293:0.00155293 1294:0.00136174 1295:0.00953219 1296:0.0161578 1297:0.00154385 1298:0.000127468 1299:0.373488 1300:0.000772754 1301:0.351964 1302:0.0010338 1304:0.014022 1305:0.000234463 1307:0.0112638 1308:0.0199601 1309:0.0873788 1310:0.0242969 1311:0.00695929 1313:0.335628 1314:0.00139061 1315:0.00193466 1317:0.00417171 1318:0.0184962 1319:0.0241957 1320:0.082173 1321:0.26934 1322:0.219291 1323:0.00847935 1324:0.0168212 1325:0.01715 1326:0.000813238 1327:0.00176339 1328:0.00106216 1330:0.0238645 1331:0.0716681 1332:0.337381 1333:0.0588123 1334:0.337381 1335:0.0167957 1336:0.0207736 1337:0.0240897 1338:0.0224779 1339:0.0119273 1340:0.013392 1341:0.00187084 1342:0.00105952 1344:0.0142186 1345:0.071319 1346:0.00064859 1347:0.0210814 1348:0.000306042 1349:0.0937661 1350:0.354335 1351:5.02504e-005 1352:0.00863667 1353:0.354139 1354:0.045416 1355:0.000446046 1357:0.131133 1358:0.191352 1359:0.021418 1360:0.0196809 1361:0.083006 1362:0.0998419 1363:0.132664 1364:0.00103686 1365:0.469991 1366:0.0177026 1367:0.067486 1368:0.0265246 1369:0.276411 1370:0.0782561 1372:0.000139378 1373:0.349362 1374:0.0638086 1375:0.017023 1376:0.0180817 1377:0.172212 1378:0.179492 1379:0.0841769 1380:0.338003 1381:0.0985286 1382:0.150347 1383:0.000611659 1384:0.000143278 1385:0.352034 1386:0.0160181 1387:0.000268596 1388:0.31131 1389:0.0146685 1392:0.0260721 1393:0.00191676 1394:0.00596335 1395:0.000188426 1396:0.00426026 1398:0.00950087 1399:0.0211104 1400:0.0179451 1401:0.00834434 1402:0.153445 1403:0.350205 1404:0.0510072 1405:0.328021 1406:0.302067 1407:0.00257848 1408:0.00100689 1409:0.00121774 1413:0.342164 1414:0.0339367 1415:0.354215 1416:0.354215 1418:0.000157876 1419:0.360305 1420:0.003934 1421:0.136816 1422:0.024708 1424:0.00186044 1425:0.0531919 1426:0.0112709 1427:0.000345416 1428:0.355958 1429:0.00960352 1430:0.0640545 1431:0.0436829 1432:0.103034 1433:0.239289 1434:0.0530841 1435:0.000359573 1436:0.000148429 1437:0.378168 1438:0.026843 1439:0.0397741 1440:0.378168 1441:0.0304571 1443:0.000150612 1444:0.0218222 1445:0.0192968 1446:0.00638632 1447:0.00289166 1448:9.4941e-005 1449:0.00754898 1450:0.000166312 1451:0.146251 1452:0.0164471 1453:0.00442487 1454:0.0148434 1455:0.389783 1456:0.00294056 1457:0.000717755 1458:0.369057 1459:0.0044306 1460:0.00934658 1461:0.034237 1462:0.00119764 1463:0.0098125 1464:0.049035 1466:0.354335 1468:0.00301895 1469:0.00127825 1470:0.000418097 1472:0.250362 1473:0.00324275 1474:0.0800586 1475:0.0697609 1476:0.0187073 1477:0.336786 1478:0.0357333 1479:0.0325451 1480:0.0379598 1481:0.00136949 1483:0.13364 1484:0.190268 1485:0.0307329 1486:0.000611659 1487:0.00483494 1488:0.0406161 1489:0.351653 1490:0.00325735 1491:9.54217e-005 1493:0.348266 1494:0.350205 1495:0.00254058 1496:0.000142541 1497:0.378255 1498:2.09362e-005 1499:0.373488 
0.0267012185273218 0.1512725625327296 0:0.0546329 1:0.00199065 2:0.0288831 3:0.0086446 4:0.00115691 5:0.0696896 6:0.0422391 7:0.107775 8:0.0983589 9:0.0383363 10:0.00916991 11:0.00388359 12:0.0602996 13:0.0419117 14:0.0144878 15:0.145898 16:0.0813065 17:0.0239828 18:0.0392348 19:0.224868 20:0.0434462 21:0.000617552 22:0.0639975 23:0.0891571 24:0.0627002 25:0.0789723 26:0.0572376 27:0.186473 28:0.00525313 29:0.183378 30:0.00773168 31:0.108161 32:0.03742 33:0.0551575 34:0.0697504 35:0.150679 36:0.152066 37:0.000595936 38:0.018229 39:0.0600165 40:0.138945 41:0.0356341 42:0.123685 43:0.0159832 44:0.160209 45:0.0030301 47:0.329435 48:0.149301 49:0.325548 50:0.00823758 51:0.532393 52:0.0104502 53:0.0104219 54:0.00390625 55:0.0984749 56:0.000391856 57:0.0139198 58:0.00430649 59:0.0104021 60:0.000190851 61:0.000203233 62:0.00137268 63:0.0012461 64:0.00304866 65:0.366408 66:0.0692349 67:0.0228685 68:0.0604599 69:0.00611096 71:0.0532736 73:0.150806 74:0.106026 75:0.0768007 76:0.0251132 77:0.0750742 78:0.0167969 79:0.0702421 80:0.0429132 81:0.0114066 82:0.04338 83:0.16317 84:0.0510416 85:0.0311059 86:0.00177672 87:0.0407406 88:0.200264 89:0.0175469 90:0.00269997 91:0.211713 93:0.00250076 95:0.0865663 96:0.0201711 97:0.025988 98:0.00558436 99:0.0170364 100:0.358921 101:0.283404 102:0.0207406 103:0.0177701 104:0.0850891 105:0.182832 106:0.413711 107:0.0531172 108:0.037933 109:0.0071634 110:0.0244926 111:0.292647 112:8.71253e-006 113:0.00072746 114:0.0169807 115:0.110411 116:0.0837274 117:0.0536033 118:0.0335705 120:0.000656676 121:0.0112442 122:0.0110131 123:0.00497692 124:0.0194309 125:0.477807 126:0.0983936 127:0.0446653 128:0.0697602 129:0.0684125 130:8.27814e-005 131:0.0837575 132:0.150098 133:0.0413355 134:0.0199996 135:0.0968293 136:0.0263512 137:0.0212107 138:0.0361501 139:0.07662 140:0.027581 141:0.0113889 142:0.0041749 143:0.0394196 144:0.0082343 145:0.0724099 146:0.0695614 147:0.0636492 148:0.00714259 149:0.150491 150:0.00878846 151:0.0150226 152:0.00296606 153:0.00299015 154:0.461077 155:0.0128242 156:0.114216 157:0.0887534 158:0.0323227 159:0.00411355 160:0.0127925 161:0.0319293 162:0.0212877 163:0.153644 165:0.0593713 166:0.0999072 167:0.0303902 168:0.394643 169:0.402517 170:0.00752361 171:0.0105033 172:0.0145261 174:0.00839199 175:0.148464 176:0.0480278 177:0.00778126 179:0.0154305 180:0.380694 181:0.051802 182:0.0164809 183:0.370118 184:0.00335086 185:0.0278401 187:0.361011 188:0.00175663 189:0.0385619 190:0.00906004 192:0.00022167 194:0.162129 195:0.184691 196:0.124077 197:0.0567734 198:0.0825733 199:0.373328 200:0.236634 201:0.424283 202:0.0858243 203:0.00332561 204:0.0104999 205:0.0177455 206:0.194049 207:0.544047 208:0.246334 209:0.136665 210:0.121706 211:0.166642 212:0.180911 213:0.0754699 214:0.00685632 215:0.18045 216:0.117302 217:0.0254331 218:0.00638475 219:0.00874187 220:0.0372191 221:0.0209878 222:0.0208084 223:0.143209 224:0.268698 225:0.185641 226:0.162867 227:0.0228203 228:0.0108481 229:0.493574 230:0.00870407 232:0.438194 234:0.204681 235:0.00475422 236:0.101278 237:0.0889838 238:0.0605723 239:0.0221773 240:0.0305703 241:0.0105707 242:0.175179 244:0.0236552 245:0.00474864 246:0.00846018 247:0.0433372 248:0.0173377 249:0.00183968 250:0.0277719 251:0.0201843 252:0.00243211 254:0.464634 255:0.464634 258:0.073846 259:0.47715 260:0.00320428 261:0.0636201 262:0.0236958 263:0.000539968 264:0.0275101 265:0.00983081 266:0.352685 267:0.00849003 268:0.0114134 269:0.00140718 270:0.400363 271:0.189061 272:0.010557 273:0.398065 274:0.0555519 275:0.00956485 276:0.0699639 277:0.140706 280:0.264303 281:0.0530581 282:0.0315333 283:0.423933 284:0.413591 285:0.0257801 286:0.0735702 287:0.313354 288:0.219037 289:0.00626773 290:0.037767 291:0.0229209 292:0.0247667 293:0.0812736 294:0.229553 295:0.0644779 296:0.237496 297:0.180999 298:0.372989 299:0.123912 300:0.000124796 301:0.00418903 302:0.00473914 303:0.245159 304:0.132898 305:0.454648 306:0.118254 307:0.0811806 308:0.0861101 309:0.311358 310:0.0178187 311:0.104137 312:0.00337506 313:0.0591004 314:0.133 315:0.0293943 316:0.0260779 317:0.0438442 318:0.382045 319:0.0137591 320:0.136454 321:0.479959 322:0.0052379 323:0.101108 324:0.418982 325:0.000690302 326:0.418982 327:0.00590228 328:0.00168689 329:0.163547 330:0.00275976 331:0.16098 332:0.012485 333:0.00181608 335:0.126208 336:0.0329146 337:0.173445 338:0.0041888 339:0.000813977 340:0.0790295 341:0.472505 342:0.204647 343:0.00788043 344:0.472505 345:0.00931255 346:0.0220715 347:0.000996364 348:0.394643 349:0.0716903 350:0.0363737 351:0.00491317 352:0.402517 353:0.402517 354:0.00988118 355:0.352685 356:0.000349461 357:0.236792 358:0.0113634 359:0.0200026 360:0.0306782 361:0.0050734 362:0.368322 363:0.0398359 364:0.212595 365:0.091495 366:0.196517 367:0.380694 368:0.169729 369:0.145445 370:0.0130961 371:0.00128861 372:0.00260252 373:0.133872 374:0.0893651 375:0.138406 376:0.0304401 377:0.00700714 378:0.0176197 379:0.0320496 380:0.0161652 381:0.0733254 382:0.181625 383:0.00876702 384:0.00171662 385:0.0284024 386:0.0393625 387:0.249691 388:0.0428466 389:0.00179901 390:0.204173 391:0.0142078 393:0.423933 394:0.139952 395:0.0068862 396:0.297079 397:0.122305 398:0.259387 399:0.209703 400:0.35055 401:0.130146 402:0.229087 403:0.120955 404:0.056231 405:0.424283 406:0.125993 407:0.0048252 408:0.00450683 409:0.0110919 410:0.0534984 411:0.281012 412:0.0470226 413:0.0822385 414:0.050626 415:0.0114847 416:0.00451614 417:0.408865 418:0.0622371 419:0.0490692 420:0.0558966 421:0.223842 422:0.16312 423:0.154182 424:0.00283246 425:0.494946 426:0.448284 427:0.00243599 428:0.0205122 429:0.142911 430:0.0701016 431:0.0464616 432:0.0965739 433:0.0363739 434:0.00320028 435:0.0396201 436:0.438194 437:0.0815252 438:0.00421377 439:0.185723 440:0.392516 441:0.0451266 442:0.0805108 443:0.176375 444:0.0122273 445:0.0132298 446:0.0109717 447:0.0385277 448:0.0739037 449:0.0552293 450:0.0552594 451:0.00911604 452:0.00944527 453:0.00286284 454:0.00138781 456:0.475782 457:0.00120143 458:0.475782 459:0.014072 460:0.0895033 461:0.000191092 462:0.0583982 463:0.416457 464:0.00190547 465:0.00925658 466:0.135397 467:0.20394 468:0.0227211 469:0.30894 470:0.229196 471:2.02628e-005 472:0.0300866 473:0.445213 474:0.0673224 475:0.0556748 476:0.000778474 477:0.00257961 479:0.0507411 480:0.0319208 481:0.433495 482:0.00189353 483:0.075138 485:0.0545623 486:0.0103718 487:0.00214231 488:0.00706617 489:0.000595936 490:0.352685 491:0.00141714 492:0.352685 493:0.0062262 494:0.0018816 495:0.00513683 496:0.400363 497:0.0236174 498:0.358921 499:0.0402618 500:0.336476 501:0.356251 502:0.0307375 503:0.0117895 504:0.015635 505:0.0331329 506:0.0370022 507:0.294729 508:0.0598434 509:0.00457641 510:0.419448 511:0.0157522 512:0.0493189 513:0.0321522 514:0.0499339 515:0.425186 516:0.0020599 517:0.0582473 518:0.0036362 519:0.0364392 520:0.0258641 521:0.0535396 522:0.376911 523:0.000898248 524:0.000464684 525:0.00238235 526:0.447237 527:0.0120473 528:0.148271 529:0.223004 530:0.00848783 531:0.00390172 532:0.274467 533:0.423933 534:0.195614 536:0.300605 537:0.0222106 538:0.0987646 539:0.413591 540:0.0278118 541:0.134181 542:0.0478261 543:0.121331 544:0.228295 545:0.0384176 546:0.373328 547:0.0690912 548:0.0800196 549:0.0498037 550:0.477807 551:0.000274278 552:0.00321443 553:0.0868372 554:0.0556879 555:0.029811 556:0.0111294 557:0.0646484 558:0.0990509 559:0.0217859 560:0.0372945 561:0.140809 562:0.110723 563:0.025216 564:0.0306252 565:0.000997805 566:0.124363 567:0.0121862 568:0.00284348 569:0.0177631 570:0.150828 571:0.0515713 572:0.0688906 573:0.0570438 574:0.179633 575:0.0692278 576:0.0846258 577:0.119064 578:0.194341 579:0.102728 580:0.167841 581:0.00953398 582:0.532393 583:0.0340053 584:0.119899 585:0.0159979 586:0.00459834 587:0.025147 588:0.000558035 589:0.0048083 590:0.0423636 591:0.0107091 592:0.0329319 593:0.00480157 594:0.0733155 595:0.123475 596:0.0988269 597:0.00100129 598:0.0870355 599:0.106016 600:0.000173299 602:0.171914 603:0.0118458 604:0.00133764 605:0.416457 606:0.00337161 607:0.167009 608:0.401998 609:0.401998 610:0.00308976 611:0.463948 612:0.0119055 613:0.0767052 614:0.463948 615:0.176982 616:0.00312503 620:0.0337571 621:0.0274311 622:0.47715 623:0.0230724 625:0.114642 627:0.0073448 628:0.0309364 629:0.00759931 630:0.0134855 631:0.0490781 632:0.013863 633:0.0124305 634:0.0197759 635:0.342446 636:0.352685 637:0.0057351 638:0.0103605 639:0.00342309 640:0.0802187 641:0.0926438 642:0.0335229 643:0.0297028 644:0.0659912 645:0.0102372 646:0.357789 647:0.130283 648:0.0338887 649:0.0203331 650:0.0932391 651:0.029804 652:0.0245041 653:0.419448 654:0.202997 655:0.0807901 656:0.0470791 657:0.0590533 658:0.00122225 659:0.218139 660:0.00368629 661:0.413711 662:0.0905353 663:0.133631 664:0.212169 665:0.000491116 666:0.366377 667:0.0189706 668:0.026628 669:0.00286637 670:0.164404 671:0.122784 672:0.00881735 673:0.172794 674:0.376911 675:0.0174093 676:0.0417623 677:0.0975837 678:0.304848 679:0.00398942 680:0.0354588 681:0.0509496 682:0.0693533 683:0.0223539 684:0.0263607 685:0.0351148 686:0.00100622 687:0.00107452 688:0.00127208 689:0.000573458 690:0.0126938 691:0.119188 692:0.137757 693:0.437178 694:0.186106 695:0.143759 696:0.0369465 697:0.286754 698:0.0209777 700:0.0538145 701:0.171728 702:0.0783789 703:0.0533741 704:0.23782 705:0.158398 706:0.345535 707:0.0880907 708:0.0753995 709:0.0116306 710:0.00168887 711:0.0305474 712:0.0150011 713:0.323771 714:0.032984 715:0.033749 716:0.494946 717:0.0188329 718:0.267105 719:0.00362833 720:0.00630847 721:0.0339072 722:0.0269633 723:0.0434606 724:0.124325 725:0.0386362 726:0.445158 727:0.0142287 728:0.0487986 729:0.0401942 730:0.259051 731:0.223014 732:0.00377842 733:0.00750541 734:0.237656 735:0.0355491 736:0.00158885 737:0.113182 738:0.00734518 739:0.128901 740:0.467644 741:0.167804 742:0.000489014 743:0.0138525 744:0.474183 745:0.0894154 746:0.0910264 747:0.0340584 748:0.0310184 749:0.0271048 750:0.0215596 751:0.418982 752:0.179925 753:0.00593799 754:0.00796691 755:0.0763306 756:0.07301 757:0.0133383 758:0.173541 759:0.0141071 760:0.104367 761:0.0206674 762:0.0231456 764:0.00520839 766:0.12335 769:0.00175206 770:0.00166628 772:0.0703897 773:0.0147901 775:0.0539622 776:0.433495 777:0.0031878 778:0.329497 779:0.100353 780:0.00440688 781:0.0576284 782:0.00141665 783:0.402517 784:0.0245057 785:0.0690253 786:0.00234455 787:0.0012478 788:0.00488666 789:0.000105704 790:0.352685 791:0.00401779 792:0.15148 793:0.00103711 794:0.0538223 795:0.010618 796:0.309609 797:0.150063 798:0.0357677 799:0.0374611 800:0.0840834 801:0.42298 802:0.00642845 803:0.0316724 804:0.42298 805:0.102159 806:0.0845271 807:0.101809 808:0.318692 809:0.0150304 810:0.0348293 811:0.00203709 812:0.0115376 813:0.000184087 814:0.0420923 815:0.0258037 816:0.243586 817:0.413711 818:0.315941 819:0.413711 820:0.0311237 821:0.0598876 822:0.00139153 823:0.000722054 825:0.00183634 826:0.00496385 827:0.152223 828:0.051025 829:0.447237 830:0.231021 831:0.00410105 832:0.449422 833:0.0323839 834:0.0488223 836:0.0231082 838:0.00615117 839:0.140988 840:0.0162642 841:0.0478702 842:0.0262285 843:0.0758448 844:0.0340161 845:0.0412717 846:0.00509746 847:0.212047 848:0.00868922 849:0.138013 850:0.002969 851:0.00875522 853:0.0156915 854:0.0353276 855:0.16252 856:0.144898 857:0.0361854 858:0.0713596 859:0.143809 860:0.00133868 861:0.325111 862:0.00255287 863:0.182995 864:0.0337951 865:0.124481 866:0.0196117 867:0.259466 868:0.126411 869:0.00347096 870:0.169839 871:0.0175569 872:0.00785199 873:0.00845807 874:0.00452798 875:0.0334303 876:0.13651 877:0.0650793 878:0.154506 879:0.0636645 880:0.057409 881:0.0783053 882:0.472455 883:0.175238 884:0.0149222 885:0.0421647 886:0.0812938 887:0.392516 888:0.00551063 889:0.0826872 890:0.402149 891:0.00715824 892:0.413124 893:0.0331796 894:0.0572457 895:0.0364963 896:0.0183887 897:0.015148 898:0.0189691 899:0.0155159 901:0.00314541 902:0.138245 904:0.00777376 905:0.475782 907:0.01082 909:0.145734 911:0.137312 912:0.000191092 913:0.0183646 914:0.0405359 915:0.0902681 916:0.401998 917:0.385774 918:0.0826232 919:0.463948 920:0.00459227 921:0.0317506 923:0.0133348 924:0.464634 925:0.00160295 926:0.464634 927:0.00435802 928:0.0535975 929:0.149051 930:0.444747 932:0.00536147 933:0.119324 935:0.203379 936:0.025877 937:0.37414 938:0.320858 939:0.147293 940:0.00303402 941:0.00860629 942:0.402517 943:0.000178257 945:0.00360341 946:0.400363 947:0.0797513 948:0.0040104 949:0.0016272 950:0.194384 951:0.324044 952:0.174992 953:0.348901 954:0.00936717 955:0.00569185 956:0.0850418 957:0.161491 958:0.0307939 959:0.42298 960:0.0750795 961:0.0569095 962:0.0208128 963:0.0217829 964:0.186577 965:0.419448 966:0.189656 967:0.425186 968:0.00283761 969:0.131879 970:0.116793 971:0.0071649 972:0.222839 973:0.0152559 974:0.0400694 975:0.0598344 976:0.339982 977:0.0455617 978:0.00145081 979:0.0265567 980:0.0346494 981:0.202626 984:0.056845 985:0.228187 986:9.67318e-005 987:0.194818 988:0.241587 989:0.0190152 990:0.236181 991:0.00840112 992:0.213642 993:0.0338872 994:0.238903 995:0.0271509 996:0.240147 997:0.15878 998:0.0259477 999:0.103915 1000:0.119433 1001:0.177335 1002:0.0756889 1003:0.229863 1004:0.190671 1005:0.0684194 1006:0.13352 1007:0.119218 1008:0.14878 1009:0.424283 1010:0.0477993 1011:0.00538704 1012:0.0265298 1013:0.00926116 1015:0.112202 1016:0.223228 1017:0.0824839 1018:0.0133066 1019:0.00810558 1020:0.13611 1021:0.0438909 1022:0.155959 1023:0.00823219 1024:0.0258687 1025:0.357046 1026:0.00598885 1027:0.0106294 1028:0.0307683 1029:0.236472 1030:0.00793994 1031:0.00556363 1032:0.120643 1033:0.0119995 1034:0.00291855 1035:0.000939945 1036:0.000518333 1037:0.0425585 1038:0.0391991 1039:0.00614836 1040:0.465069 1041:0.176657 1042:0.171933 1043:0.243874 1044:0.0999954 1045:0.094865 1046:0.549662 1047:0.066085 1048:0.0139094 1049:0.00459967 1050:0.0638459 1051:0.00828316 1052:0.0137563 1053:0.0146575 1054:0.0443791 1055:0.438194 1056:0.0110782 1057:0.392516 1058:0.158359 1059:0.00192551 1060:0.467644 1061:0.0027952 1062:0.00754723 1063:0.0380892 1064:0.0297027 1065:0.00189127 1066:0.00954279 1067:0.151974 1068:0.0388131 1069:0.588385 1070:0.143992 1071:0.183514 1072:0.346539 1073:0.00192819 1074:0.0136945 1075:0.00253832 1077:0.00074416 1078:0.00424971 1079:0.0904385 1080:0.0646143 1081:0.0109779 1082:0.0735729 1083:0.0482985 1084:0.416457 1085:0.11435 1087:0.153728 1088:0.360234 1089:0.100013 1090:0.445213 1092:0.199372 1093:0.145326 1094:0.119132 1095:0.111442 1096:0.180915 1097:0.0177074 1098:0.472505 1100:0.059985 1101:0.0126519 1103:0.0909702 1104:0.0728922 1105:0.026975 1106:0.043729 1107:0.1042 1108:0.266574 1109:0.0362112 1110:0.121818 1111:0.0428506 1112:0.00515941 1113:0.0127761 1114:0.352685 1115:0.00149591 1116:0.00297455 1117:0.00929597 1118:0.00466513 1119:0.400363 1120:0.00145542 1121:0.00880399 1122:0.0293196 1123:0.274089 1124:0.0269613 1125:0.111503 1126:0.0598617 1127:0.0370043 1128:0.0508961 1129:0.358921 1130:0.0139272 1131:0.236121 1132:0.000733197 1133:0.0507558 1134:0.0625638 1135:0.128777 1136:0.0336228 1137:0.0555935 1138:0.00979179 1139:0.380694 1140:0.0214168 1141:0.0337152 1142:0.0510649 1143:0.131437 1144:0.00975834 1145:0.0796493 1146:0.0176315 1147:0.0126197 1148:0.419448 1149:0.0202482 1150:0.425186 1151:0.0114367 1152:0.0246639 1153:0.203237 1154:0.0282476 1155:0.00472639 1156:0.376911 1157:0.0578144 1158:0.361011 1159:0.319282 1160:0.447237 1161:0.000569917 1162:0.116701 1163:0.0105766 1164:0.0965679 1165:0.449422 1166:0.330394 1167:0.179492 1168:0.00576046 1169:0.0169998 1170:0.0908596 1171:0.0948861 1172:0.0527493 1173:0.00144234 1175:0.0714564 1176:0.143734 1177:0.110722 1178:0.305202 1179:0.0479204 1180:0.0383334 1181:0.31521 1182:0.0294533 1183:0.268628 1184:0.262046 1185:0.0127653 1186:0.00551571 1187:0.00431789 1188:0.0656166 1189:0.292467 1190:0.0516105 1191:0.597687 1192:0.0686655 1193:0.0429735 1194:0.524679 1195:0.0862838 1196:0.114954 1197:0.136768 1198:0.0738761 1199:0.175222 1200:0.26348 1201:0.175584 1202:0.445782 1203:0.0519592 1204:0.0330364 1205:0.22165 1206:0.020096 1207:0.448284 1208:0.448284 1209:0.114793 1210:0.193867 1211:0.290222 1212:0.0818655 1213:0.0419014 1214:0.00870693 1215:0.262041 1216:0.242608 1217:0.00809983 1218:0.00265925 1219:0.112287 1220:0.0712613 1221:0.0143334 1222:0.467644 1223:0.0026871 1224:0.149321 1225:0.467644 1226:0.000665182 1227:0.0152647 1228:0.0343676 1229:0.0146031 1230:0.0261098 1231:0.0414415 1232:0.221586 1233:0.179069 1234:0.112092 1235:0.0345574 1236:0.0102775 1237:0.0114455 1238:0.180123 1239:0.129916 1241:0.000389708 1242:0.00221386 1243:0.00788183 1244:0.104814 1245:0.0150512 1246:0.0012131 1247:0.0361602 1248:0.05163 1249:0.0234663 1250:0.00427657 1252:0.0358953 1253:0.00116164 1254:0.000738281 1255:0.103349 1256:0.387935 1257:0.155309 1258:0.0763425 1259:0.0054771 1260:0.00014184 1261:0.000357252 1263:0.00800089 1266:0.019478 1267:0.000424281 1268:0.0376707 1269:0.0330108 1270:0.00110166 1271:0.0132309 1272:0.433495 1273:0.0732916 1274:0.00923039 1275:0.00817887 1276:0.400363 1277:0.261018 1278:0.0216978 1279:0.0283142 1280:0.0628908 1281:0.0224334 1282:0.0312884 1283:0.00188153 1284:0.0340062 1285:0.122144 1286:0.380694 1287:0.225342 1288:0.033508 1289:0.0013642 1290:0.244388 1291:0.425186 1292:0.0859803 1293:0.0159414 1294:0.370118 1295:0.370118 1296:0.033095 1297:0.124218 1298:0.376911 1299:0.226564 1300:0.2351 1301:0.00172148 1302:0.361011 1303:0.00874687 1304:0.0107072 1305:0.449422 1306:0.101063 1307:0.0040142 1308:0.281522 1309:0.146053 1310:0.413591 1311:0.321788 1312:0.0699302 1313:0.00531737 1314:0.00713206 1315:0.134841 1316:0.0768983 1317:0.0283571 1318:0.281543 1319:0.00491476 1320:0.321093 1322:0.00369261 1323:0.0394411 1324:0.109921 1325:0.083471 1326:0.0709356 1327:0.494946 1328:0.0191165 1330:0.142845 1331:0.0152613 1332:0.0692852 1333:0.465069 1334:0.0301288 1335:0.0360231 1336:0.0369511 1337:0.0335465 1338:0.00873288 1339:0.365524 1340:0.00781218 1341:0.00666292 1342:0.00326889 1343:0.474183 1344:0.00358193 1345:0.00948792 1346:0.0430189 1347:0.500439 1348:0.0531391 1349:0.500439 1350:0.00280881 1351:0.318843 1352:0.217329 1353:0.12002 1354:0.461077 1355:0.00251869 1357:0.128129 1358:0.121219 1359:0.015946 1360:0.0177734 1361:0.416457 1362:0.15522 1363:0.0549494 1364:0.0259405 1366:0.00320959 1367:0.205999 1368:0.445213 1369:0.00316607 1370:0.0218674 1372:0.00788043 1373:0.0229481 1375:0.0183902 1376:0.115413 1377:0.00490573 1378:0.00111302 1379:0.433495 1380:0.0123584 1381:0.161315 1382:0.246885 1383:0.194484 1384:0.0457431 1385:0.080085 1386:5.62047e-006 1387:0.352685 1388:0.00222639 1389:0.0180387 1390:0.328764 1391:0.0744792 1392:0.0338221 1393:0.358921 1394:0.0619976 1395:0.104627 1396:0.0154033 1397:0.160973 1398:0.149722 1399:0.0505236 1400:0.0101952 1401:0.110901 1402:0.205038 1403:0.0264762 1404:0.100102 1405:0.0938913 1406:0.0747606 1407:0.0487343 1408:0.370118 1409:0.376911 1410:0.376911 1411:0.258475 1412:0.0140734 1413:0.427403 1414:0.00238235 1415:0.00105238 1416:0.0420753 1417:0.0396363 1419:0.016895 1420:0.145134 1421:0.289808 1422:0.195273 1423:0.0989016 1424:0.129927 1425:0.0106878 1426:0.477807 1427:0.143386 1428:0.0919592 1429:0.256975 1430:0.112947 1431:0.154648 1432:0.0607647 1433:0.0923453 1434:0.353035 1435:0.0116804 1436:0.00596905 1437:0.0251312 1438:0.0305046 1439:0.0989823 1440:0.013465 1441:0.465069 1442:0.465069 1443:0.0124166 1444:0.114221 1445:0.0494998 1446:0.0293869 1447:0.124975 1448:0.207422 1449:0.0695719 1450:0.00120242 1451:0.0124782 1452:0.0172068 1453:0.211999 1454:0.0104595 1455:0.0284648 1456:0.173373 1457:0.392516 1458:0.0345094 1459:0.000539774 1460:0.0104414 1462:0.0996622 1463:0.331625 1464:0.500439 1465:0.020245 1466:0.105768 1467:0.000217772 1468:0.461077 1470:0.00289435 1471:0.461077 1472:0.475782 1473:0.416457 1474:0.0195982 1475:0.0206584 1476:0.139616 1478:0.0096049 1479:0.141845 1480:0.00637532 1481:0.0860855 1482:0.472505 1483:0.47715 1484:0.0188708 1485:0.0222429 1486:0.394643 1487:0.0780196 1488:0.00115175 1489:0.000316104 1490:0.00855743 1491:0.0151747 1492:0.0100123 1493:0.183458 1494:0.0268822 1495:0.0513011 1496:0.134559 1497:0.00280613 1499:0.0156101 
0.02046063001065943 0.04340923970824161 0:0.00409194 1:0.411657 2:0.17383 3:0.0803679 4:0.0023939 5:0.0100589 6:0.0105193 7:0.00963182 9:0.161895 10:0.000908458 11:0.000267443 12:0.058603 13:0.0344958 14:0.471558 15:0.0907668 16:0.469829 17:0.00530443 18:0.475288 20:0.00181965 21:0.377702 22:0.0934848 23:0.0903093 24:0.0199705 25:0.352103 26:0.399684 27:0.00356282 28:0.323265 29:0.000410829 30:0.0063881 31:0.15702 32:0.0113541 33:0.00236729 34:0.00300327 35:0.00148198 36:1.9824e-005 37:0.166023 38:0.30324 39:0.00351354 40:0.459951 41:0.474083 42:0.00535564 43:0.0208967 44:0.451947 45:0.144836 46:0.000783074 47:0.0392308 48:0.0248453 49:0.0961348 50:0.0454812 51:0.131664 52:0.040645 53:0.00773985 54:0.287742 55:0.00388738 56:0.0623909 57:0.033494 58:0.51452 59:0.0200942 60:0.173863 61:0.310939 62:0.23059 63:0.00133983 64:0.0540725 65:0.0106214 66:0.132221 67:0.104553 68:0.096881 69:0.384503 70:0.169568 71:0.0129618 72:0.444861 73:0.0158378 74:0.00806409 75:0.399684 76:0.0260439 77:0.00376724 78:0.044794 79:0.130156 80:0.166833 81:0.0112401 82:0.0342943 84:0.170077 85:0.00471866 86:0.0591308 87:0.00894914 88:0.322444 89:0.000895729 90:0.153993 91:0.622831 92:0.0338693 93:0.00110927 94:0.382617 95:0.00832288 96:0.487829 97:0.346434 98:0.215009 99:0.0283671 100:0.433036 101:0.0134117 102:0.19447 103:0.0166229 105:0.0265238 106:0.209151 107:0.102453 108:0.0107127 109:0.0401485 110:0.0347177 111:0.47381 112:0.0154837 113:0.0209544 114:0.352103 115:0.0179689 116:0.352103 117:0.359613 118:0.167376 119:0.0280178 120:0.00842872 121:0.0539928 122:0.471558 123:0.0895417 124:0.425277 125:0.00148561 126:0.0107612 127:0.412872 128:0.133211 129:0.0105786 130:0.000161703 132:0.178763 133:0.0248854 134:0.0606324 135:0.00788011 136:0.0045616 137:0.00198691 139:0.00632119 140:0.00862508 141:0.0122176 142:0.00163033 143:0.00389028 144:0.0203769 145:0.0581547 146:0.00933632 147:0.243169 148:0.0444848 149:0.305799 151:0.302936 152:0.0521643 153:0.0634488 154:0.297181 155:0.000416446 156:0.018323 157:0.00324883 158:0.00414182 159:0.382617 160:0.382617 161:0.0132101 162:0.308091 163:0.208635 164:0.000113177 165:0.128149 166:0.487829 167:0.000533188 168:0.0540966 169:0.0157467 170:0.205768 171:0.0365562 172:0.0660101 173:0.120451 174:0.161427 175:0.205824 176:0.00616587 177:0.0130651 178:0.00783903 179:0.0896819 180:0.00745795 181:0.0192797 182:0.137933 183:0.119658 184:0.157369 185:0.0546792 186:0.0038982 187:0.00860761 188:0.160422 189:0.00224976 190:0.0627426 191:0.031992 192:0.444861 193:0.0831398 194:0.039267 195:0.000631386 196:0.0116514 198:0.0328426 199:0.000309132 200:0.0231295 201:0.00429542 202:0.00217665 203:0.0128883 204:0.401098 206:0.0133566 207:0.0104212 208:0.00887436 209:0.340006 210:0.080683 211:0.188453 212:0.0249472 213:0.0252377 214:0.006609 217:0.151579 218:0.0366767 219:0.104288 220:0.0693683 221:0.0187339 223:0.102699 224:0.289779 225:0.3296 226:0.293521 227:0.281021 228:0.190226 229:0.168423 230:0.118929 231:0.0399945 232:0.0274787 233:0.117189 234:0.0106977 235:0.0403033 236:0.361358 237:0.489815 239:0.435858 240:0.147946 241:0.180382 242:0.195448 243:0.0451983 244:0.103374 245:0.194329 246:0.347532 247:0.00397463 248:0.00224425 249:0.377702 250:0.0130315 251:0.0127964 252:0.00402945 253:0.0014361 254:0.00195266 255:0.000708882 257:0.0011451 258:0.00218777 259:0.00237347 260:0.00657378 261:0.266965 262:0.0154306 263:0.163791 264:0.00345372 265:0.0985102 266:0.0526751 267:0.0122742 268:0.117634 269:0.203837 270:0.30324 271:0.0138668 272:0.0123652 273:0.459951 274:0.0968683 275:0.0543753 276:0.00679105 277:0.402249 278:0.00185101 279:0.0281307 280:0.101034 281:0.352103 282:0.00716853 283:0.0195566 284:0.00457113 285:0.000119039 288:0.0666468 289:0.19906 290:0.0193603 291:0.167957 292:0.00777991 293:0.412872 294:0.00562042 295:0.00113552 296:0.00257848 297:0.135016 298:0.213903 299:0.00504982 300:0.000160585 301:0.0221902 302:0.0117506 303:0.0372712 304:0.28624 306:0.186552 308:0.00101181 309:0.155455 310:0.09255 311:0.0205378 312:0.186058 313:0.000230777 314:0.0591412 315:0.182521 316:0.411657 317:0.406808 318:0.0335406 319:0.00289606 320:0.14279 321:0.365334 322:0.0099255 323:0.0336442 324:0.0304004 325:0.122903 326:0.139982 327:0.240828 328:0.0144651 329:0.165664 330:0.0853724 331:0.242408 332:0.198836 333:0.148141 334:0.0396288 335:0.0111033 336:0.0239848 337:0.00287064 340:0.412599 341:0.0243227 342:0.021884 343:0.00182777 344:0.0135427 345:0.47576 346:0.0057967 347:0.220373 348:0.000416759 349:0.41834 350:6.29027e-005 351:0.0916909 352:0.00804598 353:0.0144612 354:0.346434 355:0.0629693 356:0.310939 357:0.0537256 358:0.000184558 359:0.191809 360:0.114153 361:0.0771803 362:0.00636409 363:0.00038792 364:0.00214848 365:0.0266154 366:0.216367 367:0.0258154 368:0.00554205 369:0.0048615 370:0.0992411 371:0.281831 372:0.345116 373:0.0415445 374:0.000700901 375:0.0221866 376:0.0703111 377:0.0310797 378:0.0909556 379:0.0255007 380:0.0667704 381:0.384503 382:0.0017752 383:0.0285507 384:0.00479936 385:0.00421434 386:0.00043219 387:0.0036901 388:0.012584 389:0.0283577 390:0.0122082 391:0.031132 392:0.028784 393:0.000492278 394:0.000428815 395:0.00293773 396:0.284984 397:0.399684 398:0.393712 399:0.0039261 400:0.000309132 401:0.000351613 402:0.091679 403:0.151244 404:0.206828 405:0.2497 406:0.185832 407:0.00163621 408:0.0172397 409:0.401098 410:0.0275318 411:0.00448626 412:0.0984283 413:0.00971032 414:0.256469 415:0.0796864 416:0.101923 417:0.729976 418:0.0865553 419:0.00983291 420:4.61494e-005 421:0.460528 422:0.0050968 423:0.487816 424:2.29406e-005 426:0.000932139 427:0.000239262 428:0.144803 429:0.00386596 430:0.0155541 432:0.0481999 433:0.00663071 434:0.322004 435:0.116875 436:0.00763754 437:0.0442662 438:0.426721 439:0.000422781 440:0.00214535 441:0.00130839 442:0.254683 443:0.0358958 444:0.00127269 445:0.0719197 446:0.0876844 447:0.090323 448:0.200981 449:0.339082 451:5.10702e-006 452:0.00950174 453:0.180802 454:0.00753536 455:0.0376742 456:0.0143007 457:0.0325944 458:0.0185109 459:0.0118945 460:0.00641115 461:0.403234 462:0.00105556 463:0.00175124 464:0.0223808 465:0.136782 466:0.00902917 467:0.0199368 468:0.000489473 470:4.23061e-005 472:0.00773533 473:0.00318632 474:0.00879067 475:0.00836096 476:0.271306 477:0.460514 478:0.000375195 479:0.022655 480:0.00923772 481:0.00434033 482:0.0316261 483:0.291343 484:0.00108313 485:0.41834 486:0.346434 487:0.186563 488:0.0891216 489:0.0872152 490:0.0238036 491:0.276805 492:0.0233641 493:0.196758 494:0.168486 495:0.0293566 496:0.30324 498:0.0181738 499:0.176719 500:0.00750453 501:0.000375529 502:0.0804537 503:0.0309687 504:0.0436723 505:0.00174053 506:0.00798018 507:0.00106269 508:0.351486 509:0.0667421 510:0.000652369 511:0.245834 512:0.0601054 513:0.0868259 514:0.345116 515:0.131865 516:0.0684054 517:0.173368 518:0.0140188 519:0.0384053 520:0.0290309 521:0.451947 522:0.0559549 523:0.0417996 524:0.00894427 525:0.0152338 526:0.0015233 527:0.0963365 528:0.00258647 529:0.0184871 530:0.202375 531:0.444861 532:0.0339 533:0.00234645 534:0.00242492 535:0.0101104 536:0.021677 537:0.0285524 538:0.484376 539:0.00727476 540:0.10653 542:0.0024373 543:0.000946476 544:0.399684 545:0.210694 547:0.163269 548:0.0281098 549:0.218775 550:0.191416 552:0.00834751 553:0.412872 554:0.307078 555:0.518432 556:0.12561 557:0.186895 558:0.245032 559:0.0918387 560:0.024034 561:0.0205561 562:0.0740082 563:0.0495982 564:0.00018269 565:0.233428 566:0.0273854 567:0.265783 568:0.00675432 569:0.00234719 570:0.0657503 571:0.475288 572:0.104215 573:0.0595014 574:0.0112188 575:0.00143982 576:0.000629533 578:0.00011471 579:0.043652 580:0.0053109 581:0.270738 582:0.027796 583:0.290735 584:0.0297984 585:0.315917 586:0.0604262 587:0.00353412 588:0.402124 589:0.0012212 590:0.00861495 591:0.0666325 592:0.0588504 593:0.000320156 594:0.165681 595:0.12947 596:0.0127375 597:0.07065 598:0.0582142 599:0.139944 600:0.562997 601:0.0318124 602:0.0119469 603:0.403234 604:0.403234 605:0.0256755 606:0.403234 607:0.0524528 608:0.0232585 609:0.0113281 611:0.00189459 612:0.00760778 613:0.382617 614:0.00107913 615:0.412599 616:0.00140785 617:0.0283595 618:0.0130865 619:0.00103022 620:0.47576 621:0.125804 622:0.0278387 623:0.0178911 624:0.0227589 625:0.0777958 626:0.0503328 627:0.374087 628:0.0183387 629:0.0001547 630:0.00170926 631:0.059369 632:0.166008 633:0.139764 634:0.0527738 635:0.00381066 636:0.0200721 637:0.0193399 638:0.188846 639:0.0612228 640:0.0381271 641:0.0348938 642:0.00134266 643:0.00573556 644:0.00727183 645:0.00385446 646:0.0516145 647:0.00456658 648:0.351486 649:0.0487899 650:8.73604e-006 651:0.351486 652:0.351486 653:0.0578461 655:3.78387e-006 656:0.00796693 657:0.0558768 658:0.345116 659:0.000688737 660:0.0259463 661:0.081869 662:0.0511611 664:0.0324153 665:0.0179942 666:0.0239755 667:0.0064276 668:0.0247543 669:0.039018 670:0.00244768 671:0.0632861 672:0.0280125 673:0.14747 674:0.0948461 675:0.454946 676:0.00586755 677:0.0340747 678:0.0154273 680:0.00116812 681:0.055686 682:0.0471875 683:0.352103 684:0.359613 685:0.0481165 686:0.0512838 687:0.444861 688:0.0423247 689:0.0464363 690:0.00254808 691:0.244168 692:0.0347309 693:0.219376 694:0.156727 696:0.0184113 697:0.00202612 698:0.216003 700:0.130525 701:0.359751 702:0.00525268 703:0.127001 704:0.0194455 705:0.0163639 706:0.010705 707:0.0528659 708:0.00808309 709:0.00734425 710:0.0786142 711:0.164866 712:0.13098 713:0.0028388 714:0.00239072 715:0.223967 716:2.23227e-005 717:0.418968 718:0.0774505 719:0.539635 720:0.0613293 721:0.00101181 722:0.320393 723:0.355969 724:0.000953345 725:0.000953345 726:0.153345 727:0.0231178 728:0.0346174 729:0.0147299 730:0.091585 731:0.00210925 732:0.426721 733:0.0012919 734:0.00491334 735:0.0111406 736:0.000858374 737:0.001493 738:0.309902 742:0.00722761 744:0.124839 745:0.104392 746:0.00766947 747:0.00175181 749:0.00173764 750:0.221793 751:0.33022 752:0.400968 753:0.320226 754:0.101879 755:0.024068 756:0.0723417 757:0.0349849 758:0.00518282 759:0.00184878 760:0.26546 761:0.0106582 762:0.360568 763:6.05353e-005 764:0.00249221 765:0.00260572 766:0.168946 767:0.00106615 768:0.00366683 769:0.460514 770:0.177683 772:0.00277437 773:0.00361798 774:0.0164403 775:0.00351832 776:0.0199711 777:0.0141962 778:0.0234586 779:0.0025298 780:0.0239408 781:0.000744932 782:0.119961 783:0.027223 784:0.0316537 785:0.0455843 786:0.0704723 787:0.228996 788:0.310939 789:0.310939 790:0.305316 791:0.128279 792:0.0626315 793:0.0124653 794:0.159992 795:0.00607355 796:0.459951 797:0.0095468 798:0.00456499 799:0.000148205 800:0.00628482 801:0.0234385 802:0.00490889 803:0.00111266 804:0.0112869 805:0.0963545 806:0.000636093 807:0.110015 808:0.0116345 809:0.0394134 810:1.24801e-006 811:0.345116 812:0.130353 813:0.345116 814:0.345116 815:0.0517136 816:0.0278858 817:0.114607 818:0.409142 819:0.264514 820:0.0103 821:0.037205 822:0.00653682 823:0.158443 824:0.0790806 825:0.00223388 826:0.0131441 827:0.00494967 828:0.013681 829:0.0081771 830:0.0213435 831:0.357143 832:0.0390389 833:0.0707456 834:0.359613 835:0.0450627 836:0.00911711 837:0.0354772 838:0.292211 840:0.000117402 841:0.0733883 843:0.0104108 844:0.016742 845:0.150611 846:0.0816925 848:0.0946902 849:0.0535703 850:0.114694 851:0.612012 853:0.401098 854:0.00698159 855:0.347848 856:0.203497 857:0.412872 858:0.096507 859:0.0208702 860:0.0811394 861:0.0366765 862:0.00202328 863:0.422331 864:0.012721 865:0.00351786 866:0.0405852 867:0.00263759 868:0.0472309 869:0.00823542 870:0.0145407 871:0.539635 872:0.17403 873:0.359435 874:0.359435 875:0.00740922 876:0.359435 877:0.00234813 880:0.12967 881:0.1768 882:0.00667341 883:0.18397 884:0.0632563 885:0.347911 886:0.0020345 887:3.78643e-006 888:0.0348959 889:0.00413827 890:0.406808 891:0.00534176 892:0.406808 893:0.151753 894:0.22851 895:0.0746188 896:0.587514 897:0.0447766 898:0.233655 899:0.194402 900:0.0649215 901:0.112086 902:0.345984 904:0.0168212 905:0.00726039 906:0.132323 907:0.0194607 908:0.0246544 909:0.00214952 910:0.028765 911:0.0487764 912:0.403234 913:0.0165789 914:0.270509 915:0.00685883 916:0.00094728 918:0.382617 919:0.000363691 920:0.0213025 921:0.0092663 923:0.412599 924:0.0154304 925:0.00295461 926:0.00839477 927:0.00511613 928:0.123156 929:0.47576 930:0.00648285 931:0.00511757 932:0.0113455 933:0.46841 934:0.00611348 935:0.00253569 936:0.00679312 937:5.05464e-005 938:0.262852 939:0.000130717 940:0.253051 941:0.346434 942:0.00550753 943:0.125215 944:0.0409354 945:0.0250355 946:0.0611773 947:0.0381305 948:0.0436946 949:0.0572004 950:0.0302488 951:0.00780453 952:0.0131415 953:0.459951 954:0.0857832 955:0.00531787 956:0.0129124 957:0.00453765 958:0.187434 959:0.0181797 960:0.0164501 962:0.000790616 963:0.364633 964:0.0683947 966:0.00215069 967:0.0860256 968:0.0431954 969:0.0165661 970:0.0161809 971:0.049201 972:0.311662 973:0.00202552 975:0.0112731 976:0.195188 977:0.0413512 979:0.0218909 980:0.00127204 981:0.0527296 982:0.0266883 983:0.0312546 984:0.0980828 985:0.00961753 987:0.352103 988:0.0408303 989:0.00889099 990:0.00307339 991:0.359613 992:0.00606668 993:0.0318587 994:0.000662799 995:0.0851412 996:0.0286013 997:0.000341866 998:0.0137584 999:0.0112716 1003:0.13448 1004:0.00307484 1005:0.333126 1006:0.0242959 1007:0.00838553 1009:0.00841244 1010:0.000840024 1011:0.139954 1012:0.401098 1013:2.03327e-005 1015:0.0170311 1016:0.00356842 1017:0.0307459 1018:0.0981775 1019:0.14203 1020:0.0534598 1021:0.213944 1022:0.0284171 1023:0.0510615 1024:0.0632205 1025:0.0301643 1026:0.000484474 1027:0.0141239 1028:0.418968 1029:0.000625508 1030:0.005458 1031:0.418968 1032:0.00207724 1033:0.0311708 1034:0.0476483 1035:0.165485 1036:0.106039 1037:0.00415584 1038:0.0660315 1039:0.000914871 1040:0.0196008 1041:0.0227805 1042:0.475288 1043:0.000628534 1045:0.0170433 1046:0.0233563 1047:0.00761559 1048:0.181301 1049:0.076746 1050:0.187756 1051:0.281496 1052:0.0182603 1053:0.076308 1054:0.289181 1055:0.0165662 1056:0.00679334 1057:0.000229624 1058:0.00166798 1059:0.426721 1060:0.00024653 1061:0.00102907 1062:0.0584909 1063:0.406808 1064:0.0244797 1065:0.0193708 1066:0.104428 1067:0.0703819 1068:0.0158378 1069:0.00663693 1070:0.0488819 1071:0.176573 1072:0.109857 1073:0.0533617 1074:0.189392 1075:0.0582847 1076:0.123433 1077:0.0368456 1078:0.0118189 1079:0.0178635 1081:0.000726888 1082:0.0131252 1083:0.00209089 1084:0.0126085 1085:0.0487267 1086:0.0469325 1087:0.377702 1088:0.00305197 1089:0.212689 1090:0.00615206 1092:7.26781e-006 1093:0.12933 1094:0.0014439 1095:0.392266 1096:0.000383126 1097:0.00470211 1098:0.0259673 1099:0.00203821 1100:0.472155 1101:0.00228135 1103:0.0126956 1104:0.051418 1105:0.0626238 1106:0.0906614 1107:0.309571 1108:0.146179 1109:0.130126 1110:0.408218 1111:0.0575879 1112:0.249988 1113:0.0808704 1114:0.0184345 1115:0.0858649 1116:0.310939 1117:0.0108697 1118:0.0954611 1119:0.30324 1120:0.243936 1121:0.0634035 1122:0.244006 1123:0.0319994 1124:0.23084 1125:0.433036 1126:0.0949076 1127:0.0405478 1128:0.0105581 1129:0.433036 1130:0.00917135 1131:0.00193581 1132:7.0565e-005 1133:0.00525188 1134:0.474083 1135:0.00232046 1136:0.364633 1137:0.358476 1138:0.364633 1139:0.0174096 1140:0.364633 1141:0.0217414 1142:0.351486 1143:0.0484499 1144:0.0129642 1146:0.351486 1147:0.0160164 1148:0.123284 1149:0.00668589 1150:0.0671282 1151:0.345116 1152:0.0419597 1153:0.409142 1154:0.00390827 1155:0.0978441 1156:0.451947 1157:0.47381 1158:0.120972 1159:0.00936975 1160:0.330015 1162:0.0519768 1163:0.00571798 1164:0.0101136 1165:0.00854177 1166:0.00834108 1167:0.000868183 1168:0.0290812 1169:0.0583876 1170:0.0154409 1171:0.0703339 1172:0.538051 1173:0.00294728 1174:0.0372999 1175:0.000369023 1176:0.00239172 1178:0.00667127 1179:0.00257888 1180:0.114644 1181:0.00512992 1182:0.0135897 1184:0.0103681 1185:0.180847 1186:0.0521208 1188:0.0021113 1189:0.0011875 1190:0.0654292 1191:0.00200638 1192:0.12931 1193:0.0742327 1194:0.376337 1195:0.0111436 1196:0.00607321 1197:0.106229 1198:0.00032207 1199:0.104177 1200:0.0207596 1201:0.00328219 1202:0.00136983 1203:0.00995781 1204:0.00674881 1206:0.122766 1207:0.00140456 1208:0.00228877 1209:0.359435 1210:0.000862864 1212:0.00828161 1213:0.00400226 1214:0.0219486 1215:0.0244722 1216:0.0920664 1217:0.0230689 1218:0.279093 1219:0.00167385 1220:0.00148338 1221:0.411657 1222:0.000400367 1223:0.112724 1226:0.0255324 1227:0.352313 1228:0.00429674 1229:0.0201533 1230:0.00453062 1232:0.0335122 1233:0.074678 1234:0.00244534 1235:0.248576 1237:0.00627011 1238:0.0567492 1239:0.29933 1241:0.00238803 1242:0.0496827 1243:0.0231966 1244:0.0461485 1245:0.0296488 1246:0.562997 1247:0.034922 1248:0.0131447 1249:0.00176991 1250:0.0243334 1251:0.048401 1252:0.00874842 1253:0.0064396 1254:0.377702 1255:0.0110192 1256:0.0105378 1257:0.0185302 1258:0.214401 1259:0.000263745 1261:0.000158247 1262:0.382617 1263:0.412599 1264:0.000188628 1266:0.00228135 1267:0.0492038 1268:0.152166 1269:0.00624301 1270:0.385095 1271:0.00601894 1272:0.011364 1273:0.00072894 1274:0.10376 1275:0.116209 1276:0.30324 1277:0.433036 1278:0.00545219 1279:0.00594699 1280:0.00533662 1281:0.00307237 1283:0.0245866 1284:0.364633 1285:0.0240142 1286:0.00497358 1287:0.017857 1288:0.321408 1289:0.200692 1290:0.0512645 1291:0.0266387 1292:0.337161 1293:0.0373037 1294:0.228245 1295:0.384503 1296:0.0123293 1297:0.0290098 1298:0.0602364 1299:0.0102293 1300:0.47381 1301:0.0100688 1302:0.273566 1303:0.0119475 1304:0.00339033 1305:0.0131573 1306:0.0223348 1307:0.0775111 1308:0.0322931 1309:0.00104961 1310:0.238356 1311:0.00630338 1312:0.00194139 1313:0.227273 1314:0.00724009 1315:0.197458 1317:0.080808 1318:0.0151265 1319:0.0769867 1320:0.0544697 1321:0.0202789 1322:0.01815 1323:0.00932488 1324:0.487816 1325:0.0577751 1326:0.000476513 1327:1.33936e-005 1328:0.418968 1329:0.00167483 1330:0.0548162 1331:0.0381417 1332:0.359435 1333:0.349693 1334:0.359435 1335:0.00331224 1336:0.232884 1337:0.151982 1338:0.0470654 1339:0.0216299 1340:0.293491 1341:0.148233 1342:0.060799 1343:0.0681258 1344:0.00564052 1345:0.06757 1346:0.0540355 1347:0.0171174 1348:0.168541 1349:0.0714436 1350:0.0152865 1351:0.214779 1352:0.109182 1353:0.153338 1354:0.1233 1355:0.0452685 1356:0.0438999 1357:0.0209083 1358:0.00330452 1359:0.014786 1360:0.146054 1361:0.00108565 1362:0.0179222 1363:0.377702 1364:0.0283816 1365:0.377702 1366:0.00390911 1367:0.00296344 1368:0.00359972 1369:0.291307 1370:0.0046121 1371:0.00256298 1372:0.000872254 1373:0.166963 1374:7.38433e-005 1375:0.0122239 1376:0.00181461 1377:0.0525905 1378:0.272132 1379:0.00891106 1380:0.0119907 1381:0.385095 1382:0.0781498 1383:0.0169861 1384:0.165674 1385:0.41834 1386:0.00429003 1387:0.206616 1388:0.188491 1389:0.0330131 1390:0.215319 1391:0.30324 1393:0.0950245 1394:0.254083 1395:0.0149907 1397:0.474083 1398:0.000546383 1400:0.0141547 1402:0.0756019 1403:0.0366696 1404:0.0170684 1405:0.00307182 1406:0.0158892 1407:0.384503 1408:0.0348899 1409:0.451947 1410:0.001953 1411:0.0817715 1412:0.00158874 1413:0.281895 1414:0.0157878 1415:0.359613 1416:0.359613 1417:0.016856 1418:0.00550586 1419:0.369511 1420:0.000472507 1421:0.000610046 1422:0.538051 1423:0.0402523 1424:0.0323259 1425:0.00408426 1426:0.0103993 1427:0.0197438 1428:0.0595267 1429:0.0239377 1430:0.368321 1431:0.0438457 1432:0.0124722 1433:0.070506 1435:0.418968 1436:0.00458167 1437:0.0730036 1438:0.401651 1439:0.0406479 1440:0.132356 1441:0.22062 1442:0.00759051 1444:0.00273057 1445:0.125661 1446:0.0115346 1447:0.597701 1448:0.115779 1449:0.0385534 1450:0.0535466 1451:0.409607 1452:0.728654 1453:0.0633208 1454:0.0238556 1455:0.0895678 1456:0.00295947 1458:0.0171123 1459:0.398079 1460:0.406808 1461:0.0401299 1462:0.16035 1463:0.121133 1464:0.0329693 1465:0.13561 1466:0.0538564 1467:0.194607 1468:0.0737362 1469:0.0675292 1470:0.00739309 1471:0.268896 1472:0.0637735 1473:0.000136441 1474:0.121967 1475:0.0114512 1476:5.08747e-005 1477:0.013841 1478:0.00215351 1479:0.00317902 1480:0.00506212 1481:0.0113722 1482:0.0111265 1483:0.0115923 1484:0.0475201 1485:0.0603885 1487:0.00113382 1488:0.069054 1489:0.205112 1490:0.0121363 1491:0.169398 1492:0.472302 1493:0.337761 1494:0.0409022 1495:0.404446 1496:0.350333 1497:0.0142531 1498:0.00287352 1499:0.0186004 
-0 0.01860700966164474 0:0.362871 1:0.136793 2:0.0212066 3:0.191848 4:0.105987 5:0.0207348 6:0.00100651 7:0.00647975 8:0.140671 9:0.246446 10:0.180925 11:0.236578 12:0.362871 13:0.019651 14:0.0188451 15:0.0151743 16:0.302836 17:0.0159688 18:0.00628907 19:0.113822 20:0.0311087 21:0.00456064 22:0.0172981 23:0.139996 24:0.0207545 25:0.265136 26:0.0373335 27:0.0208326 28:0.330326 29:0.349011 30:0.140197 31:0.0412726 32:0.153824 34:0.0605355 35:0.00184561 36:0.056212 37:0.149272 38:0.0337842 39:0.068731 40:0.212973 41:0.00891317 42:0.0314292 43:0.000851291 44:0.0731284 45:0.0154714 46:0.00375581 47:0.00537327 48:0.122751 49:0.000105268 50:0.38811 51:0.0140132 52:0.0937843 53:0.159529 54:0.00124671 55:0.00366868 56:0.37254 57:0.0346707 58:0.369587 59:0.00307602 60:0.00215403 61:0.0479431 62:0.29882 63:0.0931872 64:0.108878 65:0.408564 66:0.704323 67:0.093044 68:0.0302315 69:0.0281083 70:0.229045 71:0.00475059 72:0.188889 73:0.0069338 74:0.0548043 75:0.0569265 76:0.126314 77:0.247008 78:0.0115721 79:0.0542969 80:0.0350037 81:0.270738 82:0.045105 83:0.211679 84:0.0844553 85:0.235954 86:0.0801109 87:0.0395549 88:0.121191 89:0.331434 90:0.00585902 92:0.133035 93:0.0791296 94:0.0350164 95:0.000988399 96:0.279223 97:0.017638 98:0.121776 99:0.149738 100:0.00520323 101:0.00894199 102:0.0622989 103:0.125483 104:0.0551309 105:0.146981 106:0.0668107 107:0.323392 108:0.241328 109:0.01893 110:0.268185 111:0.0128825 112:0.0556822 113:0.0403759 114:0.024538 115:0.000774817 116:0.0129934 117:0.258968 118:0.00155069 119:0.0326559 120:0.244585 121:0.0264112 122:0.129071 123:0.402209 124:0.203491 125:0.00528947 126:0.0176151 127:0.194634 128:0.302836 129:0.302627 130:0.255007 131:0.224706 132:0.0797255 133:0.0527654 134:0.210335 135:0.00918727 136:0.00527863 137:0.25005 138:0.410452 139:0.0176323 140:0.156296 141:0.171434 142:0.0874767 143:0.0262983 144:0.0161041 145:0.418211 146:0.418211 147:0.0924799 148:0.0965056 149:0.0840184 150:0.267619 151:0.102814 152:0.148638 153:0.14826 155:0.141519 156:0.256441 157:0.00395812 158:0.0522472 159:0.0347504 160:0.0362388 161:0.350189 162:0.0775771 163:0.0984896 164:0.244659 165:0.0457623 166:0.162816 167:0.0412312 168:0.0157616 169:0.0113102 170:0.0621738 171:0.29882 172:0.0381296 173:0.316001 174:0.316001 175:0.0125908 176:0.138539 179:0.0731667 180:0.0223368 181:0.00911359 182:0.323392 183:0.00433149 184:0.007275 185:0.176516 186:0.0217546 187:0.0118739 188:0.50769 189:0.156219 190:0.0488995 191:0.00423428 192:0.247236 193:0.376231 194:0.0883071 195:0.161707 196:0.0127981 197:0.141074 198:0.0971228 199:0.0571326 200:0.0826662 201:0.0227134 203:0.114838 204:0.29447 205:0.170161 206:0.0142911 207:0.0452471 208:0.0683561 209:0.0446547 210:0.116737 211:0.0285759 212:0.281793 213:0.24917 214:0.0531926 215:0.1908 216:0.292947 217:0.0174753 218:0.292947 219:0.165541 220:0.0133797 221:0.301671 222:0.184773 223:0.0731295 224:0.00175999 225:0.0113365 226:0.0229417 227:0.273339 228:0.0583377 229:0.0219295 230:0.210957 231:0.11525 232:0.141438 233:0.346207 234:0.027984 235:0.349011 236:0.0032718 237:0.0879946 238:0.401025 239:0.000340654 240:0.0453932 241:0.0636391 242:0.090704 243:0.0481653 244:0.097097 245:0.077589 246:0.00726351 247:0.25582 248:0.306786 249:0.00732297 250:0.350189 251:0.210122 252:0.338657 253:0.271556 254:0.0312684 255:0.042588 256:0.403459 257:0.403459 258:0.0339855 259:0.00124943 260:0.318079 261:0.0128601 262:0.0209396 263:0.000764116 264:0.0567004 265:0.0538506 266:0.0343643 267:0.133825 268:0.0047756 269:0.299145 270:0.00643983 271:0.135482 272:0.0295325 273:0.1171 274:0.323392 275:0.0502484 276:0.214261 277:0.027938 278:0.0174398 279:0.258368 280:0.0263792 281:0.197156 282:0.000673718 283:0.0127813 284:0.073026 285:0.308066 286:0.316957 287:0.300773 288:0.0800663 289:0.0100871 290:0.159401 291:0.402209 292:0.0683576 293:0.388063 294:0.0965893 295:0.295571 296:0.116331 297:0.0743865 298:0.299321 299:0.0695445 300:0.200472 301:0.200589 302:0.18845 303:0.210495 304:0.00251243 305:0.0137403 306:0.00767581 307:0.410452 308:0.163695 309:0.16384 310:0.033763 311:0.0672087 312:0.0210938 313:0.127783 314:0.373216 315:0.373216 316:0.135724 317:0.0616746 318:0.081458 319:0.35218 320:0.00182285 321:0.215802 322:0.39985 323:0.0430467 324:0.00842012 325:0.0356007 326:0.00084378 327:0.00395449 328:0.355312 329:0.107115 330:0.37254 331:0.00525559 332:0.0808616 333:0.0021879 334:0.0601195 335:0.0960266 336:0.0538715 337:0.0179138 338:0.207844 339:0.2187 340:0.0105541 341:0.00736904 343:0.0196076 344:0.00736904 345:0.147125 346:0.00601286 347:0.0354428 348:0.498975 349:0.0203575 350:0.00203857 351:0.0124383 352:0.479284 353:0.479284 354:0.0225325 355:0.217003 356:0.0693764 357:0.143356 358:0.0361673 359:0.21383 360:0.0628885 361:0.436294 362:0.0146999 363:0.177326 364:0.408564 365:0.192939 366:0.0352806 367:0.0447873 368:0.0294912 369:0.00394915 370:0.319517 371:0.397732 372:0.375371 373:0.167833 375:0.196656 376:0.0369627 377:0.251327 378:0.0632908 379:0.0346196 380:0.011457 381:0.00325538 382:0.0178785 383:0.0550972 384:0.333939 385:0.236298 386:6.24274e-005 387:0.000104046 388:0.0794183 389:0.00295963 390:0.108185 391:0.00202112 392:0.271057 393:0.0185937 394:0.308066 395:0.25224 396:0.0361857 397:0.311186 398:0.250725 399:0.0453781 400:0.126782 401:0.252138 402:0.0223727 403:0.0464467 404:0.0716891 405:0.0336339 406:0.0138446 407:0.016019 408:0.11672 409:0.0606465 410:0.0303277 411:0.220969 412:0.252124 413:0.0764029 414:0.117062 415:0.224673 416:0.149578 417:0.00969401 418:0.0886115 419:0.13915 420:0.102415 421:0.271202 422:0.16882 423:0.0726006 424:0.136006 425:0.292947 426:0.0512601 427:0.029559 428:0.391542 429:0.0236092 430:0.282547 431:0.366496 432:0.0121107 433:0.173874 434:0.0216195 435:0.38811 436:0.170762 437:0.0963861 438:0.0463145 439:0.0372932 440:0.102235 441:0.00336974 442:0.0911275 443:0.102901 444:0.115364 445:0.00669648 446:0.0115117 447:0.0129923 448:0.0128396 449:0.0120153 450:0.0450039 451:0.273817 452:0.159239 453:0.229513 454:0.357538 455:0.357538 456:0.0107283 457:0.384868 458:0.000144035 459:0.198876 460:0.0858296 461:0.0913154 462:0.21774 463:0.00262491 464:0.364202 465:0.00637704 466:0.00181272 467:0.00329602 468:0.362871 469:0.0562439 470:0.0957998 471:0.229004 472:0.245714 473:0.0555169 474:0.206345 475:0.345149 476:0.326521 477:0.372363 478:0.244584 479:0.0130673 480:0.036751 482:0.318079 483:0.00738014 485:0.0190846 486:0.00537196 487:0.116393 488:0.0191871 489:0.17866 490:0.0808077 491:0.0438064 492:0.0753509 493:0.0130583 494:0.299044 495:0.175409 496:0.0369806 497:0.0594711 498:0.0719846 499:0.0446874 500:0.0314967 501:0.0114745 502:0.00196454 503:0.0676204 504:0.0445952 505:0.00648679 506:0.0416278 507:0.0204662 508:0.00340996 509:0.577226 510:0.00015948 511:0.00330127 512:0.08864 513:0.0679235 514:0.397732 515:0.00529346 516:0.00877568 517:0.106408 518:0.163539 519:0.00928146 520:0.0188114 521:0.0855543 522:0.155748 523:0.210702 524:0.0175384 525:0.103947 526:0.00209133 527:0.425539 529:0.00807093 530:0.376651 531:0.199269 532:0.00318487 533:0.0529835 534:0.0784131 535:0.019932 536:0.00411648 537:0.0614465 538:0.128263 539:0.0268374 540:0.0802288 541:0.157014 542:0.188362 543:0.186608 544:0.0965029 545:0.0204923 546:0.174661 547:0.314518 548:0.00229493 549:0.402209 550:0.00612579 551:0.00911826 552:0.0302789 553:0.155578 554:0.0925986 555:0.110519 556:0.302836 557:0.0839297 558:0.296938 559:0.176623 560:0.0584969 561:0.032416 562:0.0527266 563:0.105737 564:0.159338 565:0.31532 566:0.00763832 567:0.0572219 568:0.291366 569:0.283699 570:0.0375274 571:0.0308952 572:0.0624242 573:0.00803579 574:0.0269827 575:0.139583 576:0.410452 577:0.223358 578:0.00603623 579:0.147598 580:0.0430837 581:0.0695035 582:0.0575515 583:0.0323614 584:0.0327943 585:0.0251399 586:0.0663552 587:0.0106823 588:0.0135234 589:0.000964631 590:0.348002 591:0.397728 592:0.010379 593:0.159445 594:0.0114336 595:0.101985 596:0.0903831 597:0.066507 598:0.0454338 599:0.0366245 600:0.0900992 601:0.121785 602:0.0128269 603:0.12295 604:0.114583 605:0.0271297 606:0.0183108 607:0.0071385 608:0.0383139 609:0.042433 610:0.350189 611:0.00892651 612:0.0680705 613:0.00739102 614:0.00167805 615:0.0307153 616:0.126206 617:0.155052 618:0.372363 619:0.0521637 620:0.117251 621:0.231575 623:0.0232473 624:0.378379 625:0.111054 626:0.318079 627:0.0165651 628:0.00886605 629:0.00122314 631:0.0172743 632:0.0109147 633:0.013336 634:0.0207629 635:0.0330926 636:0.0103414 637:0.00560483 638:0.181518 639:0.185025 640:0.032557 641:0.126471 642:0.00203117 643:0.0688594 644:0.0235105 645:0.0363967 646:0.100205 647:0.000520561 648:0.0314548 649:0.00819807 650:0.00117992 651:0.112618 652:0.00314601 653:0.00737589 655:0.0197495 656:0.0661033 657:0.0748182 658:0.135635 660:0.106798 661:0.0383956 662:0.323392 663:0.323392 664:0.100211 665:0.403191 666:0.02611 667:0.294213 668:0.000956667 669:0.288053 670:0.0109475 671:0.128672 672:0.312005 673:0.129763 674:0.188807 675:0.0178032 676:0.033545 677:0.00271406 678:0.0475556 679:0.00298508 680:0.0641531 681:0.50769 682:0.00236428 683:0.163529 684:0.238441 685:0.00144067 686:0.00108431 687:0.376651 689:0.0198239 690:0.308066 691:0.0736981 692:0.0686159 693:0.109417 694:0.0503989 695:0.128307 696:0.0455699 697:0.0106288 698:0.441207 699:0.0976425 700:0.308962 701:0.0955647 702:0.00703129 703:0.105433 704:0.0935915 705:0.0686767 706:0.0592801 707:0.302836 708:0.180398 709:0.302627 710:0.146272 711:0.302627 712:0.0546851 713:0.299321 714:0.241309 715:0.0850212 716:0.292947 717:0.156995 718:0.011248 720:0.081505 721:0.0223897 722:0.0813763 723:0.158806 724:0.00970088 725:0.366496 726:0.0242171 727:0.166611 728:0.013464 729:0.0714958 730:0.373216 731:0.349011 732:0.000896469 733:0.0649816 734:0.349011 735:0.0149322 736:0.0247733 738:0.0626744 739:0.0240151 740:0.00166864 741:0.00152316 742:0.00765123 743:0.0600005 744:0.219242 745:0.0581947 746:0.0951051 747:0.0898282 748:0.427358 749:0.299453 750:0.0224769 751:0.0040215 752:0.000656778 753:0.00906243 754:0.0467118 755:0.0236172 756:0.0915908 757:0.364202 758:0.0261808 759:0.303389 760:0.0332293 761:0.219295 762:0.187236 763:0.27147 764:0.145406 765:0.165747 766:0.0546494 767:0.336854 768:0.372363 769:0.192111 770:0.182082 771:0.225684 773:0.000574135 774:0.0311129 775:0.018594 777:0.204971 778:0.0300261 779:0.00492278 780:0.0316809 781:0.0338947 782:0.00132822 783:0.0807296 784:0.011989 785:0.09322 786:0.00648945 787:0.29882 788:0.164702 789:0.29882 790:0.00592258 791:0.0900378 792:0.024798 793:0.316001 794:0.18497 795:0.126901 796:0.115542 797:0.2166 798:0.108644 799:0.362804 800:0.042199 801:0.240821 802:0.0521465 803:0.012881 804:0.408564 805:0.0166967 806:0.0272483 807:0.0865157 808:0.0112587 809:0.0309756 810:0.000684991 811:0.0638913 812:0.0204787 813:0.397732 814:0.397732 815:0.0360786 816:0.00735644 817:0.0240251 818:0.00230552 819:0.0109504 820:0.403191 821:0.341722 822:0.0160665 823:0.0228043 824:0.341722 825:0.0185208 826:0.0561003 827:0.00736665 828:0.0235492 829:0.00842924 830:0.111029 831:0.425539 832:0.0124359 833:0.0141988 834:0.425539 835:0.0139918 837:0.123073 838:0.00668802 839:0.194363 840:0.270891 841:0.00907999 842:0.316957 843:0.0876194 844:0.101491 845:0.0356214 846:0.314518 847:0.314518 848:0.056093 849:0.0214492 850:0.402209 851:0.402209 852:0.00355544 853:0.146179 854:0.00148792 855:0.388063 856:0.388063 857:0.0752908 858:0.280737 859:0.268969 860:0.157212 861:0.0114397 862:0.238586 863:0.0566262 864:0.0898228 865:0.155456 866:0.0349013 867:0.292947 868:0.0328629 870:0.07309 871:0.108432 872:0.0512458 873:0.0289969 874:0.0104631 875:0.0373628 876:0.0888575 877:0.0887659 878:0.410452 879:0.356776 880:0.132168 881:0.000243251 882:0.0740467 883:0.0142179 884:0.113456 885:0.0269094 886:0.0203526 887:0.160286 888:0.397728 889:0.00556875 890:0.24703 891:0.384891 892:0.081426 893:0.0194241 894:0.0380295 895:0.00174667 896:0.0319868 897:0.299571 898:0.0211167 899:0.0933592 900:0.236321 901:0.015609 903:0.0804404 904:0.045745 905:0.00440292 906:0.307458 907:0.00328463 908:0.384868 909:0.0804826 910:0.364202 911:0.0436594 912:0.174716 913:0.000770281 914:0.000932555 915:0.00285166 916:0.000550049 917:0.0157709 918:0.00105586 920:0.087916 921:0.186333 922:0.380782 923:0.0644917 924:0.00572687 925:0.0386803 926:0.0248394 927:0.169523 928:0.0477853 929:0.0381919 930:0.000749656 931:0.378379 932:0.378379 933:0.0206439 934:0.378379 935:0.00722904 936:0.260355 937:0.00319242 938:0.019538 939:0.0643215 940:0.0640467 941:0.0827101 942:0.0815651 943:0.0376868 944:0.0795089 945:0.29882 946:0.00636522 947:0.0200165 948:0.436294 949:0.311267 950:0.017458 951:0.0039988 952:0.37098 953:0.0514367 954:0.0798286 955:0.0504896 956:0.115479 957:0.249589 958:0.0193224 959:0.379972 960:0.00324771 961:0.00474098 962:0.0393287 963:0.0656932 964:0.0101584 966:0.0153129 967:0.0828205 968:0.00390939 969:0.0988359 970:0.0198907 971:0.0281688 972:0.0691162 973:0.403191 974:0.215565 975:0.00803104 976:0.0462307 977:0.148678 978:0.0513215 979:0.341722 980:0.404591 981:0.00169627 982:0.0280656 983:0.29097 984:0.12595 985:0.000387127 987:0.00678676 988:0.00221098 989:0.00240112 990:0.130496 991:0.192474 992:0.000637701 993:0.156057 994:0.147959 995:0.0073463 996:0.120354 997:0.015093 998:0.0208653 999:0.0366845 1000:0.316957 1001:0.316957 1002:0.314518 1003:0.0131182 1004:0.163585 1005:0.19067 1006:0.0104409 1007:0.0205941 1008:0.0928095 1009:0.00460929 1010:0.0183697 1011:0.441207 1012:0.133408 1013:0.009792 1014:0.129214 1015:0.00219659 1016:0.018557 1017:0.0955694 1018:0.0439927 1019:0.0362567 1020:0.00465821 1021:0.151628 1022:0.118804 1023:0.16694 1024:0.137283 1025:0.0076422 1026:0.0934283 1027:0.0526818 1028:0.1415 1029:0.292947 1030:0.102072 1031:0.00271717 1032:0.0857195 1033:0.391542 1034:0.23453 1035:0.380503 1037:0.00401341 1038:0.0351419 1039:0.291971 1040:0.301671 1041:0.0300367 1042:0.00147986 1043:0.101816 1044:0.315234 1045:0.023609 1046:0.0498889 1047:0.366496 1048:0.198863 1049:0.0328326 1050:0.105027 1051:0.014379 1052:0.295634 1053:0.0115553 1054:0.231167 1055:0.00798174 1056:0.150466 1057:0.0269329 1058:0.215827 1059:0.120201 1060:0.0186136 1061:0.208603 1062:0.397728 1063:0.0275738 1064:0.0187808 1065:0.363354 1066:0.0403151 1067:0.0723199 1068:0.239478 1069:0.0760532 1070:0.0129508 1071:0.154535 1072:0.132726 1073:0.194392 1074:0.0149775 1075:0.37254 1076:0.37254 1077:0.055135 1078:0.357538 1079:0.007685 1080:0.0205405 1081:0.0568721 1082:0.00985192 1083:0.131576 1084:0.000420619 1085:0.051136 1086:0.201332 1087:0.00171596 1088:0.00778349 1089:0.0753953 1090:0.0432973 1091:0.126351 1092:0.0386403 1093:0.0496918 1094:0.0258553 1095:0.0329568 1096:0.00479712 1097:0.133325 1098:0.00442142 1099:0.0636981 1100:0.0275833 1101:0.119144 1102:0.364747 1104:0.196793 1105:0.293486 1106:0.120826 1107:0.238966 1108:0.00831032 1109:0.036871 1110:0.0214353 1111:0.479284 1112:0.00842436 1113:0.00910231 1114:0.146849 1115:0.29882 1116:0.107607 1117:0.29882 1118:0.109235 1119:0.306975 1120:0.128043 1121:0.193446 1122:0.113348 1123:0.00304283 1124:0.0978922 1125:0.083479 1126:0.0159229 1127:0.436294 1128:0.391827 1129:0.0491077 1130:0.0176547 1131:0.0337284 1132:0.0227897 1133:0.318687 1134:0.015325 1135:0.0105313 1136:0.0441434 1137:0.0426347 1138:0.104584 1139:0.123903 1140:0.509516 1141:0.0361657 1142:0.00657875 1143:0.144959 1144:0.00174043 1145:0.000163777 1146:0.285829 1147:0.000887243 1148:0.0100457 1149:0.000510774 1150:0.00466519 1151:0.249736 1153:0.00997563 1154:0.403191 1155:0.012768 1156:0.0843454 1157:0.0148543 1158:0.0279659 1159:0.0680319 1160:0.00729994 1161:0.000343888 1162:0.00190012 1164:1.37005e-005 1165:0.00115299 1166:0.0306313 1167:0.167779 1168:0.376651 1169:0.00336853 1170:0.308066 1171:0.0214983 1172:0.0476517 1173:0.308066 1174:0.0919236 1175:0.145917 1176:0.149289 1177:0.316957 1178:0.107406 1179:0.314518 1180:0.0034725 1181:0.00107995 1182:0.314518 1183:0.314518 1184:0.00382489 1185:0.441207 1186:0.122704 1187:0.0760099 1188:0.00487381 1189:0.12104 1190:0.0205671 1191:0.168222 1192:0.00622365 1193:0.10847 1194:0.0290874 1195:0.138041 1196:0.122977 1197:0.0685075 1198:0.299321 1199:0.00947648 1200:0.130068 1201:0.299321 1202:0.239834 1203:0.146421 1204:0.029673 1205:0.219432 1207:0.00380089 1208:0.088076 1209:0.0573888 1210:0.0132685 1211:0.273117 1212:0.250519 1213:0.297806 1214:0.38811 1215:0.036001 1216:0.0182301 1217:0.349011 1218:0.21775 1219:0.0137671 1220:0.037158 1221:0.103371 1222:0.000516411 1223:0.000748028 1224:0.00723415 1225:0.00140724 1226:0.397728 1227:0.00922009 1228:0.00556875 1229:0.0196655 1230:0.0274334 1231:0.19176 1232:0.09137 1233:0.137348 1234:0.0319008 1235:0.00463451 1236:0.39985 1237:0.39985 1238:0.00341823 1239:0.0951454 1240:0.357538 1241:0.327912 1242:0.0416819 1243:0.067591 1244:0.00260266 1245:0.0127744 1246:0.0496872 1247:0.34967 1248:0.0120179 1249:0.139045 1250:0.364202 1251:0.342729 1252:0.00457113 1253:0.362871 1254:0.0216497 1255:0.0237399 1256:0.0286054 1257:0.165759 1258:0.00986587 1259:0.350189 1260:0.350189 1261:0.235273 1262:0.0285421 1263:0.0206085 1264:0.0706828 1265:0.181433 1266:0.028513 1267:0.0274595 1268:0.365478 1269:0.0343383 1270:0.0425733 1271:0.09008 1272:0.0157091 1273:0.481971 1274:0.14884 1275:0.133243 1276:0.0106006 1277:0.128883 1278:0.37098 1279:0.361345 1280:0.0226708 1281:0.0861293 1282:0.0161306 1283:0.046837 1284:0.0165651 1285:0.00453946 1286:0.00658192 1287:0.00766774 1288:0.0119522 1289:0.577226 1290:0.00100644 1291:0.0442375 1292:0.0418251 1293:0.0264908 1294:0.012995 1295:0.0206067 1296:0.260927 1297:0.178968 1298:0.0172858 1299:0.404591 1300:0.0106062 1301:0.404591 1302:0.0227958 1303:0.000727897 1304:0.00246677 1305:0.000178054 1306:0.00115299 1307:0.0586086 1308:0.0235237 1309:0.308066 1310:0.180854 1311:0.0306942 1312:0.132462 1313:0.0884091 1314:0.0329015 1315:0.0422458 1316:0.0302862 1317:0.0606274 1318:0.0942063 1319:0.298421 1320:0.00450942 1321:0.302627 1322:0.166354 1323:0.183369 1324:0.193966 1325:0.0150421 1326:0.0542211 1327:0.164915 1328:0.076483 1329:0.0702397 1330:0.00598574 1331:0.0517892 1332:0.158001 1333:0.301671 1334:0.0205736 1335:0.233658 1336:0.0259967 1337:0.0102844 1338:0.0133448 1339:0.0316947 1340:0.373216 1341:0.048506 1342:0.145095 1343:0.298596 1344:0.0654768 1345:0.00187957 1346:0.0376111 1347:0.0419382 1348:0.0408005 1349:0.133537 1350:0.299011 1351:0.000336534 1352:0.0302122 1353:0.0282989 1354:0.0112674 1355:0.321919 1356:0.0133322 1357:0.0780288 1358:0.0432313 1359:0.0930077 1360:0.384868 1361:0.00124164 1362:0.115109 1363:0.0046687 1364:0.283511 1365:0.00975678 1366:0.132727 1367:0.204862 1368:0.0144511 1369:0.206099 1370:0.133655 1371:0.00683308 1372:0.00580947 1373:0.358362 1374:0.403459 1375:0.000574135 1376:0.00433743 1377:0.318079 1378:0.0356625 1379:0.00224416 1380:0.0609142 1381:0.205321 1382:0.0167866 1383:0.498975 1384:0.0221278 1385:0.0357494 1386:0.217194 1387:0.29882 1388:0.113845 1389:0.16304 1390:0.0038639 1391:0.0328283 1392:0.0225214 1393:0.0114142 1394:0.139398 1395:0.37098 1396:0.183887 1397:0.0634135 1398:0.412011 1399:0.01207 1400:0.00609398 1401:0.00113549 1402:0.291862 1403:0.323392 1404:0.126183 1405:0.323392 1406:0.00669667 1407:0.0167259 1408:0.0533806 1409:0.0731799 1410:0.00155913 1411:0.0234063 1412:0.0308993 1413:0.0119278 1414:0.00589662 1415:0.220443 1416:0.425539 1417:0.00167752 1418:0.00173076 1419:0.376651 1420:0.0892379 1421:0.108154 1422:0.0492262 1424:0.00888165 1425:0.227073 1426:0.0234224 1427:0.108137 1428:0.311275 1429:0.00141298 1430:0.302836 1431:0.084822 1432:0.302627 1433:0.302627 1434:0.12342 1435:0.0815 1436:0.187701 1437:0.391542 1438:0.0730977 1439:0.0534106 1440:0.391542 1441:0.0448133 1442:0.114337 1443:0.167084 1444:0.172757 1445:0.202649 1446:0.00299239 1447:0.00716193 1448:0.0351708 1449:0.0404457 1450:0.0444569 1451:0.105228 1452:0.0448831 1453:0.0514848 1454:0.178819 1455:0.0284516 1456:0.0162462 1457:0.220008 1458:0.190573 1459:0.0696201 1460:0.00970126 1461:0.316811 1462:0.0288264 1463:0.0266065 1464:0.0600434 1465:0.147585 1466:0.0255952 1467:0.15162 1468:0.000519719 1469:0.188277 1470:0.357538 1472:0.000240058 1473:0.00437484 1474:0.315515 1475:0.249423 1476:0.11347 1477:0.0890136 1478:0.0959131 1479:0.00043899 1480:0.108548 1482:0.0122817 1484:0.197774 1485:0.00910692 1486:0.498975 1487:0.0503103 1488:0.224498 1489:0.316001 1490:0.0922858 1491:0.0967836 1492:0.0814694 1493:0.0641789 1494:0.281835 1495:0.00138389 1496:0.0227797 1497:0.341722 1498:0.0112601 1499:0.404591 
