svm_type c_svc
kernel_type linear
nr_class 3
total_sv 62
rho -0.824886 -0.421096 0.139358
label 0 12300 20500
probA -3.91149 -4.49399 -3.94305
probB -0.614248 -0.0105091 0.953569
nr_sv 39 9 14
SV
0.007121868928877517 0 0:0.281993 1:0.107867 2:0.220887 3:0.0501973 4:0.152567 5:0.220055 6:0.288744 7:0.120283 8:0.159365 9:0.0666311 10:0.0654476 11:0.0544433 12:0.247415 13:0.13818 14:0.284706 15:0.284706 16:0.300256 17:0.142422 18:0.120992 19:0.282247 20:0.0687581 21:0.171272 22:0.266284 23:0.246257 24:0.25081 25:0.159853 26:0.0601793 27:0.0795879 28:0.0864484 29:0.0520297 30:0.10889 31:0.114051 32:0.158129 33:0.185256 34:0.0834699 35:0.0971745 36:0.0928541 37:0.00955268 38:0.280664 39:0.293262 40:0.129681 41:0.220313 42:0.133539 43:0.306568 44:0.171079 45:0.232555 46:0.144768 47:0.305922 48:0.0809717 49:0.0249393 50:0.31344 51:0.254302 52:0.123232 53:0.0636944 54:0.230885 55:0.205794 56:0.2124 57:0.287515 58:0.116169 59:0.177488 60:0.166711 61:0.300256 62:0.0887746 63:0.292404 64:0.245795 65:0.293262 66:0.116365 67:0.0967456 68:0.250631 69:0.0851665 70:0.0419158 71:0.197498 72:0.104466 73:0.110566 74:0.0687175 75:0.190824 76:0.149437 77:0.0744571 78:0.233627 79:0.059755 80:0.312445 81:0.0745045 82:0.124234 83:0.0659629 84:0.18897 85:0.0926055 86:0.170426 87:0.0317954 88:0.343442 89:0.0221625 90:0.316836 91:0.271347 92:0.127696 93:0.251417 94:0.0588771 95:0.218813 96:0.108103 97:0.0634394 98:0.146164 99:0.165512 100:0.264554 101:0.178651 102:0.0949181 103:0.0305963 104:0.148065 105:0.13841 106:0.221627 107:0.14544 108:0.216811 109:0.0138612 110:0.267013 111:0.0691858 112:0.117398 113:0.131007 114:0.0158916 115:0.081692 116:0.189238 117:0.0708109 118:0.133018 119:0.0924781 120:0.108998 121:0.0955365 122:0.20657 123:0.187378 124:0.0416681 125:0.0562475 126:0.295091 127:0.164472 128:0.122938 129:0.189005 130:0.192893 131:0.100851 132:0.275877 133:0.211895 134:0.209673 135:0.160177 136:0.30489 137:0.0822536 138:0.288401 139:0.208467 140:0.0624906 141:0.278447 142:0.159491 143:0.218706 144:0.0279323 145:0.097088 146:0.0416108 147:0.084618 148:0.0231803 149:0.235819 150:0.319321 151:0.0728091 152:0.0612875 153:0.313607 154:0.0979618 155:0.084962 156:0.220737 157:0.306643 158:0.0130037 159:0.0373058 160:0.0234206 161:0.0921947 162:0.222538 163:0.284127 164:0.076887 165:0.0890101 166:0.120559 167:0.119549 168:0.231295 169:0.0851258 170:0.0477848 171:0.0559681 172:0.172758 173:0.22906 174:0.0336074 175:0.137062 176:0.041643 177:0.199175 178:0.292404 179:0.0751714 180:0.266895 181:0.142227 182:0.0295215 183:0.0381708 184:0.222226 185:0.0445007 186:0.18826 187:0.100677 188:0.14004 189:0.124451 190:0.0610918 191:0.27293 192:0.211401 193:0.192746 194:0.156758 195:0.128299 196:0.208063 197:0.288744 198:0.164196 199:0.148241 200:0.0959767 201:0.247777 202:0.0848391 203:0.195849 204:0.193268 205:0.27218 206:0.129571 207:0.0989757 208:0.120597 209:0.031477 210:0.159515 211:0.0199424 212:0.0369954 213:0.278447 214:0.0447066 215:0.0390658 216:0.26595 217:0.266284 218:0.228342 219:0.0343228 220:0.144746 221:0.0462769 222:0.166134 223:0.187112 224:0.162547 225:0.180754 226:0.253442 227:0.246321 228:0.0758204 229:0.0519663 230:0.13092 231:0.262666 232:0.0713131 233:0.171721 234:0.0899359 235:0.103734 236:0.190986 237:0.021216 238:0.139505 239:0.275322 240:0.105822 241:0.0223911 242:0.0775034 243:0.16425 244:0.264554 245:0.0519065 246:0.21241 247:0.125844 248:0.179547 249:0.127662 250:0.163568 251:0.119361 252:0.161397 253:0.124954 254:0.28258 255:0.0901723 256:0.0913819 257:0.0950356 258:0.371907 259:0.0598001 260:0.0581379 261:0.137855 262:0.17983 263:0.209658 264:0.267013 265:0.197217 266:0.0524957 267:0.212963 268:0.159041 269:0.209489 270:0.14429 271:0.128183 272:0.0227985 273:0.243721 274:0.245435 275:0.0309753 276:0.150094 277:0.0739127 278:0.309454 279:0.223765 280:0.0693498 281:0.315643 282:0.0867408 283:0.0308538 284:0.0244245 285:0.176093 286:0.129327 287:0.249786 288:0.222854 289:0.17745 290:0.25484 291:0.0418954 292:0.16465 293:0.288348 294:0.00945922 295:0.11453 296:0.0609671 297:0.202884 298:0.208385 299:0.257286 300:0.0868298 301:0.2746 302:0.130174 303:0.164499 304:0.295091 305:0.197413 306:0.263028 307:0.0691276 308:0.0340124 309:0.256836 310:0.281214 311:0.0891046 312:0.134647 313:0.120774 314:0.103457 315:0.168117 316:0.145256 317:0.297059 318:0.233206 319:0.0660101 320:0.140376 321:0.305922 322:0.192899 323:0.157036 324:0.190125 325:0.226159 326:0.148604 327:0.234532 328:0.0101827 329:0.200379 330:0.0674637 331:0.0876844 332:0.297486 333:0.0958271 334:0.181273 335:0.297486 336:0.203776 337:0.206934 338:0.130423 339:0.159553 340:0.0911843 341:0.319321 342:0.102809 343:0.110753 344:0.126438 345:0.0728419 346:0.115746 347:0.192417 348:0.00871538 349:0.0833725 350:0.152401 351:0.0920862 352:0.313607 353:0.0713421 354:0.0953413 355:0.314785 356:0.0842033 357:0.119675 358:0.194487 359:0.195003 360:0.109666 361:0.0957428 362:0.252203 363:0.0413119 364:0.119162 365:0.197767 366:0.137634 367:0.0277686 368:0.0436397 369:0.123007 370:0.0619992 371:0.213073 372:0.12853 373:0.144228 374:0.131756 375:0.0601769 376:0.0840642 377:0.0538098 378:0.0298853 379:0.13322 380:0.287623 381:0.287623 382:0.0960055 383:0.11933 384:0.13635 385:0.0674921 386:0.300256 387:0.208253 388:0.19938 389:0.142512 390:0.267013 391:0.229331 392:0.217422 393:0.255814 394:0.281973 395:0.0716151 396:0.0402121 397:0.173239 398:0.0616091 399:0.238199 400:0.11754 401:0.202289 402:0.229469 403:0.206662 404:0.0656092 405:0.010639 406:0.042574 407:0.0417858 408:0.0926963 409:0.0912265 410:0.0607819 411:0.121983 412:0.149247 413:0.0444601 414:0.0409791 415:0.297715 416:0.228575 417:0.204265 418:0.0621856 419:0.107227 420:0.0470872 421:0.125991 422:0.0423791 423:0.211405 424:0.0799859 425:0.23332 426:0.27293 427:0.00756147 428:0.0493087 429:0.0264937 430:0.22765 431:0.0188458 432:0.059193 433:0.10772 434:0.206015 435:0.0884013 436:0.16873 437:0.267732 438:0.13791 439:0.0713854 440:0.172686 441:0.15515 442:0.171851 443:0.268243 444:0.138325 445:0.132517 446:0.162318 447:0.0575718 448:0.288401 449:0.252864 450:0.143066 451:0.200061 452:0.0813977 453:0.124021 454:0.0500287 455:0.0739174 456:0.0399509 457:0.137379 458:0.266284 459:0.171256 460:0.0916487 461:0.119909 462:0.144134 463:0.0903863 464:0.0610829 465:0.316836 466:0.156488 467:0.155872 468:0.0971753 469:0.163332 470:0.250567 471:0.178049 472:0.186052 473:0.222757 474:0.301935 475:0.117807 476:0.00623488 477:0.0501318 478:0.146594 479:0.1471 480:0.286654 481:0.10642 482:0.286654 483:0.14195 484:0.158751 485:0.313607 486:0.314785 487:0.0584944 488:0.09884 489:0.188373 490:0.0388672 491:0.0794177 492:0.132717 493:0.275322 494:0.251339 495:0.100422 496:0.177831 497:0.282954 498:0.183869 499:0.182054 500:0.168846 501:0.151795 502:0.0168797 503:0.000951371 504:0.065782 505:0.0649817 506:0.0435608 507:0.00563871 508:0.10132 509:0.284706 510:0.273972 511:0.126218 512:0.28258 513:0.108773 514:0.0793318 515:0.193603 516:0.140309 517:0.0187669 518:0.371907 519:0.371907 520:0.0659827 521:0.11626 522:0.0244399 523:0.100088 524:0.343789 525:0.0812429 526:0.149908 527:0.0452925 528:0.0946221 529:0.232242 530:0.108742 531:0.2215 532:0.0249454 533:0.0602066 534:0.141757 535:0.123737 536:0.292404 537:0.14117 538:0.0595405 539:0.145513 540:0.124514 541:0.293262 542:0.0938567 543:0.0527288 544:0.0634555 545:0.082047 546:0.0235624 547:0.0864356 548:0.309454 549:0.309454 550:0.0703424 551:0.143847 552:0.0464681 553:0.0388766 554:0.0624571 555:0.297715 556:0.271278 557:0.0561657 558:0.0796618 559:0.119267 560:0.139831 561:0.0957748 562:0.214532 563:0.286905 564:0.11129 565:0.237638 566:0.058401 567:0.288744 568:0.0770971 569:0.236965 570:0.208992 571:0.0924246 572:0.229976 573:0.114129 574:0.0812964 575:0.0307374 576:0.247405 577:0.295091 578:0.0912088 579:0.263028 580:0.0800528 581:0.27218 582:0.0452243 583:0.057601 584:0.214026 585:0.301171 586:0.0902414 587:0.220296 588:0.214608 589:0.132311 590:0.18431 591:0.0589766 592:0.0589518 593:0.185097 594:0.0460065 595:0.143791 596:0.090196 597:0.193471 598:0.177989 599:0.0477803 600:0.0816518 601:0.288401 602:0.111358 603:0.278447 604:0.22106 605:0.0983266 606:0.0636849 607:0.0973892 608:0.117798 609:0.106453 610:0.0893989 611:0.13548 612:0.0370026 613:0.316836 614:0.100999 615:0.280342 616:0.160448 617:0.161724 618:0.140319 619:0.0229526 620:0.0754885 621:0.223658 622:0.0415918 623:0.100189 624:0.0768496 625:0.108907 626:0.116735 627:0.157638 628:0.222518 629:0.121877 630:0.167627 631:0.112415 632:0.102397 633:0.184452 634:0.132506 635:0.161915 636:0.314785 637:0.0717646 638:0.021292 639:0.0690151 640:0.177604 641:0.234528 642:0.190392 643:0.164647 644:0.285924 645:0.0295399 646:0.252517 647:0.234404 648:0.28463 649:0.143473 650:0.0470611 651:0.306643 652:0.306643 653:0.173111 654:0.0271628 655:0.0602493 656:0.195315 657:0.227513 658:0.195699 659:0.071478 660:0.146136 661:0.0320489 662:0.28258 663:0.0599388 664:0.0366855 665:0.0510081 666:0.162667 667:0.0673921 668:0.102036 669:0.11847 670:0.181691 671:0.0696227 672:0.343789 673:0.17361 674:0.213832 675:0.130222 676:0.11814 677:0.287623 678:0.148981 679:0.0985939 680:0.108002 681:0.0882345 682:0.139217 683:0.222697 684:0.0364941 685:0.228224 686:0.100213 687:0.197804 688:0.280664 689:0.268948 690:0.281973 691:0.281973 692:0.281973 693:0.143418 694:0.1067 695:0.0988588 696:0.248759 697:0.117101 698:0.215234 699:0.112446 700:0.210265 701:0.178291 702:0.293262 703:0.102571 704:0.0992425 705:0.0527096 706:0.135629 707:0.309454 708:0.0633375 709:0.253573 710:0.0710813 711:0.0481419 712:0.16847 713:0.117181 714:0.296932 715:0.297715 716:0.0610411 717:0.181927 718:0.155897 719:0.127012 720:0.127343 721:0.202642 722:0.0605267 723:0.286905 724:0.194144 725:0.190572 726:0.00347939 727:0.215286 728:0.172725 729:0.175913 730:0.127126 731:0.187235 732:0.311537 733:0.22098 734:0.288744 735:0.288744 736:0.190512 737:0.0542559 738:0.0377201 739:0.295091 740:0.0711626 741:0.092474 742:0.203863 743:0.159288 744:0.162443 745:0.0274076 746:0.16022 747:0.174823 748:0.0760532 749:0.0886682 750:0.152412 751:0.193531 752:0.30489 753:0.0928146 754:0.297059 755:0.233904 756:0.136897 757:0.0721403 758:0.175527 759:0.0507454 760:0.216541 761:0.149542 762:0.146946 763:0.263219 764:0.205278 765:0.0753957 766:0.159344 767:0.208558 768:0.153821 769:0.189248 770:0.285177 771:0.186134 772:0.106535 773:0.305922 774:0.145847 775:0.193159 776:0.187946 777:0.243279 778:0.228966 779:0.0917199 780:0.123199 781:0.1787 782:0.153574 783:0.343442 784:0.0718315 785:0.0273974 786:0.18811 787:0.270134 788:0.0182209 789:0.166035 790:0.297486 791:0.194411 792:0.162218 793:0.253442 794:0.171072 795:0.0415704 796:0.249689 797:0.0806296 798:0.0803791 799:0.139607 800:0.22568 801:0.119164 802:0.276483 803:0.286654 804:0.222499 805:0.106413 806:0.158843 807:0.0573129 808:0.126442 809:0.236664 810:0.104684 811:0.0593685 812:0.0861372 813:0.194202 814:0.275322 815:0.0728309 816:0.0302945 817:0.168407 818:0.104176 819:0.303903 820:0.139449 821:0.0180625 822:0.0378009 823:0.0105326 824:0.243791 825:0.0390645 826:0.00497626 827:0.165084 828:0.171291 829:0.0574776 830:0.263056 831:0.159703 832:0.154768 833:0.108526 834:0.245699 835:0.131159 836:0.0793872 837:0.0884919 838:0.28258 839:0.236616 840:0.174361 841:0.300298 842:0.122589 843:0.318969 844:0.0207252 845:0.075893 846:0.287623 847:0.085526 848:0.131686 849:0.237368 850:0.0585884 851:0.0880302 852:0.0315255 853:0.134906 854:0.0510701 855:0.267013 856:0.213027 857:0.00741318 858:0.0792802 859:0.0455353 860:0.165874 861:0.232566 862:0.0233548 863:0.109368 864:0.266895 865:0.0823985 866:0.2631 867:0.237221 868:0.293262 869:0.195823 870:0.0338373 871:0.128926 872:0.309454 873:0.0344243 874:0.159935 875:0.315643 876:0.150953 877:0.164892 878:0.0204373 879:0.185026 880:0.0555263 881:0.0886493 882:0.0128417 883:0.158491 884:0.278305 885:0.0606983 886:0.286905 887:0.27293 888:0.148384 889:0.0141022 890:0.30403 891:0.0726094 892:0.156668 893:0.0977665 894:0.111158 895:0.259354 896:0.0731974 897:0.295091 898:0.177619 899:0.0283408 900:0.112248 901:0.263028 902:0.0666329 903:0.246485 904:0.0421659 905:0.101751 906:0.0557612 907:0.27218 908:0.159796 909:0.0721038 910:0.275877 911:0.102667 912:0.170234 913:0.272582 914:0.245474 915:0.254472 916:0.0451432 917:0.0673394 918:0.157296 919:0.0856262 920:0.17014 921:0.0604419 922:0.291026 923:0.0822911 924:0.297059 925:0.191429 926:0.0599876 927:0.158251 928:0.0322633 929:0.0464759 930:0.247415 931:0.189032 932:0.180794 933:0.122131 934:0.272474 935:0.0512164 936:0.0304474 937:0.132337 938:0.263564 939:0.0839159 940:0.052391 941:0.18072 942:0.193037 943:0.305922 944:0.0618547 945:0.129273 946:0.145672 947:0.182522 948:0.162543 949:0.0477988 950:0.0235747 951:0.0323237 952:0.186475 953:0.319321 954:0.140219 955:0.26569 956:0.125242 957:0.00465808 958:0.16982 959:0.276483 960:0.000604853 961:0.218453 962:0.17293 963:0.220985 964:0.178214 965:0.0693036 966:0.0720441 967:0.0554469 968:0.313607 969:0.0750159 970:0.0832255 971:0.303904 972:0.0873384 973:0.0197204 974:0.314785 975:0.101064 976:0.286079 977:0.0213517 978:0.232028 979:0.114169 980:0.0152852 981:0.0684713 982:0.12933 983:0.0961977 984:0.110947 985:0.268159 986:0.275322 987:0.320577 988:0.0897817 989:0.290605 990:0.278648 991:0.153712 992:0.188559 993:0.0982214 994:0.0758503 995:0.284706 996:0.120995 997:0.223921 998:0.273151 999:0.271368 1000:0.104199 1001:0.0999701 1002:0.199608 1003:0.0561406 1004:0.300298 1005:0.300298 1006:0.110214 1007:0.10929 1008:0.287986 1009:0.0320155 1010:0.0200258 1011:0.0358409 1012:0.168574 1013:0.145893 1014:0.116833 1015:0.343789 1016:0.343789 1017:0.058167 1018:0.226972 1019:0.24025 1020:0.19333 1021:0.267013 1022:0.0422284 1023:0.130913 1024:0.0397827 1025:0.259558 1026:0.118947 1027:0.0516877 1028:0.26881 1029:0.208241 1030:0.126126 1031:0.0708338 1032:0.223758 1033:0.143646 1034:0.309454 1035:0.309454 1036:0.100352 1037:0.298733 1038:0.315643 1039:0.0811982 1040:0.189221 1041:0.30231 1042:0.100561 1043:0.14973 1044:0.124328 1045:0.0507728 1046:0.185424 1047:0.187811 1048:0.0554614 1049:0.0942138 1050:0.0882033 1051:0.278305 1052:0.286905 1053:0.103332 1054:0.27293 1055:0.00840207 1056:0.115497 1057:0.208536 1058:0.131087 1059:0.298422 1060:0.195372 1061:0.0476392 1062:0.288744 1063:0.0233408 1064:0.265207 1065:0.0891443 1066:0.249013 1067:0.104478 1068:0.0107196 1069:0.0468692 1070:0.152497 1071:0.0298212 1072:0.198304 1073:0.0486399 1074:0.0988363 1075:0.27218 1076:0.152441 1077:0.144451 1078:0.168167 1079:0.0835866 1080:0.169026 1081:0.0601497 1082:0.0589489 1083:0.30489 1084:0.30489 1085:0.0953719 1086:0.217682 1087:0.0758369 1088:0.165046 1089:0.146832 1090:0.297059 1091:0.0861643 1092:0.0708202 1093:0.0212609 1094:0.0918484 1095:0.0406898 1096:0.145169 1097:0.115846 1098:0.27707 1099:0.0822536 1100:0.109432 1101:0.0760494 1102:0.0528695 1103:0.0694373 1104:0.0689674 1105:0.275058 1106:0.103889 1107:0.0914034 1108:0.177663 1109:0.123183 1110:0.343442 1111:0.171052 1112:0.0715254 1113:0.343442 1114:0.134018 1115:0.0246137 1116:0.268258 1117:0.184044 1118:0.107154 1119:0.211431 1120:0.0561623 1121:0.108325 1122:0.111702 1123:0.130738 1124:0.0761238 1125:0.0443254 1126:0.246439 1127:0.0906269 1128:0.225378 1129:0.276374 1130:0.0722716 1131:0.0301444 1132:0.258803 1133:0.149416 1134:0.283895 1135:0.283895 1136:0.283895 1137:0.205397 1138:0.0776603 1139:0.154738 1140:0.0827626 1141:0.244476 1142:0.106832 1143:0.101373 1144:0.22798 1145:0.148953 1146:0.0656105 1147:0.263785 1148:0.264554 1149:0.158237 1150:0.101009 1151:0.199376 1152:0.105851 1153:0.136715 1154:0.131394 1155:0.0915459 1156:0.28258 1157:0.106997 1158:0.131949 1159:0.0871937 1160:0.0495203 1161:0.0755637 1162:0.109251 1163:0.0729754 1164:0.0598521 1165:0.0381428 1166:0.343789 1167:0.079184 1168:0.0650066 1169:0.050922 1170:0.0942197 1171:0.120669 1172:0.164487 1173:0.219379 1174:0.267013 1175:0.0418546 1176:0.125205 1177:0.200368 1178:0.0189962 1179:0.104428 1180:0.281973 1181:0.292404 1182:0.126819 1183:0.165574 1184:0.133874 1185:0.214559 1186:0.13381 1187:0.12098 1188:0.259074 1189:0.0316147 1190:0.315643 1191:0.0229111 1192:0.278305 1193:0.168473 1194:0.216768 1195:0.0482768 1196:0.204423 1197:0.159534 1198:0.0119184 1199:0.311537 1200:0.0520795 1201:0.0966739 1202:0.0142956 1203:0.0527966 1204:0.199645 1205:0.0378655 1206:0.248662 1207:0.306568 1208:0.302357 1209:0.0997975 1210:0.113953 1211:0.0561454 1212:0.216755 1213:0.188396 1214:0.263028 1215:0.208751 1216:0.121332 1217:0.168421 1218:0.111564 1219:0.0777153 1220:0.0635855 1221:0.214962 1222:0.132442 1223:0.0630515 1224:0.0719728 1225:0.048231 1226:0.106056 1227:0.234121 1228:0.288401 1229:0.0827525 1230:0.123534 1231:0.22297 1232:0.278261 1233:0.0835199 1234:0.105527 1235:0.169055 1236:0.13976 1237:0.312445 1238:0.0961361 1239:0.0530122 1240:0.266284 1241:0.168725 1242:0.0919899 1243:0.343442 1244:0.124795 1245:0.0128012 1246:0.171937 1247:0.113611 1248:0.174647 1249:0.21446 1250:0.179426 1251:0.147563 1252:0.0468782 1253:0.0471409 1254:0.319321 1255:0.0452638 1256:0.196713 1257:0.260098 1258:0.276483 1259:0.166711 1260:0.18344 1261:0.246767 1262:0.133178 1263:0.313607 1264:0.176267 1265:0.208446 1266:0.0656675 1267:0.119963 1268:0.0287896 1269:0.0329499 1270:0.0762195 1271:0.258573 1272:0.159176 1273:0.245855 1274:0.259134 1275:0.258922 1276:0.243025 1277:0.139723 1278:0.0522198 1279:0.218749 1280:0.0735215 1281:0.356943 1282:0.100696 1283:0.0811612 1284:0.0809764 1285:0.240239 1286:0.027517 1287:0.0719805 1288:0.306643 1289:0.120142 1290:0.240394 1291:0.127261 1292:0.137471 1293:0.11488 1294:0.0985315 1295:0.0810474 1296:0.300298 1297:0.0886571 1298:0.25839 1299:0.123377 1300:0.213029 1301:0.137684 1302:0.205213 1303:0.0846429 1304:0.00704803 1305:0.00844033 1306:0.0478473 1307:0.139004 1308:0.300256 1309:0.242832 1310:0.12573 1311:0.193821 1312:0.209141 1313:0.280664 1314:0.0964327 1315:0.116268 1316:0.201251 1317:0.077262 1318:0.0600287 1319:0.0397161 1320:0.134406 1321:0.292404 1322:0.266895 1323:0.0598664 1324:0.215226 1325:0.0342562 1326:0.315643 1327:0.148143 1328:0.124825 1329:0.297715 1330:0.172356 1331:0.0591663 1332:0.278305 1333:0.160688 1334:0.286905 1335:0.1032 1336:0.27293 1337:0.0493002 1338:0.0850491 1339:0.204693 1340:0.0160236 1341:0.165476 1342:0.21138 1343:0.0788376 1344:0.0877204 1345:0.158273 1346:0.110079 1347:0.0300826 1348:0.21747 1349:0.301171 1350:0.301171 1351:0.132861 1352:0.0898732 1353:0.193031 1354:0.0658575 1355:0.167036 1356:0.278447 1357:0.0259939 1358:0.15451 1359:0.255442 1360:0.305922 1361:0.0166507 1362:0.137502 1363:0.0825288 1364:0.203601 1365:0.200492 1366:0.235479 1367:0.21824 1368:0.253442 1369:0.0828772 1370:0.0910251 1371:0.187145 1372:0.0562064 1373:0.0570337 1374:0.26941 1375:0.0297996 1376:0.116549 1377:0.0842668 1378:0.0598784 1379:0.0571544 1380:0.0343918 1381:0.0959283 1382:0.209479 1383:0.123501 1384:0.169221 1385:0.244923 1386:0.0574917 1387:0.290605 1388:0.290605 1389:0.0750731 1390:0.150997 1391:0.169403 1392:0.176609 1393:0.136904 1394:0.26026 1395:0.112775 1396:0.12962 1397:0.149096 1398:0.300298 1399:0.176575 1400:0.0902061 1401:0.00244417 1402:0.280664 1403:0.0229741 1404:0.111791 1405:0.0372681 1406:0.250196 1407:0.166429 1408:0.292404 1409:0.266895 1410:0.0788542 1411:0.122034 1412:0.0543027 1413:0.0676333 1414:0.116259 1415:0.278305 1416:0.176676 1417:0.119397 1418:0.286905 1419:0.142365 1420:0.0758046 1421:0.176683 1422:0.108327 1423:0.0771207 1424:0.0217287 1425:0.140344 1426:0.185165 1427:0.189322 1428:0.228885 1429:0.0691066 1430:0.0511106 1431:0.154575 1432:0.0556985 1433:0.27218 1434:0.161442 1435:0.0117109 1436:0.114737 1437:0.0271711 1438:0.0702076 1439:0.0376186 1440:0.0436143 1441:0.117561 1442:0.103835 1443:0.0940464 1444:0.152941 1445:0.209054 1446:0.312445 1447:0.207853 1448:0.312445 1449:0.097767 1450:0.116387 1451:0.0184758 1452:0.0448599 1453:0.319321 1454:0.0315596 1455:0.120746 1456:0.0107944 1457:0.276483 1458:0.149839 1459:0.0749206 1460:0.286654 1461:0.148606 1462:0.114407 1463:0.0442061 1464:0.283895 1465:0.157422 1466:0.0753802 1467:0.0132127 1468:0.28978 1469:0.0639815 1470:0.166654 1471:0.112967 1472:0.0472103 1473:0.291252 1474:0.180106 1475:0.221924 1476:0.183934 1477:0.112398 1478:0.0922307 1479:0.0816943 1480:0.018163 1481:0.0390349 1482:0.266895 1483:0.0601138 1484:0.0761238 1485:0.0346448 1486:0.297715 1487:0.0342461 1488:0.141795 1489:0.27293 1490:0.102626 1491:0.141729 1492:0.0223101 1493:0.24511 1494:0.127981 1495:0.171544 1496:0.0532825 1497:0.145015 1498:0.260807 1499:0.131154 
0.006846132658556783 0 0:0.207309 1:0.163075 2:0.171082 3:0.0597171 4:0.14268 5:0.112155 6:0.145486 7:0.177347 8:0.204119 9:0.0674264 10:0.129572 11:0.0650991 12:0.183333 13:0.062175 14:0.155572 15:0.289738 16:0.150441 17:0.0299369 18:0.0500289 19:0.15314 20:0.0216652 21:0.202014 22:0.226039 23:0.193606 24:0.105556 25:0.170671 26:0.119104 27:0.088196 28:0.168325 29:0.0111475 30:0.134136 31:0.0401316 32:0.045797 33:0.177083 34:0.224531 35:0.0905802 36:0.0992934 37:0.216571 38:0.296415 39:0.0312825 40:0.177959 41:0.301573 42:0.0413916 43:0.203811 44:0.0655938 45:0.161236 46:0.0732643 47:0.270441 48:0.0490439 49:0.120242 50:0.138649 51:0.178097 52:0.271028 53:0.100462 54:0.00834943 55:0.201101 56:0.0872148 57:0.176389 58:0.0994128 59:0.170152 60:0.064816 61:0.146624 62:0.0339415 63:0.157276 64:0.0766645 65:0.142344 66:0.152916 67:0.303768 68:0.14506 69:0.133329 70:0.0829645 71:0.185529 72:0.140551 73:0.122002 74:0.0498264 75:0.274031 76:0.111809 77:0.0565193 78:0.0922798 79:0.125223 80:0.21687 81:0.0792282 82:0.27578 83:0.0721099 84:0.243082 85:0.214612 86:0.259598 87:0.153103 88:0.203375 89:0.0897955 90:0.0986408 91:0.176437 92:0.12515 93:0.220648 94:0.0789441 95:0.0405837 96:0.320465 97:0.0405415 98:0.017255 99:0.291962 100:0.291962 101:0.0666866 102:0.0301493 103:0.0827753 104:0.164552 105:0.190963 106:0.172081 107:0.117226 108:0.075244 109:0.137766 110:0.139118 111:0.100418 112:0.0555939 113:0.00769137 114:0.0419556 115:0.316724 116:0.147101 117:0.0654404 118:0.161604 119:0.306913 120:0.276203 121:0.281138 122:0.0750454 123:0.15889 124:0.150498 125:0.0923316 126:0.210248 127:0.185218 128:0.157841 129:0.113445 130:0.286527 131:0.0560073 132:0.25189 133:0.136352 134:0.248646 135:0.10949 136:0.230655 137:0.232471 138:0.201381 139:0.275729 140:0.0692359 141:0.181677 142:0.276 143:0.0798782 144:0.102205 145:0.266591 146:0.0870405 147:0.0896002 148:0.20029 149:0.0567402 150:0.269868 151:0.0490728 152:0.120739 153:0.251338 154:0.0556149 155:0.0185105 156:0.416147 157:0.10286 158:0.116386 159:0.065631 160:0.143404 161:0.0143598 162:0.185866 163:0.420962 164:0.00885131 165:0.0744093 166:0.162939 167:0.270492 168:0.13798 169:0.148778 170:0.109524 171:0.300505 172:0.25182 173:0.106053 174:0.00640202 175:0.257809 176:0.0303613 177:0.276188 178:0.149317 179:0.0963129 180:0.0620376 181:0.0407413 182:0.0211688 183:0.160921 184:0.0797717 185:0.189203 186:0.0480518 187:0.0658546 188:0.28288 189:0.322449 190:0.266153 191:0.210835 192:0.0371014 193:0.281138 194:0.0295918 195:0.0982735 196:0.270581 197:0.160882 198:0.22345 199:0.040405 200:0.161568 201:0.132215 202:0.132994 203:0.0639495 204:0.0517772 205:0.094851 206:0.166686 207:0.125865 208:0.233685 209:0.120038 210:0.218992 211:0.186925 212:0.0968533 213:0.13369 214:0.179854 215:0.19033 216:0.056623 217:0.266591 218:0.247266 219:0.272172 220:0.165268 221:0.103969 222:0.307857 223:0.119285 224:0.219936 225:0.181941 226:0.0974163 227:0.048899 228:0.0974348 229:0.103268 230:0.269868 231:0.168996 232:0.103894 233:0.0787919 234:0.160528 235:0.119033 236:0.286172 237:0.192963 238:0.323661 239:0.272382 240:0.124723 241:0.104449 242:0.0703068 243:0.539041 244:0.0234016 245:0.12154 246:0.0757285 247:0.276537 248:0.171269 249:0.169421 250:0.0134204 251:0.150996 252:0.0863451 253:0.151427 254:0.0801058 255:0.265635 256:0.0229358 257:0.0200969 258:0.0601278 259:0.0479032 260:0.00856912 261:0.363758 262:0.000212298 263:0.294734 264:0.300505 265:0.300505 266:0.168502 267:0.134189 268:0.0960824 269:0.0320725 270:0.084065 271:0.1725 272:0.0171165 273:0.0278915 274:0.118472 275:0.0371114 276:0.247452 277:0.285805 278:0.13812 279:0.191603 280:0.111495 281:0.0637278 282:0.0172462 283:0.303768 284:0.103545 285:0.0946974 286:0.301573 287:0.00132421 288:0.217095 289:0.19342 290:0.290091 291:0.10809 292:0.137912 293:0.25031 294:0.0901282 295:0.264414 296:0.0658664 297:0.0697949 298:0.1044 299:0.077481 300:0.190062 301:0.238056 302:0.163866 303:0.295499 304:0.221194 305:0.242534 306:0.224756 307:0.18178 308:0.0659749 309:0.281894 310:0.0866234 311:0.298487 312:0.0483555 313:0.157959 314:0.202237 315:0.0956452 316:0.131637 317:0.0985174 318:0.275729 319:0.102201 320:0.0861556 321:0.18052 322:0.150319 323:0.264075 324:0.0655899 325:0.190011 326:0.266591 327:0.266591 328:0.0249993 329:0.100711 330:0.0603252 331:0.102372 332:0.121274 333:0.0989625 334:0.198918 335:0.270369 336:0.144724 337:0.16861 338:0.0312513 339:0.128898 340:0.228375 341:0.19899 342:0.269868 343:0.213886 344:0.186926 345:0.160322 346:0.187834 347:0.111603 348:0.0851395 349:0.22945 350:0.220608 351:0.272359 352:0.268503 353:0.146507 354:0.0712626 355:0.256736 356:0.0853257 357:0.160302 358:0.0820871 359:0.202541 360:0.242481 361:0.28371 362:0.0600934 363:0.0837588 364:0.333972 365:0.0638536 366:0.0288179 367:0.073003 368:0.106414 369:0.135078 370:0.164806 371:0.149945 372:0.177742 373:0.0573496 374:0.149971 375:0.0436793 376:0.115186 377:0.0281998 378:0.177522 379:0.0778426 380:0.363758 381:0.120749 382:0.0467896 383:0.010306 384:0.096844 385:0.171019 386:0.186987 387:0.127632 388:0.130249 389:0.10382 390:0.13714 391:0.00941832 392:0.296415 393:0.0193292 394:0.0549079 395:0.172134 396:0.136696 397:0.0858079 398:0.100735 399:0.103964 400:0.316724 401:0.0476827 402:0.26615 403:0.0510892 404:0.0718843 405:0.0158909 406:0.120874 407:0.096377 408:0.285805 409:0.252661 410:0.129548 411:0.134893 412:0.054393 413:0.11782 414:0.137325 415:0.128818 416:0.322449 417:0.00520379 418:0.00785178 419:0.0372834 420:0.272025 421:0.187192 422:0.0160159 423:0.22948 424:0.0463698 425:0.222033 426:0.162913 427:0.168591 428:0.145362 429:0.163674 430:0.270581 431:0.112516 432:0.133921 433:0.0736362 434:0.049765 435:0.161573 436:0.17945 437:0.155887 438:0.286527 439:0.281894 440:0.156488 441:0.0816193 442:0.0988146 443:0.0934231 444:0.0855846 445:0.267904 446:0.11943 447:0.167774 448:0.0787182 449:0.125163 450:0.0128858 451:0.281612 452:0.281612 453:0.281612 454:0.0553516 455:0.0970544 456:0.204166 457:0.222675 458:0.147834 459:0.214403 460:0.110669 461:0.272836 462:0.0777413 463:0.163805 464:0.126257 465:0.0961534 466:0.113947 467:0.307857 468:0.291802 469:0.193473 470:0.110345 471:0.0445943 472:0.176958 473:0.12809 474:0.0794482 475:0.139663 476:0.102236 477:0.17258 478:0.20241 479:0.162098 480:0.138516 481:0.0891165 482:0.128269 483:0.130847 484:0.135103 485:0.153785 486:0.179243 487:0.0659647 488:0.084098 489:0.243529 490:0.100352 491:0.0998719 492:0.248321 493:0.260269 494:0.167759 495:0.0953759 496:0.0608637 497:0.198542 498:0.262792 499:0.0335898 500:0.173938 501:0.0825113 502:0.013739 503:0.0501652 504:0.204386 505:0.0150642 506:0.309285 507:0.048597 508:0.207942 509:0.271162 510:0.0722106 511:0.263892 512:0.0208795 513:0.223091 514:0.18924 515:0.158464 516:0.320216 517:0.160489 518:0.0168488 519:0.020446 520:0.0195175 521:0.0767855 522:0.00934453 523:0.0111585 524:0.0999553 525:0.10867 526:0.0416721 527:0.144754 528:0.0759314 529:0.165724 530:0.260567 531:0.0132572 532:0.0586357 533:0.0125857 534:0.602866 535:0.0152814 536:0.093773 537:0.0394472 538:0.0934613 539:0.316724 540:0.251126 541:0.211862 542:0.0266057 543:0.0749275 544:0.217841 545:0.22605 546:0.285805 547:0.163943 548:0.127616 549:0.216399 550:0.116467 551:0.0697369 552:0.0168778 553:0.286468 554:0.100136 555:0.18729 556:0.194626 557:0.00358569 558:0.0480881 559:0.160176 560:0.134865 561:0.106658 562:0.131352 563:0.0816705 564:0.151733 565:0.121339 566:0.0911391 567:0.123939 568:0.177133 569:0.242802 570:0.190912 571:0.16161 572:0.249444 573:0.140049 574:0.0949603 575:0.105798 576:0.285826 577:0.295499 578:0.119017 579:0.163558 580:0.167589 581:0.00595423 582:0.137781 583:0.116684 584:0.233604 585:0.13629 586:0.154409 587:0.0664847 588:0.131772 589:0.171871 590:0.0464072 591:0.266228 592:0.266675 593:0.274031 594:0.147415 595:0.186765 596:0.121996 597:0.0493655 598:0.130647 599:0.0826099 600:0.0781416 601:0.15719 602:0.281612 603:0.0638326 604:0.14115 605:0.157207 606:0.0632031 607:0.163823 608:0.17047 609:0.198207 610:0.16819 611:0.129793 612:0.122214 613:0.119341 614:0.136148 615:0.245922 616:0.179234 617:0.307857 618:0.110616 619:0.0330681 620:0.297057 621:0.0454147 622:0.0247802 623:0.185558 624:0.162668 625:0.0459306 626:0.272359 627:0.0992679 628:0.254978 629:0.0274634 630:0.0936539 631:0.0519404 632:0.20247 633:0.180395 634:0.151066 635:0.246529 636:0.0850741 637:0.0712149 638:0.0921595 639:0.159941 640:0.180833 641:0.0219496 642:0.21385 643:0.0584157 644:0.178119 645:0.104438 646:0.211262 647:0.121977 648:0.0356475 649:0.123618 650:0.0065527 651:0.00573783 652:0.0563798 653:0.158181 654:0.0528027 655:0.0176562 656:0.226044 657:0.0304379 658:0.1321 659:0.246827 660:0.0388715 661:0.0466552 662:0.13116 663:0.310743 664:0.0912055 665:0.181021 666:0.232826 667:0.239998 668:0.0609601 669:0.0407462 670:0.0576586 671:0.104793 672:0.420962 673:0.14784 674:0.152444 675:0.0077109 676:0.0141955 677:0.363758 678:0.0177728 679:0.0890089 680:0.0225449 681:0.0805309 682:0.112852 683:0.171865 684:0.204193 685:0.156132 686:0.103596 687:0.296415 688:0.296415 689:0.249745 690:0.0194315 691:0.717699 692:0.00892838 693:0.00719265 694:0.267569 695:0.0244078 696:0.279654 697:0.138852 698:0.234866 699:0.197991 700:0.316724 701:0.273504 702:0.191401 703:0.249942 704:0.0847912 705:0.203447 706:0.0857207 707:0.219955 708:0.0821407 709:0.144854 710:0.14221 711:0.303768 712:0.107676 713:0.0237397 714:0.301573 715:0.189162 716:0.125829 717:0.0406244 718:0.0463755 719:0.0431497 720:0.15061 721:0.284086 722:0.0611578 723:0.00477703 724:0.0671188 725:0.306913 726:0.227173 727:0.200143 728:0.250055 729:0.160794 730:0.137056 731:0.265858 732:0.221753 733:0.082853 734:0.129345 735:0.272628 736:0.0833097 737:0.242809 738:0.0904519 739:0.211371 740:0.13285 741:0.0727262 742:0.288402 743:0.133577 744:0.288402 745:0.286527 746:0.065469 747:0.189135 748:0.092681 749:0.0825884 750:0.152546 751:0.240337 752:0.209597 753:0.208293 754:0.162436 755:0.104365 756:0.144329 757:0.123081 758:0.183978 759:0.257661 760:0.275729 761:0.146739 762:0.275729 763:0.275729 764:0.260521 765:0.174906 766:0.276 767:0.106038 768:0.127873 769:0.212727 770:0.099597 771:0.200505 772:0.238629 773:0.27578 774:0.139734 775:0.030286 776:0.142445 777:0.0757412 778:0.0545154 779:0.0937988 780:0.226473 781:0.219652 782:0.0905521 783:0.227411 784:0.0874065 785:0.272836 786:0.105629 787:0.0279163 788:0.16853 789:0.040518 790:0.113067 791:0.115083 792:0.269384 793:0.233487 794:0.0908084 795:0.0610562 796:0.269868 797:0.118059 798:0.105587 799:0.178669 800:0.114554 801:0.288043 802:0.242764 803:0.13857 804:0.108023 805:0.263818 806:0.104246 807:0.261823 808:0.090018 809:0.171717 810:0.160715 811:0.0966813 812:0.212212 813:0.179996 814:0.0993039 815:0.12311 816:0.0404268 817:0.0838026 818:0.225192 819:0.125805 820:0.135042 821:0.111712 822:0.113215 823:0.107863 824:0.216353 825:0.00470523 826:0.0377894 827:0.032097 828:0.021048 829:0.131549 830:0.149427 831:0.192718 832:0.289738 833:0.0284351 834:0.142389 835:0.126892 836:0.119094 837:0.0413474 838:0.263773 839:0.145781 840:0.146962 841:0.172156 842:0.0357017 843:0.0223479 844:0.164776 845:0.203057 846:0.132254 847:0.0100288 848:0.0472402 849:0.296144 850:0.278692 851:0.0465276 852:0.272326 853:0.188492 854:0.0474606 855:0.254838 856:0.199814 857:0.0876669 858:0.12385 859:0.0108784 860:0.0344311 861:0.0123922 862:0.0358302 863:0.029921 864:0.280939 865:0.148782 866:0.226621 867:0.276083 868:0.0826424 869:0.232877 870:0.163744 871:0.119623 872:0.140545 873:0.285805 874:0.285805 875:0.122157 876:0.185717 877:0.0983965 878:0.0325103 879:0.106923 880:0.0819398 881:0.0152571 882:0.0729869 883:0.006093 884:0.0298153 885:0.12178 886:0.0515111 887:0.230469 888:0.216088 889:0.0441005 890:0.247532 891:0.200059 892:0.0820963 893:0.243707 894:0.0888914 895:0.242368 896:0.147585 897:0.127182 898:0.203918 899:0.0209423 900:0.290373 901:0.0570597 902:0.106056 903:0.151608 904:0.0683332 905:0.286527 906:0.159626 907:0.272328 908:0.0656467 909:0.286527 910:0.196749 911:0.0809653 912:0.136065 913:0.281894 914:0.110233 915:0.0848559 916:0.205553 917:0.298487 918:0.134618 919:0.11628 920:0.0591874 921:0.222041 922:0.1832 923:0.0964619 924:0.192319 925:0.236203 926:0.220377 927:0.267904 928:0.0885042 929:0.0913233 930:0.176596 931:0.115752 932:0.166626 933:0.0540601 934:0.164001 935:0.159997 936:0.231348 937:0.255106 938:0.156133 939:0.094517 940:0.25056 941:0.0789908 942:0.183183 943:0.0981576 944:0.2493 945:0.076144 946:0.164715 947:0.052357 948:0.272836 949:0.107095 950:0.157129 951:0.00324763 952:0.23698 953:0.118396 954:0.09285 955:0.226463 956:0.254267 957:0.0607245 958:0.124145 959:0.233954 960:0.173193 961:0.139002 962:0.130565 963:0.231848 964:0.131808 965:0.232196 966:0.135601 967:0.10171 968:0.185667 969:0.268503 970:0.268503 971:0.06916 972:0.0784246 973:0.248804 974:0.150695 975:0.261823 976:0.261823 977:0.200893 978:0.286172 979:0.119051 980:0.0558249 981:0.117985 982:0.0926262 983:0.139866 984:0.207751 985:0.0956646 986:0.202612 987:0.22666 988:0.211489 989:0.37503 990:0.100462 991:0.0495229 992:0.0537464 993:0.188031 994:0.0943367 995:0.157102 996:0.111488 997:0.310743 998:0.194919 999:0.166361 1000:0.171834 1001:0.189343 1002:0.114677 1003:0.0530155 1004:0.167655 1005:0.208153 1006:0.0339234 1007:0.0205521 1008:0.322954 1009:0.427041 1010:0.0224477 1011:0.0044892 1012:0.238998 1013:0.0605267 1014:0.206631 1015:0.254434 1016:0.141 1017:0.111742 1018:0.363758 1019:0.363758 1020:0.0842472 1021:0.153142 1022:0.0392122 1023:0.0512584 1024:0.0297724 1025:0.0544876 1026:0.024053 1027:0.148021 1028:0.0873342 1029:0.423366 1030:0.0983262 1031:0.142533 1032:0.276083 1033:0.0964375 1034:0.123839 1035:0.121327 1036:0.0565692 1037:0.0951242 1038:0.0720564 1039:0.0670574 1040:0.303768 1041:0.103334 1042:0.303768 1043:0.277203 1044:0.0309418 1045:0.0418209 1046:0.0546598 1047:0.00309629 1048:0.00322906 1049:0.322449 1050:0.0256687 1051:0.322449 1052:0.0418842 1053:0.127197 1054:0.20227 1055:0.158356 1056:0.281138 1057:0.0404923 1058:0.108856 1059:0.155282 1060:0.183196 1061:0.176923 1062:0.114675 1063:0.0900305 1064:0.086369 1065:0.14924 1066:0.128518 1067:0.0424774 1068:0.105372 1069:0.285454 1070:0.200947 1071:0.101786 1072:0.230953 1073:0.102634 1074:0.22263 1075:0.0855754 1076:0.168829 1077:0.0755824 1078:0.253839 1079:0.220697 1080:0.231518 1081:0.298487 1082:0.0875095 1083:0.18695 1084:0.0878641 1085:0.157878 1086:0.217282 1087:0.154709 1088:0.192575 1089:0.171527 1090:0.267904 1091:0.2296 1092:0.197023 1093:0.057296 1094:0.0413232 1095:0.252469 1096:0.0815412 1097:0.257057 1098:0.281612 1099:0.222508 1100:0.240135 1101:0.141429 1102:0.237768 1103:0.196612 1104:0.146692 1105:0.198812 1106:0.0355105 1107:0.165544 1108:0.20311 1109:0.197204 1110:0.279997 1111:0.217492 1112:0.279997 1113:0.279997 1114:0.272836 1115:0.0646409 1116:0.188355 1117:0.136824 1118:0.240136 1119:0.0498739 1120:0.0633882 1121:0.199959 1122:0.167089 1123:0.230248 1124:0.25093 1125:0.192874 1126:0.209327 1127:0.0603917 1128:0.228872 1129:0.254285 1130:0.102582 1131:0.201223 1132:0.239166 1133:0.0505587 1134:0.286172 1135:0.102835 1136:0.203979 1137:0.160302 1138:0.210453 1139:0.121154 1140:0.127489 1141:0.124043 1142:0.142147 1143:0.342338 1144:0.0847829 1145:0.0910573 1146:0.291962 1147:0.240311 1148:0.291962 1149:0.125422 1150:0.132115 1151:0.06269 1152:0.237932 1153:0.0736922 1154:0.237671 1155:0.160504 1156:0.260329 1157:0.202335 1158:0.310743 1159:0.154815 1160:0.0219761 1161:0.0502082 1162:0.0152014 1163:0.0963243 1164:0.0234694 1165:0.0811917 1166:0.420962 1167:0.00318521 1168:0.080128 1169:0.0212005 1170:0.296144 1171:0.157587 1172:0.0541317 1173:0.0681826 1174:0.0821586 1175:0.0605079 1176:0.138971 1177:0.198309 1178:0.140489 1179:0.0388705 1180:0.016677 1181:0.00624735 1182:0.0532847 1183:0.00396068 1184:0.423366 1185:0.11104 1186:0.0815715 1187:0.276083 1188:0.185404 1189:0.112571 1190:0.0890382 1191:0.24658 1192:0.0157088 1193:0.322449 1194:0.258643 1195:0.0299597 1196:0.0775506 1197:0.16518 1198:0.136415 1199:0.218541 1200:0.225791 1201:0.270581 1202:0.114777 1203:0.0281133 1204:0.272628 1205:0.0743921 1206:0.189648 1207:0.0576393 1208:0.210082 1209:0.119915 1210:0.288842 1211:0.150825 1212:0.139898 1213:0.0599529 1214:0.0440627 1215:0.022463 1216:0.254712 1217:0.127127 1218:0.0807329 1219:0.0847529 1220:0.0754138 1221:0.0921872 1222:0.110173 1223:0.0625988 1224:0.133607 1225:0.262645 1226:0.08466 1227:0.224418 1228:0.090455 1229:0.0599088 1230:0.0902549 1231:0.171288 1232:0.184001 1233:0.0117229 1234:0.0372509 1235:0.122728 1236:0.158558 1237:0.0736498 1238:0.177391 1239:0.0529953 1240:0.139016 1241:0.25444 1242:0.126764 1243:0.279997 1244:0.0580893 1245:0.169296 1246:0.133787 1247:0.178513 1248:0.239747 1249:0.103147 1250:0.270036 1251:0.140432 1252:0.216073 1253:0.135891 1254:0.0992268 1255:0.124155 1256:0.0553749 1257:0.163426 1258:0.288043 1259:0.0605174 1260:0.0607849 1261:0.15044 1262:0.245714 1263:0.268503 1264:0.143735 1265:0.198207 1266:0.242089 1267:0.130452 1268:0.231578 1269:0.0950202 1270:0.0840558 1271:0.0549062 1272:0.140905 1273:0.137478 1274:0.211409 1275:0.286172 1276:0.187414 1277:0.144574 1278:0.0839668 1279:0.228359 1280:0.113783 1281:0.256119 1282:0.127424 1283:0.0530327 1284:0.0204022 1285:0.0792277 1286:0.102968 1287:0.569915 1288:0.211737 1289:0.229849 1290:0.0789287 1291:0.0499975 1292:0.0688401 1293:0.0316444 1294:0.214328 1295:0.223062 1296:0.0525129 1297:0.229676 1298:0.0840372 1299:0.0176977 1300:0.0314864 1301:0.0424008 1302:0.648484 1303:0.0999278 1304:0.0658031 1305:0.0152586 1306:0.105519 1307:0.0111903 1308:0.152495 1309:0.21809 1310:0.216092 1311:0.0582185 1312:0.128964 1313:0.0961413 1314:0.120579 1315:0.000932052 1316:0.0114048 1317:0.0586323 1318:0.006852 1319:0.00315119 1320:0.0442302 1321:0.388587 1322:0.148598 1323:0.124077 1324:0.0543311 1325:0.162379 1326:0.119623 1327:0.214654 1328:0.102626 1329:0.100123 1330:0.225519 1331:0.170596 1332:0.0864514 1333:0.322449 1334:0.00918244 1335:0.0129846 1336:0.271723 1337:0.140101 1338:0.258329 1339:0.20282 1340:0.212977 1341:0.238723 1342:0.0383998 1343:0.0352262 1344:0.136281 1345:0.18536 1346:0.126601 1347:0.151071 1348:0.102668 1349:0.0808352 1350:0.298487 1351:0.0783308 1352:0.100088 1353:0.074065 1354:0.139112 1355:0.168109 1356:0.281612 1357:0.0529726 1358:0.146811 1359:0.0935691 1360:0.100756 1361:0.0205334 1362:0.212718 1363:0.257771 1364:0.042667 1365:0.260231 1366:0.128145 1367:0.203566 1368:0.271863 1369:0.0664612 1370:0.235836 1371:0.0846024 1372:0.269441 1373:0.272359 1374:0.187822 1375:0.191037 1376:0.22589 1377:0.100798 1378:0.177778 1379:0.168488 1380:0.143684 1381:0.2007 1382:0.0966813 1383:0.166173 1384:0.175169 1385:0.111712 1386:0.0365935 1387:0.173938 1388:0.0175439 1389:0.266525 1390:0.120047 1391:0.0130829 1392:0.14432 1393:0.291962 1394:0.237719 1395:0.141471 1396:0.129217 1397:0.12812 1398:0.164718 1399:0.301202 1400:0.395929 1401:0.300505 1402:0.176222 1403:0.186309 1404:0.274542 1405:0.011584 1406:0.0112809 1407:0.0439322 1408:0.271067 1409:0.0673302 1410:0.138842 1411:0.197002 1412:0.303768 1413:0.301573 1414:0.301573 1415:0.160286 1416:0.105238 1417:0.306913 1418:0.0891013 1419:0.203999 1420:0.133395 1421:0.0918901 1422:0.148473 1423:0.231707 1424:0.0554627 1425:0.241508 1426:0.16416 1427:0.145848 1428:0.25228 1429:0.288842 1430:0.295499 1431:0.155853 1432:0.178287 1433:0.105289 1434:0.259415 1435:0.281894 1436:0.0844964 1437:0.193324 1438:0.0367621 1439:0.0440406 1440:0.226508 1441:0.208033 1442:0.128325 1443:0.124213 1444:0.0883035 1445:0.215127 1446:0.276 1447:0.164997 1448:0.246961 1449:0.138667 1450:0.27578 1451:0.058318 1452:0.111126 1453:0.195129 1454:0.154882 1455:0.255738 1456:0.0590711 1457:0.224102 1458:0.123584 1459:0.0489377 1460:0.196966 1461:0.0683511 1462:0.186553 1463:0.046533 1464:0.126859 1465:0.0219869 1466:0.129918 1467:0.0860597 1468:0.0242646 1469:0.128176 1470:0.253851 1471:0.0177127 1472:0.0669069 1473:0.191137 1474:0.0292363 1475:0.124956 1476:0.296144 1477:0.200828 1478:0.23226 1479:0.0159621 1480:0.225826 1481:0.109978 1482:0.23981 1483:0.239708 1484:0.0641507 1485:0.282938 1486:0.251011 1487:0.0115097 1488:0.0521225 1489:0.134199 1490:0.157194 1491:0.058485 1492:0.0494251 1493:0.272628 1494:0.0415819 1495:0.180716 1496:0.0246857 1497:0.0296383 1498:0.0577781 1499:0.260879 
0.003224757375247441 0 0:0.304387 1:0.0100747 2:0.237653 3:0.173653 4:0.000898366 5:0.179154 6:0.127025 7:0.0702447 8:0.0673621 9:0.0731758 10:0.333151 11:0.0962299 12:0.188304 13:0.309466 14:0.238681 15:0.50531 16:0.0493516 17:0.153736 18:0.0124347 19:0.275342 20:0.103284 21:0.0470794 22:0.124692 23:0.00608224 25:0.0866664 26:0.15815 27:0.0848273 28:0.0262885 29:0.0274151 30:0.255848 31:0.127605 32:0.253047 33:0.0440817 34:0.334319 35:0.162185 36:0.206293 37:0.0421133 38:0.232817 39:0.0671082 40:0.235103 41:0.267401 42:0.339408 43:0.316277 44:0.0127397 45:0.018637 46:0.0502747 47:0.106468 48:0.0991092 49:0.163901 50:0.000199309 51:0.081302 52:0.132263 53:0.36648 54:0.0358205 55:0.299278 56:0.00891846 57:0.335483 58:0.00286945 59:0.0778336 60:0.122051 61:0.0715645 62:0.189287 63:0.0901509 64:0.0170707 65:0.0680904 66:0.167746 67:0.0583666 68:0.0398462 69:0.00590643 70:0.00672731 71:0.106748 72:0.0161701 73:0.203692 74:0.159352 75:0.0412343 76:0.365202 77:0.0181646 78:0.0754296 79:0.0670083 80:0.0113708 81:1.3733e-005 82:0.0565103 83:0.231322 84:0.283709 85:0.13553 86:0.0153163 87:0.117129 88:0.170616 89:0.00216358 90:0.176008 91:0.15249 92:0.202217 93:0.167262 94:0.0582371 95:0.299278 96:0.245479 97:0.0643716 98:0.299278 99:0.00545249 100:0.078202 101:0.198364 102:0.0256697 103:0.262302 104:0.0922564 105:0.114279 106:0.205382 107:0.0814037 108:0.00848631 110:0.143849 111:0.23131 112:0.128361 113:0.00667338 114:0.152334 115:0.100268 116:0.0247552 117:0.0428054 118:0.0042747 119:0.20154 120:0.0341929 121:0.148591 122:0.153772 123:0.243087 124:0.0183128 125:0.0557949 126:0.392595 127:0.080886 128:0.0120983 129:0.151174 130:0.337673 131:0.269668 132:0.00510253 133:0.294063 134:0.228 135:0.138172 136:0.0210768 137:0.0787843 138:0.390688 139:0.10217 140:0.0370749 141:0.150308 142:0.155921 143:0.167298 144:0.0856847 145:0.201176 146:0.0760709 147:0.0199187 148:0.324752 149:0.00640607 150:0.320872 151:0.0717392 152:0.116047 153:0.241814 154:0.165995 155:0.0352694 156:0.299278 157:0.0848699 158:0.0468509 159:0.220721 160:0.108451 161:0.113883 162:0.047263 163:0.250823 164:0.210814 165:0.059171 166:0.142924 167:0.029277 168:0.136841 169:0.425493 170:0.0167779 171:0.00993663 172:0.339945 173:0.119461 174:0.0948917 175:0.154981 176:0.000594906 177:0.252976 178:0.00923871 179:0.0280507 180:0.0525061 181:0.0569889 182:0.175418 183:0.0408533 184:0.138948 185:0.180058 186:0.119928 187:0.0472938 188:0.0220638 189:0.00427629 190:0.339408 191:0.0486595 192:0.14459 193:0.155003 194:0.114768 195:0.0820886 196:0.0445468 197:0.307374 198:0.131888 199:0.0114111 200:0.0378554 201:0.136557 202:0.188929 203:0.0230035 204:0.0272086 205:0.250369 206:0.0461926 207:0.26572 208:0.183182 209:0.174227 210:0.0260013 211:0.0194 212:0.00949964 213:0.0592926 214:0.0418913 215:0.0920839 216:0.0278248 217:0.285661 218:0.422099 219:0.0240435 220:0.228656 221:0.165517 222:0.243619 223:0.00686201 224:0.206548 225:0.0115167 226:0.324752 227:0.0344964 228:0.00474649 229:0.011645 230:0.320872 231:0.147127 232:0.0837256 233:0.0398388 234:0.0328384 235:0.0124886 236:0.259546 237:0.0441049 238:0.153805 239:0.247869 240:0.00347984 241:0.193791 242:0.0655398 243:0.0840499 244:0.387865 245:0.0220979 246:0.145742 247:0.0548646 248:0.137902 249:0.0573003 250:0.0198975 251:0.173664 252:0.261186 253:0.00601641 254:0.0190895 255:0.335483 256:0.0678851 257:0.0157891 258:0.370745 259:0.174794 260:0.0307882 261:0.0128249 262:0.121165 263:0.0450769 264:0.354758 265:0.273237 266:0.393235 267:0.233873 268:0.210774 269:0.0698493 270:0.0970958 271:0.105537 272:0.0557789 273:0.230166 274:0.0258796 275:0.128002 276:0.0182224 277:0.0141849 278:0.00113176 279:0.0816265 280:0.387574 281:0.161534 282:0.123566 283:0.118539 284:0.0219023 285:0.119288 286:0.325417 287:0.331683 288:0.0622427 289:0.331683 290:0.169302 291:0.0515968 292:0.443117 293:0.327441 294:0.00334737 295:0.0525429 296:0.15045 297:0.15613 298:0.0140534 299:0.349593 300:0.392595 301:0.0402379 302:0.134883 303:0.0339907 304:0.0506745 305:0.0451244 306:0.0830198 307:0.211202 308:0.11624 309:0.0568604 310:0.155957 311:0.105987 312:0.142338 313:0.0543625 314:0.0577103 315:0.090642 316:0.415837 317:0.000359925 318:0.107182 319:0.00325921 320:0.320981 321:0.0188078 322:0.0517246 323:0.0713906 324:0.155972 325:0.250721 326:0.13449 327:0.268188 328:0.00827652 329:0.0266152 330:0.0922461 331:0.0929553 332:0.190892 333:0.109536 334:0.0418279 335:0.0584423 336:0.0215952 337:0.0304776 338:0.00432912 339:0.324752 340:0.0615549 341:0.320872 342:0.134239 343:0.0724614 344:0.114714 345:0.229486 346:0.0269568 347:0.168925 348:0.342026 349:0.106706 350:0.0868321 351:0.300471 352:0.239566 353:0.0289581 354:0.109455 355:0.144792 356:0.020513 357:0.268326 358:0.224775 359:0.239358 360:0.0712682 361:0.110836 362:0.0663572 363:0.0782935 364:0.118593 365:0.124502 366:0.243002 367:0.143715 368:0.148545 369:0.0463803 370:0.0241728 371:0.0391911 372:0.10371 373:0.0718133 374:0.0202072 375:0.12216 376:0.0582352 377:0.131653 378:0.000691101 379:0.177214 380:0.13635 381:0.165624 382:0.274789 383:0.228499 384:0.058997 385:0.117055 386:0.143624 387:0.175863 388:0.129521 389:0.00525778 390:0.393235 391:0.171564 392:0.339945 393:0.117349 394:0.121245 395:0.00440927 396:0.00768823 397:0.362364 398:0.143507 399:0.16953 400:0.0128487 401:0.284551 402:0.116145 403:0.137603 404:0.150681 405:0.222881 406:0.151113 407:0.138108 408:0.0156388 409:0.302898 410:0.094481 411:0.045571 412:0.297654 413:0.0229923 414:0.0400957 415:0.0279678 416:0.106061 417:0.0606898 418:0.126506 419:0.013439 420:0.226488 421:0.251039 422:0.0478207 423:0.164737 424:0.0965028 425:0.0743744 426:0.0613375 427:0.002064 428:0.0198019 429:0.0523147 430:0.273052 431:0.0187069 432:0.198486 433:0.0518409 434:0.00578184 435:0.0651829 436:0.0329036 437:0.0870418 438:0.125869 439:0.00079744 440:0.183363 441:0.103186 442:0.294063 443:0.292975 444:0.00064125 445:0.133785 446:0.122226 447:0.0689469 448:0.0361431 449:0.390688 450:0.0737892 451:0.0110765 453:0.0444634 454:0.0899907 455:0.336374 456:0.110622 457:0.066723 458:0.168816 459:0.285661 460:0.422099 461:0.124868 462:0.00493069 463:0.00477293 464:0.00738618 465:0.422099 466:0.0600731 467:0.337455 468:0.281752 469:0.00308503 470:0.0432596 471:0.00721521 472:0.324752 473:0.0517121 474:0.019184 475:0.202756 476:0.130336 477:0.27919 478:0.0727913 479:0.139825 480:0.141891 481:0.123881 482:0.0190346 483:0.117256 484:0.326348 485:0.0844773 486:0.225114 487:0.0677169 488:0.0682079 489:0.148855 490:0.0361369 491:0.151727 492:0.214314 493:0.21856 494:0.0238037 495:0.0256555 496:0.154352 497:0.208438 498:0.066147 499:0.0968276 500:0.36648 501:0.0827201 502:0.0647303 503:0.0530806 504:0.0260489 505:0.110375 506:0.113078 507:0.0596234 508:0.0309844 509:0.272381 510:0.0545078 511:0.0356049 512:0.0451065 513:0.0133044 515:0.173594 516:0.0385725 517:0.100502 518:0.0412376 519:0.0685537 520:0.0146077 521:0.0825455 522:0.212254 523:0.0979666 524:0.0824463 525:0.368376 526:0.247417 527:0.029318 528:0.0227265 529:0.0358467 530:0.0206405 531:0.111599 532:0.0380042 533:0.129074 534:0.309088 535:0.00839156 536:0.0116546 537:0.294899 538:0.0229025 539:0.058979 540:0.143905 541:0.108714 542:0.290025 543:0.316282 544:0.125238 545:0.00964232 546:0.00311049 547:0.0540192 548:0.0523619 549:0.139942 550:0.106554 551:0.126276 552:0.208521 553:0.124911 554:0.173366 555:0.325417 556:0.146933 557:0.0835 558:0.0143641 559:0.0420082 560:0.331683 561:0.179231 562:0.193644 563:0.0197592 564:0.326186 565:0.0511057 566:0.139835 567:0.198228 568:0.184723 569:0.167932 570:0.27742 571:0.207603 572:0.0413777 573:0.0484279 574:0.161086 575:0.10063 576:0.269592 577:0.0651494 578:0.328029 579:0.0590315 580:0.191323 581:0.051227 582:0.155144 583:0.0537481 584:0.00409957 585:0.294063 586:0.00717753 587:0.0672453 588:0.093591 589:0.229771 590:0.0490266 591:0.0717215 592:0.125764 593:0.0270216 594:0.0526659 595:0.26841 596:0.184675 597:0.0533488 598:0.00280074 599:0.0907684 600:0.285528 601:0.111831 602:0.00635192 603:0.350676 604:0.174983 605:0.0123627 606:0.00392774 607:0.173227 608:0.00882764 609:0.00980758 610:0.197622 611:0.0846715 613:0.00821781 614:0.0110748 615:0.422099 616:0.068692 617:0.0624622 618:0.118124 619:0.153986 620:0.180678 621:0.00466068 622:0.249311 623:0.244815 624:0.211623 625:0.069974 626:0.264763 627:0.0795489 628:0.328372 629:0.0252605 630:0.257409 631:0.132154 632:0.115492 633:0.0424732 634:0.0866439 635:0.316012 636:0.369203 637:0.0215749 638:0.0690515 639:0.0828387 640:0.291658 641:0.115843 642:0.131565 643:0.0139014 644:0.13622 645:0.239318 646:0.14166 647:0.212501 648:0.0485715 649:0.146921 650:0.0754198 651:0.182331 652:0.108028 653:0.185585 654:0.0426325 655:0.0526088 656:0.0378163 657:0.173447 658:0.223 659:0.110947 660:0.038339 661:0.0039171 662:0.0330901 663:0.392422 664:0.0668005 665:0.0615242 666:0.0636841 667:0.00867028 668:0.0185212 669:0.233154 670:0.370745 672:0.346515 673:0.0675206 674:0.00450548 675:0.129043 676:0.240522 677:0.274789 678:0.105941 679:0.274789 680:0.2433 681:0.0809295 682:0.0823302 683:0.0342551 684:0.0281852 685:0.177799 686:0.119551 687:0.118521 688:0.0890305 689:0.0797465 690:0.160617 691:0.314695 692:0.125338 693:0.0831742 694:0.00364214 695:0.0110552 696:0.23269 697:0.0440014 698:0.290312 699:0.362364 700:0.362364 701:0.303839 702:0.0120686 703:0.0600494 704:0.0532902 705:0.248754 707:0.122114 708:0.161815 709:0.0507125 710:0.0568281 711:0.0148834 712:0.072594 713:0.238327 714:0.222955 715:0.230437 716:0.0331284 717:0.248014 718:0.331683 719:0.173368 720:0.0737423 721:0.303281 722:0.0456013 723:0.0558892 724:0.336114 725:0.0768011 726:0.0817587 727:0.0528043 728:0.061348 729:0.443117 730:0.140617 731:0.0569481 732:0.341533 733:0.114264 734:0.222844 735:0.239595 736:0.0906364 737:0.0860012 738:0.125664 739:0.179277 740:0.125275 741:0.0302121 742:0.328029 743:0.028506 744:0.0591586 745:0.0247476 746:0.218655 747:0.337673 748:0.0834077 749:0.00450784 750:0.323572 751:0.323572 752:0.146044 753:0.0285105 754:0.074207 755:0.180924 756:0.0539532 757:0.066751 758:0.19746 759:0.00498834 760:0.0688648 761:0.0522801 762:0.0345012 763:0.135017 764:0.350676 765:0.0114667 766:0.366436 767:0.153466 768:0.0460457 769:0.366436 770:0.0310842 771:0.148132 772:0.336374 773:0.134789 774:0.0753416 775:0.248212 776:0.0773501 777:0.0742878 778:0.190012 779:0.38299 780:0.348506 781:0.117906 782:0.0278973 783:0.0264324 784:0.0282139 785:0.0312424 786:0.205678 787:0.0995365 788:0.124134 789:0.304902 790:0.0927782 791:0.0819961 792:0.0626639 794:0.0395472 795:0.0637372 796:0.0802863 797:0.190699 798:0.0150568 799:0.1123 800:0.0229678 801:0.288467 802:0.0389501 803:0.132513 804:0.125758 805:0.21707 806:0.0276657 807:0.290281 808:0.105305 809:0.188646 810:0.103087 811:0.0299807 812:0.268326 813:0.213097 814:0.188309 815:0.205325 816:0.102206 817:0.20305 818:0.175469 819:0.190102 820:0.308439 821:0.130998 822:0.0297964 823:0.14317 824:0.284169 825:0.0425542 826:0.106047 827:0.299278 828:0.172568 829:0.0845174 830:0.273973 831:0.00781484 833:0.0337172 834:0.0251884 836:0.392422 838:0.051867 839:0.0977376 840:0.320358 841:0.118273 842:0.226254 843:0.248406 844:0.226228 845:0.118507 846:0.072369 847:0.136758 848:0.0205732 849:0.142349 850:0.425493 851:0.180416 852:0.0507814 853:0.0292762 854:0.010036 855:0.178117 856:0.0907481 858:0.0388769 859:0.215341 860:0.052884 861:0.227009 862:0.00144627 863:0.350718 864:0.362364 865:0.0285024 866:0.316282 867:0.0826305 868:0.0879843 869:0.0258422 870:0.15946 871:0.0369671 872:0.146741 873:0.0892795 874:0.0695704 875:0.190945 876:0.056849 877:0.274639 878:0.0971527 879:0.0666384 880:0.058269 881:0.056625 882:0.0446878 883:0.331683 884:0.0705533 885:0.284179 886:0.0380306 887:0.443117 888:0.0666991 889:0.0606941 890:0.341533 891:0.0178271 892:0.0529786 893:0.022532 894:0.268985 895:0.307374 896:0.0609491 897:0.392595 898:0.0179613 899:0.0511073 900:0.189871 901:0.050985 902:0.288411 903:0.169803 904:0.131261 905:0.337673 906:0.337673 907:0.147809 908:0.0316707 909:0.0034443 910:0.0099236 911:0.230287 912:0.323572 913:0.013815 914:0.239998 915:0.037059 916:0.0720157 917:0.208294 918:0.168599 919:0.0217156 920:0.247037 921:0.228751 922:0.415837 923:0.183409 924:0.159881 925:0.0134242 926:0.0346587 927:0.0932638 928:0.100656 929:0.0781769 930:0.0475165 931:0.137924 932:0.0131387 933:0.0102225 934:0.204633 935:0.0393997 936:0.0144686 937:0.366436 938:0.204158 939:0.0217789 940:0.336374 941:0.0535289 942:0.026024 943:0.136913 944:0.0310773 945:0.205703 946:0.105327 947:0.0057054 948:0.0756167 949:0.00214596 950:0.252459 951:0.0748666 952:0.140432 953:0.320872 954:0.0859086 955:0.111225 956:0.0800147 957:0.364128 958:0.0227967 959:0.200105 960:0.364128 961:0.248255 962:0.0848291 963:0.113567 964:0.010391 965:0.188804 966:0.0437328 967:0.29158 968:0.0848109 969:0.283378 970:0.224704 971:0.0885083 972:0.183826 973:0.0539357 974:0.252782 975:0.154104 976:0.0292395 977:0.0711616 978:0.115672 979:0.0794809 980:0.111549 981:0.268326 982:0.1098 983:0.108678 984:0.160629 985:0.127902 986:0.268326 987:0.204468 988:0.154358 989:0.149617 990:0.36648 991:0.0565016 992:0.337241 993:0.281611 994:0.022849 995:0.394405 996:0.00875916 997:0.00755344 998:0.109274 999:0.392422 1000:0.114241 1001:0.287704 1002:0.0315447 1003:0.113204 1004:0.0930881 1005:0.0486312 1006:0.0111847 1007:0.123909 1008:0.0113485 1009:0.00185301 1010:0.0435811 1011:0.0212853 1012:0.346515 1013:0.151546 1014:0.174772 1015:0.346515 1016:0.229865 1017:0.151213 1018:0.256497 1019:0.093511 1020:0.00487821 1021:0.0308567 1022:0.000478279 1023:0.00138391 1024:0.0492456 1025:0.022608 1026:0.207353 1027:0.104702 1028:0.00677461 1029:0.350718 1030:0.0299545 1031:0.073027 1032:0.316282 1033:0.0247007 1034:0.387574 1035:0.387574 1036:0.123221 1037:0.305661 1038:0.119303 1039:0.0533985 1040:0.318145 1041:0.267539 1042:0.1226 1043:0.0240813 1044:0.0414446 1045:0.228812 1046:0.0017535 1047:0.32681 1048:0.0888922 1049:0.0475493 1050:0.0931026 1051:0.0857832 1052:0.0249347 1053:0.187632 1054:0.0265571 1055:0.0104739 1056:0.0838346 1057:0.0468381 1058:0.341533 1059:0.335582 1060:0.145165 1061:0.0699273 1062:0.0867809 1063:0.0648781 1064:0.313655 1065:0.0553455 1066:0.119203 1067:0.0367046 1068:0.0614033 1069:0.141139 1070:0.0200113 1071:0.185051 1072:0.145071 1073:0.0473694 1074:0.253703 1075:0.0836764 1076:0.0121103 1077:0.109648 1078:0.00366303 1079:0.000151813 1080:0.323572 1081:0.122915 1082:0.0976324 1083:0.15348 1084:0.247106 1085:0.281648 1086:0.240335 1087:0.26106 1088:0.260622 1089:0.201918 1090:0.429455 1091:0.0463418 1092:0.143077 1093:0.171432 1094:0.029711 1095:0.00347334 1096:0.293245 1097:0.350676 1098:0.10624 1099:9.5369e-005 1100:0.0636177 1101:0.261146 1102:0.336374 1103:0.0075965 1104:0.0886516 1105:0.0328503 1106:0.166083 1107:0.184758 1108:0.12514 1109:0.126237 1110:0.113521 1111:0.0576085 1112:0.38299 1113:0.0826925 1114:0.212891 1115:0.0457696 1116:0.327161 1117:0.0040522 1118:0.0589985 1119:0.0249004 1120:0.290247 1121:0.324752 1122:0.0343153 1123:0.043678 1124:0.0288361 1125:0.0679507 1126:0.101495 1127:0.0707098 1128:0.0388245 1129:0.369203 1130:0.125951 1131:0.0504273 1132:0.30328 1133:0.0774233 1134:0.0836713 1135:0.0175636 1136:0.266975 1137:0.193695 1138:0.0424654 1139:0.161105 1140:0.200144 1141:0.209455 1142:0.0909901 1143:0.149939 1144:0.0296148 1145:0.387865 1146:0.0580669 1147:0.0573599 1148:0.105431 1149:0.26419 1150:0.0233103 1151:0.143937 1152:0.224057 1153:0.034987 1155:0.392422 1156:0.0868156 1157:0.242183 1158:0.0525504 1159:0.0418131 1160:0.0149841 1161:0.0294673 1162:0.0775284 1163:0.370745 1164:0.00146154 1165:0.0011118 1166:0.18231 1167:0.118374 1168:0.230061 1169:0.0908545 1170:0.00408556 1171:0.0556001 1172:0.20196 1173:0.373025 1176:0.28114 1177:0.125501 1178:0.33399 1179:0.314695 1180:0.314695 1181:0.0165325 1182:0.350718 1183:0.0332178 1184:0.189208 1185:0.275654 1186:0.0203078 1187:0.0547542 1188:0.316282 1189:0.0284756 1190:0.0536646 1191:0.180328 1192:0.331683 1193:0.0519786 1194:0.150562 1195:0.106268 1196:0.0477517 1197:0.0585161 1198:0.107786 1199:0.183807 1200:0.325829 1201:0.257593 1202:0.0510181 1203:0.136206 1204:0.234851 1205:0.044788 1206:0.239736 1207:0.282642 1208:0.0782626 1209:0.0514126 1210:0.119777 1211:0.0603769 1212:0.215531 1213:0.0334567 1214:0.195768 1215:0.0267138 1216:0.0304448 1217:0.323572 1218:0.0138193 1219:0.323572 1220:0.027762 1221:0.201685 1222:0.128262 1223:0.0563668 1224:0.161809 1225:0.0451399 1226:0.390688 1227:0.0523037 1228:0.179467 1229:0.0121497 1230:0.350676 1231:0.168589 1232:0.0387498 1233:0.0647782 1234:0.199622 1235:0.134091 1236:0.189622 1237:0.366436 1238:0.0962829 1239:0.0502567 1240:0.166516 1241:0.0695916 1242:0.38299 1243:0.0146291 1244:0.0207385 1245:0.149964 1247:0.000517268 1248:0.0359587 1249:0.0246482 1250:0.0480724 1251:0.0113551 1252:0.0542041 1253:0.320872 1254:0.208348 1255:0.364128 1256:0.0702396 1257:0.315497 1258:0.037518 1259:0.0526692 1260:0.0469437 1261:0.202902 1262:0.115739 1263:0.127654 1264:0.0218432 1265:0.246989 1266:0.0407657 1267:0.212165 1268:0.109128 1269:0.138427 1270:0.101938 1271:0.0198689 1272:0.0723229 1273:0.0157128 1274:0.402197 1275:0.514562 1276:0.0272883 1277:0.268326 1278:0.152624 1279:0.226224 1280:0.0505794 1281:0.302169 1282:0.000190291 1283:0.0482583 1284:0.0911239 1285:0.0561541 1286:0.11932 1287:0.148499 1288:0.299278 1289:0.0502368 1290:0.230566 1291:0.28856 1292:0.0298158 1294:0.215133 1295:0.156373 1296:0.185058 1297:0.0522641 1298:0.275098 1299:0.117425 1300:0.0304036 1301:0.370745 1302:0.0102051 1303:0.346515 1304:0.189395 1305:0.0454932 1306:0.0362088 1307:0.0601299 1308:0.051607 1309:0.0774811 1310:0.205997 1311:0.339945 1312:0.124799 1313:0.149998 1314:0.193218 1315:0.0535897 1316:0.109391 1317:0.199284 1318:0.0774333 1319:0.0108313 1320:0.350718 1321:0.347226 1322:0.00840625 1323:0.0161232 1324:0.0525005 1325:0.0257989 1326:0.318145 1327:0.318145 1328:0.219328 1329:0.228219 1330:0.243211 1331:0.24763 1332:0.0140179 1333:0.0170258 1334:0.0385526 1335:0.033066 1336:0.27556 1337:0.021556 1338:0.247244 1339:0.300908 1340:0.039074 1341:0.169878 1342:0.0900112 1343:0.0155349 1344:0.105287 1345:0.0172896 1346:0.0158619 1347:0.0712042 1348:0.294063 1349:0.294063 1350:0.17283 1351:0.10133 1352:0.0352539 1353:0.0613446 1354:0.0955412 1355:0.246114 1356:0.350676 1357:0.00433799 1358:0.0299103 1359:0.0092009 1360:0.013675 1361:0.0559579 1362:0.38299 1363:0.0101275 1364:0.00410252 1365:0.325152 1366:0.000306565 1367:0.229744 1368:0.324752 1369:0.0440079 1370:0.0446055 1371:0.0836386 1372:0.342026 1373:0.235316 1374:0.17199 1375:0.326348 1376:0.0234835 1377:0.133486 1378:0.151611 1379:0.197379 1380:0.309643 1381:0.00837107 1382:0.0538899 1383:0.165962 1384:0.0826346 1385:0.264217 1386:0.0551166 1387:0.36648 1388:0.175648 1389:0.0214594 1390:0.0751298 1391:0.299278 1392:0.0900521 1393:0.10297 1394:0.0635389 1395:0.335545 1396:0.110215 1397:0.110971 1398:0.170632 1399:0.335483 1400:0.189706 1401:0.0538293 1402:0.339945 1403:0.0331582 1404:0.164672 1405:0.207845 1406:0.158838 1407:0.314695 1408:0.00518369 1409:0.0719585 1410:0.0268227 1411:0.0156485 1412:0.20581 1413:0.0632625 1414:0.160555 1415:0.0194449 1416:0.138018 1417:0.174698 1418:0.0799326 1419:0.131955 1420:0.0723469 1421:0.0102948 1422:0.0187475 1423:0.0413718 1424:0.142337 1425:0.0748418 1426:0.229152 1427:0.316277 1428:0.19964 1429:0.172001 1430:0.0548106 1431:0.392595 1432:0.328029 1433:0.0240379 1434:0.258917 1435:0.00236875 1436:0.0033168 1437:0.00989428 1438:0.0606569 1439:0.237517 1440:0.0181311 1441:0.159756 1442:0.134735 1443:0.0131863 1444:0.0802667 1445:0.101581 1446:0.366436 1447:0.0267459 1448:0.231536 1449:0.295627 1450:0.322603 1451:0.129158 1452:0.0097301 1453:0.320872 1454:0.0261303 1455:0.320872 1456:0.081119 1457:0.0746133 1458:0.0163622 1459:0.12856 1460:0.0419586 1461:0.0527759 1462:0.298815 1463:0.0491804 1464:0.0269961 1465:0.156455 1466:0.103726 1467:0.0785296 1468:0.186748 1469:0.0881761 1470:0.0702312 1471:0.168923 1472:0.0260441 1473:0.370745 1474:0.0157897 1475:0.0155049 1476:0.0393207 1477:0.0312763 1478:0.0373481 1479:0.101854 1482:0.0055461 1483:0.0688371 1484:0.387574 1485:0.0413971 1486:0.146536 1487:0.0498396 1488:0.0486284 1489:0.018913 1490:0.0970501 1491:0.105637 1492:0.0191278 1493:0.159695 1494:0.146122 1495:0.133039 1496:0.0103712 1497:0.305783 1498:0.0467001 1499:0.328029 
0.0009305197696277568 0.00749425549478284 0:0.218732 1:0.0947683 2:0.0319518 3:0.292552 4:0.00262593 5:0.222499 6:0.128729 7:0.0864337 8:0.0529763 9:0.327668 10:0.206701 11:0.0740043 12:0.340793 13:0.307468 14:0.0798536 15:0.128418 16:0.27378 17:0.238221 18:0.00785104 19:0.315744 20:0.0266638 21:0.0789494 22:0.0105386 23:0.0154727 24:0.118575 25:0.203304 26:0.226864 27:0.234919 28:0.150754 29:0.23524 30:0.0275301 31:0.0115845 32:0.282585 33:0.0739536 34:0.27378 35:0.143753 36:0.291343 37:0.168589 38:0.140686 39:0.107038 40:0.139826 41:0.312512 42:0.0853448 43:0.33259 44:0.0660865 45:0.0764249 46:0.317943 47:0.317943 48:0.268193 49:0.191877 50:0.0163369 51:0.178177 52:0.118893 53:0.1418 54:0.00624344 55:0.384987 56:0.142175 57:0.059571 58:0.253507 59:0.0898137 60:0.16204 61:0.155915 62:0.221886 63:0.292552 64:0.0901759 65:0.188772 66:0.152482 67:0.280861 68:0.128316 69:0.0594207 70:0.217009 71:0.327918 72:0.28971 73:0.155171 74:0.310772 75:0.212579 76:0.0656753 77:0.0895914 78:0.253115 79:0.00696653 80:0.16491 81:0.232996 82:0.127832 83:0.375835 84:0.0874866 85:0.0670864 86:0.0955234 87:0.0884651 88:0.0952885 89:0.193004 90:0.158148 91:0.179184 92:0.208532 93:0.209499 94:0.298828 95:0.138459 96:0.384987 97:0.017859 98:0.106549 99:0.0726301 100:0.105271 101:0.0394237 102:0.138086 103:0.0982956 104:0.30948 105:0.0700676 106:0.253241 107:0.27378 108:0.232721 109:0.031374 110:0.191249 111:0.192122 112:0.324111 113:0.117644 114:0.252535 115:0.309518 116:0.130451 117:0.0545534 118:0.0780052 119:0.220213 120:0.101631 121:0.249303 122:0.207355 123:0.135668 124:0.0265159 125:0.089633 126:0.0319446 127:0.0315313 128:0.304747 129:0.083369 130:0.102698 131:0.377379 132:0.184404 133:0.175037 134:0.0195306 135:0.149868 136:0.0284752 137:0.221574 138:0.0732772 139:0.238676 140:0.0301149 141:0.221176 142:0.0378563 143:0.169121 144:0.0260456 145:0.117927 146:0.0974653 147:0.171477 148:0.0834568 149:0.342889 150:0.143415 151:0.306788 152:0.0438224 153:0.204353 154:0.0300063 155:0.0531556 156:0.384987 157:0.167265 158:0.102313 159:0.30948 160:0.30948 161:0.179172 162:0.14917 163:0.293925 164:0.0310012 165:0.0610929 166:0.0445221 167:0.242089 168:0.130347 169:0.178381 170:0.0208177 171:0.161386 172:0.214125 173:0.22303 174:0.324111 175:0.0257082 176:0.051324 177:0.206203 178:0.0855421 179:0.04256 180:0.0797825 181:0.0637469 182:0.0224972 183:0.102681 184:0.0795184 185:0.282598 186:0.0176638 187:0.288182 188:0.140049 189:0.138716 190:0.305894 191:0.234503 192:0.129262 193:0.277544 194:0.240219 195:0.0397954 196:0.205608 197:0.146361 198:0.158071 199:0.0351477 200:0.101005 201:0.0147461 202:0.135517 203:0.128795 204:0.126578 205:0.11078 206:0.100241 207:0.310772 208:0.0330756 209:0.12211 210:0.0604962 211:0.155049 212:0.298928 213:0.324174 214:0.327668 215:0.0471789 216:0.18119 217:0.144 218:0.231254 219:0.234895 220:0.0312143 221:0.1377 222:0.408703 223:0.153057 224:0.0913487 225:0.200823 226:0.122309 227:0.323095 228:0.342889 229:0.342889 230:0.0165008 231:0.0958731 232:0.243946 233:0.0637527 234:0.0680769 235:0.18313 236:0.108126 237:0.0345265 238:0.355509 239:0.182203 240:0.0864201 241:0.150359 242:0.0593902 243:0.0596091 244:0.298488 245:0.022295 246:0.286193 247:0.0447952 248:0.307468 249:0.306196 250:0.0311646 251:0.043748 252:0.0309047 253:0.397667 254:0.397667 255:0.0270346 256:0.0370038 257:0.0911905 258:0.192733 259:0.00788252 260:0.0589934 261:0.00938931 262:0.282585 263:0.206994 264:0.155696 265:0.141886 266:0.199566 267:0.17826 268:0.219944 269:0.251124 270:0.0897979 271:0.174997 272:0.324111 273:0.0706298 274:0.211163 275:0.0633529 276:0.30095 277:0.196364 278:0.174997 279:0.278712 280:0.151436 281:0.280861 282:0.0539133 283:0.280861 284:0.0558315 285:0.0694282 286:0.137267 287:0.0214972 288:0.120079 289:0.148111 290:0.0478768 291:0.251269 292:0.0656574 293:0.238312 294:0.0880123 295:0.3145 296:0.0974082 297:0.0974898 298:0.118274 299:0.0614755 300:0.180384 301:0.26596 302:0.264448 303:0.223266 304:0.0829194 305:0.108757 306:0.127868 307:0.0656405 308:0.0832394 309:0.184834 310:0.20024 311:0.130198 312:0.0952108 313:0.133707 314:0.053922 315:0.113061 316:0.186051 317:0.0472894 318:0.352648 319:0.0527493 320:0.0549551 321:0.195305 322:0.172833 323:0.00171701 324:0.375835 325:0.0427196 326:0.0393515 327:0.270741 328:0.116012 329:0.327735 330:0.060047 331:0.138657 332:0.0102134 333:0.210698 334:0.408703 335:0.150434 336:0.0763468 337:0.0310979 338:0.0799869 339:0.0306107 340:0.040829 341:0.0856429 342:0.0345753 343:0.0807843 344:0.0355969 345:0.113317 346:0.151227 347:0.0382515 348:0.215262 349:0.0487571 350:0.0413463 351:0.306788 352:0.0377463 353:0.0395371 354:0.228759 355:0.293826 356:0.128158 357:0.274006 358:0.0846964 359:0.326236 360:0.103181 361:0.167055 362:0.182595 363:0.040409 364:0.216926 365:0.139899 366:0.21567 367:0.192944 368:0.103586 369:0.306196 370:0.0409805 371:0.306196 372:0.281621 373:0.0319556 374:0.296469 375:0.22504 376:0.188506 377:0.299225 378:0.0537647 379:0.184018 380:0.158984 381:0.158995 382:0.282585 383:0.0320067 384:0.0173765 385:0.141496 386:0.27378 387:0.291343 388:0.291343 389:0.0235418 390:0.105987 391:0.0571519 392:0.218355 393:0.0267617 394:0.106525 395:0.0826908 396:0.0890872 397:0.309518 398:0.279861 399:0.0783478 400:0.0835639 401:0.0523482 402:0.309518 403:0.0573912 404:0.0278995 405:0.0621381 406:0.12284 407:0.0136662 408:0.239542 409:0.138593 410:0.115858 411:0.280861 412:0.0801322 413:0.0354644 414:0.04321 415:0.198979 416:0.0616629 417:0.205219 418:0.0541776 419:0.129542 420:0.108318 421:0.305894 422:0.0667745 423:0.271076 424:0.0550576 425:0.277544 426:0.277544 427:0.0664452 428:0.132172 429:0.272855 430:0.272855 431:0.0647832 432:0.215448 433:0.257903 434:0.0632497 435:0.327918 436:0.0588437 437:0.10281 438:0.0534278 439:0.336531 440:0.326262 441:0.10633 442:0.326262 443:0.322405 444:0.0461464 445:0.206848 446:0.20455 447:0.0680417 448:0.0717924 449:0.109585 450:0.139971 451:0.0797079 452:0.227781 453:0.089898 454:0.233205 455:0.212101 456:0.0557071 457:0.0265482 458:0.0375413 459:0.13772 460:0.0595105 461:0.0538257 462:0.0291233 463:0.176664 464:0.274273 465:0.0601289 466:0.0846737 467:0.0785452 468:0.264403 469:0.15713 470:0.0739062 471:0.155335 472:0.282064 473:0.0395231 474:0.280521 475:0.0478567 476:0.271672 477:0.27114 478:0.0842044 479:0.306788 480:0.145982 481:0.114075 482:0.246238 483:0.0520092 484:0.0210003 485:0.125815 486:0.0539962 487:0.109478 488:0.0321469 489:0.329392 490:0.0283688 491:0.147546 492:0.11875 493:0.0583584 494:0.0597832 495:0.0778051 496:0.275435 497:0.101416 498:0.146131 499:0.0386034 500:0.194133 501:0.0872416 502:0.0146373 503:0.00215411 504:0.00429465 505:0.0426318 506:0.0556173 507:0.0308494 508:0.0645622 509:0.232535 510:0.0539669 511:0.125255 512:0.12267 513:0.045793 514:0.138142 515:0.218332 516:0.188903 517:0.134016 518:0.0320382 519:0.0966276 520:0.10616 521:0.17035 522:0.0565547 523:0.050495 524:0.289912 525:0.240456 526:0.261191 527:0.0351078 528:0.0505421 529:0.207789 530:0.305792 531:0.109137 532:0.324111 533:0.0596123 534:0.13721 535:0.0194411 536:0.0252045 537:0.191733 538:0.0509797 539:0.0732874 540:0.251838 541:0.100586 542:0.179417 543:0.106238 544:0.30095 545:0.266641 546:0.123484 547:0.154017 548:0.232563 549:0.11837 550:0.135973 551:0.0484521 552:0.0270986 553:0.280861 554:0.00928305 555:0.0238259 556:0.312512 557:0.0656294 558:0.171205 559:0.285274 560:0.217233 561:0.0704752 562:0.176707 563:0.129416 564:0.207628 565:0.189651 566:0.176376 567:0.324375 568:0.218202 569:0.160825 570:0.0795987 571:0.292365 572:0.0608383 573:0.118103 574:0.111903 575:0.0702125 576:0.33259 577:0.274921 578:0.0621479 579:0.224779 580:0.0485434 581:0.22604 582:0.0242712 583:0.0440833 584:0.197674 585:0.0700195 586:0.160556 587:0.0618411 588:0.323147 589:0.137426 590:0.0800919 591:0.1255 592:0.125628 593:0.237421 594:0.166347 595:0.108046 596:0.0463643 597:0.013486 598:0.0428403 599:0.0570158 600:0.352648 601:0.347128 602:0.116354 603:0.14617 604:0.0469729 605:0.0256953 606:0.327668 607:0.0660151 608:0.215513 609:0.264628 610:0.25968 611:0.284132 612:0.292603 613:0.247788 614:0.293011 615:0.117325 616:0.181163 617:0.0858397 618:0.0389176 619:0.0247522 620:0.360459 621:0.101178 622:0.0481155 623:0.131852 624:0.0168522 625:0.342889 626:0.208894 627:0.122395 628:0.298684 629:0.0319974 630:0.0520695 631:0.0734949 632:0.299779 633:0.344679 634:0.00863616 635:0.344679 636:0.0223825 637:0.135014 638:0.00591762 639:0.231883 640:0.0484638 641:0.0233154 642:0.355509 643:0.00958055 644:0.315187 645:0.315187 646:0.103898 647:0.0348238 648:0.0197213 649:0.0929309 650:0.035234 651:0.0675344 652:0.185769 653:0.137853 654:0.0200303 655:0.05991 656:0.0221998 657:0.243674 658:0.307468 659:0.113827 660:0.147915 661:0.329119 662:0.12548 663:0.148317 664:0.100994 665:0.110172 666:0.160451 667:0.30948 668:0.187353 669:0.15786 670:0.0245525 671:0.180789 672:0.205173 673:0.205335 674:0.01947 675:0.0468207 676:0.175734 677:0.108246 678:0.126395 679:0.174091 680:0.0727904 681:0.0453608 682:0.164905 683:0.118127 684:0.0931591 685:0.117221 686:0.135325 687:0.0961965 688:0.166313 689:0.10383 690:0.112942 691:0.00494931 692:0.110082 693:0.292552 694:0.0298321 695:0.100541 696:0.183777 697:0.0748692 698:0.309518 699:0.309518 700:0.213097 701:0.222957 702:0.30095 703:0.0475325 704:0.0162505 705:0.00668463 706:0.229789 707:0.109368 708:0.0940179 709:0.0931383 710:0.278712 711:0.19008 712:0.127654 713:0.00288529 714:0.0972927 715:0.2461 716:0.0816851 717:0.181254 718:0.139669 719:0.24037 720:0.305894 721:0.249756 722:0.149794 723:0.211025 724:0.0969007 725:0.15257 726:0.13798 727:0.157673 728:0.265566 729:0.0337387 730:0.0161811 731:0.187108 732:0.10152 733:0.114374 734:0.0257001 735:0.0489088 736:0.00823182 737:0.0264661 738:0.327918 739:0.12871 740:0.252439 741:0.232199 742:0.223519 743:0.211722 744:0.304747 745:0.0871451 746:0.148365 747:0.377379 748:0.0564805 749:0.175253 750:0.0604137 751:0.0848592 752:0.310772 753:0.0883257 754:0.132143 755:0.322405 756:0.0615628 757:0.0315469 758:0.0885625 759:0.0311092 760:0.318291 761:0.0494391 762:0.0340265 763:0.142554 764:0.264871 765:0.150172 766:0.0382695 767:0.0162067 768:0.0831615 769:0.0143877 770:0.327668 771:0.0308778 772:0.0325509 773:0.152989 774:0.077125 775:0.0826572 776:0.245087 777:0.0609264 778:0.0920374 779:0.102477 780:0.104878 781:0.284209 782:0.215524 783:0.327735 784:0.216526 785:0.142354 786:0.258742 787:0.0730613 788:0.0430793 789:0.0724424 790:0.0342044 791:0.059146 792:0.19894 793:0.0544409 794:0.164833 795:0.00580833 796:0.0949261 797:0.195042 798:0.201217 799:0.0906829 800:0.17832 801:0.273862 802:0.0736358 803:0.0318178 804:0.0149729 805:0.344679 806:0.188285 807:0.17102 808:0.0329928 809:0.20271 810:0.022194 811:0.0844514 812:0.153474 813:0.113848 814:0.355509 815:0.256893 816:0.315187 817:0.012245 818:0.315187 819:0.13576 820:0.05889 821:0.119338 822:0.0861271 823:0.123674 824:0.158783 825:0.0237753 826:0.0156613 827:0.133118 828:0.10218 829:0.00660995 830:0.199783 831:0.0552797 832:0.189151 833:0.124208 834:0.136967 835:0.16177 836:0.0519732 837:0.130204 838:0.1105 839:0.129736 840:0.0476822 841:0.072719 842:0.0630144 843:0.307992 844:0.147121 845:0.237213 846:0.0760114 847:0.263443 848:0.0358924 849:0.201903 850:0.214252 851:0.0703292 852:0.205237 853:0.214044 854:0.0417244 855:0.142098 856:0.219632 857:0.0284632 858:0.041746 859:0.0858066 860:0.0867415 861:0.160645 862:0.112268 863:0.00721903 864:0.197607 865:0.0581321 866:0.0767162 867:0.30095 868:0.30095 869:0.207514 870:0.1513 871:0.137061 872:0.0685331 873:0.0739153 874:0.278712 875:0.0774473 876:0.0683645 877:0.280861 878:0.0104903 879:0.292194 880:0.0629955 881:0.0277568 882:0.175459 883:0.0460823 884:0.246762 885:0.0831612 886:0.182939 887:0.163847 888:0.109489 889:0.0503649 890:0.103368 891:0.0648553 892:0.21881 893:0.151784 894:0.0550195 895:0.242804 896:0.0111467 897:0.0574782 898:0.171416 899:0.0136146 900:0.0567003 901:0.297535 902:0.0912905 903:0.167724 904:0.0283957 905:0.087851 906:0.138108 907:0.147967 908:0.377379 909:0.286368 910:0.0795291 911:0.0314985 912:0.330274 913:0.159888 914:0.114515 915:0.0567773 916:0.21195 917:0.326262 918:0.0887905 919:0.14124 920:0.179508 921:0.326262 922:0.190331 923:0.207534 924:0.322405 925:0.150096 926:0.243142 927:0.0633876 928:0.0156469 929:0.322916 930:0.0729963 931:0.256505 932:0.0834605 933:0.203168 934:0.0461249 935:0.0420722 936:0.269418 937:0.0682284 938:0.112767 939:0.0728147 940:0.0481627 941:0.118753 942:0.303376 943:0.317943 944:0.0360516 945:0.114006 946:0.124356 947:0.0570548 948:0.036784 949:0.125073 950:0.0575369 951:0.0307353 952:0.123988 953:0.0372668 954:0.028714 955:0.125319 956:0.132951 957:0.203612 958:0.109817 959:0.182309 960:0.267262 961:0.227691 962:0.0702137 963:0.231598 964:0.0648291 965:0.229208 966:0.023437 967:0.0186438 968:0.344679 969:0.344679 970:0.188474 971:0.293826 972:0.0677473 973:0.0156505 974:0.213517 975:0.140242 976:0.154854 977:0.00430491 978:0.24226 979:0.329392 980:0.0147085 981:0.280299 982:0.303407 983:0.0701548 984:0.0601483 985:0.149821 986:0.0849572 987:0.044354 988:0.104069 989:0.0414857 990:0.194767 991:0.0750563 992:0.307468 993:0.159684 994:0.297871 995:0.203575 996:0.397667 997:0.105511 998:0.0598409 999:0.117918 1000:0.13692 1001:0.184259 1002:0.058367 1003:0.0672835 1004:0.0551368 1005:0.0655481 1006:0.109252 1007:0.0660389 1008:0.320384 1009:0.125167 1010:0.116913 1011:0.0902582 1012:0.0396563 1013:0.293925 1014:0.288293 1015:0.254907 1016:0.293925 1017:0.0585549 1018:0.282585 1019:0.0322872 1020:0.180053 1021:0.106329 1022:0.060748 1023:0.0109881 1024:0.324111 1025:0.101783 1026:0.296659 1027:0.0967627 1028:0.261587 1029:0.292552 1030:0.0185818 1031:0.0520368 1032:0.138411 1033:0.14749 1034:0.154795 1035:0.278712 1036:0.0165651 1037:0.196633 1038:0.0299998 1039:0.0779764 1040:0.0282268 1041:0.280861 1042:0.280861 1043:0.0666823 1044:0.0142686 1045:0.312512 1046:0.0299054 1047:0.198976 1048:0.124198 1049:0.134357 1050:0.123982 1051:0.125735 1052:0.204688 1053:0.231093 1054:0.245839 1055:0.102558 1056:0.15271 1057:0.236424 1058:0.183961 1059:0.120021 1060:0.192056 1061:0.109649 1062:0.324375 1063:0.00324496 1064:0.33259 1065:0.108194 1066:0.0277541 1067:0.0689953 1068:0.0760086 1069:0.0728677 1070:0.106749 1071:0.0919148 1072:0.215898 1073:0.0640706 1074:0.0247559 1075:0.0953313 1076:0.0840939 1077:0.121158 1078:0.0530337 1079:0.097285 1080:0.0823771 1081:0.249976 1082:0.310772 1083:0.122279 1084:0.284206 1085:0.195505 1086:0.276534 1087:0.063573 1088:0.322405 1089:0.0977378 1090:0.322405 1091:0.0503311 1092:0.342148 1093:0.125928 1094:0.0593067 1095:0.324174 1096:0.0743214 1097:0.0793402 1098:0.324174 1099:0.232965 1100:0.327668 1101:0.00424177 1102:0.0470929 1103:0.093077 1104:0.038766 1105:0.126364 1106:0.375835 1107:0.130453 1108:0.164585 1109:0.0658167 1110:0.0211816 1111:0.0470862 1112:0.192033 1113:0.0157789 1114:0.0960101 1115:0.0885228 1116:0.123274 1117:0.0787679 1118:0.207807 1119:0.270308 1120:0.134717 1121:0.0794347 1122:0.0624547 1123:0.0597803 1125:0.0814079 1126:0.139704 1127:0.154942 1128:0.110994 1129:0.115231 1130:0.0749986 1131:0.110396 1132:0.241717 1133:0.0537368 1134:0.329392 1135:0.0091534 1136:0.329392 1137:0.139978 1138:0.09398 1139:0.111372 1140:0.00172761 1141:0.0174415 1142:0.289326 1143:0.162798 1144:0.0608999 1145:0.283467 1146:0.0308067 1147:0.0778968 1148:0.0860226 1149:0.197775 1150:0.151314 1151:0.0461307 1152:0.0767231 1153:0.0956321 1154:0.0898554 1155:0.0164123 1156:0.211068 1157:0.217719 1158:0.0368949 1159:0.132673 1160:0.257238 1161:0.0534121 1162:0.0107174 1163:0.10485 1164:0.320384 1165:0.116461 1166:0.293925 1167:0.105069 1168:0.282585 1169:0.229869 1170:0.0101044 1171:0.0953237 1172:0.198308 1173:0.125053 1174:0.0507213 1175:0.0476556 1176:0.291343 1177:0.0760352 1178:0.0476215 1179:0.0618139 1180:0.0127242 1182:0.0684565 1183:0.149582 1184:0.292552 1185:0.0720828 1186:0.100584 1187:0.267325 1188:0.133626 1189:0.20122 1190:0.0896442 1191:0.312512 1192:0.204592 1193:0.108261 1194:0.25232 1195:0.142124 1196:0.18813 1197:0.165743 1198:0.184673 1199:0.107618 1200:0.272855 1201:0.272855 1202:0.0542339 1203:0.0979425 1204:0.0547738 1205:0.00718707 1206:0.33259 1207:0.33259 1208:0.00399436 1209:0.028714 1210:0.125341 1211:0.0497463 1212:0.0902169 1213:0.016036 1214:0.187155 1215:0.131151 1216:0.0712842 1217:0.0898879 1218:0.109704 1219:0.0693449 1220:0.119219 1221:0.0947701 1222:0.204786 1223:0.035365 1224:0.0597794 1225:0.0863641 1226:0.0200471 1227:0.0423987 1228:0.0706594 1229:0.166245 1230:0.0459506 1231:0.0107967 1232:0.0146016 1233:0.0362935 1234:0.0219984 1235:0.327668 1236:0.0558921 1237:0.0440973 1238:0.139652 1239:0.10913 1240:0.375835 1241:0.151989 1242:0.124577 1243:0.00720335 1244:0.13802 1245:0.044092 1246:0.126341 1247:0.0219826 1248:0.0247916 1249:0.294999 1250:0.0432544 1251:0.323095 1252:0.0818569 1253:0.135869 1254:0.0343202 1255:0.144767 1256:0.269391 1257:0.179476 1258:0.097707 1259:0.0178509 1260:0.0557238 1261:0.165162 1262:0.180357 1263:0.200874 1264:0.293826 1265:0.18455 1266:0.0579826 1267:0.293826 1268:0.199927 1269:0.11009 1270:0.0100879 1271:0.0235744 1272:0.0202685 1273:0.0698574 1274:0.0721171 1275:0.205016 1276:0.270808 1277:0.163843 1278:0.315187 1279:0.0570589 1280:0.0558707 1281:0.0357669 1282:0.0445313 1283:0.19094 1284:0.340793 1285:0.184285 1286:0.228295 1287:0.340793 1288:0.384987 1289:0.0425886 1290:0.167221 1291:0.0161946 1292:0.122636 1293:0.132772 1294:0.0443127 1295:0.019905 1296:0.30948 1297:0.12585 1298:0.101681 1299:0.0833961 1300:0.0267722 1301:0.0756077 1302:0.210273 1303:0.0862819 1304:0.033981 1305:0.0510464 1306:0.158011 1307:0.154288 1308:0.207356 1309:0.277846 1310:0.0347005 1311:0.168667 1312:0.32668 1313:0.11267 1314:0.365494 1315:0.043908 1316:0.00618029 1317:0.308094 1318:0.195735 1319:0.281034 1320:0.199899 1321:0.0369716 1322:0.208896 1323:0.056718 1324:0.0842451 1325:0.278712 1326:0.0387631 1327:0.26486 1328:0.118884 1329:0.296611 1330:0.0806072 1331:0.312512 1332:0.236003 1333:0.197314 1334:0.194437 1335:0.0914919 1336:0.198126 1337:0.0836822 1338:0.219204 1339:0.299221 1340:0.0358524 1341:0.176117 1342:0.0860148 1343:0.177692 1344:0.110925 1345:0.250191 1346:0.0963257 1347:0.144601 1348:0.11602 1349:0.113136 1350:0.0864233 1351:0.112496 1352:0.0186533 1353:0.0526576 1354:0.159986 1355:0.0494879 1356:0.324174 1357:0.327668 1358:0.265799 1359:0.168287 1360:0.317943 1361:0.327735 1362:0.0955822 1363:0.212821 1364:0.293011 1365:0.293011 1366:0.228227 1367:0.25232 1368:0.323095 1369:0.0793985 1370:0.0316379 1371:0.342889 1372:0.122987 1373:0.0503128 1374:0.183974 1375:0.0501036 1376:0.0518098 1377:0.0268453 1378:0.293826 1379:0.275894 1380:0.0425174 1381:0.234235 1382:0.117842 1383:0.000393863 1384:0.0397319 1385:0.0815047 1386:0.0514405 1387:0.102442 1388:0.0567378 1389:0.279685 1390:0.165734 1391:0.0566788 1392:0.108099 1393:0.103386 1394:0.307468 1395:0.100326 1396:0.10294 1397:0.110032 1398:0.10416 1399:0.144883 1400:0.320384 1401:0.125737 1402:0.0939401 1403:0.0918006 1404:0.28236 1405:0.0148277 1406:0.0403061 1407:0.0108704 1408:0.144599 1409:0.0741443 1410:0.0609946 1411:0.123672 1412:0.132194 1413:0.160731 1414:0.0593293 1415:0.288182 1416:0.305894 1417:0.0513877 1418:0.0692485 1419:0.155086 1420:0.0366444 1421:0.0716225 1422:0.150616 1423:0.17165 1424:0.234795 1425:0.116462 1426:0.0429051 1427:0.33259 1428:0.0621401 1429:0.170507 1430:0.327918 1431:0.0972174 1432:0.130884 1433:0.124554 1434:0.377379 1435:0.122424 1436:0.336531 1437:0.0841353 1438:0.0709273 1439:0.29584 1440:0.0540655 1441:0.084393 1442:0.0561611 1443:0.116569 1444:0.11854 1445:0.101463 1446:0.136293 1447:0.033735 1448:0.112775 1449:0.0377771 1450:0.0409209 1451:0.0937231 1452:0.248145 1453:0.0582436 1454:0.342889 1455:0.0946808 1456:0.273862 1457:0.273862 1458:0.0822318 1459:0.020841 1460:0.0481598 1461:0.0982241 1462:0.0458516 1463:0.0283582 1464:0.158951 1465:0.0145861 1466:0.0222656 1467:0.0108296 1468:0.384987 1469:0.109198 1470:0.0266447 1471:0.119669 1472:0.200964 1473:0.172618 1474:0.0253375 1475:0.0760137 1476:0.0709156 1477:0.168913 1478:0.291294 1479:0.324111 1480:0.0191032 1481:0.000591069 1482:0.309518 1483:0.0341385 1484:0.12519 1485:0.147705 1486:0.0195936 1487:0.137901 1488:0.181278 1489:0.156239 1490:0.134024 1491:0.0969678 1492:0.0792135 1493:0.324375 1494:0.00693501 1495:0.0919925 1496:0.0203822 1497:0.0853394 1498:0.150841 1499:0.116801 
