svm_type c_svc
kernel_type linear
nr_class 2
total_sv 46
rho -3.3896
label 0 35
probA -4.40537
probB -0.109711
nr_sv 29 17
SV
0.007767468096206033 0:0.0222981 1:0.102889 2:0.100377 3:0.121377 4:0.0671423 5:0.00340634 6:0.0293091 7:0.0500054 8:0.0648028 9:0.0648789 10:0.205932 11:0.0508907 12:0.0512664 13:0.103447 14:0.358095 15:0.167795 16:0.0488247 17:0.0242211 18:0.00122332 19:0.0636654 20:0.606884 21:0.372701 22:0.0759265 23:0.1123 24:0.0786728 25:0.48153 26:0.00961114 27:0.0311661 28:0.10656 29:0.0316773 30:0.394579 31:0.110431 32:0.0772468 33:0.0797325 34:0.0186603 35:0.00732938 36:0.0661161 37:0.0525142 38:0.224896 39:0.12505 40:0.0504468 41:0.0626063 42:0.00261609 43:0.00695187 44:0.0542886 45:0.105327 46:0.116326 47:0.0798514 48:0.277822 49:0.0249545 50:0.123919 51:0.0160746 52:0.0536797 53:0.24595 54:0.0140383 55:0.0421082 56:0.130447 57:0.309012 58:0.0973132 59:0.034641 60:0.124326 61:0.00177528 62:0.103199 63:0.436551 64:0.0464455 65:0.321407 66:0.10898 67:0.016723 68:0.14966 69:0.100573 70:0.00385976 71:0.0350697 72:0.0258828 73:0.417305 74:0.121742 75:0.0127865 76:0.00559844 77:0.069378 78:0.00515851 79:0.322242 80:0.094659 81:0.0479966 82:0.0939145 83:0.0419537 84:0.00607068 85:0.0186637 86:0.0719477 87:0.124785 88:0.236925 89:0.0211904 90:0.0675135 91:0.0441279 92:0.0530853 93:0.00362347 94:0.3968 95:0.00886306 96:0.0125636 97:0.0248905 98:0.0184388 99:0.320288 100:0.0150407 101:0.00456386 102:0.17868 103:0.0886581 104:0.133586 105:0.257345 106:0.0192801 107:0.0778769 108:0.27676 109:0.373145 110:0.149543 111:0.0711844 112:0.036831 113:0.185124 114:0.566236 115:0.181631 116:0.0183886 117:0.00335902 118:0.372701 119:0.0331804 120:0.41231 121:0.0994424 122:0.290591 123:0.0160857 124:0.26946 125:0.19627 126:0.0334802 127:0.0854468 128:0.0421171 129:0.0572565 130:0.111261 131:0.0723295 132:0.0577131 133:0.0739623 134:0.0140055 135:0.48029 136:0.120848 137:0.00533121 138:0.3968 139:0.126346 140:0.351494 141:0.183778 142:0.0616259 143:0.0250317 144:0.225238 145:0.00277236 146:0.416368 148:0.169976 149:0.0290505 150:0.113875 151:0.100069 152:0.247504 153:0.0617075 154:0.055928 155:0.0243741 156:0.0640975 157:0.298389 158:0.431291 159:0.0447203 160:0.0227855 161:0.00263759 162:0.00847508 163:0.106468 164:0.0363093 165:0.109537 167:0.358095 168:0.351494 169:0.0249343 170:0.000653233 171:0.121784 172:0.105114 173:0.000361692 174:0.00755233 175:0.0126491 176:0.0291086 177:0.0569855 178:0.0602788 179:0.00785233 180:0.244182 181:0.255579 182:0.0596703 183:0.0233937 184:0.0866514 185:0.0466219 186:0.323661 187:0.155575 188:0.153241 189:0.0881228 190:0.0142146 191:0.322164 192:0.0662911 193:0.018535 194:0.00142598 195:0.163589 196:0.0743043 197:0.0288696 198:0.0187437 199:0.311631 200:0.519479 201:0.125948 202:0.0068422 203:0.00928723 204:0.00397416 205:0.0757044 206:0.493622 207:0.00545364 208:0.00103023 209:0.48088 210:0.027909 211:0.378865 212:0.00208882 213:0.165621 214:0.0468621 215:0.405313 216:0.0130272 217:0.0111689 218:0.0362889 219:0.0511449 220:0.148851 221:0.239781 222:0.167717 223:0.125869 224:0.152953 225:0.487878 226:0.0496797 227:0.089213 228:0.128606 229:0.39529 230:0.0209611 231:0.0201096 232:0.0260808 233:0.0386989 234:0.107198 236:0.0231757 237:0.332134 238:0.0905626 239:0.110259 240:0.0115094 241:0.231694 242:0.0855304 243:0.0644406 244:0.0821352 245:0.0290776 246:0.00773176 247:0.000610727 248:0.0181455 249:0.116259 250:0.00936664 251:0.00463585 252:0.48088 253:0.0588626 254:0.0234344 255:0.10964 256:0.00318347 257:0.0654743 258:0.368655 259:0.10217 260:0.028027 261:0.606884 262:0.0374675 263:0.321653 264:0.0167154 265:0.249711 266:0.0694251 267:0.300473 268:0.0531983 269:0.00850533 270:0.0160311 271:0.10007 272:0.019636 273:0.210686 274:0.420215 275:0.536077 276:0.0157227 277:0.0312798 278:0.00926865 279:0.0294062 280:0.416214 281:0.0600078 282:0.016732 283:0.058211 284:0.0996928 285:0.0939701 286:0.0595235 287:0.216029 288:0.0356869 289:0.227425 290:0.0442964 291:0.0513464 292:0.113464 293:0.017252 294:0.0452668 295:0.342013 296:0.0195443 297:0.00129137 298:0.0769899 299:0.275224 
0.4087687385542688 0:0.115877 1:0.0198432 2:0.00520633 3:0.00140493 4:0.00179546 5:0.0796617 6:0.0569719 7:0.311597 8:0.0125091 9:0.00407021 10:0.0514821 11:0.185711 12:0.0868331 13:0.068123 14:0.0102177 15:0.178679 16:0.004594 17:0.0782391 18:0.220133 19:0.0278673 20:0.228841 21:0.374637 22:0.0679039 23:0.0805976 24:0.00892927 25:0.0791865 26:0.0655815 27:0.121335 28:0.0269353 29:0.199685 30:0.11964 31:0.0858855 32:0.0525096 33:0.00435496 34:0.0607877 35:0.0986242 36:0.0033881 37:0.0222059 38:0.0514818 39:0.349578 40:0.0164403 41:0.0485955 42:0.0353018 43:0.26388 44:0.00301134 45:0.121816 46:0.280074 47:0.0994178 48:0.0135395 50:0.000814671 51:0.010856 52:0.0552843 53:0.21573 54:0.30462 55:0.00125892 56:0.303854 57:0.015931 58:0.0109467 59:0.205775 60:0.165577 61:0.0431236 62:0.36112 63:0.0951475 64:0.285433 65:0.369735 66:0.0892806 67:0.0409642 68:0.174599 69:0.343908 70:0.234876 71:0.0121556 72:0.266072 73:0.310994 74:0.000196447 75:0.206953 76:0.188438 77:0.393936 78:0.0222472 79:0.146931 80:0.0449791 81:0.324364 82:0.225912 83:0.0850198 84:0.0342691 85:0.00610231 86:0.0059209 87:0.0717563 88:0.0598348 89:0.0334068 90:0.00248248 92:0.193611 93:0.409986 94:0.391463 95:0.153428 96:0.130889 97:0.0120734 98:0.0133294 99:0.159379 100:0.00516255 101:0.00279519 103:0.0318526 104:0.02156 105:0.262038 106:0.182318 107:0.125939 108:0.291588 109:0.180916 110:0.102094 112:0.357227 113:0.19718 114:0.4036 115:0.00254839 116:0.377069 117:0.0499418 118:0.257024 119:0.264715 120:0.0576496 121:0.130119 122:0.0150082 123:0.0560645 124:0.0951456 125:0.104314 126:0.137551 127:0.433898 128:0.104697 129:0.00766489 130:0.105453 131:0.36792 132:0.0698807 133:0.0943118 134:0.183863 135:0.0180247 136:0.0214621 137:0.0193296 138:0.00829284 139:0.270939 140:0.0179306 141:0.361974 142:0.0780424 143:0.12292 144:0.200234 145:0.185824 146:0.0922875 147:0.258102 148:0.0258719 149:0.367062 150:0.00220456 151:0.00252695 152:0.101917 153:0.00296598 154:0.115797 155:0.00178433 156:0.325338 157:0.257153 158:0.0786087 159:0.128609 160:0.243528 161:0.0839093 162:0.0285708 163:0.175905 164:0.019336 165:0.158143 166:0.175146 167:0.0216055 168:0.00586817 169:0.176628 170:0.0184054 171:0.231221 172:0.209449 173:0.0780618 174:0.0923981 175:0.024244 176:0.0110377 177:0.0719792 178:0.0222583 179:0.00880676 180:0.0968067 181:0.210375 182:0.344905 183:0.196551 184:0.0642779 185:0.374164 187:0.00733169 188:0.0756223 189:0.0179844 190:0.373075 191:0.00414735 192:0.00855826 193:0.0306714 194:0.00766479 195:0.00462657 196:0.0837224 197:0.0358551 198:0.0934926 199:0.257395 200:0.0841566 201:0.00145297 202:0.00516543 203:0.383846 204:0.112053 205:0.0742454 206:0.075141 207:0.172329 208:0.186903 209:0.00176183 210:0.181387 211:0.0891026 212:0.0951837 213:0.198873 214:0.30858 215:0.413673 216:0.218895 217:0.0107719 218:0.0182099 219:0.0373871 220:0.234938 221:0.250692 222:0.0584773 223:0.0595941 224:0.27001 225:0.149897 226:0.0394665 227:0.147648 228:0.0517872 229:0.121551 230:0.0103862 231:0.00463572 232:0.2768 233:0.0319707 234:0.383221 235:0.0541303 236:0.000201112 238:0.058632 239:0.0907502 240:0.00134681 241:0.027777 242:0.319779 243:0.0690602 244:0.317361 245:0.383846 246:0.197777 247:0.060801 248:0.074116 249:0.192283 250:0.171288 251:0.00337825 252:0.0362213 253:0.359367 254:0.154949 255:0.0188615 256:0.0266858 257:0.0568923 258:0.0476951 259:0.00941942 260:0.208849 261:0.361974 262:0.0118692 263:0.207365 264:0.134704 265:0.121367 266:0.0475602 267:0.434713 268:0.15969 269:0.027937 270:0.0282068 271:0.173071 272:0.00340796 273:0.0353695 274:0.320906 275:0.451723 276:0.00112447 277:0.0152916 278:0.0494214 279:0.0429405 280:0.183795 281:0.0209487 282:0.0258753 283:0.153361 284:0.433898 285:0.0304178 286:0.0512944 287:0.0687405 288:0.10559 289:0.370471 290:0.0287371 291:0.367062 292:0.399125 293:0.00628082 294:0.0187406 295:0.0111514 296:0.155797 297:0.0475059 298:0.0161227 299:0.0219833 
0.06958330643233966 0:0.2419 1:0.000825528 2:0.000635642 3:0.0202204 4:0.0256368 5:0.0785277 6:0.186191 7:0.357997 8:0.00489117 9:0.00625995 10:0.177442 11:0.143988 12:0.0574659 13:0.340499 14:0.0346259 15:0.0559275 16:9.0806e-005 17:0.0992901 18:0.186752 19:0.0275051 20:0.179236 21:0.345512 22:0.0105421 23:0.0591262 24:0.0400838 25:0.00557647 26:0.293947 27:0.0724831 28:0.0256808 29:0.218592 30:0.203894 31:0.00839318 32:0.194244 33:0.0185713 34:0.0432963 35:0.107094 36:0.0159421 37:0.0398346 38:0.0101536 39:0.370165 40:0.00352571 41:0.006568 42:0.0180909 43:0.23905 44:0.0267439 45:0.00541308 46:0.371214 47:0.202155 48:0.0929522 49:0.0591823 50:0.0178925 51:0.00144438 52:0.0258462 53:0.356517 54:0.0312258 55:0.00352817 56:0.384025 57:0.00439638 58:0.00703261 59:0.0854391 60:0.121744 61:0.0345296 62:0.0953308 63:0.0193862 64:0.18147 65:0.157928 66:0.0413457 67:0.0130432 68:0.0203182 69:0.0909161 70:0.251841 71:0.00625104 72:0.190703 73:0.322317 74:0.00978671 75:0.229507 76:0.299939 77:0.0922398 78:0.00753284 79:0.0417953 80:0.0257254 81:0.063094 82:0.0860259 83:0.134561 84:0.129066 85:0.0201212 86:0.0687845 87:0.180896 88:0.291465 89:0.130065 90:0.0041649 91:0.146527 92:0.0100001 93:0.0726288 94:0.26944 95:0.202721 96:0.0984232 97:0.00895943 98:0.00393288 99:0.0152185 100:0.00203641 101:0.0487395 102:0.00577869 103:0.192931 104:0.144235 105:0.371214 107:0.106453 108:0.383838 109:0.394468 110:0.357661 111:0.0324948 112:0.204599 113:0.0137921 114:0.343324 115:0.00851386 116:0.0661103 117:0.115459 118:0.265328 119:0.216152 120:0.0393209 121:0.0067216 122:0.00640326 123:0.267172 124:0.182223 125:0.221585 126:0.188321 127:0.0228008 128:0.0947 129:0.0114848 130:0.0116882 131:0.406607 133:0.0179008 134:0.0104599 135:0.00286792 136:0.029492 137:0.0236616 138:0.0220427 139:0.100305 140:0.0236499 141:0.0637216 142:0.146751 143:0.00938115 144:0.18745 145:0.00225099 146:0.333831 147:0.0106521 148:0.0313404 149:0.0821453 150:0.0326732 151:0.0155504 152:0.0590995 153:0.000355721 154:0.357997 155:0.00414141 156:0.421238 157:0.286441 158:0.0378809 159:0.183654 160:0.0523705 161:0.0534617 162:0.0450913 163:0.198055 164:0.00661576 165:0.141627 166:0.156945 167:0.0954451 168:0.0204347 169:0.104504 170:0.107261 171:0.0791867 172:0.373509 173:0.103536 174:0.108406 175:0.0687022 176:0.00197504 177:0.0288107 178:0.0263295 179:0.028382 180:0.349449 181:0.106925 182:0.0599026 183:0.0348936 184:0.186144 185:0.0465938 186:0.00829029 187:0.111792 188:0.00085859 189:0.02397 190:0.0452396 191:0.179169 192:0.102618 193:0.00144438 194:0.000623074 195:5.08173e-005 196:0.00253284 197:0.00956475 198:0.00214622 199:0.118657 200:0.16558 201:0.00133325 202:0.0011902 203:0.360762 204:0.104754 205:0.306506 206:0.00836975 207:0.0481297 208:0.104207 209:0.0204862 210:0.201972 211:0.00077508 212:0.0849402 213:0.244305 214:0.191639 215:0.267297 216:0.282199 217:0.00485057 218:0.0128735 219:0.0105655 220:0.105949 221:0.0437169 222:0.10958 223:0.201169 224:0.373509 225:0.34224 226:0.0814394 227:0.004183 228:0.287509 229:0.280996 230:0.0565314 231:0.0756156 232:0.445649 233:0.102412 234:0.0634704 235:0.0171714 236:0.0334909 237:0.0434625 238:0.177846 239:0.0372838 240:0.00172671 241:0.0097719 242:0.406607 243:0.00303165 244:0.470073 245:0.360762 246:0.0587022 247:0.0894547 249:0.0606814 250:0.158977 251:0.010029 252:0.0318598 253:0.221235 254:0.222271 255:0.00325917 256:0.0879703 257:0.0311501 258:0.0401722 259:0.017435 260:0.379803 261:0.0850924 262:0.102392 263:0.192224 264:0.076425 265:0.145037 266:0.0593491 267:0.406538 268:0.146254 269:0.04307 270:0.0356617 271:0.0571262 272:0.0172237 273:0.0847514 274:0.388293 275:0.383838 276:0.00339402 277:0.0139195 278:0.0657983 279:0.369349 280:0.193662 281:0.0359438 282:0.0208385 283:0.00594209 284:0.0298218 285:0.335591 286:0.0245672 287:0.116695 288:0.0375361 289:0.194829 290:0.0303023 291:0.0607517 292:0.154436 293:0.0928581 294:0.30672 295:0.0282399 296:0.0320978 297:0.02209 298:0.120617 299:0.0279945 
0.1262673578458585 0:0.0444169 1:0.0477468 2:0.109253 3:0.067639 4:0.0433474 5:0.236631 6:0.0518159 7:0.00398585 8:0.23378 9:0.0373853 10:0.049059 11:0.142669 12:0.17286 13:0.0391568 14:0.0794841 15:0.0100044 16:0.0454248 17:0.0326052 18:0.190742 19:0.138045 20:0.145565 21:0.351686 22:0.116676 23:0.0604474 24:0.0839736 25:0.139398 26:0.132456 27:0.115312 28:0.0229244 29:0.0540057 30:0.431946 31:0.0197175 32:0.18319 33:0.138834 34:0.0102583 35:0.229291 36:0.0149243 37:0.0358333 38:0.0662587 39:0.0987154 40:0.0938498 41:0.0200158 42:0.0184667 43:0.0853438 44:0.161893 45:0.00542862 46:0.0398717 47:0.0313114 48:0.296669 49:0.29405 50:0.00768781 51:0.0218865 52:0.0469738 53:0.175877 54:0.0165014 55:0.119715 56:0.0623762 57:0.270806 58:0.0701339 59:0.0281347 60:0.0856247 61:0.0882494 62:0.0652571 63:0.256161 64:0.224243 65:0.366505 66:0.250236 67:0.095214 68:0.0786383 69:0.00476293 70:0.433375 71:0.000313366 72:0.00595638 73:0.0836541 74:0.00151887 75:0.0826638 76:0.178981 77:0.0259692 78:9.19074e-005 79:0.148527 80:0.0490822 81:0.00984833 82:0.15244 83:0.187403 84:0.0236827 85:0.00135189 86:0.00989138 87:0.0952775 88:0.0104029 89:0.100649 90:0.0435012 91:0.0747871 92:0.262791 93:0.34302 94:0.258317 95:0.129216 96:0.1634 97:0.000994694 98:0.0471123 99:0.0213751 100:0.0252727 101:0.00467722 102:0.00650202 103:0.444188 104:0.0066562 105:0.0463977 106:0.361634 107:0.0963775 108:0.0617815 109:0.0769907 110:0.127655 111:0.0457644 112:0.0351221 113:0.00066625 114:0.00803035 115:0.134495 116:0.361634 117:0.0519764 118:0.364786 119:0.000162999 120:0.162108 121:0.187919 122:0.297888 123:0.0779794 124:0.0674676 125:0.444262 126:0.0923298 127:0.348823 128:0.120799 129:0.388315 130:0.041995 131:0.0586517 132:0.161317 133:0.164545 135:0.197326 136:0.162221 137:0.0262311 138:0.0256383 139:0.438554 140:0.243761 141:0.020265 142:0.319504 143:0.00916915 144:0.431946 145:0.168111 146:0.200663 147:0.00598001 148:0.0260402 149:0.309198 150:0.0959389 151:0.0011814 152:0.0112458 153:8.99685e-005 154:0.003089 155:0.075307 156:0.0927709 157:0.159549 158:0.00183754 159:0.000893422 160:0.112977 161:0.0776528 162:0.126492 163:0.196043 164:0.0373392 165:0.0193875 166:0.109953 167:0.127192 168:0.291621 169:0.141409 170:0.00652326 171:0.0875272 172:0.160077 173:0.000539124 174:0.000828784 175:0.00410385 176:0.103912 177:0.0394396 178:0.327852 179:7.0126e-005 180:0.348823 181:0.0315119 182:0.138491 183:0.0309792 184:0.0885366 185:0.176512 187:0.303853 188:0.0487428 189:0.0630775 190:0.402598 191:0.0678609 192:0.0784354 193:0.0195001 194:0.00956831 195:0.0128953 196:0.00787514 197:0.349906 198:0.253297 199:0.343404 200:0.373437 201:0.0872548 202:0.0354875 203:0.0135074 204:0.261275 205:0.0141806 206:0.00598358 207:0.105657 208:0.367316 209:0.141133 210:0.0547087 211:0.074677 212:0.00863556 213:0.143678 214:0.0852046 215:0.303973 216:0.000561363 217:7.68825e-006 218:0.110717 219:0.0483776 220:0.0270234 221:0.0988977 222:0.0706836 223:0.149819 224:0.202515 225:0.731805 226:0.0324036 227:0.0176719 228:0.0808804 229:0.206624 230:0.0904453 231:0.0639174 232:0.0839291 234:0.179227 235:0.18451 236:0.00675898 237:0.00646718 238:0.244862 239:0.00977358 240:0.00488371 241:0.0610477 242:0.0406836 243:0.134826 244:0.0759956 245:0.0590478 246:0.0120175 247:0.00707847 248:0.0397088 249:0.141807 250:0.110474 251:0.0196157 252:0.0422369 253:0.191388 254:0.325349 255:0.0244392 256:0.0204524 257:0.000998969 258:0.00329496 259:0.0622243 260:0.0762181 261:0.108345 262:0.412723 263:0.0121815 264:0.022083 265:0.431946 266:0.0247147 267:0.382622 268:0.00790711 269:0.000302981 270:0.00297876 271:0.0168432 272:0.00336856 273:0.123484 274:0.136741 275:0.255365 276:0.00541629 277:0.215195 278:0.0141675 279:0.14399 280:0.19375 281:0.00716688 282:0.00108761 283:0.0053658 284:0.190409 285:0.105003 286:0.0908629 287:0.131616 288:0.123792 289:0.211814 290:0.0900996 291:0.359124 292:0.348882 293:0.0144352 294:0.0149164 295:0.0235355 296:0.0593347 297:0.0101001 298:0.00343652 299:0.0366654 
0.08584768945839492 0:0.325305 1:0.0502064 2:0.0122468 3:0.135659 4:0.0184766 5:0.0861536 6:0.0731952 7:0.0658787 8:0.00502091 9:0.000719508 10:0.204724 11:0.0857479 12:0.0252617 13:0.0590355 14:0.27831 15:0.0160589 16:0.0276637 17:0.37042 18:0.227625 19:0.00157824 20:0.409533 21:0.221712 22:0.196385 23:0.28077 24:0.0374837 25:0.360012 26:0.00349947 27:0.121603 28:0.00821885 29:0.0674055 30:0.353747 31:0.12813 32:0.031077 33:0.00693458 34:0.266414 35:0.00336337 36:0.000232273 37:0.154583 38:0.0260424 39:0.333739 40:0.0495863 41:0.108103 42:0.041626 43:0.0286808 44:0.0747264 45:0.0580403 46:0.232489 47:0.366719 48:0.027112 49:0.138644 50:0.0401984 51:0.0284563 52:0.0450251 53:0.33986 54:0.0688873 55:0.224273 56:0.49988 57:0.224045 58:0.000851165 59:0.0735392 60:0.305677 61:0.00405095 62:0.00954404 63:0.360012 64:0.0523952 65:0.194738 66:0.129125 67:0.0686118 68:0.00155851 69:0.00637748 70:0.187149 71:0.164979 72:0.101368 73:0.250633 74:0.00313609 75:0.207764 76:0.0503266 77:0.0994459 78:0.0951707 79:0.360012 80:0.0420495 81:0.10413 82:0.184551 83:0.0163234 84:0.014233 85:0.0354752 86:0.00130661 87:0.442986 88:0.00104178 89:0.0764553 90:0.102892 91:0.018762 92:0.0867979 93:0.0813722 94:0.314063 95:0.33986 96:0.222094 97:0.104443 98:0.0103273 99:0.125009 100:0.0442849 101:0.184342 102:0.0189169 103:0.00208606 104:0.464525 105:0.134772 106:0.0290183 107:0.285071 108:0.367419 109:0.0925093 110:0.0816184 111:0.402584 112:0.197873 113:0.12244 114:0.0155874 115:0.00378726 116:0.0919283 117:0.0817938 118:0.222843 119:0.204032 120:0.377323 121:0.285255 122:0.127019 123:0.0229362 124:0.211385 125:0.333739 126:0.151155 127:0.0540043 128:0.049929 129:0.429346 130:0.49988 131:0.262887 132:0.394537 133:0.0281702 135:0.0403122 136:0.00442205 137:0.00287781 138:0.000410433 139:0.122385 140:0.127601 141:0.0394028 142:0.0175459 143:0.0547178 144:0.0720993 145:0.100993 146:0.0307463 147:0.0299054 149:0.00473905 150:0.0898976 152:0.291003 153:0.0479144 154:0.164335 155:0.0300801 156:0.00540161 157:0.301914 158:0.130372 159:0.0143736 160:0.327839 161:0.00573678 162:0.32378 163:0.142937 164:0.130648 165:0.12432 166:0.121609 167:0.27738 168:0.100232 169:0.0231726 170:0.00764501 171:0.0033456 172:0.0314971 173:0.0524025 174:0.0634774 175:0.0903428 176:0.0102309 177:0.0556899 178:0.160007 179:0.174029 180:0.137191 181:0.00885236 182:0.0473464 183:0.010426 184:0.11504 185:0.0552888 186:0.120324 187:0.402584 189:0.000655392 190:0.386368 191:0.00368095 192:0.00968955 193:0.0661947 194:0.0280014 195:0.017788 196:0.294852 197:0.0335634 198:0.0786503 199:0.202211 200:0.0459979 201:0.00337849 203:0.00335949 204:0.111534 205:0.0260828 206:0.0239372 207:0.0123032 208:0.0677053 209:0.00104992 210:0.157917 211:0.0112132 212:0.031918 213:0.192622 214:0.0579588 215:0.0429639 216:0.0373768 217:0.0503582 218:0.243382 219:0.0256366 220:0.353747 221:0.0443467 222:0.0754971 223:0.0648706 224:0.0141577 225:0.141689 226:0.0226817 227:0.048738 228:0.34889 229:0.0382644 230:0.0294239 231:0.0546714 232:0.346607 233:0.276032 234:0.00285249 235:0.00487087 236:0.001696 237:0.166347 238:0.0463315 239:0.069061 240:0.0799803 241:0.00644514 242:0.200923 243:0.186977 244:0.0388769 245:0.00949634 246:0.0522448 247:0.0162971 248:0.0017757 249:0.113576 250:0.0871968 251:0.000265693 252:0.00919113 253:0.365501 254:0.130501 255:0.00463931 256:0.00554588 257:0.101783 258:0.0049749 259:0.0140604 260:0.351081 261:0.11369 262:0.00825456 263:0.271829 264:0.118277 265:0.0405572 266:0.044323 267:0.426409 268:0.166906 269:0.147383 270:0.0480134 271:0.233512 272:0.0143657 273:0.0756939 274:0.0158801 275:0.367419 276:0.0611 277:0.367419 278:0.020612 279:0.0873845 280:0.0258439 281:0.101179 282:0.185982 283:0.0183715 284:0.0549741 285:0.0556118 287:0.00199971 288:0.000124199 289:0.163947 290:0.0151588 291:0.0107615 292:0.12309 293:0.164929 294:0.0429192 295:0.278259 296:0.035773 297:0.00584015 298:0.000381863 299:0.00308176 
0.04433823789765042 0:8.80957e-005 1:0.0218223 2:0.222233 3:0.0436619 4:0.0504366 5:0.00061758 6:8.32891e-005 7:0.767906 8:0.44455 9:0.0022042 10:0.0334623 12:0.360021 13:0.346096 14:0.360021 15:0.246049 16:0.151387 17:0.00252624 18:0.00101609 19:0.0241002 22:0.0333054 23:0.0616717 24:0.430006 25:0.332005 26:0.00274263 27:0.0133093 28:0.0252048 29:0.0553679 30:0.00195898 31:0.0188463 32:0.00612086 33:0.0108616 34:0.156927 35:0.0231982 36:0.00108914 37:0.165209 38:0.332005 39:0.00515525 40:0.359974 41:0.0304007 42:0.116711 43:0.00403351 44:0.0941265 45:0.0190858 46:0.173698 47:0.00490444 48:0.000505926 49:0.0142112 50:0.00137539 51:0.0439236 52:0.0204971 53:0.0795438 54:0.0264738 55:0.0893661 56:0.193859 57:0.158327 58:0.0243725 59:0.0797514 60:0.00472994 61:0.0517134 62:0.00602685 63:0.136279 64:0.040202 66:0.150528 67:0.0607489 68:0.116728 69:0.000820269 70:0.0137017 71:0.39651 72:0.0272742 74:0.000441253 75:0.000731955 76:0.0014321 77:0.00576434 78:0.394084 79:0.0990354 80:0.156896 82:0.00217704 83:0.0263722 84:0.071745 85:0.0530271 86:0.138208 87:0.0202685 89:0.00550585 90:0.00934294 92:0.0396726 93:0.000780014 94:0.0698535 95:0.0393608 96:0.00378495 97:0.00310406 98:0.00198029 99:0.332005 100:0.147997 101:0.0699105 102:0.0100163 103:0.348038 104:0.013571 105:0.364266 106:0.0255024 107:0.0403997 108:0.0174649 109:0.00246238 110:0.00972138 111:0.00321308 112:0.0548256 113:0.00518289 114:0.0341349 115:0.334206 116:0.0121719 117:0.280456 118:0.000599419 119:0.000428823 120:0.244431 121:0.252153 122:0.292048 123:0.0673278 124:0.00691426 125:0.00309315 126:0.0856118 127:0.183778 128:0.0285137 129:0.10843 130:0.147657 131:0.504711 132:0.0841618 133:0.00244172 134:0.159202 135:0.308716 136:0.466127 137:0.0116807 138:0.123998 139:0.0117541 140:0.0906992 141:1.98024e-005 142:0.398393 143:0.394084 145:0.103505 146:0.143747 147:0.0221307 149:0.117987 150:0.009194 151:0.190433 152:0.341557 153:0.22798 154:0.17885 155:0.156726 156:0.290629 157:0.0172264 158:0.366988 159:0.350985 160:0.00316256 161:0.0478439 162:0.456881 163:0.00653394 164:0.456881 165:0.00282501 166:5.22266e-005 167:0.045259 168:0.44455 170:0.000212085 171:0.212305 172:0.206459 173:0.230081 174:0.00440503 175:0.00224446 176:0.330605 177:0.430725 178:0.332771 179:0.419886 180:0.00147743 181:0.000505926 182:0.280881 183:0.0401425 184:0.00357211 185:0.205533 186:0.0268168 187:0.0061283 188:0.0574877 189:0.00981214 190:0.278 191:0.223803 192:0.348038 193:0.0496873 194:0.00517674 195:0.013097 196:0.0938412 197:0.208557 198:0.0107118 199:0.257867 200:0.161647 201:0.0178681 202:6.89326e-005 203:0.029399 204:0.0274581 205:0.0141795 206:0.432677 207:0.000914939 208:0.0274261 209:0.148831 210:0.0195813 211:0.356507 212:0.360021 217:0.394084 218:0.000753902 219:0.368775 221:0.00683346 222:0.079336 223:0.136404 224:0.332005 225:0.00098908 226:0.430435 227:0.0144488 228:0.0049451 230:0.315295 231:0.0688872 232:0.424289 233:0.00153327 234:0.20674 235:0.0484408 236:0.0182507 239:0.267913 240:0.258015 241:0.00996923 242:0.139436 243:0.135444 244:0.231467 245:0.00362193 246:0.00294456 247:0.0297219 248:0.0868775 249:0.0453406 250:0.158195 251:0.0631107 252:0.192052 253:0.00755542 254:0.0142912 255:0.13259 256:0.00851205 257:0.00182777 258:0.12619 259:0.171578 260:0.000145156 261:0.000138617 262:0.398393 265:0.000474665 266:0.00223945 267:0.097596 269:0.0898329 270:0.168754 271:0.000218708 272:0.00240579 273:0.0581809 274:0.0458833 275:0.0363837 276:0.2038 277:0.332771 278:0.41796 279:0.183298 280:0.0575574 282:0.419886 283:0.165005 284:0.129236 286:0.00295404 287:0.00756037 288:0.0121839 289:0.00095436 290:0.0129047 291:0.189232 292:0.1821 293:0.00131406 294:0.0557585 295:0.0242637 296:0.0725224 297:0.0975151 298:0.0127103 299:0.0323918 
0.005025897822576256 0:0.19088 1:0.0148118 2:0.0586963 3:0.00137686 4:0.00120108 5:0.158369 6:0.0111974 7:0.352582 8:0.0835341 9:0.000625766 10:0.0188421 11:0.0198916 12:0.322803 13:0.359451 14:0.322803 15:0.0507889 16:0.0524989 17:0.0170874 18:0.106029 19:0.0472651 20:0.00048317 21:0.00738886 22:0.234937 23:0.0638764 24:0.254937 25:0.302887 26:0.0542024 28:0.0506214 29:0.200236 30:4.12972e-005 31:0.0863094 32:0.00055722 33:0.00974772 34:0.0751076 35:0.0471796 36:0.00679276 37:0.0340829 38:0.0994081 40:0.206611 41:0.0436905 42:0.0474467 43:0.00723274 44:0.0177555 45:0.00547844 46:0.352322 47:0.0652886 48:0.0190681 49:0.00592901 50:0.00156119 51:0.00542636 52:0.0589781 53:0.00791044 54:0.00803666 55:0.0144626 56:0.126614 57:0.103732 58:0.049065 59:0.390468 60:0.0123031 61:0.00524509 62:0.00212711 63:0.218301 64:0.0208472 66:0.390468 67:0.00106902 68:0.111316 70:0.116869 71:0.213068 72:0.0290708 73:0.0146991 74:0.00123415 75:0.00101928 76:0.0409988 77:0.115143 78:0.244693 79:0.182586 80:0.0334127 81:0.000255367 82:0.000578346 84:0.0589204 85:0.0320804 86:0.0154704 87:0.0372129 88:0.00540915 89:0.0491332 90:0.000171582 91:0.00151189 92:0.288886 93:0.103533 94:0.00354021 95:0.014438 96:0.095577 97:0.00987945 98:0.0074285 99:0.274927 100:0.00835501 101:0.00977476 102:0.00461981 103:0.378863 104:0.0223262 105:0.352322 106:0.230636 107:0.426311 109:0.0115654 112:0.0132643 113:0.00495172 114:0.352582 115:0.418539 116:0.0712606 117:0.309683 118:0.000282866 119:0.000535114 120:0.324375 121:0.426311 122:0.166401 123:0.342247 124:0.00125596 126:0.371957 127:0.253276 128:0.0134952 130:0.346803 131:0.342254 132:0.0525051 133:0.0173091 134:0.0038563 135:0.291847 136:0.348552 137:0.00695692 138:0.389392 139:0.0996599 140:0.126645 141:5.34025e-005 142:0.367638 143:0.334016 144:0.00045149 145:0.00252587 146:0.0038055 147:0.17674 148:0.00377755 149:0.0698008 150:0.0019047 151:0.143944 152:0.0148574 153:0.022023 154:0.350749 155:0.0218658 156:0.346803 158:0.429107 159:0.401958 160:0.23017 161:0.115546 162:0.385344 163:0.0418672 164:0.389392 165:0.0873878 166:0.00148859 167:0.247185 168:0.115152 169:0.0017326 170:0.0153235 171:0.0221053 172:0.00327952 173:0.311678 174:0.0100211 175:0.0145385 176:0.410739 177:0.316679 178:0.311309 179:0.131124 180:0.00528489 181:0.00601638 182:0.0655347 184:0.0315095 185:0.0690469 186:0.000461071 188:0.115036 189:0.0202576 190:0.198302 191:0.378863 192:0.378863 193:0.00542636 195:0.0264153 196:0.225781 197:0.0144663 198:0.330542 199:0.182891 200:0.218602 201:0.184986 202:0.0210159 203:0.00149824 205:0.362019 206:0.401958 207:0.0912799 208:0.0376712 209:0.348552 210:0.0266101 211:0.383213 212:0.318784 213:0.000387009 214:0.00154246 215:0.00853597 216:0.00434393 217:0.390196 218:0.00123898 219:0.289805 220:0.00808397 223:0.000171133 224:7.20648e-005 225:0.000619134 226:0.112865 227:0.0511236 228:0.0728164 229:0.109379 230:0.447195 231:0.00782001 232:0.426385 233:0.000188503 234:0.147074 235:0.0184287 236:0.00921027 238:0.118053 239:0.0264663 240:0.0430496 241:0.00220353 242:0.118594 243:0.152268 244:0.284943 246:0.00015494 247:0.255458 248:0.298902 249:0.118792 250:0.317439 251:0.0464743 252:0.226353 253:0.205605 254:0.0779435 255:0.252499 256:0.053984 257:0.0511878 258:0.185744 259:0.15623 260:0.162193 262:0.367638 263:0.0109344 264:0.000459121 265:0.00102924 266:0.00287572 267:0.336507 268:0.0033828 269:0.41903 270:0.41903 271:0.000145531 272:0.100491 275:0.0712193 276:0.01089 277:0.174928 278:0.119393 279:0.107558 280:0.0224744 281:0.0167272 282:0.274491 283:0.183799 284:0.184354 285:0.0158495 286:0.0397426 287:0.0130642 288:0.00352642 289:0.0011767 290:0.0037674 291:0.101087 292:0.0579014 293:0.000576158 294:0.0291332 295:0.0497165 296:0.0105235 297:0.0211948 298:0.00229935 299:0.00442271 
0.0378654943209648 0:0.195711 1:0.0263749 2:0.0791661 3:0.00420251 4:0.00877456 5:0.0671631 6:3.88867e-005 7:0.349571 8:0.0770545 10:0.00935786 11:0.312351 12:0.079965 13:0.237956 14:0.0734134 15:0.0405206 16:0.100406 17:0.000296614 18:0.112305 19:0.122446 20:0.226353 21:0.000117886 22:0.366936 23:0.21197 24:0.372268 25:0.294506 26:0.324797 27:0.129273 28:0.018226 29:0.00613123 30:0.0611933 31:0.073755 32:0.00149897 33:0.000696774 34:0.0468462 35:0.0477679 37:0.131778 38:0.121145 39:0.0232319 40:0.314744 41:0.106204 42:0.034261 43:0.384103 44:0.0686217 45:0.078266 46:0.35532 47:0.000466003 48:0.00478926 51:0.0948393 52:0.0140051 53:0.0101525 54:0.141211 55:0.0727116 56:0.259171 57:0.264645 58:0.0488257 59:0.078102 60:0.0126867 61:0.165036 62:0.00661685 63:0.241409 64:0.190454 65:0.00218858 66:0.187704 67:0.236562 68:0.232424 69:0.0744266 70:0.312351 71:0.371197 72:0.0375922 73:0.298952 75:0.00198104 76:0.158155 77:0.0637784 78:0.380871 79:0.0630307 80:0.0914579 81:0.00275165 82:0.0713885 83:0.281609 84:0.166442 85:0.0424407 86:0.0181688 87:0.00433076 88:0.00945055 89:0.0748791 90:0.0123106 92:0.297064 93:0.236265 94:0.00530455 95:0.0105678 96:0.0919126 97:0.0275257 98:0.115808 99:0.0403733 100:0.0926311 101:0.167441 102:0.00329231 103:0.00293958 104:0.0889108 105:0.35532 106:0.133116 107:0.130322 108:0.253931 109:0.0152337 110:0.00169849 111:0.0304577 112:0.269519 113:0.160471 114:0.205152 115:0.0164702 116:0.115078 117:0.104523 118:0.00454463 119:0.0223366 120:0.00491439 121:0.308649 122:0.218222 123:0.137307 124:0.0226021 125:0.00796651 126:0.0692724 127:0.372268 128:0.0893993 129:0.106542 130:0.369127 131:0.366936 132:0.367237 133:0.0140528 134:0.147682 135:0.232017 136:0.312351 137:0.100371 138:0.259684 139:0.00141796 140:0.112099 141:0.21141 142:0.023272 143:0.380871 144:0.0239864 145:0.347098 146:0.145074 147:0.0408297 148:0.00128261 149:0.275852 151:0.0498916 152:0.27916 153:0.0470786 154:0.349046 155:0.157197 156:0.132434 158:0.375827 159:0.31979 160:0.330328 161:0.134679 162:0.37833 163:0.00107904 164:0.37833 165:5.57916e-005 166:0.313299 167:0.0891195 168:0.0522848 169:0.298952 170:0.0355975 171:0.00833227 172:0.308649 173:0.172016 174:0.0112222 175:0.060515 176:0.377295 177:0.342965 178:0.0571064 179:0.225241 180:0.00253282 181:0.0029402 182:0.347755 183:0.118884 184:0.131527 185:0.241377 186:0.198264 187:0.00133611 188:0.00753761 189:0.000565456 190:0.036868 191:0.0422485 192:0.0431602 193:0.0723034 194:0.0127514 195:0.139831 196:0.196275 197:0.151552 198:0.253463 199:0.285478 200:0.216529 201:0.0348215 202:0.00985907 203:0.0691055 204:0.384103 205:0.083069 206:0.31979 207:0.0255103 208:0.312351 209:0.0804731 210:0.0336947 211:0.0303183 212:0.018852 213:0.294166 214:0.00102502 215:0.00060542 216:0.00687858 217:0.380871 218:0.0588866 219:0.339454 220:0.166456 221:0.13584 222:0.159977 223:0.19643 224:0.183577 225:0.276588 226:0.385417 227:0.0117098 228:0.00785143 229:0.128573 230:0.0189232 231:0.0776614 232:0.160144 233:0.0103478 234:0.374678 235:0.00366526 238:0.0611437 239:0.23118 240:0.0342106 241:0.0218766 242:0.161693 243:0.366936 244:0.040065 245:0.300001 247:0.0235892 248:0.0639086 249:0.218842 250:0.304362 251:0.00419206 252:0.00671581 253:0.312351 254:0.173398 255:0.13403 256:0.0276592 257:0.00676771 258:0.335985 259:0.202579 260:0.237838 261:0.0471567 262:0.298952 263:0.0631129 264:0.0268209 265:0.0395308 266:0.0703792 267:0.0979673 268:0.00165099 269:0.17994 270:0.263639 271:0.0197271 272:0.0323635 273:0.0112048 274:0.16063 275:0.308144 276:0.104882 277:0.112591 278:0.0791383 279:0.0371544 280:0.0101507 282:0.370753 283:0.370753 284:0.298808 285:0.00567033 287:0.000941594 288:0.00242061 289:0.326195 290:0.00692333 291:0.33861 292:0.363481 294:0.035981 295:0.180815 296:0.0189294 297:0.00601085 298:0.107264 299:0.041919 
0.1327626414119927 0:0.0563537 1:0.0603072 2:0.0869427 3:0.00366856 4:0.0272573 5:0.0555545 6:0.0464034 7:0.307052 8:0.113427 9:0.0260649 10:0.0058921 11:0.192596 12:0.150056 13:0.0880442 14:0.0580796 15:0.084251 16:0.0523683 17:0.0128521 18:0.311836 19:0.1731 20:0.331592 21:0.0589429 22:0.318211 23:0.139537 24:0.370244 25:0.0263957 26:0.126255 27:0.029943 28:0.00666885 29:0.0308119 30:0.0434933 31:0.0717506 32:0.0272915 33:0.024558 34:0.0219428 35:0.0512921 36:0.0044614 37:0.0417243 38:0.117112 39:0.0609057 40:0.337779 41:0.116254 42:0.000491803 43:0.280072 44:0.0399142 45:0.168088 46:0.325125 47:0.000286256 48:0.117513 51:0.0713718 52:0.139205 53:0.0525907 54:0.0531531 55:0.0387361 56:0.322256 57:0.0773821 58:0.120661 59:0.149078 60:0.00560237 61:0.0779486 62:0.0440798 63:0.151604 64:0.217048 65:0.00648773 66:0.069125 67:0.0303209 68:0.248435 69:0.144177 70:0.270557 71:0.376118 72:0.20619 73:0.331592 75:0.0316946 76:0.152895 77:0.105647 78:0.387429 79:0.135644 80:0.0225266 81:0.02764 82:0.0611134 83:0.152986 84:0.0410438 85:0.0209617 86:0.044644 87:0.000235678 89:0.0259248 90:0.0135362 92:0.0355301 93:0.0527257 94:0.131746 95:0.0762106 96:0.240668 97:0.0274153 98:0.104536 99:0.030887 100:0.00549647 101:0.0195525 102:0.192981 103:0.00166294 104:0.175206 105:0.325125 106:0.0548576 107:0.296918 108:0.288394 110:0.000700169 111:0.00258369 112:0.176333 113:0.0788927 114:0.307052 115:0.0150723 116:0.378336 117:0.0152921 118:0.0537926 119:0.0252307 120:0.121335 121:0.0692398 122:0.0626919 123:0.0384814 124:0.0426534 125:0.0102208 126:0.111536 127:0.370244 128:0.173522 129:0.106144 130:0.32795 131:0.249749 132:0.358191 133:0.324392 134:0.076797 135:0.00513831 136:0.014326 137:0.0307579 138:0.0996534 140:0.126896 141:0.22555 142:0.0571836 143:0.387429 144:0.0116798 145:0.0517821 146:0.233858 147:0.0998204 149:0.281591 150:0.00115221 151:0.294424 152:0.0799248 153:0.0190641 154:0.25237 155:0.00665962 156:0.099109 157:0.00338881 158:0.389229 159:0.340751 160:0.31655 161:0.0398791 162:0.365321 163:0.152327 164:0.365321 165:0.00570384 166:0.146833 167:0.118073 168:0.054379 169:0.152216 170:0.0241221 171:0.0368034 172:0.269199 173:0.161514 174:0.0309959 175:0.0588376 176:0.306327 177:0.31622 178:0.0149708 179:0.229958 181:0.11534 182:0.318624 183:0.163061 184:0.338823 185:0.225352 186:0.030328 187:0.00430615 188:0.0208574 189:0.00536902 191:0.00277156 192:0.0543736 193:0.290604 194:0.0575499 195:0.252219 196:0.325986 197:0.0781482 198:0.115766 199:0.0237275 200:0.0140364 201:0.0171347 202:0.280382 203:0.273142 204:0.161684 205:0.175851 206:0.340751 207:0.205569 208:0.211916 209:0.00764029 210:0.217707 211:0.136812 212:0.0616571 213:0.331592 214:0.0961128 215:0.00201796 216:0.0252058 217:0.387429 218:0.0248324 219:0.310232 220:0.0462655 221:0.310232 222:0.29868 223:0.174544 224:0.296918 225:0.355243 226:0.382783 227:0.0242196 228:0.0590179 229:0.363123 230:0.0175253 231:0.122478 232:0.0166163 233:0.269583 234:0.356568 235:0.0823465 237:0.00403015 238:0.00965776 239:0.101667 240:0.0785358 241:0.221476 242:0.286267 243:0.284958 244:0.0276385 245:0.280382 246:0.0435165 247:0.029667 248:0.0262225 249:0.378336 251:0.199971 252:0.0569301 253:0.2714 254:0.22789 255:0.121836 256:0.0390461 257:0.0223358 258:0.338405 259:0.259043 260:0.149296 261:0.190687 262:0.0252292 263:0.164794 264:0.262359 265:0.0528744 266:0.0633291 267:0.354206 268:0.0127041 269:0.226671 270:0.328164 271:0.033094 272:0.0297225 273:0.172582 274:0.311447 275:0.372429 276:0.0108483 277:0.000670351 278:0.0358685 279:0.261354 280:0.0645666 281:0.0378782 282:0.370166 283:0.297363 284:0.347174 286:0.0131604 287:0.140077 288:0.0740133 289:0.367363 290:0.0297308 291:0.36586 292:0.315003 293:0.00295805 294:0.0298529 295:0.413515 298:0.010728 299:0.101163 
0.1208724679711202 0:0.136228 1:0.0200838 2:0.0873418 3:0.0191453 4:0.00776293 5:0.0603863 6:0.0679337 7:0.177761 8:0.154566 9:0.0263285 10:0.0133048 11:0.148105 12:0.127151 13:0.124015 14:0.347639 15:0.0140904 16:0.0772966 17:0.370655 18:0.063681 19:0.166072 20:0.144789 21:0.251366 22:0.0021882 23:0.117106 24:0.0152046 25:0.208925 26:0.0818729 27:0.186152 28:0.0662865 29:0.0152809 30:0.429688 31:0.0282986 32:0.0812516 33:0.0660123 34:0.0547825 35:0.0599304 36:0.0333813 37:0.0482083 38:0.0657145 39:0.102877 40:0.0645665 41:0.00444527 42:0.123787 43:0.0731959 44:0.0548234 45:0.28205 46:0.125023 47:0.392898 48:0.0567374 49:0.0253945 50:0.0244464 51:0.0143187 52:0.00793997 53:0.0408975 54:0.0221443 55:0.00318946 56:0.311828 57:0.19388 58:0.119964 59:0.0122508 60:0.0562407 61:0.104044 62:0.102115 63:0.305456 64:0.106343 65:0.179888 66:0.0222138 67:0.387607 68:0.113585 69:0.0292597 70:0.234581 71:0.00411059 72:0.0140011 73:0.145564 74:0.00907781 75:0.165855 76:0.0776717 77:0.0644693 78:0.00879087 79:0.160743 80:0.349828 81:0.423869 82:0.134615 83:0.226899 84:0.197753 85:0.155198 86:0.176179 87:0.118517 88:0.373318 89:0.0371326 90:0.00126245 91:0.0180812 92:6.318e-005 93:0.0268449 94:0.175215 95:0.14618 96:0.372474 97:0.011516 98:0.00674673 99:0.146764 100:0.149616 101:0.0491724 102:0.00853941 103:0.100261 104:0.264121 105:0.373273 106:0.0319555 107:0.079148 108:0.00455374 109:0.373318 110:0.082198 111:0.000184914 112:0.219275 113:0.0816383 114:0.39421 115:0.0258102 116:0.0358066 117:0.104586 118:0.416355 119:0.0540285 120:0.164526 121:0.225714 122:0.172395 123:0.0446934 124:0.0276654 125:0.462056 126:0.388453 127:0.0469492 128:0.125908 129:0.00064313 130:0.0251403 131:0.362967 132:0.0509728 133:0.0603915 134:0.0236922 135:0.0828097 136:0.0740293 137:0.169559 138:0.116079 139:0.0963625 140:0.157504 141:0.216855 142:0.186661 143:0.0193513 144:0.110105 145:0.387607 146:0.143422 147:0.233877 148:0.409385 149:0.148149 150:0.0549417 151:0.00171859 152:0.0642797 153:0.0545001 154:0.220342 155:0.00092304 156:0.294193 157:0.452823 158:0.00828631 159:0.00843728 160:0.0242249 161:0.0504272 162:0.0126982 163:0.273592 164:0.0329044 165:0.182582 166:0.00392307 167:0.355547 168:0.236918 169:0.0335774 170:0.0175489 171:0.0219566 172:0.0605172 173:0.0292479 174:0.0144005 175:0.0501832 176:0.0111954 177:0.145431 178:0.40069 179:0.0178037 180:0.222947 181:0.0421555 182:0.00990071 183:0.0618498 184:0.00618233 185:0.222795 186:0.0012498 187:0.00600621 188:0.0570347 189:0.0502395 190:0.120458 191:0.0405004 192:0.0557129 193:0.0122099 194:0.00312221 195:0.0764808 196:0.0557419 197:0.000222253 199:0.380233 200:0.380233 201:0.0249853 202:0.00985254 203:0.037442 204:0.0841059 205:0.11318 206:0.00148238 207:0.0202974 208:0.060496 209:0.0619639 210:0.264402 211:0.316903 212:0.202934 213:0.0499454 214:0.275654 215:0.132065 216:0.0933247 217:0.0131827 218:0.282519 219:0.00461085 220:0.206132 221:0.177773 222:0.0537565 223:0.0477277 224:0.112232 225:0.171123 226:0.0123443 227:0.0291737 228:0.346763 229:0.0614099 230:0.244304 231:0.0235514 232:0.444614 233:0.00167008 234:0.143672 235:0.155389 236:0.0096397 237:0.00340147 238:0.00983793 239:0.0530654 240:0.0117803 241:0.162081 242:0.25951 243:0.0040366 244:0.380233 245:0.0389563 246:0.0230894 247:0.0740412 248:0.264752 249:0.328025 250:0.170507 251:0.00644794 252:0.0263878 253:0.220171 254:0.106419 255:0.0059793 256:0.189035 257:0.0140063 258:0.00942982 259:0.00169546 260:0.0607079 261:0.220525 262:0.144663 263:0.136114 264:0.147976 265:0.23309 266:0.172315 267:0.0707437 268:0.425715 271:0.00577651 272:0.00114957 273:0.00241058 274:0.0332965 275:0.0400679 276:0.0768024 277:0.174473 278:0.0298866 279:0.237692 280:0.178536 281:0.00974713 282:0.00621896 283:0.0304915 284:0.0700799 285:0.180195 286:0.311025 287:0.101928 288:0.199755 289:0.0363469 290:0.0056284 291:0.0889813 292:0.162399 293:0.058056 294:0.0629577 295:0.0315201 296:0.0216465 297:0.394405 298:0.0127718 299:0.388642 
0.1375011864927857 0:0.0389954 1:0.0692714 2:0.109478 3:0.0187949 4:0.00648378 5:0.0388364 6:0.180669 7:0.161669 8:0.136091 9:0.0760936 10:0.0280911 11:0.102202 12:0.0617162 13:0.0700918 14:0.530464 15:0.0381423 16:0.175936 17:0.360265 18:0.0211956 19:0.113831 20:0.279298 21:0.260242 22:0.0194609 23:0.0557737 24:0.0020541 25:0.238965 26:0.15472 27:0.354383 28:0.0900246 29:0.00599477 30:0.427743 31:0.0463528 32:0.103844 33:0.0156152 34:0.0482262 35:0.219672 36:0.0615485 37:0.0209512 38:0.033761 39:0.275418 40:0.0198369 41:0.0392808 42:0.0892091 43:0.0882438 44:0.0237443 45:0.321908 46:0.0617447 47:0.175816 48:0.0262916 49:0.00834122 50:0.0360408 51:0.0568446 52:0.00253108 53:0.06303 54:0.140897 55:0.0317915 56:0.26914 57:0.185897 58:0.15497 59:0.0228725 60:0.0231186 61:0.050945 62:0.0877258 63:0.348493 64:0.0285773 65:0.112067 66:0.0201605 67:0.342595 68:0.124226 69:0.0526772 70:0.31758 73:0.273452 74:0.027318 75:0.172518 76:0.105915 77:0.00554658 79:0.159608 80:0.311006 81:0.363665 82:0.048717 83:0.112571 84:0.117598 85:0.144005 86:0.143735 87:0.160108 88:0.375843 89:0.248103 91:0.0202241 92:0.0247331 93:0.0880687 94:0.124178 95:0.154213 96:0.217777 98:0.00580973 99:0.0907003 100:0.139886 101:0.00107553 102:0.0352232 103:0.0648969 104:0.195486 105:0.330309 106:0.0358374 107:0.0501999 108:0.301106 109:0.347301 110:0.145525 111:0.0245914 112:0.440491 113:0.127308 114:0.424532 115:0.00568417 116:0.0869903 117:0.0654866 118:0.409684 119:0.121652 120:0.128505 121:0.342339 122:0.167653 123:0.0620982 124:0.044051 125:0.461269 126:0.275804 127:0.0313118 128:0.270413 129:0.0731485 130:0.0641489 131:0.302769 132:0.0410051 133:0.216675 134:0.0224875 135:0.0309262 136:0.0205978 137:0.140357 138:0.10318 139:0.162188 140:0.396191 141:0.10446 142:0.0238304 144:0.168286 145:0.397557 146:0.22071 147:0.168757 148:0.413993 149:0.0766004 150:0.0678379 151:0.00413295 152:0.0839455 153:0.0309901 154:0.167079 155:0.0107626 156:0.171943 157:0.242153 158:0.0146916 159:0.0147112 160:0.0190341 161:0.0177977 162:0.0222134 163:0.236552 164:0.00490522 165:0.101001 166:0.0739314 167:0.530464 168:0.371879 169:0.140104 170:0.269818 171:0.108737 172:0.0529651 173:0.0113307 174:0.109023 175:0.132782 176:0.00288325 177:0.116907 178:0.192197 179:0.0434581 180:0.198819 181:0.026148 182:0.0707891 183:0.0836001 184:0.0852512 185:0.224562 186:0.0147558 187:0.0374037 188:0.0453395 189:0.0120659 190:0.113346 191:0.0455651 192:0.0312544 193:0.0292916 194:0.0264222 195:0.042454 196:0.0487755 197:0.0195162 198:0.00336305 199:0.403327 200:0.403327 201:0.00633563 202:0.00243229 203:0.0223126 204:0.02973 205:0.0286554 206:0.00529288 207:0.322322 208:0.00499197 209:0.0527964 210:0.1886 211:0.0681618 212:0.0188997 213:0.0871786 214:0.409684 215:0.209561 216:0.11544 218:0.192826 219:0.0068173 220:0.0427701 221:0.232415 222:0.0188446 223:0.0354444 224:0.0194867 225:0.180056 226:0.00597304 227:0.104795 228:0.0886861 229:0.0442251 230:0.362303 231:0.00582834 232:0.455522 233:0.0168718 234:0.0814178 235:0.161959 236:0.0525471 237:0.0109953 238:0.0246056 239:0.0439833 240:0.00861349 241:0.257666 242:0.183199 243:0.00626239 244:0.209315 245:0.0147855 246:0.0870036 247:0.134075 248:0.030547 249:0.245875 250:0.249968 251:0.0102184 252:0.0156831 253:0.236019 254:0.0613117 255:0.00794515 256:0.356366 257:0.0330221 258:0.00568304 259:0.0995072 260:0.00476518 261:0.0952733 262:0.00901482 263:0.143576 264:0.154852 265:0.371121 266:0.29756 267:0.164412 268:0.342188 269:0.00496041 270:0.00826735 271:0.014907 275:0.0476829 276:0.109136 277:0.00446578 278:0.0537431 279:0.111662 280:0.169689 281:0.000506041 283:0.0776489 284:0.0248461 285:0.150065 286:0.193672 287:0.0813803 288:0.192812 289:0.0439769 290:0.0498792 291:0.0715275 292:0.133484 293:0.0394695 294:0.0107068 295:0.0325406 296:0.0296902 297:0.122527 299:0.152009 
0.1235308673491335 0:0.00696606 2:0.00987635 3:0.0224491 4:0.0554439 5:0.0671002 6:0.176632 7:0.324267 8:0.0197225 10:0.0208069 11:0.14499 12:0.245824 13:0.108885 14:0.234834 15:0.185231 16:0.00240629 17:0.0715549 18:0.0824995 19:0.100852 20:0.421993 21:0.375697 22:0.0935265 24:0.0653743 25:0.041893 26:0.0432298 27:0.0662807 28:0.0430306 29:0.0261336 30:0.236474 31:0.00194966 32:0.159823 33:0.0101658 34:0.0929166 35:0.0534574 37:0.0160244 38:0.12807 39:0.341623 40:0.0710175 41:0.000278522 42:0.0392022 43:0.0771136 44:0.012227 45:0.0900638 46:0.328907 47:0.342627 48:0.00739499 51:0.0530101 52:0.0250267 53:0.0873202 54:0.0242926 55:0.0720723 56:0.115137 58:0.0865834 59:0.0686018 60:0.0819449 61:0.0395221 62:0.194042 63:0.000817175 65:0.0239471 66:0.0349871 67:0.00769586 68:0.376005 69:0.0229757 70:0.262936 71:0.144647 72:0.142434 73:0.421993 74:0.00541549 75:0.301807 76:0.077416 77:0.173946 78:0.0254585 79:0.0188452 80:0.0392001 81:0.201265 82:0.0883539 83:0.209892 84:0.0807611 85:0.260662 86:0.142769 87:0.0557802 88:0.0738486 89:0.0456067 90:0.0567311 92:0.155284 93:0.124522 94:0.153323 95:0.157993 96:0.038577 97:0.0620723 98:0.0787559 99:0.174889 100:0.00941717 101:0.105623 102:0.00251157 103:0.0926868 104:0.283159 105:0.279619 106:0.169444 107:0.02474 108:0.42876 109:0.0191857 110:0.33619 111:0.0198642 112:0.09756 113:0.168072 114:0.21333 115:0.0119877 116:0.113093 117:0.0387537 118:0.164993 119:0.0675364 120:0.0292831 121:0.00656102 122:0.00140278 123:0.00625738 124:0.0574336 125:0.242711 126:0.0602763 127:0.32958 129:0.213983 130:0.0391678 131:0.219939 132:0.363294 133:0.153055 134:0.159784 135:0.0744129 136:0.00996139 137:0.0225894 138:0.143582 139:0.0644235 140:0.00413362 141:0.268732 142:0.00529322 143:0.0745738 144:0.0805643 145:0.0214347 146:0.0188354 147:0.0625016 148:0.00744506 149:0.14826 150:0.00987108 151:0.00858612 152:0.360994 153:0.0437394 154:0.245026 155:0.189629 156:0.0819907 157:0.256127 158:0.0553093 159:0.104176 160:0.0897177 161:0.0267536 162:0.184035 163:0.180973 164:0.362082 165:0.224683 166:0.00513505 167:0.0597467 168:0.0110284 169:0.000683802 170:0.0244159 171:0.089188 172:0.00808185 173:0.0919529 174:0.0424367 175:0.294822 176:0.0182113 177:0.0770456 178:0.0258189 179:0.273907 180:0.0128345 181:0.00147975 182:0.190449 183:0.00205026 184:0.0460064 185:0.360987 186:0.0222828 187:0.00674919 188:0.192461 189:0.00101858 190:0.40316 191:0.00299094 192:0.0434745 193:0.0624063 194:0.0624072 195:0.0236121 196:0.112135 197:0.324681 198:0.0619697 199:0.153786 200:0.117517 201:0.0119877 203:0.0191762 204:0.336758 205:0.0104087 206:0.0629658 207:0.404721 208:0.249874 209:0.00867799 210:0.207519 211:0.38618 212:0.0571716 213:0.0216257 214:0.175653 215:0.307604 216:0.106112 217:0.00563032 218:0.124367 219:0.219447 220:0.0508189 221:0.299517 222:0.111767 223:0.0483958 224:0.174446 225:0.183895 226:0.0122758 227:0.00756224 228:0.346927 230:0.0538015 231:0.126111 232:0.0510391 233:0.0166364 234:0.376005 235:0.108669 236:0.0295916 237:0.0122436 238:0.000876199 239:0.0678596 240:0.113049 241:0.00187352 242:0.110861 243:0.414157 244:0.144769 245:0.0474614 246:0.143832 247:0.0679281 248:0.0659596 249:0.0607305 250:0.014228 252:0.00341363 253:0.398452 254:0.398452 255:0.108778 256:0.00908175 257:0.0199037 258:0.147911 259:0.132941 260:0.0477611 261:0.421993 262:0.00238128 263:0.375697 264:0.0457879 265:0.213573 266:0.315432 267:0.458101 268:0.150119 269:0.00442229 270:0.00198137 271:0.0644034 272:0.0351857 273:0.130893 274:0.195402 275:0.42876 276:0.0150655 277:0.0481111 278:0.0327805 279:0.107666 280:0.0141009 281:0.0519445 282:0.119366 283:0.345505 284:0.124885 285:0.0654762 287:0.00129053 289:0.00552424 290:1.34701e-005 291:0.359981 292:0.365126 293:0.258417 294:0.0232106 295:0.0163369 296:0.0520501 297:0.040387 298:0.0033099 299:0.0991298 
0.02670168835297854 0:0.0400292 1:0.0102063 2:0.00739963 3:0.0269127 4:0.048259 5:0.0101757 6:0.22207 7:0.216911 8:0.0182045 9:0.00656496 10:0.0173007 11:0.225531 12:0.251321 13:0.0238927 14:0.0371445 15:0.121966 16:0.0349465 17:0.1316 18:0.0613018 19:0.071216 20:0.41907 21:0.327402 22:0.0373348 23:0.0115652 24:0.191432 25:0.00654137 26:0.288865 27:0.00432144 28:0.0249664 29:0.00702524 30:0.164783 31:0.0823939 32:0.126882 33:0.0795163 34:0.0895193 35:0.00265972 36:0.000145566 37:0.090258 38:0.0579173 39:0.358646 40:0.291418 41:0.0137178 42:0.0357568 43:0.185704 44:0.21716 45:0.0403455 46:0.0703479 47:0.384139 48:0.0127464 49:0.00887355 51:0.130042 52:0.0199453 53:0.0824471 54:0.064864 55:0.0920259 56:0.0139021 57:0.00436854 58:0.0489838 59:0.155107 60:0.0836968 61:0.005205 62:0.112593 63:0.00610585 64:0.0635163 65:0.0920503 66:0.0950223 67:0.163832 68:0.214868 69:0.0411603 70:0.438465 71:0.0203288 72:0.371837 73:0.41907 74:0.000242611 75:0.381461 76:0.0694127 77:0.319706 78:0.00392357 79:0.0154142 80:0.0584373 81:0.11354 82:0.144615 83:0.0145766 84:0.159608 85:0.221821 86:0.115897 87:0.105153 88:0.0251255 89:0.0113736 90:0.00772024 91:0.0173398 92:0.110513 93:0.0386788 94:0.213017 95:0.0313356 96:0.039407 97:0.0543982 98:0.066263 99:0.0497239 100:0.0780541 101:0.0883869 102:0.0156799 103:0.0277702 104:0.447863 105:0.102599 106:0.0118158 107:0.115494 108:0.302258 110:0.167249 111:0.000308386 112:0.112096 113:0.190069 114:0.0654175 115:0.00443446 116:0.125461 117:0.182506 118:0.201749 119:0.0328566 120:0.0518846 121:0.0143913 122:0.000120463 123:0.0184756 124:0.0439469 125:0.27784 126:0.0790988 127:0.366174 128:0.0110095 129:0.252152 130:0.0212761 131:0.0106082 132:0.151913 133:0.100889 134:0.159269 135:0.00613386 136:0.00157363 137:0.00192397 138:0.128755 139:0.11818 140:0.0131287 141:0.33776 142:0.00267133 143:0.101504 144:0.0613307 145:0.355193 146:0.0193704 147:0.0162749 148:0.000779363 149:0.109775 150:0.0227718 151:0.0089608 152:0.109242 153:0.113999 154:0.082767 155:0.13322 156:0.0199358 157:0.228221 158:0.214802 159:0.214292 160:0.00335945 161:0.0474449 162:0.0593307 163:0.195906 164:0.106455 165:0.216296 166:0.0839047 167:0.021952 168:0.00211322 169:0.00136087 170:0.0135947 171:0.0757155 172:0.113818 173:0.20334 174:0.271432 175:0.34352 176:0.0676106 177:0.143043 178:0.0402108 179:0.320161 181:0.00103585 182:0.146843 183:0.00157279 184:0.00443278 185:0.249481 186:0.00572428 187:0.000513977 188:0.356705 189:0.00109123 190:0.186042 191:0.0127774 192:0.00106851 193:0.13501 194:0.213087 195:0.149815 196:0.0334091 197:0.276717 198:0.0437531 199:0.0287257 200:0.0893095 201:0.00485572 202:0.0106742 203:0.0569741 204:0.384587 205:0.0315389 206:0.304739 207:0.479116 208:0.375284 209:0.00640139 210:0.25169 211:0.115079 212:0.305096 213:0.0134164 214:0.351137 215:0.316697 216:0.0368657 217:0.000253795 218:0.193651 219:0.23837 220:0.168873 221:0.0337705 222:0.207724 223:0.0850351 224:0.441733 225:0.0262255 226:0.0439299 227:0.00938706 228:0.324516 229:0.00937062 230:0.118856 231:0.167188 232:0.363023 233:0.0303764 234:0.159764 235:0.18714 236:0.00625617 237:0.000583451 238:0.0915488 239:0.0453665 240:0.0701753 241:0.00260201 242:0.0188672 243:0.0435667 244:0.0258102 245:0.0701956 246:0.231091 247:0.0632984 248:0.0304156 249:0.128493 250:0.036962 252:0.0062328 253:0.438465 254:0.306588 255:0.0891151 256:0.00115438 257:0.116972 258:0.25675 259:0.16018 260:0.0596222 261:0.41907 262:0.0109732 263:0.351137 264:0.0816193 265:0.158041 266:0.175493 267:0.41809 268:0.138041 269:0.0286348 270:0.00832358 271:0.0255083 272:0.0104043 273:0.0976764 274:0.00741258 275:0.101857 276:0.167685 277:0.0424124 278:0.12678 279:0.305868 280:0.0442057 281:0.179604 282:0.176124 283:0.380931 284:0.0964135 285:0.0376804 288:0.000179628 289:2.44907e-005 290:0.0132794 291:0.356705 292:0.358362 293:0.0744476 294:0.0426586 295:0.0312133 296:0.0722245 297:0.00436171 298:0.0156407 
0.2145646112792821 0:0.0185841 1:0.0687848 2:0.0147946 3:0.00394188 5:0.0187209 6:0.375982 7:0.0743079 8:0.0109905 9:0.0243274 10:0.0516518 11:0.147345 12:0.0324999 13:0.100487 14:0.0349667 15:0.0685198 16:0.043128 17:0.339147 18:0.0128291 19:0.0087493 20:0.0345142 21:0.375982 22:0.013205 23:0.0331213 24:0.136402 25:0.120044 26:0.0196977 27:0.0762864 28:0.117361 29:0.298929 30:0.130443 31:0.0949591 32:0.0361696 33:0.1165 34:0.0926607 35:0.262995 36:0.0326813 37:0.216349 38:0.0303936 39:0.134639 40:0.156295 41:0.116992 42:0.0621496 43:0.18159 44:0.257584 45:0.0238151 46:0.100217 47:0.380074 48:0.251143 49:0.00400868 50:0.0204964 51:0.365329 52:0.239735 53:0.118583 54:0.157764 55:0.0176226 56:0.29041 57:0.0128676 58:0.0375854 59:0.159596 60:0.0402647 61:0.138451 62:0.108729 63:0.0529912 64:0.343392 65:0.162101 66:0.105906 67:0.370258 68:0.000835815 69:0.0161312 70:0.212068 71:0.000103545 72:0.0708426 73:0.0278015 74:0.13705 75:0.415034 76:0.114734 77:0.29264 78:1.16246e-005 79:0.0762446 80:0.106883 81:0.280401 82:0.0144339 83:0.0431843 84:0.000220723 85:0.00294331 86:0.000420473 87:0.0724116 88:0.0194953 89:0.0695906 91:0.000664619 92:0.00308032 93:0.0320111 94:0.388918 95:0.0341851 96:0.00321016 97:0.101496 98:0.268513 99:0.290248 100:0.148149 102:0.216832 103:0.345715 104:0.345715 105:0.0673758 106:0.0131361 107:0.227509 108:0.415396 109:0.0481688 110:0.0832391 111:0.0361402 112:0.0211245 113:0.0705997 114:0.126368 115:0.136166 116:0.00305683 117:0.0471696 118:0.0587566 119:0.0253714 120:0.153965 121:0.198843 122:0.0158802 123:0.123792 124:0.012535 125:0.253786 126:0.125941 127:0.395142 128:0.264389 129:0.165195 130:0.0298546 131:0.0153997 132:0.0521903 133:0.144781 135:0.00889747 136:0.0239249 137:0.103204 139:0.0210271 140:0.0266123 141:0.0467626 142:0.0911075 143:0.000724386 144:0.0659305 145:0.370258 146:0.00693106 147:0.380349 148:0.00849241 149:0.209806 150:0.0122588 151:0.0915537 152:0.000874173 153:0.0257326 154:0.0498147 155:0.0196411 156:0.316593 157:0.35732 159:0.0087942 160:0.0574927 161:0.0129037 162:0.00154645 163:0.388918 165:0.380074 166:0.299571 167:0.0141236 168:0.0182979 169:0.3206 170:0.180196 171:0.0760591 172:0.343392 173:0.051407 174:0.0109897 175:0.00916258 176:0.0501503 177:0.0689114 178:0.021959 179:0.0129513 180:0.0605765 181:0.43457 182:0.43457 183:0.269731 184:0.132029 185:0.00169797 186:0.040149 187:0.00470234 188:0.140161 189:0.298922 190:0.0999601 191:0.21058 192:0.288488 193:0.263687 194:0.150261 195:0.0315225 196:0.0434443 197:0.006311 198:0.00150275 199:0.0400848 200:0.141768 201:0.064276 202:0.124273 203:0.1028 204:0.296351 205:0.0404714 206:0.000328061 207:0.00945129 208:0.344527 209:0.00281143 210:0.180277 211:0.0832291 212:0.0538458 213:0.195186 214:0.375982 215:0.343696 216:0.0166807 218:0.284549 219:0.00160136 220:0.0404967 221:0.13156 222:0.13899 223:0.117654 224:0.0712342 225:0.0447962 226:0.0529588 227:0.0381848 228:0.0164178 229:0.0365389 230:0.0281989 232:0.012044 233:0.196525 234:0.071035 235:0.400366 236:0.00294404 237:0.0565684 238:0.0619737 239:0.0356222 240:0.0744486 241:0.14297 242:0.0619251 243:0.0717419 244:0.196276 245:0.15261 246:0.346441 247:0.148254 248:0.00318287 249:0.0018341 250:0.0773128 251:0.0205846 252:0.02607 253:0.162204 254:0.379216 255:1.94616e-005 256:0.159368 259:0.00317981 260:0.175857 261:0.00980567 262:0.0839601 263:0.0844093 264:0.341417 265:0.202734 266:0.29709 267:0.385062 268:0.366699 269:0.00152467 270:0.00778413 271:0.0174658 272:0.0446054 273:0.222614 274:0.12342 275:0.415396 276:0.013911 277:0.0362892 278:0.266541 280:0.00382926 281:0.110977 282:0.269665 283:0.00793138 284:0.395142 285:0.0145564 286:0.00514997 287:0.0219173 288:0.0177004 289:0.119287 290:0.0216785 291:0.247893 292:0.0276028 293:0.0344721 294:0.33849 295:0.0564742 296:0.00683945 297:0.0880446 298:0.12278 299:0.0788982 
0.0131470780240124 0:0.15296 1:0.0284792 3:0.0352348 4:0.0330904 5:0.18451 6:0.284036 7:0.47953 8:0.000135919 9:0.010393 10:0.0618724 11:0.216377 12:7.62517e-005 13:0.411977 14:0.0462427 16:0.00453266 17:0.362658 18:0.108723 20:0.129236 21:0.0782203 22:0.0145641 23:0.151464 24:0.123492 25:0.004058 26:0.00281676 27:0.425206 28:0.0384588 29:0.0408597 30:0.37891 31:0.101668 32:0.23592 33:0.00168562 34:0.124136 35:0.0613933 36:0.0181501 37:0.0339856 39:0.377698 40:0.00785474 41:0.0850233 42:0.0728421 43:0.179614 44:0.00417653 45:0.00172262 46:0.310526 47:0.364035 48:0.219264 49:0.326035 50:0.317691 51:0.128988 52:0.0665811 53:0.0367422 54:0.202843 55:0.0181717 56:0.0386778 57:0.354195 59:0.00637842 60:0.00690676 61:0.0201829 62:0.0511663 63:0.0657886 64:0.14844 65:0.0724735 66:0.0149492 67:0.00677584 68:0.012414 69:0.0822945 70:0.353004 71:0.194811 72:0.0817894 73:0.273405 74:0.00968368 75:0.0179371 76:0.272501 77:0.0910425 78:0.186125 81:0.0915437 82:0.00749391 83:0.0150782 84:0.00172853 85:0.00761933 86:0.0186973 87:0.0573377 88:0.399623 89:0.243811 90:0.135363 91:0.16735 92:0.12652 93:0.0288501 94:0.324067 95:0.00134235 96:0.334986 97:0.097634 98:0.0134377 100:0.066752 101:0.00144774 102:0.0109942 103:0.134388 104:0.00326041 105:0.489531 106:0.148359 108:0.136804 109:0.320465 110:0.3648 111:0.0864479 112:0.145624 113:0.0223715 114:0.121357 115:0.282518 116:0.157199 117:0.00373632 118:0.00565815 119:0.0274124 121:0.00249174 122:0.0339855 123:0.0013276 124:0.0689423 125:0.377698 126:0.0108977 127:0.100731 128:0.133325 129:0.00707478 130:0.0176485 131:0.00510054 132:0.351989 133:0.0174761 134:0.306923 135:0.188065 136:0.0243681 137:0.0367327 138:0.013116 139:0.0162782 140:0.264968 141:0.0466188 142:0.00397836 143:0.100621 144:0.0469198 145:0.021021 146:0.003749 147:0.00195491 148:0.3648 149:0.0239371 150:0.0305727 151:0.321238 152:0.0163509 153:0.00932175 154:0.397964 155:0.0261801 156:0.364499 157:0.0895184 158:0.374505 159:0.312711 161:0.0207287 162:0.0107319 163:0.324067 164:0.056778 165:0.329703 166:0.382152 167:0.0757343 168:0.139415 169:0.1715 170:0.306168 172:0.141044 173:0.198718 174:0.100096 175:0.0488202 176:0.00034004 178:0.0254432 179:0.0263076 180:0.324729 181:0.382992 183:0.066552 184:0.203042 185:0.0316239 186:0.0115919 187:0.0556977 188:0.128028 189:0.00727006 190:0.201121 191:0.433769 192:0.433769 193:0.0743815 194:0.00292284 195:0.0311422 196:0.00807204 197:0.0179977 198:0.147201 199:0.00352891 200:0.121227 201:0.315259 202:0.252463 203:0.187439 204:0.0777517 205:0.312711 206:0.193156 207:0.220482 208:0.0925364 209:0.0181484 210:0.324067 212:0.0224179 213:0.379046 214:0.274287 215:0.0677991 217:0.0713164 218:0.153336 219:0.00711682 220:0.0438805 221:0.37891 222:0.00203709 223:0.0235327 224:0.367978 225:0.00677165 226:0.0717654 227:0.0890944 229:0.352382 230:0.214492 231:0.0196037 232:0.252252 233:0.124434 234:0.00303647 235:0.0288465 236:0.0518198 237:0.175896 238:0.00250396 239:0.00710139 240:0.016239 241:0.0552335 242:0.00472155 243:0.0219748 244:0.0104322 245:0.0257831 246:0.00302083 247:0.292674 248:0.0814099 249:0.385452 250:0.0913654 251:0.0162059 252:0.0157164 253:0.353004 254:0.353004 255:0.00320342 256:0.324067 257:0.00581722 258:0.00990207 259:0.0468111 260:0.132291 261:0.0118554 262:0.0213554 263:0.115442 264:0.306168 265:0.37891 266:0.37891 267:0.0112167 268:0.0704597 269:0.0161675 270:0.00385268 271:0.0535846 272:0.00855942 273:0.00222216 274:0.360521 275:0.00966883 276:0.0966328 277:0.00331246 278:0.00181108 279:0.004951 280:0.0128068 281:0.00847207 282:0.0244338 283:0.0184955 284:0.0788782 285:0.399623 286:0.0300288 287:0.382992 288:0.01659 289:0.125347 290:0.179577 291:0.0520555 292:0.0161602 293:0.0861303 294:0.00201229 295:0.0517038 296:0.0557877 297:0.0146737 298:0.0183723 299:0.00562622 
0.2156031028682642 0:0.108349 1:0.0090841 2:0.00170718 3:0.100674 4:0.0763051 5:0.0309156 6:0.0951511 7:0.028395 8:0.0137412 9:0.00494664 10:0.18372 11:0.150609 12:0.0805174 13:0.145494 14:0.451387 15:0.0313362 16:0.0018942 17:0.0952644 18:0.0368724 19:0.0073928 20:0.0896011 21:0.221708 22:0.0562571 23:0.00936185 24:0.31017 25:0.360967 26:0.0664463 27:0.0372852 28:0.0120531 29:0.0263011 30:0.0985273 31:0.0355795 32:0.0538587 33:0.0318544 34:0.0468308 35:0.0292485 36:0.0522013 37:0.0479577 38:0.0194355 39:0.121487 40:0.131649 41:0.0310654 42:0.0222896 43:0.214771 44:0.0545597 46:0.150602 47:0.231734 48:0.0485253 49:0.119539 50:0.136309 51:0.0275332 52:0.0327246 53:0.101285 54:0.0307717 55:0.382486 56:0.0046268 57:0.356537 59:0.269783 60:0.171011 61:0.0197657 62:0.0478852 63:0.360967 64:0.00281729 65:0.0612467 66:0.492724 67:0.0670093 68:0.164727 69:0.0503165 70:0.257644 71:0.00851236 72:0.0123455 73:0.252743 74:0.0284758 75:0.111322 76:0.280743 77:0.032328 78:0.032235 79:0.334825 80:0.00998302 81:0.0716653 82:0.183499 83:0.0807493 84:0.0174979 85:0.0745569 86:0.0736092 87:0.159827 88:0.053096 89:0.0279041 90:0.0851634 91:0.114213 92:0.0142741 93:0.0100587 94:0.340699 95:0.0362291 96:0.0244109 97:0.098441 98:0.0499095 99:0.360967 100:0.0170388 102:0.00101057 103:0.345862 104:0.294545 105:0.0913922 106:0.22775 107:0.316926 108:0.100191 109:0.35984 110:0.0549999 111:0.174138 112:0.205899 114:0.114546 115:0.016021 116:0.0871058 117:0.0827076 118:0.121338 119:0.0891473 120:0.355315 121:0.360967 122:0.356537 123:0.0506243 124:0.135002 125:0.185447 126:0.538781 127:0.226014 128:0.0330491 129:0.382486 130:0.00930806 131:0.163247 132:0.0921742 133:0.08252 134:0.0300542 135:0.295 136:0.0581411 137:0.0182965 138:0.0786744 139:0.127511 140:0.483695 141:0.0385405 142:0.0146395 143:0.0546402 144:0.0952811 145:0.0911706 146:0.145117 147:0.220408 148:0.168852 149:0.207171 150:0.0814483 151:0.0246049 152:0.0219861 153:0.0978375 154:0.0398336 155:0.360903 156:0.00182895 157:0.238838 159:0.004702 160:0.00631785 161:0.136632 162:0.0258156 163:0.234558 164:0.0361157 165:0.205583 166:0.131535 167:0.451387 168:0.483695 169:0.326497 170:0.167144 171:0.193739 172:0.00115076 173:0.0117915 174:0.0273507 175:0.146995 176:0.137541 177:0.061276 178:0.0959299 179:0.101222 180:0.306072 181:0.0441153 182:0.352268 183:0.0353019 184:0.22604 185:0.00538849 186:0.0779857 187:0.149769 188:0.0692202 189:0.0454436 190:0.258914 191:0.142283 192:0.0803054 193:0.0115347 194:0.0156204 195:0.0183209 196:0.000221855 197:0.360903 198:0.0817038 199:0.0722023 200:0.169513 201:0.0133321 202:0.00101545 203:0.0665934 204:0.317219 205:0.0114322 206:0.00407748 207:0.054301 208:0.148643 209:0.0219126 210:0.1672 211:0.191058 212:0.039493 213:0.326497 214:0.047795 215:0.376447 216:0.117217 217:0.252078 218:0.135297 219:0.0100351 220:0.0186382 221:0.309924 222:0.000927487 223:0.000576592 224:0.00155689 225:0.27989 226:0.363332 227:0.0634631 228:0.250861 229:0.111808 230:0.0802783 231:0.00630477 232:0.0330865 233:0.293827 234:0.269247 235:0.0408224 236:0.157953 237:0.413614 238:0.00162277 239:0.0378695 240:0.232107 241:0.0356422 242:0.0686682 243:0.130787 244:0.173886 245:0.023371 246:0.332156 247:0.0859668 248:0.259994 249:0.111123 250:0.173169 251:0.0166651 252:0.0406426 253:0.347389 254:0.336218 255:0.14326 256:0.105465 257:0.0837928 258:0.00104885 259:0.0469203 260:0.0531131 261:0.00596346 262:0.0574899 263:0.108543 264:0.187067 265:0.232939 266:0.460634 267:0.000603534 268:0.193249 269:0.174572 270:0.257392 271:0.0149634 272:0.0628987 273:0.00557163 274:0.0558694 275:0.0365381 276:0.0316427 277:0.0629918 278:0.0746053 279:0.00646494 280:0.207725 281:0.0865397 282:0.210904 283:0.231216 284:0.191471 285:0.128124 286:0.094699 287:0.081014 288:0.0426322 289:0.114585 290:0.0992092 291:0.227056 292:0.155291 293:0.345522 294:0.0427868 295:0.00951371 296:0.0704237 297:0.0386071 298:0.110236 299:0.00570163 
0.1381524037340777 0:0.0407055 1:0.0303419 3:0.282304 4:0.12031 5:0.034815 6:0.227708 7:0.10557 9:0.016153 10:0.175949 11:0.319595 12:0.0368158 13:0.0290974 14:0.0651639 15:0.129579 17:0.273969 18:0.079771 19:0.0135084 20:0.355825 21:0.246634 22:0.230045 23:0.0254295 24:0.110777 25:0.0299043 26:0.0471316 27:0.064791 28:0.0387422 29:0.0350323 30:0.208172 31:0.0457602 32:0.272376 33:0.028917 34:0.0442921 35:0.0609705 36:0.030635 37:0.022673 38:0.0709452 39:0.268205 40:0.0628919 41:0.042766 42:0.0138505 43:0.123538 44:0.0242813 45:0.0974048 46:0.323891 47:0.191519 48:0.341116 49:0.142142 50:0.00767261 51:0.340822 52:0.071438 53:0.218386 54:0.326791 55:0.185806 56:0.0526965 57:0.0578869 58:0.0396191 59:0.0278306 60:0.0716349 61:0.168476 62:0.0568896 63:0.111676 64:0.128078 65:0.17709 66:0.0071831 67:0.00393352 68:0.0109113 69:0.220076 70:0.163672 71:0.278988 72:0.0981626 73:0.34272 74:0.0093487 75:0.270035 76:0.13953 77:0.124506 78:0.0860611 79:0.187468 80:0.0641075 81:0.339865 82:0.0535127 83:0.168103 84:0.197837 85:0.102343 86:0.119862 87:0.140803 88:0.0498194 89:0.0377425 90:0.0422978 91:0.0445815 92:0.310294 93:0.151372 94:0.285321 95:0.203816 96:0.159309 97:0.125042 98:0.0289192 99:0.0490193 101:0.0954862 102:0.033013 103:0.00555975 104:0.286889 105:0.104592 106:0.0498723 107:0.214409 108:0.398421 109:0.139433 110:0.360271 111:0.403108 112:0.369576 113:0.10252 114:0.190919 115:0.00761372 116:0.190712 117:0.0138445 118:0.117897 119:0.0965756 120:0.19696 121:0.00651866 122:0.00813847 123:0.0559763 124:0.101408 125:0.215458 126:0.0013178 127:0.216008 128:0.150041 129:0.36845 130:0.318374 131:0.0617984 132:0.355056 133:0.125214 134:0.173033 135:0.00313034 136:0.151733 137:0.132769 138:0.05618 139:0.0291371 140:0.0268133 141:0.355825 142:0.00452103 143:0.191984 144:0.133661 145:0.00105639 146:0.211938 147:0.039348 148:0.0533453 149:0.0487737 150:0.100884 151:0.0719131 152:0.0607222 153:0.0487159 154:0.145798 155:0.187008 156:0.00409878 157:0.352751 158:0.0676498 159:0.161776 160:0.138039 161:0.117003 162:0.0447912 163:0.229016 164:0.0628738 165:0.168149 166:0.111512 167:0.117321 168:0.00529323 169:0.0150206 170:0.0351434 171:0.0563009 172:0.136199 173:0.00585886 174:0.00400799 175:0.0275083 176:0.0104796 177:0.0155918 178:0.011375 179:0.140658 180:0.0337934 181:0.341116 182:0.108136 183:0.185689 184:0.225074 185:0.229726 186:0.121296 187:0.459327 188:0.0365565 189:0.0527962 190:0.0876666 191:0.0511084 192:0.0137464 193:0.0677806 194:0.102935 195:0.162684 196:0.165147 197:0.318374 198:0.231771 199:0.0100682 200:0.0442683 201:0.0634958 202:0.0793055 203:0.171011 204:0.324407 205:0.208395 206:0.0895566 207:0.180456 208:0.319595 209:0.0145255 210:0.230365 211:0.283908 212:0.103563 213:0.355825 214:0.34561 215:0.135962 216:0.0474909 217:0.0265428 218:0.158338 219:0.0420463 220:0.0981112 221:0.344401 222:0.314354 223:0.152599 224:0.10889 225:0.159203 226:0.0272191 227:0.0474524 228:0.291585 229:0.217684 230:0.00989719 231:0.210002 232:0.104879 233:0.191456 234:0.0597822 235:0.0779419 236:0.0430627 237:0.0114662 238:0.0850056 239:0.0499665 240:0.0693439 241:0.113645 242:0.0428139 243:0.284708 244:0.0490956 245:0.22906 246:0.0647549 247:0.10617 248:0.047225 249:0.215115 250:0.0395975 251:0.124097 252:0.0456397 253:0.218215 254:0.172833 255:0.0355026 256:0.121193 257:0.0738325 258:0.0478898 259:0.0577039 260:0.0854519 261:0.139143 262:0.0131648 263:0.330212 264:0.34561 265:0.0929378 266:0.33598 267:0.387711 268:0.292089 269:0.0110767 270:0.0176694 271:0.062345 272:0.0227829 273:0.0916092 274:0.361311 275:0.398421 277:0.00344036 278:0.111056 279:0.144394 280:0.210076 281:0.217129 282:0.169607 283:0.0796325 284:0.123056 285:0.0453685 286:0.0662346 287:0.0731257 288:0.0410291 289:0.249541 290:0.0372984 291:0.0924632 292:0.117738 293:0.0342964 294:0.0199092 295:0.0436599 296:0.0317397 297:0.00966826 298:0.0117673 299:0.0365078 
0.0981060361589412 1:0.00691721 2:0.0032648 3:0.0328573 4:0.0209678 5:0.0142702 6:0.3944 7:0.310748 8:0.0116184 9:0.000170803 10:0.0451251 11:0.0348429 12:0.107375 13:0.186993 14:0.00344947 15:0.0789073 16:0.00149022 17:0.224734 18:0.0736624 19:0.103303 20:0.379964 21:0.319377 22:0.0264888 24:0.239071 25:0.0091006 26:0.0576632 27:0.0165202 28:0.185006 29:0.0783463 30:0.0490185 31:0.0946599 32:0.00848393 33:0.000171093 34:0.0871448 35:0.0382202 36:0.00236519 37:0.00651727 38:0.0649059 39:0.0599712 40:0.24681 41:0.0379805 42:0.130648 43:0.0347133 44:0.00119765 45:0.0323796 46:0.209852 47:0.125668 48:0.0710588 49:0.000807332 50:0.00623679 51:0.000550931 52:0.129102 53:0.0894674 54:0.00233922 55:0.00551581 56:0.289214 58:0.0283573 59:0.0274251 60:0.0127619 61:0.0249922 62:0.109317 63:0.000926882 65:0.201845 66:0.000171482 67:0.0323171 68:0.163789 69:0.0180452 70:0.167639 71:0.00470703 72:0.237684 73:0.293659 74:0.000761438 75:0.318472 76:0.0520936 77:0.238963 78:0.0144548 79:0.0168456 80:0.0607868 81:0.418002 82:0.0245048 83:0.140574 84:0.122935 85:0.09462 86:0.205971 87:0.101833 88:0.207988 89:0.022304 90:0.0030723 91:0.00797161 92:0.00492488 93:0.0395382 94:0.465065 95:0.00501699 96:0.0931309 97:0.044459 98:0.162634 99:0.0322214 100:0.00118763 101:0.0797622 102:0.00343295 103:0.363106 104:0.363106 105:0.405801 106:0.0456963 107:0.0484779 108:0.241569 109:0.128678 110:0.00838816 111:0.00177334 112:0.135718 113:0.0128856 114:0.433706 115:0.0207822 116:0.202629 117:0.043232 118:0.0311349 119:0.260683 120:0.133599 121:0.00910894 123:0.0901566 124:0.108657 125:0.0428706 126:0.180017 127:0.167022 128:0.0532674 129:0.0175764 130:0.00970857 131:0.261057 132:0.286384 133:0.0602663 134:0.155468 135:0.0076393 136:0.0413051 137:0.0425099 138:0.0754456 139:0.209744 141:0.0513328 142:0.0431086 143:0.0266351 144:0.112464 145:0.0220013 146:0.0792788 147:0.0991507 148:0.0972744 149:0.187852 150:0.0133402 151:0.0324711 152:0.0412778 153:0.00421238 154:0.156926 155:0.00165021 156:0.275041 157:0.406083 158:0.0791142 159:0.248245 160:0.0202267 161:0.0419155 162:0.00523712 163:0.433625 164:0.0127067 165:0.212814 166:0.065797 169:0.01553 170:0.005843 171:0.0806817 173:0.00529799 174:0.0445558 175:0.0480173 176:0.0399575 177:0.254944 178:0.00750899 179:0.18183 180:0.0572128 181:0.172062 182:0.170451 183:0.0858993 184:0.32423 185:0.264795 186:0.00166594 187:0.0120777 188:0.00760102 189:0.000372185 190:0.0381557 191:0.125891 192:0.101443 193:0.000550931 195:0.000796595 196:0.0106205 197:0.00457546 198:0.00595298 199:0.38685 200:0.117975 201:0.0309404 202:0.0083202 203:0.0732695 204:0.166532 205:0.195938 206:0.18388 207:0.26743 208:0.111552 209:0.0607057 210:0.330301 211:0.0979358 212:0.0536616 213:0.145502 214:0.466598 215:0.265869 216:0.201678 217:0.0128903 218:0.150716 219:0.0353164 220:0.0261967 221:0.306879 222:0.0599626 223:0.00327156 224:0.163617 225:0.139257 226:0.288963 227:0.0427833 228:0.0916375 229:0.234344 230:0.0634622 231:0.046514 232:0.424359 233:0.00224992 234:0.140759 235:0.0483951 236:0.031933 237:0.00559122 238:0.119298 239:0.0689539 240:0.00346662 241:0.00318678 242:0.290172 243:0.088635 244:0.164519 245:0.0722291 246:0.150774 247:0.0555652 248:0.000875944 249:0.0699377 250:0.00165807 251:0.015848 252:0.0411473 253:0.221665 254:0.155797 255:0.0230198 256:0.0154994 257:0.0270133 258:0.0549051 260:0.0452045 261:0.202485 262:0.0320917 263:0.250108 264:0.383048 265:0.149167 266:0.349835 267:0.294737 268:0.198541 269:0.0556795 270:0.0623872 271:0.126725 272:0.0283129 273:0.0518075 274:0.49217 275:0.31244 278:0.0498754 279:0.363658 280:0.110134 281:0.0218418 282:0.362803 283:0.377888 284:0.248613 285:0.0550456 286:0.0108492 287:0.0876177 288:0.0047767 289:0.392899 290:0.00960402 291:0.212957 292:0.155819 293:0.0144598 294:0.0481976 295:0.172783 296:0.0493156 297:0.096022 298:0.00173206 299:0.015453 
0.2801104627581734 0:0.00319782 1:0.0131663 2:0.141046 3:0.0253507 4:0.0243554 5:0.0246174 6:0.21453 7:0.0717253 8:0.266147 9:0.00639229 10:0.176123 11:0.0968368 12:0.432065 13:0.0209267 14:0.16173 15:0.0517035 16:0.0463783 17:0.127461 18:0.0245756 19:0.186573 20:0.229643 21:0.173031 22:0.131339 23:0.00663962 24:0.0842424 25:0.163052 26:0.0574842 27:0.0642598 28:0.0162617 29:0.110267 30:0.234755 31:0.00384458 32:0.0446907 33:0.0317252 34:0.023794 35:0.00368817 36:0.0149727 37:0.0194589 38:0.173739 39:0.147553 40:0.0618027 41:0.00460127 42:0.0497031 43:0.0562794 44:0.0474617 45:0.153167 46:0.372137 47:0.267088 48:0.0545888 49:0.0298505 50:0.0154148 51:0.0673303 52:0.0702374 53:0.256599 54:0.459015 55:0.190734 56:0.254645 57:0.141662 58:0.116975 59:0.31795 60:0.158877 61:0.0297382 62:0.0175442 63:0.143588 64:0.120732 65:0.115621 66:0.41611 67:0.121804 68:0.15374 69:0.0266028 70:0.446001 71:0.0709849 72:0.22442 73:0.313395 74:0.007201 75:0.0611676 76:0.0952581 77:0.0695925 78:0.0277463 79:0.150708 80:0.0409905 81:0.2418 82:0.311171 83:0.0118582 84:0.0427352 85:0.0878795 86:0.139818 87:0.277401 88:0.0227141 89:0.0395377 90:0.00976965 91:0.00924842 92:0.0175454 93:0.011904 94:0.180545 95:0.111479 96:0.0979322 97:0.04859 98:0.0128641 99:0.141191 100:0.0836283 101:0.0246455 102:0.00148665 103:0.000903563 104:0.200903 105:0.23128 106:0.032965 107:0.404861 108:0.108482 109:0.0271948 110:0.0906934 111:0.00745011 112:0.453329 113:0.195905 114:0.28932 115:0.000636953 116:0.028862 117:0.304664 118:0.177657 119:0.0293594 120:0.176277 121:0.450072 122:0.153237 123:0.0499267 124:0.327116 125:0.103556 126:0.0553412 127:0.290385 128:0.107744 129:0.381192 130:0.067274 131:0.197557 132:0.0174626 133:0.245654 134:0.0546734 135:0.146929 136:0.020776 137:0.128569 138:0.106451 139:0.0251984 140:0.113683 141:0.101088 142:0.0164937 143:0.0147118 144:0.0735105 145:0.195776 146:0.147371 147:0.143109 148:0.051992 149:0.117973 150:0.00550251 152:0.226261 153:0.199169 154:0.140649 155:0.15379 156:0.0364768 157:0.0859986 158:0.302267 159:0.135784 160:0.146801 161:0.0126777 162:0.0287098 163:0.138233 164:0.0652233 165:0.176463 166:0.157176 167:0.0998288 168:0.148931 169:0.0164785 170:0.0836888 171:0.014313 172:0.130989 173:0.138957 174:0.106671 175:0.148176 176:0.0407495 177:0.0502531 178:0.182056 179:0.064845 180:0.0914507 181:0.479165 182:0.2192 183:0.0976445 184:0.0373927 185:0.18523 186:0.0453128 187:0.030586 188:0.00278216 189:0.0610295 190:0.160483 191:0.00150594 192:0.00150594 193:0.107858 194:0.0808959 195:0.201462 196:0.0239317 197:0.213803 198:0.0523832 199:0.286532 200:0.39022 201:0.000636953 203:0.0326623 204:0.124563 205:0.0678034 206:0.142423 207:0.00820743 208:0.0399468 209:0.0143168 210:0.10836 211:0.0927154 212:0.184122 213:0.100353 214:0.2323 215:0.160272 216:0.0136419 217:0.088059 218:0.110068 219:0.0119267 220:0.226451 221:0.299451 222:0.162791 223:0.0785316 224:0.0588936 225:0.0778492 226:0.0949147 227:0.117259 228:0.0257437 229:0.0722924 230:0.215621 231:0.0223774 232:0.442939 233:0.00249832 234:0.197332 235:0.0233271 236:0.0128011 237:0.00307266 238:0.0126101 239:0.137909 240:0.224474 241:0.153252 242:0.225404 243:0.126783 244:0.166283 245:0.00735531 246:0.0920606 247:0.11328 248:0.287322 249:0.126746 250:0.0253737 252:0.00369134 253:0.40996 254:0.0253566 255:0.116609 256:0.0569963 257:0.0306422 258:0.0643673 259:0.0735232 260:0.0129518 261:0.121465 262:0.00905723 263:0.270412 264:0.209306 265:0.103207 266:0.0741438 267:0.0382987 268:0.213876 269:0.0660156 270:0.0485322 271:0.106016 272:0.0411067 273:0.183779 274:0.111345 275:0.0241322 276:0.0765443 277:0.119819 278:0.0158858 279:0.0377143 280:0.212898 281:0.0687885 282:0.0601358 283:0.0736802 284:0.180312 285:0.0671212 286:0.0975105 287:0.18076 288:0.0911772 289:0.0373927 290:0.0203499 291:0.111797 292:0.0535251 293:0.00278133 294:0.00951267 295:0.0139273 296:0.0143161 297:0.0786669 298:0.000796021 299:0.0087488 
0.1725961661567476 0:0.03163 1:0.0536093 2:0.332102 3:0.135532 4:0.0943253 5:0.162027 6:0.304717 7:0.114386 8:0.291944 9:0.0924707 10:0.0152784 11:0.0648536 12:0.208406 13:0.0417778 14:0.46981 15:0.115024 16:0.247714 17:0.0870606 18:0.0653465 19:0.0636263 20:0.249459 21:0.188206 22:0.0743437 23:0.0230488 24:0.166691 25:0.340433 26:0.0464905 27:0.118926 28:0.0500255 29:0.0117125 30:0.109432 31:0.0331406 32:0.170351 33:0.156113 34:0.276866 35:0.0344049 36:0.129848 37:0.10249 38:0.251229 39:0.107957 40:0.0420229 41:0.0312139 42:0.246346 43:0.0383805 44:0.0991898 45:0.144123 46:0.34161 47:0.247898 48:0.140312 49:0.0543786 50:0.17623 51:0.00946 52:0.0019953 53:0.223828 54:0.0810873 55:0.0199424 56:0.121417 57:0.153332 58:0.0975396 59:0.126472 60:0.0208109 61:0.0235986 62:0.0851237 63:0.266516 64:0.0637751 65:0.151928 66:0.123232 67:0.21121 68:0.0728068 69:0.03789 70:0.331926 71:0.085734 72:0.173284 73:0.191968 74:0.0861653 75:0.162604 76:0.0528361 77:0.15216 78:0.0911365 79:0.0412921 80:0.374897 81:0.243086 82:0.0398758 84:0.0290377 85:0.0527648 86:0.113737 87:0.196704 88:0.229993 89:0.0870659 90:0.328882 91:0.0581359 92:0.0751315 93:0.177973 94:0.192064 95:0.101748 96:0.176263 97:0.114322 98:0.311423 99:0.0430404 100:0.139081 101:0.0755254 102:0.0575846 103:0.0646537 104:0.374627 105:0.11039 106:0.29184 107:0.0655167 108:0.0894629 109:0.287677 110:0.175168 111:0.0580229 112:0.424949 113:0.144211 114:0.477332 115:0.00354212 116:0.0792168 117:0.0879496 118:0.109745 119:0.193212 120:0.0625306 121:0.290544 122:0.320734 123:0.0268474 124:0.0247302 125:0.108612 126:0.0264236 127:0.27658 128:0.146205 129:0.0393652 130:0.0692947 131:0.197332 132:0.0371726 133:0.185351 134:0.133345 135:0.292715 136:0.0364963 137:0.094044 138:0.0811601 139:0.0548084 140:0.155087 141:0.0419754 142:0.0257122 143:0.0636367 144:0.254712 145:0.46048 146:0.0329693 147:0.182314 148:0.171412 149:0.0626697 150:0.133438 151:0.000990085 152:0.15913 153:0.120564 154:0.192841 155:0.0467677 156:0.0925786 157:0.154772 158:0.193128 159:0.223017 160:0.218962 161:0.00414107 162:0.189338 163:0.335205 164:0.0364476 165:0.289267 166:0.24762 167:0.334235 168:0.423519 169:0.0168606 170:0.0997773 171:0.0666942 172:0.148902 173:0.0744186 174:0.110265 175:0.0923462 176:0.0409798 177:0.024624 178:0.367986 179:0.0481302 180:0.299962 181:0.119584 182:0.149234 183:0.0415055 184:0.0832904 185:0.0896637 186:0.0420957 187:0.0732955 188:0.322522 189:0.365953 190:0.207187 191:0.021577 192:0.00905329 193:0.00830995 194:0.00493555 195:0.0401651 196:0.0229804 197:0.0479767 198:0.0889063 199:0.465299 200:0.465299 201:0.00354212 202:0.00304406 203:0.00542995 204:0.136668 205:0.255075 206:0.199325 207:0.0579535 208:0.0574389 209:0.0382981 210:0.13689 211:0.135352 212:0.0869079 213:0.196747 214:0.223231 215:0.0998776 216:0.167016 217:0.0292207 218:0.0408431 219:0.106973 220:0.104375 221:0.0668325 222:0.440786 223:0.315417 224:0.104516 225:0.0347485 226:0.17298 227:0.107134 228:0.0310923 229:0.0881855 230:0.123316 231:0.0765129 232:0.408214 233:0.0415274 234:0.0656708 235:0.0541321 236:0.0586319 237:0.00763503 238:0.0375873 239:0.108717 240:0.0950168 241:0.092892 242:0.102716 243:0.0775431 244:0.101064 245:0.0290995 246:0.0570894 247:0.0702446 248:0.19207 249:0.544881 250:0.00469308 251:0.00550036 252:0.0239422 253:0.223414 254:0.075418 255:0.134973 256:0.0950973 257:0.0706179 258:0.0438543 259:0.127913 260:0.0326601 261:0.0238466 262:0.0285049 263:0.264906 264:0.25975 265:0.0841936 266:0.00415616 267:0.217148 268:0.42226 269:0.044387 270:0.0359511 271:0.0771378 272:0.106057 273:0.21289 274:0.107171 275:0.141656 276:0.0889151 277:0.186869 278:0.0759442 279:0.0892021 280:0.0538276 281:0.0655996 282:0.20905 283:0.181515 284:0.16585 285:0.18109 286:0.485494 287:0.301492 288:0.304402 289:0.0817428 290:0.0195148 291:0.127295 292:0.0894039 293:0.0682531 294:0.0722066 295:0.0258059 296:0.0697591 297:0.265008 299:0.0236924 
0.05200287823753783 0:0.00864549 1:0.105294 2:0.0200279 3:0.0145938 4:0.0252811 5:0.00202665 6:0.331708 7:0.0135609 8:0.0211503 9:0.312797 10:0.00399038 11:0.0969673 12:0.0998724 13:0.103605 14:0.362592 15:0.0655612 16:0.0360342 17:0.363345 18:0.00213294 19:0.125555 20:0.121005 21:0.0456222 22:0.047676 23:0.0158537 24:0.00858592 25:0.224384 26:0.0276657 27:0.0062344 28:0.191885 29:0.0185666 30:0.385585 31:0.0642324 32:0.119604 33:0.236109 34:0.0333071 35:0.0383276 36:0.321059 37:0.0613867 38:0.0931404 39:0.225132 40:0.00498495 41:0.021653 42:0.0137875 43:0.0919691 44:0.169852 45:0.0724886 46:0.0438685 47:0.50705 48:0.184038 49:0.211953 50:0.141322 51:0.0506796 52:0.00942818 53:0.0278552 54:0.0876799 55:0.0187476 56:0.0703549 57:0.0174305 58:0.121329 59:0.146379 60:0.00741242 61:0.0642166 62:0.00246861 63:0.126503 64:0.0632541 65:0.183703 66:0.055954 67:0.320979 68:0.180817 69:0.0598079 70:0.138332 71:0.0760977 72:0.0105777 73:0.0908022 74:0.390155 75:0.283646 76:0.0442785 77:0.00514588 78:0.0748718 79:0.0754499 80:0.329026 81:0.202624 82:0.0210136 83:0.0352831 84:0.0635034 85:0.0967209 86:0.0659143 87:0.0123647 88:0.497408 89:0.0526197 90:0.00765295 91:0.119404 92:0.00682756 93:0.0112034 94:0.025727 95:0.107988 96:0.00574748 97:0.000285016 98:0.0329387 99:0.28166 100:0.0273954 101:0.0420814 102:0.140188 103:0.103326 104:0.420135 105:0.0950962 106:0.00514 107:0.108766 108:0.372181 109:0.505173 110:0.147241 111:0.270107 112:0.205924 113:0.0236772 114:0.0838706 115:0.0189534 116:0.00442114 117:0.0194678 118:0.0782653 119:0.0684133 120:0.204613 121:0.0933701 122:0.0143255 123:0.0514223 124:0.00596048 125:0.461308 126:0.263922 127:0.0109111 128:0.0701685 129:0.353771 130:0.0902257 131:0.114274 132:0.38878 133:0.382579 135:0.000659333 136:0.0925424 137:0.219114 138:0.0598529 139:0.0232881 140:0.0338623 141:0.107335 142:0.0467467 143:0.0303917 144:0.0433425 145:0.0770153 146:0.0866109 147:0.0445423 148:0.274577 149:0.00949777 150:0.0119855 151:0.00749261 152:0.0262534 153:0.0119495 154:0.00344335 155:0.00984812 156:0.0873855 157:0.0547611 158:0.0239784 159:6.83767e-005 160:0.174407 161:0.0510267 162:0.158615 163:0.37326 164:0.236406 165:0.12948 166:0.00813723 167:0.243785 168:0.0223807 169:0.0809193 170:0.124293 171:0.144122 172:0.305638 173:0.367896 174:0.0625571 175:0.0902779 176:0.0074018 177:0.0391136 178:0.00517462 179:0.165608 180:0.218726 181:0.0566288 182:0.0117646 183:0.0153243 184:0.343994 185:0.248969 186:0.0837155 187:0.229681 188:0.0172995 189:0.306853 190:0.0204898 191:0.100115 192:0.0512196 193:0.0317606 194:0.0152118 195:0.0242657 196:0.0536115 197:0.115516 198:0.000429119 199:0.0274478 200:0.042887 201:0.0176555 202:0.0147515 203:0.00643425 204:0.130831 205:0.00012285 206:0.000478637 207:0.49689 208:0.106805 209:0.0345562 210:0.305453 211:0.506073 212:0.0455933 213:0.0761227 214:0.13459 215:0.0272934 216:0.0114667 217:0.073614 218:0.356464 219:0.0164046 220:0.176295 221:0.0437682 222:0.00260964 223:0.0126297 224:0.329026 225:0.0655185 226:0.00620377 227:0.154096 228:0.0437509 229:0.16308 230:0.00731815 231:0.0757638 232:0.073812 233:0.0538675 234:0.0532153 235:0.0474652 236:0.0533216 237:0.154296 238:0.033114 239:0.112202 240:0.0623793 241:0.171645 242:0.0514574 243:0.041907 244:0.0265673 245:0.0703893 246:0.0631596 247:0.0537829 248:0.00906995 249:0.040431 250:0.00447811 251:0.00566349 252:0.0230443 253:0.141268 254:0.142748 255:0.0181158 256:0.149215 257:0.0150707 258:0.00099912 259:0.167856 260:0.00353308 261:0.101906 262:0.222719 263:0.0791443 264:0.131296 265:0.295076 266:0.11827 267:0.356982 268:0.260006 269:0.0608145 270:0.0114035 271:0.0490034 272:0.0016624 273:0.0615548 274:0.419751 275:0.372181 277:0.00269539 278:0.0181565 279:0.108411 280:0.249498 281:0.103863 282:0.079553 283:0.321144 284:0.0191258 285:0.146071 286:0.215536 287:0.439198 288:0.263421 289:0.327605 290:0.186511 291:0.00557948 292:0.030706 293:0.0184062 294:0.403444 295:0.18363 296:0.173201 297:0.0184422 298:0.0333695 299:0.145488 
0.2293853400774288 0:0.0744138 1:0.339766 2:0.103359 3:0.0211721 4:0.016835 5:0.0130072 6:0.359716 7:0.0563253 8:0.0438707 9:0.144182 10:0.037133 11:0.0939051 12:0.0259395 13:0.000756851 14:0.367754 15:0.102303 16:0.0954381 17:0.194492 18:0.00170831 19:0.0118527 20:0.104812 21:0.397863 22:0.0839652 23:0.107388 24:0.0981001 25:0.131598 26:0.157348 27:0.0761551 28:0.00826939 29:0.334564 30:0.360175 31:0.0733244 32:0.193309 33:0.0199833 34:0.0364618 35:0.129891 36:0.0646597 37:0.134489 38:0.0739587 39:0.373919 40:0.0199214 41:0.29361 42:0.00740868 43:0.323774 44:0.13285 45:0.0098341 46:0.157822 47:0.281437 48:0.120885 49:0.355291 50:0.350556 51:0.438925 52:0.334564 53:0.292962 54:0.438925 55:0.170299 56:0.00758461 57:0.152637 58:0.0326048 59:0.0514869 60:0.0060445 61:0.046996 62:0.155178 63:0.176244 64:0.202163 65:0.10291 66:0.168986 67:0.0202329 68:0.0338017 69:0.132504 70:0.0346181 71:0.14304 72:0.0423007 73:0.183129 74:0.168352 75:0.358448 76:0.0873642 77:0.059813 78:0.00879916 79:0.0749225 80:0.0671008 81:0.146747 82:0.0168925 83:0.0484116 84:0.235036 85:0.0492813 86:0.00883699 87:0.0828676 88:0.389172 89:0.0858592 90:0.12364 91:0.365038 92:0.295879 93:0.146521 94:0.329022 95:0.0154197 96:0.000437235 97:0.0181634 98:0.00573809 99:0.129213 100:0.0380821 101:0.00276399 102:0.224954 103:0.0137451 104:0.0933971 105:0.0299348 106:0.0340607 107:0.0440943 108:0.352663 109:0.389172 110:0.407453 111:0.197287 112:0.462865 113:0.00782298 114:0.0245489 115:0.171784 116:0.0141078 117:0.00835302 118:0.0262143 119:0.0254271 120:0.0494411 121:0.0825826 122:0.0519565 123:0.343406 124:0.0716771 125:0.373919 126:0.117078 127:0.100074 128:0.118393 129:0.390067 130:0.0637169 131:0.0950159 132:0.0459562 133:0.00944738 134:0.048186 135:0.385845 136:0.235143 137:0.0530216 138:0.172751 139:0.108077 140:0.319284 141:0.149761 142:0.318991 143:0.00125702 144:0.0425661 145:0.041434 146:0.038339 147:0.0219745 148:0.407453 149:0.0185718 150:0.0190278 151:0.116229 152:0.0134324 153:0.0963432 154:0.112935 155:0.0399917 156:0.00353999 157:0.071596 158:0.43156 159:0.0564985 160:0.0161423 161:0.0936914 162:0.057044 163:0.307675 164:0.0726416 165:0.341265 166:0.0178523 167:0.367754 168:0.21131 169:0.0744834 170:0.0269198 171:0.1003 172:0.188264 173:0.225598 174:0.224832 175:0.208106 176:0.0017488 177:0.0232254 178:0.0760123 179:0.205088 180:0.389172 181:0.111111 182:0.169553 183:0.0687185 184:0.11968 185:0.064097 186:0.009694 187:0.0511164 188:0.069423 189:0.000904837 190:0.0320657 191:0.0313918 192:0.0109612 193:0.117287 194:0.0933744 195:0.060453 196:0.00169602 197:0.389003 198:0.0955202 199:0.0118509 200:0.0171235 201:0.104252 202:0.0330039 203:0.0585462 204:0.00941392 205:0.0512518 206:0.254435 207:0.0451726 208:0.0472658 209:0.348776 210:0.300435 211:0.39998 212:0.0153973 213:0.0440012 214:0.343516 215:0.351096 216:0.0140802 218:0.360175 219:0.00202347 220:0.0179171 221:0.360175 222:0.285973 223:0.272536 224:0.25643 225:0.00743495 226:0.117523 227:0.0143801 228:0.112966 229:0.203697 230:0.0612433 231:0.00339451 232:0.384046 233:0.0586986 234:0.00937815 235:0.0134269 236:0.055121 237:0.0549272 238:0.101768 239:0.00737769 240:0.163268 241:0.0106817 242:0.0343743 243:0.0403302 244:0.271116 245:0.254017 246:0.029597 247:0.0249391 248:0.00330767 249:0.0036965 250:0.0372885 251:0.013771 252:0.348776 253:0.0964528 254:0.259946 255:0.179085 256:0.115625 257:0.157405 258:0.304035 259:0.0709746 260:0.0221414 261:0.0798322 262:0.350757 263:0.397863 264:0.0925739 265:0.334505 266:0.360175 267:0.395014 268:0.321022 269:0.0192787 270:0.0244332 271:0.0622897 272:0.011274 273:0.28185 274:0.31165 275:0.426017 276:0.0536037 277:0.0288853 278:0.15476 279:0.04266 280:0.0220066 281:0.0807211 282:0.0711149 283:0.0195337 284:0.0490087 285:0.305575 286:0.0432762 287:0.104733 288:0.0778397 289:0.077398 290:0.026758 291:0.0964158 292:0.00533658 293:0.0660575 294:0.0802259 295:0.136477 296:0.0560905 297:0.0157341 298:0.0267437 299:0.0601251 
0.02115231067885371 0:0.0718366 1:0.421076 2:0.0427193 3:0.0230909 4:0.0299024 5:0.0320519 6:0.33419 7:0.00467048 8:0.0664118 9:0.282888 10:0.00898927 11:0.0711528 12:0.0457228 13:0.00541657 14:0.260456 15:0.0508565 16:0.0235482 17:0.253838 18:0.00745349 19:0.0451808 20:0.33716 21:0.33419 22:0.172698 23:0.0634781 24:0.0584553 25:0.254898 26:0.0807564 27:0.043519 28:0.00518818 29:0.158949 30:0.376244 31:0.00876658 32:0.0436976 33:0.16249 34:0.0130739 35:0.193681 36:0.112411 37:0.0034659 38:0.103195 39:0.357364 40:0.00898807 41:0.15084 42:0.0176809 43:0.319429 44:0.0918622 45:0.00418743 46:0.050389 47:0.32621 48:0.182157 49:0.355343 50:0.257755 51:0.262054 52:0.0289044 53:0.0971087 54:0.535893 55:0.443924 56:0.0167099 57:0.126281 58:0.0233001 59:0.118804 60:0.0102473 61:0.180309 62:0.279718 63:0.181996 64:0.115276 65:0.243407 66:0.0914902 67:0.0611357 68:0.0347175 69:0.348991 70:0.327734 71:0.0723082 72:0.0529041 73:0.33716 74:0.172057 75:0.0506197 76:0.0863004 77:0.11694 78:0.0180107 79:0.0595854 80:0.0733018 81:0.31444 82:0.00954421 83:0.125836 84:0.0150855 85:9.2597e-007 86:0.0010765 87:0.0266134 88:0.431334 89:0.0396371 90:0.161436 91:0.211626 92:0.0949172 93:0.0248504 94:0.250272 95:0.0556308 96:0.000572177 97:0.0257906 98:0.010876 99:0.169499 100:0.0249178 101:0.0273932 102:0.197355 103:0.00404142 104:0.0109898 105:0.00832976 106:0.00259842 107:0.185346 108:0.447702 109:0.431334 110:0.274623 111:0.0183985 112:0.449941 113:0.0283106 114:0.00250581 115:0.209286 116:0.00224389 117:0.0178934 118:0.100761 119:0.0647279 120:0.00982126 121:0.407936 122:0.0630711 123:0.335823 124:0.0142967 125:0.448757 126:0.0903286 127:0.0399844 128:0.0817404 129:0.506452 130:0.0465053 131:0.114577 132:0.0792288 133:0.0720406 134:0.0328705 135:0.364303 136:0.0378083 137:0.0466819 138:0.0285874 139:0.134047 140:0.138367 141:0.0753667 142:0.33716 143:0.0171693 144:0.0261122 145:0.074055 146:0.0475336 147:0.00245445 148:0.347585 149:0.0977585 150:0.0481231 151:0.023317 152:0.0791576 153:0.0197362 154:0.0219053 155:0.259937 156:0.000499806 157:0.0188702 158:0.39777 159:0.0565728 160:0.020348 161:0.031604 162:0.00814724 163:0.372941 164:0.0256768 165:0.24619 166:0.0469431 167:0.230086 168:0.153172 169:0.0392732 170:0.0270377 171:0.023906 172:0.032298 173:0.256013 174:0.220853 175:0.111049 176:0.000696032 177:0.123645 178:0.0401452 179:0.0247418 180:0.431334 181:0.254713 182:0.292046 183:0.0360579 184:0.0812765 185:0.123869 186:0.00649547 187:0.0129135 188:0.114817 189:0.0578459 190:0.000608004 191:0.011516 192:0.00262852 193:0.105825 194:0.0348662 195:0.00646375 196:0.00404185 197:0.410678 198:0.282577 199:0.0426227 200:0.184612 201:0.169641 202:0.0782894 203:0.165734 204:0.0907191 205:0.0115834 206:0.378191 207:0.0323036 208:0.291657 209:0.185496 210:0.372941 211:0.254353 212:0.0205121 213:0.223874 214:0.33419 215:0.0931092 216:0.0268513 217:0.00994196 218:0.376244 219:0.0190692 220:0.0202218 221:0.376244 222:0.0550099 223:0.0361355 224:0.0618579 225:0.0321504 226:0.108973 227:0.00357624 228:0.0862695 229:0.44135 230:0.0655394 231:0.0612926 232:0.464389 233:0.00423441 234:0.03368 235:0.117946 236:0.0472778 237:0.070325 238:0.045559 239:0.0208612 240:0.0802669 241:0.0751004 242:0.052172 243:0.31156 244:0.157234 245:0.342022 246:0.0312031 247:0.0049661 248:0.00048797 249:0.00454671 250:0.364303 251:0.180956 252:0.348041 253:0.348041 254:0.348041 255:0.0758481 256:0.0518271 257:0.3369 258:0.378487 259:0.103698 260:0.0398412 261:0.221768 262:0.256816 263:0.33419 264:0.249308 265:0.161736 266:0.247971 267:0.458173 268:0.31444 269:0.0542902 270:0.0380904 271:0.0563872 272:0.0183335 273:0.0654196 274:0.385093 275:0.447702 276:0.0307855 277:0.0211304 278:0.202339 279:0.0302312 280:0.0259023 281:0.0477045 282:0.0469927 283:0.00652143 284:0.0757622 285:0.245464 286:0.0291064 287:0.0754682 288:0.292973 289:0.072926 290:0.0190934 291:0.0586551 292:0.0337113 293:0.0637924 294:0.030656 295:0.345751 296:0.0126249 297:0.0200189 298:0.0140267 299:0.00274645 
0.1100077897918925 0:0.0467239 1:0.122777 2:0.102605 3:0.0216262 4:0.0717437 5:0.0639391 6:0.332204 7:0.156796 8:0.0978757 9:0.189335 10:0.0172974 11:0.10024 12:0.119626 13:0.0743666 14:0.118163 15:0.0466454 16:0.158889 17:0.353616 18:0.0596672 19:0.0964195 20:0.33401 21:0.351329 22:0.0291826 23:0.122031 24:0.024597 25:0.0916507 26:0.0481114 27:0.148512 28:0.0204497 29:0.0650887 30:0.364947 31:0.0392054 32:0.0494041 33:0.0978031 34:0.0171524 35:0.0266005 36:0.196122 37:0.0079669 38:0.067249 39:0.292677 40:0.00115315 41:0.0478285 42:0.0146555 43:0.185003 44:0.0549593 46:0.421042 47:0.381649 48:0.153993 49:0.27102 50:0.343993 51:0.165686 52:0.0115476 53:0.0414543 54:0.462917 55:0.294846 56:0.315255 57:0.133807 58:0.0484378 59:0.0532178 60:0.0137537 61:0.178342 62:0.13165 63:0.396652 64:0.0558112 65:0.117308 66:0.0554251 67:0.159024 68:0.0912159 69:0.096009 70:0.37009 71:0.000998193 72:0.147209 73:0.33401 74:0.179393 75:0.0255942 76:0.0590441 77:0.282735 78:0.00101367 79:0.145097 80:0.160148 81:0.363909 82:0.020487 83:0.184206 84:0.0544988 85:0.00145328 86:0.000749812 87:0.0290513 88:0.407665 89:0.0687217 90:0.118602 91:0.129628 92:0.114534 93:0.0107185 94:0.313939 95:0.0193682 96:0.0298182 97:0.000553592 98:0.00166186 99:0.0792999 100:0.124256 101:0.00485053 102:0.0201861 103:0.00452483 104:0.0420311 105:0.25931 106:0.0263075 107:0.245218 108:0.387051 109:0.407665 110:0.273158 111:0.0724696 112:0.392439 114:0.00427155 115:0.317908 116:0.0223277 117:0.0839305 118:0.0309431 119:0.00239673 120:0.045172 121:0.074213 122:0.0268025 123:0.227114 124:0.0541852 125:0.502735 126:0.128992 127:0.035527 128:0.0660915 129:0.421867 130:0.00429234 131:0.454867 132:0.0596913 133:0.106829 134:0.041476 135:0.338822 136:0.0584247 137:0.0173651 138:0.0113265 139:0.233958 140:0.0507106 141:0.107473 142:0.33401 144:0.0360628 145:0.0753999 146:0.127223 147:0.000260686 148:0.393918 149:0.0783733 150:0.0321233 151:0.145153 153:0.0633738 154:0.112297 155:0.287628 156:0.22811 157:0.0617746 158:0.196382 159:0.244074 160:0.0259058 161:0.056642 162:0.00768073 163:0.365078 164:0.00504673 165:0.381649 166:0.0721721 167:0.112293 168:0.0346212 169:0.0328744 170:0.00327882 171:0.0338737 172:0.135954 173:0.324057 174:0.211778 175:0.0275724 176:0.00459183 177:0.141822 178:0.229429 179:0.00154492 180:0.334597 181:0.0524026 182:0.0767504 183:0.0463883 184:0.0636006 185:0.152453 186:0.00275207 187:0.0496745 188:0.0879006 189:0.0577707 190:0.0557436 191:0.0475427 192:0.00995791 193:0.0985503 194:0.0645826 195:0.0425152 196:0.00789484 197:0.315255 198:0.0509103 199:0.0514818 200:0.228229 201:0.250106 202:0.127124 203:0.179253 204:0.253197 205:0.259184 206:0.28478 207:0.000740861 208:0.37009 209:0.0233348 210:0.365078 211:0.0240954 212:0.158382 213:0.0648588 214:0.351329 215:0.310237 216:0.00581366 217:0.0327797 218:0.364947 219:0.00281498 220:0.00681044 221:0.354751 222:0.147446 223:0.167877 224:0.0891154 225:0.0674271 226:0.0434874 227:0.0125078 228:0.13426 229:0.463974 230:0.0485987 231:0.0694693 232:0.366735 234:0.0632073 235:0.0726727 236:0.0214732 238:0.0488677 240:0.201502 241:0.0263174 242:0.454867 243:0.0364186 244:0.410166 245:0.29365 246:0.0141676 247:0.00503816 248:0.000680521 249:0.00256693 250:0.233969 251:0.256881 252:0.21451 253:0.37009 254:0.37009 255:0.0603208 256:0.00232634 257:0.27369 258:0.252632 259:0.0349222 260:0.0408156 261:0.231872 262:0.33401 263:0.351329 264:0.156348 265:0.364947 266:0.364947 267:0.411323 268:0.306397 269:0.0377235 270:0.027246 271:0.0234013 272:0.0164058 273:0.137782 274:0.343422 275:0.387051 276:0.160266 277:0.134782 278:0.029707 279:0.022809 280:0.0439386 281:0.0147721 282:0.0229693 283:0.000855757 284:0.0592117 285:0.302492 286:0.0803131 287:0.270422 288:0.244717 289:0.0580002 290:0.0168731 291:0.0495746 292:0.0466332 293:0.149019 294:0.00183514 295:0.156729 296:0.0349956 297:0.00963885 298:0.0061412 299:0.000104835 
0.1010552089576417 0:0.028479 1:0.025828 2:0.0199318 3:0.0976922 4:0.0570018 5:0.00871579 6:0.0478464 7:0.0359979 8:0.0082124 9:0.0715505 10:0.207582 11:0.24012 12:0.0468891 13:0.223658 14:0.00165324 15:0.0523051 16:0.0279422 17:0.374037 18:0.00946689 19:0.182775 20:0.0246786 21:0.0779513 22:0.115691 23:0.0402692 24:0.135342 25:0.00537522 26:0.294324 27:0.0525547 28:0.0164128 29:0.00200293 30:0.353592 31:0.0159664 32:0.264894 33:0.0648447 34:0.0158962 35:0.201049 36:0.0857976 37:0.0236674 38:0.0736509 39:0.0793252 40:0.151004 41:0.00854488 42:0.0428061 43:0.110079 44:0.0777797 45:0.0920043 46:0.0960758 47:0.379967 48:0.262452 49:0.00495388 50:0.0135075 51:0.0838423 52:0.238923 53:0.251345 54:0.0346357 55:0.23469 56:0.12019 57:0.0101543 58:0.126382 59:0.2477 60:0.11853 61:0.257205 62:0.0142355 63:0.0425379 64:0.381371 65:0.0898266 66:0.231332 67:0.174064 68:0.243093 69:0.179122 70:0.177046 71:0.103293 72:0.0225579 73:0.0083957 74:0.0112749 75:0.0499715 76:0.144974 77:0.0725538 78:0.073401 79:0.0428614 80:0.166368 81:0.185846 82:0.019762 83:0.0654584 84:0.205276 85:0.158862 86:0.27887 87:0.276107 88:0.0780956 89:0.0522365 90:0.00646469 91:0.00442063 92:0.0769378 93:0.0647776 94:0.150131 95:0.146826 96:0.000980103 97:0.155785 98:0.186298 99:0.0371027 100:0.0184628 101:0.0592498 102:0.00953308 103:0.251149 104:0.00237288 105:0.0084377 106:0.00838679 107:0.29142 108:0.532995 109:0.0858789 110:0.109587 112:0.0199952 113:0.0379819 114:0.0713395 115:0.302056 116:0.0111914 117:0.0717922 118:0.111525 119:0.0329343 120:0.102413 121:0.106959 122:0.00016165 123:0.0390309 124:0.0671005 125:0.130208 126:0.149279 127:0.342158 128:0.181933 129:0.304411 130:0.138241 131:0.0389073 132:0.106891 133:0.300334 134:0.00337377 135:0.0108554 136:0.108377 137:0.135518 138:0.039082 139:0.162721 140:9.0401e-005 141:0.0501209 142:0.22631 143:0.0402911 144:0.0781774 145:0.0267198 146:0.315281 147:0.0657565 148:0.0495745 149:0.361397 150:0.0945276 151:0.0463786 152:0.305364 153:0.0755172 154:0.051878 155:0.271548 156:0.103129 157:0.052864 158:0.0719528 159:0.0578963 160:0.061994 161:0.0956177 162:0.0529981 163:0.0771293 164:0.0888563 165:0.0827785 166:0.317951 167:0.00380963 168:9.0401e-005 169:0.318448 170:0.167791 171:0.250189 172:0.240369 173:0.0971973 174:0.108857 175:0.247289 176:0.116677 177:0.198838 178:0.0295102 179:0.0972226 180:0.0472387 181:0.126668 182:0.0652937 183:0.106666 184:0.218636 185:0.214247 186:0.00756271 187:0.00154942 188:0.00828483 189:0.032794 190:0.443671 191:0.264217 192:0.303603 193:0.054504 194:0.117532 195:0.0671349 196:0.09314 197:0.295377 198:0.118837 199:0.00376106 200:0.0119643 201:0.0881187 202:0.0671534 203:0.0255114 204:0.0173387 205:0.0506485 206:0.0491054 207:0.19871 208:0.206304 209:0.14593 210:0.171663 211:0.176463 212:0.181274 213:0.29437 214:0.255787 215:0.100967 216:0.00753127 217:0.079505 218:0.251303 219:0.0406211 220:0.0303997 221:0.129031 222:0.223582 223:0.245083 224:0.058753 225:0.298312 226:0.0403581 227:0.0373923 228:0.238004 229:0.172726 230:0.0393561 231:0.0819094 232:0.359462 233:0.0520993 234:0.361989 235:0.00427891 236:0.0175739 237:0.0264769 238:0.0131388 239:0.198574 240:0.109906 241:0.174119 242:0.102317 243:0.0561933 244:0.00463475 245:0.151568 247:0.232479 248:0.00361361 250:0.284957 251:0.166906 252:0.127674 253:0.164767 254:0.256085 255:0.136548 256:0.134518 257:0.230226 258:0.0667727 259:0.261465 260:0.0669328 261:0.0369879 262:0.250614 263:0.0243369 264:0.321088 265:0.174226 266:0.0933057 267:0.0326112 268:0.0931612 269:0.0745293 270:0.00536843 271:0.0200578 272:0.249371 273:0.129477 274:0.335202 275:0.00300796 276:0.00131498 277:0.0303594 278:0.116606 279:0.244444 280:0.158755 281:0.0530255 282:0.0435754 283:0.36525 284:0.342158 285:0.113923 286:0.316066 287:0.1618 288:0.282408 289:0.0585433 290:0.0210307 291:0.287897 292:0.371851 293:0.000605331 294:0.0171742 295:0.00812328 296:0.0829508 297:0.0896522 298:0.0509983 299:0.312977 
