svm_type c_svc
kernel_type linear
nr_class 3
total_sv 53
rho 0.233327 0.0874205 0.21414
label 27456 27458 27600
probA -3.73145 -3.78764 -4.06214
probB 0.271543 0.605836 0.271586
nr_sv 18 20 15
SV
0.01302594121349753 0.008692683618740633 0:0.261799 1:0.379797 2:0.0135535 3:0.00579011 4:0.268899 5:0.0142887 6:0.381691 7:0.360182 8:0.0873784 9:0.379797 10:0.0571487 11:0.0260689 12:0.19291 13:0.0326677 14:0.381691 15:0.0041594 16:0.323046 17:0.0149573 18:0.323046 19:0.0777842 20:0.0261599 21:0.308248 22:0.0151031 23:0.0333985 24:0.143256 25:0.282763 26:0.0273608 27:0.238379 28:0.130492 29:0.104671 30:0.0362176 31:0.0782103 32:0.381691 33:0.0709655 34:0.10823 35:0.298631 36:0.416599 37:0.381691 38:0.150733 39:0.207212 40:0.108276 41:0.00256432 42:0.425827 43:0.166155 44:0.346689 45:0.112328 46:0.0154463 47:0.0560643 48:0.0381024 49:0.318634 50:0.0143384 51:0.0605274 52:0.0100146 53:0.0302878 54:0.182673 55:0.0536109 56:0.00908066 57:0.0319102 58:0.0955907 59:0.0500093 60:0.0717198 61:0.254413 62:0.0776596 63:0.441574 64:0.181051 65:0.102782 66:0.0337744 67:0.0105213 68:0.0892203 69:0.0402998 70:0.0647933 71:0.00657143 72:0.346689 73:0.356865 74:0.0846467 75:0.0326422 76:0.238472 77:0.0295858 78:0.345399 79:0.136548 80:0.100831 81:0.0500669 82:0.318634 83:0.233869 84:0.0273893 85:0.0562924 86:0.257416 87:0.021283 88:0.336238 89:0.000215717 90:0.425827 91:0.0753811 92:0.0301785 93:0.0907587 94:0.00261482 95:0.00266208 96:0.00797787 97:0.1551 98:0.0701074 99:0.0798447 100:0.237948 101:0.283794 102:0.0183483 103:0.1754 104:0.318634 105:0.161718 106:0.149404 107:0.249584 108:0.0012595 109:0.00474659 110:0.0288391 111:0.163332 112:0.0636233 113:0.0129917 114:0.155503 115:0.0579411 116:0.0124989 117:0.0208315 118:0.082612 120:0.0133931 121:0.315134 122:0.0347799 123:0.00640301 124:0.0739333 125:0.00277417 126:0.216582 127:0.0756338 128:0.0604239 129:0.069636 130:0.19169 131:0.000173849 132:0.0210972 133:0.146903 134:0.00654586 135:0.364789 136:0.0115456 137:0.143697 138:0.519628 139:0.441574 140:0.165089 141:0.164272 143:0.214023 144:0.0337689 145:0.198498 146:0.0106607 147:0.189287 148:0.0954134 150:0.237859 151:0.00235519 152:0.0227646 153:0.0723692 154:0.032712 155:0.0223559 156:0.146255 157:0.227603 158:0.0502389 159:0.018086 160:0.00987013 161:0.0376346 162:0.103947 163:0.122785 164:0.385466 165:0.364028 166:0.196209 167:0.0978618 168:0.0261031 169:0.0105267 170:0.292015 171:0.0627064 172:0.00555709 173:0.0425212 175:0.072014 176:0.00476256 177:0.416599 178:0.00141175 179:0.0116967 180:0.049235 181:0.0555631 182:0.345399 183:0.250042 184:0.118895 185:0.0122227 186:0.00663166 187:0.0565117 188:0.318634 189:0.252667 190:0.235539 191:0.0489812 192:0.307938 193:0.251298 194:0.0189503 195:0.208081 196:0.00194119 197:0.194845 198:0.0244193 199:0.337932 200:0.00516622 201:0.0684192 202:0.321835 203:0.00438362 204:0.401097 205:0.00164689 206:0.000694265 207:0.00894997 208:0.00578503 209:0.00178764 210:0.0137413 211:0.000408256 212:0.024197 213:0.336238 214:0.31182 215:0.111146 216:0.13775 217:0.17847 218:0.258023 219:0.0247373 220:0.436026 221:0.0257327 223:0.00903425 224:0.0178103 225:0.246845 226:0.00481212 228:0.0386404 229:0.0340336 230:0.346689 231:0.00591246 232:0.331832 233:0.238621 234:0.377016 235:0.272201 236:0.0210311 237:0.00283647 238:0.0233688 239:0.0493939 240:0.051321 241:0.193669 242:0.00629766 243:0.00860186 244:0.0049568 245:0.33957 246:0.276356 247:0.0118959 248:0.0873099 249:0.050943 250:0.0892979 251:0.0102858 252:0.110125 253:0.182273 254:0.323046 255:0.150685 256:0.0363574 257:0.227827 258:0.0273964 259:0.0180897 260:0.0643404 261:0.148135 262:0.364789 263:0.364789 264:0.324665 265:0.164085 266:0.0954174 267:0.381052 268:0.0139398 269:0.145769 270:0.102174 271:0.411329 272:0.0588742 273:0.411329 274:0.0144258 275:0.218228 276:0.0437774 277:0.389026 278:0.285198 279:0.0048429 280:0.0720657 281:0.0108927 282:0.337932 283:0.0843942 284:0.338755 285:0.00163958 286:0.0578012 287:0.136056 288:0.0285461 289:0.0654655 290:0.198699 291:0.0466946 292:0.0027038 293:0.370904 294:0.326692 295:0.00174492 296:0.295887 297:0.0195556 298:0.211686 299:0.0127753 300:0.0329166 301:0.00292017 302:0.00443842 303:0.379528 304:0.00112604 305:0.0528125 306:0.0718714 307:0.272043 308:0.163733 309:0.0381269 310:0.276569 311:0.166453 312:0.318365 313:0.0032057 314:0.401703 315:0.0147814 316:0.401703 317:0.00318638 318:0.015383 319:0.413631 320:0.413631 321:0.0701936 322:0.0388079 325:0.00102108 326:0.00286454 328:0.405778 329:0.103814 330:0.0301223 331:0.0925404 332:0.0216621 333:0.356865 334:0.263558 336:0.00684801 337:0.416599 338:0.0213714 339:0.00262025 340:0.0109761 341:0.110106 342:0.285863 343:0.24347 344:0.308248 345:0.0925674 346:0.00621383 347:0.229582 348:0.274393 349:0.0436346 350:0.209472 351:0.0480633 352:0.049163 353:0.378986 354:0.0604843 355:0.142029 356:0.0405402 357:0.109001 358:0.0658216 359:0.258198 360:0.135082 361:0.143025 362:0.201907 363:0.019618 364:0.10327 365:0.034616 366:0.326475 367:0.199684 368:0.31262 369:0.0076479 370:0.323141 371:0.0381972 372:0.0661832 373:0.0155132 374:0.039374 375:0.00459863 376:0.0310056 377:0.0120311 378:0.00541176 379:0.0406052 380:0.146173 381:0.223155 382:0.0328798 383:0.253007 384:0.0229269 385:0.0363101 386:0.00706576 387:0.118609 388:0.00135187 389:0.153113 390:0.401097 391:0.0386507 392:0.00350652 393:0.394206 394:0.0158261 395:0.0215481 396:0.04844 397:0.144102 398:0.0499261 399:0.3207 400:0.336238 401:0.143058 402:0.387885 403:0.320812 404:0.379528 405:0.00979057 406:0.234908 407:0.113302 408:0.243496 409:0.148001 410:0.0424649 411:0.075965 412:0.0360746 413:0.00038187 414:0.370314 415:0.00565392 416:0.00603519 417:0.0749079 418:0.0435933 420:0.0119548 421:0.0945209 422:0.0127831 423:0.00767911 424:0.178917 426:0.275085 427:0.294765 428:0.00524342 429:0.192278 430:0.0199547 431:0.0156619 432:0.0837862 433:0.0353988 434:0.00928662 435:0.0232619 436:0.145543 437:0.106908 438:0.00818853 439:0.00120272 440:0.115884 442:0.0242078 443:0.136128 444:0.0266242 445:0.0733619 446:0.00157215 447:0.211877 448:0.0231791 449:0.0476426 450:0.0839862 451:0.193142 452:0.321409 453:0.141083 454:0.0142985 455:0.0444378 456:0.38457 457:0.38457 458:0.0423098 459:0.38457 460:0.38457 461:0.122799 462:0.121193 463:0.0318166 464:0.015108 465:0.0460649 466:0.158234 467:0.0140688 468:0.0646936 469:0.0485489 470:0.0513514 471:0.154276 472:0.34992 473:0.34992 474:0.0699597 475:0.0187053 476:0.229012 477:0.0100759 478:0.0158779 479:0.178166 480:0.0544861 481:0.185261 482:0.027564 483:0.0154899 484:0.184156 485:0.0894188 486:0.0495757 487:0.134817 488:0.190167 489:0.109344 490:0.337932 491:0.337932 492:0.0732499 493:0.118561 494:0.0482074 495:0.0329535 496:0.440803 497:0.0230569 498:0.0164351 499:0.137413 500:0.00139721 501:0.039889 502:0.00274482 503:0.394206 504:0.0521163 505:0.00273076 506:0.137242 507:0.0622293 508:0.0219733 509:0.01063 511:0.219252 512:0.410904 513:0.383844 514:0.0766968 515:0.063134 516:0.169615 517:0.123755 518:0.00788226 520:0.00481598 521:0.327214 522:0.00075143 523:0.0133405 524:0.218033 525:0.0404272 526:0.425827 527:0.438503 528:0.0556437 529:0.0175733 530:0.266625 531:0.180727 532:0.172024 533:0.00141002 534:0.00384735 535:0.401703 536:0.0126466 538:0.166275 539:0.244367 540:0.0901154 541:0.0610313 542:0.0866252 543:0.238947 544:0.0518619 546:0.0631321 547:0.385466 548:0.0553762 549:0.364028 550:0.00417438 551:0.364028 552:0.00229051 554:0.00287194 555:0.405778 556:0.240664 557:0.405778 558:0.144808 559:0.0638084 560:0.300121 562:0.0317393 563:0.0619481 564:0.323002 565:0.335882 566:0.356865 567:0.143558 568:0.325091 569:0.0296695 570:0.00345825 571:0.0184024 572:0.00435647 573:0.0138761 574:0.00774359 575:0.308248 576:0.308248 577:0.186048 578:0.285148 579:0.252324 580:0.112597 581:0.00568437 582:0.321409 583:0.049066 584:0.261573 585:0.00681301 586:0.251656 587:0.0050454 588:0.11852 589:0.367588 590:0.011335 591:0.339724 592:0.0839299 593:0.165388 594:0.379797 595:0.0759368 596:0.323046 597:0.123882 598:0.0493927 599:0.118337 600:0.321067 601:0.364789 602:0.10086 603:0.0641139 604:0.0308817 605:0.479297 606:0.0365943 607:0.0196382 608:0.132721 609:0.0745603 610:0.00273949 611:0.021841 612:0.0880291 613:0.411329 614:0.0253259 615:0.182243 616:0.369714 617:0.369714 618:0.0738685 619:0.336842 620:0.0363202 621:0.0155072 622:0.0471742 623:0.021592 624:0.289351 625:0.213264 626:0.0292082 627:0.201337 628:0.0202711 629:0.447758 630:0.0756627 631:0.21702 632:0.000515897 633:0.355101 634:0.119514 635:0.113983 636:0.401097 637:0.0318742 638:0.13986 639:0.000871825 640:0.00472712 641:0.340213 642:0.0116957 643:0.0342923 644:0.0827536 645:0.380639 646:0.380639 647:0.0624672 648:0.0139727 649:0.0557643 650:0.214892 651:0.00285779 652:0.410904 653:0.129014 654:0.295164 655:0.0528688 656:0.336238 657:0.0228116 658:0.0109782 659:0.00613211 660:0.0198885 661:0.0433039 662:0.00151002 663:0.00133734 664:0.00558978 665:0.349152 666:0.0737861 667:0.386491 668:0.0112357 669:0.0210598 670:0.0526928 671:0.255682 672:0.148908 673:0.248044 674:0.184546 676:0.213407 677:0.370314 678:0.0485022 679:0.00381042 680:0.0339494 681:0.173747 682:0.00353222 683:0.401703 684:0.0306138 685:0.000130207 689:0.00903425 690:0.0759672 691:0.261414 692:0.0418934 693:0.0163779 694:0.0618321 695:0.413631 696:0.0541405 697:0.0360088 698:0.149376 699:0.272569 700:0.024801 701:0.421258 702:0.0534928 703:0.383296 704:0.0417729 705:0.0240584 706:0.059526 707:0.0818918 708:0.0964851 709:0.0321916 710:0.00435473 711:0.259744 712:0.00592755 714:0.00323264 716:0.364028 717:0.01069 718:0.0273343 719:0.285335 720:0.000279139 721:0.00241488 722:0.00491443 723:0.0569289 725:3.50315e-005 726:0.00420681 727:6.63767e-005 728:0.0104272 730:0.460738 731:0.0126515 732:0.460738 733:0.377016 734:0.0287137 735:0.377016 736:0.307105 737:0.0273296 738:0.00587815 739:0.152133 740:0.00855939 741:0.0170913 742:0.163978 743:0.0305256 744:0.321409 746:0.321409 747:0.090363 748:0.0244279 749:0.0159708 750:0.0331985 751:0.0201734 752:0.0348708 753:0.201152 754:0.34249 755:0.0446694 756:0.136184 757:0.0198277 758:0.016141 759:0.232982 760:0.177733 761:0.0439152 762:0.0236755 763:0.102096 764:0.0763075 765:0.259655 766:0.0161076 767:0.0235982 768:0.0199414 769:0.127554 770:0.266909 771:0.340096 772:0.331935 773:0.0383743 774:0.364789 775:0.0383743 776:0.0431494 777:0.0369951 778:0.0311268 779:0.131355 780:0.0161579 781:0.0385922 782:0.0458896 783:0.00692737 784:0.0700713 785:0.0205396 786:0.0624978 787:0.00756966 788:0.00867797 789:0.141902 790:0.0112132 791:0.064387 792:0.0215732 793:0.0394369 794:0.369714 795:0.00551513 796:0.000492309 797:0.381013 798:0.389026 799:0.00919189 800:0.00162459 801:0.00131299 802:0.0492536 803:0.0805282 804:0.302956 805:0.0740561 806:0.0653781 807:0.235697 808:0.035299 809:0.0283245 810:0.0619185 811:0.0586833 812:0.267285 813:0.0018389 814:0.323852 815:0.024835 817:0.389683 818:0.0769985 819:0.0031066 820:0.00144262 821:0.36859 822:0.209339 823:0.019212 824:0.0460418 825:0.0214277 826:0.370904 827:0.323041 828:0.0775382 829:0.224284 830:0.000491689 831:0.00483721 832:0.0752919 833:0.0359684 834:0.329975 835:0.0105537 836:0.274651 837:0.00346088 838:0.00716623 839:0.0242515 840:0.00371299 842:0.000687997 843:0.0034645 844:0.00190579 845:0.0075337 846:0.0485655 847:0.0606771 848:0.216043 849:0.0219523 850:0.0585818 851:0.0296332 852:0.00328598 854:0.438503 855:0.270882 856:0.0228277 857:0.234721 858:0.165631 859:0.289789 860:0.0415368 861:0.0248582 862:0.30693 863:0.234778 864:0.0497852 865:0.436026 866:0.00768774 867:7.85174e-005 868:0.045141 869:0.0486163 871:0.376463 872:0.0124354 873:0.00278706 874:0.0092298 875:0.0802356 876:0.137086 877:0.0378572 878:0.139489 879:0.175469 880:0.0327729 881:0.0193703 882:0.0220267 883:0.204494 884:0.0368962 885:0.0496564 886:0.00478656 887:0.364028 888:0.197995 889:0.113857 890:0.00939713 891:0.223079 892:0.29159 893:0.346689 894:0.00811826 895:0.346689 896:0.0156505 897:0.0101604 898:0.00266208 899:0.0201785 900:0.0229934 901:0.399168 903:0.0251731 904:0.00802481 905:0.356865 906:0.209054 907:0.0340904 908:0.0293651 909:0.0254966 910:0.0529936 911:0.0821913 912:0.0163978 913:0.154742 914:0.282044 915:0.153946 916:0.0996126 917:0.310178 918:0.036959 919:0.0106962 920:0.0343192 921:0.145283 922:0.0413917 923:0.00489596 924:0.0163171 925:0.15433 926:0.315804 927:0.00784093 928:0.0230567 929:0.00375158 930:0.0396348 931:0.24254 932:0.0358155 933:0.38457 934:0.0104042 935:0.196377 936:0.0311112 937:0.138738 938:0.154893 939:0.041513 940:0.0596279 941:0.10951 942:0.0061009 943:0.138557 944:0.340096 945:0.147843 946:0.340096 947:0.00526149 948:0.0231581 949:0.0555109 951:0.0844729 952:0.117269 953:0.0766905 954:0.213826 955:0.0179121 956:0.00542448 957:0.00354516 958:0.227089 959:0.13032 960:0.00346548 961:0.296197 962:0.000495068 963:0.0029467 964:0.0437688 965:0.251452 966:0.369714 967:0.0257621 968:0.0160387 969:0.0140299 970:0.21045 971:0.0761688 972:0.0203732 973:0.203332 974:0.117111 975:0.0135402 976:0.0648037 977:0.069166 978:0.0560976 979:0.113189 980:0.362659 981:0.0806314 982:0.0739219 983:0.000157025 984:0.183022 985:0.0135522 986:0.0865777 987:0.205099 988:0.0720006 989:0.00675655 990:0.0110746 991:0.394206 992:0.0049445 993:0.0536395 994:0.00607953 995:0.00112721 996:0.11771 997:0.204033 998:0.0630658 999:0.0262934 1000:0.155768 1001:0.232383 1002:0.356074 1003:0.0119239 1004:0.0412254 1005:0.25213 1006:0.0362176 1007:0.0692955 1008:0.00285779 1009:0.410904 1010:0.00165468 1011:0.212368 1012:0.200922 1013:0.0178026 1014:0.269503 1015:0.0296523 1016:0.262485 1017:0.00531664 1018:0.14304 1019:0.387885 1020:0.00995718 1021:0.00902417 1022:0.00102375 1023:0.372794 1024:0.136159 1025:0.224374 1026:0.0291352 1027:0.0223478 1028:0.145989 1029:0.0204764 1030:0.258848 1031:0.0133613 1032:0.0104838 1033:0.0253702 1034:0.0890166 1035:0.0946347 1036:0.0410791 1037:0.0655546 1038:0.000549622 1039:0.00341786 1042:0.30479 1043:0.376463 1045:0.211191 1046:0.00543977 1047:0.00543977 1048:0.000827102 1049:0.0108437 1050:0.026973 1051:0.0642252 1052:0.175193 1053:0.0654688 1054:0.314616 1055:0.347705 1057:0.198511 1058:0.0254271 1059:0.347619 1060:0.026744 1061:0.156092 1062:0.136348 1064:0.0314613 1065:0.0315204 1066:0.00906484 1067:0.0156619 1068:0.00428654 1069:0.00220764 1070:0.0655472 1071:0.119906 1072:0.0025364 1073:0.346689 1074:0.290186 1075:0.244755 1077:0.253166 1078:0.00230596 1079:0.00473005 1080:0.0145247 1081:0.0358263 1082:0.330331 1085:0.0101107 1086:0.360955 1087:0.146045 1088:0.0101968 1089:0.221726 1090:0.381691 1091:0.00553161 1092:0.0175471 1093:0.0535596 1094:0.00169954 1095:0.239129 1096:0.307733 1097:0.0874125 1098:0.0379488 1099:0.0106943 1100:0.219526 1101:0.0451759 1102:0.00402211 1103:0.00479571 1105:0.188069 1106:0.0618225 1107:0.169989 1108:0.0850454 1109:0.147282 1110:0.0950286 1111:0.108527 1112:0.106609 1113:0.318634 1114:0.232268 1115:0.129672 1116:0.145658 1117:0.137124 1118:0.0668604 1119:0.000685961 1120:0.156521 1121:0.0926948 1122:0.43954 1123:0.130594 1124:0.140034 1125:0.0267818 1126:0.0404215 1127:0.0019798 1128:0.0500929 1129:0.0584643 1130:0.00908244 1131:0.101481 1132:0.0166736 1133:0.00846549 1134:0.0455507 1135:0.0567063 1136:0.0300583 1137:0.0626386 1138:0.363478 1139:0.317918 1140:0.103091 1141:0.0359793 1142:0.221625 1143:0.0214675 1144:0.0176352 1145:0.0072874 1146:0.00733078 1147:0.0276626 1148:0.156355 1149:0.447758 1150:0.00397225 1151:0.000850388 1152:0.0576596 1153:0.0143962 1154:0.00372111 1155:0.394206 1156:0.000310782 1157:0.0255406 1158:0.0128767 1159:0.09738 1160:0.370904 1161:0.347249 1162:0.000529034 1163:0.0421558 1164:0.0343197 1165:0.20586 1166:0.0166781 1167:0.00188362 1168:0.380639 1169:0.00591338 1170:0.00101862 1171:0.104524 1172:0.125682 1173:0.201308 1174:0.144906 1175:0.163434 1176:0.196988 1177:0.369794 1178:0.379528 1179:0.0085435 1180:0.024361 1181:0.00896522 1182:0.060538 1183:0.386491 1184:0.0456949 1185:0.221183 1186:0.0764002 1187:0.0310448 1188:0.0584123 1189:0.438503 1190:0.0174881 1191:0.0330199 1192:0.0113995 1193:0.0117004 1194:0.00743396 1195:0.370314 1196:0.00297593 1197:0.0356539 1198:0.305414 1199:0.283956 1200:0.0133911 1201:0.0162385 1202:0.00786045 1203:0.00578972 1204:0.0120544 1205:0.105882 1206:0.0103912 1207:0.24054 1208:0.0919396 1209:0.0581101 1210:0.383296 1211:0.0209279 1212:0.260295 1213:0.107458 1214:0.203526 1215:0.0221377 1216:0.287121 1217:0.00289078 1218:0.0510388 1219:0.264375 1220:0.00366118 1221:0.106643 1222:0.271091 1223:0.399168 1224:0.080283 1228:0.399168 1229:0.301894 1230:0.00627598 1231:0.00468587 1232:0.00207495 1233:0.0349266 1234:0.0492158 1235:0.00713765 1236:0.0207696 1237:0.00306355 1238:0.00243469 1239:0.000977644 1240:0.0178532 1241:0.15234 1242:0.125974 1243:0.250387 1244:0.262957 1245:0.0729666 1246:0.128703 1247:0.0681895 1248:0.0600387 1249:0.154761 1250:0.220553 1251:0.0227567 1252:0.0131347 1253:0.178596 1254:0.0610852 1255:0.125897 1256:0.350342 1257:0.0204835 1258:0.0227735 1259:0.140281 1260:0.0425745 1261:0.119188 1262:0.166542 1263:0.0488646 1264:0.020164 1265:0.0103427 1266:0.286601 1268:0.0113131 1269:0.108468 1270:0.014647 1271:0.01035 1272:0.441574 1273:0.0646247 1274:0.146529 1275:0.0718428 1276:0.00806739 1277:0.116696 1278:0.389026 1279:0.00924059 1280:0.073495 1281:0.00270764 1282:0.0452402 1283:0.225417 1284:0.134811 1285:0.235207 1286:0.0363442 1287:0.0640739 1288:0.0217807 1289:0.0644291 1290:0.355101 1291:0.00196158 1292:0.00706299 1293:0.394206 1294:0.370904 1295:0.130647 1296:0.0360826 1297:0.356074 1298:0.232142 1299:0.0362168 1300:0.0161383 1301:0.063687 1302:0.0501022 1303:0.248532 1304:0.0944764 1305:0.380639 1306:0.0294996 1307:0.00180872 1308:0.00684603 1309:0.194505 1310:0.0317554 1311:0.290929 1312:0.0762177 1313:0.0024149 1314:0.0682666 1315:0.202828 1316:0.0635537 1317:0.119031 1318:0.0451801 1319:0.0173037 1320:0.0360746 1321:0.0364196 1322:0.245631 1323:0.0194214 1324:0.0285583 1325:0.00514277 1326:0.0202637 1327:0.0999975 1328:0.0112973 1329:0.122185 1330:0.399149 1331:0.244119 1332:0.376463 1333:0.224603 1334:0.324502 1335:0.0950445 1336:0.383296 1337:0.385466 1338:0.385466 1339:0.0992265 1340:0.219093 1341:0.016083 1342:0.028872 1343:0.000650117 1344:0.00170179 1345:0.0048327 1346:0.00236571 1347:0.0262652 1348:0.0115914 1349:0.00394286 1350:0.195934 1351:0.00248942 1352:0.0412032 1353:0.399168 1354:0.0142892 1355:0.000489821 1356:0.00619232 1357:0.029258 1358:0.0613816 1359:0.00129885 1360:0.377016 1361:0.377016 1362:0.0826955 1363:0.0038418 1364:0.254345 1365:0.0512601 1366:0.00279896 1367:0.0447941 1368:0.0931388 1369:0.0687747 1370:0.00281659 1371:0.106179 1372:0.345399 1373:0.15565 1374:0.128927 1375:0.00963309 1377:0.00290747 1378:0.0127507 1379:0.0178867 1380:0.173861 1381:0.34992 1382:0.00371745 1383:0.00143402 1384:0.0651548 1385:0.0158809 1387:0.0277756 1388:0.0038269 1389:0.35271 1390:0.29932 1391:0.00344617 1392:0.0395014 1393:0.337932 1394:0.503219 1395:0.0101429 1396:0.0258223 1397:0.0285177 1398:0.355101 1399:0.256217 1400:0.0164065 1401:0.00437448 1402:0.214667 1403:0.0262854 1404:0.0418336 1405:0.0586902 1406:0.0675556 1407:0.0162525 1408:0.0517537 1410:0.212607 1411:0.0494477 1412:0.0239812 1413:0.104128 1414:0.0691454 1415:0.130395 1416:0.105623 1417:0.194125 1418:0.0836648 1419:0.0417116 1420:0.387885 1421:0.364192 1422:0.379528 1423:0.0699987 1424:0.147419 1425:0.139226 1426:0.0992403 1427:0.0205568 1428:0.00246337 1429:0.0933369 1430:0.286756 1431:0.0898112 1432:0.106784 1433:0.1562 1435:0.0387128 1436:0.0115197 1437:0.000549622 1438:0.01343 1440:0.410659 1441:0.0360088 1442:0.254948 1443:0.0060379 1444:0.0243306 1445:0.0462792 1446:0.00421728 1447:0.241326 1449:0.00119086 1450:0.00241488 1452:0.0111279 1454:0.00909197 1455:0.0193301 1456:0.0883178 1457:0.240412 1458:0.0192949 1459:0.0139619 1460:0.146386 1461:0.0452438 1462:0.0604535 1463:0.117365 1464:0.00475111 1465:0.0198263 1466:0.29413 1467:0.15238 1468:0.193931 1469:0.0137387 1470:0.0721055 1471:0.00526149 1472:0.0229201 1473:0.0516875 1474:0.0285307 1475:0.0141112 1476:0.0106628 1477:0.0335252 1478:0.0586461 1479:0.00752017 1480:0.02502 1481:0.00365419 1482:0.0401858 1483:0.0133298 1484:0.0272144 1485:0.257127 1486:0.246887 1487:0.130292 1488:0.0238858 1489:0.00551248 1490:0.0313007 1491:0.0286678 1492:0.000417167 1493:0.0559489 1494:0.0139906 1495:0.00178556 1496:0.080382 1497:0.0458475 1498:0.0660815 
0.0395811294443156 0 0:0.336952 1:0.363969 2:0.0755841 3:0.0215727 4:0.291176 5:0.00650123 6:0.341336 7:0.363969 8:0.0865779 9:0.363969 10:0.243927 11:0.0559672 12:0.139751 13:0.226529 14:0.341336 15:0.0115827 16:0.236993 17:0.0202211 18:0.186242 19:0.0825752 20:0.0187364 21:0.283661 22:0.045238 23:0.038596 24:0.131771 25:0.239014 26:0.142137 27:0.23365 28:0.00951798 29:0.157475 30:0.008174 31:0.406041 32:0.317534 33:0.061589 34:0.0892902 35:0.259524 36:0.377054 37:0.341336 38:0.173009 39:0.336952 40:0.180774 41:0.00106627 42:0.314775 43:0.3035 44:0.397465 45:0.181668 46:0.117572 47:0.101457 48:0.106131 49:0.301957 50:0.0224427 51:0.138643 52:0.00665746 53:0.0305542 54:0.271217 55:0.0623149 56:0.0252395 57:0.0320669 58:0.0859948 59:0.0660566 60:0.156573 61:0.301957 62:0.0469014 63:0.351339 64:0.273693 65:0.270169 66:0.033562 67:0.00185266 68:0.0894049 70:0.0918386 71:0.00719976 72:0.397465 73:0.301194 74:0.349738 75:0.0809297 76:0.0678809 77:0.0891816 78:0.334924 79:0.0206661 80:0.024802 81:0.0193432 82:0.283332 83:0.236781 84:0.00378289 85:0.038881 86:0.274361 87:0.0196406 88:0.330007 90:0.317771 91:0.00147487 92:0.0148016 93:0.121216 94:0.00259874 95:0.00866454 96:0.0182948 97:0.157291 98:0.00137632 99:0.357279 100:0.173311 101:0.336952 102:0.0117752 103:0.0494385 104:0.301957 105:0.0991612 106:0.21282 107:0.45906 108:0.0158239 111:0.236422 112:0.0930206 113:0.00850758 114:0.16687 115:0.0230309 116:0.0452436 117:0.0302286 118:0.11094 119:0.0355173 120:0.0176533 121:0.217203 122:0.242814 123:0.0134975 124:0.148825 125:0.0199937 126:0.317651 127:0.108844 128:0.0589973 129:0.108886 130:0.28734 131:0.00531908 132:0.0219069 133:0.08768 134:0.0030543 135:0.416108 136:0.000405073 137:0.112892 138:0.491459 139:0.459034 140:0.0914736 141:0.109422 142:0.0111039 143:0.112594 144:0.00289829 145:0.133655 146:0.0699013 147:0.333591 148:0.0631877 150:0.315913 151:0.00137793 152:0.106882 153:0.0225916 154:0.160421 155:0.00915862 156:0.29726 157:0.211423 158:0.0624872 159:0.00662395 161:0.0456563 162:0.25264 163:0.0630285 164:0.372629 165:0.359886 166:0.127555 167:0.359886 168:0.0123406 169:0.0191623 170:0.416577 171:0.000644142 172:0.00453107 173:0.11859 174:0.0219381 175:0.0708338 176:0.000954492 177:0.377054 178:0.000496014 179:0.0418322 180:0.28955 181:0.164926 182:0.174633 183:0.116903 184:0.0840895 185:0.0320682 186:0.0485215 187:0.0967344 188:0.0691149 189:0.321403 190:0.368986 191:0.0053682 192:0.229605 193:0.27836 194:0.0723661 195:0.261803 197:0.0480768 198:0.00258761 199:0.382882 200:0.00691479 201:0.014709 202:0.257431 203:0.00543577 204:0.338951 205:0.016193 206:0.00942947 207:0.0312179 208:0.0024042 209:0.00264627 211:0.0143721 212:0.0115193 213:0.278763 214:0.17098 215:0.0736293 216:0.0954776 217:0.168162 218:0.339523 219:0.000499568 220:0.366901 221:0.00543987 222:0.000487665 223:0.0207506 224:0.0128781 225:0.328291 226:0.134544 227:0.0245989 228:0.0619945 229:0.016319 230:0.397465 231:0.0260238 232:0.329025 233:0.23562 234:0.0423607 235:0.0461891 236:0.00649906 237:0.0860323 238:0.100077 239:0.028594 240:0.0825493 241:0.222865 242:0.285185 243:0.0228958 244:0.122936 245:0.251602 246:0.334924 247:0.0251113 248:0.0481809 249:0.106134 250:0.03848 251:0.0158766 252:0.103283 253:0.21669 254:0.202008 255:0.0311989 256:0.0279255 257:0.148165 258:0.00697638 259:0.00218566 260:0.257086 261:0.00110006 262:0.142677 263:0.416108 264:0.402771 265:0.0479186 266:0.0158764 267:0.300634 268:0.0138501 269:0.078459 270:0.216768 271:0.371969 272:0.300056 273:0.371969 274:0.020549 275:0.133434 276:0.00887867 277:0.377498 278:0.0708732 279:0.0188501 280:0.0214989 281:0.027123 282:0.354068 283:0.0490247 284:0.144982 285:0.00614309 286:0.0434307 287:0.197402 288:0.0698483 289:0.0581713 290:0.109308 291:0.00159328 292:0.000920254 293:0.342782 294:0.0159452 295:0.0102714 296:0.073853 297:0.0137091 298:0.0723401 299:0.0624142 300:0.0160853 303:0.292909 304:0.00209145 305:0.0753406 306:0.333899 307:0.333899 308:0.159235 309:0.00774408 310:0.331898 311:0.178823 312:0.319488 313:0.00502554 314:0.268817 315:0.0117866 316:0.34333 317:0.0045567 318:0.0291601 319:0.351306 320:0.351306 321:0.118587 322:0.00196938 323:0.00146541 324:0.00862553 325:0.0317055 326:0.0854194 327:0.000602713 328:0.0928035 329:0.00122465 330:0.142006 331:0.0840755 332:0.158471 333:0.349738 334:0.416577 335:0.00203877 336:0.0387739 337:0.377054 338:0.0449231 339:0.0266939 340:0.0193452 341:0.108234 342:0.204087 343:0.125391 344:0.0374359 345:0.305872 346:0.0277292 347:0.278094 348:0.334924 349:0.00684842 350:0.357279 351:0.00216002 352:0.00428169 353:0.404596 354:0.0440481 355:0.0254963 356:0.336952 357:0.11177 358:0.214294 359:0.0770348 360:0.301957 361:0.141988 362:0.1349 363:0.00924803 364:0.118781 365:0.0888491 366:0.343962 367:0.303477 368:0.0106093 369:0.043015 370:0.371969 371:0.00611928 372:0.0353134 373:0.00670703 374:0.0139795 375:0.0289515 376:0.0374285 377:0.0187623 378:0.00705295 379:0.269792 380:0.382882 381:0.000318141 382:0.0104436 383:0.311935 384:0.0335872 385:0.0325083 386:0.00331073 387:0.17544 388:0.00637633 389:0.273701 390:0.370878 391:0.110655 393:0.330344 394:0.00612015 395:0.00208999 396:0.0455225 397:0.0183053 398:0.00038129 399:0.330007 400:0.330007 401:0.330007 402:0.357321 403:0.294699 404:0.359639 405:0.0102325 406:0.0207245 407:0.111916 408:0.317771 409:0.276732 410:0.056576 411:0.0171117 412:0.00237037 413:0.0159167 414:0.384979 415:0.000582228 416:0.0120049 417:0.0162522 418:0.0203278 419:0.00056154 420:0.0367327 421:0.0451051 422:0.0111376 423:0.0785042 424:0.184861 425:0.0124538 426:0.147276 427:0.359886 428:0.0192401 429:0.0184918 430:0.00037943 431:0.00159202 432:0.0138275 433:0.336988 434:0.0131047 435:0.0192669 436:0.329025 437:0.118169 438:0.0999526 439:0.00904502 440:0.00930213 441:0.001343 442:0.0399125 443:0.416577 444:0.0260799 445:0.0705369 446:0.000500576 447:0.207731 448:0.0507154 449:0.0532234 450:0.063214 451:0.108733 452:0.2214 453:0.177128 454:0.00400369 455:0.117969 456:0.0781021 457:0.0247476 458:0.00647173 459:0.357279 460:0.357279 461:0.143395 462:0.127598 463:0.0413718 464:0.00674044 465:0.099804 466:0.201155 467:0.027133 468:0.281056 469:0.091653 470:0.0041774 471:0.0547262 472:0.379006 473:0.220981 474:0.154319 475:0.0501362 476:0.0872205 477:0.0132816 478:0.00878459 479:0.357347 480:0.102208 481:0.0936904 482:0.0253789 483:0.0171455 484:0.366753 485:0.0355542 486:0.00564598 487:0.0073612 488:0.109883 489:0.00405074 490:0.382882 491:0.207545 492:0.0207801 493:0.00399748 494:0.0325728 495:0.0267479 496:0.412965 497:0.041347 498:0.022657 499:0.148324 500:0.022571 501:0.0222683 503:0.316611 504:0.00119785 506:0.371847 507:0.00173839 508:0.082091 509:0.00307033 511:0.370868 512:0.370868 513:0.271406 514:0.0551955 515:0.0069911 516:0.111134 517:0.220764 518:0.00259794 519:0.00121583 521:0.359639 523:0.00528046 524:0.273361 525:0.0155082 526:0.317771 527:0.339523 528:0.0257834 529:0.0183198 530:0.384979 531:0.366901 532:0.199402 534:0.0139138 535:0.34333 536:0.0216932 537:0.0028947 538:0.195041 539:0.328291 541:0.00598639 542:0.02786 543:0.140181 544:0.185995 545:0.0409944 546:0.0196489 547:0.351866 548:0.159713 549:0.359886 550:0.00365376 551:0.291843 552:0.0531656 553:0.00624432 554:0.0416902 555:0.0515594 556:0.20277 557:0.0507848 558:0.311307 559:0.0281497 560:0.349449 561:0.000551324 562:0.300428 563:0.349738 564:0.289494 565:0.349738 566:0.349738 567:0.0653915 568:0.234725 569:0.00917623 570:0.0194967 571:0.0127205 572:0.0130111 573:0.00442918 574:0.0139889 575:0.305872 576:0.277101 577:0.102107 578:0.093308 579:0.23165 580:0.0602187 581:0.0465797 582:0.102799 583:0.320806 584:0.334924 585:0.0236973 586:0.0882721 587:0.0127399 588:0.260752 589:0.404596 590:0.0144759 591:0.174195 592:0.0639446 593:0.123126 594:0.246478 595:0.154598 596:0.123138 597:0.0514145 598:0.0450876 599:0.012465 600:0.312225 601:0.307262 602:0.0283429 603:0.173245 604:0.0192318 605:0.457293 606:0.0668274 607:0.0043217 608:0.251727 609:0.0298337 610:0.0594407 611:0.00571966 612:0.0307985 613:0.371969 614:0.0232055 615:0.213026 616:0.366753 617:0.366753 618:0.0066336 619:0.118734 620:0.00554527 621:0.0181263 622:0.0117767 623:0.0230911 624:0.109423 625:0.0530278 626:0.0527944 627:0.187056 628:0.00273388 629:0.412965 630:0.0544648 631:0.333591 632:0.0525001 633:0.333591 634:0.181992 635:0.102359 636:0.370878 637:0.0187654 638:0.309439 639:0.0063119 641:0.354611 642:0.00341284 643:0.0418921 644:0.13205 645:0.203612 646:0.42096 647:0.00341044 648:0.00670151 650:0.269331 651:0.00135688 652:0.370868 653:0.0420123 654:0.287255 655:0.152736 656:0.264013 657:0.0266078 658:0.00167681 659:0.000795888 660:0.00380111 661:0.0868028 663:0.0132572 664:0.0247807 665:0.212445 666:0.118129 667:0.333899 668:0.0669277 669:0.0673904 670:0.070864 671:0.310523 672:0.252699 673:0.339523 674:0.0727783 675:0.00225008 676:0.339523 677:0.384979 678:0.0348983 679:0.0126376 680:0.0335499 681:0.09198 682:0.00464523 683:0.34333 684:0.00335264 685:0.000650957 686:0.00714134 687:0.00161158 688:0.000292599 689:0.0134004 690:0.109168 691:0.351306 692:0.139181 693:0.0114142 694:0.0150605 695:0.351306 696:0.241683 697:0.029049 698:0.0951354 699:0.134452 700:0.0150597 701:0.328291 702:0.0300892 703:0.406666 704:0.121781 705:0.029618 706:0.0705206 707:0.107453 708:0.0377272 709:0.0229603 710:0.0100004 711:0.201899 712:0.0102277 714:0.0238609 716:0.359886 717:0.0998905 718:0.00753805 719:0.0377267 720:0.00102121 721:0.00456467 722:0.0244175 723:0.00493696 724:0.0255576 725:0.000328407 726:0.0332368 727:0.00247937 728:0.00544113 729:0.00923118 730:0.392301 731:0.0511046 732:0.124342 733:0.406041 734:0.195393 735:0.406041 736:0.266613 737:0.0387144 738:8.12236e-005 739:0.0841809 740:0.0142093 741:0.0038875 742:0.202374 743:0.0395124 744:0.23982 745:0.0461132 746:0.265784 747:0.0470234 748:0.00572617 749:0.048401 750:0.0318868 751:0.00151316 752:0.0213516 753:0.0291965 754:0.378616 755:0.00733559 756:0.096679 757:0.00405604 758:0.00674044 759:0.266066 760:0.105214 761:0.00909991 762:0.0489995 763:0.0156088 764:0.0278592 765:0.299996 766:0.00811249 767:0.0290243 768:0.0226988 769:0.280561 770:0.111448 771:0.343962 772:0.326936 773:0.00654012 774:0.416108 775:0.0064828 776:0.00894884 777:0.0672547 778:0.015133 779:0.258733 780:0.000620405 781:0.0403458 782:0.0218042 783:0.00288579 784:0.19076 785:0.0764203 786:0.0589816 787:0.0141674 788:0.0602762 789:0.103532 790:0.00259838 791:0.016969 792:0.00744581 793:0.00356735 794:0.366753 795:0.0479467 796:0.00323491 797:0.377498 798:0.0810378 799:0.0287019 800:0.0134531 801:0.0252399 802:0.0585534 803:0.0404954 804:0.183156 805:0.0791894 806:0.00239863 807:0.0164206 808:0.0251071 809:0.0207724 810:0.131191 811:0.0511492 812:0.0969984 813:0.00421962 814:0.0915282 815:0.00714865 817:0.323622 818:0.0891766 820:0.0127148 821:0.0101128 822:0.0862922 823:0.0504148 824:0.0747275 825:0.0643568 826:0.0980021 827:0.183191 828:0.308538 829:0.289733 830:0.00914877 831:0.0380144 832:0.0297556 833:0.0103759 834:0.357321 835:0.0172931 836:0.353299 837:0.0368517 838:0.00849741 839:0.000295846 840:0.0482883 841:0.011378 843:0.00536459 844:0.000754352 845:0.00872908 846:0.0989458 847:0.00152263 848:0.317771 849:0.00757245 850:0.0249548 854:0.339523 855:0.339523 856:0.0600507 857:0.1755 858:0.100817 859:0.363623 860:0.0366408 861:0.068315 862:0.366901 863:0.144945 864:0.0395376 865:0.366901 866:0.0187526 867:0.00119261 868:0.0323168 869:0.060846 870:8.022e-005 871:0.364607 872:0.0259766 873:0.0179533 874:0.00934666 875:0.019514 876:0.183095 877:0.00186894 878:0.110983 879:0.174351 880:0.0782552 881:0.0750651 882:0.101819 883:0.168398 884:0.0200047 885:0.102348 886:0.0012108 887:0.31098 888:0.262553 889:0.164727 890:0.0111442 891:0.476107 892:0.476107 893:0.250872 894:0.0125478 895:0.0860109 896:0.0364585 897:0.0575699 898:0.007985 899:0.0406851 900:0.00717824 901:0.287087 902:0.000328407 903:0.00842065 904:0.0183119 905:0.106612 906:0.0249434 907:0.0350887 908:0.0179402 909:0.0172183 910:0.04034 911:0.255545 912:0.0060588 913:0.123369 914:0.165481 915:0.168575 916:0.377054 917:0.341336 918:0.0423026 919:0.00346577 920:0.178153 921:0.167638 922:0.178874 923:0.0216258 924:0.0949817 925:0.255309 926:0.101528 927:0.00960073 928:0.00273772 929:0.0451276 930:0.000554664 931:0.0321056 932:0.0301075 933:0.0963758 934:0.00296197 935:0.21558 936:0.0122786 937:0.14208 938:0.113813 939:0.0320669 940:0.0854961 941:0.230168 942:0.0106838 943:0.0494313 944:0.343962 945:0.0761762 946:0.157014 947:0.000401216 948:0.000866095 949:0.0822846 950:0.000123728 951:0.0263408 952:0.265779 953:0.0274892 954:0.114022 955:0.104996 956:0.0821438 957:0.00404267 958:0.109848 959:0.0151372 960:0.0235409 961:0.459034 962:0.0193396 964:0.0167363 965:0.110839 966:0.366753 967:0.00473185 968:0.00557141 969:0.0317156 970:0.0603976 971:0.0551386 972:0.0549753 973:0.382882 974:0.0485955 975:0.00121648 976:0.0835138 977:0.117484 978:0.0100683 979:0.148128 980:0.412965 981:0.190187 982:0.153941 983:0.00980781 984:0.333591 985:0.0330172 986:0.0909244 987:0.230789 988:0.178032 989:0.0317585 990:0.00884074 991:0.354611 993:0.214206 994:0.004007 995:0.00439372 996:0.342782 997:0.342782 998:0.228528 999:0.0294078 1000:0.0306358 1001:0.212627 1002:0.371847 1003:0.0173802 1004:0.0177623 1005:0.291679 1006:0.0203144 1007:0.162562 1008:0.00976217 1009:0.370868 1010:0.00636846 1011:0.370868 1012:0.148468 1013:0.00295484 1014:0.170347 1016:0.330007 1018:0.108702 1019:0.357321 1020:0.00279469 1021:0.000352762 1022:0.00121392 1023:0.29746 1024:0.204073 1025:0.12763 1026:0.0193281 1028:0.155149 1030:0.366901 1031:0.0129068 1033:0.0134401 1034:0.302616 1035:0.153016 1036:0.0349354 1037:0.256514 1038:0.00834829 1039:0.0656661 1040:0.00204819 1041:0.00920243 1042:0.304516 1043:0.364607 1044:0.000195363 1045:0.276261 1046:0.0117983 1047:0.0306936 1048:0.0235606 1049:0.0214869 1050:8.53213e-005 1051:0.0231924 1052:0.235165 1053:0.0089018 1054:0.406666 1055:0.406666 1056:0.0192054 1057:0.288788 1058:0.108145 1059:0.20724 1060:0.13997 1061:0.198003 1062:0.372629 1063:0.00928324 1064:0.0335898 1065:0.0547634 1066:0.00609166 1067:0.0185736 1068:0.00501474 1069:0.00231781 1070:0.0175524 1071:0.0426737 1072:0.00628261 1073:0.397465 1074:0.110642 1075:0.0595924 1076:0.120249 1077:0.329025 1078:0.0169098 1079:0.0095372 1080:0.0311778 1081:0.197789 1082:0.102396 1083:0.00512852 1084:0.0215736 1085:0.0112347 1086:0.188526 1087:0.117436 1088:0.0913088 1089:0.240696 1090:0.336999 1091:0.0205532 1092:0.168124 1093:0.0251763 1094:0.0581463 1095:0.270208 1096:0.271691 1097:0.0764196 1098:0.205181 1099:0.020178 1100:0.0555201 1101:0.00479004 1102:0.000593633 1103:0.0120749 1104:0.0113582 1105:0.148702 1106:0.0829517 1107:0.23016 1108:0.18991 1109:0.176354 1110:0.273091 1111:0.126465 1112:0.301957 1113:0.217107 1114:0.139685 1115:0.0755956 1116:0.343962 1117:0.0122354 1118:0.044494 1119:0.0440978 1120:0.129767 1121:0.000289637 1122:0.36321 1123:0.0475289 1124:0.0519799 1125:0.301026 1126:0.0503763 1127:0.00939349 1128:0.0997941 1129:0.0461706 1130:0.00939263 1131:0.137929 1132:0.0838966 1133:0.0259035 1134:0.377498 1135:0.117152 1136:0.125859 1137:0.0218466 1138:0.0160142 1139:0.45906 1140:0.06057 1141:0.0230856 1142:0.214876 1143:0.0219759 1144:0.0688735 1145:0.0830718 1146:0.0117844 1147:0.00481142 1148:0.161306 1149:0.412965 1151:0.00815767 1152:0.00845618 1155:0.354611 1156:0.000196847 1157:0.00032855 1158:0.00348332 1159:0.286086 1160:0.342782 1161:0.342782 1163:0.00549296 1164:0.0465433 1165:0.210313 1166:0.0107195 1167:0.00778095 1168:0.226113 1169:0.017459 1170:0.00207583 1171:0.0456369 1172:0.0585354 1173:0.128523 1174:0.164286 1175:0.051772 1176:0.256528 1177:0.357321 1178:0.359639 1179:0.187259 1180:0.00992931 1181:0.0145652 1182:0.0927413 1183:0.333899 1184:0.0367293 1185:0.235157 1186:0.0621296 1187:0.00245812 1188:0.016771 1189:0.339523 1190:0.00063152 1191:0.00496046 1192:0.0511252 1193:0.00757287 1194:0.00147699 1195:0.384979 1196:0.00455843 1197:0.00205299 1198:0.34333 1199:0.328263 1200:0.172525 1201:0.00543987 1202:0.031275 1203:0.0193232 1204:0.039448 1205:0.209058 1206:0.0189594 1207:0.134411 1208:0.0185371 1209:0.097315 1210:0.0797885 1211:0.0812222 1212:0.106568 1213:0.122377 1214:0.300999 1215:0.0102852 1216:0.065364 1217:0.00094596 1218:0.152715 1219:0.367389 1220:0.00717904 1221:0.0469931 1222:0.171075 1223:0.235061 1224:0.158026 1225:0.000970665 1226:0.0226047 1227:0.00191696 1228:0.329025 1229:0.0463801 1230:0.00065786 1231:0.000509257 1232:0.00907734 1233:0.0123189 1234:0.208633 1235:0.0128392 1236:0.0203711 1237:0.00122326 1238:0.0486286 1239:0.00133231 1240:0.0407909 1241:0.156152 1242:0.179394 1243:0.165851 1244:0.226854 1245:0.0883989 1246:0.121508 1247:0.0657029 1248:0.155241 1249:0.229559 1250:0.0603977 1251:0.162671 1252:0.340402 1253:0.357279 1254:0.00428169 1255:0.00609999 1256:0.297047 1257:0.0278777 1258:0.0416007 1259:0.0674086 1260:0.0162395 1261:0.106109 1262:0.0377386 1263:0.0508234 1264:0.00304957 1265:0.0129792 1266:0.0823966 1267:0.0132536 1268:0.00113466 1269:0.0340541 1270:0.0295186 1271:0.0379799 1272:0.238902 1273:0.0501405 1274:0.132353 1275:0.0205738 1276:0.00699707 1277:0.290678 1278:0.377498 1279:0.0483516 1280:0.244069 1281:0.0108505 1282:0.229801 1283:0.00651091 1284:0.45906 1285:0.45906 1286:0.0317836 1287:0.0822695 1288:0.075853 1289:0.0367316 1290:0.333591 1292:0.00943673 1293:0.354611 1294:0.342782 1295:0.278985 1296:0.00565162 1297:0.249391 1298:0.0810232 1299:0.00177921 1300:0.00262575 1301:0.0162371 1302:0.0166893 1303:0.42096 1304:0.371425 1305:0.42096 1306:0.0154168 1307:0.00175911 1308:0.00495559 1309:0.211448 1310:0.00626582 1311:0.330007 1312:0.0422244 1314:0.0105025 1315:0.333899 1316:0.081421 1317:0.195798 1318:0.0415339 1319:0.00098712 1320:0.0176656 1321:0.0222932 1322:0.118217 1323:0.0186152 1325:0.00273878 1326:0.0184855 1327:0.0382982 1328:0.00349698 1329:0.216004 1330:0.251252 1331:0.364607 1332:0.254452 1333:0.298467 1334:0.328291 1335:0.0263367 1336:0.299823 1337:0.372629 1338:0.372629 1339:0.0344027 1340:0.0329691 1341:0.0725273 1342:0.0142338 1343:0.00155925 1344:0.0431971 1345:0.00767555 1346:0.00217372 1347:0.476107 1348:0.00184504 1349:0.0104138 1350:0.062273 1351:0.00350453 1352:0.0207259 1353:0.285902 1354:0.110136 1355:0.000967546 1356:0.0610055 1357:0.0156167 1358:0.19365 1359:0.00359377 1360:0.171772 1361:0.276055 1362:0.0365314 1363:0.0168207 1364:0.377054 1365:0.018272 1366:0.0137745 1367:0.0654733 1368:0.305872 1369:0.0813901 1370:0.0159623 1371:0.334924 1372:0.171231 1373:0.0144836 1374:0.357279 1376:0.00151573 1378:0.0241322 1379:0.0208594 1380:0.301957 1381:0.379006 1382:0.00226758 1384:0.117886 1385:0.0625182 1386:0.0236193 1387:3.68814e-006 1388:0.0249343 1389:0.366753 1390:0.377498 1391:0.010953 1392:0.0707018 1393:0.0966383 1394:0.129089 1395:0.00551788 1396:0.0933957 1397:0.136039 1398:0.250787 1399:0.228398 1400:0.00288512 1402:0.0608795 1403:0.0406934 1404:0.122657 1405:0.259774 1406:0.105897 1407:0.0151324 1408:0.0607023 1409:0.00510455 1410:0.117286 1411:0.0511794 1412:0.145669 1413:0.0535281 1415:0.0273725 1416:0.124014 1417:0.152174 1418:0.0251236 1419:0.0184658 1420:0.357321 1421:0.359639 1422:0.359639 1423:0.225058 1424:0.206158 1425:0.146081 1426:0.00414591 1427:0.0669948 1428:0.050257 1429:0.0160597 1430:0.148922 1431:0.0458572 1432:0.0551566 1433:0.0438462 1435:0.0141222 1436:0.0122093 1437:0.00198769 1438:0.018602 1439:0.0209651 1440:0.351306 1441:0.0814712 1442:0.210126 1443:0.0150004 1444:0.00602514 1445:0.0511018 1446:0.0464169 1447:0.107586 1448:0.0558548 1449:0.00369945 1450:0.00394645 1451:0.00519707 1452:0.329025 1453:0.000169848 1454:0.00223752 1455:0.0494155 1456:0.056704 1457:0.0642883 1458:0.024646 1459:0.0151727 1460:0.285185 1461:0.0127756 1462:0.0342811 1463:0.0159069 1465:0.0189513 1466:0.404596 1467:0.284883 1468:0.181527 1469:0.00150858 1470:0.23875 1472:0.00397051 1473:0.0957902 1474:0.0890275 1475:0.044511 1476:0.00413516 1477:0.0100237 1478:0.0804434 1479:0.0387722 1480:0.0171774 1481:0.0196467 1482:0.0176137 1483:0.0148265 1484:0.0237874 1485:0.233966 1486:0.0379627 1487:0.151555 1488:0.00457436 1489:0.00238293 1490:0.0373413 1493:0.0608178 1494:0.000592272 1495:0.00451499 1496:0.0654284 1497:0.0852657 1498:0.0854456 1499:8.022e-005 
0.0698596652465243 0.01269091242798211 0:0.318519 1:0.331752 2:0.0478041 3:0.00959586 4:0.331752 5:0.049021 6:0.395727 7:0.185001 8:0.115665 9:0.331752 10:0.204847 11:0.0556839 12:0.203921 13:0.0766683 14:0.395727 15:0.0116879 16:0.20354 17:0.0280089 18:0.161603 19:0.0750751 20:0.0378773 21:0.288589 22:0.0310873 23:0.00812771 24:0.0114851 25:0.318519 26:0.0211498 27:0.294956 28:0.0538957 29:0.136663 30:0.0250608 31:0.204501 32:0.301519 33:0.0585417 34:0.115661 35:0.304264 36:0.234445 37:0.395727 38:0.0390851 39:0.238243 40:0.145202 41:0.0138996 42:0.276866 43:0.362639 44:0.110171 45:0.0440007 46:0.0609837 47:0.0295094 48:0.0511566 49:0.294956 50:0.0205006 51:0.155137 52:0.0212866 53:0.00815606 54:0.232148 55:0.243911 56:0.00583669 57:0.0693046 58:0.247697 59:0.0590551 60:0.0356852 61:0.156479 62:0.241545 63:0.41443 64:0.349777 65:0.177123 66:0.00925122 67:0.0343072 68:0.00308485 71:0.00265413 72:0.108573 73:0.36223 74:0.376148 75:0.0883662 76:0.0334549 77:0.0751622 78:0.247586 79:0.0137338 80:0.257055 81:0.156541 82:0.166366 83:0.0341944 84:0.00185228 85:0.0322386 86:0.143886 87:0.00233063 88:0.247858 90:0.0293675 91:0.00254282 92:0.0277199 93:0.0220628 94:0.0075731 95:0.00507809 96:0.000665327 97:0.287591 98:0.00074922 99:0.357855 100:0.144607 101:0.318519 102:0.0234833 103:0.0996125 104:0.294956 105:0.30435 106:0.157013 107:0.380366 108:0.194684 110:0.00420199 111:0.0850856 112:0.342335 114:0.307179 115:0.0925827 116:0.00615514 117:0.0388208 119:0.00595463 120:0.0243638 121:0.0702532 122:0.230741 123:0.00508374 124:0.00375365 125:0.0146069 126:0.0309978 127:0.0826278 128:0.00263298 129:0.15591 130:0.1923 131:0.113864 132:0.0801856 133:0.00324119 135:0.355454 137:0.359709 138:0.359709 139:0.41443 140:0.0760407 141:0.194212 142:0.000258523 143:0.171913 144:0.0737965 145:0.00131917 146:0.130829 147:0.327452 148:0.0491886 150:0.348479 151:0.0196697 152:0.291867 153:0.0423232 154:0.331695 155:0.00674746 156:0.331695 157:0.125768 158:0.00913424 159:0.00302463 160:0.000254081 162:0.18887 163:0.0427336 164:0.358508 165:0.0271251 166:0.15977 167:0.382125 168:0.0116904 169:0.00772148 170:0.117707 171:0.129151 172:0.0187253 173:0.0158971 174:0.0275173 175:0.0282757 176:0.00598162 177:0.375987 178:0.0152567 179:0.00135943 180:0.0260484 181:0.211697 182:0.334251 183:0.0200691 184:0.0110296 185:0.0215537 186:0.0482512 187:0.0319583 188:0.186589 189:0.0870201 190:0.00746191 191:0.0414796 192:0.0381818 193:0.0947436 194:0.0344891 195:0.349365 196:0.00315664 197:0.0218591 199:0.0573746 200:0.0520468 201:0.00502799 202:0.380366 203:0.00865974 204:0.127491 205:0.0473401 206:0.00382039 207:0.0103394 208:0.04284 209:0.0821986 210:0.000968638 211:0.000314253 212:0.00239248 213:0.062304 214:0.19431 215:0.343337 216:0.0414443 217:0.184396 218:0.161511 219:0.00208239 220:0.419796 221:0.0111832 222:0.00971833 223:0.0121411 225:0.101007 227:6.42163e-005 228:0.0268954 229:0.00103495 230:0.152543 231:0.00433486 232:0.176732 233:0.132082 234:0.065703 235:0.159638 236:0.00698079 237:0.0425509 238:0.00797646 239:0.0351574 240:0.0149064 241:0.264043 242:0.0135791 243:0.00327816 244:0.0090939 245:0.334251 246:0.0539036 247:0.0205959 248:0.272171 249:0.0133583 250:0.227206 251:0.0335528 252:0.0325038 253:0.318519 254:0.315236 255:0.234082 256:0.126007 257:0.117636 258:0.0733745 259:0.00527258 260:0.325745 261:0.000296653 262:0.0655929 263:0.29121 264:0.359709 265:0.0200055 266:0.00567705 267:0.277498 268:0.0180019 269:0.0667239 270:0.269756 271:0.348498 272:0.103543 273:0.349365 274:0.0194999 275:0.210765 277:0.216508 278:0.176276 279:0.0111051 280:0.0209292 281:0.390373 282:0.19504 283:0.00598298 284:0.0701136 285:0.111028 286:0.00444215 287:0.179158 288:0.189793 289:0.304264 290:0.114153 291:0.0435217 292:0.22823 293:0.259987 294:0.0131655 295:0.0024024 296:0.00346623 297:0.0450212 298:0.000329232 299:0.238026 300:0.0398173 303:0.353839 304:0.00876265 305:0.125806 306:0.245395 307:0.343337 308:0.351048 309:0.00509412 310:0.419796 311:0.284296 312:0.270446 313:0.0235263 314:0.307007 315:0.00401493 316:0.359586 317:0.00567095 318:0.0174791 319:0.332239 320:0.384514 321:0.000252368 322:0.00262312 325:0.0105745 326:0.00388023 327:0.00596755 328:0.39314 329:0.209703 330:0.0388645 331:0.365514 332:0.0258627 333:0.378654 334:0.4241 335:0.00465729 336:0.027029 337:0.375987 338:0.0144828 339:0.00820037 340:0.0195703 341:0.0224297 342:0.288589 343:0.249169 344:0.132511 345:0.129991 346:0.00157979 347:0.334251 348:0.249044 349:0.000526206 350:0.357855 351:0.0554051 352:0.0318728 353:0.40586 354:0.00893751 355:0.106342 356:0.148053 357:0.171834 358:0.0588906 359:0.0475451 360:0.294956 361:0.163785 362:0.127309 363:0.0398837 364:0.0388362 366:0.00580144 367:0.244631 368:0.00496582 369:0.094019 370:0.286593 371:0.00420355 372:0.0319892 373:0.00795657 374:0.125284 376:0.285674 377:0.0152131 378:0.0587621 379:0.316746 380:0.390373 381:0.0262256 382:0.00700295 383:0.366747 384:0.366747 385:0.0290783 387:0.366747 388:0.0149891 389:0.237611 390:0.304264 391:0.0863428 393:0.348479 394:0.118638 395:0.00590225 396:0.0508035 397:0.00091808 398:0.0127759 399:0.30318 400:0.293541 401:0.362495 402:0.331695 403:0.334566 404:0.353839 405:0.127131 406:0.0168645 407:0.26196 408:0.351048 409:0.351048 410:0.18621 411:0.15944 412:0.0308038 413:0.0095679 414:0.331105 416:0.00608774 417:0.0182146 418:0.0182146 419:0.000492956 420:0.151287 421:0.0413951 422:0.0066114 423:0.000451821 424:0.259426 426:0.0503688 427:0.138631 428:0.0113757 429:0.00481836 430:0.00285649 431:0.00894138 432:0.000281246 433:0.0356011 434:0.0160594 435:0.0101703 436:0.0532073 437:0.040883 438:0.00467425 439:0.0555721 440:0.0639078 441:0.00051562 442:0.00506617 443:0.4241 444:0.0620466 445:0.127941 446:0.0116215 447:0.209279 448:0.00895194 449:0.0330964 450:0.0927943 451:0.252593 452:0.0715908 453:0.00351684 454:0.000449532 455:0.0254621 456:0.215227 457:0.194968 458:0.000228184 459:0.315076 460:0.357855 461:0.348063 462:0.00467876 463:0.00463978 464:0.0107493 465:0.13781 466:0.06898 467:0.156485 468:0.235307 469:0.0601671 470:0.164118 471:0.250813 472:0.30435 473:0.210355 474:0.30435 475:0.199154 476:0.00134552 477:0.0117492 479:0.221846 480:0.0215655 481:0.0589678 482:0.132053 483:0.0244417 484:0.363338 485:0.0713277 486:0.00515631 487:0.0383512 488:0.0188988 489:0.0473441 490:0.0304147 491:0.0197032 492:0.000326788 494:0.0500144 495:0.0158969 496:0.366747 497:0.00540471 498:0.00489732 499:0.157778 500:0.00813598 501:0.327452 502:0.00251425 503:0.348479 504:0.0387742 505:0.0149612 506:0.26004 507:0.0156079 508:0.25901 509:0.00485268 510:0.00277709 511:0.196848 512:0.379774 513:0.325695 514:0.0502062 515:0.00180681 516:0.347848 517:0.104615 518:0.00285823 519:0.011996 521:0.353839 522:0.00447047 523:0.00639837 524:0.351048 525:0.00278362 526:0.351048 527:0.362639 528:0.0159047 529:0.0235688 530:0.383899 531:0.215261 532:0.359586 535:0.160894 536:0.0409307 538:0.0306215 539:0.352711 540:0.0025045 541:0.0184561 542:0.00158195 543:0.356459 544:0.0322394 546:0.0214035 547:0.358508 548:0.0260941 549:0.382125 550:0.00634471 551:0.382125 552:0.00532652 554:0.0262858 555:0.39314 556:0.282107 557:0.181397 558:0.39314 559:0.00620899 560:0.39314 562:0.114992 563:0.208575 564:0.378654 565:0.213645 566:0.378654 567:0.121026 568:0.294701 569:0.00142796 570:0.00345587 571:0.00567722 572:0.00504052 573:0.0016384 574:0.0192331 575:0.288589 576:0.201465 577:0.288589 578:0.288589 579:0.146486 580:0.0205957 581:0.00423522 582:0.320706 583:0.0249289 584:0.0453534 586:0.334251 587:0.00266215 588:0.357855 589:0.135837 590:0.00774821 591:0.265875 592:0.0136639 593:0.0572902 594:0.331752 595:0.0951006 596:0.176267 597:0.0481896 598:0.188409 599:0.1706 600:0.250065 601:0.355454 602:0.0840521 603:0.355454 604:0.0136972 605:0.359709 606:0.0317452 608:0.265034 609:0.0315407 610:0.0836627 611:0.00838647 612:0.015836 613:0.349365 614:0.0277633 615:0.241593 616:0.363338 617:0.363338 618:0.00581409 619:0.316746 620:0.0161711 622:0.0295141 623:0.081263 624:0.0754315 625:0.0220374 626:0.000680398 627:0.160645 628:0.0036086 629:0.366747 630:0.017921 631:0.327452 632:0.167193 633:0.120673 634:0.304264 635:0.0368081 636:0.304264 637:0.0542133 638:0.304264 639:0.00942787 641:0.348479 642:0.0632691 643:0.217324 644:0.34632 645:0.195946 646:0.293248 647:0.0227975 648:0.0269995 649:0.00766557 650:0.379774 651:0.00200278 652:0.379774 653:0.00992132 654:0.362495 655:0.362495 656:0.0319205 657:0.00294549 658:0.000961534 659:9.54497e-005 661:0.291095 663:0.0298152 664:0.0293179 665:0.307679 666:0.0041103 667:0.343337 668:0.0353533 670:0.0401212 671:0.351048 672:0.0527421 673:0.279083 674:0.0422507 675:0.000429884 676:0.0438636 677:0.383899 678:0.0765402 679:0.035734 680:0.0564614 681:0.173665 683:0.359586 684:0.00924127 685:0.00483112 686:0.00695412 688:0.00245079 689:0.0155918 690:0.203197 691:0.102408 692:0.16729 694:0.24074 695:0.384514 696:0.0472105 697:0.0254793 698:0.0645245 699:0.00176658 700:0.0040954 701:0.392265 702:0.00263658 703:0.356459 704:0.0254437 705:0.0138303 707:0.021103 708:0.0561297 709:0.030087 710:0.00650978 711:0.358508 712:0.0263753 714:0.0211732 715:0.021571 716:0.382125 717:0.0169587 718:0.00137417 719:0.371307 720:4.43981e-005 721:0.00747868 722:0.024862 723:0.371307 726:0.00840123 727:0.0325528 728:0.000921441 729:0.000125769 730:0.4241 731:0.0163598 732:0.372505 733:0.267516 734:0.142409 735:0.295557 736:0.347759 737:0.00674995 738:0.00164152 739:0.0461874 740:0.00757133 741:0.00928891 742:0.151406 743:0.0050577 744:0.299007 745:0.0319259 746:0.278128 747:0.0414258 748:0.0145546 749:0.0227289 750:0.00922288 751:0.000380307 752:0.019064 754:0.40586 755:0.00318942 756:0.0728034 757:0.0293697 758:0.0268811 759:0.40586 760:0.0418193 761:0.101296 762:0.102244 763:0.264428 764:0.149083 765:0.12269 766:0.247809 767:0.0362332 768:0.106038 769:0.0716234 770:0.000833733 771:0.344893 772:0.137443 773:0.0191778 774:0.355454 775:0.0546277 777:0.0116327 778:0.00930573 779:0.260637 780:0.00934198 781:0.00738463 782:0.00544888 784:0.359709 785:0.125807 786:0.0340841 787:0.00732091 788:0.162241 789:0.0559631 790:0.00106748 791:0.00547106 792:0.00600173 793:0.000212925 794:0.363338 795:0.05064 796:0.024169 797:0.316746 798:0.175376 799:0.0125168 800:0.0743612 801:0.058211 802:0.0289276 803:0.0247394 804:0.000675735 805:0.196453 807:0.00336998 808:0.0210684 809:0.0132743 810:0.366747 811:0.088815 812:0.0316568 813:0.003344 814:0.0157888 815:0.0358246 816:0.0145437 817:0.0736216 818:0.102159 820:0.0384446 821:0.0230858 822:0.227902 823:0.210022 824:0.0845542 825:0.268748 826:0.0391279 827:0.0137169 828:0.145339 829:0.0297711 830:0.00130221 831:0.247737 832:0.00518219 833:0.00992852 834:0.243744 835:0.00822406 836:0.353839 837:0.0611659 839:0.00324711 840:0.0162182 841:0.00525759 846:0.0153723 848:0.0212447 849:0.00799027 850:0.0176278 851:0.0133171 853:0.000419706 854:0.362639 855:0.0383477 856:0.0718838 857:0.0293317 858:0.00705558 859:0.13052 860:0.0733012 861:0.0198439 862:0.15835 863:0.153026 864:0.0205801 865:0.419796 866:0.00550934 867:0.00350419 868:0.0136803 869:0.0136803 871:0.261194 872:0.0070174 874:0.00932453 875:0.005199 876:0.0278276 877:0.00202757 878:0.122288 879:0.0287482 880:0.0536954 881:0.018537 882:0.011218 883:0.0709302 884:0.00736063 885:0.00568591 886:0.0150695 887:0.382125 888:0.196155 889:0.0130486 890:0.0242169 891:0.39314 892:0.207029 893:0.284777 894:0.00487712 895:0.371307 897:0.00250154 898:0.00302017 899:0.0405466 900:0.000148372 901:0.365514 902:0.0010386 903:0.00733895 904:0.0117322 905:0.0869242 906:0.107176 907:0.0202441 908:0.0545271 909:0.0157159 910:0.0149666 911:0.347759 912:0.013634 913:0.0672802 914:0.325066 915:0.375987 916:0.190371 917:0.271337 918:0.00446209 919:0.0109199 920:0.00123478 921:0.0228692 922:0.00370279 923:0.0144681 924:0.102708 925:0.1453 926:0.0486679 927:0.0121487 929:0.00324699 931:0.287708 932:0.0359018 933:0.357855 935:0.331752 936:0.114054 937:0.246813 938:0.318519 939:0.0943672 940:0.111005 941:0.226045 942:0.0462152 943:0.223387 944:0.155668 945:0.000131591 946:0.00679851 949:0.0760647 951:0.000811007 952:0.359709 953:0.00351656 954:0.00675868 955:0.0115925 956:0.0581191 957:0.0693202 958:0.270687 959:0.0456337 960:0.0244749 961:0.41443 962:0.0111279 963:0.000988621 964:0.00238835 965:0.129772 966:0.363338 967:0.0192385 968:0.00158459 969:0.000552587 970:0.0114533 971:0.149258 972:0.389395 973:0.18482 974:0.0438307 975:0.0596784 976:0.380366 977:0.078793 978:0.0285459 979:0.380366 980:0.366747 981:0.0229002 982:0.327452 983:0.00361558 984:0.327452 985:0.109182 986:0.303551 987:0.110793 988:0.187398 989:0.221171 990:0.131034 991:0.348479 993:0.0604847 994:0.0272089 995:0.0581019 996:0.291867 997:0.0961615 998:0.337038 999:0.342335 1000:0.00936475 1001:0.019644 1002:0.11944 1003:0.0804472 1004:0.000844378 1005:0.34632 1006:0.0333207 1007:0.13634 1008:0.000617313 1009:0.379774 1010:0.00717231 1011:0.0516877 1012:0.379774 1013:0.0281923 1014:0.0256743 1015:0.00136993 1016:0.026762 1017:0.00240397 1018:0.0369163 1019:0.286168 1020:0.00323484 1021:0.0044884 1023:0.227889 1024:0.362639 1025:0.36235 1026:0.107453 1027:0.00537858 1028:0.00578957 1029:0.000248949 1030:0.419796 1031:0.0193216 1033:0.0171123 1034:0.0470519 1035:0.0395355 1036:0.346312 1037:0.033037 1038:0.000500599 1039:0.0221003 1040:0.00962642 1042:0.381833 1043:0.381833 1044:0.00138367 1045:0.384514 1046:0.0244075 1047:0.0147218 1049:0.000432543 1050:0.000289653 1051:0.0110736 1052:0.392265 1053:0.014193 1054:0.356459 1055:0.356459 1056:0.000449514 1057:0.0193935 1058:0.00571677 1059:0.356459 1060:0.0262059 1061:0.0586771 1062:0.0627338 1063:0.0144224 1064:0.0125168 1065:0.0232333 1066:0.016398 1067:0.00677838 1068:0.000379161 1069:0.00357193 1070:0.135273 1071:0.00147683 1073:0.371307 1074:0.371307 1075:0.242326 1076:0.00126594 1077:0.365514 1078:0.00268383 1079:0.00538677 1080:0.0063554 1081:0.0962729 1082:0.0514083 1083:0.0175081 1084:0.0120931 1085:0.00385574 1086:0.375987 1087:0.296975 1088:0.00113949 1089:0.395727 1090:0.219055 1091:0.0105659 1092:0.0990201 1093:0.058985 1094:0.000642911 1095:0.320706 1096:0.137893 1097:0.138627 1098:0.058113 1100:0.27705 1102:0.00869037 1103:0.00159729 1104:0.0144839 1105:0.0715043 1106:0.0573446 1107:0.267788 1108:0.0219087 1109:0.0960805 1110:0.146716 1111:0.154089 1112:0.0801032 1113:0.240357 1114:0.30435 1115:0.0125334 1116:0.290295 1117:0.000134881 1118:0.344893 1119:0.00539665 1120:0.355454 1121:0.0347608 1122:0.358374 1123:0.00156305 1124:0.088227 1125:0.037242 1126:0.15537 1127:0.0327838 1128:0.0104578 1129:0.0348595 1130:0.0242885 1131:0.11832 1132:0.0443814 1133:0.316746 1134:0.316746 1135:0.00473014 1136:0.191287 1137:0.00140598 1138:0.0549299 1139:0.380366 1140:0.10493 1142:0.0575401 1143:0.0282491 1144:0.00612962 1145:0.0038567 1146:0.00247384 1148:0.000628952 1149:0.0138495 1150:0.0372139 1151:0.0125359 1152:0.0510549 1153:0.0132784 1155:0.330457 1156:0.051011 1157:0.0249353 1158:0.0162805 1159:0.23728 1160:0.291867 1161:0.0918591 1162:0.0285475 1163:0.00825681 1164:0.342335 1165:0.217672 1166:0.0285513 1167:0.00246618 1168:0.0689035 1169:0.00699998 1170:0.00360307 1171:0.00141836 1172:0.0119306 1173:0.032474 1174:0.164241 1175:0.0087297 1176:0.130209 1177:0.331695 1178:0.353839 1179:0.0438307 1180:0.0093439 1183:0.265564 1184:0.264213 1185:0.0199561 1186:0.00190681 1188:0.00256046 1189:0.328557 1190:0.00992025 1191:0.00426743 1192:0.00451736 1193:0.0186671 1194:0.00365324 1195:0.383899 1196:0.000684212 1197:0.000788905 1198:0.224204 1199:0.359586 1200:0.0541079 1201:0.0111832 1202:0.067929 1204:0.000830202 1205:0.0344094 1207:0.384514 1208:0.00486637 1209:0.0197628 1210:0.356459 1211:0.00625461 1212:0.358508 1213:0.0913542 1214:0.358508 1215:0.0136247 1216:0.0158536 1217:0.00357193 1218:0.0055091 1219:0.371307 1220:0.000954725 1222:0.365514 1223:0.263747 1224:0.00980723 1225:0.00155006 1226:0.000393857 1227:0.0108504 1228:0.22345 1229:0.145531 1230:0.00645009 1231:0.0099957 1232:0.00506964 1233:0.0108714 1234:0.237864 1235:0.0164864 1236:0.085389 1237:0.0397405 1238:0.00890292 1239:0.00187143 1240:0.0863506 1241:0.288589 1242:0.159521 1243:0.288589 1244:0.161565 1245:0.0182056 1246:0.0555345 1247:0.0822276 1248:0.0139724 1249:0.334251 1250:0.0112645 1251:0.0130353 1252:0.0860465 1253:0.231946 1254:0.0913925 1255:0.0345277 1256:0.0766617 1257:0.000906735 1258:0.0356636 1259:0.144172 1260:0.102517 1261:0.124581 1262:0.0323803 1263:0.30435 1264:0.0794888 1265:0.0615013 1266:0.0740321 1267:0.00263486 1269:0.005279 1270:0.00544888 1271:0.00849226 1272:0.299381 1273:0.180877 1274:0.299412 1275:0.00325055 1276:0.0113285 1277:0.1138 1278:0.222306 1279:0.112982 1280:0.024747 1281:0.0417835 1282:0.390373 1283:0.00374652 1284:0.226467 1285:0.380366 1286:0.00404171 1287:0.0270003 1288:0.00541247 1289:0.0474365 1290:0.327452 1293:0.348479 1294:0.100798 1295:0.282783 1296:0.0371079 1297:0.0737589 1298:0.00452389 1299:0.0143446 1300:0.0116793 1301:0.129311 1302:0.000280808 1303:0.34632 1304:0.34632 1305:0.34632 1306:0.000393615 1307:0.00487378 1308:0.00766557 1309:0.142593 1310:0.0931437 1311:0.192304 1312:0.000496536 1313:0.00160563 1314:0.00449876 1315:0.343337 1317:0.0297683 1318:0.00870762 1319:0.00189273 1320:0.072341 1321:0.0143158 1322:0.362639 1323:0.0475436 1324:0.0302954 1325:0.00557745 1326:0.0241897 1327:0.0387619 1328:0.00255812 1329:0.190139 1330:0.230426 1331:0.381833 1332:0.136147 1333:0.0823566 1334:0.392265 1335:0.0291403 1336:0.356459 1337:0.358508 1338:0.358508 1339:0.164558 1340:0.382125 1341:0.0151373 1342:0.011208 1343:0.0240579 1344:0.00151065 1345:0.0241266 1347:0.143418 1348:0.00874756 1349:0.00288405 1350:0.0206138 1351:0.0443594 1352:0.134187 1353:0.365514 1354:0.0898408 1355:0.00671374 1356:0.0452996 1357:0.0046504 1358:0.0495967 1359:0.0173707 1360:0.347759 1361:0.347759 1362:0.00785734 1363:0.00276876 1364:0.264589 1365:0.0171698 1366:0.00313908 1367:0.00604094 1368:0.036295 1369:0.249081 1370:0.0157164 1371:0.0759492 1372:0.334251 1373:0.334251 1374:0.0869564 1375:0.00124148 1376:0.00206913 1377:0.00115217 1378:0.0979284 1379:0.0268481 1380:0.202338 1381:0.100941 1383:0.00195712 1384:0.344893 1385:0.344893 1386:0.00286186 1387:0.00207657 1388:0.0146211 1389:0.363338 1390:0.316746 1391:0.00710706 1392:0.0484268 1393:0.0894273 1394:0.0471321 1396:0.0427216 1397:0.00127902 1398:0.130383 1399:0.118575 1400:0.0219646 1402:0.183784 1403:0.0991218 1404:0.189651 1405:0.207983 1406:0.342335 1407:0.0167193 1408:0.205302 1410:0.00910255 1411:0.20756 1412:0.362495 1413:0.0243345 1414:0.00347575 1415:0.0201113 1416:0.0602274 1417:0.0656659 1418:0.00288893 1419:0.076332 1420:0.331695 1421:0.353839 1422:0.353839 1423:0.249747 1424:0.0375343 1425:0.000329667 1426:0.00134418 1427:0.000325718 1429:0.0616951 1430:0.280656 1431:0.0372906 1432:0.00687244 1433:0.00686997 1435:0.0622154 1436:0.00495562 1438:0.0326933 1439:0.000711541 1440:0.384514 1441:0.0314538 1442:0.160045 1443:0.00292893 1444:0.00154839 1445:0.0140758 1446:0.00838444 1447:0.309997 1449:0.00964945 1450:0.00549205 1451:0.000283805 1452:0.299097 1454:0.024631 1455:0.0370383 1456:0.114821 1457:0.346581 1458:0.000805542 1459:0.0154815 1460:0.320706 1462:0.00616455 1463:0.032164 1464:0.0216135 1465:0.0619156 1466:0.40586 1467:0.290385 1468:0.344893 1469:0.0143429 1470:0.336214 1471:0.0230366 1472:0.00185228 1473:0.0251264 1474:0.218149 1475:0.0344444 1476:0.0184136 1478:0.219522 1479:0.390373 1480:0.00511609 1481:0.0545404 1482:0.0455562 1483:0.111649 1484:0.291867 1485:0.342335 1486:0.220025 1487:0.080582 1488:0.0254296 1489:0.00103449 1490:0.0159333 1491:0.000845453 1493:0.00286512 1494:0.00184792 1495:0.00092192 1496:0.0476419 1497:0.0278482 1498:0.329054 
0.01666719383800325 0.0008740722650382481 0:0.332798 1:0.324038 2:0.0161129 3:0.0439823 4:0.197551 5:0.0424292 6:0.404691 7:0.167137 8:0.109149 9:0.324038 10:0.109874 11:0.0298715 12:0.179955 13:0.128367 14:0.404691 15:0.0138461 16:0.173539 17:0.0382248 18:0.21586 19:0.0523539 20:0.0346036 21:0.296274 22:0.0148384 23:0.0118141 24:0.0736447 25:0.332798 26:0.0404056 27:0.281332 28:0.0726545 29:0.123636 30:0.0287507 31:0.325966 32:0.315407 33:0.0914138 34:0.158401 35:0.183934 36:0.193912 37:0.404691 38:0.0268065 39:0.204825 40:0.193028 41:0.00680302 42:0.265886 43:0.35645 44:0.176283 45:0.10204 46:0.0645584 47:0.024398 48:0.0649458 49:0.281332 50:0.0470954 51:0.135885 52:0.0307016 53:0.00726643 54:0.197553 55:0.223409 56:0.0155981 57:0.0534907 58:0.208032 59:0.0778554 60:0.0553898 61:0.173422 62:0.16836 63:0.390843 64:0.220987 65:0.132025 66:0.0134969 67:0.0230899 68:0.0136293 69:0.0321372 70:0.00160223 71:0.00227702 72:0.189487 73:0.322945 74:0.289912 75:0.0371481 76:0.0497205 77:0.0719287 78:0.302621 79:0.0433353 80:0.14099 81:0.098014 82:0.233054 83:0.10654 84:0.00384559 85:0.0247364 86:0.0616916 88:0.33991 89:0.000226066 90:0.045318 92:0.00103291 93:0.0630391 94:0.000839657 95:0.00402512 96:0.000233278 97:0.231414 99:0.330814 100:0.0852652 101:0.312512 102:0.0103919 103:0.222305 104:0.281332 105:0.289553 106:0.102652 107:0.386929 108:0.263346 110:0.0117019 111:0.172625 112:0.329072 113:0.00586132 114:0.32244 115:0.0380344 116:0.0095242 117:0.0162539 118:0.000510279 119:0.02764 120:0.0107327 121:0.0779097 122:0.211777 123:0.00109864 124:0.0435793 125:0.00767561 126:0.0376379 127:0.151008 128:0.00678595 129:0.324038 130:0.157905 131:0.0656103 132:0.0777281 133:0.0271402 135:0.347033 137:0.369726 138:0.369726 139:0.426057 140:0.134584 141:0.120397 142:0.000644077 143:0.175943 144:0.00846991 145:0.00115323 146:0.15039 147:0.309787 148:0.0953228 149:0.00161848 150:0.344466 152:0.297425 153:0.115204 154:0.32244 155:0.00718955 156:0.32244 157:0.243179 158:0.0311963 161:0.010295 162:0.254956 163:0.0651887 164:0.352004 165:0.0428463 166:0.222401 167:0.368943 168:0.0139688 169:0.00177297 170:0.200228 171:0.0675559 173:0.0448379 175:0.101244 176:0.00726172 177:0.373335 178:0.00393429 179:0.000906821 180:0.0508402 181:0.199534 182:0.33024 183:0.00536428 184:0.00417437 185:0.00711396 186:0.0249093 187:0.00984627 188:0.210531 189:0.194433 190:0.0748031 191:0.0329051 192:0.0835523 193:0.0397666 194:0.0411308 195:0.362674 196:0.00545571 197:0.061691 198:0.0139194 199:0.210222 200:0.0251116 201:0.00393574 202:0.386929 203:0.0233365 204:0.0911061 205:0.0599284 206:7.33434e-005 207:0.0894169 208:0.0292289 209:0.0648724 210:0.0174091 211:0.00415582 212:0.0012382 213:0.0190513 214:0.278242 215:0.329678 216:0.0794183 217:0.184698 218:0.228107 220:0.37509 221:0.00731188 222:0.00372829 223:0.0208451 224:8.1582e-006 225:0.285311 226:0.0025367 227:0.0319631 228:0.0247228 229:0.0017871 230:0.192051 231:0.00946465 232:0.196598 233:0.205108 234:0.0741518 235:0.105815 236:0.00447538 237:0.0591953 238:0.00438291 239:0.0321878 240:0.0143494 241:0.177786 242:0.0335201 243:0.00243332 244:0.0140909 245:0.33024 246:0.084395 247:0.00884756 248:0.205915 249:0.0121008 250:0.324038 251:0.0907133 252:0.0496531 253:0.332798 254:0.320567 255:0.262242 256:0.0397011 257:0.0925359 258:0.034818 259:0.0914015 260:0.320639 261:0.000572491 262:0.0673214 263:0.347033 264:0.340314 265:0.00308671 266:0.00068105 267:0.271706 268:0.00905029 269:0.0828684 270:0.26553 271:0.32143 272:0.132063 273:0.362674 274:0.00613178 275:0.150103 276:0.00352642 277:0.326874 278:0.127676 279:0.00375029 280:0.0756688 281:0.272383 282:0.306641 284:0.0318174 285:0.177044 286:0.00492533 287:0.20986 288:0.14519 289:0.293724 290:0.246699 291:0.0858458 292:0.0928749 293:0.297425 294:0.0125351 295:0.00120131 296:0.00947026 297:0.013952 298:0.00336252 299:0.32244 300:0.0757772 301:0.00104426 302:0.00429183 303:0.355044 304:0.00322278 305:0.105944 306:0.109303 307:0.329678 308:0.35593 309:0.00980908 310:0.37509 311:0.26215 312:0.224111 313:0.0582347 314:0.196653 315:0.000787231 316:0.362519 317:0.012902 318:0.00403891 319:0.400611 320:0.400611 321:0.00162631 322:0.02675 323:0.0200957 324:0.0101047 325:0.00196078 326:0.00024105 327:0.000227894 328:0.380131 329:0.0639695 330:0.00993834 331:0.253553 332:0.0197342 333:0.395329 334:0.392761 335:0.00309452 336:0.0431443 337:0.373335 338:0.0122408 339:0.00456936 340:0.0384254 341:0.0317835 342:0.296274 343:0.296274 344:0.0584946 345:0.0648329 346:0.00476882 347:0.33024 348:0.314723 349:0.00472773 350:0.330814 351:0.0316751 352:0.0193535 353:0.405977 354:0.0103126 355:0.0382164 356:0.105078 357:0.146841 358:0.0325373 359:0.0822563 360:0.281332 361:0.261111 362:0.111425 363:0.0526366 364:0.101092 365:0.00419821 366:0.0440031 367:0.320639 368:0.000343494 369:0.195901 370:0.299936 371:0.0107177 372:0.0230878 373:0.0179978 374:0.0527429 375:0.00332198 376:0.138394 377:0.00853833 378:0.00908196 379:0.0826152 380:0.362544 381:0.0397756 382:0.00193571 383:0.377614 384:0.377614 385:0.0143312 386:0.00962692 387:0.377614 388:0.032107 389:0.176508 390:0.229797 391:0.0484605 393:0.349664 394:0.091145 395:0.0227556 396:0.0616738 397:0.0133151 398:0.00230609 399:0.346142 400:0.346142 401:0.346142 402:0.32244 403:0.317588 404:0.355044 405:0.056587 406:0.0540807 407:0.24953 408:0.309035 409:0.35593 410:0.201998 411:0.0218549 412:0.0322408 413:0.0130997 414:0.38255 415:0.0244351 417:0.0108097 418:0.0276325 419:0.00167022 420:0.0169908 421:0.0155567 422:0.00232063 423:0.0143792 424:0.263705 425:0.0522341 426:0.172521 427:0.161595 428:0.0133526 429:0.0186338 430:0.00244739 431:0.00148264 432:0.00222906 433:0.0594551 434:0.0234728 435:0.00971039 436:0.0637875 437:0.0448772 438:0.000860039 439:0.0172149 440:0.142926 442:0.00714291 443:0.392761 444:0.0109994 445:0.109825 446:0.00278885 447:0.242106 448:0.0249624 449:0.0248034 450:0.0994549 451:0.185731 452:0.160617 453:0.0584041 455:0.0198128 456:0.330814 457:0.152406 458:0.011953 459:0.330814 460:0.330814 461:0.252894 462:0.00908759 463:0.00195336 464:0.0064 465:0.105677 466:0.10465 467:0.0784971 468:0.174547 469:0.0132332 470:0.107711 471:0.257026 472:0.289553 473:0.269057 474:0.289553 475:0.119338 476:0.00828939 477:0.0231964 478:0.00134916 479:0.347033 480:0.0216867 481:0.0297175 482:0.214265 483:0.0478924 484:0.369449 485:0.149196 486:0.00120999 487:0.040355 488:0.0445134 489:0.0800327 490:0.1437 491:0.039836 492:0.00688832 493:0.00109239 494:0.0154572 495:0.0109487 496:0.377614 497:0.00305778 498:0.00217499 499:0.0844746 500:0.0104985 501:0.355299 502:0.0127738 503:0.349664 504:0.0510253 506:0.230167 507:0.0235934 508:0.237782 509:0.00471729 510:0.0137965 511:0.0755278 512:0.398006 513:0.33227 514:0.00130269 516:0.346142 517:0.0384177 518:0.00351582 521:0.355044 522:0.00634664 523:0.0128933 524:0.35593 525:0.0241121 526:0.35593 527:0.35645 528:0.0526628 529:0.00917592 530:0.374021 531:0.275733 532:0.362519 535:0.0766568 536:0.0866214 537:0.0146501 538:0.0283047 539:0.332274 541:0.000898783 542:0.00503574 543:0.344343 544:0.0783077 545:0.145799 546:0.0228951 547:0.352004 548:0.0762852 549:0.368943 550:0.00143061 551:0.368943 552:0.012169 553:0.00159526 554:0.0243446 555:0.380131 556:0.36632 557:0.0696588 558:0.380131 559:0.00236423 560:0.380131 561:0.00267516 562:0.062461 563:0.103979 564:0.392079 565:0.243997 566:0.395329 567:0.0994929 568:0.363096 569:0.00426468 570:0.0119048 572:0.00458573 573:0.00125411 574:0.0188614 575:0.296274 576:0.296274 577:0.210074 578:0.296274 579:0.293789 580:0.0485616 581:0.0103592 582:0.316737 583:0.0432222 584:0.0324655 585:0.00590183 586:0.33024 587:0.0117052 588:0.330814 589:0.161852 590:0.00778932 591:0.317896 592:0.0126125 593:0.0235214 594:0.324038 595:0.0969849 596:0.195077 597:0.0730236 598:0.129287 599:0.124591 600:0.289553 601:0.347033 602:0.0278862 603:0.347033 604:0.0104352 605:0.369726 606:0.0160593 607:0.000572704 608:0.279941 609:0.025607 610:0.112106 611:0.000702908 612:0.0204298 613:0.362674 614:0.0287686 615:0.187032 616:0.369449 617:0.369449 619:0.326874 620:0.0151338 622:0.0138041 623:0.0712663 624:0.115984 625:0.0414156 626:0.000163337 627:0.168627 628:0.00153001 629:0.377614 630:0.0297536 631:0.292324 632:0.186142 633:0.0693093 634:0.293724 635:0.0122842 636:0.293724 637:0.0619877 638:0.289482 639:0.0497491 641:0.349664 642:0.0154946 643:0.127036 644:0.366722 645:0.178211 646:0.366722 647:0.00851922 648:0.0161979 649:0.00580995 650:0.398006 651:0.00259235 652:0.398006 653:0.00161403 654:0.346142 655:0.346142 656:0.0579509 657:0.0286406 660:0.0185852 661:0.32244 663:0.0803883 664:0.0637521 665:0.329678 666:0.0242262 667:0.329678 668:0.00657844 669:0.000961551 670:0.0330441 671:0.35593 672:0.0996758 673:0.325411 674:0.00601168 675:0.0188533 676:0.03943 677:0.38255 678:0.0435455 679:0.0148137 680:0.0412879 681:0.130676 683:0.362519 684:0.0528579 685:0.00668644 686:0.000712954 687:0.0205822 688:0.000764136 689:0.0622658 690:0.0882145 691:0.149955 692:0.15934 693:5.71074e-005 694:0.0656134 695:0.400611 696:0.111008 697:0.0402705 698:0.107074 699:0.0200816 701:0.355589 702:0.0323611 703:0.354401 704:0.089012 705:0.0162444 707:0.0204842 708:0.0296617 709:0.0262666 710:0.0208329 711:0.352004 712:0.0168119 713:0.000957153 714:0.0159245 715:0.000136736 716:0.368943 717:0.016331 718:0.00146844 719:0.304662 720:0.00101157 721:0.00674926 722:0.0539523 723:0.29687 725:0.00269854 726:0.00777385 727:0.0286915 729:0.00268914 730:0.392761 731:0.0241951 732:0.385426 733:0.28883 734:0.203353 735:0.330892 736:0.330892 737:0.0240787 738:0.00216295 739:0.0595516 742:0.183161 743:0.0177832 744:0.290869 745:0.00579752 746:0.222572 747:0.0271159 748:0.00894414 749:0.014622 750:0.0275795 751:0.00702309 752:0.00926589 753:0.0478065 754:0.405977 755:0.0025293 756:0.0591605 757:0.0125736 758:0.00635786 759:0.405977 760:0.0275635 761:0.225309 762:0.0788683 763:0.251159 764:0.132568 765:0.145198 766:0.0542574 767:0.0544511 768:0.0752639 769:0.16116 770:0.0282343 771:0.320639 772:0.263896 773:0.0157121 774:0.326656 775:0.0149769 776:0.00175675 777:0.00527357 778:0.0146804 779:0.0887847 780:0.00385569 781:0.00446196 782:0.00676309 784:0.369726 785:0.129768 786:0.0400331 787:0.0207916 788:0.31644 789:0.0639249 790:0.0113231 791:0.0172324 792:0.00085615 793:0.00975389 794:0.369449 795:0.0825061 796:0.00796457 797:0.326874 798:0.314787 799:0.00458383 800:0.0310592 801:0.0218395 802:0.0572012 803:0.0266701 805:0.179699 806:0.000603487 807:0.00333469 808:0.0154572 809:0.0109487 810:0.377614 811:0.116604 812:0.0320967 813:0.0112962 814:0.00757683 815:0.0382307 816:0.0205896 817:0.0281739 818:0.023656 819:0.00280945 820:0.0764169 821:0.0790811 822:0.297425 823:0.124095 824:0.01138 825:0.221299 826:0.130567 827:0.0359918 828:0.269855 829:0.114544 830:0.0195303 831:0.196594 832:0.012829 834:0.178894 835:0.00433905 836:0.355044 837:0.0143451 840:0.00482832 841:0.000460397 842:0.00158246 843:0.00166451 844:0.000573788 845:0.0113255 846:0.00674688 847:0.00317543 848:0.0213393 849:0.0077966 850:0.0448928 851:0.00467796 852:0.00200618 853:0.0173762 854:0.35645 855:0.0653752 857:0.0380588 858:0.109156 859:0.11094 860:0.0564466 861:0.0189305 862:0.27319 863:0.132567 864:0.0259937 865:0.37509 866:0.00551062 867:0.00367819 868:0.0173817 869:0.048948 870:0.000238603 871:0.340972 872:0.00280292 873:0.00310695 874:0.00683825 875:0.0103909 876:0.0334417 878:0.141352 879:0.053102 880:0.0428016 881:0.0210455 882:0.0131124 883:0.151506 884:0.00705448 885:0.0229537 886:0.0146068 887:0.368943 888:0.171637 889:0.0134383 891:0.380131 892:0.281349 893:0.366945 894:0.00245732 895:0.366945 896:0.000271395 897:0.0100338 898:0.00393113 899:0.0268583 900:0.000385506 901:0.369085 902:0.000231304 903:0.00736873 904:0.0047101 905:0.106167 906:0.0750725 907:0.0500757 908:0.0676762 909:0.013118 910:0.0160999 911:0.330892 912:0.131755 913:0.161281 914:0.236931 915:0.373335 916:0.264205 917:0.311258 918:0.00976567 919:0.00360492 920:0.0157601 921:0.0488448 922:0.0172554 923:0.00252935 924:0.0449968 925:0.113593 926:0.107919 927:7.63498e-005 929:0.040521 930:0.000727006 931:0.297451 932:0.0464915 933:0.330814 934:0.0147919 935:0.286732 936:0.120125 937:0.332798 938:0.246276 939:0.114716 940:0.143347 941:0.154064 942:0.0488778 943:0.190177 944:0.251913 945:0.00714787 946:0.0641653 947:0.00101077 948:0.00164724 949:0.0528974 950:0.0115307 951:0.00341709 952:0.369726 953:0.00259586 954:0.00130592 955:0.0142292 956:0.0242049 957:0.0974139 958:0.262276 959:0.0189026 960:0.101463 961:0.426057 962:0.0446826 963:0.00247534 964:0.00587736 965:0.18455 966:0.369449 967:0.0174983 968:0.00051369 969:0.0065585 970:0.0331796 971:0.142433 972:0.208291 973:0.349845 974:0.0525787 975:0.0169091 976:0.386929 977:0.0935721 978:0.0226764 979:0.386929 980:0.289381 981:0.00594748 982:0.339418 983:0.00291064 984:0.355299 985:0.0807375 986:0.293724 987:0.150624 988:0.293724 989:0.192503 990:0.217767 991:0.349664 993:0.118617 994:0.00978674 995:0.0397117 996:0.297425 997:0.117912 998:0.329072 999:0.197517 1000:0.010886 1001:0.0701201 1002:0.253287 1003:0.0110163 1004:0.0237487 1005:0.366722 1006:0.0169801 1007:0.0895491 1008:0.00156025 1009:0.398006 1010:0.000781612 1011:0.0619381 1012:0.398006 1013:0.0221066 1014:0.00381838 1016:0.028836 1018:0.0127517 1019:0.18574 1020:0.0028962 1021:0.0100886 1022:0.0195007 1023:0.3148 1024:0.35645 1025:0.36266 1026:0.0375286 1027:0.0190278 1028:0.0446528 1029:0.00569986 1030:0.37509 1031:0.00687568 1032:0.0107002 1033:0.0306905 1034:0.0403903 1035:0.131214 1036:0.362519 1037:0.0409918 1038:0.000525456 1039:0.00524434 1040:0.00340151 1041:0.00175683 1042:0.376287 1043:0.376287 1044:0.000998002 1045:0.400611 1046:0.0639526 1047:0.0223244 1048:0.000682702 1049:0.000749296 1051:0.00149797 1052:0.355589 1054:0.354401 1055:0.354401 1056:0.0152808 1057:0.0161585 1058:0.0417151 1059:0.354401 1060:0.0800079 1061:0.102141 1062:0.173199 1063:0.0135743 1064:0.00660782 1065:0.0163658 1066:0.0181019 1067:0.000512898 1068:0.000325289 1069:0.00710538 1070:0.122736 1071:0.00287215 1073:0.366945 1074:0.366945 1075:0.154963 1076:0.0130287 1077:0.369085 1079:0.00295699 1080:0.00589938 1081:0.0418913 1082:0.0830272 1083:0.0746872 1084:0.0160632 1085:0.0062789 1086:0.373335 1087:0.323994 1088:0.00590086 1089:0.374513 1090:0.218211 1091:0.000570312 1092:0.0174258 1093:0.0441435 1095:0.316737 1096:0.287549 1097:0.0983726 1098:0.037698 1099:0.00228156 1100:0.220929 1101:0.00202634 1103:0.0195086 1105:0.0438394 1106:0.124845 1107:0.324038 1108:0.0208444 1109:0.0923949 1110:0.157589 1111:0.158912 1112:0.125281 1113:0.281332 1114:0.25095 1115:0.0355285 1116:0.316177 1117:0.00105051 1118:0.320639 1119:0.00805684 1120:0.347033 1121:0.0379446 1122:0.310899 1123:0.0015176 1124:0.054201 1125:0.0112208 1126:0.132483 1127:0.0669857 1128:0.00188699 1129:0.00991734 1130:0.0194425 1131:0.0598821 1132:0.0565151 1133:0.241938 1134:0.312467 1135:0.0019231 1136:0.178132 1137:0.00620668 1138:0.0282098 1139:0.386929 1140:0.0595858 1141:0.000213882 1142:0.0439728 1143:0.0262288 1144:0.00837543 1145:0.00484358 1146:0.000330304 1147:0.0053655 1148:0.00069194 1149:0.0412003 1150:0.0224971 1151:0.0368276 1152:0.0776329 1153:0.0027661 1155:0.308137 1158:0.0311777 1159:0.128368 1160:0.297425 1161:0.15792 1162:0.0142972 1163:0.00352061 1164:0.329072 1165:0.195676 1166:0.0158532 1167:0.00137966 1168:0.0575709 1169:0.021549 1170:0.00689681 1171:0.00679267 1172:0.00710677 1173:0.0167968 1174:0.0672186 1175:0.0233979 1176:0.207961 1177:0.32244 1178:0.355044 1179:0.00145942 1180:0.0111548 1181:0.000494248 1182:0.00126184 1183:0.329678 1184:0.282656 1185:0.0365959 1186:0.00411774 1189:0.35645 1190:0.0166516 1193:0.00620293 1194:0.0241157 1195:0.38255 1196:0.0207396 1197:0.000316068 1198:0.166662 1199:0.362519 1200:0.00411064 1201:0.0134834 1202:0.100592 1203:0.000627575 1204:0.00188602 1205:0.0365456 1206:0.00192325 1207:0.322739 1208:0.00540642 1209:0.0305659 1210:0.354401 1211:0.0394441 1212:0.222646 1213:0.0476929 1214:0.352004 1215:0.015553 1216:0.0191286 1217:0.00668079 1218:0.00637067 1219:0.366945 1220:0.00161686 1221:0.00014451 1222:0.369085 1223:0.369085 1224:0.0347061 1227:0.0024132 1228:0.369085 1229:0.253236 1230:0.00350451 1231:0.00632385 1232:0.000842768 1233:0.00537835 1234:0.0658457 1235:0.00892284 1236:0.12848 1239:0.000686107 1240:0.0568485 1241:0.281619 1242:0.0354996 1243:0.296274 1244:0.235071 1245:0.0819848 1246:0.129532 1247:0.0924986 1248:0.0511412 1249:0.277552 1250:0.0165503 1251:0.0108496 1252:0.141642 1253:0.285461 1254:0.0440588 1255:0.0217028 1256:0.140125 1257:0.00686085 1258:0.0271061 1259:0.160671 1260:0.0635059 1261:0.108508 1262:0.149255 1263:0.289553 1264:0.0611979 1265:0.0269859 1266:0.0614608 1267:0.000389663 1268:0.00711326 1269:0.00657188 1270:0.00676309 1271:0.0293864 1272:0.242554 1273:0.0952777 1274:0.362674 1275:0.0408381 1276:0.00359583 1277:0.18674 1278:0.326874 1279:0.204957 1280:0.0497753 1281:0.0219848 1282:0.362544 1283:0.0019669 1284:0.191182 1285:0.386929 1286:0.00895314 1287:0.0460194 1288:0.0085291 1289:0.0151623 1290:0.295696 1291:0.000401351 1293:0.349664 1294:0.297425 1295:0.104582 1296:0.0134348 1297:0.215038 1298:0.0233926 1299:0.00672009 1300:0.00545013 1301:0.051629 1302:0.00211334 1303:0.366722 1304:0.366722 1305:0.366722 1307:0.00964516 1308:0.0258377 1309:0.0467933 1310:0.0304189 1311:0.110817 1313:0.000264832 1315:0.329678 1316:0.00296945 1317:0.0332602 1318:0.000539712 1319:0.029106 1320:0.0100756 1321:0.000108425 1322:0.35645 1323:0.0230037 1324:0.0609271 1325:0.0512792 1326:0.0640125 1327:0.0886651 1329:0.37509 1330:0.141239 1331:0.322395 1332:0.282542 1333:0.175558 1334:0.355589 1335:0.024158 1336:0.354401 1337:0.352004 1338:0.352004 1339:0.253845 1340:0.368943 1341:0.0117342 1342:0.0210115 1343:0.000903372 1344:0.000280112 1345:0.0255661 1347:0.219251 1348:0.0107738 1350:0.0260386 1351:0.0375814 1352:0.119608 1353:0.369085 1354:0.0649085 1355:0.00584086 1356:0.0330626 1357:0.00409879 1358:0.028668 1359:0.0218241 1360:0.27228 1361:0.330892 1362:0.01675 1363:0.000555054 1364:0.217618 1365:0.0155448 1366:0.00263314 1367:0.00271673 1368:0.048807 1369:0.195089 1370:0.000630949 1371:0.117042 1372:0.33024 1373:0.33024 1374:0.0599302 1375:0.00071304 1376:0.00499128 1378:0.0247735 1379:0.0541866 1380:0.171034 1381:0.289553 1382:0.00027218 1383:0.0013206 1384:0.320639 1385:0.219826 1386:0.00317544 1387:0.00223188 1388:0.0399557 1389:0.369449 1390:0.326874 1391:0.0137474 1392:0.0525743 1393:0.189098 1394:0.0532412 1395:0.00149717 1396:0.0718683 1398:0.108275 1399:0.131306 1400:0.0110925 1401:0.0114093 1402:0.253444 1403:0.0733959 1404:0.182636 1405:0.273554 1406:0.329072 1407:0.0151238 1408:0.0794994 1409:0.0329062 1410:0.0126264 1411:0.208627 1412:0.316856 1413:0.000133081 1416:0.0697917 1417:0.149376 1418:0.0181272 1419:0.135683 1420:0.32244 1421:0.355044 1422:0.355044 1423:0.14557 1424:0.0154911 1425:0.0057763 1426:0.0163298 1427:0.000323827 1428:0.00596933 1429:0.0843291 1430:0.214615 1431:0.140444 1432:0.0142688 1433:0.00521505 1434:0.00397268 1435:0.0682786 1438:0.0017657 1439:0.00774118 1440:0.400611 1441:0.0514597 1442:0.192576 1443:0.000531756 1445:0.00372229 1447:0.283289 1448:0.0927259 1449:0.0128985 1450:0.00604161 1452:0.187701 1453:0.00351746 1454:0.00246275 1455:0.00608651 1456:0.0446991 1457:0.237883 1460:0.316737 1462:0.0140095 1463:0.0338275 1465:0.00919567 1466:0.405977 1467:0.301494 1468:0.320639 1469:0.0359056 1470:0.327493 1471:0.00522729 1472:0.00384559 1473:0.00659504 1474:0.195713 1475:0.0292023 1476:0.0067364 1477:0.0076799 1478:0.275461 1479:0.291479 1480:0.0134969 1481:0.0699378 1482:0.0782818 1483:0.0516734 1484:0.297425 1485:0.329072 1486:0.084513 1487:0.122993 1488:0.0315917 1489:0.00467955 1490:0.0245893 1491:0.0130651 1492:0.00941831 1493:0.0135447 1494:0.019385 1495:0.0185563 1496:0.0694741 1497:0.233056 1498:0.362519 1499:0.00994064 
0.04579406644506254 0.01821935093033474 0:0.311144 1:0.306986 2:0.029724 3:0.0337513 4:0.300121 5:0.039985 6:0.350927 7:0.201348 8:0.169303 9:0.306986 10:0.0865908 11:0.00114935 12:0.251261 13:0.142481 14:0.350927 15:0.0142277 16:0.277324 17:0.0272781 18:0.228382 19:0.0507446 20:0.0736154 21:0.294815 22:0.00117576 23:0.00698292 24:0.0266912 25:0.311144 26:0.0585873 27:0.303164 28:0.100519 29:0.171441 30:0.0488117 31:0.34995 32:0.350927 33:0.0159622 34:0.111885 35:0.178049 36:0.242874 37:0.350927 38:0.029008 39:0.234021 40:0.0686689 41:0.00909377 42:0.112398 43:0.338623 44:0.189016 45:0.0507335 46:0.0907506 47:0.00866916 48:0.0843131 49:0.303164 50:0.0131605 51:0.101756 52:0.0438937 53:0.00324601 54:0.178511 55:0.24904 56:0.00291386 57:0.0274443 58:0.284368 59:0.142631 60:0.00897447 61:0.303164 62:0.313521 63:0.282391 64:0.388763 65:0.26826 66:0.00777707 67:0.0683064 68:0.00148505 69:0.00196478 70:0.00572757 72:0.169735 73:0.266827 74:0.381272 75:0.00911429 76:0.0210464 77:0.0524591 78:0.278912 79:0.0117803 80:0.164785 81:0.148999 82:0.219202 83:0.179132 84:0.019414 85:0.017312 86:0.0769948 88:0.314893 89:0.00236903 90:0.0557751 92:0.00446831 93:0.222576 95:0.0052297 96:0.0212 97:0.313416 98:0.012527 99:0.3749 100:0.0271705 101:0.199394 102:0.0070203 103:0.10106 104:0.303164 105:0.191055 106:0.0665909 107:0.378612 108:0.304129 109:0.00183075 110:0.00518774 111:0.0763363 112:0.335651 113:0.0032189 114:0.25436 115:0.338623 116:0.00103646 117:0.00307357 118:0.00544341 119:0.0325618 120:0.019106 121:0.347628 122:0.367761 123:0.00702072 124:0.0280151 125:0.0323253 126:0.0482087 127:0.063797 128:0.0246049 129:0.287849 130:0.212207 131:0.0643039 132:0.0358511 133:0.0544876 135:0.372981 136:0.00313528 137:0.402014 138:0.402014 139:0.395208 140:0.117407 141:0.0800479 142:0.018376 143:0.119047 144:0.0308141 145:0.0073827 146:0.174931 147:0.27154 148:0.0544717 149:0.0372233 150:0.270654 151:0.00473159 152:0.308478 153:0.172076 154:0.332983 155:0.00468054 156:0.332983 157:0.298546 159:0.00583957 160:0.0050439 161:0.0131986 162:0.135588 163:0.0567568 164:0.324748 165:0.0699745 166:0.0724558 167:0.26273 168:0.0135914 169:0.0374969 170:0.204601 171:0.10229 172:0.132572 173:0.0263734 174:0.131813 175:0.0292021 176:0.00333059 177:0.33844 178:0.00929797 179:0.00386105 180:0.0935159 181:0.18842 182:0.317634 183:0.00575887 184:0.00171538 185:0.018146 186:0.021514 187:0.0248637 188:0.0952078 189:0.097116 190:0.0146759 191:0.0498972 192:0.249819 193:0.0429557 195:0.339922 196:0.00321051 197:0.0299221 198:0.000133228 199:0.0551516 200:0.0189733 201:0.00583944 202:0.378612 203:0.006799 204:0.0660251 205:0.147729 206:0.0456726 207:0.0977445 208:0.0570788 209:0.123579 210:0.00119533 211:0.0154335 212:0.000472306 213:0.00784385 214:0.247198 215:0.326335 216:0.0445957 217:0.136271 218:0.154414 219:0.00444157 220:0.388987 221:0.0189361 223:0.0054672 225:0.257565 227:0.0117908 228:0.084766 229:0.00404795 230:0.232554 231:0.0116931 232:0.217776 233:0.0914747 234:0.0949424 235:0.102108 236:0.0069545 237:0.111475 238:0.0117012 239:0.0598573 240:0.0537046 241:0.231136 242:0.0846203 243:0.0137136 244:0.0110852 245:0.318321 246:0.0752106 247:0.00869857 248:0.306986 249:0.0148495 250:0.242106 251:0.117205 252:0.0748305 253:0.311144 254:0.280029 255:0.143552 256:0.0886739 257:0.0953726 258:0.00995988 259:0.0152542 260:0.331241 261:0.0136435 262:0.0271565 263:0.329087 264:0.402014 265:0.0046588 267:0.220531 268:0.00101021 269:0.0395616 270:0.302496 271:0.215954 272:0.300457 273:0.339922 274:0.00590279 275:0.215948 276:0.00166765 277:0.13721 278:0.329753 279:0.0234637 280:0.0149952 281:0.313946 282:0.170107 283:0.00265163 284:0.0266898 285:0.177948 286:0.0141146 287:0.21011 288:0.221392 289:0.304129 290:0.0811103 291:0.0480609 292:0.103103 293:0.270129 295:0.000407574 296:0.00485468 297:0.0661649 298:0.00526373 299:0.332983 300:0.0212106 301:0.00194736 302:0.00353673 303:0.350666 304:0.00362182 305:0.0640559 306:0.290426 307:0.326335 308:0.348183 309:0.00160821 310:0.388987 311:0.276253 312:0.205601 313:0.0184032 314:0.365532 315:0.0176064 316:0.365532 317:0.00165454 318:0.00412036 319:0.356227 320:0.356227 321:0.00591437 322:0.0152789 323:0.0100523 324:0.00910463 326:0.00101936 327:0.00177975 328:0.368767 329:0.106727 330:0.0342592 331:0.31437 332:0.023438 333:0.381272 334:0.369883 335:0.0126144 336:0.0246113 337:0.33844 338:0.0308336 339:0.00577694 340:0.091097 341:0.0840898 342:0.294815 343:0.294815 344:0.059863 345:0.138812 346:0.0326901 347:0.318321 348:0.318321 349:0.00425502 350:0.3749 352:0.0356527 353:0.3339 354:0.000383802 355:0.0293363 356:0.201063 357:0.0569126 358:0.0487972 359:0.126835 360:0.230921 361:0.247282 362:0.146731 363:0.0479115 364:0.0370758 366:0.0210173 367:0.331241 368:0.00384739 369:0.112727 370:0.339922 371:0.0365978 372:0.04088 373:0.0147387 374:0.136792 375:0.0169032 376:0.125906 377:0.000561232 378:0.159828 379:0.283402 380:0.40397 381:0.02038 383:0.352604 384:0.352604 385:0.0332358 386:0.00302471 387:0.352604 388:0.0621972 389:0.141686 390:0.216493 391:0.0911968 393:0.355373 394:0.0758436 395:0.0147358 396:0.106136 397:0.000462957 398:0.00674083 399:0.343383 400:0.318969 401:0.343383 402:0.332983 403:0.336986 404:0.350666 405:0.0401716 406:0.0354503 407:0.347985 408:0.254013 409:0.348183 410:0.241817 411:0.108176 412:0.0865406 414:0.401142 416:0.00449114 417:0.0408443 418:0.0408443 420:0.174935 421:0.0662702 422:0.00943023 424:0.303545 425:0.00921965 426:0.0976396 427:0.170332 428:0.00869424 429:0.0168549 430:0.00936481 431:0.00472971 432:0.00749103 433:0.0413589 436:0.0699322 437:0.0465664 438:0.0139209 439:0.0416815 440:0.10987 441:0.000447933 442:0.097318 443:0.369883 444:0.0244879 445:0.319953 446:0.0034265 447:0.33844 448:0.0304646 449:0.0551049 450:0.26129 451:0.168619 452:0.175747 453:0.0138117 454:0.0140744 455:0.0211645 456:0.183393 457:0.108494 458:0.0772064 459:0.320418 460:0.3749 461:0.3339 462:0.00468297 463:0.00781228 464:0.0537361 465:0.3339 466:0.106099 467:0.107556 468:0.146931 469:0.164523 470:0.108878 471:0.205371 472:0.249063 473:0.313521 474:0.313521 475:0.084275 476:0.0318371 477:0.0160147 478:0.00223196 479:0.248311 480:0.00121076 481:0.028181 482:0.249947 483:0.0770696 484:0.353389 485:0.0709881 486:0.00535269 487:0.0315906 488:0.0307713 489:0.0266373 490:0.0416262 491:0.0127597 492:0.0165491 493:0.0185889 494:0.0149323 495:0.0175016 496:0.352604 497:0.00134936 499:0.104805 501:0.363122 502:0.0561977 503:0.355373 504:0.110976 505:0.0245205 506:0.271923 508:0.325512 509:0.000407574 510:0.0234313 511:0.0682692 512:0.374266 513:0.374266 514:0.0174748 515:0.00625175 516:0.343383 517:0.0397356 518:0.00478394 519:0.000913804 520:0.000212141 521:0.350666 522:0.000908922 523:0.00631543 524:0.348183 525:0.00741463 526:0.348183 527:0.260626 528:0.24614 529:0.00265881 530:0.401142 531:0.32586 532:0.365532 533:0.00601235 534:0.000118284 535:0.0821819 536:0.220845 538:0.0381197 539:0.35563 541:0.00546133 542:0.00123078 543:0.305282 544:0.0430555 545:0.0131809 546:0.0761143 547:0.324748 548:0.167575 549:0.347628 551:0.347628 552:0.0300177 553:0.00505259 554:0.0141189 555:0.368767 556:0.342798 557:0.217881 558:0.368767 559:0.014113 560:0.368767 561:0.00803251 562:0.0553076 563:0.0850561 564:0.381272 565:0.247953 566:0.381272 567:0.194165 568:0.227471 569:0.03717 570:0.125613 571:0.0352398 572:0.00569686 573:0.00450399 574:0.00830309 575:0.294815 576:0.294815 577:0.239408 578:0.294815 579:0.135838 580:0.0223483 581:0.0112424 582:0.313416 583:0.0893529 584:0.0520238 585:0.000511929 586:0.318321 587:0.0539204 588:0.3749 589:0.3339 590:0.00181513 591:0.300272 592:0.0107253 593:0.0482554 594:0.225467 595:0.252009 596:0.140892 597:0.0408584 598:0.151185 599:0.0527748 600:0.231614 601:0.372981 602:0.0327687 603:0.333643 604:0.0131322 605:0.254113 606:0.037231 607:0.00149608 608:0.257285 609:0.0406922 610:0.0652995 611:0.00647826 612:0.0480791 613:0.339922 614:0.114163 615:0.217627 616:0.353389 617:0.353389 618:0.0404181 619:0.329753 620:0.0242096 621:0.000671459 622:0.00450491 623:0.0550489 624:0.214824 625:0.0136095 626:0.00421974 627:0.197779 628:0.0315369 629:0.352604 630:0.0835272 631:0.180891 632:0.298208 633:0.0504307 634:0.254958 635:0.0234559 636:0.304129 637:0.0552217 638:0.304129 639:0.0371157 640:0.00109845 641:0.355373 642:0.029115 643:0.186052 644:0.325512 645:0.097623 646:0.325512 647:0.0343295 648:0.00986309 649:0.00963241 650:0.374266 651:0.0279024 652:0.374266 654:0.343383 655:0.343383 656:0.0463337 657:0.011815 658:0.00509785 659:0.0158842 661:0.332983 662:0.000338433 663:0.042253 664:0.110155 665:0.326335 666:0.00217428 667:0.326335 668:0.0109047 669:0.0023412 670:0.0795487 671:0.348183 672:0.168038 673:0.086033 674:0.0446946 675:0.0234972 676:0.0280374 677:0.401142 678:0.00151772 679:0.000294112 680:0.00587247 681:0.058658 682:0.000674812 683:0.355747 684:0.012491 685:0.00275757 689:0.0054672 690:0.356227 691:0.137661 692:0.0750608 694:0.231951 695:0.356227 696:0.0974495 697:0.00544259 698:0.0450266 699:0.0707566 700:0.00275994 701:0.35563 702:0.000175826 703:0.23639 704:0.21739 705:0.0892453 706:0.0923618 707:0.137642 708:0.0851397 709:0.0483887 710:0.012213 711:0.191294 712:0.0463358 713:0.00303155 714:0.0162921 715:0.000433079 716:0.347628 717:0.00823469 718:0.0205907 719:0.372812 720:0.00636838 721:0.00606507 722:0.00628571 723:0.248362 724:0.00152059 725:0.0133875 726:0.00175663 727:0.0655162 728:0.0467094 729:0.0641116 730:0.369883 731:0.108565 732:0.337346 733:0.34995 734:0.225764 735:0.34995 736:0.34995 737:0.00151099 738:0.0103493 739:0.0830083 740:0.0265217 741:0.00287578 742:0.148474 743:0.00989909 744:0.313416 745:0.00891153 746:0.241465 747:0.0292761 749:0.052462 750:0.00610799 751:0.0507509 752:0.0506769 753:0.0359012 754:0.270754 755:0.00817399 756:0.301907 757:0.0332678 758:0.0202822 759:0.3339 760:0.014334 761:0.155567 762:0.13032 763:0.116726 764:0.100982 765:0.150421 766:0.15156 767:0.0316001 768:0.043543 769:0.195361 770:0.0405628 771:0.331241 772:0.132263 773:0.0248799 774:0.372981 775:0.0208918 776:0.00549178 777:0.00546718 778:0.0175702 779:0.0856391 780:0.0262273 781:0.000959653 782:0.0162056 783:0.00665748 784:0.402014 785:0.0948797 786:0.03903 787:0.0164829 788:0.374949 789:0.0198224 790:0.00045162 791:0.0173331 792:0.0168176 793:0.000371464 794:0.353389 795:0.0427525 796:0.0637634 797:0.329753 798:0.0764343 799:0.0103345 800:0.0707546 801:0.0978325 802:0.0986825 803:0.0283712 804:0.014759 805:0.156848 806:0.00316775 807:0.00180549 808:0.0149323 809:0.0175016 810:0.352604 811:0.285479 812:0.0111306 813:0.0325885 814:0.00485103 815:0.0781588 816:0.0680446 817:0.0176182 818:0.0934869 819:0.0168054 820:0.0696428 821:0.026424 822:0.308478 823:0.164302 824:0.0495206 825:0.225649 826:0.0258202 827:0.00242544 828:0.138071 829:0.0211585 830:0.016348 831:0.24971 832:0.0122978 833:0.00659532 834:0.272989 835:0.0348718 836:0.350666 837:0.00343556 838:0.000736827 839:0.00165965 840:0.0167514 844:9.05356e-005 845:0.000334457 846:0.00371056 847:0.00172016 848:0.00986871 849:0.00236695 850:0.0957527 851:0.0121335 852:0.00286259 853:0.0295044 854:0.338623 855:0.0608487 856:0.00791154 857:0.00514409 858:0.0118694 859:0.132268 860:0.00210198 861:0.015817 862:0.110304 863:0.154783 864:0.0225134 865:0.388987 866:0.0117806 867:0.00208592 868:0.0354582 869:0.0353349 870:0.000972706 871:0.281089 872:0.0105457 874:0.00178255 875:0.0107678 876:0.0458844 878:0.0232285 879:0.31421 880:0.272635 881:0.0718814 882:0.0474656 883:0.205147 884:0.0138277 885:0.0785794 886:0.00945088 887:0.347628 888:0.327178 889:0.00899737 891:0.368767 892:0.316083 893:0.334889 894:0.011092 895:0.372812 896:0.00250111 897:0.00327493 898:0.0147601 899:0.0242423 900:0.00951816 901:0.36555 902:0.0057109 903:0.00981242 904:0.0291522 905:0.138917 906:0.214782 907:0.021392 908:0.0341959 909:0.0181769 910:0.0451709 911:0.34995 912:0.010577 913:0.0146487 914:0.152493 915:0.33844 916:0.271551 917:0.236108 918:0.0119811 919:0.0108668 920:0.00791403 921:0.0685139 922:0.00375461 924:0.0476996 925:0.231246 926:0.0812384 927:0.000982016 929:0.0329453 931:0.216398 932:0.0188845 933:0.229205 934:0.0326753 935:0.306986 936:0.176593 937:0.311144 938:0.130515 939:0.116834 940:0.089238 941:0.313521 942:0.0191687 943:0.129111 944:0.194797 945:0.0131362 946:0.0427935 947:9.05702e-005 948:0.0105168 949:0.0466675 950:0.0217335 951:0.000686806 952:0.337542 953:0.00131874 954:0.0102139 955:0.000791245 956:0.0170304 957:0.0703668 958:0.103215 959:0.00275103 960:0.0583706 961:0.395208 962:0.050381 963:0.00489602 964:0.00811145 965:0.20401 966:0.353389 967:0.0522537 968:0.0100905 969:0.00570919 970:0.0111167 971:0.0969599 972:0.187482 973:0.350879 974:0.0152648 975:0.145354 976:0.378612 977:0.123913 978:0.153884 979:0.378612 980:0.18833 981:0.00579063 982:0.363122 983:0.000189475 984:0.363122 985:0.223161 986:0.211809 987:0.0401796 988:0.304129 989:0.304129 990:0.19889 991:0.355373 993:0.0447075 994:0.022637 995:0.0961735 996:0.290064 997:0.0585431 998:0.335651 999:0.244273 1000:0.00105718 1001:0.0078218 1002:0.162828 1003:0.0540949 1004:0.0292992 1005:0.292434 1006:0.0367636 1007:0.147541 1008:0.048045 1009:0.374266 1010:0.00454642 1011:0.0239537 1012:0.374266 1013:0.0227919 1014:0.00562997 1015:0.004016 1016:0.0185341 1017:0.00595407 1018:0.0206887 1019:0.22858 1020:0.0124171 1021:0.0175861 1023:0.238644 1024:0.338623 1025:0.391926 1026:0.000635664 1027:0.000775029 1028:0.00442168 1029:0.000923368 1030:0.388987 1033:0.00418152 1034:0.0251503 1035:0.0284082 1036:0.365532 1037:0.0137847 1039:0.0421493 1040:0.000337469 1042:0.348218 1043:0.348218 1044:0.00106042 1045:0.356227 1046:0.0046924 1047:0.00292503 1051:0.00278963 1052:0.349252 1054:0.305282 1055:0.305282 1056:0.0127754 1057:0.0534462 1058:0.139939 1059:0.305282 1060:0.13195 1061:0.250384 1062:0.324748 1063:0.00732779 1064:0.0231692 1065:0.0130479 1066:0.0070928 1067:0.00828957 1069:0.00476281 1070:0.0682101 1072:0.0133346 1073:0.372812 1074:0.372812 1075:0.222052 1076:0.010669 1077:0.36555 1078:0.011719 1079:0.00889662 1080:0.0319756 1081:0.19525 1082:0.0693125 1083:0.00701613 1085:0.00535034 1086:0.33844 1087:0.33844 1088:0.0016716 1089:0.297886 1090:0.350927 1091:0.00379733 1092:0.105118 1093:0.0464792 1094:0.00385404 1095:0.313416 1096:0.145374 1097:0.0512015 1098:0.0601314 1099:0.00531328 1100:0.268905 1101:0.0035198 1102:0.0264018 1103:0.0994018 1104:0.0310464 1105:0.0349006 1106:0.0796323 1107:0.306986 1108:0.00500121 1109:0.118951 1110:0.240856 1111:0.12017 1112:0.161303 1113:0.303164 1114:0.313521 1115:0.0329626 1116:0.331241 1117:0.0191894 1118:0.331241 1119:0.0151952 1120:0.372981 1121:0.00983294 1122:0.289878 1123:0.00501268 1124:0.0119809 1125:0.0830989 1126:0.163843 1127:0.0686777 1128:0.0399063 1129:0.0113537 1130:0.0141578 1131:0.0807102 1132:0.146107 1133:0.329753 1134:0.329753 1135:0.0343178 1136:0.269246 1137:0.00327127 1138:0.166965 1139:0.378612 1140:0.184043 1141:0.0016039 1142:0.107071 1143:0.138593 1145:0.0613749 1146:0.00134936 1147:0.00504118 1148:0.0445546 1149:0.053004 1150:0.0628363 1151:0.0657219 1152:0.0782334 1153:0.00655523 1154:0.00381522 1155:0.344083 1156:0.00788599 1157:0.0222889 1158:0.0337958 1159:0.224466 1160:0.223518 1161:0.0496546 1162:0.0368812 1163:0.00105718 1164:0.335651 1165:0.182612 1166:0.011214 1167:0.010585 1168:0.0690981 1169:0.018863 1170:0.0155969 1171:0.00619685 1172:0.00211671 1173:0.00765338 1174:0.149505 1175:0.0156753 1176:0.105295 1177:0.279388 1178:0.350666 1179:0.0858625 1180:0.00010903 1182:0.0110373 1183:0.326335 1184:0.348183 1185:0.0291381 1186:0.000876411 1188:0.00078677 1189:0.201902 1190:0.110913 1193:0.00143345 1194:0.000444991 1195:0.401142 1196:0.0025141 1197:0.00612856 1198:0.102203 1199:0.365532 1200:0.163316 1201:0.0189361 1202:0.185451 1204:0.00742293 1205:0.0326344 1206:0.00102282 1207:0.356227 1208:0.00563171 1209:0.0786302 1210:0.305282 1211:0.128227 1212:0.278694 1213:0.141116 1214:0.324748 1215:0.0148573 1216:3.47502e-006 1217:0.00336108 1218:0.0117232 1219:0.372812 1221:0.00340116 1222:0.36555 1223:0.300091 1224:0.0320559 1225:0.00136148 1227:0.00466928 1228:0.357478 1229:0.191641 1230:0.0242446 1231:0.0642018 1232:0.0597542 1233:0.0291313 1234:0.0369988 1235:0.0618603 1236:0.0792926 1237:0.0270429 1238:0.0135814 1239:0.0022784 1240:0.15705 1241:0.260603 1242:0.092215 1243:0.292945 1244:0.172131 1245:0.044769 1246:0.113356 1247:0.0772643 1248:0.0230324 1249:0.318321 1250:0.017771 1251:0.0255117 1252:0.240143 1253:0.268397 1254:0.0251242 1255:0.0213767 1256:0.0477071 1257:0.00401481 1258:0.0189222 1259:0.201821 1260:0.038052 1261:0.192002 1262:0.126215 1263:0.270388 1264:0.0629375 1265:0.011325 1266:0.0252773 1267:0.0027192 1268:0.00979299 1269:0.00246591 1270:0.0261154 1271:0.0340071 1272:0.0677235 1273:0.107595 1274:0.322395 1275:0.0249546 1276:0.00558561 1277:0.13077 1278:0.224609 1279:0.105114 1280:0.0441814 1281:0.0703134 1282:0.40397 1283:0.00151041 1284:0.180807 1285:0.378612 1286:0.00248054 1287:0.0458343 1288:0.0130361 1289:0.0332358 1290:0.231811 1291:0.0100833 1292:0.0063587 1293:0.355373 1294:0.0552074 1295:0.249915 1296:0.0152642 1297:0.0603299 1298:0.00358309 1299:0.0188924 1300:0.00887612 1301:0.209284 1302:0.00233543 1303:0.325512 1304:0.325512 1305:0.325512 1306:0.0510384 1307:0.0145288 1308:0.00341359 1309:0.122931 1310:0.00207727 1311:0.0938769 1312:0.000271179 1313:0.00969082 1314:0.0113766 1315:0.326335 1316:0.00717737 1317:0.0350288 1318:0.0052658 1319:0.0330934 1320:0.127211 1321:0.00917346 1322:0.338623 1323:0.000635664 1324:5.5327e-005 1326:0.00572236 1327:0.0205257 1328:0.00233253 1329:0.0524279 1330:0.388987 1331:0.348218 1332:0.250903 1333:0.133193 1334:0.35563 1335:0.0159947 1336:0.298345 1337:0.324748 1338:0.324748 1339:0.231115 1340:0.347628 1341:0.0162921 1342:0.00197702 1343:0.00874979 1345:0.00869424 1347:0.178911 1348:0.00648733 1350:0.0789954 1351:0.0224024 1352:0.0358044 1353:0.36555 1354:0.0185383 1355:0.00757112 1356:0.0130828 1357:0.0368604 1358:0.05382 1359:0.0405315 1360:0.200855 1361:0.34995 1362:0.0220398 1363:0.00100296 1364:0.106751 1365:0.00238865 1366:0.0046113 1367:0.000551578 1368:0.0461851 1369:0.244109 1370:0.00174672 1371:0.193994 1372:0.318321 1373:0.280835 1374:0.148855 1375:0.0177888 1376:0.0441241 1377:0.0120076 1378:0.178977 1379:0.0512218 1380:0.208311 1381:0.113241 1382:0.00651384 1384:0.331241 1385:0.217938 1386:0.0159561 1387:0.0126904 1388:0.0104683 1389:0.353389 1390:0.296126 1391:0.0204245 1392:0.0743826 1393:0.0218557 1394:0.0309563 1396:0.101263 1397:0.000707876 1398:0.0345698 1399:0.0599839 1400:0.00593813 1401:0.0305214 1402:0.195052 1403:0.0818909 1404:0.260709 1405:0.24513 1406:0.335651 1407:0.011214 1408:0.159208 1409:0.0128382 1410:0.0202156 1411:0.174992 1412:0.343383 1413:0.0107215 1414:0.00370092 1415:0.00894955 1416:0.110796 1417:0.123338 1418:0.043378 1419:0.0800505 1420:0.332983 1421:0.350666 1422:0.350666 1423:0.134241 1424:0.0427811 1425:0.000946057 1426:0.000667379 1427:0.00100378 1428:0.000493006 1429:0.00446767 1430:0.127616 1431:0.0167166 1432:0.00219486 1433:0.00146276 1434:0.000644093 1435:0.0049048 1436:0.00575686 1437:0.00207954 1438:0.0626804 1440:0.356227 1441:0.0178141 1442:0.161627 1443:0.00663059 1445:0.0348743 1447:0.247202 1448:0.0232619 1450:0.00862954 1451:0.00692136 1452:0.184509 1453:0.00313553 1454:0.0522469 1455:0.0927594 1456:0.0905518 1457:0.10135 1458:0.00600836 1459:0.011397 1460:0.313416 1461:0.00457719 1462:0.0180339 1463:0.0447651 1464:0.0222079 1465:0.0206286 1466:0.3339 1467:0.228721 1468:0.308569 1469:0.00783477 1470:0.372981 1472:0.0293851 1473:0.00640696 1474:0.386397 1475:0.113395 1476:0.0666711 1478:0.137089 1479:0.40397 1480:0.00952086 1481:0.186564 1482:0.115626 1483:0.18809 1484:0.308478 1485:0.335651 1486:0.296856 1487:0.164642 1488:0.00207727 1489:0.000927043 1490:0.020816 1491:0.00553022 1493:0.000525846 1494:0.00467165 1495:0.00153344 1496:0.0218097 1497:0.0099098 1498:0.365532 
