svm_type c_svc
kernel_type linear
nr_class 3
total_sv 38
rho -0.348733 -0.101644 0.175141
label 0 44100 44200
probA -9.02329 -2.09178 -3.85958
probB -5.43214 -0.187701 -0.647348
nr_sv 2 27 9
SV
0.07358490633798438 0.07533594592188109 0:0.0454072 1:0.333576 2:0.0220882 4:0.0635698 5:0.102682 6:0.322658 7:0.0450866 8:0.0565707 9:0.0307939 10:0.036404 11:0.00779675 12:0.00769681 13:0.306912 14:0.295397 15:0.36162 16:0.0666739 18:0.0162379 19:0.458909 20:0.458909 21:0.0888947 22:0.0631011 23:0.345173 24:0.360658 25:0.314584 26:0.00439387 27:0.0408654 28:0.321331 29:0.0871322 30:0.0300948 31:0.0294387 32:0.311337 33:0.0205147 34:0.0223197 35:0.00919331 36:0.0634185 37:0.458909 38:0.00235263 39:0.00554307 40:0.129772 41:0.12675 42:0.363217 43:0.00875549 44:0.00543307 45:0.00184689 46:0.00758531 47:0.00140786 48:0.208342 49:0.0119244 50:0.186884 51:0.00154463 53:0.0513633 54:0.0714249 55:0.00680887 56:0.122949 57:0.0063835 58:0.13034 59:0.0110376 60:0.0332329 61:0.00974392 62:0.183203 63:0.296585 64:0.402894 65:0.121397 66:0.232348 68:0.0164527 69:0.147776 70:0.0315044 71:0.0538646 72:0.027461 73:0.0400228 75:0.00196634 78:0.0102179 79:0.00120593 80:0.20266 81:0.0144862 82:0.438655 84:0.0621899 85:0.0229342 86:0.339508 87:0.301005 88:0.0783197 89:0.00479798 90:0.0329717 91:0.366266 92:0.0672514 93:0.111088 94:0.107368 95:0.0995526 96:0.0966196 97:0.0134462 98:0.143243 100:0.0243555 101:0.365596 102:0.125893 103:0.0151457 104:0.365298 105:0.072053 106:0.0712146 107:0.21335 108:0.223661 109:0.0189173 110:0.126739 111:0.0491906 112:0.0187351 113:0.0732017 114:0.213147 115:0.0180238 116:0.047521 117:0.000561508 118:0.0199044 119:0.0810569 120:0.352371 121:0.047411 122:0.0444732 123:0.325768 124:0.325768 125:0.00527465 126:0.0459432 127:0.00196634 128:0.354744 129:0.363217 130:0.0102328 132:0.0124387 133:0.00220179 134:0.349361 135:0.376808 136:0.318598 137:0.00701409 138:0.00029939 139:0.00129738 140:0.322222 141:0.000899705 142:0.164758 143:0.00682492 144:0.000314333 146:0.000839905 147:0.0251929 148:0.214579 149:0.281488 150:0.00141434 151:0.321331 152:0.0630541 153:0.125291 154:0.365366 155:0.0295715 156:0.150053 157:0.125872 158:0.000546998 159:0.0474574 160:0.23529 161:0.0359609 162:0.011199 163:0.00620529 164:0.327622 165:0.327622 166:0.322419 167:0.11714 168:0.0289467 169:0.103807 170:0.0710094 171:0.257746 172:0.21118 173:0.0945694 174:0.0931845 175:0.350577 176:0.0751554 177:0.0454828 178:0.0154596 179:0.0177556 180:0.043994 181:0.021882 182:0.402894 183:0.033068 184:0.0150099 185:0.0562896 186:0.00223936 189:0.00150572 190:0.164199 191:0.21063 192:0.00648124 193:0.120249 194:0.0443402 195:0.393279 196:0.00808599 197:0.363217 199:0.0300838 200:0.00236537 201:0.00179891 202:0.305991 204:0.365115 205:0.361497 206:0.0515201 207:0.00113229 208:0.0880042 209:0.0030663 210:0.00391652 211:0.00184689 212:0.00561944 213:0.00810038 214:0.000430383 215:0.00639303 216:0.00449502 217:0.0994194 218:0.24375 219:0.00449756 220:0.0116744 221:0.0212823 222:0.0547471 223:0.22646 224:0.195784 225:0.20771 226:0.0432052 227:0.144333 228:0.322658 229:0.00644029 230:0.307094 231:0.147557 232:0.0362057 233:0.11751 234:0.033344 235:0.295397 236:0.179529 237:0.172703 238:0.0125951 239:0.244727 240:0.0965239 241:0.0933394 242:0.327622 243:0.362715 244:0.0288421 245:0.365596 246:0.0281054 247:0.0483203 248:0.0340675 249:0.0348659 250:0.366526 251:0.0688284 252:0.150273 253:0.035744 254:0.0263794 255:0.176711 256:0.0178459 257:0.122771 258:0.219631 259:0.171591 260:0.124227 261:0.320405 262:0.0764403 263:0.12357 264:0.0200089 265:0.00237548 266:0.00214222 268:0.0274428 269:0.0344049 270:0.00143491 271:0.00651881 272:0.013394 273:0.352371 274:0.00474201 276:0.354744 277:0.363217 279:0.00491473 280:0.460333 281:0.0032778 282:0.0313051 283:0.0158603 284:0.00269733 285:0.0888123 286:0.00326464 287:0.114363 288:0.000251325 289:0.0179602 290:0.0506267 291:0.267474 292:0.000548952 294:0.00745985 295:0.0331822 296:0.0151421 297:0.00252879 298:0.445465 299:2.43444e-005 300:0.0629472 301:0.277461 303:0.200177 304:0.360778 305:0.000611496 306:0.360778 307:0.0155924 308:0.396459 309:0.000768416 310:0.000768416 311:0.059349 312:0.0256341 313:0.0690697 314:0.105638 315:0.367975 316:0.096591 317:0.303313 318:0.000364073 319:0.0275019 320:0.117036 321:0.236851 322:0.104569 323:0.29193 324:0.333993 325:0.135926 326:0.0706659 327:0.0488345 328:0.274618 329:0.125919 330:0.0522094 331:0.365366 332:0.12345 333:0.0362941 334:0.0318946 335:0.108555 336:0.0306669 337:0.214829 338:0.173884 339:0.295397 340:0.0495791 341:0.19848 342:0.123939 343:0.0679178 344:0.316216 345:0.0144792 346:0.0916359 347:0.327622 348:0.0261118 349:0.0577578 350:0.362715 351:0.0864095 352:0.057544 353:0.0119505 354:0.365596 355:0.0208905 356:0.0840215 357:0.0193476 358:0.0518525 359:0.0256187 360:0.256436 361:0.133495 362:0.00839575 363:0.0905218 364:0.101637 365:0.137883 366:0.121025 367:0.16923 368:0.073363 369:0.058864 370:0.139462 371:0.0649395 372:0.0753729 373:0.0315502 374:0.215391 375:0.0125577 376:0.0180935 377:0.320405 378:0.0421605 379:0.043291 380:0.352533 381:0.0219748 382:0.364798 383:0.225784 384:0.390919 385:0.390919 386:0.444232 387:0.00984562 388:0.00721439 389:0.0049456 390:0.0147751 391:0.0502285 392:0.254386 393:0.00482753 394:0.00251042 395:0.0828841 396:0.00321598 397:0.00970029 398:0.110202 399:0.293689 400:0.000820394 401:0.000697906 402:0.354744 403:0.354744 404:0.00985223 406:0.154992 407:0.15009 408:0.46418 409:0.0116322 410:0.00132108 412:0.365115 413:0.0305743 414:0.0570552 415:0.349361 417:0.349361 418:0.0398639 419:0.282409 420:0.129006 421:0.000263841 422:0.352894 424:0.00153488 425:0.0011572 426:0.000819971 427:0.00324863 428:0.232083 429:0.0223536 430:0.438655 432:0.445465 433:0.224142 434:0.076629 435:0.445465 436:0.0065549 437:0.0348284 438:0.382345 439:0.249608 440:0.00243392 441:0.00996061 442:0.103625 443:0.0134004 444:0.00629794 445:0.0113749 446:0.00529405 447:0.360658 449:0.0317911 450:0.00227476 451:0.0011223 452:0.389229 453:0.0360464 454:0.087889 455:0.192787 456:0.0138804 457:0.205152 458:0.16427 459:0.0024845 460:0.0794675 461:0.0744491 462:0.030471 463:0.26362 464:0.0159834 465:0.366266 466:0.366266 467:0.0299762 468:0.0296524 469:0.0678645 470:0.0578781 471:0.0446605 472:0.119377 473:0.101891 474:0.321331 475:0.118114 476:0.145436 477:0.0420816 478:0.0633946 479:0.0349716 480:0.117964 481:0.0538193 482:0.102612 483:0.0139807 484:0.211913 485:0.00844067 486:0.231246 487:0.0161905 488:0.256671 489:0.0728144 490:0.203034 491:0.270201 492:0.0198791 493:0.141996 494:0.0172741 495:0.00174957 496:0.0253611 497:0.189404 498:0.0687691 499:0.161532 500:0.34624 501:0.021485 502:0.0472189 503:0.0221543 504:0.0815796 505:0.366526 506:0.142737 507:0.0172831 508:0.343215 509:0.0600716 510:0.026744 511:0.122564 512:0.082348 513:0.207261 514:0.158129 515:0.00555322 516:0.11935 517:0.349725 518:0.241109 519:0.127963 520:0.0643076 521:0.10311 522:0.27342 523:0.364798 524:0.000634824 525:0.361806 526:0.202731 527:0.00178198 528:0.0239246 529:0.0461662 530:0.280139 531:0.0099943 532:0.390919 533:0.192539 534:0.0445362 535:0.0416106 536:0.0212774 537:0.158055 538:0.352371 539:0.325768 540:0.000148858 541:0.00360571 542:0.393279 546:0.0102477 547:0.00108269 549:0.00110698 550:0.0241906 551:0.363217 552:0.00641008 554:0.460333 555:0.0109745 556:0.0134669 558:0.376808 559:0.338411 561:0.0202687 562:0.0590286 563:0.000401948 564:0.352894 566:0.352894 567:0.00146864 568:0.00665027 570:0.00314841 571:0.0119865 572:0.438655 573:0.0022528 574:5.21456e-005 575:0.0159638 576:0.20195 577:0.00953063 578:0.0768184 579:0.000816911 580:0.117347 581:0.382345 582:0.000225221 583:0.0348979 584:0.360778 585:0.0307458 586:0.27382 587:0.025528 588:0.000551889 589:0.0107217 590:0.0168497 591:0.0104153 592:0.2107 593:0.0507069 594:0.367975 595:0.367975 596:0.30799 597:0.341129 598:0.0507924 599:0.00767521 600:0.0223511 601:0.119884 602:0.322658 603:0.0436505 604:0.0441591 605:0.0288093 606:0.01285 607:0.333993 608:0.288676 609:0.182952 610:0.0239115 611:0.183651 612:0.148122 613:0.105134 614:0.0384028 615:0.119148 616:0.212033 617:0.154851 618:0.171814 619:0.0960952 620:0.0525639 621:0.0205264 622:0.337696 623:0.337696 624:0.0205372 625:0.0537339 626:0.265976 627:0.0714031 628:0.232368 629:0.0337171 630:0.145441 631:0.284918 632:0.284918 633:0.0428026 634:0.0175118 635:0.097124 636:0.32571 637:0.115855 638:0.00998004 639:0.0828512 640:0.0107309 641:0.0149809 642:0.0119934 643:0.010495 644:0.0150534 645:0.0267872 646:0.0419202 647:0.231784 648:0.162468 649:0.110006 650:0.0363544 651:0.0262676 652:0.129414 653:0.351398 654:0.0321482 655:0.00281691 656:0.0596754 657:0.0109517 658:0.116812 659:0.0100303 660:0.00366482 661:0.0943334 662:0.350577 663:0.343915 664:0.0438787 665:0.0835249 666:0.0217501 667:0.193536 668:0.25203 669:0.0159044 670:0.0329649 671:0.0377112 672:0.113145 673:0.238232 674:0.0805979 675:0.171476 676:0.0906638 677:0.0519649 678:0.0796991 679:0.364798 680:0.0942784 681:0.0245424 682:0.134198 683:0.000634824 684:0.00192328 685:0.00114381 686:0.351006 687:0.0117831 688:0.263731 689:0.00344196 690:0.00909505 691:0.380192 692:0.00161508 693:0.000917269 694:0.00807639 695:0.172319 696:0.0377635 697:0.00118671 698:0.0456364 699:0.305457 700:0.282275 701:0.0932311 702:0.156092 703:0.0491025 704:0.0315155 705:0.0198396 706:0.0694206 707:0.00547759 708:0.00122676 709:0.00180449 710:0.014539 712:0.00691925 713:0.363217 714:0.460333 715:0.00143917 716:0.0339197 717:0.00884244 718:0.030451 719:0.00479317 720:0.0279249 721:0.00309679 722:0.0287148 723:0.0013448 724:0.00419738 725:0.00486923 727:0.0889159 728:0.00544107 729:0.276105 730:0.219654 731:0.217686 732:0.343287 734:0.00179574 735:0.00674417 738:4.01794e-005 740:0.0235408 741:0.251165 742:0.0227379 743:0.00943307 744:0.00139045 745:0.00742755 746:0.0809414 747:0.0164948 748:0.100189 749:0.136218 750:0.0345555 751:0.360778 752:0.331927 753:0.396459 755:0.151993 756:0.00204557 757:0.389229 758:0.0582265 759:0.0674091 760:0.0384685 761:0.148262 762:0.109854 763:0.000502395 764:0.00780679 765:0.135785 766:0.036497 767:0.227121 768:0.341129 769:0.204698 770:0.0992997 771:0.263486 772:0.322658 773:0.0405202 774:0.00769232 775:0.135474 776:0.333993 777:0.0295441 778:0.0529207 779:0.321331 780:0.0733307 781:0.0970622 782:0.0341249 783:0.365366 784:0.0156296 785:0.365366 786:0.0332107 787:0.0901516 788:0.276816 789:0.138937 790:0.183464 791:0.168854 792:0.261083 793:0.050189 794:0.154772 795:0.104751 796:0.00382899 797:0.185808 798:0.0439311 799:0.059238 800:0.0460049 801:0.0614715 802:0.232885 803:0.236227 804:0.22173 805:0.0223987 806:0.0407005 807:0.0177442 808:0.327622 809:0.0421682 810:0.0756252 811:0.0314689 812:0.0921188 813:0.334355 814:0.0706543 815:0.018442 816:0.0957795 817:0.0357275 818:0.0131746 819:0.335224 820:0.0166084 821:0.147242 822:0.223616 823:0.36162 824:0.161308 825:0.0930811 826:0.292643 827:0.0269552 828:0.365298 829:0.365298 830:0.0927657 831:0.102919 832:0.114675 833:0.350577 834:0.107229 835:0.0138479 836:0.0138599 837:0.0592281 838:0.0738801 839:0.0923891 840:0.0481265 841:0.172007 842:0.215843 843:0.0347648 844:0.0253225 845:0.352533 846:0.0884173 847:0.0372913 848:0.364798 849:0.0104617 850:0.364798 851:0.00439971 852:0.00178198 853:0.000841356 855:0.390919 857:0.0359928 858:0.00269179 859:0.45389 860:0.458909 861:0.00939082 862:0.155579 863:0.352371 864:0.123842 865:0.0708562 866:0.0835728 867:0.0734802 868:0.123695 869:0.188883 870:0.0966413 871:0.393279 872:0.00122676 873:0.000338408 875:0.00485159 876:0.00272544 877:0.005949 880:0.000398857 881:0.0209403 882:0.0374701 883:0.00397571 884:0.00949955 885:0.0460943 886:0.00159267 887:0.46418 888:0.0133007 889:0.0470208 890:0.46418 891:0.365115 893:0.00873496 894:0.00462869 895:0.0547367 896:0.197302 897:0.00860268 898:0.00674417 899:0.0199883 900:0.0343544 901:0.000329371 902:0.00144914 903:0.0051105 904:0.00186769 905:0.352894 907:0.00155287 908:0.0252228 909:0.0451748 910:0.0087306 911:0.133698 912:0.0503522 913:0.269239 914:0.000498183 915:0.00940294 916:0.00571838 918:0.00872651 919:0.23452 920:0.165441 921:0.00103265 923:0.0235522 924:0.00473674 926:0.0733833 927:0.00326877 928:0.0491822 929:0.0821458 930:0.173205 931:0.0143542 932:0.0245091 933:0.389229 934:0.0111025 935:0.0272247 936:0.0856668 937:0.0348405 938:0.264321 939:0.154752 940:0.046697 941:0.00288896 942:0.352687 943:0.0562994 944:0.106975 945:0.172349 946:0.134333 947:0.102561 948:0.170125 949:0.115252 950:0.174387 951:0.0997807 952:0.00495152 953:0.119596 954:0.0240486 955:0.0209258 956:0.172474 957:0.146644 958:0.0205968 959:0.0231299 960:0.019309 961:0.293203 962:0.0597479 963:0.207269 964:0.393759 965:0.021218 966:0.287252 967:0.0790473 968:0.256659 969:0.0444745 970:0.284918 971:0.172729 972:0.283853 973:0.284918 974:0.0682606 975:0.0161621 976:0.00394866 977:0.0228615 978:0.00457378 979:0.00555999 980:0.00390306 981:0.362715 982:0.362715 983:0.365596 984:0.0651855 985:0.0794126 986:0.0263481 987:0.261313 988:0.188264 989:0.268761 990:0.0951035 991:0.224608 992:0.0999425 993:0.0117776 994:0.0168447 995:0.307506 996:0.366526 997:0.0728706 998:0.365298 999:0.00449603 1000:0.0763027 1001:0.300514 1002:0.00847936 1003:0.238574 1004:0.101134 1005:0.0394806 1006:0.00711829 1007:0.065044 1008:0.0872438 1009:0.0224042 1010:0.402894 1011:0.320405 1012:0.349371 1013:0.202312 1014:0.178733 1015:0.0145213 1016:0.0269978 1017:0.0366198 1018:0.183799 1019:0.0383291 1020:0.0340525 1022:0.00104215 1023:0.361806 1024:0.000318122 1025:0.00250953 1026:0.0273454 1027:0.124432 1028:0.102274 1029:0.0596067 1030:0.0198223 1031:0.00881924 1032:0.0199625 1033:0.352371 1034:0.204389 1035:0.0132562 1036:0.325768 1037:0.204006 1038:0.126505 1039:0.00497122 1040:0.2286 1041:0.00312249 1042:0.120433 1043:0.0125899 1044:0.00738663 1046:0.267869 1048:0.00390082 1049:0.00298616 1050:0.00424638 1051:0.27516 1052:0.0102123 1053:0.30882 1054:0.00200989 1055:0.036762 1057:0.162498 1058:0.113022 1059:0.013626 1060:0.352894 1061:0.352894 1062:0.00186769 1063:0.00273375 1064:0.000802777 1065:0.000894842 1066:0.364615 1067:0.00985505 1068:0.0249767 1069:0.0124948 1070:0.0081726 1071:0.158997 1072:0.00135168 1073:0.0108735 1074:0.183949 1075:0.00389534 1076:0.104412 1077:0.00908518 1078:0.0161997 1079:0.360658 1080:0.360658 1081:0.00529405 1082:0.0108414 1083:0.0125778 1084:0.0294925 1085:0.0170005 1086:0.352687 1087:0.110249 1088:0.0117593 1089:0.102701 1090:0.341129 1091:0.0623248 1092:0.0959606 1093:0.341129 1094:0.178171 1095:0.297133 1096:0.303903 1097:0.00520257 1098:0.00692558 1099:0.0330121 1100:0.00847175 1101:0.366266 1102:0.157469 1103:0.00240029 1104:0.243581 1105:0.114285 1106:0.301214 1107:0.0535733 1108:0.0222698 1109:0.138132 1110:0.180591 1111:0.197085 1112:0.133371 1113:0.230524 1114:0.0937518 1115:0.0946148 1116:0.393759 1117:0.0829643 1118:0.122765 1119:0.00773114 1120:0.289147 1121:0.29296 1122:0.0405525 1123:0.109348 1124:0.0433294 1125:0.275515 1126:0.0182263 1127:0.32571 1128:0.079895 1129:0.0111802 1130:0.327622 1131:0.0658725 1132:0.107578 1133:0.237085 1134:0.0190646 1135:0.0181464 1136:0.365596 1137:0.0395975 1138:0.0829619 1139:0.311337 1140:0.128827 1141:0.12778 1142:0.0345958 1143:0.256708 1144:0.10909 1145:0.205459 1146:0.0384555 1147:0.0728091 1148:0.011178 1149:0.140266 1150:0.366526 1151:0.00500461 1152:0.0703602 1153:0.016231 1154:0.0321686 1155:0.262665 1156:0.16529 1157:0.0808145 1158:0.0093412 1159:0.0240826 1160:0.156363 1161:0.0124566 1162:0.117879 1163:0.0868568 1164:0.0279767 1165:0.320405 1166:0.228026 1167:0.220471 1168:0.179449 1169:0.352533 1170:0.148233 1171:0.132943 1172:0.0980178 1173:0.361806 1174:0.0057366 1175:0.177893 1176:0.014002 1178:0.00482194 1179:0.45389 1180:0.0167837 1181:0.0084636 1182:0.0422738 1183:0.0479871 1184:0.0649768 1185:0.0595428 1186:0.279362 1187:0.354744 1188:0.33942 1189:0.000564013 1192:0.460333 1193:0.252892 1194:0.166949 1195:0.00502983 1197:0.0208308 1198:0.0439402 1199:0.0323625 1200:0.0311473 1201:0.0862796 1202:0.230147 1203:0.00158172 1204:0.000275322 1205:0.0439445 1206:0.376808 1208:0.0029929 1209:0.352894 1210:0.00652753 1211:0.364615 1212:0.364615 1213:0.432997 1214:0.00155003 1215:0.0200155 1216:0.0888171 1217:0.080624 1218:0.00536443 1219:0.0830151 1220:0.445465 1221:0.00231741 1222:0.0212383 1223:0.0248622 1224:0.00111461 1225:0.396459 1226:0.00235021 1227:0.357777 1228:0.00439353 1229:0.146146 1230:0.0632336 1231:0.0282825 1232:5.65693e-005 1234:0.232394 1236:0.0484724 1237:0.180621 1238:0.271494 1239:0.0563484 1240:0.0449028 1241:0.0465082 1242:0.0567221 1243:0.00402578 1244:0.0402807 1245:0.136297 1246:0.333993 1247:0.321331 1248:0.0313367 1249:0.162354 1250:0.0302817 1251:0.365366 1252:0.0790906 1253:0.189941 1254:0.0423484 1255:0.096323 1256:0.0381423 1257:0.0401872 1258:0.295397 1259:0.0427561 1260:0.117897 1261:0.0690038 1262:0.0786447 1263:0.0855299 1264:0.165764 1265:0.140465 1266:0.32571 1267:0.01174 1268:0.362715 1269:0.00779132 1270:0.0680845 1271:0.242961 1272:0.0319091 1273:0.311337 1274:0.311337 1275:0.0857789 1276:0.0521007 1277:0.175493 1278:0.00696054 1279:0.0162772 1280:0.0103495 1281:0.365298 1282:0.0977479 1283:0.0678921 1284:0.0975692 1285:0.413435 1286:0.305126 1287:0.216111 1288:0.14307 1289:0.320405 1290:0.0651589 1291:0.0438952 1292:0.0367233 1293:0.0345734 1294:0.0836353 1295:0.133208 1296:0.297791 1297:0.14175 1298:0.189916 1299:0.0361667 1300:0.027135 1301:0.00128533 1302:0.361806 1305:0.361806 1306:0.0706749 1307:0.45389 1308:0.0186963 1309:0.152445 1310:0.00810745 1311:0.105537 1312:0.262191 1313:0.0392054 1314:0.170537 1315:0.352371 1316:0.0735474 1317:0.0595188 1318:0.220909 1320:0.00527465 1321:0.241337 1322:0.0214506 1323:0.181151 1324:0.0154702 1325:0.0177239 1326:0.0267213 1327:0.0151327 1328:0.0316727 1329:0.0923868 1330:0.0136297 1331:0.46418 1332:0.00666632 1333:0.00436395 1334:0.347779 1335:0.00905512 1336:0.0407937 1337:0.349361 1338:0.00456798 1339:0.376808 1340:0.376808 1341:0.013626 1342:0.000263841 1343:0.00455625 1344:0.364615 1345:0.00341286 1346:0.00563115 1347:0.00467871 1349:0.0279483 1350:0.0692073 1351:0.00445653 1352:0.255357 1353:0.135369 1354:0.382345 1355:0.382345 1356:0.0266821 1357:0.000309917 1358:0.0118071 1359:0.0081949 1360:0.003207 1361:0.338171 1362:0.00866129 1363:0.0116463 1364:0.389229 1365:0.00250365 1366:0.367975 1367:0.00280504 1368:0.02032 1369:0.240914 1370:0.352687 1371:0.341129 1372:0.209218 1373:0.0889136 1374:0.0545647 1375:0.0233269 1376:0.0553517 1377:0.188476 1378:0.0471067 1379:0.280157 1380:0.321331 1381:0.0445711 1382:0.0609781 1383:0.393759 1384:0.0829627 1385:0.0152927 1386:0.162075 1387:0.165478 1388:0.337696 1389:0.337696 1390:0.114192 1391:0.24106 1392:0.213942 1393:0.230073 1394:0.146357 1395:0.257409 1396:0.295173 1397:0.362715 1398:0.0692666 1399:0.0339354 1400:0.0267183 1401:0.188832 1402:0.0309992 1403:0.0369447 1404:0.366526 1405:0.216476 1406:0.0226214 1407:0.200726 1408:0.0380542 1409:0.0242224 1410:0.320405 1411:0.0511884 1412:0.0298423 1413:0.108468 1414:0.00838555 1415:0.0120711 1416:0.00794566 1417:0.0352804 1418:0.0249532 1419:0.0971249 1420:0.310294 1421:0.0222707 1422:0.0860735 1423:0.00547759 1424:0.363217 1426:0.134429 1427:0.000133203 1428:0.129649 1429:0.000819964 1430:0.361649 1431:0.00564328 1432:0.0116582 1433:0.0417063 1434:0.0158646 1435:0.0011167 1436:0.364615 1437:0.364615 1438:0.014429 1439:0.0269771 1440:0.0109612 1441:0.00605265 1442:0.0845664 1443:0.0730832 1444:0.260261 1445:0.0246513 1446:0.0868539 1447:0.00534501 1448:0.0313138 1449:0.0137714 1450:0.0170999 1451:0.0365785 1452:0.0838389 1453:0.133938 1454:0.0467756 1455:0.322658 1456:0.016782 1457:0.0159745 1458:0.144332 1459:0.108342 1460:0.0509025 1461:0.019944 1462:0.188204 1463:0.0661141 1464:0.0547753 1465:0.199063 1466:0.263778 1467:0.0718858 1468:0.0183803 1469:0.0423833 1470:0.146967 1471:0.0584941 1472:0.36162 1473:0.0223423 1474:0.350577 1475:0.0407716 1476:0.187961 1477:0.117031 1478:0.0641295 1479:0.0900357 1480:0.0558924 1481:0.0316959 1482:0.320405 1483:0.0112847 1484:0.361806 1485:0.0409858 1486:0.00754796 1487:0.068394 1488:0.393279 1489:0.00443198 1490:0.354744 1491:0.354744 1493:0.0023572 1494:0.0593483 1495:0.0258157 1496:0.00144914 1497:0.309616 1498:0.00150993 
0.06670378560714217 0.05272462190202215 0:0.0501621 1:0.100147 2:0.0479884 3:0.0983645 4:0.0829863 5:0.0345395 6:0.116466 7:0.319444 9:0.00297164 10:0.184231 11:0.000295085 12:0.0079546 13:0.031845 15:0.253762 16:0.0780762 17:0.340941 18:0.474692 19:7.02773e-005 20:0.00132153 21:0.00216611 22:0.373132 23:0.0194923 24:0.0160116 25:0.021611 26:0.0352096 27:0.469788 28:0.237121 29:3.86225e-005 30:0.0676316 31:0.171458 32:0.0963924 33:0.106025 34:0.0251535 35:0.177366 36:0.0203393 37:0.000491941 38:0.452414 39:9.75119e-005 40:0.0155328 41:0.00472139 42:0.0394023 44:0.175303 45:0.0616709 46:0.00425609 47:0.0276202 48:0.0391691 49:0.213704 50:0.098062 51:0.201553 52:0.097265 53:0.0105849 54:0.0762146 55:0.000869206 56:0.00501245 57:0.281673 58:0.0161199 59:0.0612722 60:0.0718574 61:0.125847 62:0.308253 63:0.184944 64:0.0052386 65:0.140084 66:0.0287748 67:0.366204 68:0.340941 69:0.0065706 70:0.0628415 71:0.0799721 72:0.475931 73:0.228272 75:0.00337568 76:0.00205603 77:0.176834 78:0.00302505 79:0.547252 80:0.0143309 81:0.0952557 82:0.201778 83:0.183662 84:0.11939 85:0.415673 86:0.051906 87:0.0379868 88:0.113046 89:0.0708156 90:0.0411521 91:0.128277 92:0.0203175 93:0.012402 94:0.0297823 95:0.00451003 97:0.031638 98:0.0384967 99:0.266572 100:0.339097 101:0.0901 102:0.197853 103:0.244163 104:0.000762313 105:0.21692 106:0.0349546 107:0.00186809 108:0.0104421 109:0.132656 110:0.284107 111:0.0636013 112:0.323471 113:0.105155 114:0.0123953 115:0.0327096 117:0.00186579 118:0.000134755 119:0.00374719 121:0.475931 122:0.00715073 123:0.00333721 125:0.126371 126:0.00770397 127:0.00517106 128:0.0289315 129:0.0328982 130:0.0218849 131:0.0732451 132:0.238613 133:0.102243 134:0.000292443 135:0.0147453 136:0.413163 137:0.0228371 138:0.154586 139:0.222198 140:0.0587676 141:0.00395274 142:0.003303 143:0.437685 144:0.0233349 145:0.0132455 146:0.132318 147:0.145243 148:0.1837 149:0.593112 150:0.00810001 151:0.0474429 152:0.00317265 153:0.0817942 154:0.00153233 155:0.0232078 156:0.0119291 157:0.0583245 158:0.0461531 159:0.0154731 160:0.119531 161:0.0183741 162:0.0631794 163:0.0983575 164:0.146438 165:0.20168 166:0.0483728 167:0.0258902 168:0.0197524 169:0.00610461 170:0.0182942 171:0.178022 172:0.0198431 173:0.142432 174:0.141984 175:0.0174943 176:0.379261 177:0.103192 178:0.098815 179:0.0567731 180:0.173384 181:0.00192634 182:0.00143418 183:0.00721932 184:0.157501 185:0.389478 186:0.0980686 187:0.340941 188:0.118183 189:0.00170525 190:0.00999183 191:0.0014274 193:0.325475 194:0.00327087 195:0.00111109 196:0.0628674 197:0.0339461 198:0.00784651 199:0.00541165 201:0.0180979 204:0.000707118 205:6.57979e-005 207:0.193865 209:0.019439 210:0.431548 211:0.0279886 212:0.0734495 213:0.0239583 214:0.170514 215:0.04818 216:0.144747 217:0.0360948 218:0.00940022 219:0.00628229 220:0.0126586 221:0.0551333 222:0.0632781 223:0.0352267 224:0.0639371 225:0.208131 226:0.00773141 227:0.154568 228:0.0669125 229:0.00137113 230:0.0168148 231:0.418931 232:0.00670297 233:0.0148792 234:0.00792604 235:0.0399945 236:0.264603 237:0.139557 238:0.104126 239:0.0116218 240:0.00153399 241:0.0339216 242:0.469775 243:0.0272073 244:0.0998837 245:0.102713 246:0.0512504 247:0.0120475 248:0.0471411 249:0.0960092 250:0.0538817 251:0.154598 252:0.0547588 253:0.00196323 254:0.186465 255:0.191815 256:0.014581 257:0.0308657 258:0.226012 259:0.029116 260:0.205864 261:0.453085 262:0.260175 263:0.0357543 264:0.149741 265:0.0820075 266:0.41869 267:0.196644 268:0.00227616 269:0.0013657 270:0.398171 271:0.0432849 272:0.330951 273:0.00224708 274:0.383057 275:0.00658564 276:0.277216 277:0.129514 278:0.00791363 279:0.410626 280:0.00798519 281:0.0058022 282:0.0309528 283:0.235564 284:0.00066768 285:0.000103078 286:0.010358 287:0.0419629 288:0.492463 290:0.00804959 291:0.0481038 292:0.431548 293:0.000263266 294:0.0490898 295:0.0581922 296:0.0456895 297:0.043326 298:0.0401475 299:0.111777 300:0.116758 301:0.0469273 302:0.176197 303:0.122544 304:0.00368464 305:0.0629708 306:0.0880549 307:0.152182 308:0.00687173 309:0.0697004 310:0.093647 311:0.0451452 312:0.05767 313:0.0978218 314:0.127201 315:0.24659 316:0.0293475 317:0.152896 318:0.24936 319:0.401507 320:0.216861 321:0.0869843 322:0.432381 323:0.108759 324:0.0383367 325:0.147906 326:0.000716891 328:0.451537 329:0.00490929 330:0.0616007 331:0.412096 332:0.00623816 333:0.00205798 334:0.00406615 335:0.0166721 336:0.0327904 337:0.0700731 338:0.00948802 339:0.165395 340:0.0113436 341:0.00405743 342:0.0620135 343:0.119558 344:0.147515 345:0.208856 346:0.00889076 347:0.0511652 348:0.0248954 349:0.0677949 350:0.00489285 351:0.0921195 352:0.0575216 353:0.298077 354:0.0215888 355:0.332574 356:0.131335 357:0.0311949 359:0.0171722 360:0.0657182 361:0.0962013 362:0.0493381 363:0.62401 364:0.0994797 365:0.0146267 366:0.121171 367:0.0970442 368:0.331101 369:0.379261 371:0.313334 372:0.0291399 373:0.297291 374:0.0492723 375:0.0171268 376:0.000643793 377:0.00519342 378:0.0529943 379:0.0151269 380:0.182591 381:0.389478 382:0.0892763 384:0.0117297 385:0.00732058 386:0.003796 387:0.0115272 388:0.0400474 390:0.145243 391:0.000682583 392:0.00162632 394:0.103314 395:0.0446686 396:0.297685 397:0.244353 399:0.00154074 400:0.242851 401:0.0100174 402:0.330874 403:0.0157673 404:0.410626 405:0.0104602 408:0.00131749 410:0.0402526 412:8.00203e-005 413:0.00281264 414:0.480452 415:0.00159969 416:0.492463 417:0.00917769 418:5.8843e-005 419:0.0119594 420:0.00749819 421:0.0294993 422:0.0216183 423:0.00298096 424:0.321539 425:0.15041 426:0.129191 427:0.277779 428:0.0468644 429:0.0366885 430:0.229346 431:0.125583 432:0.0423577 433:0.0776196 434:0.0776985 435:0.0500366 436:0.137139 437:0.16465 438:0.199004 439:0.0264419 440:0.00885872 441:0.038393 442:0.468634 443:0.0198552 444:0.00325953 445:0.193315 446:0.0939255 447:0.298781 448:0.151255 449:0.1031 450:0.0712761 451:0.141201 452:0.51698 453:0.215002 454:0.0636223 455:0.192084 456:0.0721784 457:0.1036 458:0.109797 459:0.0392066 460:0.187729 461:0.00311194 462:0.000788613 463:0.432381 464:0.00512486 465:0.254836 466:0.432381 467:0.00413404 468:0.0567161 469:0.00723252 470:0.256565 471:0.0112195 472:0.00380463 473:0.00385923 474:0.469788 475:0.0013954 476:0.00568568 477:0.0445418 478:0.0062732 479:0.0178556 480:0.0134409 481:0.00709293 482:0.00222036 483:0.0488647 484:0.0264515 485:0.0474563 486:0.226895 487:0.0662122 488:0.446745 489:0.0764959 490:0.0058451 491:0.160272 492:0.00540204 493:0.0306235 494:0.103057 495:0.255643 496:0.0997255 497:0.00791909 498:0.00858537 499:0.00470739 500:0.225433 501:0.127248 502:0.0218426 503:0.00703151 504:0.0578962 505:0.0758374 506:0.150066 507:0.0251765 508:0.181879 509:0.240151 510:0.408314 511:0.26045 512:0.0138851 513:0.282719 514:0.141897 515:0.31233 516:0.0530651 517:0.0335406 518:0.0331891 519:0.0143493 520:0.140306 521:0.045403 522:0.0317369 523:0.0346356 524:0.066354 525:0.0431027 526:0.0330966 527:0.0137709 528:0.0422644 529:0.0376245 531:0.0296178 532:0.011897 533:0.0706007 534:0.296163 535:0.0047872 536:0.0793978 537:0.0130654 540:0.412673 541:0.267268 542:0.00304793 543:0.499478 544:0.171842 545:0.00884749 546:0.410336 547:0.0149459 548:0.00116739 549:0.410626 550:0.0105925 551:0.0492866 552:0.0224635 553:0.0612037 554:0.00548919 555:0.0171981 557:0.0774182 558:0.00209158 559:0.00122815 560:0.200026 561:0.013416 562:0.0023932 563:7.02023e-005 564:0.431548 565:0.00025937 566:0.168002 567:0.0918666 568:0.0948848 569:0.0123145 570:0.0367502 571:0.0297543 572:0.127142 573:0.124476 574:0.160746 575:0.078941 576:0.132281 577:0.412795 578:0.0858228 579:0.115713 580:0.109053 581:0.12652 582:0.0634906 583:0.0323365 584:0.0437971 585:0.0611396 586:0.0695708 587:0.130247 588:0.00228494 589:0.0145323 590:0.0149063 591:0.0727718 592:0.330474 593:0.21346 594:0.102627 595:0.112192 596:0.132188 597:0.400756 598:0.070715 599:0.185028 600:0.0771534 601:0.0166456 602:0.152945 603:0.000897045 604:0.00130598 605:0.0712319 606:0.11668 607:0.115527 608:0.00272321 609:0.00213479 611:0.00705158 612:0.0296305 613:0.131223 614:0.0310162 615:0.0112699 616:0.213478 617:0.00479236 618:0.00845497 619:0.0145304 620:0.0476212 621:0.0432578 622:0.0603978 623:0.0201861 624:0.00279431 625:0.00267568 626:0.000815316 627:0.008256 628:0.00171602 629:0.00277206 630:0.033273 631:0.00153113 632:0.0473033 633:0.0328791 634:0.337848 635:0.197154 636:0.360946 637:0.0253228 638:0.132622 639:0.0910467 640:0.0798798 641:0.0195715 642:0.441925 643:0.0543085 644:0.0711797 645:0.204012 646:0.146683 647:0.507163 648:0.0174279 649:0.113283 650:0.133992 651:0.322777 652:0.0388869 653:0.411869 654:0.127017 655:0.0105489 656:0.0216048 657:0.211296 658:0.191433 659:0.321362 660:0.300428 661:0.0044505 662:0.0461031 663:0.379261 664:0.0322776 665:0.0010999 667:0.0122508 668:0.0750271 669:0.0156179 670:0.001421 671:0.438046 672:0.0124124 673:0.0393196 674:0.192641 675:0.0589464 676:0.0615037 677:0.041292 678:0.0454485 679:0.328757 680:0.214028 681:0.0894209 682:0.319167 683:0.100873 684:0.283226 685:0.128838 686:0.014424 687:0.112993 688:0.00226524 689:0.340941 690:0.280185 691:0.00537016 692:0.297177 694:0.00439035 695:0.0113842 696:0.298372 698:0.0399974 699:0.0145657 702:0.412673 703:0.013399 704:0.00217835 705:0.0364322 707:0.499478 708:0.00186768 709:0.00426339 710:0.0176542 711:0.345088 712:0.0819087 713:0.0743962 714:0.00830981 715:0.0169162 716:0.517731 717:0.250511 718:0.148291 719:0.00419855 720:0.492192 721:0.0222462 722:0.152714 723:0.00670626 724:0.000763214 725:0.00065884 726:0.33908 727:0.00399815 728:0.00887505 729:0.000292443 730:0.00103611 731:0.000183043 732:0.0020471 733:0.312937 734:0.443451 735:0.172296 736:0.112067 738:0.00594168 739:0.0216602 740:0.0594534 741:0.199347 742:0.0505872 743:0.0136637 744:0.201954 745:0.0193589 746:0.0609708 747:0.0264056 748:0.0251724 749:0.0277338 750:0.108568 751:0.169138 752:0.00942866 753:0.222448 754:0.00105784 755:0.073189 756:0.258671 757:0.22779 758:0.104818 759:0.326061 760:0.347304 761:0.0607736 762:0.0864423 763:0.0412951 764:0.0731689 765:0.0801513 766:0.107022 767:0.159032 768:0.241033 769:0.0593815 770:0.0124984 771:0.47651 772:0.579604 773:0.0972632 774:0.00700535 775:0.476099 776:0.00428055 777:0.00215745 778:0.00973114 779:0.00141439 780:0.00235957 781:0.00255372 782:0.081905 783:0.5056 784:0.000269814 785:0.5056 786:0.0380205 787:0.0049975 788:0.0310383 789:0.00248281 790:0.00274729 791:0.0264099 792:0.478118 793:0.00116881 794:0.36152 795:0.446745 796:0.00534615 797:0.414737 798:0.000451395 799:0.397644 800:0.0433796 801:0.0408761 802:0.0999854 803:0.0540976 804:0.230809 805:0.0302795 806:0.078961 807:0.1281 808:0.191627 809:0.197903 810:0.188279 811:0.0580502 812:0.0351896 813:0.0140976 814:0.0612676 815:0.0668596 816:0.0245519 817:0.262198 818:0.441925 819:0.0380181 820:0.0915485 821:0.256793 822:0.156498 823:0.0138448 824:0.20027 825:0.0372189 826:0.0672605 827:0.0595075 828:0.161661 829:0.0661822 830:0.00745752 831:0.149974 832:0.000191649 833:0.0596813 834:0.0153314 835:0.18681 836:0.132372 837:0.0449468 838:0.258297 839:0.388132 840:0.0160203 841:0.147615 842:0.0491867 843:0.0639853 844:0.115722 845:0.0265811 846:0.0240465 847:0.129878 848:0.0213552 849:0.33367 850:0.114546 851:0.295787 852:0.030035 853:0.0223117 854:0.0220269 855:0.0258755 856:0.103679 858:0.339827 859:0.00335912 860:0.00925068 861:0.0686543 862:0.0144352 863:0.000135311 864:0.440065 865:0.0152766 866:0.0158165 868:0.00885862 869:0.0282506 872:0.00306924 873:0.0405333 874:0.0459018 875:0.0215008 876:0.410336 877:0.410336 878:0.0456359 879:0.410626 880:0.219252 881:0.250895 882:0.00213344 883:0.0146443 884:0.00902855 885:0.00411203 886:0.000547822 888:0.492192 889:0.258305 890:0.00121746 892:0.12915 893:0.0220048 894:0.104262 895:0.010086 896:0.00176041 897:0.0352463 898:0.443451 899:0.0831595 900:0.000341071 901:0.431548 902:0.00531824 903:0.0354672 904:0.0412157 905:0.0143667 907:0.13944 908:0.0774099 909:0.677501 910:0.0507853 911:0.0378008 912:0.0453285 913:0.162353 914:0.173492 915:0.0292632 916:0.228563 917:0.122668 918:0.328951 919:0.391342 920:0.060497 921:0.0117272 922:0.0241717 923:0.468634 924:0.0322256 925:0.0240432 926:0.094067 927:0.138677 928:0.0638747 929:0.131412 930:0.0970622 931:0.253762 932:0.170337 933:0.0967028 934:0.0753954 935:0.0749444 936:0.0610465 937:0.180393 938:0.357994 939:0.0271217 940:0.110486 941:0.122067 942:0.0859898 943:0.323455 944:0.475321 945:0.111456 946:0.0725689 947:0.119913 948:0.00991348 949:0.0655641 950:0.0487828 951:0.0157009 952:0.00300516 953:0.013393 954:0.261797 955:0.107816 956:0.341964 957:0.18887 958:0.00685097 959:0.018997 960:0.0491447 961:0.00646659 962:0.000368408 963:0.0323012 964:0.0121308 965:0.0411745 966:0.0337001 967:0.00507845 968:0.0121872 969:0.0352854 970:0.0356237 971:0.00791206 972:0.0299891 973:0.0364191 974:0.00711908 975:0.00938148 976:0.191643 977:0.0277107 978:0.0629537 979:0.339097 980:0.339097 981:0.00310871 982:0.00283434 983:0.0274684 984:0.0269569 985:0.0651186 986:0.066195 987:0.0179984 988:0.0285645 989:0.0618593 990:0.00672306 991:0.0188194 992:0.116189 993:0.098615 994:0.481188 995:0.00700387 996:0.0721051 997:0.089532 998:0.0363282 999:0.0483874 1000:0.0373936 1001:0.0540665 1002:0.320961 1003:0.237095 1004:0.250199 1006:0.22842 1007:0.119011 1008:0.0971822 1009:0.116312 1010:0.026969 1011:0.184053 1012:0.0664665 1013:0.123938 1014:0.145311 1015:0.0274083 1016:0.0120867 1017:0.120897 1018:0.00581656 1019:0.407157 1020:0.173101 1021:0.0310178 1022:0.0389041 1023:0.245624 1024:0.340941 1025:0.00704847 1026:0.223629 1027:0.0498157 1028:0.00136615 1029:0.000534206 1030:0.0381311 1031:0.0034545 1032:0.00721233 1033:0.000150644 1034:0.00105451 1036:0.00496003 1037:0.412673 1038:0.00100447 1039:0.412673 1041:0.024583 1042:0.00552632 1043:0.340833 1044:0.14525 1045:0.161412 1046:0.0153228 1047:0.00747285 1048:0.0778981 1049:0.517731 1050:0.492192 1051:0.000803292 1052:0.253825 1054:0.547252 1055:0.00382626 1056:0.0372456 1058:0.0656703 1059:0.15977 1060:0.00689768 1061:0.243664 1062:0.0554583 1063:0.0223664 1064:0.0295869 1065:0.120243 1066:0.22107 1067:0.0108031 1068:0.232744 1069:0.149186 1070:0.101682 1071:0.0358452 1072:0.114518 1073:0.0104226 1074:0.00838631 1075:0.24894 1076:0.171042 1077:0.0375784 1078:0.00176836 1079:0.437685 1080:0.115113 1081:0.135969 1082:0.0988602 1083:0.0799673 1084:0.113312 1085:0.0965649 1086:0.0471329 1087:0.161012 1088:0.24312 1089:0.063246 1090:0.26931 1091:0.0453441 1092:0.0306815 1093:0.210259 1094:0.208704 1095:0.049102 1096:0.579604 1097:0.00970598 1098:0.00997347 1099:0.0003509 1100:0.00322041 1101:0.215077 1102:0.00443963 1103:0.0654644 1104:0.0125017 1106:0.0435744 1107:0.0112195 1108:0.12228 1109:0.00129995 1110:0.011992 1111:0.0159172 1112:0.131977 1113:0.492317 1114:0.0150039 1115:0.0486941 1116:0.492317 1117:0.478118 1118:0.0426276 1119:0.00374459 1120:0.00222072 1121:0.136478 1122:0.0522583 1123:0.446745 1124:0.134515 1125:0.00176501 1126:0.446359 1127:0.441214 1129:0.332993 1130:0.335878 1131:0.15804 1132:0.091493 1133:0.0189923 1134:0.0535972 1135:0.0921069 1136:0.0180855 1137:0.344581 1138:0.0489337 1139:0.043139 1140:0.0199354 1141:0.134179 1142:0.0710901 1143:0.124926 1144:0.253023 1145:0.0213274 1146:0.16027 1147:0.0111082 1148:0.088773 1149:0.0116731 1150:0.0722957 1151:0.140049 1152:0.0281894 1153:0.0365029 1154:0.408314 1155:0.0295994 1156:0.102495 1157:0.00866733 1158:0.270711 1159:0.284648 1160:0.0158513 1161:0.0656443 1162:0.0519316 1163:0.140577 1164:0.42244 1165:0.411739 1166:0.159433 1167:0.367276 1168:0.106377 1169:0.177187 1170:0.127901 1171:0.0346167 1172:0.0739405 1173:0.316689 1174:0.340941 1176:0.00485517 1177:0.340941 1178:0.0497158 1179:0.00662769 1180:0.398171 1181:0.38042 1182:0.0405936 1183:0.000722513 1184:0.00119292 1185:0.0234283 1187:0.241678 1188:0.0289667 1189:0.00793831 1190:0.00455961 1191:0.145576 1192:0.0162984 1193:0.00174876 1197:0.360543 1201:3.53058e-005 1202:0.000795368 1203:0.072729 1204:0.0530301 1205:0.00718122 1206:0.0683282 1207:0.0205561 1208:0.214185 1209:0.316167 1210:0.219217 1211:0.152832 1212:0.393327 1213:0.114872 1214:0.071778 1215:0.0450854 1216:0.0483705 1217:0.0253802 1218:0.0167964 1219:0.0274001 1220:0.0499412 1221:0.550213 1222:0.245832 1223:0.401499 1224:0.0175789 1225:0.182469 1226:0.110835 1227:0.0938667 1228:0.111201 1229:0.13049 1230:0.111253 1231:0.167973 1232:0.217071 1233:0.0755752 1234:0.185948 1235:0.128287 1236:0.15238 1237:0.10381 1238:0.0924285 1239:0.0232466 1240:0.0188353 1241:0.0125098 1242:0.00562272 1243:0.00348237 1244:0.0089601 1245:0.00565341 1247:0.000770041 1248:0.00684225 1249:0.0690516 1250:0.0201855 1251:0.471082 1252:0.0150324 1253:0.0248263 1254:0.0508349 1255:0.00959995 1256:0.446084 1257:0.478118 1258:0.087508 1259:0.446745 1260:0.414737 1261:0.00750999 1262:0.0125105 1263:0.414737 1264:0.0311008 1265:0.161381 1266:0.267109 1267:0.22992 1268:0.117188 1269:0.0341722 1270:0.0297755 1271:0.0157005 1272:0.125281 1273:0.0170947 1274:0.507163 1275:0.0650212 1276:0.303605 1277:0.011451 1278:0.189732 1279:0.271082 1280:0.0397355 1281:0.0762041 1282:0.0190286 1283:0.000277636 1284:0.00100279 1285:0.18177 1286:0.00602206 1287:0.225793 1288:0.0195874 1289:0.133391 1290:0.312785 1291:0.0927489 1292:0.0144421 1293:0.0305433 1294:0.189584 1295:0.0455794 1296:0.0140772 1297:0.139457 1298:0.0646098 1299:0.195038 1300:0.0407067 1301:0.056536 1302:0.187489 1303:0.0981591 1304:0.153882 1305:0.0841668 1306:0.077217 1307:0.0585853 1308:0.398171 1309:0.00154761 1310:0.474692 1311:0.182552 1312:0.124142 1313:0.0313287 1316:0.0167085 1317:0.00281835 1319:0.103581 1320:0.382144 1322:5.88372e-005 1324:0.0174809 1327:0.0203155 1328:0.0220247 1329:0.496137 1330:0.00383475 1332:0.00225806 1334:0.000715652 1335:0.287518 1337:0.0254758 1338:0.0397685 1339:0.021466 1340:0.28515 1341:0.358426 1342:0.00541152 1343:0.0161294 1344:0.211616 1345:0.22082 1346:0.0117184 1347:0.143846 1348:0.137039 1349:0.518234 1350:0.147812 1351:0.0227477 1352:0.0179403 1353:0.015749 1354:0.0118603 1355:0.0541019 1356:0.0633385 1357:0.361538 1358:0.0279953 1359:0.0131088 1360:0.0831467 1361:0.127756 1362:0.0525627 1363:0.153187 1364:0.170678 1365:0.081119 1366:0.146012 1367:0.093751 1368:0.201874 1369:0.0703208 1370:0.100713 1371:0.0835691 1372:0.0705694 1373:0.00589821 1374:0.0145613 1375:0.000524712 1376:0.161685 1377:0.476099 1378:0.00119276 1379:0.00190241 1380:0.469788 1381:0.00563337 1382:0.044492 1383:0.492317 1384:0.492317 1385:0.00741803 1386:0.0215496 1387:0.0256491 1388:0.141457 1389:0.0901011 1390:0.00385278 1392:0.0599605 1393:0.0170016 1394:0.0707999 1395:0.0277571 1396:0.00969498 1397:0.230297 1398:0.118935 1399:0.339097 1400:0.0774278 1401:0.450428 1402:0.000170076 1403:0.0654651 1404:0.067874 1405:0.20231 1406:0.0406655 1407:0.000684038 1408:0.326095 1409:0.00638324 1410:0.0374265 1411:0.162889 1412:0.0537386 1413:0.360192 1414:0.41869 1415:0.0204552 1416:0.00558005 1417:0.00555277 1418:0.0653859 1419:0.237873 1420:0.0607866 1421:0.0236586 1422:0.00822126 1423:0.208636 1424:0.205427 1425:0.0875862 1426:0.000218224 1427:0.0882401 1429:0.0104733 1431:0.00246697 1432:0.128025 1433:0.0143614 1434:0.0556194 1435:0.00402205 1436:0.197532 1437:0.2377 1438:0.116889 1439:0.221663 1440:0.449454 1441:0.453518 1442:0.0445371 1443:0.166815 1444:0.0647036 1445:0.122958 1446:0.468634 1447:0.0325313 1448:0.418108 1449:0.0305712 1450:0.221548 1451:0.105596 1452:0.0357543 1453:0.118879 1454:0.208558 1455:0.00667448 1456:0.00122977 1457:0.0647032 1458:0.0444181 1459:0.0246451 1460:0.123879 1461:0.00430859 1462:0.00429406 1463:0.0148457 1464:0.00352567 1465:0.00166359 1466:0.280186 1467:0.339097 1468:0.339097 1469:0.232127 1470:0.0973709 1471:0.0128994 1472:0.0804315 1473:0.00670957 1474:0.00296981 1475:0.338103 1476:0.0173549 1477:0.0642142 1478:0.0152415 1479:0.327912 1480:0.128759 1481:0.0512778 1482:0.173262 1483:0.453416 1484:0.0484254 1485:0.00740499 1489:0.0118033 1490:0.0645089 1491:0.251375 1492:0.00474818 1493:0.0198278 1494:0.348898 1495:0.443451 1496:0.0189617 1497:0.453378 1498:0.026045 1499:0.0952738 
-0 0.0004973709869721757 0:0.121255 1:0.198016 2:0.251181 3:0.0268589 4:0.0920132 5:0.292141 6:0.0228007 7:0.249307 8:0.0883627 9:0.0853345 10:0.280927 11:0.0385399 12:0.0466967 13:0.204203 14:0.159762 15:0.257733 16:0.0325898 17:0.322961 18:0.256338 19:0.305347 20:0.298225 21:0.0236246 22:0.00316323 23:0.0390845 24:0.373298 25:0.0692031 26:0.012837 27:0.287459 28:0.0796822 29:0.0582539 30:0.283933 31:0.132056 32:0.0676166 33:0.0897461 34:0.117477 35:0.00532028 36:0.0500781 37:0.266888 38:0.0413363 39:0.110107 40:0.0549728 41:0.0933656 42:0.00464635 43:0.00746617 44:0.362227 45:0.00827672 46:0.0888886 47:0.377676 48:0.116998 49:0.228547 50:0.0516126 51:0.0242285 52:0.0164203 53:0.162546 54:0.116333 55:0.0236121 56:0.358958 57:0.168893 58:0.00775389 59:0.039361 60:0.00497528 61:0.00579034 62:0.0968158 63:0.37328 64:0.129259 65:0.0493737 66:0.325158 67:0.0263595 68:0.00471296 69:0.131842 70:0.0288658 71:0.00807933 72:0.0705118 73:0.023342 74:0.0103293 75:0.0101682 76:0.0643978 77:0.145699 78:0.0369389 79:0.186058 80:0.145413 81:0.083097 82:0.359744 83:0.291892 84:0.05888 85:0.0072578 86:0.111753 87:0.105474 88:0.00606445 89:0.0780244 90:0.268433 91:0.269436 92:0.0462249 93:0.0106458 94:0.358958 95:0.135055 96:0.153681 97:0.0470259 98:0.403668 99:0.092399 100:0.0440037 101:0.177809 102:0.00468087 103:0.09202 104:0.075303 105:0.272165 106:0.0318719 107:0.37328 108:0.00150179 109:0.158959 110:0.307911 111:0.0302066 112:0.160679 113:0.166462 114:0.0684398 115:0.0353762 116:0.247576 117:0.186121 118:0.0871915 119:0.0430205 120:0.21398 121:0.0252372 122:0.197714 123:0.0108396 124:0.380248 125:0.0272081 126:0.140096 127:0.0112676 128:0.272632 129:0.0548784 130:0.0525978 131:0.0574573 132:0.359818 133:0.171908 134:0.0948035 135:0.0210576 136:0.239625 137:0.0164059 138:0.233023 139:0.317525 140:0.0198686 141:0.0160468 142:0.354286 143:0.0769535 144:0.0260489 145:0.0671052 146:0.0657384 147:0.006072 148:0.0106665 149:0.163401 150:0.010031 151:0.0545524 152:0.0399423 153:0.0777383 154:0.218325 155:0.0939227 156:0.0642274 157:0.0781665 158:0.191137 159:0.108031 160:0.163149 161:0.0373539 162:0.100264 163:0.236381 164:0.108456 165:0.167203 166:0.107808 167:0.131776 168:0.124475 169:0.0803474 170:0.0895419 171:0.0935187 172:0.231934 173:0.106944 174:0.163313 175:0.17121 176:0.00403543 177:0.125591 178:0.000856417 179:0.000609099 180:0.169177 181:0.0371953 182:0.176121 183:0.132442 184:0.0477317 185:0.107479 186:0.0252166 187:0.356954 188:0.165914 189:0.153963 190:0.242716 191:0.0743209 192:0.055771 193:0.0275619 194:0.099546 195:0.0826365 196:0.113197 197:0.0371449 198:0.162254 199:0.0898695 200:0.0621859 201:0.0514989 202:0.174552 203:0.133137 204:0.033082 205:0.0172734 206:0.0279883 207:0.322941 208:0.00924438 209:0.0076773 210:0.0909434 211:0.0193799 212:0.00941576 213:0.0373016 214:0.0207105 215:0.120348 216:0.0345358 217:0.104789 218:0.0375906 219:0.195135 220:0.354286 221:0.0783938 222:0.142701 223:0.0322802 224:0.312969 225:0.017632 226:0.117443 227:0.122264 228:0.290066 229:0.0094458 230:0.0554151 231:0.211965 232:0.0928999 233:0.317024 234:0.14977 235:0.262915 236:0.0865803 237:0.0782147 238:0.0377636 239:0.0592129 240:0.387331 241:0.00905308 242:0.0536464 243:0.00476261 244:0.333206 245:0.029275 246:0.00573409 247:0.174575 248:0.134827 250:0.181614 251:0.117712 252:0.0247385 253:0.0486362 254:0.0525063 255:0.164724 256:0.0279729 257:0.0251362 258:0.0245466 259:0.332349 260:0.102629 261:0.204083 262:0.260222 263:0.0248755 264:0.00176289 265:0.0532102 266:0.0652649 267:0.0269904 268:0.0904736 269:0.17987 270:0.331394 271:0.166567 272:0.345656 273:0.356906 274:0.00979332 275:0.0117777 276:0.373018 277:0.101065 278:0.0451574 279:0.0156254 280:0.00720179 281:0.0196766 282:0.0523096 283:0.294824 284:0.0126657 285:0.0370773 286:0.00736875 287:0.122891 288:0.244617 289:0.0476419 290:0.0325067 291:0.0379295 292:0.00808442 293:0.0242057 294:0.0448852 295:0.00679819 296:0.0229233 297:0.129353 298:0.0692632 299:0.225267 300:0.0820775 301:0.213857 302:0.297519 303:0.0518894 304:0.129362 305:0.103438 306:0.262544 307:0.179464 308:0.0411206 309:0.112986 310:0.013426 311:0.373298 312:0.118267 313:0.0518968 314:0.10938 315:0.288663 316:0.00077311 317:0.382919 318:0.0143031 319:0.0278058 320:0.00477261 321:0.373887 322:0.130432 323:0.0749566 324:0.0542404 325:0.0669224 326:0.147978 327:0.0954784 328:0.312692 329:0.0908196 330:0.209744 331:0.09133 332:0.00649223 333:0.0249762 334:0.0687352 335:0.0641432 336:0.00717785 337:0.0977925 338:0.398959 339:0.116114 340:0.367193 341:0.140521 342:0.0441186 343:0.046468 344:0.351057 345:0.0198144 346:0.0258273 347:0.324401 348:0.0307566 349:0.0293389 350:0.248587 351:0.186015 352:0.18522 353:0.140907 354:0.0768968 355:0.0475354 356:0.197878 357:0.000253083 358:0.0109587 359:0.00133454 360:0.248476 361:0.001869 362:0.0262277 363:0.248655 364:0.165675 365:0.136292 366:0.0873374 367:0.238548 368:0.0169969 369:0.00307085 370:0.269011 371:0.00866782 372:0.0187433 373:0.0432169 374:0.332349 375:0.25992 376:0.0976124 377:0.226156 378:0.0753534 379:0.0121404 380:0.306679 381:0.03294 382:0.0534097 383:0.241141 384:0.251821 385:0.109848 386:0.158655 387:0.0328483 388:0.0298289 389:0.0145202 390:0.022771 391:0.150697 392:0.0934669 393:0.154288 394:0.0478692 395:0.126361 396:0.0790322 397:0.0122734 398:0.0362348 399:0.05145 400:0.00384574 401:0.0475897 402:0.372859 403:0.373018 404:0.021826 405:0.196871 406:0.0113077 407:0.0521055 408:0.0749161 409:0.130631 410:0.0263062 411:0.152709 412:0.0226339 413:0.143697 414:0.322941 415:0.0103723 416:0.322941 417:0.0278783 418:0.253118 419:0.0420254 420:0.097122 421:0.0569675 422:0.423994 423:0.0258991 424:0.00652248 425:0.023675 426:0.0385091 427:0.235543 428:0.178505 429:0.0618515 430:0.346402 431:0.0825164 432:0.17803 433:0.282197 434:0.319522 435:0.319522 436:0.0273991 437:0.0579189 438:0.127833 439:0.0755879 440:0.246678 441:0.0461248 442:0.116498 443:0.105459 444:0.00184446 445:0.136019 446:0.338735 447:0.0217736 448:0.078437 449:0.0206596 450:0.066767 451:0.165222 452:0.208848 453:0.0488764 454:0.00158552 455:0.382919 456:0.0021147 457:0.00223502 458:0.0415301 459:0.105133 460:0.0966247 461:0.0582605 462:0.138688 463:0.278152 464:0.183042 465:0.0915221 466:0.19904 467:0.33255 468:0.0417143 469:0.00292337 470:0.0670678 471:0.0706764 472:0.0661824 473:0.0508948 474:0.482203 475:0.0281627 476:0.389458 477:0.187615 478:0.0273436 479:0.0421494 480:0.0120475 481:0.0388142 482:0.353096 483:0.018268 484:0.141117 485:0.0489441 486:0.0372227 487:0.0750723 488:0.0323227 489:0.172176 490:0.00224712 491:0.094002 492:0.0105171 493:0.0862516 494:0.0763428 495:0.0154865 496:0.0500238 497:0.0325582 498:0.0567283 499:0.437096 500:0.176057 501:0.055181 502:0.123785 503:0.0505254 504:0.098811 505:0.14914 506:0.0729797 507:0.034495 508:0.312371 509:0.27735 510:0.0906553 511:0.0073537 512:0.0946267 513:0.00124944 514:0.0178449 515:0.0100329 516:0.170531 517:0.192932 518:0.332349 519:0.192865 520:0.220831 521:0.0377676 522:0.185893 523:0.0466114 524:0.00600023 525:0.265895 526:0.404851 527:0.00383893 528:0.00431402 529:0.102887 530:0.152651 531:0.0387805 532:0.142755 533:0.331394 534:0.268812 535:0.142365 536:0.0361353 537:0.280079 538:0.356906 539:0.0609872 540:0.378213 541:0.00185356 542:0.0725283 543:0.423393 544:0.138237 545:0.102084 546:0.0285219 547:0.00453096 548:0.0929852 549:0.182527 550:0.0542165 551:0.212439 552:0.0803767 553:0.341626 554:0.0218116 555:0.00935019 556:0.162677 557:0.362227 558:0.00760537 559:0.0128579 560:0.0852398 561:0.282528 562:0.0113746 563:0.0128098 564:0.339332 565:0.0103167 566:0.423994 567:0.0431564 568:0.0235357 569:0.145841 570:0.0256791 571:0.0570741 572:0.1759 573:0.164212 574:0.13831 575:0.0551115 576:0.154985 577:0.326106 578:0.170861 579:0.0896384 580:0.253286 581:0.19694 582:0.09071 583:0.123001 584:0.196919 585:0.125202 586:0.186391 587:0.0413672 588:0.354286 589:0.172412 590:0.0514649 591:0.373298 592:0.171341 593:0.336187 594:0.382919 595:0.299744 596:0.0808492 597:0.0968479 598:0.277363 599:0.0372815 600:0.0428172 601:0.0106016 602:0.2266 603:0.115267 604:0.0254738 605:0.140405 606:0.350652 607:0.00810612 608:0.0979255 609:0.0325202 610:0.0451477 611:0.202505 612:0.0341121 613:0.293266 614:0.0360572 615:0.389458 616:0.0865648 617:0.153624 618:0.358958 619:0.0176236 620:0.228002 621:0.0275323 622:0.203338 623:0.403965 624:0.0694126 625:0.0513351 626:0.103269 627:0.297986 628:0.0394504 629:0.00524273 630:0.194926 631:0.0536756 632:0.309052 633:0.147556 634:0.0495856 635:0.120333 636:0.308283 637:0.0243584 638:0.0932431 639:0.129903 640:0.147267 641:0.145165 642:0.105346 643:0.111412 644:0.147478 645:0.22929 646:0.326208 647:0.0759355 648:0.290437 649:0.34715 650:0.00169519 651:0.00169519 652:0.0106135 654:0.000984068 655:0.0214824 656:0.09551 657:0.0645148 658:0.0762033 659:0.143571 660:0.0977533 661:0.0827916 662:0.256684 663:0.0104676 664:0.0376424 665:0.00272031 666:0.00252675 667:0.17098 668:0.311238 669:0.0657343 670:0.0970719 671:0.11224 672:0.132449 673:0.0729148 674:0.0266869 675:0.0998816 676:0.0803232 677:0.11877 678:0.0758023 679:0.394144 680:0.280054 681:0.020907 682:0.449034 683:0.0111599 684:0.00617907 685:0.0517907 686:0.370182 687:0.0379304 688:0.356954 689:0.00416956 690:0.0401728 691:0.227017 692:0.00266616 693:0.0311645 694:0.250507 695:0.219626 696:0.00870141 697:0.0687987 698:0.0071443 699:0.0114458 700:0.380248 701:0.195991 702:0.3189 703:0.0303201 704:0.0442758 705:0.0217492 706:0.0491457 707:0.472673 708:0.00527335 709:0.0729025 710:0.0814471 711:0.341626 712:0.0185444 713:0.0198777 714:0.000381849 715:0.122285 716:0.3561 717:0.3561 718:0.3561 719:0.0383126 720:0.318201 721:0.0104146 722:0.359818 723:0.0202901 724:0.0940858 725:0.0422836 726:0.229625 727:0.236456 728:0.155756 729:0.0708444 730:0.147797 731:0.0210365 732:0.0255991 733:0.322941 734:0.28182 735:0.308087 736:0.0685771 737:0.0265281 738:0.294152 739:0.377676 740:0.122337 741:0.359744 742:0.100284 743:0.0260044 744:0.0980583 745:0.132579 746:0.0809338 747:0.157943 748:0.182015 749:0.140179 750:0.136189 751:0.317525 752:0.246917 753:0.0717895 754:0.126326 755:0.119203 756:0.115973 757:0.211473 758:0.00446343 759:0.00985332 760:0.000286808 761:0.3388 762:0.0888841 763:0.140392 764:0.354525 765:0.214337 766:0.0769162 767:0.0532181 768:0.3078 769:0.113088 770:0.32898 771:0.179759 772:0.113363 773:0.236283 774:0.0112367 775:0.162538 776:0.095115 777:0.00530446 778:0.10094 779:0.0926727 780:0.0589681 781:0.357947 782:0.105659 783:0.251338 784:0.101183 785:0.389458 786:0.0721682 787:0.0490669 788:0.267519 789:0.180039 790:0.403965 791:0.295658 792:0.104365 793:0.128845 794:0.115719 795:0.0244436 796:0.202765 797:0.0728971 798:0.0657911 799:0.0773888 800:0.136069 801:0.0777885 802:0.0721249 803:0.0878837 804:0.185862 805:0.0639896 806:0.117932 807:0.0434356 808:0.0894323 809:0.090152 810:0.190858 811:0.0834366 812:0.353988 813:0.0836907 814:0.283933 815:0.189537 816:0.231463 817:0.124516 818:0.283933 819:0.0935465 820:0.334951 821:0.0699508 822:0.0267477 823:0.437096 824:0.0595212 825:0.0191697 826:0.473381 827:0.0282415 828:0.308544 829:0.147323 830:0.312371 831:0.0134288 832:0.391429 833:0.391429 834:0.37328 835:0.00436533 836:0.0505821 837:0.0482778 838:0.035605 839:0.163722 840:0.112522 841:0.067103 842:0.0331753 843:0.00796496 844:0.047428 845:0.0546552 846:0.0578256 847:0.00305507 848:0.161736 849:0.0436567 850:0.322284 851:0.0273092 852:0.0033093 853:0.0113789 854:0.000392326 855:0.356954 856:0.0438258 857:0.117655 858:0.152994 859:0.107968 860:0.347801 861:0.035821 862:0.356906 863:0.356906 864:0.0156118 865:0.0106461 866:0.366265 867:0.0613062 868:0.0507521 869:0.130957 870:0.0457893 871:0.0321863 872:0.00527335 873:0.00572647 874:0.000878777 875:0.0019946 876:0.00159395 877:0.0162807 878:0.0684877 879:0.341626 880:0.221246 881:0.340482 882:0.00979465 883:0.1171 884:0.025514 885:0.0547596 886:0.0706212 887:0.0447951 888:0.336523 889:0.359818 890:0.0379375 891:0.212876 892:0.362227 893:0.0261018 894:0.322941 895:0.00457769 896:0.0110111 897:0.0400314 898:0.315775 899:0.113027 900:0.00554663 901:0.0120857 902:0.00816131 903:0.0152249 904:0.0308061 905:0.423994 906:0.112418 907:0.22411 908:0.0688869 909:0.359744 910:0.0152213 911:0.00417438 912:0.0820541 913:0.359744 914:0.0938355 915:0.0997267 916:0.266524 917:0.0923699 918:0.326106 919:0.102101 920:0.317525 921:0.0185651 922:0.300459 923:0.0916508 924:0.00891621 925:0.0553317 926:0.209497 927:0.0212224 928:0.123018 929:0.147738 930:0.0618529 931:0.228456 932:0.113367 933:0.143421 934:0.0101944 935:0.00248565 936:0.0296992 937:0.0244572 938:0.382919 939:0.0315134 940:0.347949 941:0.0171809 942:0.347949 943:0.0151558 944:0.0200282 945:0.347949 946:0.303802 947:0.0232845 948:0.192035 949:0.32898 950:0.216996 951:0.126341 952:0.0678691 953:0.0715372 954:0.180199 955:0.46448 956:0.101838 957:0.170588 958:0.0344998 959:0.0974788 960:0.166591 961:0.358958 962:0.147052 963:0.0927458 964:0.153004 965:0.00899398 966:0.0210608 967:0.106822 968:0.0944465 969:0.207486 970:0.1105 971:0.032363 972:0.00583359 973:0.0716613 974:0.332747 975:0.0495439 976:0.0405697 977:0.0228619 978:0.215349 979:0.251643 980:0.300102 981:0.031246 982:0.00137853 983:0.111878 984:0.2773 985:0.283933 986:0.171286 987:0.203031 988:0.34715 989:0.258416 990:0.437096 991:0.431869 992:0.0370168 993:0.109988 994:0.295851 995:0.0679776 996:0.103128 997:0.0926011 998:0.272927 999:0.0654134 1000:0.014012 1001:0.0449298 1002:0.0210511 1004:0.00962732 1005:0.0221309 1007:0.322266 1008:0.0744204 1009:0.0904312 1010:0.311812 1011:0.0450158 1012:0.057657 1013:0.160525 1014:0.0913137 1015:0.0130103 1016:0.458983 1017:0.0871192 1018:0.0166702 1019:0.0183598 1020:0.0330991 1021:0.0117879 1022:0.045075 1023:0.336898 1024:0.182424 1025:0.0225752 1026:0.0235223 1027:0.172924 1028:0.22529 1029:0.153329 1030:0.0256822 1031:0.0556048 1032:0.0591621 1033:0.183758 1034:0.356906 1035:0.128732 1036:0.0765083 1037:0.0586546 1038:0.011041 1039:0.174366 1040:0.165387 1041:0.00641198 1042:0.0765681 1043:0.472673 1044:0.146497 1045:0.259376 1046:0.13324 1047:0.325998 1048:0.0149674 1049:0.3561 1050:0.359818 1051:0.0322839 1052:0.359818 1053:0.0801117 1054:0.166123 1055:0.00815697 1056:0.215628 1058:0.0184665 1059:0.344751 1060:0.195092 1061:0.423994 1062:0.0163674 1063:0.030434 1064:0.107207 1065:0.0126771 1066:0.103633 1067:0.0393738 1068:0.152265 1069:0.0632587 1070:0.0277878 1071:0.00424898 1072:0.277083 1073:0.0419076 1074:0.0212183 1075:0.131139 1076:0.317525 1077:0.354286 1078:0.0875696 1079:0.147994 1080:0.11105 1081:0.154258 1082:0.0304358 1083:0.00807625 1084:0.0078162 1085:0.00935348 1086:0.347949 1087:0.0195363 1088:0.0118648 1089:0.0815681 1090:0.206027 1091:0.0210378 1092:0.0271309 1093:0.0219914 1094:0.128091 1095:0.199759 1096:0.100698 1097:0.0829147 1098:0.0509323 1099:0.376814 1100:0.13225 1101:0.106233 1102:0.0452649 1103:0.126279 1104:0.439292 1105:0.0396735 1106:0.0292213 1107:0.0492175 1108:0.418085 1109:0.0309934 1110:0.0798402 1111:0.12272 1112:0.0911862 1113:0.0903497 1114:0.0534855 1115:0.1275 1116:0.143257 1117:0.129368 1118:0.0712373 1119:0.0543989 1120:0.0501044 1121:0.0206109 1122:0.0611838 1123:0.116459 1124:0.0402024 1125:0.354325 1126:0.177953 1127:0.18941 1128:0.00846812 1129:0.0854602 1130:0.0292165 1131:0.403668 1132:0.0376634 1133:0.180136 1134:0.0564461 1135:0.211752 1136:0.15996 1137:0.239092 1138:0.124435 1139:0.294867 1140:0.0184117 1141:0.0766679 1142:0.0748335 1143:0.0855825 1144:0.00206831 1145:0.0282216 1147:0.0279484 1148:0.0272346 1149:0.225791 1150:0.327627 1151:0.00429963 1152:0.0211634 1153:0.171935 1154:0.0387526 1155:0.312371 1156:0.37328 1157:0.0780585 1158:0.000493267 1159:0.0141119 1160:0.37328 1161:0.0451426 1162:0.0553442 1163:0.234028 1164:0.0427918 1165:0.198846 1166:0.101446 1167:0.172742 1168:0.458983 1169:0.110176 1170:0.0877379 1171:0.0498142 1172:0.376857 1173:0.404851 1174:0.00142733 1175:0.0418045 1176:0.0110952 1177:0.356954 1178:0.0125494 1179:0.106518 1180:0.331394 1181:0.041199 1182:0.0834466 1183:0.244771 1184:0.380248 1185:0.0538072 1186:0.0485873 1187:0.324963 1188:0.339015 1189:0.100239 1190:0.152273 1191:0.17102 1192:0.031944 1193:0.0357639 1194:0.0179736 1195:0.012233 1196:0.14971 1197:0.127711 1198:0.108281 1199:0.0289835 1200:0.00903969 1201:0.0407262 1202:0.0132452 1203:0.274981 1204:0.266685 1205:0.151247 1206:0.118103 1207:0.0718763 1208:0.191246 1209:0.250765 1210:0.0563557 1211:0.377676 1212:0.161729 1213:0.128014 1214:0.0834244 1215:0.137858 1216:0.269916 1217:0.00236855 1218:0.0544747 1219:0.161039 1220:0.319522 1221:0.146575 1222:0.152379 1223:0.0430047 1224:0.0234094 1225:0.204679 1226:0.0707286 1227:0.437946 1228:0.0817173 1229:0.0637474 1230:0.0116203 1231:0.0137806 1232:0.0611269 1233:0.00320613 1234:0.0776391 1235:0.152218 1236:0.102486 1237:0.0948481 1238:0.289899 1239:0.158983 1240:0.0832133 1241:0.137062 1242:0.376814 1243:0.0528739 1244:0.107826 1245:0.251752 1246:0.0811833 1247:0.0615849 1248:0.0555163 1249:0.0896439 1250:0.0621309 1251:0.228682 1252:0.0859162 1253:0.0443375 1254:0.0278272 1255:0.1002 1256:0.281328 1257:0.0785422 1258:0.180562 1259:0.0536426 1260:0.0486335 1261:0.0265858 1262:0.0965398 1263:0.107439 1264:0.0159214 1265:0.0437379 1266:0.33279 1267:0.174667 1268:0.0582194 1269:0.283933 1270:0.103549 1271:0.0415469 1272:0.14126 1273:0.125101 1274:0.0923222 1275:0.0497498 1276:0.00188095 1277:0.473381 1278:0.113798 1279:0.054655 1280:0.0618296 1281:0.312371 1282:0.3675 1283:0.0680578 1284:0.0715697 1285:0.37328 1286:0.313669 1287:0.0648151 1288:0.12921 1289:0.0425989 1290:0.0917503 1291:0.155226 1292:0.0192903 1293:0.0258345 1294:0.0716645 1295:0.224698 1296:0.28675 1297:0.0656965 1298:0.0919388 1299:0.0651819 1300:0.0298587 1301:0.00203744 1302:0.338317 1303:0.0102152 1304:0.062769 1305:0.371734 1306:0.114787 1307:0.331394 1308:0.0512371 1309:0.133224 1310:0.277251 1311:0.0488974 1312:0.0455032 1313:0.00283103 1314:0.0950464 1315:0.356906 1316:0.061866 1317:0.0234145 1318:0.0298348 1319:0.0531998 1320:0.0114781 1321:0.0780949 1322:0.153877 1323:0.0766173 1324:0.00401087 1325:0.0453309 1326:0.0280402 1327:0.0957534 1328:0.0186649 1329:0.3561 1330:0.0588167 1331:0.0463981 1332:0.0467895 1333:0.0374282 1334:0.0149665 1335:0.362227 1336:0.0135099 1337:0.0649306 1338:0.344751 1339:0.0470201 1340:0.196971 1341:0.181666 1342:0.0530389 1343:0.0342575 1344:0.377676 1345:0.0156919 1346:0.0627049 1347:0.00999154 1348:0.0202758 1349:0.237139 1350:0.0191755 1351:0.141557 1352:0.0296805 1353:0.027203 1354:0.0343727 1355:0.130976 1356:0.268544 1357:0.0794675 1358:0.0476938 1359:0.0130179 1360:0.186604 1361:0.2232 1362:0.373298 1363:0.121936 1364:0.251188 1365:0.0057542 1366:0.290708 1367:0.0171467 1368:0.024026 1369:0.0115884 1370:0.347949 1371:0.194583 1372:0.354525 1373:0.072381 1374:0.115937 1375:0.290409 1376:0.200086 1377:0.18782 1378:0.0248466 1379:0.0506106 1380:0.148795 1381:0.0461363 1382:0.0472142 1383:0.204539 1384:0.133387 1385:0.0145877 1386:0.0592059 1387:0.340078 1388:0.187664 1389:0.263732 1390:0.152021 1391:0.0814595 1392:0.328722 1393:0.152212 1394:0.319147 1395:0.249869 1396:0.112904 1397:0.0383585 1398:0.0624168 1399:0.353988 1400:0.165671 1401:0.0178508 1402:0.017084 1403:0.011587 1404:0.132709 1405:0.0236723 1406:0.119212 1407:0.391429 1408:0.206111 1409:0.071178 1410:0.261241 1411:0.325158 1412:0.019505 1413:0.291823 1414:0.0547073 1415:0.0761766 1416:0.063152 1417:0.0321549 1418:0.0767884 1419:0.011821 1420:0.0407504 1421:0.0480119 1422:0.123892 1423:0.472673 1424:0.131397 1425:0.341626 1426:0.00882167 1427:0.3561 1428:0.0204061 1429:0.0327563 1430:0.0890084 1431:0.0288911 1432:0.344751 1433:0.0747126 1434:0.344751 1435:0.0328462 1436:0.121713 1437:0.26137 1438:0.016549 1439:0.139631 1440:0.22627 1441:0.254769 1442:0.0358003 1443:0.145974 1444:0.289013 1445:0.109017 1446:0.0967388 1447:0.293391 1448:0.0427053 1449:0.0332536 1450:0.42167 1451:0.138818 1452:0.01091 1453:0.00454262 1454:0.14955 1455:0.0668308 1456:0.257275 1457:0.142212 1458:0.212988 1459:0.0101486 1460:0.379389 1461:0.0687557 1462:0.0912989 1463:0.132786 1464:0.403668 1465:0.0216359 1466:0.0561213 1467:0.0158928 1468:0.0400613 1469:0.353988 1470:0.0570569 1471:0.0163367 1472:0.258507 1473:0.0470204 1474:0.298852 1475:0.00193761 1476:0.00127705 1477:0.00838103 1478:0.139308 1479:0.0576266 1480:0.27867 1481:0.0684888 1482:0.325158 1483:0.0329283 1484:0.244962 1485:0.0811059 1486:0.0278183 1487:0.0474174 1488:0.0681719 1490:0.217154 1491:0.373018 1492:0.152577 1493:0.0649337 1494:0.170467 1495:0.0418144 1496:0.01304 1497:0.272061 1498:0.0206551 1499:0.102941 
-0 0.005740586983855316 0:0.126282 1:0.104473 2:0.245379 3:0.00834661 4:0.179872 5:0.216789 6:0.00786828 7:0.24675 8:0.0914494 9:0.044328 10:0.335464 11:0.0949147 12:0.0450616 13:0.337591 14:0.129666 15:0.094653 16:0.00230826 17:0.135734 18:0.389858 19:0.176829 20:0.102819 21:0.132038 22:0.056777 23:0.0663081 24:0.20836 25:0.0242543 26:0.0566201 27:0.332011 28:0.20861 29:0.0960704 30:0.158534 31:0.156908 32:0.198714 33:0.0742827 36:0.0515278 37:0.160066 38:0.0673123 39:0.2409 40:0.0158599 41:0.180183 42:0.0359447 43:0.00151833 44:0.348351 45:0.000537275 46:0.114615 47:0.17808 48:0.160811 49:0.253767 50:0.0491439 51:0.0284771 53:0.128383 54:0.1629 55:0.0433966 56:0.342481 57:0.0671629 58:0.048756 59:0.0903669 60:0.0810139 61:0.0258752 62:0.0600294 63:0.412109 64:0.18948 65:0.0321921 66:0.358081 67:0.0341297 68:0.0224665 69:0.169034 70:0.0141867 71:0.00984994 72:0.0555603 73:0.0560456 74:0.00874027 75:0.065411 76:0.000485801 77:0.351416 78:0.0220612 79:0.143508 80:0.132164 81:0.0786261 82:0.248124 83:0.295483 84:0.0105554 85:0.00957035 86:0.139041 87:0.107094 88:0.0202669 89:0.0616681 90:0.263865 91:0.351377 92:0.0770947 93:0.0129412 94:0.332339 95:0.239975 96:0.165464 97:0.38509 98:0.305364 99:0.0496083 100:0.0177945 101:0.290152 102:0.141317 103:0.00040425 104:0.298561 105:0.0645146 106:0.0839439 107:0.412109 109:0.0844148 110:0.27471 111:0.0192569 112:0.134349 113:0.122216 114:0.0653287 115:0.0984385 116:0.193715 117:0.109194 118:0.0343924 119:0.0270939 120:0.288705 121:0.0451668 122:0.141628 123:0.0282244 124:0.3704 125:0.0106393 126:0.0071398 127:0.0785914 128:0.272315 129:0.152924 130:0.123867 131:0.243746 132:0.352416 133:0.108028 134:0.107554 135:0.191972 136:0.355026 137:0.127913 138:0.117176 139:0.20915 140:0.0873289 141:0.0619944 142:0.337591 143:0.0798787 144:0.0307054 145:0.122264 146:0.0950811 147:0.00116326 148:0.00229084 149:0.107527 150:0.0244547 151:0.0646295 152:0.0592703 153:0.04191 154:0.256381 155:0.055651 156:0.0143444 157:0.0699794 158:0.254434 159:0.117228 160:0.417613 161:0.0699838 162:0.0538873 163:0.192666 164:0.0858876 165:0.411 166:0.110996 167:0.0702656 168:0.106485 169:0.0317017 170:0.0221146 171:0.137485 172:0.243883 173:0.00164175 174:0.0682972 175:0.0627698 176:0.0150823 177:0.226682 178:0.000973926 180:0.121596 181:0.120783 182:0.138347 183:0.327512 184:0.0745007 185:0.0487435 186:0.00253295 187:0.372669 188:0.0915701 189:0.127667 190:0.30681 191:0.0845761 192:0.0702453 193:0.0273314 194:0.0618432 195:0.0659727 196:0.0454178 197:0.0936961 198:0.0753674 199:0.0129214 200:0.0362061 201:0.0308594 202:0.263432 203:0.0728614 204:0.00826988 205:0.0145733 206:0.0202148 207:0.331801 208:0.0834267 209:0.0270948 210:0.0740281 212:0.00553806 213:0.0370429 214:0.0293637 215:0.107557 216:0.150365 217:0.149862 218:0.0513546 219:0.152817 220:0.283554 221:0.0685611 222:0.0681022 223:0.0246706 224:0.337823 225:0.0160359 226:0.114407 227:0.0969706 228:0.2399 229:0.0167287 230:0.266032 231:0.249975 232:0.0854751 233:0.342481 234:0.137919 235:0.206207 236:0.417613 237:0.251318 238:0.313294 239:0.38509 240:0.318423 241:0.0559235 242:0.0567664 243:0.00603948 244:0.189819 245:0.0542314 246:0.0388151 247:0.0999107 248:0.253378 249:0.0873978 250:0.00124317 251:0.407753 252:0.208446 253:0.0915354 254:0.039808 255:0.0447587 256:0.0641485 257:0.00864102 258:0.0235853 259:0.372922 260:0.0835473 261:0.211203 262:0.18363 263:0.0302391 264:0.0378187 265:0.00122861 266:0.0151254 267:0.0155924 268:0.0802 269:0.10883 270:0.38099 271:0.0444123 272:0.389858 273:0.217342 274:0.016713 275:0.00147911 276:0.387081 277:0.128414 278:0.00896228 279:0.030501 280:0.0168144 281:0.010465 282:0.231387 283:0.338994 284:0.00185679 285:0.000918184 287:0.0632747 288:0.291103 289:0.0488776 290:0.0415765 291:0.0662092 292:0.0165143 293:0.0442995 294:0.0596493 295:0.0328363 296:0.0129874 297:0.115198 298:0.127525 299:0.0776511 300:0.102204 301:0.127911 302:0.295483 303:0.106134 304:0.111148 305:0.0612349 306:0.334739 307:0.143415 308:0.219273 309:0.0809581 310:0.0198244 311:0.392136 312:0.000487504 313:0.00699339 314:0.0285876 315:0.291074 317:0.401617 318:0.00260205 319:0.0046467 320:0.0358323 321:0.218502 322:0.0506442 323:0.258179 324:0.406706 325:0.171104 326:0.0831739 327:0.0825965 328:0.363825 329:0.0821968 330:0.023048 331:0.100822 332:0.0072011 333:0.05835 334:0.0619517 335:0.0377276 336:0.0693681 337:0.240492 338:0.375676 339:0.143766 340:0.26177 341:0.0567514 342:0.0426727 343:0.0647049 344:0.197878 345:0.0834405 346:0.106476 347:0.189559 348:0.0814088 349:0.0625798 350:0.0261987 351:0.116136 352:0.0794048 353:0.168686 354:0.239677 355:0.0521671 356:0.230339 357:0.00937578 358:0.00586344 359:0.00585347 360:0.0549034 361:0.0674103 362:0.00282975 363:0.407753 364:0.0810342 365:0.114232 366:0.116447 367:0.361609 368:0.00847696 369:0.032826 370:0.361609 371:0.00441795 372:0.0649484 373:0.0596736 374:0.372922 375:0.0234392 376:0.150014 377:0.192488 378:0.358081 379:0.164433 380:0.189513 381:0.0734787 382:0.000805491 383:0.275847 384:0.168745 385:0.226889 386:0.156122 387:0.047927 388:0.0711533 389:0.0868009 390:0.0105892 391:0.112071 392:0.0362634 393:0.173379 394:0.00159793 395:0.0578529 396:0.178236 397:0.038732 398:0.124777 399:0.0143936 400:0.0032934 401:0.0075853 402:0.387081 403:0.387081 404:0.0230282 405:0.0462501 406:0.00694511 407:0.00672339 408:0.0119085 409:0.0831315 410:0.0144494 411:0.0886987 412:0.0591202 413:0.145505 414:0.289152 415:0.00558268 416:0.331801 417:0.0872897 418:0.215871 419:0.104045 420:0.137355 421:0.00609191 422:0.385158 424:0.0279095 425:0.256208 426:0.0794496 427:0.19573 428:0.292275 429:0.0804819 430:0.321681 431:0.026936 432:0.136843 433:0.326712 434:0.326712 435:0.326712 436:0.112602 437:0.120439 438:0.259293 439:0.113533 440:0.086845 441:0.258458 442:0.0550865 443:0.0123998 444:0.0712712 445:0.224819 446:0.277294 447:0.195015 448:0.0502225 449:0.0341992 450:0.0358536 451:0.191381 452:0.2529 453:0.0384842 455:0.401617 456:0.00104985 457:0.0051189 458:0.0101665 459:0.0897744 460:0.0559435 461:0.143716 462:0.0852353 463:0.146536 464:0.113352 465:0.351377 466:0.206361 467:0.188009 468:0.0189584 469:0.0136249 470:0.102787 471:0.0372181 472:0.0665011 473:0.0111297 474:0.454417 475:0.0484051 476:0.391201 477:0.285449 478:0.0621565 479:0.0235501 480:0.0416796 481:0.0215569 482:0.2817 483:0.0500423 484:0.196906 485:0.0719375 486:0.176968 487:0.0505562 488:0.0784251 489:0.153434 490:0.0104629 491:0.177305 492:0.0441071 493:0.10419 494:0.38509 495:0.00455317 496:0.230479 497:0.0684373 498:0.078267 499:0.583855 500:0.0794088 501:0.000404939 502:0.202709 503:0.285629 504:0.00739852 505:0.0345446 506:0.00532199 507:0.0953035 508:0.337454 509:0.130843 510:0.0243773 511:0.0458572 512:0.233091 513:0.00283822 514:0.0127515 515:0.0381304 516:0.0342312 517:0.08908 518:0.372922 519:0.0593403 520:0.09443 521:0.0731311 522:0.202678 523:0.0124488 524:0.00430876 525:0.383016 526:0.383016 527:0.00620067 528:0.0146856 529:0.100537 530:0.23664 531:0.0997545 532:0.174889 533:0.38099 534:0.235272 535:0.0531389 536:0.0290289 537:0.279816 538:0.373051 539:0.0503812 540:0.3704 541:0.0159126 542:0.399628 543:0.399628 544:0.110691 545:0.0076953 546:0.0442467 547:0.00401111 548:0.00871959 549:0.113375 550:0.0991848 551:0.28329 552:0.103612 553:0.351416 554:0.0110856 555:0.0930463 556:0.105349 557:0.348351 558:0.0116423 559:0.176491 560:0.152365 561:0.187082 562:0.0763346 563:0.0103071 564:0.307428 566:0.385158 567:0.0689113 568:0.0440348 569:0.142941 570:0.00643737 571:0.0606028 572:0.130606 573:0.0887423 574:0.00909775 575:0.0611222 576:0.108312 577:0.295483 578:0.0453551 579:0.104909 580:0.13176 581:0.10383 582:0.107092 583:0.150796 584:0.246395 585:0.0991357 586:0.160217 587:0.0577196 588:0.202112 589:0.0379311 590:0.0569131 591:0.392136 592:0.409198 593:0.409198 594:0.357227 595:0.294702 596:0.0329974 597:0.18738 598:0.26656 599:0.082861 600:0.0458185 601:0.0207503 602:0.331553 603:0.12395 604:0.172367 605:0.104372 606:0.200787 607:0.2578 608:0.0659544 609:0.0683279 610:0.128283 611:0.245386 612:0.123435 613:0.366522 614:0.0409706 615:0.391201 616:0.131074 617:0.0779272 618:0.304421 619:0.0305789 620:0.212622 621:0.0399493 622:0.12451 623:0.360778 624:0.037657 625:0.0895743 626:0.232289 627:0.274427 628:0.0937064 629:0.0213066 630:0.075903 631:0.0412515 632:0.137339 633:0.205614 634:0.161365 635:0.0110108 636:0.38509 637:0.0857338 638:0.135565 639:0.23014 640:0.161494 641:0.135868 642:0.20681 643:0.232834 644:0.155244 645:0.244811 646:0.346453 647:0.165792 648:0.0585867 649:0.346453 650:0.0197623 651:0.0197623 652:0.221524 653:0.065464 654:0.038561 655:0.0914244 656:0.0735782 657:0.0383733 658:0.0276258 659:0.0234972 660:0.0135216 661:0.0167662 662:0.361609 663:0.0128748 664:0.13261 665:0.00624632 666:0.00509785 667:0.155032 668:0.238149 669:0.0297646 670:0.087546 671:0.0540618 672:0.092973 673:0.102255 674:0.0572083 675:0.120634 676:0.00832075 677:0.0903482 678:0.00286121 679:0.481703 680:0.481703 681:0.00367667 682:0.437798 683:0.00430876 685:0.123786 686:0.295304 687:0.00972937 688:0.372669 689:0.0291744 690:0.0849392 691:0.269673 692:0.0137445 693:0.0273849 694:0.140406 695:0.230773 696:0.0110033 697:0.151805 698:0.0229706 699:0.0150558 700:0.29743 701:0.165729 702:0.34855 703:0.00534152 704:0.0777962 705:0.0294138 706:0.0166068 707:0.349276 708:0.0656143 709:0.0515439 710:0.0910956 711:0.351416 712:0.048787 713:0.0485165 714:0.000295994 715:0.0722442 716:0.347212 717:0.347212 718:0.347212 719:0.00464935 720:0.352416 721:0.00090952 722:0.352416 723:0.0127531 724:0.0397976 725:0.0212614 726:0.348351 727:0.132906 728:0.106019 729:0.115821 730:0.124632 731:0.0282497 732:0.0245043 733:0.331801 734:0.33547 735:0.121297 736:0.141888 738:0.111026 739:0.355026 740:0.0615699 741:0.350374 742:0.0478095 743:0.0619019 744:0.0557786 745:0.104227 746:0.295483 747:0.0970894 748:0.212592 749:0.164124 750:0.109299 751:0.334739 752:0.286108 753:0.147109 754:0.0992003 755:0.165893 756:0.253899 757:0.316629 758:0.0146823 759:0.000434952 760:0.0184183 761:0.35357 762:0.0369061 763:0.142096 764:0.311844 765:0.175741 766:0.0268445 767:0.133752 768:0.320538 769:0.267125 770:0.161795 771:0.126813 772:0.153877 773:0.0373307 774:0.0259327 775:0.0451465 776:0.171442 777:0.00974436 778:0.0528979 779:0.0853119 780:0.0775288 781:0.256088 782:0.103853 783:0.164315 784:0.267203 785:0.282793 786:0.0143143 787:0.0290976 788:0.205933 789:0.043391 790:0.317392 791:0.173134 792:0.317989 793:0.122613 794:0.123243 795:0.164157 796:0.217926 797:0.0886943 798:0.0591528 799:0.112154 800:0.0520258 801:0.0638025 802:0.100747 803:0.0583486 804:0.119228 805:0.091467 806:0.0327635 807:0.00397106 808:0.267751 809:0.0733766 810:0.100746 811:0.0612673 812:0.409521 813:0.0850222 814:0.226717 815:0.0615499 816:0.115991 817:0.103685 818:0.223496 819:0.0523291 820:0.245855 821:0.124789 822:0.0662742 823:0.403381 824:0.0818113 825:0.160753 826:0.15333 827:0.0507194 828:0.212938 829:0.319971 830:0.337454 831:0.00494132 832:0.361609 833:0.126172 834:0.412109 835:0.0115615 836:0.0566785 837:0.0325895 838:0.16867 839:0.186417 840:0.192572 841:0.05224 842:0.0748606 843:0.0355582 844:0.0741996 845:0.103743 846:0.00235699 847:0.0103973 848:0.0239912 849:0.00369242 850:0.481703 851:0.0502371 852:0.0296282 853:0.000988843 854:0.00334679 855:0.372669 856:0.0352984 857:0.094358 858:0.194915 859:0.10089 860:0.17795 861:0.0123893 862:0.373051 863:0.290638 864:0.0639005 865:0.0125284 866:0.341704 867:0.0535646 868:0.0768874 869:0.249448 870:0.07889 871:0.0537256 872:0.015847 874:0.0103538 875:0.0114255 876:0.00422188 877:0.0352162 878:0.0494118 879:0.351416 880:0.21603 881:0.294455 882:0.00421484 883:0.110582 884:0.0754973 885:0.0967149 886:0.0774269 887:0.00716788 888:0.334664 889:0.352416 890:0.031149 891:0.261564 892:0.348351 893:0.0226269 894:0.23082 895:0.0117248 896:0.00414829 897:0.0614911 898:0.33547 899:0.111013 900:0.165265 901:0.0103977 902:0.0116724 903:0.017135 904:0.00191271 905:0.385158 906:0.0618407 907:0.151729 908:0.137898 909:0.318627 910:0.0142431 911:0.00102382 912:0.226802 913:0.350374 914:0.0115251 915:0.0585147 916:0.20816 917:0.123613 918:0.295483 919:0.132079 920:0.334739 921:0.198531 922:0.0721512 923:0.0549031 924:0.0385445 925:0.0815113 926:0.0364398 927:0.00278989 928:0.0175128 929:0.207799 930:0.125787 931:0.0542875 932:0.0756138 933:0.205684 934:0.019512 935:0.00374447 936:0.0454277 937:0.016901 938:0.401617 939:0.0399962 940:0.352921 941:0.00211994 942:0.35357 943:0.0162823 944:0.00669022 945:0.35357 946:0.27031 947:0.032677 948:0.136688 949:0.331553 950:0.268675 951:0.148858 952:0.00829495 953:0.0220416 954:0.0848328 955:0.369139 956:0.0709604 957:0.00796018 958:0.0235577 959:0.0591507 960:0.117782 961:0.342481 962:0.0926925 963:0.0291118 964:0.199879 965:0.0790037 966:0.0500502 967:0.0506622 968:0.165826 969:0.0610847 970:0.0544956 971:0.0416396 972:0.0192928 973:0.0583835 974:0.202053 975:0.0796831 976:0.0618862 977:0.0862101 978:0.322736 979:0.409521 980:0.21172 981:0.191836 982:0.0219544 983:0.180393 984:0.150857 985:0.290152 986:0.346453 987:0.18225 988:0.291038 989:0.0429804 990:0.523572 991:0.222299 992:0.0754951 993:0.153069 994:0.0111751 995:0.0458645 996:0.0522952 997:0.0795282 998:0.337454 999:0.186578 1000:0.00845941 1001:0.0321784 1002:0.0875214 1003:0.00320968 1004:0.0087916 1005:0.0541922 1007:0.354092 1008:0.107455 1009:0.0120336 1010:0.262372 1011:0.113562 1012:0.174406 1013:0.0635853 1014:0.0205999 1015:0.119257 1016:0.540868 1017:0.0234037 1019:0.006136 1020:0.00959342 1021:0.00703494 1022:0.0382661 1023:0.383016 1024:0.065373 1025:0.0101392 1026:0.00932761 1027:0.102892 1028:0.0603386 1029:0.270644 1030:0.121793 1031:0.0797144 1032:0.0610339 1033:0.207186 1034:0.373051 1035:0.140753 1036:0.093016 1037:0.234125 1038:0.00958269 1039:0.245499 1040:0.137498 1041:0.0198599 1042:0.0933892 1043:0.212658 1044:0.0217854 1045:0.103153 1046:0.143571 1047:0.186549 1048:0.0737217 1049:0.347212 1050:0.352416 1051:0.0252129 1052:0.352416 1053:0.0926829 1054:0.162561 1055:0.00614194 1056:0.188221 1057:0.0277058 1058:0.0521247 1059:0.33547 1060:0.195966 1061:0.385158 1062:0.00567363 1063:0.0273979 1064:0.0209112 1065:0.0629799 1066:0.168421 1067:0.0360447 1068:0.149734 1069:0.168788 1070:0.0396198 1071:0.0190667 1072:0.0689115 1073:0.0500732 1074:0.0736206 1075:0.0751124 1076:0.326355 1077:0.289383 1078:0.0171301 1079:0.17038 1080:0.168352 1081:0.147677 1082:0.0870498 1083:0.000459559 1084:0.00800329 1086:0.35357 1087:0.000955746 1088:0.0103311 1089:0.0291962 1090:0.13189 1091:0.0680732 1092:0.0109464 1093:0.0182439 1094:0.185067 1095:0.195727 1096:0.20938 1097:0.00344989 1098:0.00726687 1099:0.288901 1100:0.0495778 1101:0.351377 1102:0.0404161 1103:0.0329102 1104:0.406706 1105:0.0345933 1106:0.0846356 1107:0.0732597 1108:0.26059 1109:0.0359463 1110:0.0512523 1111:0.131592 1112:0.315108 1113:0.161622 1114:0.0287258 1115:0.0993768 1116:0.342481 1117:0.359014 1118:0.0493283 1119:0.0706227 1120:0.023895 1121:0.0295873 1122:0.0181649 1123:0.118321 1124:0.00986818 1125:0.129373 1126:0.211579 1127:0.13992 1128:0.0520389 1129:0.123384 1130:0.0568565 1131:0.3036 1132:0.357505 1133:0.00627106 1134:0.0719047 1135:0.211818 1136:0.241694 1137:0.290152 1138:0.187866 1139:0.262035 1140:0.0651965 1141:0.101553 1142:0.0688402 1143:0.0480227 1144:0.0239549 1145:0.0754262 1146:0.170237 1147:0.00992304 1148:0.0238515 1149:0.346775 1150:0.407753 1151:0.0274197 1152:0.0501047 1153:0.093806 1154:0.0573938 1155:0.319254 1156:0.265262 1157:0.0785299 1158:0.00723641 1159:0.0130708 1160:0.412109 1161:0.0939673 1162:0.111673 1163:0.218779 1164:0.0552834 1165:0.112692 1166:0.00867601 1167:0.0111193 1168:0.540868 1169:0.0540887 1170:0.000805491 1171:0.0124488 1173:0.383016 1174:0.00237849 1175:0.0731298 1176:0.0690244 1177:0.372669 1178:0.0344625 1179:0.0732681 1180:0.38099 1181:0.105083 1182:0.083837 1183:0.150105 1184:0.3704 1185:0.066574 1186:0.399628 1187:0.387081 1188:0.272073 1189:0.0322291 1190:0.0142413 1191:0.195087 1192:0.0388001 1193:0.0821795 1194:0.000826953 1195:0.00445577 1196:0.140834 1197:0.285038 1198:0.0828183 1199:0.0244723 1200:0.0279248 1201:0.0516979 1202:0.0125614 1203:0.299154 1204:0.20963 1205:0.133662 1206:0.100882 1207:0.0887838 1208:0.33547 1209:0.354653 1210:0.0919155 1211:0.355026 1212:0.305342 1213:0.0786243 1214:0.0612724 1215:0.301665 1216:0.165301 1217:0.0577131 1218:0.0889107 1219:0.0619002 1220:0.326712 1221:0.167091 1222:0.112263 1223:0.0181084 1224:0.0415182 1225:0.308405 1226:0.0519487 1227:0.365667 1228:0.0222409 1229:0.0182508 1230:0.0037999 1231:0.00953117 1232:0.00068839 1234:0.0168445 1235:0.0196273 1236:0.0309759 1237:0.202274 1238:0.273071 1239:0.0967734 1240:0.0831365 1241:0.097925 1242:0.351377 1243:0.0473517 1244:0.0366623 1245:0.340364 1246:0.073656 1247:0.0473058 1248:0.0229006 1249:0.0645059 1250:0.0707114 1251:0.210454 1252:0.0510228 1253:0.011057 1254:0.0439145 1255:0.0468687 1256:0.389232 1257:0.162249 1258:0.115746 1259:0.226638 1260:0.0834327 1261:0.0199529 1262:0.0795496 1263:0.0836002 1264:0.0592332 1265:0.0455951 1266:0.097544 1267:0.206072 1268:0.0138657 1269:0.183942 1270:0.0971569 1271:0.106596 1272:0.101499 1273:0.125973 1274:0.258044 1275:0.0193115 1276:0.0825914 1277:0.254143 1278:0.0119676 1279:0.0864166 1280:0.0221797 1281:0.260408 1282:0.17317 1283:0.277063 1284:0.0661071 1285:0.268699 1286:0.376934 1287:0.0557954 1288:0.149611 1289:0.0508313 1290:0.107494 1291:0.19508 1292:0.0279022 1293:0.0924227 1294:0.0680347 1295:0.249863 1296:0.0743402 1297:0.0112816 1298:0.0935772 1300:0.0217355 1301:0.00415956 1302:0.318524 1303:0.0069219 1304:0.00200644 1305:0.335603 1306:0.102358 1307:0.255265 1308:0.132403 1309:0.0927442 1310:0.389858 1311:0.00793824 1312:0.0486238 1314:0.145766 1315:0.373051 1316:0.0512532 1317:0.0589377 1318:0.0253405 1319:0.0108182 1320:0.00825642 1321:0.10809 1322:0.0245479 1323:0.12115 1324:0.0222186 1325:0.0339599 1326:0.0355387 1327:0.0930644 1328:0.0744084 1329:0.347212 1330:0.0175887 1331:0.0142351 1332:0.0327271 1333:0.026875 1334:0.0384183 1335:0.348351 1336:0.025353 1337:0.132405 1338:0.33547 1339:0.0643978 1340:0.0585161 1341:0.33547 1342:0.0013791 1343:0.0348369 1344:0.354313 1345:0.0868636 1346:0.0213016 1347:0.194326 1348:0.0164304 1349:0.277881 1350:0.146463 1351:0.0762139 1352:0.0767316 1353:0.0638179 1354:0.0662285 1355:0.256761 1356:0.210608 1357:0.0885791 1358:0.0251439 1359:0.0259253 1360:0.0886629 1361:0.318457 1362:0.252062 1363:0.149375 1364:0.190794 1365:0.00374447 1366:0.214426 1367:0.016336 1368:0.00137827 1369:0.00240636 1370:0.35357 1371:0.301003 1372:0.33792 1373:0.101425 1374:0.10325 1375:0.0770668 1376:0.0190597 1377:0.166247 1378:0.0148767 1379:0.0875326 1380:0.332222 1381:0.169769 1382:0.0419837 1383:0.187783 1384:0.161506 1385:0.0376472 1386:0.0241941 1387:0.208983 1388:0.152736 1389:0.163152 1390:0.0991399 1391:0.0186281 1392:0.387565 1393:0.047523 1394:0.0724492 1395:0.040967 1396:0.104562 1397:0.00264226 1398:0.0338273 1399:0.324884 1400:0.12085 1401:0.0322363 1402:0.0150889 1403:0.0260769 1404:0.0369983 1405:0.0220278 1406:0.0829848 1407:0.238681 1408:0.244738 1409:0.110068 1410:0.192409 1411:0.100392 1412:0.0315565 1413:0.258076 1414:0.0874407 1415:0.0243971 1416:0.014387 1417:0.0721845 1418:0.129777 1419:0.0418821 1420:0.0374315 1421:0.0450204 1422:0.129182 1423:0.144736 1424:0.137603 1425:0.351416 1426:3.33928e-005 1427:0.29386 1428:0.00120912 1429:0.0266103 1430:0.072509 1431:0.00991154 1432:0.179849 1433:0.026015 1434:0.15261 1435:0.0736123 1436:0.162789 1437:0.232026 1438:0.016311 1439:0.187471 1440:0.326712 1441:0.326712 1442:0.0560096 1443:0.0847807 1444:0.334739 1445:0.109118 1446:0.018739 1447:0.332947 1448:0.083078 1449:0.0195292 1450:0.228199 1451:0.0814762 1452:0.035309 1453:0.00177256 1454:0.17636 1455:0.0463708 1456:0.122825 1457:0.0110521 1458:0.351377 1459:0.0522077 1460:0.135986 1461:0.0351288 1462:0.0363933 1463:0.0844101 1464:0.189129 1465:0.0190243 1466:0.0296796 1467:0.0234279 1468:0.0425966 1469:0.409521 1470:0.0906471 1471:0.0112972 1472:0.0226027 1473:0.00283457 1474:0.361609 1475:0.0101091 1476:0.000514675 1477:0.00492683 1478:0.132853 1479:0.0157536 1480:0.113543 1481:0.124026 1482:0.358081 1483:0.00959342 1484:0.27056 1485:0.163744 1486:0.0326561 1487:0.0734255 1488:0.399628 1489:0.00104079 1490:0.270875 1491:0.387081 1492:0.0592223 1493:0.0488863 1494:0.250184 1495:0.110962 1496:0.0446621 1497:0.329278 1498:0.0180839 1499:0.0139998 
