svm_type c_svc
kernel_type linear
nr_class 2
total_sv 165
rho -3.58792
label 0 1
probA -4.20171
probB -0.502068
nr_sv 108 57
SV
0.02513206935539399 0:0.0288126 1:0.335411 2:0.267 3:0.339447 4:0.310327 5:0.160137 6:0.130517 7:0.197693 8:0.00126199 10:0.112274 11:0.169559 12:0.0385028 13:0.198718 14:0.208807 15:0.113228 16:0.234946 17:0.203399 18:0.000173283 19:0.0473647 20:0.299844 21:0.00814795 22:0.0992803 23:0.390336 24:0.367614 25:0.166777 26:0.140418 27:0.11988 28:0.113053 29:0.13766 30:0.153299 31:0.0129012 32:0.386422 33:0.0100125 34:0.00226395 35:0.0147233 36:0.067054 38:0.0891486 39:0.0305422 40:0.228051 41:0.0288654 42:0.0022976 43:0.356887 44:0.341305 45:0.0206539 46:0.213519 47:0.149895 48:0.251534 49:0.0547262 50:0.0269732 51:0.148543 52:0.472523 53:0.176262 54:0.0100704 55:0.0163842 56:0.0727994 57:0.132917 58:0.129446 59:0.0436004 60:0.0169028 61:0.00367927 63:0.373191 64:0.211311 65:0.185854 66:0.0236372 67:0.0127283 68:0.0492825 69:3.03688e-005 70:0.381737 71:0.0136379 72:0.194242 73:0.19659 74:0.159746 75:0.158589 76:0.184441 77:0.000704311 78:0.00737199 79:0.0246869 80:0.00792634 81:0.0443726 82:0.271247 83:0.0473779 84:0.00216105 85:0.248019 86:0.157173 87:0.173198 89:0.347914 90:0.347914 91:0.0303682 93:0.459694 94:0.310327 95:0.0635233 96:0.117467 97:0.291535 98:0.265558 99:0.0916946 100:0.0979216 101:0.0816349 102:0.147422 104:0.307852 106:0.238168 107:0.0293456 108:0.111055 109:0.0737889 110:0.02852 111:0.475469 113:0.179918 114:0.16614 115:0.061518 116:0.209938 117:0.115572 118:0.0488727 119:0.0149746 120:0.154107 121:0.0181176 122:0.149232 123:0.278309 124:0.143864 125:0.119454 126:0.31542 127:0.41732 128:0.350623 129:0.0483717 130:0.0632403 131:0.102027 132:0.367343 133:0.071023 134:0.304135 135:0.248828 136:0.0862151 137:0.277593 138:0.224164 139:0.0987123 140:0.0206617 141:0.0406879 142:0.0399873 143:0.061003 144:0.101316 145:0.0143547 146:0.0198382 147:0.100617 148:0.0226457 149:0.389055 150:0.00334038 151:0.0211369 153:0.0204933 154:0.0120825 155:0.0884021 156:0.0995825 157:0.275456 158:0.177915 160:0.124733 161:0.0244864 163:0.0940553 164:0.00628298 165:0.0419471 166:0.0107181 167:0.0907313 168:0.237875 169:0.0507 170:0.340944 171:0.0852968 172:0.183931 173:0.0141933 174:0.54776 175:0.118644 176:0.0473035 177:0.162878 178:0.0109791 179:0.0585521 180:0.0215441 181:0.0272277 182:0.156136 183:0.0492682 184:0.386528 185:0.238294 186:0.219496 187:0.37589 188:0.0164283 190:0.0131791 191:0.00437993 192:0.0567224 193:0.188476 194:0.227939 195:0.0998175 196:0.0998375 197:0.0698401 198:0.29858 199:0.105759 200:0.134944 201:0.143396 202:0.0999694 203:0.201811 204:0.134316 205:0.046099 206:0.0916974 207:0.200804 208:0.0444947 209:0.000810196 210:0.218768 211:0.0171854 212:0.0715729 213:0.0682353 214:0.128002 215:0.149595 216:0.291704 217:0.129101 218:0.158282 219:0.234966 220:0.134957 221:0.0307446 222:0.514671 223:0.174138 224:0.0872044 225:0.223483 226:0.0102115 227:0.0140318 228:0.0616817 229:0.120776 230:0.0329547 231:0.164511 232:0.132649 233:0.13178 234:0.0896866 235:0.182992 236:0.0307912 237:0.0906865 238:0.392199 240:0.185353 241:0.0313138 242:0.111187 243:0.0280954 244:0.000777951 245:0.0777679 246:0.183196 247:0.101208 248:0.0363546 249:0.139641 250:0.149447 251:0.310327 253:0.152073 254:0.116273 255:0.10905 256:0.101475 257:0.311904 258:0.129885 259:0.247637 260:0.0293368 262:0.373191 263:0.00891716 264:0.0194434 265:0.162517 266:0.0862821 267:0.0903061 268:0.181884 269:0.0134806 270:0.315968 271:0.000974612 272:0.00502202 273:0.00779773 274:0.0228082 275:0.0975241 276:0.395592 277:0.361821 278:0.0109791 279:0.274764 280:0.0589915 281:0.162225 282:0.35802 284:0.0305902 285:0.0558843 286:0.0805692 287:0.0297032 288:0.351701 289:0.0547543 290:0.0433725 291:0.156967 292:0.29016 293:0.0276018 294:0.0918296 295:0.0709989 296:0.200506 297:0.0622572 298:0.41732 300:0.0144503 301:0.125918 302:0.221773 303:0.101932 304:0.0192465 305:0.0796633 306:0.0366164 307:0.174227 308:0.237865 309:0.100048 310:0.0624122 311:0.0336973 312:0.0570911 313:0.327412 314:0.165922 315:0.146174 316:0.265607 317:0.141247 318:0.0656502 319:0.0235565 320:0.225146 321:0.148176 322:0.00176584 323:0.20948 324:0.0882794 325:0.0949592 326:0.037645 327:0.224164 328:0.126591 329:0.0128135 330:0.107513 331:0.271762 332:0.193413 333:0.375495 334:0.261108 335:0.0651926 336:0.129932 337:0.0782752 338:0.0112331 339:0.055369 340:0.00566088 341:0.12691 342:0.196377 343:0.202146 344:0.31795 345:0.0929299 346:0.0196334 347:0.0996922 348:0.129701 349:0.0187763 350:0.0646174 351:0.0578405 352:0.556979 353:0.120231 354:0.045281 355:0.0140629 356:0.191472 357:0.0590179 358:0.0016944 359:0.0648556 360:0.0981238 361:0.0582431 362:0.0483537 363:0.0671974 364:0.132404 365:0.539045 366:0.0155736 367:0.0411633 368:0.132894 369:0.318349 370:0.310327 373:0.302897 374:0.168939 375:0.0445105 376:0.143596 377:0.0615154 379:0.0393746 380:0.351081 381:0.0287574 383:0.361912 384:0.126497 385:0.0877245 386:0.0297721 388:0.0703865 390:0.116268 391:0.00715845 392:0.154456 393:0.182876 394:0.042777 395:0.0820032 396:0.488085 397:0.132464 398:0.0262855 399:0.136321 400:0.319138 401:0.0374148 402:0.464035 403:0.0203965 404:0.320653 405:0.222263 406:0.00102175 408:0.141565 409:0.0295603 410:0.34488 411:0.140195 412:0.0363031 413:0.344344 414:0.0618027 415:0.0706277 416:0.170225 417:0.0515222 418:0.218289 419:0.0824766 420:0.103247 421:0.152851 422:0.109561 423:0.197829 424:0.0364579 425:0.213708 426:0.41732 427:0.030368 428:0.0210883 429:0.000516972 430:0.178212 431:0.213428 432:0.14773 433:0.129898 434:0.189573 435:0.213607 436:0.0482289 437:0.19835 438:0.180305 439:0.0691284 440:0.0704918 441:0.101503 442:0.140703 443:0.0309221 444:0.0111363 445:0.109644 446:0.270037 447:0.121478 448:0.0253842 449:0.080482 450:0.292163 451:0.219608 452:0.0747176 454:0.00434992 455:0.0322441 456:0.233394 457:0.0149987 458:0.00637423 459:0.0452024 460:0.0632135 461:0.604621 462:0.0963046 463:0.00287839 464:0.0999575 466:0.000811849 467:0.392199 468:0.147563 469:3.76677e-005 470:0.00263204 471:0.310638 472:0.347914 473:0.0911008 474:0.205993 475:0.348079 476:0.386815 477:0.0102703 478:0.0155878 479:0.00226395 480:0.0598923 481:0.0968776 482:0.12595 483:0.166685 484:0.21553 485:0.0150192 486:0.0789871 487:0.0574642 488:0.00548911 489:0.398345 490:0.00676946 491:0.28302 492:0.0272491 494:0.0289669 496:0.370632 497:0.325784 498:0.00293478 499:0.175532 500:0.157049 501:0.0777271 502:0.219504 503:0.371641 504:0.168633 505:0.129508 506:0.508392 507:0.0635001 509:0.381292 510:0.0573987 512:0.0585063 513:0.00161572 514:0.379366 515:0.134068 516:0.11355 517:0.14335 518:0.242616 519:0.129587 520:0.260497 521:0.108874 522:0.000776718 523:0.324356 524:0.112895 525:0.0204314 526:0.0545229 527:0.0603766 528:0.173498 529:0.167518 530:0.148612 531:0.11304 532:0.0895439 533:0.15124 534:0.00702881 535:0.0392033 536:0.00242599 537:0.0624534 538:0.235601 539:0.26946 540:0.246342 541:0.252466 542:0.356064 543:0.00228906 544:0.00965793 545:0.151263 546:0.0934628 547:0.217808 548:0.336558 549:0.208453 550:0.0911381 551:0.119371 552:0.164163 553:0.242614 554:0.272975 555:0.154176 556:0.00133096 557:0.123397 558:0.220474 559:0.0345656 560:0.197334 561:0.137888 562:0.118703 563:0.235086 564:0.172203 565:0.443781 566:0.369588 567:0.0313579 568:0.215796 569:0.19601 570:0.109143 571:0.0397069 572:0.189176 573:0.227572 574:0.165153 575:0.0401748 576:0.299533 577:0.106332 578:0.04969 579:0.0483888 580:0.0107386 581:0.0721747 582:0.00780053 583:0.415664 584:0.0847023 585:0.0756202 586:0.150729 587:0.0341291 588:0.0422147 589:0.0118705 590:0.321877 591:0.101982 592:0.395189 593:0.0680668 594:0.0720189 595:0.109619 596:0.0246573 597:0.068798 598:0.154264 599:0.092415 600:0.215607 601:0.113538 602:0.0636895 603:0.381043 604:0.381043 605:0.337021 606:0.0285998 607:0.0942969 608:0.132584 609:0.0151512 610:0.0207906 611:0.0545929 612:0.290231 613:0.472523 614:0.105386 615:0.273425 616:0.102802 617:0.125555 618:0.21327 619:0.111931 620:0.152617 621:0.256657 622:0.0280354 623:0.343329 624:0.0915174 625:0.347914 626:2.26006e-005 627:0.0079325 628:0.0659056 629:0.00041752 630:0.299871 631:0.136055 632:0.307804 633:0.500961 634:0.0750461 635:0.0185207 636:0.0373224 637:0.55801 638:0.00141867 639:0.412286 640:0.0719679 642:0.165873 643:0.370632 644:0.219489 645:0.0169374 647:0.204205 648:0.00767673 649:0.23657 650:0.0876298 651:0.0206326 653:0.077188 654:0.0618731 655:0.101953 657:0.39073 658:0.409392 659:0.313632 660:0.200199 662:0.305847 663:0.0765252 664:0.0376094 665:0.180902 666:0.0450238 667:0.240239 668:0.227543 669:0.0586909 670:0.0407855 671:0.444604 672:0.0206856 674:0.176784 675:0.294682 676:0.348444 677:0.141734 678:0.710456 679:0.0554179 680:0.242712 681:0.0101017 682:0.000139959 683:0.148238 684:0.204017 685:0.0438468 686:0.0060016 687:0.0799722 688:0.0922386 689:0.149233 690:0.110027 691:0.350119 692:0.193596 693:0.0238155 694:0.0133928 695:0.406733 696:0.0405983 697:0.148145 698:0.157542 699:0.176186 700:0.117472 701:0.12029 702:0.0964344 703:0.0383292 704:0.18145 705:0.151084 706:0.24673 707:0.00908075 708:0.218086 709:0.00842691 710:0.196149 711:0.226808 712:0.0298641 713:0.322536 714:0.00833806 715:0.0580971 716:0.296865 717:0.19596 718:0.261565 719:0.138643 720:0.201845 721:0.0238679 722:0.247062 723:0.259736 724:0.18975 725:0.0968793 726:0.0871489 727:0.234243 728:0.0752205 729:0.0283109 730:0.0676246 731:0.0704072 732:0.218772 733:0.0869289 734:0.12766 735:0.367343 736:0.0420068 737:0.244785 738:0.0766705 739:0.00433414 740:0.00522041 741:0.0393567 742:0.0683085 743:0.0817966 744:0.0882642 745:0.133902 746:0.0602066 747:0.098702 748:0.115879 750:0.00584403 751:0.229018 752:0.0340896 753:0.107828 754:0.0605624 755:0.0750801 756:0.00806543 757:0.0945461 758:0.0987123 759:0.140811 760:0.114614 761:0.221599 762:0.15588 763:0.1178 764:0.000411595 765:0.268766 767:0.0362634 768:0.103007 770:0.337021 771:0.156385 773:0.0373984 774:0.0737331 775:0.109484 776:0.0268325 777:0.0160389 778:0.184256 779:0.0821973 780:0.0273223 781:0.251794 782:0.167204 783:0.21698 784:0.209564 785:0.0425389 786:0.0909932 787:0.423571 788:0.0504191 789:0.277161 790:0.0457757 791:0.045356 792:0.0495673 793:0.0590533 794:0.201822 795:0.0115869 796:0.242969 797:0.359059 798:0.0001763 799:0.00129729 800:0.495161 801:0.184422 802:0.0693149 803:0.0187045 804:0.0943802 805:0.152191 806:0.548779 807:0.191346 808:0.0625873 809:0.00678395 810:0.45673 811:0.188413 812:0.407501 813:0.139628 814:0.0774194 815:0.00387443 816:0.0218837 817:0.0385267 818:0.000947992 819:0.0860253 820:5.39752e-005 821:0.0222835 824:0.310327 825:0.0153316 826:0.00271298 828:0.0831387 829:0.0909952 830:0.425086 831:0.0273592 833:0.0283414 834:0.364866 836:0.012838 837:0.103078 840:0.0588762 841:0.0326594 842:0.333432 843:0.00522496 844:0.235931 845:0.379366 846:0.346993 847:0.0165485 848:0.011445 849:0.106264 850:0.0055827 851:0.151457 852:0.145263 853:0.130672 854:0.149505 855:0.00574203 856:0.152659 857:0.0114165 858:0.090515 859:0.0486567 860:0.013311 861:0.0126433 862:0.025604 863:0.0589465 864:0.0650053 865:0.0849898 866:0.0564269 867:0.0593416 868:0.071271 869:0.0024017 870:0.0471258 871:0.225236 873:0.000897668 874:0.033688 876:0.084528 877:0.00275797 878:0.0948128 879:0.270798 880:0.319443 881:0.167948 882:0.100434 883:0.271758 884:0.114082 885:0.273568 886:0.308855 887:0.0740143 888:0.307624 889:0.0008559 890:0.0781811 891:0.00642067 892:0.0588902 893:0.00633537 894:0.027142 895:0.387066 896:0.10657 897:0.101533 898:0.119653 899:0.179894 900:0.115081 901:0.0462263 902:0.109813 903:0.100347 904:0.111011 905:0.0484051 906:0.0540118 907:0.283973 908:0.0745397 909:0.0923131 910:0.0825395 911:0.172398 912:0.110779 913:0.178903 914:0.186141 915:0.386472 916:0.30954 917:0.101554 918:0.100928 919:0.176277 920:0.0296862 921:0.000115742 922:0.0697393 923:0.165551 924:0.0408113 925:0.150657 926:0.0280841 927:0.00141343 928:0.415664 929:0.415664 930:0.121724 931:0.0255936 932:0.532701 933:0.133407 934:0.0851092 935:0.214997 936:0.171194 937:0.367823 938:0.134919 939:0.334274 940:0.277891 941:0.154603 942:0.0702956 943:0.0734431 944:0.25137 945:0.150234 946:0.0664375 947:0.0816682 948:0.132715 949:0.0603189 950:0.570953 951:0.0988294 952:0.381043 953:0.0248894 954:0.123235 955:0.0166871 956:0.152527 957:0.0126459 958:0.309662 960:0.0015566 961:0.288059 962:0.241387 963:0.000348584 964:0.00285381 965:0.0870094 966:0.0971313 967:0.118445 968:0.202568 969:0.193916 970:0.107428 971:0.238444 972:0.125509 973:0.283249 974:0.0102792 975:0.00208665 976:0.275783 977:0.000256336 978:0.00135778 980:0.0233491 981:0.106106 982:0.216213 984:0.0729669 985:0.089955 986:0.128313 987:0.0399506 988:0.0430279 989:0.0992086 990:0.0323191 991:0.00425382 992:0.0122807 993:0.0039674 994:0.0114144 995:0.000851203 997:0.412286 998:0.292833 999:0.310327 1000:0.186697 1001:0.282921 1003:0.0163793 1004:0.198991 1005:0.0257307 1006:0.391158 1007:0.0278412 1008:0.0706063 1009:0.357594 1010:0.17898 1011:0.11888 1012:0.177886 1013:0.266304 1014:0.00612447 1015:0.206716 1016:0.0506372 1018:0.49571 1020:0.276109 1021:0.000147942 1023:0.0830883 1024:0.0736111 1025:0.000702912 1027:0.170578 1028:0.127134 1029:0.0859096 1030:0.0581347 1031:0.0863417 1032:0.132405 1033:0.0738872 1034:0.0898314 1035:0.0058046 1036:0.046542 1037:0.10979 1038:0.190537 1039:0.197232 1040:0.00952854 1041:0.28532 1042:0.0864994 1043:0.0138705 1044:0.0401936 1045:0.00702881 1046:0.0668223 1047:0.165795 1048:0.010664 1049:0.00504339 1050:0.0133714 1051:0.0246092 1052:0.0597609 1053:0.296696 1054:0.0524169 1055:0.0885806 1056:0.258015 1057:0.290773 1058:0.191051 1059:0.13717 1060:0.0433015 1061:0.0660921 1062:0.0454425 1063:0.104326 1064:0.281695 1065:0.214179 1066:0.162626 1067:0.081206 1068:0.0648463 1069:0.115985 1070:0.0596619 1071:0.018769 1073:0.00112541 1074:0.41732 1075:0.277434 1076:0.0341448 1077:0.098377 1078:0.111458 1079:0.266004 1080:0.0544642 1081:0.229294 1082:0.132847 1083:0.217957 1084:0.195136 1085:0.184283 1086:0.134166 1087:0.0585678 1088:0.0382792 1089:0.0420169 1090:0.367343 1091:0.000100616 1092:0.0947137 1093:0.0262665 1094:0.065879 1095:0.00751329 1096:0.000441778 1097:0.342898 1098:0.0457996 1099:0.19933 1100:0.245998 1101:0.0894043 1102:0.0378642 1103:0.125698 1104:0.149205 1105:0.0696327 1106:0.0640609 1107:0.301198 1108:0.0939498 1109:0.106533 1110:0.0541238 1111:0.128661 1113:0.104353 1114:0.017688 1115:0.00783313 1116:0.0071791 1118:0.000842824 1120:0.0430623 1121:0.0408815 1123:0.0601016 1124:0.12177 1125:0.210844 1126:0.119118 1127:0.177958 1128:0.218375 1129:0.314601 1130:0.0487722 1131:0.0417318 1132:0.0349811 1133:0.170076 1134:0.238734 1135:0.220043 1136:0.0549772 1137:0.0823633 1138:0.0199045 1139:0.0206154 1140:0.304492 1143:0.213393 1144:0.309558 1145:0.106541 1146:0.0498205 1147:0.0527493 1148:0.185198 1149:0.180365 1150:0.0209261 1151:0.0315556 1152:0.109827 1153:0.000323422 1154:0.0199391 1155:0.0418558 1156:0.0861763 1157:0.27711 1158:0.037616 1160:0.042755 1161:0.00464033 1162:0.172852 1164:0.233264 1165:0.08467 1166:0.00210332 1167:0.00883396 1168:0.0336058 1171:0.070913 1172:0.0127984 1174:0.0199387 1175:0.00952474 1176:0.193819 1177:0.324493 1178:0.118469 1179:0.0370241 1180:0.174944 1181:0.172247 1182:0.137072 1183:0.138908 1184:0.00304186 1185:0.00354954 1186:0.0799473 1187:0.0757282 1188:0.0718486 1189:0.0616894 1190:0.0126346 1191:0.430789 1192:0.0189333 1193:0.00417501 1194:0.112034 1195:0.139266 1196:0.0915952 1197:0.0978551 1198:0.0842809 1199:0.105834 1200:0.0461403 1201:0.145182 1202:0.305122 1203:0.323605 1204:0.251881 1205:0.116592 1206:0.0976586 1207:0.242733 1208:0.00132513 1210:0.339055 1211:0.175945 1212:0.0201473 1213:0.161109 1214:0.0389076 1215:0.13791 1216:0.131312 1217:0.39117 1218:0.156643 1219:0.202274 1220:0.0580803 1221:0.141736 1222:0.134314 1223:0.250449 1224:0.100379 1225:0.241612 1226:0.135936 1227:0.0543142 1228:0.180766 1229:0.425128 1230:0.222951 1231:0.204525 1232:0.0442433 1233:0.193903 1234:0.143819 1235:0.00515857 1236:0.0436814 1237:0.0677595 1238:0.367343 1239:0.0144241 1240:0.06974 1241:0.0725711 1242:0.025069 1243:0.415664 1244:0.14051 1245:0.162631 1246:0.146929 1247:0.296964 1248:0.116408 1249:0.158654 1250:0.323314 1251:0.026945 1252:0.0533521 1253:0.0660461 1254:0.0811727 1255:0.0809264 1256:0.238406 1257:0.381043 1258:0.0052888 1259:0.276052 1262:0.337021 1263:0.0271509 1264:0.198644 1265:0.0441067 1266:0.0433298 1267:0.132078 1268:0.409064 1269:0.0106165 1270:0.472523 1271:0.216349 1272:0.269184 1273:0.441691 1274:0.143968 1275:0.0981975 1276:0.150421 1277:0.0759404 1278:0.0709474 1279:0.159152 1280:0.0903465 1281:0.15146 1282:0.16188 1283:0.214565 1284:0.168702 1285:0.100728 1286:0.0311422 1287:0.0452641 1288:0.0377793 1289:0.208404 1290:0.371321 1291:0.0833913 1292:0.00154523 1293:0.00523145 1294:8.83073e-005 1295:0.0228158 1296:0.101158 1297:0.0796992 1298:0.0558956 1299:0.0108174 1300:0.0473149 1301:0.122302 1302:0.018756 1303:0.238479 1304:0.225051 1305:0.146458 1306:0.261138 1307:0.00177619 1308:0.198431 1310:0.204315 1312:0.0307316 1313:0.204037 1314:0.0048913 1315:0.0602535 1316:0.00422973 1317:0.281861 1320:0.341743 1321:0.0853107 1322:0.00174554 1325:0.0111621 1326:0.484158 1329:0.06108 1330:0.000771627 1331:0.379366 1332:0.158057 1333:0.0292327 1334:0.272451 1335:0.0350019 1336:0.358258 1337:0.162717 1338:0.102533 1339:0.18902 1340:0.00985648 1341:0.0762844 1342:0.430789 1343:0.0166526 1344:0.430789 1346:0.108658 1347:0.0989131 1348:0.00790684 1349:0.0642801 1350:0.292482 1351:0.0493672 1352:0.148979 1353:0.115141 1354:0.0423427 1355:0.087129 1356:0.0881756 1357:0.162328 1358:0.00203046 1359:0.285621 1360:0.00088747 1362:0.159389 1363:0.0323061 1364:0.338294 1365:0.0773313 1366:0.117309 1367:0.102947 1368:0.330592 1369:0.28371 1370:0.205353 1371:0.0996984 1372:0.200569 1373:0.143184 1374:0.261042 1375:0.00901853 1376:0.0768197 1377:0.0328672 1378:0.0722527 1379:0.143548 1380:0.341532 1381:0.106138 1382:0.120616 1383:0.0738302 1384:0.116296 1385:0.102792 1386:0.335607 1387:0.0916819 1388:0.00702781 1389:0.243856 1390:0.28242 1391:0.00775278 1392:0.161278 1393:0.187822 1394:0.0812249 1395:0.158048 1396:0.110241 1397:0.047792 1398:0.163161 1399:0.00296607 1400:0.0576222 1401:0.023765 1402:0.0380376 1403:0.000773995 1404:0.392199 1407:0.126594 1408:0.0662692 1409:0.091173 1410:0.0942014 1411:0.0190454 1412:0.128146 1413:0.183689 1414:0.027662 1415:0.0120672 1416:0.000579838 1417:0.310327 1418:0.0218808 1419:0.232877 1420:0.00452163 1421:0.185677 1422:0.0690933 1423:0.00197224 1424:0.304205 1425:0.0443093 1426:0.139671 1427:0.00529028 1428:0.18241 1429:0.186875 1430:0.0388285 1431:0.0120855 1432:0.1568 1433:0.0697039 1434:0.12089 1435:0.0650455 1436:0.0561052 1438:0.00145559 1439:0.0155337 1440:0.188131 1441:0.172484 1442:0.1166 1443:0.0426762 1444:0.0934001 1445:0.206511 1446:0.287095 1447:0.140413 1448:0.0828009 1449:0.0739515 1450:0.0331106 1451:0.112122 1452:0.00549851 1453:0.0100577 1454:0.0830726 1455:0.366307 1456:0.00483069 1457:0.23764 1458:0.0477226 1459:0.0352475 1460:0.0905547 1461:0.124839 1462:0.00610499 1463:0.0183077 1464:0.139362 1465:0.000704311 1466:0.122244 1467:0.101216 1468:0.126893 1469:0.0926731 1470:0.377904 1471:0.0525541 1472:0.222917 1473:0.0564143 1474:0.00771779 1476:0.337021 1477:0.110547 1478:0.409064 1479:0.0817194 1480:0.00177739 1481:0.159985 1482:0.0984721 1483:0.0944925 1484:0.0360646 1485:0.117506 1486:0.0907581 1487:0.174423 1488:0.0540971 1489:0.00181944 1490:0.347914 1491:0.142861 1492:0.0728456 1493:0.00456205 1494:0.0146523 1495:0.0420926 1496:0.01157 1497:0.308175 1498:0.276327 
0.0729541095844672 0:0.211355 1:0.248886 2:0.0401841 3:0.124829 4:0.171383 5:0.0391811 6:0.104717 7:0.119285 8:0.0762279 9:0.0393321 10:0.0187067 11:0.0485691 12:0.493038 13:0.0771477 14:0.0985361 15:0.143146 16:0.0344618 17:0.0678904 19:0.0715464 20:0.163134 21:0.234836 22:0.241745 23:0.217654 24:0.165559 25:0.171898 26:0.0880595 27:0.059339 28:0.00398555 29:0.0493272 30:0.41041 32:0.0798131 33:0.2652 34:0.380016 35:0.0314358 36:0.352167 37:0.0888427 38:0.122491 39:0.0456885 40:0.290402 41:0.0780765 42:0.0270523 43:0.097438 44:0.178588 45:0.205877 46:0.174672 47:0.160076 48:0.00223263 49:0.00589411 50:0.0425844 51:0.0428332 52:0.0137041 53:0.0489082 54:0.13755 55:0.179527 56:0.120211 57:0.10093 58:0.234449 59:0.0268412 60:0.15544 61:0.385991 62:0.0970506 63:0.0123838 64:0.240151 65:0.497 66:0.174781 67:0.147134 68:0.232089 69:0.197725 70:0.232 71:0.16743 72:0.00216483 73:0.0967211 74:0.170476 75:0.0651715 76:0.0525469 78:5.04817e-005 79:0.204943 80:0.520608 81:0.159779 82:0.0012621 83:0.00595556 85:0.00745805 86:0.0018859 87:0.114994 88:0.0329912 89:0.219336 90:0.443235 91:0.190499 92:0.256309 93:0.053824 94:0.102296 95:0.319565 96:0.238448 97:0.139008 98:0.328294 100:0.195726 101:0.138458 102:0.0976091 103:0.181506 104:0.200189 105:0.0898225 106:0.0535724 107:0.202736 108:0.230974 109:0.138079 110:0.0746124 111:0.125352 112:0.189352 113:0.0534253 114:0.0945825 115:0.0699461 116:0.281488 117:0.0756458 118:0.231356 119:0.180454 120:0.20173 121:0.109688 122:0.269616 123:0.094811 124:0.0274096 125:0.0503121 126:0.00243318 127:0.00290932 128:0.227994 129:0.211459 130:0.222262 131:0.0347943 132:0.00121694 133:0.00859156 134:0.479557 135:0.184497 137:0.0107405 138:0.262586 139:0.0416479 140:0.391304 141:0.0244385 142:0.143328 143:0.158381 144:0.319901 145:0.105713 146:0.113977 147:0.136624 148:0.092682 149:0.201569 150:0.202122 151:0.163798 152:0.200776 153:0.162565 154:0.156463 155:0.208376 156:0.121702 157:0.125699 158:0.282181 159:0.212376 160:0.127244 161:0.223241 162:0.06383 163:0.0238589 164:0.0201499 165:0.068187 166:0.114701 167:0.0896933 168:0.299159 169:0.0984159 170:0.147876 171:0.16479 172:0.128263 173:0.0763228 174:0.173403 175:0.10616 176:0.0468881 177:0.15156 178:0.0473906 179:0.10881 180:0.0396826 181:0.157138 182:0.238249 183:0.198188 184:0.0486507 185:0.121395 186:0.0442847 187:0.0975372 188:0.312887 189:0.00019684 190:0.0341871 191:0.0197931 192:0.633767 193:0.158984 194:0.103042 195:0.241869 196:0.112827 197:0.0857674 198:0.248929 199:0.0195084 200:0.0154933 201:0.0236586 202:0.0206429 203:0.0128069 204:0.00405181 205:0.487256 206:5.23297e-005 207:0.000230547 208:0.222541 210:0.0676065 211:0.0775428 212:0.0637478 213:0.0395923 214:0.010606 215:0.522872 216:0.00172485 217:0.0068216 218:0.000775862 219:7.53941e-005 220:0.0036717 222:0.0139757 223:0.370877 224:0.360798 225:0.360798 226:0.00197335 228:0.00745956 229:0.0343096 230:0.471012 231:0.0995875 233:0.0367705 235:0.135778 236:0.110731 237:0.103569 238:0.223356 239:0.113541 240:0.147952 241:0.291882 242:0.253693 243:0.121093 244:0.301031 245:0.18981 246:0.175256 247:0.150009 248:0.368271 249:0.0741107 250:0.0533997 251:0.0744688 252:0.108924 253:0.206852 254:0.27009 255:0.141388 256:0.255647 257:0.217236 258:0.208601 259:0.110955 260:0.13407 261:0.128974 262:0.118727 263:0.0298674 264:0.065534 265:0.183614 266:0.0614725 267:0.0787198 268:0.287391 269:0.168209 270:0.332294 271:0.0537622 272:0.0535976 273:0.261043 274:0.148367 275:0.258916 276:0.0978432 277:0.0801966 278:0.0773746 279:0.156106 280:0.487726 281:0.075027 282:0.0870668 283:0.0415384 284:0.0728734 285:0.0676895 286:0.0256136 287:0.0807704 288:0.308555 289:0.111384 290:0.061998 291:0.0264185 292:0.391745 293:0.0810463 294:0.0269935 295:0.0121686 296:0.012543 297:0.00856676 298:0.000415617 299:0.0789884 300:0.465398 301:0.0156305 302:0.169825 303:0.00164745 304:0.100662 305:0.233491 306:0.14752 307:0.0951933 308:0.121891 309:0.0243877 310:0.0590992 311:0.224601 312:0.00085568 313:0.00471289 314:0.431146 318:0.00855828 319:0.0686395 320:0.0528889 321:0.324513 322:0.000526422 323:0.00303889 324:0.0920725 325:0.223686 326:0.522872 327:0.00119576 328:0.00153362 329:6.49841e-005 330:0.469325 331:0.00826175 332:0.0490162 333:0.00220302 334:0.113662 337:0.00122186 338:0.00178145 339:0.00587451 340:0.001149 341:0.00114146 342:0.103511 343:0.102509 344:0.0828583 345:0.00284478 347:0.481692 348:0.0788967 349:0.0121594 350:0.0839571 351:0.0201448 352:0.34379 353:0.125373 354:0.123825 355:0.101786 356:0.115658 357:0.213288 358:0.0753613 359:0.150812 360:0.159957 361:0.0430867 362:0.271062 363:0.125884 364:0.219228 365:0.0331714 366:0.0348093 367:0.047102 368:0.0646505 369:0.218731 370:0.104663 371:0.125818 372:0.183956 373:0.0230565 374:0.330036 375:0.117303 376:0.0575773 377:0.0303051 378:0.17327 379:0.132265 380:0.132086 381:0.15034 382:0.147602 383:0.156854 384:0.0432911 385:0.0190832 386:0.112326 387:0.174856 388:0.19262 389:0.136644 390:0.124517 391:0.0743724 392:0.242273 393:0.0886797 394:0.117768 395:0.0911587 396:0.468712 397:0.0983058 398:0.0391313 399:0.249532 400:0.100552 401:0.104664 402:0.278125 403:0.166868 404:0.0751033 405:0.148665 406:0.0155277 407:0.00391825 408:0.0414954 409:0.775665 410:0.12362 411:0.0988581 412:0.104248 413:0.115024 414:0.39813 415:0.18442 416:0.0675036 417:0.0810229 418:0.236528 419:0.0363279 420:0.0188223 421:0.0426582 422:0.499853 423:0.00206851 424:0.499853 425:0.0023984 426:0.112259 427:0.00120584 428:0.00559929 429:0.000276886 430:0.0507833 431:0.0173764 432:0.110052 433:0.0466017 434:0.13718 435:0.0346538 436:0.418427 437:0.0168633 438:0.418427 439:0.111042 440:0.0155584 441:0.0206221 442:0.0676534 443:0.0136491 444:0.0210493 445:0.162656 446:0.00737833 447:0.394201 448:0.01659 449:0.131473 450:0.0735424 451:0.0268965 452:0.360798 453:0.00233919 454:0.127751 456:0.0877561 457:0.016665 458:0.0973381 459:0.018809 460:0.182344 461:0.243459 462:0.118407 463:0.064653 464:0.221488 465:0.0937776 466:0.106853 467:0.462601 468:0.0446037 469:0.0560465 470:0.128349 471:0.334451 472:0.334221 473:0.0313883 474:0.0434032 475:0.0824265 476:0.120574 477:0.12265 478:0.0166911 479:0.435694 480:0.307862 481:0.198507 482:0.233367 483:0.0202051 484:0.0504723 485:0.0581578 486:0.161469 487:0.0386381 488:0.111516 489:0.0962855 490:0.032596 491:0.0494157 492:0.0382289 493:0.0160348 494:0.119997 495:0.0624853 496:0.0545715 497:0.202083 498:0.0988377 499:0.14885 500:0.2413 501:0.116574 502:0.119063 503:0.0957041 504:0.107579 505:0.214621 506:0.124914 507:0.357037 508:0.114071 509:0.19729 510:0.251471 511:0.126112 512:0.341576 513:0.126744 514:0.190742 515:0.228886 516:0.150935 517:0.249414 518:0.203683 519:0.0907032 520:0.230903 521:0.0830424 522:0.0746994 523:0.199637 524:0.0676331 525:0.0415098 526:0.167033 527:0.141688 528:0.227172 529:0.248469 530:0.277639 531:0.0595337 532:0.221167 533:0.152026 534:0.0279602 535:0.360102 536:0.522327 537:0.00481766 538:0.011845 539:0.166729 540:0.262615 541:0.0865925 542:0.134453 543:0.151995 544:0.225225 545:0.0936837 546:0.145985 547:0.18388 548:0.0815309 549:0.0390208 550:0.104464 551:0.0144149 552:0.00112663 553:0.00140602 554:0.000686475 556:0.465398 557:0.00418004 558:0.0343482 559:0.115139 560:0.177198 561:0.138527 562:0.150438 563:0.109346 564:0.122218 565:0.217672 566:0.0630834 567:0.222126 568:0.0311987 569:0.00731871 570:0.487256 571:0.156014 572:0.000921571 575:0.418427 576:0.272822 578:0.00513497 579:0.00201974 580:0.0141382 581:0.0189972 582:0.00531515 583:0.378724 584:0.0265507 585:0.0245952 586:0.0175144 587:0.0161501 588:0.00202068 589:0.0777828 590:0.000426706 591:0.00297115 592:0.115321 593:0.520608 594:0.00202712 596:0.469325 597:0.469325 598:0.206886 600:0.0156415 601:0.424815 602:0.000797368 603:0.00245068 604:0.0061107 605:0.370877 606:0.0545878 607:0.00300104 608:0.360798 609:0.0132332 610:0.00134644 611:0.391304 612:0.0095258 613:0.0802245 614:0.000375964 615:0.0503919 617:0.0640599 618:0.00217097 619:0.0295198 620:0.501856 621:0.00663182 622:0.0307188 623:0.165582 624:0.193189 625:0.187649 626:0.169319 627:0.151971 628:0.126589 629:0.181339 630:0.150438 631:0.176266 632:0.112922 633:0.10868 634:0.0636977 635:0.24601 636:0.106862 637:0.1212 638:0.0111962 639:0.26124 640:0.249918 641:0.0186948 642:0.169529 643:0.0366796 644:0.139255 645:0.218307 646:0.167049 647:0.145522 648:0.155747 649:0.122618 650:0.143495 651:0.115425 652:0.13903 653:0.0450341 654:0.105553 655:0.10946 656:0.122215 657:0.232011 658:0.183272 659:0.378173 660:0.0265363 661:0.0930642 662:0.0872059 663:0.0762114 664:0.161559 665:0.170431 666:0.0858198 667:0.19749 668:0.137443 669:0.116937 670:0.174326 671:0.115376 672:0.201321 673:0.176193 674:0.088113 675:0.168998 676:0.0967181 677:0.205221 678:0.107158 679:0.499283 680:0.123625 681:0.522327 682:0.0707615 683:0.0855725 684:0.120799 685:0.11727 686:0.1004 687:0.0813736 688:0.460031 689:0.128112 690:0.132412 691:0.152697 692:0.214 693:0.0447209 694:0.0714094 695:0.0817266 696:0.175092 697:0.140382 698:0.158085 699:0.10695 700:0.149449 701:0.33221 702:0.0545227 703:0.0335612 704:0.110373 705:0.0156737 706:0.0135149 707:0.499853 708:0.0715203 709:0.000658316 710:0.000852396 711:0.0627935 712:0.222998 713:0.0365602 714:0.0066857 715:0.0283219 716:0.112251 717:0.0992214 718:0.182234 719:0.196607 720:0.0729905 721:0.224551 722:0.37751 723:0.178994 724:0.181129 725:0.0789514 726:0.0605419 727:0.013293 728:0.0166786 729:0.0535673 730:0.00757317 731:4.18231e-005 732:0.418427 734:0.20209 735:0.112443 736:0.043181 737:0.204915 738:0.000893345 739:0.0264255 740:0.00265017 741:0.00325974 742:0.0363179 743:0.0297269 744:0.0194918 745:0.00664124 746:0.0300363 747:0.0105876 748:0.0112618 749:0.297945 750:0.520608 752:0.117594 753:0.000524528 754:0.0510392 755:0.118631 756:0.0176968 758:0.0520638 759:0.0363396 760:0.424815 761:0.00197454 763:0.000733119 764:0.00494828 765:0.0586176 766:0.0032205 767:0.171906 768:0.0589248 769:0.00136202 770:0.370877 771:0.360798 772:0.0107308 773:0.391304 774:0.00220507 775:0.00136083 776:0.307032 777:0.0170283 778:0.0312874 779:0.00298249 781:0.00634445 782:0.172298 783:0.0776663 784:0.0517529 785:0.00167983 787:0.00020074 788:0.0376304 789:0.0203696 790:0.117055 791:0.0470912 792:0.0755443 793:0.0291899 794:0.378347 795:0.10813 796:0.156843 797:0.187053 798:0.0608635 799:0.137962 800:0.132201 801:0.194016 802:0.0962895 803:0.307245 804:0.0963861 805:0.125176 806:0.161386 807:0.127929 808:0.299394 809:0.148824 810:0.106846 811:0.142241 812:0.039125 813:0.0906545 814:0.0475759 815:0.14649 816:0.159027 817:0.34738 818:0.00831198 819:0.305326 820:0.0407424 821:0.0900907 822:0.0223701 823:0.143124 824:0.376164 825:0.211151 826:0.0545715 827:0.11742 828:0.169571 829:0.112605 830:0.112266 831:0.0916925 832:0.142798 833:0.127869 834:0.0968294 835:0.163965 836:0.302237 837:0.251719 838:0.076123 839:0.067223 840:0.0292139 841:0.145686 842:0.247223 843:0.118535 844:0.0359854 845:0.214081 846:0.210774 847:0.0555448 848:0.0986862 849:0.195095 850:0.0785972 851:0.12078 852:0.0843935 853:0.0665861 854:0.185086 855:0.164435 856:0.180426 857:0.248214 858:0.106711 859:0.0422321 860:0.165271 861:0.114363 862:0.208748 863:0.245277 864:0.088068 865:0.159269 866:0.177826 867:0.0957027 868:0.0410153 869:0.0154778 870:0.00479301 871:0.011371 872:0.00421886 873:0.0251574 874:0.0275515 875:0.0388913 876:0.0487373 877:0.0751588 878:0.100371 879:0.0533615 880:0.114201 881:0.283226 882:0.0164418 883:0.0965596 884:0.0425544 885:0.0184647 886:0.00506335 887:0.00299655 889:0.0130787 890:0.000479939 891:0.0950064 892:0.00335958 894:0.43686 895:0.0884662 896:0.354395 897:0.0526779 898:0.107974 899:0.080577 900:0.147103 901:0.229489 902:0.267808 903:0.0802139 904:0.087232 905:0.114362 906:0.314053 907:0.0558807 908:0.123733 909:0.0019637 910:0.0013441 911:0.0253337 912:0.487256 913:0.000202275 915:0.233699 916:0.0272847 917:0.465724 918:0.00932238 919:0.0713061 920:0.0011829 923:0.465724 924:0.0204013 925:0.171844 927:9.25568e-005 928:0.405942 929:0.405942 930:0.0481973 931:0.00291918 932:0.117524 933:0.015642 934:0.0146934 935:0.0361555 936:0.183242 937:0.0415009 938:0.522872 939:0.000563995 941:0.00364185 942:0.106916 943:0.00260067 945:0.00381204 946:5.94592e-005 947:0.00334077 948:0.469325 949:0.000477253 950:0.00526379 952:0.0023707 953:0.0489626 954:0.475969 956:0.475969 957:0.00113244 958:0.370877 959:0.000194574 960:0.00210249 961:0.035234 962:0.370877 963:0.0034208 964:0.00606739 965:0.0365462 966:0.0429628 967:0.471012 969:0.471012 970:0.0132361 971:0.00588527 973:0.0189843 974:0.0362142 975:0.0645434 976:0.223303 977:0.0357037 978:0.222325 979:0.179424 980:0.151724 981:0.0963243 982:0.218647 983:0.067078 984:0.109948 985:0.358613 986:0.130384 987:0.0297621 988:0.139785 989:0.386752 990:0.0209139 991:0.275203 992:0.0774886 993:0.166389 994:0.281383 995:0.0210415 996:0.0657051 997:0.215361 998:0.0466907 999:0.249859 1000:0.226715 1001:0.179788 1002:0.0322708 1003:0.171262 1004:0.131457 1005:0.0653567 1006:0.194918 1007:0.131169 1008:0.0649983 1009:0.127201 1010:0.143186 1011:0.230124 1012:0.226365 1013:0.0851374 1014:0.0760507 1015:0.133409 1016:0.0606231 1017:0.273174 1018:0.261702 1019:0.234048 1020:0.0710153 1021:0.117116 1022:0.131901 1023:0.140851 1024:0.0409141 1025:0.798388 1026:0.117735 1027:0.0494742 1028:0.0460426 1029:0.114923 1030:0.0611234 1031:0.0806493 1032:0.177669 1033:0.0629578 1034:0.11691 1035:0.0417257 1036:0.459418 1037:0.160104 1038:0.181138 1039:0.248277 1040:0.109242 1041:0.119884 1042:0.0127229 1043:0.0338629 1044:0.0220644 1045:0.0414591 1046:0.143314 1047:0.302281 1048:0.00195469 1049:0.00421174 1050:0.00495113 1052:0.00157271 1053:0.00700818 1054:0.132248 1055:0.0540228 1056:0.144831 1057:0.108263 1058:0.12498 1059:0.206521 1060:0.185953 1061:0.173769 1062:0.109159 1063:0.227634 1064:0.19389 1065:0.107152 1066:0.119502 1067:0.0922978 1068:0.0795706 1069:0.41658 1070:0.0077465 1071:0.000799899 1072:0.465398 1073:0.010494 1074:0.185297 1075:0.0355326 1076:0.137404 1077:0.149857 1078:0.0628569 1079:0.0351854 1080:0.121572 1081:0.000785177 1082:0.000944621 1083:0.0018679 1084:0.0546787 1085:0.00058911 1086:0.00345478 1087:0.319172 1088:0.0312055 1089:0.000184294 1090:0.109435 1092:0.098992 1093:0.00358344 1094:0.405942 1095:0.00102328 1097:0.405942 1098:0.00998991 1099:0.479557 1100:0.479557 1101:0.0249781 1102:0.00983097 1103:0.00793998 1104:0.0128914 1105:0.08807 1106:0.000449192 1108:0.0743002 1109:0.00554053 1110:0.0137799 1111:0.424815 1113:0.0767424 1114:0.0420887 1115:0.00188741 1117:0.0147175 1118:0.000556951 1119:0.00389865 1120:0.0252943 1121:0.000914688 1123:0.00654488 1124:0.391304 1125:0.00020577 1127:0.0133887 1128:0.0125012 1129:0.000976657 1130:0.00174505 1132:0.0125495 1133:0.016329 1134:0.0647053 1135:0.0336677 1136:0.100428 1137:0.448003 1138:0.0369561 1139:0.0346936 1140:0.154393 1141:0.082122 1142:0.0618783 1143:0.0688936 1144:0.27824 1145:0.104081 1146:0.16309 1147:0.156617 1148:0.198778 1149:0.207173 1150:0.139697 1151:0.25034 1152:0.139272 1153:0.176885 1154:0.142881 1155:0.0703163 1156:0.0907493 1157:0.0631084 1158:0.173068 1159:0.257039 1160:0.149815 1161:0.0911342 1162:0.181086 1163:0.29055 1164:0.072421 1165:0.241604 1166:0.0582064 1167:0.00876661 1168:0.0348113 1169:0.15326 1170:0.16165 1171:0.114864 1172:0.308 1173:0.213935 1174:0.0961489 1175:0.194889 1176:0.207637 1177:0.0383061 1178:0.0927875 1179:0.14449 1180:0.1082 1181:0.0744756 1182:0.0773225 1183:0.0630558 1184:0.108774 1185:0.159929 1186:0.408593 1187:0.170719 1188:0.122146 1189:0.107421 1190:0.00195802 1191:0.000511456 1192:0.00418894 1193:0.0587453 1194:0.122907 1195:0.109587 1196:0.174335 1197:0.0447164 1198:0.205834 1199:0.125466 1200:0.108775 1201:0.180194 1202:0.15531 1203:0.113857 1204:0.2887 1205:0.0565864 1206:0.00317661 1207:0.0168656 1208:0.016309 1209:0.0698278 1210:0.0862746 1211:0.00315856 1212:0.0018213 1213:0.0239051 1214:0.126451 1215:0.0656865 1216:0.180245 1217:0.204974 1218:0.249489 1219:0.0980819 1220:0.109188 1221:0.0664867 1222:0.0656718 1223:0.115483 1224:0.221235 1225:0.163526 1226:0.0518453 1227:0.800278 1228:0.00388899 1229:0.0063736 1230:0.00058911 1232:0.00804451 1233:0.0674402 1234:0.0303795 1235:0.00236741 1236:0.00236741 1237:0.465724 1238:0.465724 1240:0.00837293 1241:0.0208601 1242:0.0163355 1243:0.00400225 1244:0.0345784 1245:0.024031 1246:0.479557 1247:0.15552 1248:0.00722829 1249:0.00864056 1250:0.000939992 1251:0.000778243 1253:0.00855305 1255:0.00513183 1256:0.475969 1257:0.298867 1258:0.0194685 1259:0.420199 1260:0.0012615 1262:0.281993 1263:0.0204296 1264:0.370877 1265:0.0386718 1266:0.0129104 1267:0.00365876 1268:0.360798 1269:0.391304 1270:0.244351 1271:0.0154355 1272:0.0742424 1273:0.0416888 1274:0.481692 1275:0.00121996 1276:0.0207056 1278:0.00168308 1279:0.481692 1280:0.00181507 1281:0.167113 1282:0.0339809 1283:0.501856 1284:0.0018859 1286:0.117568 1287:0.143703 1288:0.109498 1289:0.188444 1290:0.117143 1291:0.417925 1292:0.0918981 1293:0.169844 1294:0.139015 1295:0.0794687 1296:0.236326 1297:0.0788771 1298:0.0635879 1299:0.0354817 1300:0.0829448 1301:0.127821 1302:0.220249 1303:0.152816 1304:0.239633 1305:0.0317458 1306:0.319626 1307:0.0900907 1308:0.143124 1309:0.0787947 1310:0.21413 1311:0.0428869 1312:0.137269 1313:0.15106 1314:0.0719201 1315:0.0719943 1316:0.0998521 1317:0.0875819 1318:0.198176 1319:0.129984 1320:0.142158 1321:0.126665 1322:0.224606 1323:0.167788 1324:0.0973668 1325:0.156156 1326:0.252014 1327:0.218175 1328:0.0433367 1329:0.133241 1330:0.0739095 1331:0.361302 1332:0.14226 1333:0.0947329 1334:0.131088 1335:0.116615 1336:0.127654 1337:0.242227 1338:0.256307 1339:0.190069 1340:0.088552 1341:0.0319928 1342:0.166714 1343:0.239904 1344:0.232496 1345:0.105097 1346:0.000863933 1347:0.0398881 1348:0.279278 1349:0.0770386 1350:0.079189 1351:0.0218631 1352:0.101396 1353:0.221478 1354:0.0327359 1355:0.102473 1356:0.052669 1357:0.0016866 1358:0.00855577 1359:0.00239254 1360:0.102203 1361:0.00280494 1362:0.0349986 1363:0.0409853 1364:0.296785 1365:0.121993 1366:0.321024 1367:0.0554792 1368:0.0127235 1369:0.0763687 1371:0.00807267 1372:0.00829814 1373:0.0853289 1374:0.0011829 1376:0.00537831 1377:0.00707627 1378:0.0163805 1379:0.0159042 1380:0.0400757 1381:0.000314717 1382:0.00545709 1383:0.424815 1385:0.0359142 1386:0.0205857 1387:0.0885985 1388:0.000466346 1389:0.0816609 1390:0.236682 1391:0.000384315 1392:0.159744 1393:0.00144039 1395:0.481692 1397:0.000703963 1398:0.0753348 1399:0.031549 1400:0.198059 1401:0.102997 1402:0.0395297 1403:0.180437 1404:0.202286 1405:0.0922766 1406:0.0921191 1407:0.0382278 1408:0.0636961 1409:0.122758 1410:0.0468649 1411:0.164999 1412:0.081605 1413:0.0769981 1414:0.112992 1415:0.382125 1416:0.0674761 1417:0.328959 1418:0.0640963 1419:0.380409 1420:0.137747 1421:0.468304 1422:0.0473748 1423:0.036065 1424:0.0781924 1425:0.231566 1426:0.0553821 1427:0.254661 1428:0.0801053 1429:0.170108 1430:0.0900063 1431:0.127579 1432:0.158948 1433:0.176427 1434:0.0924954 1435:0.0722129 1436:0.0506717 1437:0.0155332 1438:0.522327 1439:0.0661659 1440:0.0270299 1441:0.126555 1442:0.178106 1443:0.0809212 1444:0.0317317 1445:0.825521 1446:0.0109812 1447:0.0248544 1448:0.00704883 1449:0.08217 1450:0.255482 1451:0.0613966 1452:0.00844086 1453:0.000723502 1454:0.254907 1455:0.0919613 1456:0.0589608 1457:0.288221 1458:0.108339 1459:0.351697 1460:0.154895 1461:0.00058911 1462:0.00196461 1463:0.00117877 1466:0.0602811 1467:0.0402511 1468:0.00556319 1469:0.00416894 1471:0.0083337 1472:0.161169 1473:0.0127462 1475:0.000660993 1476:0.225457 1477:0.00156126 1478:0.340534 1479:0.0372095 1480:0.0526723 1481:0.00220507 1482:0.000906349 1483:0.00201515 1485:0.0138204 1486:0.343795 1487:0.112312 1488:0.150247 1489:0.110995 1490:0.0808961 1491:0.129738 1492:0.171207 1493:0.222165 1494:0.0923868 1495:0.0923169 1496:0.194293 1497:0.0861197 1498:0.268001 1499:0.207136 
0.09218238380847758 0:0.468314 1:0.230924 2:0.221514 3:0.395631 4:0.487476 5:0.0822005 6:0.0866155 7:0.111997 8:0.0991486 9:0.0257349 10:0.00353427 11:0.0114 12:0.10858 14:0.0103903 15:0.325104 16:0.396675 17:0.211681 19:0.00525298 20:0.0527976 21:0.246343 22:0.00384148 23:0.019982 24:0.120576 25:0.0822101 26:0.179866 27:0.167658 28:0.00951531 29:0.123442 30:0.134107 32:0.0800555 33:0.305645 34:0.0160925 35:0.0520543 36:0.0368561 37:0.459064 38:0.0758945 39:0.026923 41:0.0376738 42:0.0130554 43:0.280772 44:0.150713 45:0.0928897 46:0.0245606 47:0.112911 48:0.00165063 49:0.0644244 50:0.01396 51:0.0482941 52:0.0638196 53:0.232626 54:0.384763 55:0.0155972 56:0.0583943 57:0.0663218 59:0.216093 60:0.0260468 61:0.101855 62:0.276421 63:0.388252 64:0.00900681 65:0.139185 66:0.531691 67:0.0853147 68:0.00404684 69:0.112919 70:0.0859886 71:0.129134 72:0.0586793 73:0.066588 74:0.125029 75:0.0899932 76:0.278056 78:0.0170041 79:0.0543011 80:0.0338782 81:0.00559104 82:0.00871832 83:0.00561961 85:0.165661 86:0.112835 87:0.000643858 89:0.0424803 90:0.0542265 91:0.383301 92:0.0847496 93:0.0920721 94:0.38617 95:0.0307131 96:0.0508626 97:0.0117495 98:0.0260828 99:0.133216 100:0.0171874 101:0.0744866 102:0.216788 103:0.0870734 104:0.181524 105:0.0459925 106:0.285572 107:0.0433392 108:0.14207 109:0.128143 110:0.25641 111:0.0344959 112:0.382148 113:0.164096 114:0.257814 115:0.0845482 116:0.231243 117:0.154564 118:0.172807 119:0.238162 120:0.0870177 121:0.0735427 122:0.0575979 123:0.00453832 124:0.117528 125:0.456833 126:0.355994 127:0.0870795 128:0.000604833 129:0.0464621 130:0.0787035 131:0.0529004 132:0.0991658 133:0.0070854 134:0.28016 135:0.0664306 136:0.0177519 137:0.407256 138:0.0557527 139:0.0239477 140:0.0450389 141:0.00030126 143:0.0386611 144:0.271969 145:0.108044 146:0.0629758 147:0.152839 148:0.0470681 149:0.00201717 150:0.0358039 151:0.00758795 152:0.179484 153:0.0307801 154:0.0204069 155:0.133402 156:0.000414347 157:0.128948 158:0.0291077 159:0.0400625 160:0.0348119 161:0.0171684 162:0.0709702 163:0.0953875 164:0.0378974 165:0.113282 166:0.0430212 167:0.0789702 168:0.0444199 169:0.274835 170:0.0113175 171:0.138682 172:0.0678894 173:0.190185 175:0.00214334 176:0.00741128 177:0.0137802 178:0.499155 179:0.0604397 180:0.00434943 181:0.210786 182:0.0518779 183:0.244282 184:0.111268 186:0.106681 187:0.0076632 188:0.0190823 190:0.187792 191:0.13923 192:0.354118 193:0.110103 194:0.0645686 195:0.146807 196:0.0669982 197:0.0644967 198:0.122211 199:0.131159 200:0.205947 201:0.195741 202:0.219377 203:0.00540649 204:0.327166 205:0.00498452 206:0.0248758 208:0.141284 210:0.0550677 211:0.205724 212:0.260636 213:0.0362398 214:0.0233001 215:0.479001 216:0.00536879 217:0.235962 218:0.029576 219:0.219897 220:0.0765416 221:0.0775523 222:0.443015 223:0.277552 224:0.160874 225:0.057378 226:0.198812 227:0.190328 228:0.332505 229:0.205269 230:0.110669 231:0.0433043 232:0.382392 233:0.171856 234:0.17355 235:0.0279348 236:0.0109323 237:0.00134999 238:0.384763 239:0.266934 240:0.227873 241:0.372504 242:0.122451 243:0.0222074 244:0.00498236 245:0.162607 246:0.0482751 247:0.206739 248:0.00439386 249:0.418201 250:0.187655 251:0.487476 252:0.0231196 253:0.00215434 254:0.104285 255:0.0126871 256:0.417653 257:0.0142725 258:0.0211732 259:0.0114441 260:0.0122839 261:0.00298027 262:0.0750066 263:0.102711 265:0.388105 266:0.0793842 267:0.123372 268:0.0579055 269:0.150429 270:0.0504169 271:0.210065 272:0.0671244 273:0.334564 274:0.114546 275:0.0639347 276:0.00461324 277:0.0280162 278:0.376203 279:0.0931527 280:0.0481387 281:0.374369 282:0.21444 283:0.0260963 284:0.119061 285:0.0349585 286:0.237276 287:0.180713 288:0.103339 289:0.206265 290:0.284806 291:0.197234 292:0.167045 293:0.00576216 294:0.107765 295:0.00329947 296:0.553297 297:0.0552325 298:0.383328 299:0.0285215 300:0.27128 301:0.234496 302:0.154167 303:0.0441641 304:0.12454 305:0.125936 306:0.26794 307:0.117532 308:0.0569097 309:0.0150764 310:0.12396 311:0.0335529 312:0.0277724 313:0.00775817 314:0.0188413 315:0.055931 316:0.0211706 317:0.00142395 319:0.0571732 320:0.351985 321:0.0306194 322:0.00426944 323:0.00205733 324:0.13775 325:0.315094 326:0.467798 327:0.00997997 328:0.131237 329:0.0099494 330:0.0779753 331:0.200983 332:0.0294494 333:0.443015 334:0.03099 335:0.00514549 336:0.111134 337:0.00406561 338:0.0019507 340:0.00958371 341:0.000335016 342:0.000759897 343:0.0122893 344:0.32616 345:0.0150144 346:0.207607 347:0.0107159 348:0.00803658 349:0.00997882 350:0.0392126 351:0.00030126 352:0.177119 353:0.0990287 356:0.376443 357:0.341191 358:0.226242 359:0.0822181 360:0.00466879 361:0.108555 362:0.0282648 363:0.0149025 364:0.0964761 365:0.0260438 366:0.0118705 367:0.525371 368:0.0536389 369:0.275011 370:0.145171 371:0.0765014 372:0.15358 373:0.0399954 374:0.0327812 375:0.417653 376:0.221138 377:0.0799877 378:0.00511606 379:0.0558191 380:0.358807 381:0.00139733 382:0.0762621 383:0.0535395 384:0.260708 385:0.18003 386:0.196952 387:0.0551956 388:0.0746973 389:0.0280574 390:0.0386303 391:0.0213892 392:0.239569 393:0.145198 394:0.0115828 395:0.0206684 396:0.0657543 397:0.153847 398:0.138595 399:0.149509 400:0.0341914 401:0.238877 402:0.0779462 403:0.0840107 404:0.0170198 405:0.00845977 406:0.00804627 408:0.226822 409:0.131321 410:0.0602886 411:0.193416 412:0.0155618 413:0.340355 414:0.210898 415:0.135025 416:0.115676 417:0.134857 418:0.0378575 419:0.456833 420:0.0102767 421:0.456833 422:0.0329125 423:0.17932 424:0.210682 425:0.219786 426:0.413191 427:0.0229801 428:0.0026969 430:0.0573175 431:0.0781837 432:0.171483 433:0.00313488 434:0.0420684 435:0.137182 436:0.0367016 437:0.00810994 438:0.0909291 439:0.136123 440:0.0388279 441:0.0875593 442:0.0885957 443:0.14032 444:0.00561798 445:0.40604 446:0.443015 447:0.0245832 448:0.0242847 449:0.012558 450:0.355611 451:0.183297 452:0.0572384 453:0.103421 454:0.174708 455:0.183421 456:0.295341 458:0.242121 459:0.00210882 460:0.00115166 461:0.471032 462:0.384763 465:0.114436 467:0.381034 468:0.0585973 469:0.376443 470:0.0047084 471:0.0779711 472:0.00149217 473:0.0341686 474:0.027407 475:0.00395598 476:0.439372 477:0.00182127 478:0.183792 480:0.000235009 481:0.00547121 482:0.0863132 484:0.00956117 485:0.383301 486:0.213806 489:0.0717004 491:0.418201 493:0.00168265 494:0.100001 495:0.0880648 496:0.0505986 497:0.0733287 498:0.139922 499:0.043706 500:0.0539376 501:0.324565 502:0.228887 503:0.000605863 504:0.410747 505:0.00601403 506:0.120985 507:0.0432577 508:0.273913 509:0.0615018 510:0.0254103 511:0.559059 512:0.266401 513:0.0737974 514:0.0633544 515:0.186842 516:0.404785 517:0.190725 518:0.341156 519:0.105347 520:0.224222 521:0.0457076 522:0.0238958 523:0.0660214 524:0.128556 525:0.179008 526:0.0481816 527:0.234011 528:0.0572992 529:0.0498284 530:0.0840694 531:0.000307747 534:0.121395 535:0.0456365 536:0.0262979 537:0.106412 538:0.30218 539:0.124837 540:0.0712193 541:0.268574 542:0.217111 543:0.127206 544:0.120339 545:0.258126 546:0.104212 547:0.174007 548:0.147711 549:0.0631391 550:0.253319 551:0.00165679 552:0.0899908 553:0.494333 554:0.0751405 555:0.0548435 556:0.0877819 557:0.0562909 558:0.106411 559:0.147529 560:0.302642 562:0.152071 563:0.0330703 564:0.0873637 565:0.174668 566:0.125781 567:0.0753574 568:0.132367 571:0.00822525 572:0.0121385 573:0.414688 574:0.365856 575:0.106128 576:0.0861426 577:0.00584418 578:0.0207244 579:1.61843e-006 580:1.1329e-005 581:0.00964622 582:9.89429e-006 583:0.481686 585:0.138001 586:0.329957 587:0.0322192 588:0.0149578 589:0.00931839 590:0.0337148 591:0.257374 592:0.12745 593:0.0347137 594:0.00530021 595:0.114755 596:0.0417648 597:0.0200389 598:0.059182 599:0.201045 600:0.0862916 601:0.0251244 603:0.0385453 604:0.00479113 605:0.355611 606:0.0817229 607:0.117133 608:0.016512 609:0.278951 610:0.122678 611:0.00446596 612:0.187514 613:0.210505 614:0.0358696 615:0.0743383 616:0.0255122 617:0.0416694 618:0.331223 619:0.0082702 620:0.00789054 621:0.53401 622:4.30372e-005 623:0.205816 624:0.188937 625:0.11453 626:0.376443 627:0.376443 628:0.0431973 629:0.323801 630:0.0135618 631:0.17587 632:0.393402 633:0.417439 635:0.298271 637:0.0917019 639:0.0292255 640:0.141326 641:0.00144889 642:0.0618844 643:0.0414885 644:0.0234854 645:0.118615 646:0.466374 647:0.417653 648:0.00190594 649:0.410865 650:0.0143159 651:0.0332892 652:0.129629 653:0.134768 654:0.0907694 655:0.0253529 656:0.182936 657:0.0193882 658:0.00529369 659:0.130775 660:0.388252 661:0.00117626 662:0.236614 663:0.27093 664:0.0284726 665:0.1557 666:0.0515261 667:0.0283355 668:0.173818 669:0.347801 670:0.182967 671:0.0193398 672:0.224095 673:0.429149 674:0.166726 675:0.070927 678:0.0320828 679:0.103622 680:0.205757 681:0.0783981 682:0.0417013 683:0.483369 684:0.0983268 685:0.0834053 686:0.112724 687:0.136257 688:0.130606 689:0.0993774 690:0.0741536 691:0.279745 692:0.169886 693:0.129539 694:0.146554 695:0.10382 696:0.135246 697:0.119679 698:0.0670932 699:0.0833079 700:0.0779102 701:0.0522971 702:0.181772 703:0.000565868 705:0.138361 706:0.456833 707:0.113581 708:0.0486113 710:0.140298 711:0.199218 712:0.0759142 713:0.289512 714:0.0858104 715:0.206655 716:0.120123 717:0.0963072 718:0.124673 719:0.295928 720:0.0356893 721:0.342364 722:0.0748473 723:0.196544 724:0.295251 725:0.0687548 726:0.0928029 727:0.285135 728:0.17267 729:0.00171563 730:0.0444862 732:0.0421893 733:0.0202888 734:0.237581 735:0.325159 736:0.0813762 737:0.359567 738:0.0787398 739:0.132326 740:0.0004666 741:0.00341819 742:0.130661 743:0.0453176 744:0.186858 745:0.0262047 746:0.205412 747:0.128087 748:0.0460812 749:0.0171513 750:0.0800193 751:0.440856 752:0.0498063 753:0.195778 754:0.0102793 755:0.0677135 756:0.00663897 757:0.506096 758:0.0202271 759:0.0234856 760:0.0976045 761:0.108404 762:0.152592 763:0.038801 765:0.366573 767:0.331044 768:0.281263 769:0.000366268 770:0.355611 771:0.0445891 772:0.0173925 773:0.289653 774:0.0387395 775:0.0379017 776:0.135426 777:0.224782 778:0.215909 779:0.0467432 780:0.294033 781:0.156648 782:0.0286994 783:0.376635 784:0.219569 785:0.095991 786:0.0200489 787:0.5145 788:0.0210872 789:0.167557 790:0.289582 791:0.00127186 792:0.00491837 793:0.0890953 794:0.133677 795:0.0540547 796:0.259523 797:0.00376399 798:0.0998816 799:0.139964 800:0.0599712 801:0.36179 802:0.0540447 803:0.0177028 804:0.00387721 805:0.0051692 806:0.439372 807:0.286141 808:0.245965 809:0.036297 810:0.275761 811:0.269534 812:0.0404868 813:0.0636084 814:0.138587 815:0.0783771 816:0.446313 817:0.145426 819:0.0119279 822:0.00245379 823:0.00685748 824:0.139279 825:0.0546279 826:0.0624334 827:0.0615463 828:0.028109 829:0.178846 830:0.410865 831:0.0956978 832:0.0285832 833:0.0823186 834:0.0417423 835:0.239678 837:0.171974 838:0.0279772 839:0.140533 840:0.260903 841:0.0118698 842:0.388252 843:0.0069127 844:0.215506 845:0.122402 846:0.300347 847:0.0328456 848:0.0101699 849:0.0360277 850:0.0200961 851:0.107653 852:0.119271 853:0.0610989 854:0.0561507 855:0.359118 856:0.0985581 857:0.267363 858:0.0008725 859:0.0203977 860:0.254713 861:0.0511726 862:0.0892397 863:0.468314 864:0.0240149 865:0.0299401 866:0.0065174 867:0.155228 868:0.145379 869:0.00804627 870:0.0531652 871:0.269157 873:0.0130554 874:0.0395081 875:0.00262333 876:0.0521138 877:0.0183633 878:0.0738978 879:0.297749 880:0.180753 881:0.0288125 882:0.00341114 883:0.0076632 884:0.000943113 885:0.0604222 886:0.102948 887:0.0229326 888:0.168473 889:0.00871648 890:0.0685658 891:0.0101005 892:0.0124072 893:0.00200952 894:0.258159 895:0.0903029 896:0.222497 897:0.147534 898:0.034519 899:0.0551013 900:0.203591 901:0.274319 902:0.479939 903:0.102764 904:0.352263 905:0.116041 906:0.16414 907:0.0748976 908:0.00596546 909:0.136668 910:0.0306713 911:0.000791801 912:0.000394498 913:0.00233729 914:0.53952 915:0.107149 916:0.186187 917:0.351985 918:0.0147004 919:0.159055 920:0.00800023 923:0.351985 924:0.0180685 925:0.141343 926:0.00817013 928:0.272857 929:0.481686 930:0.335912 931:0.0348377 932:0.201363 933:0.15815 934:0.0141435 935:0.0733575 936:0.249807 937:0.224935 938:0.197766 939:0.0172452 940:0.0344066 941:0.0149661 942:0.0819619 943:0.0921046 944:0.026711 945:0.440856 946:0.018574 947:0.000215394 948:0.0442877 949:0.0280168 950:0.478552 951:0.00523728 952:0.0298569 953:0.0129095 954:0.366573 956:0.366573 958:0.355611 959:0.000610446 961:0.117796 962:0.231527 963:0.00426604 964:0.0756516 965:0.481857 966:0.0661687 967:0.0130482 968:0.207208 969:0.306282 970:0.210459 971:0.461398 972:0.000704356 973:0.261021 974:0.115361 976:0.384763 978:0.0342907 979:0.00078237 981:0.000680321 982:0.0520279 983:0.00858128 984:0.00221056 985:0.201064 986:0.185555 987:0.18723 988:0.339327 989:0.0470049 990:0.0131842 991:0.274961 992:0.0463313 993:0.0342192 994:8.85137e-005 995:0.000240379 997:0.0301195 998:0.418201 999:0.387573 1000:0.135232 1001:0.100262 1002:0.0136769 1003:0.00964632 1004:0.0550316 1005:0.32067 1006:0.000717317 1007:0.000989165 1008:0.00363626 1009:0.410865 1010:0.271378 1011:0.0162486 1012:0.0166065 1013:0.267443 1014:0.094397 1015:0.313344 1016:0.0503021 1017:0.443691 1018:0.00603901 1019:0.360021 1020:0.022166 1021:0.149623 1022:0.0103012 1024:0.035027 1025:0.0441997 1026:0.00234973 1027:0.0304441 1028:0.102207 1029:0.179204 1030:0.0832329 1031:0.182784 1032:0.0837584 1033:0.191002 1034:0.296309 1035:0.333872 1036:0.134055 1037:0.0584172 1038:0.01799 1039:0.091808 1040:0.0772873 1041:0.0153937 1042:0.00133976 1043:0.0351528 1044:0.0129305 1045:0.121988 1046:0.155336 1047:0.0705376 1048:0.0436375 1050:0.00675464 1051:0.0594482 1052:0.0472825 1053:0.317149 1054:0.056581 1055:0.0182736 1056:0.273918 1057:0.0873704 1058:0.0747435 1059:0.120708 1060:0.2742 1061:0.0382895 1062:0.12843 1063:0.0126309 1064:0.54325 1065:0.00453832 1067:0.0105607 1068:0.0704572 1069:0.0337142 1071:0.0242729 1072:0.0604579 1073:0.0186476 1074:0.413191 1075:0.0656177 1076:0.181023 1077:0.0648096 1078:0.0654253 1079:0.134974 1080:0.215414 1081:0.441846 1082:0.000448448 1084:0.0105164 1085:0.398071 1087:0.181512 1088:0.0086831 1090:0.351985 1092:0.0638852 1093:0.00399325 1094:0.0817308 1095:0.0874978 1097:0.470275 1098:0.180881 1099:0.405098 1100:0.27067 1101:0.0361206 1102:0.0634195 1103:0.0350091 1104:0.0332181 1105:0.125988 1106:0.0158763 1107:0.000570112 1108:0.0479814 1109:0.0692805 1110:0.0145868 1111:0.0875957 1113:0.0753051 1114:0.0261624 1118:0.0501431 1119:0.0417226 1120:0.378988 1121:0.0323521 1122:0.115001 1123:0.286901 1124:0.0562548 1125:0.187214 1126:0.0382978 1127:0.195727 1128:0.384422 1129:0.3611 1130:0.00351032 1131:0.000422613 1132:0.0144298 1133:0.415096 1134:0.0833175 1135:0.0268913 1136:0.0729372 1138:0.000164523 1140:0.0174696 1141:0.0380209 1142:0.376443 1143:0.00663483 1144:0.00163958 1145:0.0711383 1146:0.0859844 1147:0.0518196 1148:0.0892472 1149:0.361226 1150:0.0149829 1151:0.0986262 1152:0.00314951 1154:0.0358803 1155:0.0025016 1156:0.000924477 1157:0.121221 1158:0.205012 1159:0.0399738 1160:0.0274753 1161:0.0039115 1162:0.300902 1163:0.022485 1164:0.0401141 1165:0.0229056 1166:0.00964825 1167:0.0235422 1168:0.0315208 1169:0.10982 1170:0.171774 1171:0.037294 1172:0.0129832 1173:0.443691 1174:0.0572506 1176:0.0181088 1177:0.253475 1178:0.0270058 1179:0.370759 1180:0.215433 1181:0.108254 1182:0.498365 1183:0.132943 1184:0.14148 1185:0.143762 1187:0.0566673 1188:0.247651 1189:0.620585 1190:0.00759503 1191:0.45849 1193:0.023667 1194:0.11205 1195:0.265892 1196:0.180092 1197:0.108711 1198:0.337736 1199:0.133053 1200:0.0359257 1201:0.0734142 1202:0.110503 1203:0.0872519 1204:0.0730293 1205:0.000218723 1206:0.0812103 1207:0.0552181 1208:0.00871648 1209:0.00217899 1210:0.402676 1211:0.166796 1212:0.0418323 1213:0.0560118 1214:0.22704 1215:0.0144977 1216:0.101448 1217:0.0388455 1218:0.092531 1219:0.0271393 1220:0.130157 1221:0.281512 1222:0.390322 1223:0.139468 1224:0.14239 1225:0.363823 1226:0.107931 1227:0.0841678 1228:0.00241845 1229:0.00706647 1230:0.34118 1231:0.441846 1232:0.000982318 1233:0.00974714 1234:0.0260184 1235:0.00953822 1236:0.0175946 1237:0.210622 1238:0.351985 1239:0.0041266 1240:0.0311742 1241:0.00237547 1242:0.0102793 1243:0.105529 1245:0.0058946 1246:0.262055 1247:0.100722 1248:0.138769 1249:0.0476272 1250:0.0428044 1251:0.000358877 1252:0.010664 1253:0.000580802 1254:0.00729897 1255:0.031447 1256:0.351216 1257:0.366573 1258:0.00635809 1259:0.366573 1262:0.355611 1263:0.0479715 1264:0.355611 1265:0.0030133 1266:0.481857 1267:0.117656 1268:0.0153922 1269:0.349644 1270:0.0136247 1271:0.282375 1272:0.0372679 1273:0.0945613 1274:0.0178598 1275:0.151534 1276:0.0110432 1277:0.0296197 1278:0.00681055 1279:0.0227839 1280:0.0364335 1281:0.00907193 1282:0.0236824 1283:0.0607822 1284:0.120908 1286:0.0216944 1287:0.00890302 1288:0.00275395 1289:0.471032 1290:0.256051 1292:0.0340629 1293:0.00489867 1295:9.71887e-005 1296:9.03211e-005 1297:0.0223538 1298:0.0575662 1299:0.0205284 1300:0.00295669 1301:0.0186079 1302:0.000391681 1303:0.294144 1304:0.0504029 1306:0.215991 1308:0.0247977 1309:0.0315581 1310:0.0198576 1311:0.0148461 1312:0.493243 1313:0.0396182 1314:0.0775881 1315:0.0930997 1316:0.00110231 1317:0.410865 1318:0.260082 1319:0.117931 1320:0.0476856 1321:0.0100168 1322:0.0823818 1323:0.125379 1324:0.0816253 1325:0.015754 1326:0.0370571 1327:0.0190478 1328:0.00646848 1329:0.0231786 1330:0.0114296 1331:0.15126 1332:0.0795786 1333:0.054075 1334:0.0751333 1335:0.106227 1336:0.050558 1337:0.277994 1338:0.134631 1340:0.026929 1341:0.0315984 1342:0.395783 1343:0.0520636 1344:0.355577 1345:0.00519851 1346:0.119538 1347:0.0907728 1348:0.115194 1349:0.0807895 1350:0.176927 1351:0.19785 1352:0.0541753 1353:0.0799637 1354:0.0250262 1355:0.00537852 1356:0.0060087 1357:0.160947 1358:0.0186476 1359:0.0957025 1360:0.15074 1361:0.0470026 1362:0.0754079 1363:0.166987 1364:0.387545 1365:0.0408535 1366:0.10898 1367:0.0607724 1368:0.373474 1369:0.219993 1370:0.308522 1371:0.168264 1372:0.53952 1373:0.0306735 1374:0.0491889 1375:0.0942224 1376:0.033498 1377:0.0282404 1378:0.0203647 1379:0.0621374 1380:0.454681 1381:0.443015 1382:0.125799 1383:0.0680475 1384:0.00312904 1385:0.0252051 1386:0.0227388 1387:0.096835 1388:0.157273 1389:0.015253 1390:0.0628092 1391:0.21147 1392:0.076519 1393:0.105155 1394:0.066826 1395:0.122483 1396:0.00876639 1397:0.0020614 1398:0.0154234 1399:0.0278696 1400:0.00294199 1401:0.000262238 1402:0.000709529 1404:0.0741398 1405:0.0497984 1406:0.15649 1407:0.000926331 1408:0.104741 1409:0.170318 1410:0.0180662 1411:0.383301 1412:0.00956117 1413:0.0101107 1414:0.220438 1417:0.09336 1418:0.493243 1419:0.0611222 1420:0.0512573 1421:0.0340815 1422:0.0104919 1423:0.0409897 1424:0.0409401 1425:0.0190757 1426:0.0684921 1427:0.0671103 1428:0.39222 1429:0.0170893 1430:0.0713784 1431:0.468314 1432:0.0390888 1433:0.00435528 1434:0.0276191 1435:0.0376067 1436:0.104827 1437:0.00363201 1438:0.0322278 1439:0.030446 1440:0.0865102 1441:0.0869157 1442:0.0418559 1443:0.241352 1444:0.0813219 1446:0.301436 1447:0.0084459 1448:0.197276 1449:0.00766958 1450:0.0260509 1451:0.0942247 1452:0.00328286 1453:0.00328286 1454:0.275375 1455:0.025481 1456:0.24215 1457:0.137133 1458:0.0911678 1459:0.133495 1460:0.0371682 1461:0.162048 1463:0.000630721 1464:0.0316761 1466:0.02849 1467:0.0200477 1468:0.076251 1469:0.00509856 1470:0.440856 1471:0.00383674 1472:0.0966242 1473:0.000763411 1476:0.284702 1477:0.0857307 1478:0.00627907 1479:0.117206 1480:0.0254973 1481:0.172061 1482:0.106591 1483:0.217628 1484:0.101395 1485:0.00817952 1486:0.0479395 1487:0.208751 1488:0.471032 1490:0.00991279 1491:0.0385765 1492:0.000605086 1493:0.173085 1494:0.418201 1495:0.00350786 1496:0.0580389 1497:0.00699686 1498:0.00895454 1499:0.0127711 
1 0:0.139059 1:0.0339222 2:0.0669892 3:0.0138794 4:0.188659 5:0.0311687 6:0.00103724 7:0.30021 8:0.226346 9:0.131411 10:0.208281 11:0.00794895 12:0.160787 13:0.161839 14:0.425687 15:0.300968 16:0.0518079 17:0.00758532 18:0.0101372 19:0.00561564 20:0.103234 21:0.223745 22:0.000804236 23:0.0368726 24:0.0346953 25:0.0876791 26:0.0789568 27:0.133772 28:0.0109437 29:0.00624611 30:0.0340315 31:0.0549772 32:0.0452685 33:0.30375 34:0.0253458 35:0.161336 36:0.00900739 37:0.146071 38:0.120784 39:0.0693461 40:0.00993828 41:0.00308433 42:0.0120356 43:0.0866915 44:0.169305 45:0.206005 46:0.18692 47:0.0105203 49:0.0133086 50:0.443929 51:0.0565033 52:0.428189 53:0.399687 54:0.0185423 55:0.295435 56:0.0293292 57:0.0945498 58:0.000540568 59:0.12026 60:0.113184 61:0.086165 62:0.0655245 63:0.228522 64:0.138341 65:0.10726 66:0.246126 67:0.100941 68:0.000473649 69:0.268142 70:0.00674571 71:0.466412 72:0.00869735 73:0.121166 74:0.0284919 75:0.00771279 78:0.16527 79:0.0847565 80:0.194758 81:0.450148 82:0.0851586 83:0.16185 84:0.0120796 85:0.0646701 86:0.0767888 87:0.0100198 88:0.0198591 89:0.328681 90:0.0581001 91:0.143913 92:0.162061 93:0.169961 94:0.268243 95:0.190299 96:0.0018303 97:0.0191188 98:0.0213775 99:0.0440478 100:0.416494 102:0.00875871 103:0.011667 104:0.0038603 105:0.0679436 106:0.283654 107:0.179052 108:0.192596 109:0.0733065 110:0.0598507 111:0.0208052 112:0.180751 113:0.383287 114:0.48035 115:0.158098 116:0.469477 117:0.0827074 118:0.221027 119:0.296195 120:0.0103109 121:0.183256 122:0.0221424 123:0.0102472 124:0.084696 125:0.0869736 126:0.0703542 127:0.00933374 128:0.425306 129:0.00971495 130:0.0119474 131:0.0196744 132:0.101809 133:0.0395023 134:0.0985373 135:0.00988606 136:0.0630748 137:0.0540125 138:0.00503389 139:0.176212 140:0.00448232 141:0.162843 142:0.418453 143:0.0271588 144:0.012916 145:0.186181 146:0.0202737 147:0.0429731 148:0.24814 149:0.00777965 150:0.405153 151:0.508522 152:0.167637 153:0.0880186 154:0.1015 155:0.0460703 156:0.101626 157:0.0584094 158:0.0854761 159:0.407651 160:0.0146986 161:0.0611801 162:0.034669 163:0.341062 164:0.104783 165:0.165701 166:0.153004 167:0.173084 168:0.172993 169:0.197087 170:0.137885 171:0.149311 172:0.0333427 173:0.108992 174:0.109449 175:0.0207737 176:0.101788 177:0.0503215 178:0.0258506 179:0.0124414 180:0.00554385 181:0.100424 182:0.0576495 183:0.168735 184:0.00859662 185:0.168843 186:0.0902816 187:0.018559 188:0.0407054 189:0.0286022 190:0.0142428 191:0.066366 192:0.0823413 193:0.188072 194:0.0398387 195:0.126178 196:0.0703052 197:0.0632275 198:0.0155421 199:0.022822 200:0.0663023 201:0.241658 202:0.136408 203:0.0336165 204:0.0205937 205:0.188888 206:0.0771106 207:0.011808 208:0.119307 210:0.0416479 211:0.0206473 212:0.0043037 213:0.233026 214:0.223981 215:0.0721715 216:0.0433191 217:0.00654478 218:0.186492 219:0.0281177 220:0.0951885 221:0.100572 222:0.0428513 223:0.390705 224:0.242646 225:0.0421508 226:0.10953 227:0.0601613 228:0.0517239 229:0.122213 230:0.0119909 231:0.134658 232:0.0291733 233:0.0200655 234:0.0702677 235:0.0804499 236:0.0629507 237:0.00618784 238:0.11455 239:0.0406567 240:0.0491565 241:0.277809 242:0.405153 243:0.0274872 244:0.106003 245:0.0244106 246:0.0909037 247:0.251675 248:0.162582 249:0.352251 250:0.23914 251:0.204422 252:0.0728395 253:0.0357908 254:0.0164258 255:0.148579 256:0.112213 257:0.16239 258:0.0094758 259:0.0372006 260:0.299041 261:0.0695069 262:0.00554798 263:0.0697171 264:0.0100553 265:0.0673718 266:0.21918 267:0.0641591 268:0.035468 269:0.00986573 270:0.000836872 271:0.1188 272:0.0895435 273:0.296882 274:0.0194233 275:0.00383195 276:0.000936252 277:0.238645 278:0.00144534 279:0.409436 280:0.409436 281:0.189098 282:0.238972 283:0.0204019 284:0.00360299 285:0.0677358 286:0.245527 287:0.164862 288:0.192728 289:0.069548 290:0.0901551 291:0.043982 292:0.123375 293:0.271595 294:0.0139964 295:0.255316 296:0.00722693 297:0.170589 298:0.10544 299:0.0648723 300:0.397062 301:0.463744 302:0.22635 303:0.174795 304:0.131665 305:0.246317 306:0.0162438 307:0.265948 308:0.00400039 309:0.00868712 310:0.0321219 311:0.28329 312:0.00803925 313:0.000642547 314:0.415557 315:0.050743 316:0.084517 317:0.0612344 318:0.039575 319:0.382918 320:0.382918 321:0.0216725 322:0.0153856 323:0.0548506 324:0.0150492 325:0.117443 326:0.106253 327:0.105637 328:0.179968 329:0.0185571 330:0.0805856 331:0.0144966 332:0.118012 333:0.124362 334:0.105218 335:0.147551 336:0.041428 337:0.265177 338:0.198929 339:0.0583909 340:0.0147665 341:0.0341683 342:0.0231065 344:0.392234 345:0.265489 346:0.351431 347:0.106684 348:0.188262 349:0.216328 350:0.14979 351:0.00317483 352:0.211461 353:0.275172 354:0.299533 355:0.0752904 356:0.182023 357:0.0660414 358:0.0562873 359:0.24486 360:0.00548948 362:0.101055 363:0.550186 364:0.0471955 365:0.128958 366:0.100441 367:0.0804652 368:0.114804 369:0.210067 370:0.132458 371:0.22289 372:0.0702967 373:0.116196 374:0.196504 375:0.063534 376:0.0155201 377:0.0919776 378:0.00117646 379:0.407651 380:0.0103716 381:0.0530808 382:0.0781148 383:0.0257478 384:0.366238 385:0.202924 386:0.0973218 387:0.232724 388:0.0940848 389:0.136451 390:0.109284 391:0.330657 392:0.20711 393:0.0907776 394:0.181377 395:0.103488 396:0.199995 397:0.20369 398:0.0317132 399:0.0266286 400:0.005553 401:0.345276 402:0.000621541 403:0.000332365 404:0.0127462 405:0.00013375 406:0.0234253 407:0.0167864 408:0.0432707 409:0.0168679 410:0.0545722 411:0.041013 412:0.143111 413:0.0752158 414:0.336598 415:0.0135773 416:0.113379 417:0.274303 418:0.0649521 419:0.0876855 420:0.0721428 421:0.0416059 422:0.139697 423:0.0114306 424:0.0079545 425:0.00161812 426:0.353677 427:0.00147155 429:0.0669236 430:0.19189 431:0.113617 432:0.0445473 433:0.308071 434:0.00125464 435:0.185461 436:0.193902 437:0.332997 438:0.0946506 439:0.269356 440:0.244441 441:0.43276 442:0.152761 443:0.260247 444:0.218461 445:0.00378041 446:0.140143 447:0.103329 448:0.0358617 449:0.100531 450:0.0488456 451:0.261381 452:0.000731807 453:0.0027014 454:0.0149015 455:0.236519 456:0.033508 457:0.574954 458:0.115981 459:0.0618055 461:0.202853 462:0.0414192 463:0.0405657 464:0.418453 465:0.019612 466:0.025238 467:0.0944171 468:0.0797858 469:0.0150503 470:0.32795 471:0.00530039 472:0.0138767 473:0.0206615 474:0.00428737 475:0.00411072 477:0.00954299 479:0.0581337 480:0.46927 481:0.382486 483:0.120565 484:0.134031 485:0.0101372 486:0.0335849 487:0.148149 488:0.15799 489:0.0732226 490:0.000104211 491:0.206741 492:0.00524423 493:0.109229 494:0.193656 495:0.248305 496:0.112759 497:0.0165774 498:0.199429 499:0.221296 500:0.314461 501:0.215167 502:0.0323094 503:0.0491662 504:0.00964966 505:0.406959 506:0.00585756 508:0.0622532 509:0.103356 510:0.0124144 511:0.0299708 512:0.0371006 513:0.0367369 514:0.0373474 515:0.0376401 516:0.184467 517:0.318006 518:0.00751428 519:0.0304398 520:0.215764 521:0.231931 522:0.220923 523:0.0127015 524:0.0927931 525:0.0477328 526:0.00191963 527:0.313482 528:0.00823921 529:0.00371586 530:0.00355197 531:0.00747326 532:0.0195551 533:0.206109 534:0.00543643 535:0.00654339 536:0.0589341 537:0.0193353 538:0.0496892 539:0.224625 540:0.325034 541:0.0452135 542:0.00156799 543:0.140898 544:0.396115 545:0.0334166 546:0.116939 547:0.000940796 548:0.00435608 549:0.0329711 550:0.151642 551:0.0285113 552:0.00200941 553:0.0120948 554:0.00380943 555:0.0120426 556:0.113976 557:0.00808367 558:0.256832 559:0.108548 560:0.0464387 561:0.377032 562:0.409186 564:0.148352 565:0.0045805 566:0.0242775 567:0.0355366 568:0.188794 569:0.089281 570:0.113634 571:0.415557 573:0.303339 574:0.223359 575:0.13536 576:0.175891 577:0.119734 578:0.0677684 579:0.00075582 580:0.000107974 581:0.0858683 582:0.00226566 583:0.542918 584:0.359872 585:0.0683801 586:0.11829 587:0.109972 588:0.525161 589:0.450148 590:0.0159092 591:0.000906487 592:0.00420134 593:0.106685 594:0.26878 595:0.0766282 596:0.240211 597:0.0797741 598:0.375024 599:0.0175035 600:0.0349693 601:0.112463 602:0.0471946 603:0.302981 604:0.159695 605:0.238308 606:0.0224172 607:0.138026 609:0.108827 610:0.210897 612:0.428189 613:0.428189 614:0.114894 615:0.144824 616:0.0287438 617:0.119045 618:0.0139496 619:0.0528755 620:0.150311 621:0.114881 622:0.0279357 623:0.289958 624:0.0352373 625:0.108742 626:0.105205 627:0.217571 628:0.0972167 629:0.253272 630:0.0117766 631:0.0183589 632:0.00123755 633:0.027534 634:0.0337146 635:0.120597 636:0.192457 637:0.227188 638:0.0971846 639:0.016257 640:0.300639 641:0.0710383 642:0.181617 643:0.0954487 644:0.17539 645:0.116642 646:0.222193 647:0.0510845 648:0.0751161 649:0.0126656 650:0.00530022 652:0.407651 654:0.310488 655:0.16561 656:0.0811616 657:0.169882 658:0.284985 659:0.436552 660:0.432395 661:0.00372856 662:0.0773813 663:0.324004 664:0.0820915 665:0.253816 666:0.173512 667:0.067369 668:0.0133141 669:0.416512 670:0.390836 671:0.0102493 672:0.479714 673:0.62651 674:0.0225568 675:0.0497527 676:0.120729 677:0.0815588 678:0.404376 679:0.0624671 680:0.431021 681:0.0586916 682:0.0255265 683:0.48035 684:0.0355631 685:0.0375716 686:0.0953108 687:0.167376 688:0.202626 689:0.14063 690:0.0668952 691:0.127767 692:0.354812 693:0.0305166 694:0.130738 695:0.0453096 696:0.0346624 697:0.100652 698:0.0160921 699:0.145908 700:0.028665 701:0.0959229 702:0.3106 703:0.0414603 704:0.155557 705:0.422042 706:0.0568018 707:0.0710835 708:0.425687 709:0.0122504 710:0.208438 711:0.169631 712:0.397062 713:0.400668 714:0.0688312 715:0.0520765 716:0.0459201 717:0.0345683 718:0.147434 719:0.0183547 720:0.0692519 721:0.113744 722:0.275761 724:0.0824503 725:0.00555201 726:0.262613 727:0.301295 729:0.280771 730:0.00110063 731:0.117857 732:0.0765395 733:0.114963 734:0.382918 735:0.0275427 736:0.0295669 737:0.354708 738:0.0720103 739:0.0423627 740:0.0366893 741:0.0564906 742:0.0704715 743:0.082214 744:0.00470543 745:0.344781 746:0.0822594 747:0.214224 748:0.221741 749:0.0709322 750:0.0826268 751:0.00181108 752:0.571258 753:0.0695492 754:0.101339 755:0.410694 756:0.311999 757:0.11951 758:0.295131 759:0.155224 760:0.0160176 761:0.0794842 762:0.151492 763:0.208488 764:0.00198667 765:0.286674 766:0.00284371 767:0.0375453 768:0.0574436 769:0.00013608 770:0.390705 771:0.0451459 773:0.00456123 774:0.0751922 775:0.151864 776:0.0135104 777:0.0443947 778:0.114613 779:0.128462 780:0.210707 781:0.399687 782:0.013756 783:0.00996485 784:0.121348 785:0.0907239 786:0.0577433 787:0.0244043 788:0.00105479 789:0.0614651 790:0.0446404 791:0.0755899 792:0.0333705 793:0.0923448 794:0.350733 795:0.0145955 796:0.095808 797:0.192704 798:0.0508158 799:0.382516 800:0.124008 801:0.062576 802:0.405153 803:0.0207612 804:0.0525546 805:0.46927 806:0.0131532 809:0.158161 810:0.0798013 812:0.0925836 813:0.122664 814:0.0251845 815:0.117538 816:0.117314 817:0.336617 818:0.00623877 819:0.0129077 820:0.0228768 821:0.214394 822:0.0503531 823:0.0860193 824:0.0415079 825:0.0126893 826:0.216547 827:0.117984 828:0.19681 829:0.00513758 830:0.0139357 831:0.407651 832:0.0027078 833:0.342816 834:0.0163395 835:0.492513 836:0.00495272 837:0.0780243 838:0.388742 839:0.0801652 840:0.0311001 841:0.0249552 842:0.383044 843:0.0267668 844:0.208348 845:0.065338 846:0.231644 847:0.293141 848:0.0558776 849:0.194223 850:0.242315 851:0.144435 852:0.0326436 853:0.0144436 854:0.0354729 855:0.107137 856:0.175558 857:0.442901 858:0.000450647 859:0.0659999 861:0.420647 862:0.420647 863:0.111933 864:0.365652 865:0.118263 866:0.00427516 867:0.0411873 869:0.0103307 870:0.0109223 871:0.17201 872:0.0155906 873:0.0275673 874:0.0468993 875:0.0237355 876:0.0290639 877:0.0619858 878:0.212674 879:0.0759846 880:0.00468033 881:0.0160921 882:0.11178 883:0.0486555 884:0.00865498 885:0.00776336 887:0.233534 888:0.00774705 889:0.0269455 890:0.00990293 891:0.397062 892:0.0350805 893:0.0912437 894:0.0279477 895:0.298719 896:0.0135361 897:0.0452273 898:0.0583183 899:0.096632 900:0.177704 901:0.0334713 902:0.0644873 903:0.0103015 904:0.369967 905:0.0505821 906:0.0561254 907:0.00649623 908:0.0865004 909:0.310813 910:0.0155929 911:0.0809006 912:0.0565934 913:0.0283882 914:0.09242 915:0.0216508 916:0.0423261 917:0.318105 918:0.0102619 919:0.0141568 920:0.00782631 922:0.0265242 923:0.34359 924:0.0385862 925:0.0740316 926:0.0800724 927:0.00289775 928:0.158865 929:0.542918 930:0.0294835 931:0.0145757 932:0.140673 933:0.395514 934:0.218718 935:0.00141229 936:0.0722351 937:0.0124924 938:0.127426 939:0.0691514 940:0.0804302 941:0.0125581 942:0.00734091 944:0.0281743 945:0.00378041 947:0.0528881 948:0.0884702 949:0.15324 950:0.023953 951:0.235603 952:0.163248 953:0.0205755 954:0.381618 955:0.0464236 956:0.214488 957:0.00400429 958:0.165696 959:0.00400003 960:0.00118665 961:0.025822 962:0.390705 963:0.000327159 964:0.000158168 965:0.0994569 966:0.147263 967:0.00913612 968:0.00356687 969:0.00665591 970:0.325181 971:0.0391144 972:0.143078 973:0.265994 974:0.0928638 975:0.00264587 976:0.0324126 977:0.00798377 978:0.00333306 979:0.0568741 980:0.244171 981:0.382516 982:0.28186 983:0.180832 984:0.0644377 985:0.0436513 989:0.00394465 990:0.0754055 991:0.182664 992:0.258165 993:0.154241 994:0.33566 995:0.0276263 996:0.0125694 997:0.0259548 998:0.352251 999:0.0709863 1000:0.0379615 1001:0.118466 1002:0.175332 1003:0.0995855 1004:0.295377 1005:0.144972 1006:0.0846162 1007:0.114736 1008:0.0144631 1009:0.0012111 1010:0.0313361 1011:0.0459826 1013:0.00502514 1014:0.0029142 1015:0.0244845 1016:0.00854987 1017:0.16743 1018:0.0207248 1019:0.00242268 1020:0.0533906 1021:0.0346458 1022:0.0323898 1024:0.0736426 1025:0.0249725 1026:0.00824033 1027:0.00154925 1028:0.133401 1029:0.230655 1030:0.109576 1031:0.226538 1032:0.30865 1033:0.0194167 1034:0.308875 1035:0.0397395 1036:0.0840477 1037:0.0230352 1038:0.00256122 1039:0.0326823 1040:0.276047 1041:0.0267414 1042:0.162145 1043:0.0590389 1044:0.0859283 1045:0.00543643 1046:0.00238944 1047:0.409436 1048:0.0225356 1049:0.00169205 1050:0.00219301 1051:0.00171229 1052:0.0153511 1053:0.352185 1054:0.0753159 1055:0.0811798 1056:0.257272 1057:0.205569 1058:0.0814096 1059:0.0757068 1060:0.213018 1061:0.100671 1062:0.371526 1063:0.0214355 1064:0.10387 1065:0.034305 1066:0.135046 1067:0.0831812 1068:0.0182576 1069:0.372809 1070:0.425687 1071:0.00016414 1072:0.21732 1073:0.0205618 1074:0.166664 1075:0.0349876 1076:0.0887026 1077:0.0252941 1078:0.0958418 1079:0.328244 1080:0.0248721 1081:0.0602553 1082:0.0103079 1083:0.0275243 1084:0.0134372 1085:0.0335897 1086:0.0159599 1087:0.0281845 1088:0.273303 1089:0.105383 1090:0.0103436 1092:0.00727032 1093:0.0399574 1094:0.0717437 1095:0.0668273 1096:0.0326308 1097:0.181809 1098:0.00869668 1099:0.118327 1100:0.000757257 1101:0.147999 1102:0.0422064 1103:0.0166464 1104:0.062235 1105:0.00654478 1107:0.0639962 1108:0.0312177 1109:0.000899798 1110:0.121961 1111:0.116583 1112:0.00488512 1113:0.0621973 1114:0.0253835 1115:0.00283358 1116:0.01058 1118:0.0133529 1119:0.000472343 1120:0.0628983 1121:0.0548158 1122:0.0142525 1123:0.0561448 1125:0.0935279 1126:0.0554232 1127:0.111028 1128:0.0432139 1129:0.00294207 1130:0.146283 1131:0.348082 1132:0.202325 1133:0.0375007 1134:0.0680918 1135:0.153425 1136:0.0428585 1137:0.355019 1138:0.00549303 1139:0.0188044 1140:0.418453 1141:0.073429 1142:0.013856 1143:0.0575796 1144:0.0390135 1145:0.011181 1146:0.0125837 1147:0.127308 1148:0.0039462 1149:0.0653283 1150:0.0456419 1151:0.0804468 1152:0.143583 1153:0.0297443 1154:0.181933 1155:0.0943314 1156:0.0905627 1157:0.152275 1158:0.1448 1159:0.272404 1160:0.0400124 1161:0.0768027 1162:0.326438 1163:0.28688 1164:0.130107 1165:0.0834372 1166:0.443269 1167:0.0760549 1168:0.205094 1169:0.322528 1170:0.0237964 1171:0.0742197 1172:0.000416315 1173:0.223473 1174:0.0805543 1175:0.0442424 1176:0.0885328 1177:0.143876 1178:0.0390471 1179:0.513352 1180:0.0155906 1181:0.0905088 1182:0.0629093 1183:0.0214288 1184:0.178474 1185:0.420647 1187:0.420647 1188:0.00759851 1189:0.0107097 1190:0.00172376 1191:0.289993 1192:0.00660425 1193:0.057595 1194:0.0749961 1195:0.213526 1196:0.313719 1197:0.00507868 1198:0.486339 1199:0.0209943 1200:0.284402 1201:0.278344 1202:0.467365 1203:0.0841591 1204:0.100653 1205:0.146804 1206:0.0212422 1207:0.0113268 1208:0.0103392 1209:0.113133 1210:0.123137 1211:0.04396 1212:0.155397 1213:0.122503 1214:0.014943 1215:0.0480804 1216:0.0890218 1217:0.136367 1218:0.23266 1219:0.0222423 1220:0.223499 1221:0.066312 1222:0.420538 1223:0.0309648 1224:0.216157 1225:0.420538 1226:0.16016 1227:0.39412 1228:0.00115793 1229:0.00500677 1230:0.415557 1231:0.090097 1232:0.390554 1233:0.553326 1234:0.147327 1235:0.00870749 1236:0.03621 1237:0.253672 1238:0.315308 1239:0.133603 1240:0.0490781 1241:0.122419 1242:0.00180501 1243:0.156468 1244:0.225792 1245:0.163026 1246:0.0484766 1247:0.0195538 1248:0.126123 1249:0.203276 1250:0.153101 1251:0.370959 1252:0.141465 1253:0.113762 1254:0.117929 1255:0.100309 1256:0.260322 1257:0.541131 1258:0.0111557 1259:0.41582 1260:0.000426492 1261:0.00139286 1262:0.390705 1263:0.0131915 1264:0.390592 1266:0.101649 1267:0.0934682 1268:0.402586 1269:0.026944 1270:0.428189 1271:0.284695 1272:0.00116422 1273:0.329196 1274:0.0372456 1275:0.128446 1276:0.14686 1277:0.274853 1278:0.202501 1279:0.424841 1280:0.164858 1281:0.0284728 1282:0.0368975 1283:0.0155981 1284:0.0152516 1285:0.261876 1286:0.234886 1287:0.0215048 1288:0.355019 1289:0.0846763 1290:0.355019 1291:0.214757 1292:0.0228011 1293:0.00863754 1294:0.0856754 1295:0.137852 1296:0.288755 1297:0.0279508 1300:0.267405 1301:0.0291823 1302:0.46927 1303:0.234013 1304:0.121444 1305:0.0724209 1306:0.316074 1307:0.0328898 1308:0.121923 1309:0.216425 1310:0.0759148 1311:0.46131 1312:0.303779 1313:0.0073759 1314:0.184172 1315:0.32501 1316:0.00919035 1317:0.00294904 1318:0.0373138 1319:0.273583 1320:0.00109359 1322:0.000203517 1323:0.492513 1324:0.207047 1325:0.0146164 1326:0.522615 1327:0.00447308 1328:0.0282773 1329:0.0218098 1330:0.0199051 1331:0.0895848 1332:0.0734113 1333:0.102039 1334:0.110043 1335:0.191628 1336:0.0144643 1337:0.0871276 1338:0.063168 1339:0.18167 1340:0.00599806 1341:0.0621388 1342:0.431021 1343:0.0656621 1344:0.431021 1345:0.0302099 1346:0.014112 1347:0.0161665 1348:0.0178838 1349:0.0580013 1350:0.010884 1351:0.165222 1352:0.0282536 1353:0.173003 1354:0.145396 1355:0.0824816 1356:0.0203134 1358:0.0477312 1359:0.124658 1360:0.0178911 1361:0.0191948 1362:0.0186227 1363:0.0027082 1364:0.220554 1365:0.115039 1366:0.0434581 1367:0.00379542 1368:0.0940695 1369:0.00423288 1370:0.0712555 1371:0.0197218 1372:0.151578 1373:0.197534 1374:0.0592904 1375:0.0844688 1376:0.0418871 1377:0.146261 1378:0.329538 1379:0.0566191 1380:0.0202872 1381:0.181721 1382:0.177335 1383:0.182136 1384:0.510415 1385:0.158164 1386:0.0954744 1387:0.00479645 1388:0.0143608 1389:0.235005 1390:0.433261 1391:0.0271303 1393:0.393928 1394:0.0794917 1395:0.112875 1396:0.136993 1397:0.216379 1398:0.211888 1399:0.213273 1400:0.0108483 1401:0.12414 1402:0.279405 1403:0.126644 1404:0.267221 1405:0.0407358 1406:0.115614 1407:0.0310175 1408:0.0123969 1410:0.256823 1411:0.161949 1412:0.0555973 1413:0.210072 1414:0.376588 1415:0.0670724 1416:0.000903494 1417:0.0576283 1418:0.233328 1419:0.00598077 1420:0.34635 1421:0.0434976 1422:0.307057 1423:0.175815 1424:0.0111656 1425:0.157418 1426:0.0322036 1427:0.103525 1428:0.14696 1429:0.016259 1430:0.0111338 1431:0.161184 1432:0.0136012 1434:0.0205307 1435:0.237034 1436:3.61476e-006 1437:0.0164421 1438:0.102453 1439:0.0263914 1440:0.0280263 1441:0.0124341 1442:0.0249923 1443:0.148443 1444:0.138891 1445:0.307992 1446:0.423067 1447:0.0110548 1448:0.010997 1449:0.425687 1450:0.00595719 1451:0.281166 1452:0.000210221 1453:0.0504533 1454:0.139822 1455:0.386089 1456:0.0467508 1457:0.420538 1458:0.0657766 1459:0.0174004 1460:0.579329 1461:0.184761 1463:0.0069764 1464:0.0691102 1465:0.0114509 1466:0.267009 1467:0.302042 1468:0.144173 1469:0.134821 1470:0.00121199 1471:0.0334258 1472:0.167644 1473:0.0584152 1474:0.0209808 1475:0.00126724 1476:0.354283 1477:0.0853056 1478:0.0641699 1479:0.080749 1480:0.00756663 1481:0.0233653 1482:0.143357 1483:0.0112298 1484:0.206713 1485:0.191842 1486:0.00953845 1487:0.292377 1488:0.149144 1489:0.213795 1490:0.141672 1491:0.0772158 1492:0.0775552 1493:0.315445 1494:0.218395 1495:0.00511821 1496:0.0263526 1497:0.0391747 1498:0.259092 1499:0.00605106 
0.02517009293194412 0:0.0705094 1:0.068967 2:0.0218671 3:0.0393144 4:0.29716 5:0.0195807 6:0.00445322 7:0.0829937 8:0.132561 9:0.0397185 10:0.384605 11:0.128596 12:0.0194051 13:0.129499 14:0.00867265 15:0.061325 16:0.188425 17:0.108477 19:0.00546654 20:0.0052492 21:0.376208 22:0.0261841 23:0.0918257 24:0.145446 25:0.0366959 26:0.296241 27:0.0487043 28:0.08647 29:0.267548 30:0.0309213 31:0.0708937 32:0.00776497 33:0.151405 34:0.184028 35:0.104079 36:0.0650733 37:0.0462121 38:0.0944868 39:0.214666 40:0.00865036 41:0.0238054 42:0.010306 43:0.0607364 44:0.0169188 45:0.316201 46:0.00465199 47:0.0958341 48:0.00173098 49:0.0199213 50:0.272937 51:0.386688 52:0.0469812 53:0.0374794 54:0.125759 55:0.321456 56:0.0336696 57:0.000177146 58:0.0154128 59:0.23688 60:0.124296 61:0.472567 62:0.0665902 63:0.498432 64:0.122911 65:0.114195 66:0.174294 67:0.0507064 68:0.0093745 69:0.0564798 70:0.103143 71:0.0205367 72:0.0400476 73:0.0157352 74:0.315577 75:0.450348 76:0.0975327 77:0.00553975 78:0.00963779 79:0.125536 80:0.00179209 81:0.380316 82:0.173704 83:0.00344179 85:0.154391 86:0.506157 87:0.0212219 89:0.0881509 90:0.198509 91:0.269152 92:0.29998 93:0.000706588 94:0.21537 95:0.198013 96:0.240891 97:0.043195 98:0.118145 99:0.212623 100:0.377448 102:0.0297534 103:0.296931 104:0.00370555 105:0.18779 106:0.0417508 107:0.20862 108:0.184156 109:0.0421738 110:0.266429 111:0.0873722 112:0.236755 113:0.2129 114:0.130646 115:0.054817 116:0.14697 117:0.167336 118:0.00868984 119:0.00662724 120:0.445171 121:0.00984808 122:0.125505 123:0.126845 124:0.0589029 125:0.0582674 126:0.143701 127:0.0278955 128:0.00978787 129:0.043142 130:0.114972 131:0.0275996 132:0.0467526 133:0.0921069 134:0.143187 135:0.3548 136:0.0685047 137:0.238391 138:0.0338598 139:0.00499572 140:0.415595 142:0.208189 143:0.0975546 144:0.22213 145:0.0886745 146:0.141351 147:0.145276 148:0.278695 149:0.141614 150:0.246653 151:0.372503 152:0.228388 153:0.12014 154:0.18968 155:0.406522 156:0.169806 157:0.0769097 158:0.0869215 159:0.473354 160:0.0198191 161:0.0899205 162:0.0194679 163:0.0685048 164:0.050469 165:0.0572537 166:0.209338 167:0.0875835 168:0.129828 169:0.257936 170:0.100211 171:0.148166 172:0.0357565 173:0.0770519 174:0.0434732 175:0.105021 176:0.121205 177:0.041934 178:0.040039 179:0.298311 180:0.0683557 181:0.000566548 182:0.0342084 183:0.0310765 184:0.120759 185:0.315742 186:0.0821592 187:0.0222818 188:0.016197 189:0.193088 190:0.0374583 191:0.188812 192:0.420234 193:0.121675 194:0.0820954 195:0.006552 196:0.00241165 197:0.000114671 198:0.229054 199:0.14873 200:0.0305649 201:0.00458454 202:0.168593 203:0.065606 204:0.287425 205:0.0284891 206:0.0554469 207:0.0334794 208:0.0407782 210:0.069081 211:0.130132 212:0.433215 213:0.0823179 214:0.104538 215:0.455322 216:0.136391 217:0.01276 218:0.529185 219:0.0125953 220:0.154582 221:0.00465048 222:0.310365 223:0.189131 224:0.249041 225:0.0378501 226:0.000612092 228:0.0158057 229:0.0180412 230:0.0690517 231:0.43764 232:0.00455085 233:0.180876 234:0.0175835 235:0.115629 236:0.0234334 237:0.0224272 238:0.195642 239:0.0131642 240:0.0593692 241:0.134393 242:0.270969 243:0.0584135 244:0.372503 245:0.0416205 246:0.00522389 247:0.0310413 248:0.0966249 249:0.217136 250:0.10996 251:0.171453 252:0.0611331 253:0.254936 254:0.254451 255:0.0723959 256:0.226869 257:0.169148 258:0.0124258 259:0.0163681 260:0.35903 261:0.128452 262:0.0551857 263:0.102217 264:0.00702607 265:0.173999 266:0.0768948 267:0.24245 268:0.110078 269:0.0667266 270:0.100183 271:0.0615191 272:0.051568 273:0.50549 274:0.0430923 275:0.13093 276:0.00145125 277:0.156056 278:0.00822387 279:0.150172 280:0.0358562 281:0.127721 282:0.0556997 283:0.178086 284:0.0321524 285:0.00106423 286:0.0620482 287:0.0468545 288:0.10766 289:0.0549881 290:0.0149213 291:0.263243 292:0.052019 293:0.409829 294:0.0421977 295:0.0844487 296:0.221992 297:0.0479697 298:0.0384113 299:0.206289 300:0.252365 301:0.036351 302:0.0602236 303:0.171589 304:0.250606 305:0.00696587 306:0.171941 307:0.00645487 308:0.11907 309:0.261181 310:0.0494916 311:0.0803751 312:0.17045 313:0.00884234 314:0.0954383 315:0.41343 316:0.00163313 317:0.00317933 318:0.00820197 319:0.39674 320:0.421758 321:0.145814 322:0.00411137 323:0.152009 324:0.0685934 325:0.145394 326:0.228278 327:0.102609 328:0.559497 329:0.0150927 330:0.0238165 331:0.00403195 332:0.0225875 333:0.159028 334:0.0481633 335:0.00875222 336:0.458156 337:0.0074556 338:0.00595503 340:0.00543662 341:0.000252187 342:0.0173111 343:0.0498235 344:0.400827 345:0.102442 346:0.00431569 347:0.027477 348:0.00349649 349:0.00342452 350:0.379089 351:0.00203438 352:0.352331 353:0.251924 354:0.078963 355:0.310073 356:0.0372183 357:0.22199 358:0.0278058 359:0.118282 360:0.184711 361:0.00530223 362:0.432821 363:0.0457773 364:0.00694327 365:0.00561501 366:0.0540256 367:0.0582241 368:0.0863101 369:0.0858183 370:0.1329 371:0.124485 372:0.0567963 373:0.0318943 374:0.13696 375:0.0201663 376:0.0700067 377:0.231264 378:0.00948437 379:0.0292427 380:0.0281108 381:0.19334 382:0.258924 383:0.0437068 384:0.216216 385:0.133526 386:0.10909 387:0.207905 388:0.111134 389:0.211843 390:0.105034 391:0.106026 392:0.158321 393:0.165757 394:0.146556 395:0.225502 396:0.382954 397:0.180079 398:0.0873493 399:0.170162 400:0.121874 401:0.332756 402:0.0705226 403:0.0288076 404:0.0266828 405:0.0373701 406:0.0062393 407:0.12346 408:0.0613631 409:0.164012 410:0.313038 411:0.00588448 412:0.134603 413:0.00476892 414:0.00695135 415:0.00259191 416:0.386623 417:0.445636 418:0.0193437 419:0.00366438 420:0.0796143 421:0.0548413 422:0.0928831 423:0.0223902 424:0.0965396 425:0.462326 426:0.371389 427:0.0319199 429:0.170565 430:0.0655902 431:0.324782 432:0.505219 433:0.0418975 434:0.400163 435:0.0054859 436:0.0303707 437:0.00449803 438:0.00249086 439:0.0361297 440:0.0233467 441:0.008255 442:0.0926291 443:0.178705 444:0.0527049 445:0.0703133 446:0.346638 447:0.0115108 448:0.044387 449:0.00942457 450:0.37218 451:0.243191 452:0.400827 453:0.119744 454:0.152753 455:0.0155737 456:0.260951 457:0.0528886 458:0.379455 461:0.276394 462:0.238986 463:0.0234347 464:0.124743 465:0.0684678 466:0.0830698 467:0.234848 468:0.0515795 469:0.0312925 470:0.519162 471:0.212506 472:0.236638 473:0.10303 474:0.0429546 475:0.0672822 476:0.00558258 477:0.0311744 478:0.0112994 479:0.432821 480:0.432821 481:0.0173795 483:0.0149813 485:0.0340832 486:0.0502012 487:0.0100164 488:0.0255326 489:0.00871009 491:0.216276 492:0.00457309 493:0.0297558 494:0.201418 495:0.0507927 496:0.125718 497:0.160317 498:0.0950084 499:0.216981 500:0.0622762 501:0.0993166 502:0.0226187 503:0.0608578 504:0.0397665 505:0.130708 506:0.0125639 507:0.00607546 508:0.120416 509:0.024864 510:0.192407 511:0.00732467 512:0.186713 513:0.204334 514:0.13924 515:0.182572 516:0.32637 517:0.220028 518:0.0633342 519:0.147097 520:0.264351 521:0.0364777 522:0.145086 523:0.104139 524:0.154792 525:0.187134 526:0.185476 527:0.251427 528:0.0320913 529:0.0833528 530:0.148736 531:0.137719 532:0.0899607 533:0.227423 534:0.282783 535:0.00495584 536:0.067949 537:0.0549827 538:0.173077 539:0.147403 540:0.015063 541:0.00203437 542:0.145373 543:0.0296912 544:0.0430026 545:0.530312 546:0.00605624 547:0.530312 548:0.218816 549:0.265077 550:0.0529611 551:0.33277 552:0.0191763 553:0.104948 554:0.462326 555:0.00449933 556:0.0838114 557:0.241511 558:0.0230491 559:0.0126987 560:0.0812435 561:0.028507 562:0.126564 563:0.510474 564:0.0369494 565:0.224652 566:0.0657286 567:0.0390793 568:0.0896176 569:0.168079 570:0.0937808 571:0.125124 572:0.0208302 573:0.326935 574:0.180421 575:0.012494 576:0.0901299 577:0.00781207 578:0.000784019 581:0.0502578 582:0.0260099 583:0.421163 584:0.00957728 585:0.0766441 586:0.0376424 587:0.0650773 588:0.0414554 589:0.122606 590:0.244545 591:0.000767372 592:0.00203189 593:0.012086 594:0.529185 595:0.00823523 596:0.0153223 597:0.0482928 598:0.0721767 599:0.00911317 600:0.458156 601:0.00676147 603:0.02076 604:0.00679959 605:0.37218 606:0.0424092 607:0.0900082 608:0.400827 609:0.0558155 610:0.0105614 611:0.415595 612:0.302231 613:0.370636 614:0.00792626 615:0.0652181 616:0.0244274 617:0.315772 618:0.209791 619:0.00673515 620:0.00105899 621:0.188307 622:0.00354548 623:0.176553 624:0.316226 625:0.0755083 626:0.103646 627:0.119119 628:0.169816 629:0.0973245 630:0.108236 631:0.0139268 632:0.0367703 633:0.0181026 634:0.00591503 635:0.0487727 636:0.00113526 637:0.0165635 638:0.000439214 639:0.0532193 640:0.471497 641:0.0199923 642:0.0893707 643:0.022514 644:0.104828 645:0.283062 646:0.195366 647:0.0294001 648:0.467246 649:0.0085866 650:0.0098665 651:0.000442662 652:0.473354 654:0.0771246 655:0.31338 656:0.205453 657:0.20622 658:0.224213 659:0.205233 660:0.0896898 662:0.0566857 663:0.200714 664:0.141499 665:0.221235 666:0.0422848 667:0.0834083 668:0.0716407 669:0.37442 670:0.246606 671:0.0321284 672:0.261259 673:0.567403 674:0.0704136 675:0.240083 676:0.320498 677:0.143786 678:0.196782 679:0.0013537 680:0.374168 681:0.206975 682:0.232431 683:0.0996964 684:0.609721 685:0.0679247 686:0.323271 687:0.0544048 688:0.0217544 689:0.0635596 690:0.0703453 691:0.0141975 692:0.132547 693:0.0384237 694:0.0427909 695:0.0556289 696:0.00624686 697:0.0405998 698:0.115163 699:0.0127032 700:0.00548245 701:0.0704372 702:0.192607 703:0.0168035 704:0.0926322 705:0.206312 706:0.0438833 707:0.0430969 708:0.00848061 709:0.0237466 710:0.016137 711:0.106646 712:0.362317 713:0.0690433 714:0.111131 715:0.154351 716:0.00623459 717:0.00501617 718:0.015081 719:0.0811246 720:0.0802627 721:0.24078 722:0.11836 723:0.274748 724:0.0778459 725:0.0817643 726:0.236595 727:0.515942 728:0.253622 729:0.230844 730:0.203677 731:0.0116467 732:0.0219458 733:0.00074278 734:0.242883 735:6.90798e-005 736:0.110777 737:0.130237 738:0.0107288 739:0.0265576 740:0.0165074 741:0.0690637 742:0.0891493 743:0.0580932 744:0.0945944 745:0.0613036 746:0.0987725 747:0.00155709 749:0.0218372 750:0.0704845 751:0.000251747 752:0.0726123 753:0.187403 754:0.0194393 755:0.173211 756:0.00269944 757:0.0869098 758:0.00499572 759:0.0110568 760:0.0202649 761:0.458156 762:0.458156 765:0.386688 767:0.17426 768:0.29401 770:0.37218 771:0.071398 772:0.400827 773:0.37323 774:0.00477975 775:0.0681414 776:0.0500284 777:0.00929297 778:0.0307689 779:0.44457 780:0.000722478 781:0.0276621 782:0.0570767 783:0.44017 784:0.431562 785:0.584068 786:0.0411092 787:0.212003 788:0.00288067 789:0.506157 790:0.192981 791:0.0016333 792:0.0270231 793:0.0755849 794:0.379455 795:0.101296 796:0.133439 797:0.055776 798:0.115177 799:0.252083 800:0.0219804 801:0.0126238 802:0.397683 803:0.459082 804:0.00488844 805:0.0510003 806:0.00267731 808:0.175768 809:0.179861 814:0.0170392 815:0.141674 816:0.142846 817:0.378909 818:0.00656755 819:0.00930753 820:0.0174294 821:0.0247218 822:0.046706 823:0.126368 824:0.155122 825:0.24148 826:0.218831 827:0.406394 828:0.159647 829:0.154963 830:0.0135647 831:0.0311489 832:9.0028e-005 833:0.0656433 834:0.00780326 835:0.407129 836:0.0102416 837:0.111677 838:0.339657 839:0.274951 840:0.34467 841:0.00940362 842:0.498432 843:0.0112345 844:0.275132 845:0.10616 846:0.333598 847:0.0281673 848:0.108789 849:0.158976 850:0.13509 851:0.164137 852:0.0529661 853:0.0636191 854:0.0742946 855:0.203286 856:0.0511913 857:0.25774 858:0.00203136 859:0.135997 860:0.0111181 861:0.384605 862:0.143067 863:0.0978991 864:0.0594152 865:0.0267009 866:0.0381974 867:0.0900683 868:0.364283 869:0.0062393 870:0.0342848 871:0.168027 872:0.00243371 873:0.0305438 874:0.119062 875:0.0472677 876:0.0505686 877:0.185426 878:0.0329996 879:0.0340681 880:0.113699 881:0.0592772 882:0.333903 883:0.127974 884:0.00634457 885:0.145204 886:0.462326 887:0.0584377 888:0.0152833 889:0.0685313 890:0.0149873 891:0.3058 892:0.00822504 893:0.253773 894:0.0792346 895:0.0515769 896:0.176544 897:0.14535 898:0.00400178 899:0.0914457 900:0.123076 901:0.268636 902:0.369556 903:0.288006 904:0.00431492 905:0.00196741 906:0.0220127 907:0.102003 908:0.116696 909:0.227901 910:0.0792436 911:0.0906492 912:0.0784145 913:0.0256887 914:0.0988636 915:0.0637226 916:0.472436 917:0.162307 918:0.00243855 919:0.0430577 920:0.0386471 922:0.0143162 923:0.421758 924:0.112767 925:0.0882616 926:0.00100943 927:0.00664624 928:0.421163 929:0.421163 930:0.151499 931:0.0333513 932:0.194235 933:0.0138876 934:0.0241931 935:0.361628 936:0.09288 937:0.137697 938:0.519873 939:0.0628508 940:0.0460164 941:0.0425009 942:0.00327838 943:0.00682601 944:0.0334855 945:0.0345474 946:0.00812646 947:0.0231468 948:0.049877 949:0.0400295 950:0.185859 951:0.0472022 952:0.0304653 953:0.06432 954:0.386688 956:0.386688 958:0.37218 959:0.00112416 961:0.37218 962:0.13308 963:0.0549857 964:0.215113 965:0.123922 966:0.223798 967:0.029575 968:0.0086101 969:0.0626763 970:0.0939782 971:0.176536 972:0.0384071 973:0.506157 974:0.0731293 975:0.0387409 976:0.0524687 977:0.0461743 978:0.191566 979:0.15876 980:0.193618 981:0.247202 982:0.0842551 983:0.161536 984:0.169843 985:0.10567 987:0.0689827 988:0.185061 989:0.025788 990:0.0598692 991:0.101059 992:0.372503 993:0.275484 994:0.0302333 995:0.0102577 996:0.0030745 997:0.0538898 998:0.242258 999:0.206104 1000:0.252702 1001:0.0777415 1002:0.0740236 1003:0.117411 1004:0.128376 1005:0.114444 1006:0.142401 1007:0.357833 1008:0.0117263 1009:0.00519121 1010:0.0283511 1011:0.0859998 1013:0.000113403 1015:0.000113403 1016:0.016963 1017:0.246812 1018:0.0288055 1019:0.000829375 1020:0.00762361 1021:0.209605 1022:0.00760103 1023:0.0177312 1024:0.0059644 1025:0.0740174 1026:0.0206482 1027:0.0168197 1028:0.183307 1029:0.0593692 1030:0.0615934 1031:0.268738 1032:0.281844 1033:0.131125 1034:0.183056 1035:0.10529 1036:0.0507333 1037:0.0468308 1038:0.0154144 1039:0.16391 1040:0.0551483 1041:0.273808 1042:0.384605 1043:0.135232 1044:0.340576 1045:0.0351411 1046:0.11499 1047:0.12407 1048:0.0156288 1049:0.00773697 1052:0.0367754 1053:0.0888762 1054:0.0762849 1055:0.087313 1056:0.0351927 1057:0.116143 1058:0.0465141 1059:0.0198283 1060:0.011051 1061:0.00529604 1062:0.00423528 1063:0.113701 1064:0.0304661 1065:0.0250743 1066:0.339377 1067:0.266523 1068:0.0390192 1069:0.151774 1070:0.0724495 1072:0.117136 1073:0.225647 1074:0.38958 1075:0.338314 1076:0.335838 1077:0.0805501 1078:0.119792 1079:0.100875 1080:0.0883113 1081:0.138407 1082:0.060137 1083:0.0539613 1084:0.0275127 1085:0.39501 1086:0.0299503 1087:0.0434908 1088:0.0136255 1089:0.00615597 1090:0.0429937 1092:0.0253765 1093:0.00694383 1094:0.407539 1095:0.025621 1097:0.421163 1098:0.0709981 1099:0.436397 1100:0.425331 1101:0.0155026 1102:0.0193506 1103:0.0760806 1104:0.0696128 1105:0.0167383 1106:0.0282388 1107:0.102853 1108:0.00758291 1109:0.00159283 1110:0.0282236 1113:0.00298054 1114:0.0316471 1118:0.00200502 1119:0.0173258 1120:0.0186219 1121:0.00725239 1122:0.0563628 1123:0.01391 1124:0.252312 1125:0.0463374 1126:0.0570117 1127:0.516564 1128:0.255824 1129:0.109035 1130:0.00800871 1131:0.0404238 1133:0.14518 1134:0.00618362 1135:0.00618362 1136:0.100579 1137:0.0179191 1139:0.0115843 1140:0.438796 1141:0.0860369 1142:0.0208472 1143:0.100264 1144:0.118495 1145:0.0292465 1146:0.12976 1147:0.180799 1148:0.0706445 1149:0.137473 1150:0.187358 1151:0.432821 1152:0.112463 1153:0.346486 1154:0.340635 1155:0.0711964 1158:0.300285 1159:0.376208 1160:0.120986 1161:0.138297 1162:0.195964 1163:0.215388 1164:0.0841095 1165:0.173909 1166:0.169965 1167:0.161989 1168:0.0174996 1169:0.407129 1170:0.00761853 1171:0.178478 1172:0.000923346 1173:0.147466 1174:0.112432 1175:0.0535373 1176:0.0205708 1177:0.323381 1178:0.127301 1179:0.231793 1180:0.133192 1181:0.225 1182:0.168781 1183:0.0716749 1184:0.0583574 1185:0.384605 1186:0.00737367 1187:0.153232 1188:0.0372781 1189:0.226076 1191:0.115374 1192:0.0239133 1193:0.114031 1194:0.50078 1195:0.567979 1196:0.439014 1197:0.0591625 1198:0.0117695 1199:0.00832403 1200:0.00728354 1201:0.0179797 1203:0.00434687 1204:0.0418836 1205:0.160963 1206:0.0476818 1207:0.434697 1208:0.0206011 1209:0.0749356 1210:0.142862 1211:0.0820759 1212:0.0635418 1213:0.0486699 1214:0.153123 1215:0.0478355 1216:0.216927 1217:0.0580204 1218:0.103584 1219:0.0456403 1220:0.00286125 1221:0.00634276 1222:0.00700903 1223:0.131655 1224:0.0262467 1225:0.0676419 1226:0.0774137 1227:0.0262997 1228:0.0175298 1229:0.0207866 1230:0.111036 1231:0.154656 1232:0.0252302 1233:0.00418524 1234:0.0061905 1235:0.103177 1236:0.153832 1237:0.313111 1238:0.238919 1239:0.0148382 1240:0.0253896 1241:0.0158179 1242:0.111697 1243:0.00889127 1244:0.0143762 1245:0.0622925 1246:0.483157 1247:0.152437 1248:0.0134771 1249:0.00710909 1250:0.0742213 1251:0.206003 1252:0.0263784 1253:0.00377952 1254:0.00196436 1256:0.13546 1257:0.386688 1258:0.00718321 1259:0.323249 1261:0.0005267 1262:0.238792 1263:0.052171 1264:0.0756885 1266:0.0271801 1267:0.0490516 1268:0.105077 1269:0.100818 1270:0.213992 1271:0.0601962 1272:0.0104278 1273:0.0167992 1274:0.0327705 1275:0.0610853 1276:0.0378764 1277:0.0388785 1278:0.0436971 1279:0.0314225 1280:0.0351564 1281:0.0285359 1282:0.00861628 1284:0.322419 1285:0.037472 1286:0.0795079 1288:0.0626433 1289:0.343911 1290:0.0730956 1291:0.108861 1292:0.139701 1293:0.204345 1294:0.181299 1295:0.21326 1296:0.0548654 1297:0.0355833 1298:0.0509517 1299:0.00204432 1300:0.113355 1301:0.0150947 1302:0.112495 1303:0.0371635 1304:0.0128617 1305:0.0168262 1306:0.365979 1307:0.0287098 1308:0.0599274 1309:0.0517175 1310:0.0975906 1311:0.0673068 1312:0.117556 1313:0.0500596 1314:0.0871651 1315:0.122214 1316:0.0474846 1317:0.0216468 1318:0.103639 1319:0.407129 1320:0.000793821 1322:0.0130435 1323:0.407129 1324:0.205186 1325:0.156521 1326:0.144529 1327:0.0358257 1328:0.00811396 1329:0.0161349 1330:0.0664781 1331:0.163177 1332:0.256648 1333:0.0290287 1334:0.101117 1335:0.0699061 1336:0.0299347 1337:0.116765 1338:0.180217 1339:0.0938195 1340:0.176386 1341:0.291622 1342:0.493963 1343:0.120609 1344:0.505492 1345:0.105317 1346:0.0412253 1347:0.0977178 1348:0.121493 1349:0.0264701 1350:0.143249 1351:0.047169 1352:0.0158179 1353:0.240101 1354:0.0145487 1355:0.072118 1356:0.0676775 1357:0.0422168 1358:0.243237 1359:0.0178409 1360:0.109864 1361:0.191163 1362:0.329855 1363:0.0166605 1364:0.25447 1365:0.103154 1366:0.066353 1367:0.163447 1368:0.348807 1369:0.0375166 1370:0.0780257 1371:0.472436 1372:0.294833 1373:0.0061905 1374:0.0958124 1375:0.0131614 1376:0.0238059 1377:0.0131751 1378:0.0398525 1379:0.0443134 1380:0.204539 1381:0.0644162 1382:0.559497 1383:0.000959493 1384:0.0201347 1385:0.0110568 1386:0.0140254 1387:0.0668246 1388:0.0061652 1389:0.0742619 1390:0.249515 1391:0.0049002 1392:0.119156 1393:0.21497 1394:0.0238777 1395:0.0421926 1396:0.00349649 1397:0.00430658 1398:0.0044858 1400:0.0234334 1401:0.0204293 1402:0.0243606 1403:0.196191 1404:0.269061 1405:0.0616109 1406:0.0891763 1407:0.0764087 1408:0.13215 1409:0.0260774 1410:0.0541621 1411:0.372503 1412:0.000114199 1413:0.136258 1414:0.362298 1415:0.0134195 1417:0.123128 1418:0.174915 1419:0.0826797 1420:0.200414 1421:0.172869 1422:0.0264963 1423:0.0651777 1424:0.00109793 1425:0.217169 1426:0.0786838 1427:0.0831819 1428:0.194218 1429:0.012072 1430:0.0705099 1431:0.134267 1432:0.036503 1433:0.0168677 1434:0.177707 1435:0.237249 1436:0.143172 1437:0.0628625 1438:0.14994 1439:0.177566 1440:0.281642 1441:0.0955242 1442:0.367993 1443:0.445636 1444:0.0336405 1445:0.219028 1446:0.0719008 1447:0.0677206 1448:0.0428281 1449:0.00992354 1450:0.0360394 1451:0.0126176 1452:0.00456662 1453:0.0589399 1454:0.263633 1455:0.0426344 1456:0.172024 1457:0.0451841 1458:0.0204034 1459:0.140264 1460:0.251327 1461:0.544592 1463:0.000312899 1464:0.0861366 1466:0.0443083 1467:0.0143097 1468:0.00548558 1469:0.13969 1470:0.00184772 1471:0.0111498 1472:0.0861575 1473:0.00439257 1475:0.00206123 1476:0.37218 1477:0.0353571 1478:0.102164 1479:0.238695 1480:0.224312 1481:0.0145928 1482:0.0033909 1483:0.115222 1484:0.0244676 1485:0.0044858 1487:0.109827 1488:0.379455 1489:0.146496 1490:0.0994287 1492:0.110987 1493:0.376208 1494:0.463311 1495:0.0173549 1496:0.301214 1497:0.0876279 1498:0.0735893 1499:0.473354 
